~o
<STREAMINFO> 1 39
<VECSIZE> 39<NULLD><MFCC_D_A_0><DIAGC>
~h "a"
<BEGINHMM>
<NUMSTATES> 5
<STATE> 2
<MEAN> 39
 -8.090572e+000 -1.534150e+001 -6.781245e+000 -1.029357e+001 2.750628e+000 -6.167864e+000 2.782552e+000 -6.814320e+000 7.306211e+000 -3.724772e+000 -1.142465e+001 -4.739652e+000 8.283331e+001 -4.619931e-002 -3.471465e-002 3.214631e-001 1.634534e-001 -1.412473e-001 -3.780441e-001 -3.122164e-002 6.409147e-002 2.021212e-001 -2.649441e-001 3.079849e-001 2.068543e-001 -5.849633e-002 7.085215e-002 4.262147e-002 5.464608e-002 -3.637795e-002 -6.621288e-002 2.244376e-002 -2.102489e-002 9.761409e-002 -1.389829e-002 2.767132e-002 -1.136856e-002 -4.983323e-002 -7.170778e-002
<VARIANCE> 39
 4.743210e-001 1.629161e+000 1.915174e+001 4.135853e+000 2.528638e+001 6.343770e+000 2.205432e+000 1.827090e+001 7.482756e+000 3.491905e+000 5.289431e+000 5.031419e+000 1.093573e+000 9.667928e-002 2.442461e-002 7.555722e-002 8.261311e-002 1.348178e-001 6.275944e-002 1.737643e-001 3.862540e-001 7.095330e-002 4.493760e-002 1.374393e-001 1.056910e-001 9.673057e-002 2.082174e-003 2.880168e-003 8.497373e-003 6.452177e-003 1.138765e-002 1.093425e-002 2.848237e-002 2.054865e-002 1.912657e-002 2.007875e-002 1.729346e-002 1.090533e-002 4.068455e-003
<GCONST> 6.966853e-002
<STATE> 3
<MEAN> 39
 -6.052468e+000 -1.262467e+001 2.469340e+000 -1.051166e+001 -5.772201e+000 -8.342256e+000 2.643822e+000 -2.707554e-001 4.927175e+000 -4.630187e+000 -6.155826e+000 -3.361639e+000 7.853623e+001 8.317527e-001 7.995702e-001 1.135371e+000 -7.381543e-003 -5.204533e-001 4.697805e-001 2.800724e-002 -4.930628e-002 -1.622800e-001 -4.122211e-001 8.403861e-001 6.979188e-002 -1.219394e+000 5.899632e-002 1.559990e-001 1.735075e-001 2.505844e-001 1.614531e-001 2.043598e-001 -4.051386e-002 -1.354116e-001 -1.589348e-001 4.982742e-002 1.242505e-001 1.225977e-001 -2.739963e-001
<VARIANCE> 39
 8.042260e+000 3.536331e+000 4.485814e+001 1.425438e+001 6.035251e+001 5.170765e+000 5.362071e+000 2.097261e+001 5.590462e+001 3.321287e+001 1.462729e+001 4.101952e+000 5.104107e+000 3.861536e-001 7.147387e-001 2.070110e-001 1.086390e+000 2.295233e-001 1.176735e+000 8.195438e-001 2.174016e-001 5.941158e-001 2.064681e+000 2.375001e-001 2.637876e-001 8.961164e-001 6.168454e-002 6.314744e-002 2.100219e-002 7.279785e-002 1.121384e-001 7.397798e-002 1.202097e-001 3.093672e-002 6.046799e-002 3.236915e-001 5.554246e-002 2.118049e-002 6.067690e-002
<GCONST> 6.081463e+001
<STATE> 4
<MEAN> 39
 -1.433858e+000 -5.745873e+000 3.779833e+000 1.384355e+000 5.906822e+000 3.533661e+000 3.338839e+000 -1.006356e+000 6.085471e+000 -6.784060e+000 -6.709559e+000 -3.737592e+000 6.254496e+001 -3.420683e-001 5.206276e-001 5.701202e-003 9.133665e-001 6.311660e-001 1.129915e+000 5.038135e-001 1.115427e+000 -1.272219e+000 1.308561e+000 -4.759083e-001 1.954994e-001 -2.023983e+000 -1.441030e-001 -2.565030e-001 -4.095878e-001 -3.332600e-001 -2.088977e-001 -9.651048e-002 1.080092e-001 7.163788e-002 -1.858432e-002 5.982765e-002 -1.982183e-001 1.158570e-001 2.060526e-001
<VARIANCE> 39
 3.754956e+000 4.349284e+000 1.594361e+001 3.211143e+001 4.723166e+001 3.628687e+001 5.184618e+000 3.676242e+001 2.822389e+001 3.606612e+001 1.806905e+001 8.258647e+000 3.254385e+001 1.547527e-001 5.939233e-001 2.007756e+000 2.826342e+000 3.810522e+000 2.877183e+000 3.392910e-001 2.918882e+000 2.039694e-001 1.161003e+000 2.019873e+000 1.912948e+000 4.583964e-001 1.019405e-001 1.247913e-001 9.006422e-002 3.122878e-001 7.121528e-001 5.657087e-001 7.048442e-003 7.222538e-001 7.934853e-002 5.584881e-001 4.791226e-001 4.401528e-001 9.550954e-003
<GCONST> 8.623495e+001
<TRANSP> 5
 0.000000e+000 1.000000e+000 0.000000e+000 0.000000e+000 0.000000e+000
 0.000000e+000 9.300857e-001 6.991436e-002 0.000000e+000 0.000000e+000
 0.000000e+000 0.000000e+000 8.428525e-001 1.571475e-001 0.000000e+000
 0.000000e+000 0.000000e+000 0.000000e+000 8.235294e-001 1.764706e-001
 0.000000e+000 0.000000e+000 0.000000e+000 0.000000e+000 0.000000e+000
<ENDHMM>
~h "b"
<BEGINHMM>
<NUMSTATES> 5
<STATE> 2
<MEAN> 39
 1.894411e+000 -8.391690e-001 5.575349e+000 -6.017992e+000 -7.026379e+000 -2.508039e+000 -9.007873e+000 -8.856594e+000 -1.307838e+001 -1.584810e+000 -1.108140e+000 -9.284255e+000 6.324891e+001 -8.243369e-001 -1.390998e+000 -3.021829e+000 -2.976938e+000 4.548959e-001 -3.525518e-001 8.133963e-001 1.656680e+000 2.863205e+000 -1.331797e+000 -1.222204e+000 -3.427356e-001 3.399984e+000 -4.510726e-001 -2.328406e-001 -4.451869e-001 -3.320003e-001 1.699754e-001 7.137566e-001 1.403693e-002 -1.278641e-001 3.525583e-001 2.553758e-001 1.003137e-001 -2.729539e-001 6.693518e-001
<VARIANCE> 39
 1.440783e+000 1.059983e+001 2.332006e+001 3.223034e+001 4.360955e+001 1.213717e+001 9.750718e+000 5.175358e+001 4.360174e+001 9.791576e+001 1.411295e+001 5.372394e+000 2.007706e+001 8.322338e-001 4.756616e+000 4.985157e+000 6.303036e+000 9.828104e-001 2.026656e+000 9.695177e-001 1.907097e+000 2.954816e+000 4.860610e+000 3.236635e+000 1.382103e+000 7.687624e+000 7.743727e-002 9.622467e-002 6.192496e-001 1.599684e+000 1.735355e-001 3.977546e-001 2.027425e-001 3.263939e-001 2.634534e-001 1.475964e+000 1.083475e+000 3.018493e-001 9.180061e-001
<GCONST> 1.090921e+002
<STATE> 3
<MEAN> 39
 -3.881360e+000 -8.515995e+000 -7.482558e+000 -1.922152e+001 -3.269833e+000 1.196979e+000 -5.534141e+000 -3.945704e+000 1.044795e+000 -1.381898e-001 -5.910484e+000 -1.197547e+001 7.929716e+001 -1.595542e+000 -2.005119e+000 -2.142069e+000 -3.036618e+000 -5.954667e-001 1.211617e+000 9.180514e-001 2.109098e+000 2.020527e+000 -4.205256e-001 -2.368184e-001 -1.209550e-001 3.627459e+000 2.170710e-001 6.106111e-001 1.113878e+000 9.766763e-001 -2.140954e-001 -2.458315e-001 1.501907e-001 -1.412875e-001 -1.073785e+000 -1.385627e-001 2.491429e-001 6.281454e-001 -1.167532e+000
<VARIANCE> 39
 2.880303e+000 3.517712e+001 6.182534e+000 3.230108e+001 9.384389e+001 2.221632e+001 5.269128e+001 6.289080e+000 5.085557e+001 8.717588e+001 1.679109e+002 7.144624e+000 9.608597e+000 5.448881e-001 1.331491e+000 5.048103e+000 1.192744e+001 2.373127e+000 5.701010e+000 3.424920e+000 2.177890e+000 2.460303e+000 7.855470e+000 1.327873e+001 1.374372e+000 5.308883e+000 4.191778e-002 3.265033e-001 1.961325e-001 1.200626e+000 7.015920e-001 3.306400e-001 2.869952e-001 3.715156e-001 7.052968e-002 7.983342e-001 1.580922e+000 1.567243e-001 3.972215e-001
<GCONST> 1.140812e+002
<STATE> 4
<MEAN> 39
 -5.631966e+000 -1.157270e+001 -8.749021e+000 -1.883102e+001 -1.683357e+000 1.375604e+000 -7.373143e-001 -2.305484e+000 3.009672e+000 -1.433397e+000 -8.821901e+000 -9.850667e+000 8.182172e+001 -8.281133e-001 -1.275094e-001 -6.225673e-002 1.028304e-001 5.339938e-001 -1.883754e-001 1.307553e+000 1.625629e-001 -2.116263e-001 -9.050640e-001 1.118940e-001 1.279748e+000 6.499814e-001 1.735544e-001 6.518156e-001 6.632940e-001 7.017214e-001 1.799555e-001 -4.678690e-001 -4.171535e-001 -7.828490e-001 -5.271550e-001 4.019490e-001 4.706410e-001 2.490685e-001 -7.533727e-001
<VARIANCE> 39
 2.052549e+000 2.627107e+001 8.048849e+000 5.174531e+001 6.109691e+001 4.445501e+001 6.638718e+001 8.459565e+000 1.769115e+001 3.884728e-001 1.961655e+002 1.165444e+001 6.954104e+000 4.497352e-002 3.039641e-001 1.310135e+000 1.770352e+000 2.701859e+000 1.038070e+000 4.528176e-001 1.775374e+000 4.235285e-001 1.881819e+000 1.853634e+000 6.885532e-001 1.897882e-001 6.322436e-002 6.922590e-002 7.873359e-002 6.787677e-001 3.833013e-001 2.043051e-001 7.085404e-001 2.599156e-001 4.466787e-002 7.190832e-001 2.202822e+000 2.061741e-001 2.497299e-001
<GCONST> 8.503837e+001
<TRANSP> 5
 0.000000e+000 1.000000e+000 0.000000e+000 0.000000e+000 0.000000e+000
 0.000000e+000 6.428571e-001 3.571428e-001 0.000000e+000 0.000000e+000
 0.000000e+000 0.000000e+000 6.428572e-001 3.571428e-001 0.000000e+000
 0.000000e+000 0.000000e+000 0.000000e+000 2.857143e-001 7.142857e-001
 0.000000e+000 0.000000e+000 0.000000e+000 0.000000e+000 0.000000e+000
<ENDHMM>
~h "h"
<BEGINHMM>
<NUMSTATES> 5
<STATE> 2
<MEAN> 39
 -4.567753e+000 -7.143067e+000 -2.541086e-002 -1.135347e+001 -1.687831e+000 -1.954881e+000 -2.646961e+000 -2.072761e+000 -2.789703e+000 -2.519353e+000 -6.155596e+000 -5.577165e+000 7.077073e+001 1.284684e-001 3.519998e-002 5.042017e-002 -1.919170e-002 3.023124e-002 1.526818e-001 1.134414e-001 2.059520e-001 -9.232968e-004 -1.269177e-001 -8.922511e-002 -2.744853e-002 -7.531010e-002 5.912672e-003 1.712719e-002 -1.400904e-002 4.067212e-002 1.142783e-002 6.040929e-002 -2.948085e-002 1.259365e-002 -2.109511e-002 -7.946315e-003 -1.983920e-002 -3.233210e-002 -9.618374e-002
<VARIANCE> 39
 3.415611e+001 7.917472e+001 6.772413e+001 1.044564e+002 6.616837e+001 6.690615e+001 4.644624e+001 6.430594e+001 6.305968e+001 3.884728e+001 4.429239e+001 2.991177e+001 1.093573e+002 1.494153e+000 2.442461e+000 2.803278e+000 3.689717e+000 2.789096e+000 2.684588e+000 2.923815e+000 2.980957e+000 2.440595e+000 2.124268e+000 2.570347e+000 2.055594e+000 4.928689e+000 2.082175e-001 2.880168e-001 3.830723e-001 4.453130e-001 4.567120e-001 3.917358e-001 5.017791e-001 4.192902e-001 3.397919e-001 3.803485e-001 4.509306e-001 4.006631e-001 4.068455e-001
<GCONST> 1.247249e+002
<STATE> 3
<MEAN> 39
 -4.567753e+000 -7.143067e+000 -2.541086e-002 -1.135347e+001 -1.687831e+000 -1.954881e+000 -2.646961e+000 -2.072761e+000 -2.789703e+000 -2.519353e+000 -6.155596e+000 -5.577165e+000 7.077073e+001 1.284684e-001 3.519998e-002 5.042017e-002 -1.919170e-002 3.023124e-002 1.526818e-001 1.134414e-001 2.059520e-001 -9.232968e-004 -1.269177e-001 -8.922511e-002 -2.744853e-002 -7.531010e-002 5.912672e-003 1.712719e-002 -1.400904e-002 4.067212e-002 1.142783e-002 6.040929e-002 -2.948085e-002 1.259365e-002 -2.109511e-002 -7.946315e-003 -1.983920e-002 -3.233210e-002 -9.618374e-002
<VARIANCE> 39
 3.415611e+001 7.917472e+001 6.772413e+001 1.044564e+002 6.616837e+001 6.690615e+001 4.644624e+001 6.430594e+001 6.305968e+001 3.884728e+001 4.429239e+001 2.991177e+001 1.093573e+002 1.494153e+000 2.442461e+000 2.803278e+000 3.689717e+000 2.789096e+000 2.684588e+000 2.923815e+000 2.980957e+000 2.440595e+000 2.124268e+000 2.570347e+000 2.055594e+000 4.928689e+000 2.082175e-001 2.880168e-001 3.830723e-001 4.453130e-001 4.567120e-001 3.917358e-001 5.017791e-001 4.192902e-001 3.397919e-001 3.803485e-001 4.509306e-001 4.006631e-001 4.068455e-001
<GCONST> 1.247249e+002
<STATE> 4
<MEAN> 39
 -4.567753e+000 -7.143067e+000 -2.541086e-002 -1.135347e+001 -1.687831e+000 -1.954881e+000 -2.646961e+000 -2.072761e+000 -2.789703e+000 -2.519353e+000 -6.155596e+000 -5.577165e+000 7.077073e+001 1.284684e-001 3.519998e-002 5.042017e-002 -1.919170e-002 3.023124e-002 1.526818e-001 1.134414e-001 2.059520e-001 -9.232968e-004 -1.269177e-001 -8.922511e-002 -2.744853e-002 -7.531010e-002 5.912672e-003 1.712719e-002 -1.400904e-002 4.067212e-002 1.142783e-002 6.040929e-002 -2.948085e-002 1.259365e-002 -2.109511e-002 -7.946315e-003 -1.983920e-002 -3.233210e-002 -9.618374e-002
<VARIANCE> 39
 3.415611e+001 7.917472e+001 6.772413e+001 1.044564e+002 6.616837e+001 6.690615e+001 4.644624e+001 6.430594e+001 6.305968e+001 3.884728e+001 4.429239e+001 2.991177e+001 1.093573e+002 1.494153e+000 2.442461e+000 2.803278e+000 3.689717e+000 2.789096e+000 2.684588e+000 2.923815e+000 2.980957e+000 2.440595e+000 2.124268e+000 2.570347e+000 2.055594e+000 4.928689e+000 2.082175e-001 2.880168e-001 3.830723e-001 4.453130e-001 4.567120e-001 3.917358e-001 5.017791e-001 4.192902e-001 3.397919e-001 3.803485e-001 4.509306e-001 4.006631e-001 4.068455e-001
<GCONST> 1.247249e+002
<TRANSP> 5
 0.000000e+000 1.000000e+000 0.000000e+000 0.000000e+000 0.000000e+000
 0.000000e+000 6.000000e-001 4.000000e-001 0.000000e+000 0.000000e+000
 0.000000e+000 0.000000e+000 6.000000e-001 4.000000e-001 0.000000e+000
 0.000000e+000 0.000000e+000 0.000000e+000 7.000000e-001 3.000000e-001
 0.000000e+000 0.000000e+000 0.000000e+000 0.000000e+000 0.000000e+000
<ENDHMM>
~h "i"
<BEGINHMM>
<NUMSTATES> 5
<STATE> 2
<MEAN> 39
 -4.567753e+000 -7.143067e+000 -2.541086e-002 -1.135347e+001 -1.687831e+000 -1.954881e+000 -2.646961e+000 -2.072761e+000 -2.789703e+000 -2.519353e+000 -6.155596e+000 -5.577165e+000 7.077073e+001 1.284684e-001 3.519998e-002 5.042017e-002 -1.919170e-002 3.023124e-002 1.526818e-001 1.134414e-001 2.059520e-001 -9.232968e-004 -1.269177e-001 -8.922511e-002 -2.744853e-002 -7.531010e-002 5.912672e-003 1.712719e-002 -1.400904e-002 4.067212e-002 1.142783e-002 6.040929e-002 -2.948085e-002 1.259365e-002 -2.109511e-002 -7.946315e-003 -1.983920e-002 -3.233210e-002 -9.618374e-002
<VARIANCE> 39
 3.415611e+001 7.917472e+001 6.772413e+001 1.044564e+002 6.616837e+001 6.690615e+001 4.644624e+001 6.430594e+001 6.305968e+001 3.884728e+001 4.429239e+001 2.991177e+001 1.093573e+002 1.494153e+000 2.442461e+000 2.803278e+000 3.689717e+000 2.789096e+000 2.684588e+000 2.923815e+000 2.980957e+000 2.440595e+000 2.124268e+000 2.570347e+000 2.055594e+000 4.928689e+000 2.082175e-001 2.880168e-001 3.830723e-001 4.453130e-001 4.567120e-001 3.917358e-001 5.017791e-001 4.192902e-001 3.397919e-001 3.803485e-001 4.509306e-001 4.006631e-001 4.068455e-001
<GCONST> 1.247249e+002
<STATE> 3
<MEAN> 39
 -4.567753e+000 -7.143067e+000 -2.541086e-002 -1.135347e+001 -1.687831e+000 -1.954881e+000 -2.646961e+000 -2.072761e+000 -2.789703e+000 -2.519353e+000 -6.155596e+000 -5.577165e+000 7.077073e+001 1.284684e-001 3.519998e-002 5.042017e-002 -1.919170e-002 3.023124e-002 1.526818e-001 1.134414e-001 2.059520e-001 -9.232968e-004 -1.269177e-001 -8.922511e-002 -2.744853e-002 -7.531010e-002 5.912672e-003 1.712719e-002 -1.400904e-002 4.067212e-002 1.142783e-002 6.040929e-002 -2.948085e-002 1.259365e-002 -2.109511e-002 -7.946315e-003 -1.983920e-002 -3.233210e-002 -9.618374e-002
<VARIANCE> 39
 3.415611e+001 7.917472e+001 6.772413e+001 1.044564e+002 6.616837e+001 6.690615e+001 4.644624e+001 6.430594e+001 6.305968e+001 3.884728e+001 4.429239e+001 2.991177e+001 1.093573e+002 1.494153e+000 2.442461e+000 2.803278e+000 3.689717e+000 2.789096e+000 2.684588e+000 2.923815e+000 2.980957e+000 2.440595e+000 2.124268e+000 2.570347e+000 2.055594e+000 4.928689e+000 2.082175e-001 2.880168e-001 3.830723e-001 4.453130e-001 4.567120e-001 3.917358e-001 5.017791e-001 4.192902e-001 3.397919e-001 3.803485e-001 4.509306e-001 4.006631e-001 4.068455e-001
<GCONST> 1.247249e+002
<STATE> 4
<MEAN> 39
 -4.567753e+000 -7.143067e+000 -2.541086e-002 -1.135347e+001 -1.687831e+000 -1.954881e+000 -2.646961e+000 -2.072761e+000 -2.789703e+000 -2.519353e+000 -6.155596e+000 -5.577165e+000 7.077073e+001 1.284684e-001 3.519998e-002 5.042017e-002 -1.919170e-002 3.023124e-002 1.526818e-001 1.134414e-001 2.059520e-001 -9.232968e-004 -1.269177e-001 -8.922511e-002 -2.744853e-002 -7.531010e-002 5.912672e-003 1.712719e-002 -1.400904e-002 4.067212e-002 1.142783e-002 6.040929e-002 -2.948085e-002 1.259365e-002 -2.109511e-002 -7.946315e-003 -1.983920e-002 -3.233210e-002 -9.618374e-002
<VARIANCE> 39
 3.415611e+001 7.917472e+001 6.772413e+001 1.044564e+002 6.616837e+001 6.690615e+001 4.644624e+001 6.430594e+001 6.305968e+001 3.884728e+001 4.429239e+001 2.991177e+001 1.093573e+002 1.494153e+000 2.442461e+000 2.803278e+000 3.689717e+000 2.789096e+000 2.684588e+000 2.923815e+000 2.980957e+000 2.440595e+000 2.124268e+000 2.570347e+000 2.055594e+000 4.928689e+000 2.082175e-001 2.880168e-001 3.830723e-001 4.453130e-001 4.567120e-001 3.917358e-001 5.017791e-001 4.192902e-001 3.397919e-001 3.803485e-001 4.509306e-001 4.006631e-001 4.068455e-001
<GCONST> 1.247249e+002
<TRANSP> 5
 0.000000e+000 1.000000e+000 0.000000e+000 0.000000e+000 0.000000e+000
 0.000000e+000 6.000000e-001 4.000000e-001 0.000000e+000 0.000000e+000
 0.000000e+000 0.000000e+000 6.000000e-001 4.000000e-001 0.000000e+000
 0.000000e+000 0.000000e+000 0.000000e+000 7.000000e-001 3.000000e-001
 0.000000e+000 0.000000e+000 0.000000e+000 0.000000e+000 0.000000e+000
<ENDHMM>
~h "m"
<BEGINHMM>
<NUMSTATES> 5
<STATE> 2
<MEAN> 39
 -6.372912e+000 -5.417436e+000 -2.314857e-001 1.403785e-001 1.439425e+000 1.251179e+000 5.690203e-001 -6.348766e+000 -4.624316e+000 6.673478e+000 -3.421106e+000 -1.108296e+000 5.500182e+001 -6.291337e-002 1.479871e+000 1.527140e+000 1.218055e+000 2.018963e+000 3.250203e-001 -1.162772e+000 -2.416254e+000 -1.194286e+000 6.944927e-001 -4.862879e-001 9.677588e-001 -6.362364e-001 2.498794e-001 -1.065491e-001 3.048535e-001 -5.809035e-001 8.941399e-002 -8.460141e-002 -5.303353e-001 2.454778e-001 -2.974637e-001 -7.614958e-001 -7.150162e-001 -1.532000e-001 7.597953e-001
<VARIANCE> 39
 2.529973e+001 5.207688e+001 6.956884e+000 1.223832e+001 1.542586e+001 3.014705e+001 1.602089e+001 6.083615e+001 3.463031e+001 7.633543e+000 4.121080e+000 3.680066e+001 1.141667e+002 4.599780e-001 9.732895e-001 9.387057e-001 3.297601e+000 1.016249e+000 1.538770e+000 2.028217e+000 5.719733e-001 4.858927e+000 1.810841e+000 1.004513e+000 1.528624e+000 2.245279e+000 3.971327e-001 3.847248e-002 1.725464e-001 3.488746e-001 2.509699e-001 9.228835e-002 2.470303e-001 1.186622e-001 8.079524e-001 1.268184e-001 5.147756e-002 1.763085e-001 2.086582e-001
<GCONST> 9.316616e+001
<STATE> 3
<MEAN> 39
 -3.225901e+000 -3.211699e+000 4.877524e+000 -2.042488e+000 7.124519e+000 2.425412e+000 -5.357334e+000 -1.001686e+001 -9.754174e+000 6.079145e+000 -8.387618e+000 -7.941478e-001 5.854652e+001 1.469948e+000 3.791613e-001 1.985745e+000 -1.516737e+000 -2.611664e-002 -4.782378e-001 -1.898431e+000 -1.352347e+000 -2.288634e+000 -5.741208e-001 -1.426236e+000 -6.497914e-001 2.357974e+000 1.293989e-001 -4.434576e-001 -7.928787e-001 -6.710566e-001 -9.155558e-001 -1.072849e-001 4.323877e-001 9.090731e-001 5.759867e-001 -2.543977e-001 3.892791e-001 -4.659847e-001 4.446184e-001
<VARIANCE> 39
 1.084378e+001 3.012794e+001 2.487102e+001 1.320817e+001 8.915003e+000 4.698608e+001 1.763457e+001 5.163351e+001 4.446482e+001 1.748893e+001 4.095910e+000 1.895380e+001 5.899355e+001 2.830443e+000 1.992746e+000 1.273820e+000 5.457659e+000 1.607897e+000 1.018998e+000 1.460015e+000 4.047403e-001 1.689205e+000 7.783463e-001 7.268044e-001 3.422725e+000 1.175190e+001 1.172607e-001 2.762542e-002 6.057644e-001 2.499636e-001 8.359109e-002 2.672205e-001 2.864803e-001 1.756153e-001 5.656785e-001 1.849809e-001 2.144466e-001 3.869870e-002 4.836688e-001
<GCONST> 9.629744e+001
<STATE> 4
<MEAN> 39
 -3.962051e+000 -4.311220e+000 5.731570e+000 -4.443388e+000 5.291009e+000 2.256504e-001 -6.914433e+000 -1.903542e+001 -1.121278e+001 3.334826e+000 -9.507998e+000 6.020910e-001 6.601028e+001 2.748303e-001 3.420175e-001 -2.118102e-001 -1.033395e-001 -4.580318e-001 1.766338e-001 -6.700408e-002 4.171435e-001 -2.717016e-001 9.827475e-002 -1.886474e-001 2.182053e-001 -3.534693e-001 3.385622e-002 -1.308468e-001 -3.413615e-001 -1.043934e-001 7.585002e-002 -1.403950e-002 2.499048e-001 3.061646e-001 2.344555e-001 1.042523e-001 1.687043e-001 -3.375225e-002 -5.496366e-002
<VARIANCE> 39
 4.857153e+000 5.379824e+000 9.103141e+000 3.637282e+001 1.456292e+001 2.882481e+001 4.017102e+000 3.266864e+001 1.449032e+001 1.395408e+001 5.069372e+000 7.054191e+001 4.012100e+001 4.939904e-001 5.076404e-001 4.862692e-001 2.336524e+000 7.020471e-001 1.068430e+000 3.289594e-001 8.755412e-001 1.909531e+000 1.249726e+000 5.058576e-001 1.642361e+000 1.916108e+000 1.743691e-002 6.345238e-002 2.795199e-001 1.070347e-001 1.103154e-001 1.554217e-001 1.010508e-001 3.561114e-001 1.316826e-001 1.281210e-001 1.865907e-001 2.763816e-001 1.751824e-001
<GCONST> 7.859142e+001
<TRANSP> 5
 0.000000e+000 1.000000e+000 0.000000e+000 0.000000e+000 0.000000e+000
 0.000000e+000 5.294518e-001 4.705482e-001 0.000000e+000 0.000000e+000
 0.000000e+000 0.000000e+000 5.293597e-001 4.706403e-001 0.000000e+000
 0.000000e+000 0.000000e+000 0.000000e+000 8.048870e-001 1.951130e-001
 0.000000e+000 0.000000e+000 0.000000e+000 0.000000e+000 0.000000e+000
<ENDHMM>
~h "n"
<BEGINHMM>
<NUMSTATES> 5
<STATE> 2
<MEAN> 39
 -4.464419e+000 -2.816967e+000 2.942257e+000 -1.621608e+001 -4.279893e+000 -9.385057e+000 -4.700354e+000 -5.669282e+000 -5.273499e+000 -9.135045e+000 -8.751677e+000 -6.170566e+000 6.557069e+001 -6.989530e-001 6.462377e-002 4.869460e-001 6.656907e-001 8.113821e-001 1.628072e-001 -1.905513e-001 -1.203261e+000 -4.327852e-001 -4.171242e-001 -4.362122e-001 4.211500e-001 -1.049546e+000 2.686812e-001 3.366714e-001 -4.009513e-001 -1.679472e-001 -2.427412e-001 5.880108e-001 -3.699197e-001 6.770038e-002 3.611431e-001 6.728198e-001 9.298243e-002 9.819362e-002 5.244032e-002
<VARIANCE> 39
 5.569752e+000 2.392454e+000 6.776402e+000 7.042451e+001 8.509475e+000 9.012484e+000 5.367768e+000 2.086586e+001 2.974115e+001 5.108388e+001 8.950894e+001 6.464501e+000 1.494771e+001 5.977689e-001 4.163722e-001 2.718232e-001 1.731727e-001 3.691701e-001 2.410497e+000 4.308558e-001 3.135416e-001 1.188515e+000 1.235848e+000 4.201906e-001 2.419519e-001 1.650282e-001 1.851056e-001 7.536850e-002 1.919674e-002 6.553254e-002 1.652862e-001 4.848168e-001 2.688192e-001 5.728764e-001 8.653041e-002 2.489575e-001 7.292393e-001 1.040425e-002 6.536211e-002
<GCONST> 6.882378e+001
<STATE> 3
<MEAN> 39
 -1.331247e+000 1.551512e+000 4.262246e+000 -5.200255e+000 -4.279016e+000 -3.821557e+000 -9.397408e+000 -8.549781e+000 -4.581494e+000 -1.253995e+001 -1.600646e+001 -7.417349e+000 5.859657e+001 4.769972e-001 1.303223e+000 -1.076413e-001 6.654771e-001 -2.901433e-001 1.198451e+000 -2.384846e-001 8.190871e-001 4.362063e-001 1.575640e+000 1.357355e+000 -1.555955e-001 -1.448256e+000 -1.439430e-001 -1.132252e-001 -7.391032e-002 2.985470e-002 1.601028e-001 2.918214e-001 5.545198e-001 8.075575e-001 2.106577e-001 3.051488e-001 2.638704e-001 4.447730e-002 -8.601227e-002
<VARIANCE> 39
 5.328597e+000 1.059741e+001 6.397491e+000 9.790012e+001 7.222922e+000 1.214625e+001 1.428316e+001 1.958041e+001 3.636462e+001 5.881054e+001 5.054183e+001 1.569748e+001 2.805608e+001 7.081843e-001 2.991437e-001 4.829565e-001 2.322666e-001 9.844878e-001 3.208014e+000 2.044966e+000 2.269441e+000 9.053075e-001 7.566047e-001 9.021193e-001 1.189761e+000 3.237108e-001 2.026563e-001 1.305003e-001 1.130488e-001 8.579276e-002 4.835285e-001 1.487837e-001 4.766406e-001 3.899132e-001 2.373015e-001 3.850918e-001 1.400562e-001 2.532622e-001 1.885222e-002
<GCONST> 8.516090e+001
<STATE> 4
<MEAN> 39
 -3.750254e+000 2.679817e+000 2.115880e+000 -9.340405e+000 -1.958329e+000 3.910347e+000 -3.711330e+000 1.246133e+000 -2.292666e+000 -3.062036e+000 -5.864374e+000 -4.285206e+000 5.456295e+001 -6.590881e-001 -7.829075e-002 -7.299588e-001 2.765839e-001 8.714862e-001 1.134747e+000 7.624276e-001 1.484581e+000 7.886090e-001 6.791532e-001 2.932565e-001 1.366543e-002 -1.120096e+000 -1.039185e-001 -2.581900e-001 -2.335560e-001 -3.397444e-001 1.081746e-001 -3.704280e-001 -2.327207e-001 -4.019351e-001 1.853205e-003 -2.529015e-001 -1.826825e-001 -2.214061e-001 2.412002e-001
<VARIANCE> 39
 1.593832e+000 7.903540e+000 9.228971e+000 8.053277e+001 6.450013e+000 3.017439e+001 8.510720e+000 4.252202e+001 2.152868e+001 2.925097e+001 4.169760e+001 9.796990e+000 3.024663e+001 1.855159e-001 1.600554e-001 1.070052e+000 6.502234e-001 1.203344e+000 1.649673e+000 1.640756e+000 4.910268e+000 6.323144e-001 4.269731e-001 7.134982e-001 6.015220e-001 2.814893e-001 4.155001e-002 3.613357e-002 1.547352e-001 4.926214e-002 8.517459e-002 2.523632e-001 1.608497e-001 7.563176e-001 1.797537e-001 1.493851e-002 1.801762e-001 6.356733e-002 6.760003e-003
<GCONST> 7.061021e+001
<TRANSP> 5
 0.000000e+000 1.000000e+000 0.000000e+000 0.000000e+000 0.000000e+000
 0.000000e+000 5.714285e-001 4.285716e-001 0.000000e+000 0.000000e+000
 0.000000e+000 0.000000e+000 6.400002e-001 3.599997e-001 0.000000e+000
 0.000000e+000 0.000000e+000 0.000000e+000 7.428570e-001 2.571430e-001
 0.000000e+000 0.000000e+000 0.000000e+000 0.000000e+000 0.000000e+000
<ENDHMM>
~h "s"
<BEGINHMM>
<NUMSTATES> 5
<STATE> 2
<MEAN> 39
 -2.399527e+001 8.138465e-001 5.408369e+000 -2.694894e+000 1.088942e+001 -1.195715e+001 -4.415038e+000 2.702976e+000 -5.650752e+000 -4.243607e+000 -8.742953e+000 -1.505594e+000 6.471436e+001 -5.269240e-001 -9.902813e-002 -1.011138e-001 1.551649e+000 -3.349758e+000 -3.177134e+000 3.599137e+000 2.029968e+000 -4.591272e-001 -1.411418e+000 2.212484e+000 1.977964e+000 9.084463e-001 8.810568e-001 -3.876019e-001 -1.253597e-001 -5.333249e-001 -5.506879e-001 7.103781e-001 5.151420e-001 -3.852983e-001 -2.474362e-002 5.883648e-001 3.269668e-001 -3.973392e-001 -1.291717e-001
<VARIANCE> 39
 3.059040e+000 7.917472e-001 6.772413e-001 7.177763e+000 1.340838e+001 2.665747e+001 2.347440e+001 1.251806e+001 6.305968e-001 1.038779e+001 5.191859e+000 9.006638e+000 1.512717e+000 3.934609e-001 5.426947e-002 4.065884e-002 3.689717e-002 8.063586e-001 1.697033e-001 1.209849e+000 4.418832e-001 2.546523e-002 6.071721e-001 1.173861e+000 6.175826e-001 4.928688e-002 2.356386e-001 6.452023e-002 3.830723e-003 1.785925e-001 1.838256e-002 1.984406e-001 1.986871e-001 9.932122e-002 3.397919e-003 2.638242e-002 2.320361e-001 1.040670e-001 1.963023e-002
<GCONST> 3.339206e+001
<STATE> 3
<MEAN> 39
 -2.215794e+001 -5.966679e-001 3.947821e+000 -5.069545e-001 2.937544e-002 -1.667246e+001 7.556100e+000 5.550923e+000 -7.343016e+000 -3.707437e+000 8.891366e-001 1.899581e+000 6.665572e+001 3.566682e+000 -2.002972e+000 -3.867848e-001 -1.533589e+000 -4.067790e+000 5.174870e-001 3.164954e+000 -1.864446e-001 -3.241538e-001 4.555057e-001 7.997246e-001 -2.768006e-001 1.353101e-001 1.388933e+000 -1.397938e+000 -3.225682e-001 -1.639847e+000 7.762134e-001 1.107301e+000 -1.714576e+000 -4.308411e-001 3.101806e-002 2.854937e-001 -1.872329e+000 -8.854573e-001 7.657142e-001
<VARIANCE> 39
 2.561604e+000 7.917472e-001 6.772413e-001 1.252683e+000 5.060936e+000 6.690615e-001 4.644624e-001 1.577093e+001 6.305968e-001 4.010141e+000 1.304174e+000 2.205418e+001 1.093573e+000 1.713392e+000 1.243201e+000 2.209665e-001 1.952827e+000 3.244378e-001 4.627104e-002 5.326104e+000 3.998772e-001 1.531409e-001 2.124268e-002 3.758525e+000 3.772459e-001 7.481197e-001 1.057681e-001 2.195947e-002 1.073434e-002 4.453130e-003 1.638883e-001 2.343793e-002 7.052802e-002 1.210764e-001 3.397919e-003 8.215709e-002 4.593930e-002 8.669744e-002 1.370522e-001
<GCONST> 2.857533e+001
<STATE> 4
<MEAN> 39
 -8.386640e+000 -1.180524e+001 2.555553e+000 -1.095768e+001 -6.668458e+000 -1.336773e+001 7.404228e+000 6.564890e+000 -7.647521e+000 -4.059041e+000 -7.867273e+000 -5.453896e-001 7.137143e+001 3.782035e+000 -5.394058e+000 -1.722622e+000 -3.951977e+000 2.163245e-001 1.629511e+000 -1.655336e+000 2.372576e-001 -1.317976e-001 -1.787999e-002 -3.168685e+000 -1.420053e+000 4.043536e+000 -1.079486e+000 1.877054e-003 -2.682839e-001 5.290442e-001 1.620523e+000 3.801561e-001 -4.214238e-001 -2.307862e-001 3.065405e-001 -2.530616e-001 2.204200e-001 3.484875e-002 2.422957e-001
<VARIANCE> 39
 3.129987e+001 4.803550e+001 6.722153e+000 3.722672e+001 6.616836e-001 1.415557e+000 4.444760e+001 1.789124e+000 3.768761e+000 4.190850e+000 2.500775e+001 1.183020e+001 5.346277e+001 2.291787e+000 2.025362e-001 2.970252e-001 8.950229e-001 3.429830e+000 1.765031e-001 6.016110e-002 3.856616e-001 5.372474e-002 1.868429e-001 5.987547e-001 2.458386e-001 5.000775e-001 4.170121e-001 8.270869e-001 5.416378e-002 8.317354e-001 5.372472e-002 1.067520e-002 9.101846e-001 6.206851e-002 3.117635e-002 5.711220e-003 1.189915e+000 9.251353e-002 8.807988e-001
<GCONST> 6.221747e+001
<TRANSP> 5
 0.000000e+000 1.000000e+000 0.000000e+000 0.000000e+000 0.000000e+000
 0.000000e+000 6.666667e-001 3.333333e-001 0.000000e+000 0.000000e+000
 0.000000e+000 0.000000e+000 5.000000e-001 5.000000e-001 0.000000e+000
 0.000000e+000 0.000000e+000 0.000000e+000 6.666667e-001 3.333333e-001
 0.000000e+000 0.000000e+000 0.000000e+000 0.000000e+000 0.000000e+000
<ENDHMM>
~h "t"
<BEGINHMM>
<NUMSTATES> 5
<STATE> 2
<MEAN> 39
 -4.762657e+000 -2.483568e+000 -5.342795e+000 -5.823007e+000 1.489600e+000 1.175190e+000 2.134655e+000 1.360182e+000 1.978124e+000 -3.574842e+000 -7.597572e+000 -5.268879e+000 5.671403e+001 -4.717997e-001 -9.163849e-001 2.193647e+000 4.142134e-001 1.013700e+000 -2.254321e+000 3.972708e+000 1.119051e+000 8.568049e-001 -6.233709e-002 8.386922e-001 3.412752e-001 4.290073e+000 -2.384020e-002 -1.020374e+000 -7.385523e-001 -4.615335e-001 -2.346703e-001 3.076613e-001 -8.139647e-001 -3.304574e-002 -1.003767e+000 4.366974e-001 -1.547800e-001 -5.795037e-001 3.829215e-001
<VARIANCE> 39
 4.063527e+001 8.358665e+001 8.435113e+001 1.393752e+000 2.350792e+000 1.142411e+001 3.484296e+001 1.256808e+002 3.925214e+001 5.470913e+000 9.619103e+000 1.325933e+001 2.361640e+001 4.961171e-002 1.023809e+000 3.292260e+000 8.300837e+000 4.839082e-001 4.180160e+000 1.569712e+000 2.702062e-001 4.420813e-001 1.895244e-001 1.369441e-001 4.755362e-001 1.434046e+001 7.356591e-002 1.588630e-001 6.809542e-002 2.835327e-001 6.610088e-001 8.874153e-002 2.012693e-001 2.736998e-001 3.297627e-002 1.307947e-001 3.043512e-001 8.770196e-002 2.728173e-001
<GCONST> 8.275663e+001
<STATE> 3
<MEAN> 39
 -3.624381e+000 -1.058179e+001 -3.163645e+000 -9.925960e+000 1.005645e+000 -9.004172e+000 8.171140e+000 5.015847e+000 -3.883904e+000 -1.161954e+000 -5.746765e+000 -8.181029e+000 6.982144e+001 -2.319054e-001 -3.463666e+000 1.706524e-002 -3.190055e-001 1.085870e+000 -2.759165e-001 9.530747e-001 7.816886e-001 -1.394040e+000 1.103464e+000 1.468704e-001 -1.000383e+000 3.508397e+000 -7.152152e-002 -8.360338e-002 -6.913593e-001 -7.713556e-002 -1.528702e-001 1.267542e+000 -1.511908e+000 -6.821141e-001 -3.689520e-001 7.340877e-002 -2.458175e-001 3.571767e-002 -9.583024e-001
<VARIANCE> 39
 2.294205e+001 1.501479e+002 1.529380e+001 5.421099e+000 1.022680e+001 1.126761e+002 1.133259e+001 1.320667e+001 1.700194e+001 1.059475e+001 6.876262e+000 3.345687e+000 1.011103e+002 3.465959e-001 1.468614e+000 1.339382e+000 2.051011e+000 4.309007e-001 2.947791e+000 2.866385e+000 1.598592e+000 1.747086e+000 4.075605e-001 2.647376e+000 8.445822e-001 9.331057e+000 2.988009e-003 2.387733e-001 1.168959e-001 4.594199e-001 2.090261e-001 6.612684e-001 3.593910e-001 5.205844e-002 2.411768e-001 1.968842e-001 6.540758e-002 1.682863e-001 1.298615e+000
<GCONST> 9.061559e+001
<STATE> 4
<MEAN> 39
 -1.294258e+000 1.120504e+000 6.671791e-001 -3.577181e-001 1.960430e+000 7.953354e+000 6.748489e+000 7.561131e+000 4.856442e-001 -7.701421e-001 -2.252859e+000 -4.255274e+000 5.568422e+001 -9.488703e-001 -2.502591e-001 -2.596163e-001 6.339291e-001 3.317710e-001 3.161612e-001 -1.124053e-001 7.032304e-002 3.462498e-001 -7.418144e-002 1.088028e-002 -1.471594e-001 -9.298730e-001 -1.317876e-002 2.666825e-001 4.407412e-002 -9.272309e-002 -2.316119e-002 -1.215159e-001 -2.230787e-001 2.421877e-001 2.645163e-001 -2.056667e-001 -2.373262e-001 -6.099500e-002 -2.672175e-001
<VARIANCE> 39
 1.385148e+001 7.244603e+001 1.556905e+001 1.868678e+001 4.697731e+000 3.731676e+001 9.420007e+000 1.951859e+001 1.641195e+001 9.940438e+000 5.586579e+000 1.212873e+001 7.981700e+001 1.267483e-001 5.436793e-001 3.168286e-001 4.435844e-001 3.205337e-001 2.327307e+000 1.232055e+000 1.513293e+000 8.027173e-001 9.776936e-001 8.770657e-001 1.617395e+000 1.181729e+000 2.459039e-002 1.691724e-001 6.941894e-002 1.451649e-001 3.164101e-002 2.329570e-001 1.391460e-001 1.435795e-001 9.770507e-002 1.017260e-001 6.367921e-002 3.286753e-001 3.936389e-001
<GCONST> 7.598639e+001
<TRANSP> 5
 0.000000e+000 1.000000e+000 0.000000e+000 0.000000e+000 0.000000e+000
 0.000000e+000 3.333333e-001 6.666667e-001 0.000000e+000 0.000000e+000
 0.000000e+000 0.000000e+000 3.333333e-001 6.666667e-001 0.000000e+000
 0.000000e+000 0.000000e+000 0.000000e+000 7.777778e-001 2.222222e-001
 0.000000e+000 0.000000e+000 0.000000e+000 0.000000e+000 0.000000e+000
<ENDHMM>
~h "u"
<BEGINHMM>
<NUMSTATES> 5
<STATE> 2
<MEAN> 39
 -3.607263e+000 -1.984537e+001 -8.269763e+000 -2.089291e+001 6.484892e+000 -1.452932e+000 3.750006e-001 -6.639628e+000 -4.948824e+000 2.046687e+000 -5.025468e+000 -1.593259e+001 7.697801e+001 1.088462e+000 2.551008e+000 -1.084569e+000 -1.054981e+000 -1.450009e+000 -4.909642e-002 -2.156999e-001 -6.812669e-001 -1.000449e+000 1.693171e+000 6.910536e-001 -5.631731e-001 -1.231416e+000 2.672703e-001 5.735563e-001 5.653533e-002 4.754200e-001 -2.957769e-001 -4.442253e-001 -1.555343e-003 5.992044e-001 -5.260488e-001 2.356680e-001 -8.103104e-002 1.338038e+000 -5.153081e-001
<VARIANCE> 39
 5.798656e-001 3.719824e+000 1.242248e+000 1.697087e+000 1.493207e+000 6.690615e-001 4.644624e-001 2.227503e+000 1.344016e+000 6.664026e-001 4.429239e-001 2.739406e+000 1.093573e+000 1.232822e-001 4.348804e-001 2.803278e-002 2.193943e-001 6.424824e-002 3.423847e-002 2.923816e-002 3.252913e-001 2.372604e-001 3.357489e-001 4.773289e-002 2.326060e+000 1.902348e-001 2.082174e-003 2.637150e-002 3.946951e-002 6.520636e-002 6.882472e-002 1.739529e-002 7.831696e-003 1.638003e-002 5.772538e-002 2.019601e-002 2.731124e-002 1.001445e-001 2.085417e-002
<GCONST> 2.306695e-001
<STATE> 3
<MEAN> 39
 5.418851e-001 -1.097655e+001 -1.071918e+001 -2.159191e+001 2.042840e+000 -2.004115e+000 -3.701598e-001 -6.141823e+000 -1.032721e+001 8.874191e+000 -2.745201e+000 -1.073404e+001 7.213357e+001 1.565734e+000 3.281972e+000 -2.515370e-001 1.003003e+000 -1.290811e+000 -1.827858e+000 -4.411399e-001 1.224569e+000 -3.025277e+000 1.569791e+000 -2.652989e-001 3.473454e+000 -3.033253e+000 -4.281206e-001 -7.908788e-001 4.053613e-001 1.320422e+000 7.178636e-001 3.343583e-001 4.300312e-002 1.326422e+000 7.729392e-001 -1.205476e+000 -1.034562e+000 -6.109809e-001 -6.974714e-001
<VARIANCE> 39
 4.709694e-001 5.309769e+000 3.085437e+000 1.044564e+000 2.784641e+000 6.690615e-001 6.597796e-001 1.857535e+000 6.533878e+000 3.884728e-001 4.429239e-001 1.861285e+000 2.694630e+000 1.501710e-002 1.005056e-001 1.166101e-001 8.554127e-001 4.730655e-001 2.684588e-002 1.738913e-001 4.868629e-001 7.492687e-001 3.246732e-001 1.685607e-001 2.559793e-002 2.190410e-001 3.956228e-002 1.396227e-001 3.830723e-003 1.524339e-002 4.055581e-002 1.875886e-001 1.351049e-002 3.709603e-002 2.994378e-001 6.932441e-002 1.385278e-002 6.308218e-001 1.305388e-002
<GCONST> 1.192752e+001
<STATE> 4
<MEAN> 39
 1.594548e+000 -7.860921e+000 -9.294065e+000 -1.316282e+001 2.737281e+000 -4.597345e+000 -6.357635e-001 2.950506e+000 -1.165246e+001 5.240896e+000 -9.022722e+000 -8.971678e+000 6.177299e+001 -6.518194e-001 -6.037830e-001 3.081292e-001 4.048904e+000 1.123631e+000 2.158512e+000 3.384466e-001 4.663341e+000 2.083174e+000 -2.701883e+000 -3.094011e+000 -3.070163e+000 -3.602509e+000 -5.689856e-001 -9.964795e-001 -1.017342e-002 3.668371e-001 4.620579e-001 1.221518e+000 2.761324e-001 4.757895e-001 1.200344e+000 -8.217050e-001 -4.104750e-001 -1.763706e+000 2.527202e-001
<VARIANCE> 39
 3.692359e+000 5.274624e+000 9.909672e-001 3.379394e+001 6.710329e+000 3.070779e+001 9.690957e+000 4.715988e+001 2.958414e+001 2.111049e+001 1.956900e+001 5.786252e+001 1.859549e+001 2.488043e-001 8.363732e-001 7.486649e-002 2.362026e-001 1.344533e-001 1.697308e+000 1.296742e-001 3.318453e-001 1.056425e+000 1.842726e-001 7.397538e-002 2.649237e+000 5.113367e-001 4.838298e-002 1.513453e-001 1.666453e-002 2.230289e-001 9.577182e-002 1.147128e-001 7.257685e-003 2.517152e-001 3.081457e-001 2.668596e-001 1.536397e-001 3.926244e-001 4.742558e-002
<GCONST> 6.215447e+001
<TRANSP> 5
 0.000000e+000 1.000000e+000 0.000000e+000 0.000000e+000 0.000000e+000
 0.000000e+000 6.666667e-001 3.333333e-001 0.000000e+000 0.000000e+000
 0.000000e+000 0.000000e+000 5.000000e-001 5.000000e-001 0.000000e+000
 0.000000e+000 0.000000e+000 0.000000e+000 6.666667e-001 3.333333e-001
 0.000000e+000 0.000000e+000 0.000000e+000 0.000000e+000 0.000000e+000
<ENDHMM>
~h "y"
<BEGINHMM>
<NUMSTATES> 5
<STATE> 2
<MEAN> 39
 -4.567753e+000 -7.143067e+000 -2.541086e-002 -1.135347e+001 -1.687831e+000 -1.954881e+000 -2.646961e+000 -2.072761e+000 -2.789703e+000 -2.519353e+000 -6.155596e+000 -5.577165e+000 7.077073e+001 1.284684e-001 3.519998e-002 5.042017e-002 -1.919170e-002 3.023124e-002 1.526818e-001 1.134414e-001 2.059520e-001 -9.232968e-004 -1.269177e-001 -8.922511e-002 -2.744853e-002 -7.531010e-002 5.912672e-003 1.712719e-002 -1.400904e-002 4.067212e-002 1.142783e-002 6.040929e-002 -2.948085e-002 1.259365e-002 -2.109511e-002 -7.946315e-003 -1.983920e-002 -3.233210e-002 -9.618374e-002
<VARIANCE> 39
 3.415611e+001 7.917472e+001 6.772413e+001 1.044564e+002 6.616837e+001 6.690615e+001 4.644624e+001 6.430594e+001 6.305968e+001 3.884728e+001 4.429239e+001 2.991177e+001 1.093573e+002 1.494153e+000 2.442461e+000 2.803278e+000 3.689717e+000 2.789096e+000 2.684588e+000 2.923815e+000 2.980957e+000 2.440595e+000 2.124268e+000 2.570347e+000 2.055594e+000 4.928689e+000 2.082175e-001 2.880168e-001 3.830723e-001 4.453130e-001 4.567120e-001 3.917358e-001 5.017791e-001 4.192902e-001 3.397919e-001 3.803485e-001 4.509306e-001 4.006631e-001 4.068455e-001
<GCONST> 1.247249e+002
<STATE> 3
<MEAN> 39
 -4.567753e+000 -7.143067e+000 -2.541086e-002 -1.135347e+001 -1.687831e+000 -1.954881e+000 -2.646961e+000 -2.072761e+000 -2.789703e+000 -2.519353e+000 -6.155596e+000 -5.577165e+000 7.077073e+001 1.284684e-001 3.519998e-002 5.042017e-002 -1.919170e-002 3.023124e-002 1.526818e-001 1.134414e-001 2.059520e-001 -9.232968e-004 -1.269177e-001 -8.922511e-002 -2.744853e-002 -7.531010e-002 5.912672e-003 1.712719e-002 -1.400904e-002 4.067212e-002 1.142783e-002 6.040929e-002 -2.948085e-002 1.259365e-002 -2.109511e-002 -7.946315e-003 -1.983920e-002 -3.233210e-002 -9.618374e-002
<VARIANCE> 39
 3.415611e+001 7.917472e+001 6.772413e+001 1.044564e+002 6.616837e+001 6.690615e+001 4.644624e+001 6.430594e+001 6.305968e+001 3.884728e+001 4.429239e+001 2.991177e+001 1.093573e+002 1.494153e+000 2.442461e+000 2.803278e+000 3.689717e+000 2.789096e+000 2.684588e+000 2.923815e+000 2.980957e+000 2.440595e+000 2.124268e+000 2.570347e+000 2.055594e+000 4.928689e+000 2.082175e-001 2.880168e-001 3.830723e-001 4.453130e-001 4.567120e-001 3.917358e-001 5.017791e-001 4.192902e-001 3.397919e-001 3.803485e-001 4.509306e-001 4.006631e-001 4.068455e-001
<GCONST> 1.247249e+002
<STATE> 4
<MEAN> 39
 -4.567753e+000 -7.143067e+000 -2.541086e-002 -1.135347e+001 -1.687831e+000 -1.954881e+000 -2.646961e+000 -2.072761e+000 -2.789703e+000 -2.519353e+000 -6.155596e+000 -5.577165e+000 7.077073e+001 1.284684e-001 3.519998e-002 5.042017e-002 -1.919170e-002 3.023124e-002 1.526818e-001 1.134414e-001 2.059520e-001 -9.232968e-004 -1.269177e-001 -8.922511e-002 -2.744853e-002 -7.531010e-002 5.912672e-003 1.712719e-002 -1.400904e-002 4.067212e-002 1.142783e-002 6.040929e-002 -2.948085e-002 1.259365e-002 -2.109511e-002 -7.946315e-003 -1.983920e-002 -3.233210e-002 -9.618374e-002
<VARIANCE> 39
 3.415611e+001 7.917472e+001 6.772413e+001 1.044564e+002 6.616837e+001 6.690615e+001 4.644624e+001 6.430594e+001 6.305968e+001 3.884728e+001 4.429239e+001 2.991177e+001 1.093573e+002 1.494153e+000 2.442461e+000 2.803278e+000 3.689717e+000 2.789096e+000 2.684588e+000 2.923815e+000 2.980957e+000 2.440595e+000 2.124268e+000 2.570347e+000 2.055594e+000 4.928689e+000 2.082175e-001 2.880168e-001 3.830723e-001 4.453130e-001 4.567120e-001 3.917358e-001 5.017791e-001 4.192902e-001 3.397919e-001 3.803485e-001 4.509306e-001 4.006631e-001 4.068455e-001
<GCONST> 1.247249e+002
<TRANSP> 5
 0.000000e+000 1.000000e+000 0.000000e+000 0.000000e+000 0.000000e+000
 0.000000e+000 6.000000e-001 4.000000e-001 0.000000e+000 0.000000e+000
 0.000000e+000 0.000000e+000 6.000000e-001 4.000000e-001 0.000000e+000
 0.000000e+000 0.000000e+000 0.000000e+000 7.000000e-001 3.000000e-001
 0.000000e+000 0.000000e+000 0.000000e+000 0.000000e+000 0.000000e+000
<ENDHMM>
~h "ar"
<BEGINHMM>
<NUMSTATES> 5
<STATE> 2
<MEAN> 39
 -4.567753e+000 -7.143067e+000 -2.541086e-002 -1.135347e+001 -1.687831e+000 -1.954881e+000 -2.646961e+000 -2.072761e+000 -2.789703e+000 -2.519353e+000 -6.155596e+000 -5.577165e+000 7.077073e+001 1.284684e-001 3.519998e-002 5.042017e-002 -1.919170e-002 3.023124e-002 1.526818e-001 1.134414e-001 2.059520e-001 -9.232968e-004 -1.269177e-001 -8.922511e-002 -2.744853e-002 -7.531010e-002 5.912672e-003 1.712719e-002 -1.400904e-002 4.067212e-002 1.142783e-002 6.040929e-002 -2.948085e-002 1.259365e-002 -2.109511e-002 -7.946315e-003 -1.983920e-002 -3.233210e-002 -9.618374e-002
<VARIANCE> 39
 3.415611e+001 7.917472e+001 6.772413e+001 1.044564e+002 6.616837e+001 6.690615e+001 4.644624e+001 6.430594e+001 6.305968e+001 3.884728e+001 4.429239e+001 2.991177e+001 1.093573e+002 1.494153e+000 2.442461e+000 2.803278e+000 3.689717e+000 2.789096e+000 2.684588e+000 2.923815e+000 2.980957e+000 2.440595e+000 2.124268e+000 2.570347e+000 2.055594e+000 4.928689e+000 2.082175e-001 2.880168e-001 3.830723e-001 4.453130e-001 4.567120e-001 3.917358e-001 5.017791e-001 4.192902e-001 3.397919e-001 3.803485e-001 4.509306e-001 4.006631e-001 4.068455e-001
<GCONST> 1.247249e+002
<STATE> 3
<MEAN> 39
 -4.567753e+000 -7.143067e+000 -2.541086e-002 -1.135347e+001 -1.687831e+000 -1.954881e+000 -2.646961e+000 -2.072761e+000 -2.789703e+000 -2.519353e+000 -6.155596e+000 -5.577165e+000 7.077073e+001 1.284684e-001 3.519998e-002 5.042017e-002 -1.919170e-002 3.023124e-002 1.526818e-001 1.134414e-001 2.059520e-001 -9.232968e-004 -1.269177e-001 -8.922511e-002 -2.744853e-002 -7.531010e-002 5.912672e-003 1.712719e-002 -1.400904e-002 4.067212e-002 1.142783e-002 6.040929e-002 -2.948085e-002 1.259365e-002 -2.109511e-002 -7.946315e-003 -1.983920e-002 -3.233210e-002 -9.618374e-002
<VARIANCE> 39
 3.415611e+001 7.917472e+001 6.772413e+001 1.044564e+002 6.616837e+001 6.690615e+001 4.644624e+001 6.430594e+001 6.305968e+001 3.884728e+001 4.429239e+001 2.991177e+001 1.093573e+002 1.494153e+000 2.442461e+000 2.803278e+000 3.689717e+000 2.789096e+000 2.684588e+000 2.923815e+000 2.980957e+000 2.440595e+000 2.124268e+000 2.570347e+000 2.055594e+000 4.928689e+000 2.082175e-001 2.880168e-001 3.830723e-001 4.453130e-001 4.567120e-001 3.917358e-001 5.017791e-001 4.192902e-001 3.397919e-001 3.803485e-001 4.509306e-001 4.006631e-001 4.068455e-001
<GCONST> 1.247249e+002
<STATE> 4
<MEAN> 39
 -4.567753e+000 -7.143067e+000 -2.541086e-002 -1.135347e+001 -1.687831e+000 -1.954881e+000 -2.646961e+000 -2.072761e+000 -2.789703e+000 -2.519353e+000 -6.155596e+000 -5.577165e+000 7.077073e+001 1.284684e-001 3.519998e-002 5.042017e-002 -1.919170e-002 3.023124e-002 1.526818e-001 1.134414e-001 2.059520e-001 -9.232968e-004 -1.269177e-001 -8.922511e-002 -2.744853e-002 -7.531010e-002 5.912672e-003 1.712719e-002 -1.400904e-002 4.067212e-002 1.142783e-002 6.040929e-002 -2.948085e-002 1.259365e-002 -2.109511e-002 -7.946315e-003 -1.983920e-002 -3.233210e-002 -9.618374e-002
<VARIANCE> 39
 3.415611e+001 7.917472e+001 6.772413e+001 1.044564e+002 6.616837e+001 6.690615e+001 4.644624e+001 6.430594e+001 6.305968e+001 3.884728e+001 4.429239e+001 2.991177e+001 1.093573e+002 1.494153e+000 2.442461e+000 2.803278e+000 3.689717e+000 2.789096e+000 2.684588e+000 2.923815e+000 2.980957e+000 2.440595e+000 2.124268e+000 2.570347e+000 2.055594e+000 4.928689e+000 2.082175e-001 2.880168e-001 3.830723e-001 4.453130e-001 4.567120e-001 3.917358e-001 5.017791e-001 4.192902e-001 3.397919e-001 3.803485e-001 4.509306e-001 4.006631e-001 4.068455e-001
<GCONST> 1.247249e+002
<TRANSP> 5
 0.000000e+000 1.000000e+000 0.000000e+000 0.000000e+000 0.000000e+000
 0.000000e+000 6.000000e-001 4.000000e-001 0.000000e+000 0.000000e+000
 0.000000e+000 0.000000e+000 6.000000e-001 4.000000e-001 0.000000e+000
 0.000000e+000 0.000000e+000 0.000000e+000 7.000000e-001 3.000000e-001
 0.000000e+000 0.000000e+000 0.000000e+000 0.000000e+000 0.000000e+000
<ENDHMM>
~h "as"
<BEGINHMM>
<NUMSTATES> 5
<STATE> 2
<MEAN> 39
 -6.984174e+000 -2.323463e+001 -3.983595e+000 -1.457399e+001 1.954063e+000 -6.529132e+000 4.849518e+000 3.531652e+000 -7.132784e+000 -5.024026e+000 -1.094508e+001 -5.213624e+000 8.018711e+001 -4.035659e-001 -1.597888e+000 -7.835947e-001 2.420357e-001 2.487773e+000 2.220612e+000 -1.359224e-001 -1.299085e+000 1.072987e+000 -4.835222e-001 5.499347e-001 -5.534333e-002 6.562337e-001 -4.481290e-001 1.312212e+000 3.669581e-001 6.965967e-001 -3.891090e-003 -2.425922e-001 2.030664e-001 -3.920460e-001 4.747829e-001 3.067001e-001 8.354405e-001 3.137982e-001 -1.174900e+000
<VARIANCE> 39
 1.103727e+000 7.917472e-001 2.536792e+000 4.637434e+000 1.081121e+001 1.475002e+000 1.768135e+000 6.669456e+000 9.777957e-001 5.312902e+000 4.429239e-001 7.417137e+000 1.093573e+000 1.494153e-002 8.124605e-001 7.842048e-001 9.465902e-002 8.012869e-001 7.503483e-002 9.064597e-001 8.231742e-002 4.276286e-002 1.268569e-001 3.583330e-001 2.301063e-001 2.860890e-001 1.987200e-001 2.470392e-002 3.830723e-003 2.788198e-001 1.202908e-001 6.565428e-003 4.486365e-002 3.826377e-002 9.505561e-002 5.423002e-002 1.613759e-001 1.722228e-001 4.430975e-002
<GCONST> 2.315135e+001
<STATE> 3
<MEAN> 39
 -6.932560e+000 -2.368597e+001 -4.121517e+000 -1.382553e+001 8.060528e+000 -4.014869e+000 2.105773e+000 -8.715829e-001 -2.708541e+000 -1.938643e+000 -8.487185e+000 -5.022046e+000 7.884978e+001 4.296250e-001 6.979056e-002 -8.645269e-002 -4.138530e-001 6.925227e-001 4.905652e-001 -6.543193e-001 -6.363097e-001 6.448751e-001 4.832867e-001 3.833807e-001 -2.834602e-001 -4.785720e-001 1.784070e-001 2.775398e-001 -4.410338e-002 -8.835796e-002 -3.832172e-001 -1.634985e-001 6.976546e-002 -1.016336e-002 -2.705468e-001 1.604066e-001 -1.120665e-003 -2.679977e-001 -2.228379e-001
<VARIANCE> 39
 1.660781e+000 7.917472e-001 1.056583e+000 1.270134e+000 2.253086e+000 1.162853e+000 2.113555e+000 1.854530e+000 3.045483e+000 2.028139e+000 1.669135e+000 4.873914e+000 1.436751e+000 1.076815e-001 8.248715e-002 3.251349e-001 1.797434e-001 5.166942e-001 2.939303e-001 1.297428e-001 5.085953e-001 3.200552e-001 3.699005e-001 2.016231e-001 1.624550e+000 1.321343e-001 1.069707e-002 7.536780e-002 4.337731e-002 1.148420e-001 9.464733e-002 1.002500e-001 7.217824e-002 2.170712e-002 7.943187e-002 6.902418e-002 2.383562e-002 9.058920e-002 2.876144e-002
<GCONST> 2.297893e+001
<STATE> 4
<MEAN> 39
 -2.230113e+000 -2.164897e+001 -5.884432e+000 -1.569277e+001 6.554003e+000 -2.101048e+000 1.401678e+000 -3.167690e+000 -2.508895e+000 1.183455e+000 -7.466813e+000 -8.089437e+000 7.335452e+001 1.223367e+000 1.692702e+000 -4.183803e-002 1.676195e+000 -1.879871e+000 4.547092e-001 -3.419155e-002 -1.478864e+000 -2.014282e+000 1.766278e+000 6.901411e-001 -1.487003e+000 -2.160350e+000 -2.086474e-001 5.621472e-001 2.856775e-001 8.125115e-001 -4.421655e-002 -4.026566e-001 -3.103641e-001 -3.046180e-001 -5.934222e-001 -3.078737e-002 3.435586e-002 2.299417e-001 -2.323813e-001
<VARIANCE> 39
 7.841262e+000 4.781184e+000 6.772413e-001 4.277260e+000 2.166983e+001 2.261409e+000 5.609306e+000 1.092861e+000 6.096985e+000 1.234084e+001 4.429239e-001 5.796856e+000 1.763735e+001 4.269769e-001 2.821177e-001 7.868928e-001 7.281875e+000 1.116691e+000 3.597713e-001 4.874143e-001 4.071564e-001 1.526522e+000 2.672625e-001 6.770504e-002 4.668147e-001 1.304026e+000 1.425003e-001 1.469170e-002 1.152710e-001 5.005432e-001 6.628619e-001 6.366912e-002 2.749781e-001 1.471393e-001 1.454754e-001 2.864425e-001 2.648137e-002 6.345528e-002 7.129176e-002
<GCONST> 5.561659e+001
<TRANSP> 5
 0.000000e+000 1.000000e+000 0.000000e+000 0.000000e+000 0.000000e+000
 0.000000e+000 3.636363e-001 6.363636e-001 0.000000e+000 0.000000e+000
 0.000000e+000 0.000000e+000 8.372093e-001 1.627907e-001 0.000000e+000
 0.000000e+000 0.000000e+000 0.000000e+000 4.615390e-001 5.384610e-001
 0.000000e+000 0.000000e+000 0.000000e+000 0.000000e+000 0.000000e+000
<ENDHMM>
~h "aw"
<BEGINHMM>
<NUMSTATES> 5
<STATE> 2
<MEAN> 39
 -4.567753e+000 -7.143067e+000 -2.541086e-002 -1.135347e+001 -1.687831e+000 -1.954881e+000 -2.646961e+000 -2.072761e+000 -2.789703e+000 -2.519353e+000 -6.155596e+000 -5.577165e+000 7.077073e+001 1.284684e-001 3.519998e-002 5.042017e-002 -1.919170e-002 3.023124e-002 1.526818e-001 1.134414e-001 2.059520e-001 -9.232968e-004 -1.269177e-001 -8.922511e-002 -2.744853e-002 -7.531010e-002 5.912672e-003 1.712719e-002 -1.400904e-002 4.067212e-002 1.142783e-002 6.040929e-002 -2.948085e-002 1.259365e-002 -2.109511e-002 -7.946315e-003 -1.983920e-002 -3.233210e-002 -9.618374e-002
<VARIANCE> 39
 3.415611e+001 7.917472e+001 6.772413e+001 1.044564e+002 6.616837e+001 6.690615e+001 4.644624e+001 6.430594e+001 6.305968e+001 3.884728e+001 4.429239e+001 2.991177e+001 1.093573e+002 1.494153e+000 2.442461e+000 2.803278e+000 3.689717e+000 2.789096e+000 2.684588e+000 2.923815e+000 2.980957e+000 2.440595e+000 2.124268e+000 2.570347e+000 2.055594e+000 4.928689e+000 2.082175e-001 2.880168e-001 3.830723e-001 4.453130e-001 4.567120e-001 3.917358e-001 5.017791e-001 4.192902e-001 3.397919e-001 3.803485e-001 4.509306e-001 4.006631e-001 4.068455e-001
<GCONST> 1.247249e+002
<STATE> 3
<MEAN> 39
 -4.567753e+000 -7.143067e+000 -2.541086e-002 -1.135347e+001 -1.687831e+000 -1.954881e+000 -2.646961e+000 -2.072761e+000 -2.789703e+000 -2.519353e+000 -6.155596e+000 -5.577165e+000 7.077073e+001 1.284684e-001 3.519998e-002 5.042017e-002 -1.919170e-002 3.023124e-002 1.526818e-001 1.134414e-001 2.059520e-001 -9.232968e-004 -1.269177e-001 -8.922511e-002 -2.744853e-002 -7.531010e-002 5.912672e-003 1.712719e-002 -1.400904e-002 4.067212e-002 1.142783e-002 6.040929e-002 -2.948085e-002 1.259365e-002 -2.109511e-002 -7.946315e-003 -1.983920e-002 -3.233210e-002 -9.618374e-002
<VARIANCE> 39
 3.415611e+001 7.917472e+001 6.772413e+001 1.044564e+002 6.616837e+001 6.690615e+001 4.644624e+001 6.430594e+001 6.305968e+001 3.884728e+001 4.429239e+001 2.991177e+001 1.093573e+002 1.494153e+000 2.442461e+000 2.803278e+000 3.689717e+000 2.789096e+000 2.684588e+000 2.923815e+000 2.980957e+000 2.440595e+000 2.124268e+000 2.570347e+000 2.055594e+000 4.928689e+000 2.082175e-001 2.880168e-001 3.830723e-001 4.453130e-001 4.567120e-001 3.917358e-001 5.017791e-001 4.192902e-001 3.397919e-001 3.803485e-001 4.509306e-001 4.006631e-001 4.068455e-001
<GCONST> 1.247249e+002
<STATE> 4
<MEAN> 39
 -4.567753e+000 -7.143067e+000 -2.541086e-002 -1.135347e+001 -1.687831e+000 -1.954881e+000 -2.646961e+000 -2.072761e+000 -2.789703e+000 -2.519353e+000 -6.155596e+000 -5.577165e+000 7.077073e+001 1.284684e-001 3.519998e-002 5.042017e-002 -1.919170e-002 3.023124e-002 1.526818e-001 1.134414e-001 2.059520e-001 -9.232968e-004 -1.269177e-001 -8.922511e-002 -2.744853e-002 -7.531010e-002 5.912672e-003 1.712719e-002 -1.400904e-002 4.067212e-002 1.142783e-002 6.040929e-002 -2.948085e-002 1.259365e-002 -2.109511e-002 -7.946315e-003 -1.983920e-002 -3.233210e-002 -9.618374e-002
<VARIANCE> 39
 3.415611e+001 7.917472e+001 6.772413e+001 1.044564e+002 6.616837e+001 6.690615e+001 4.644624e+001 6.430594e+001 6.305968e+001 3.884728e+001 4.429239e+001 2.991177e+001 1.093573e+002 1.494153e+000 2.442461e+000 2.803278e+000 3.689717e+000 2.789096e+000 2.684588e+000 2.923815e+000 2.980957e+000 2.440595e+000 2.124268e+000 2.570347e+000 2.055594e+000 4.928689e+000 2.082175e-001 2.880168e-001 3.830723e-001 4.453130e-001 4.567120e-001 3.917358e-001 5.017791e-001 4.192902e-001 3.397919e-001 3.803485e-001 4.509306e-001 4.006631e-001 4.068455e-001
<GCONST> 1.247249e+002
<TRANSP> 5
 0.000000e+000 1.000000e+000 0.000000e+000 0.000000e+000 0.000000e+000
 0.000000e+000 6.000000e-001 4.000000e-001 0.000000e+000 0.000000e+000
 0.000000e+000 0.000000e+000 6.000000e-001 4.000000e-001 0.000000e+000
 0.000000e+000 0.000000e+000 0.000000e+000 7.000000e-001 3.000000e-001
 0.000000e+000 0.000000e+000 0.000000e+000 0.000000e+000 0.000000e+000
<ENDHMM>
~h "ch"
<BEGINHMM>
<NUMSTATES> 5
<STATE> 2
<MEAN> 39
 -1.023063e+001 -4.345596e-001 2.341331e+000 -7.562520e+000 -4.097927e+000 -8.286828e+000 -3.336890e+000 -5.454583e+000 -3.356277e+000 2.719454e+000 -6.993359e-001 3.364883e+000 5.130564e+001 -2.068504e+000 7.427626e-001 -1.932950e+000 -6.106339e-001 2.847422e+000 4.418042e-001 3.208507e+000 -6.272236e-001 1.687490e+000 -7.724105e-001 9.298742e-001 5.505396e-001 1.171751e+000 -1.240660e-001 6.190787e-001 8.801723e-001 -8.986564e-003 -8.198952e-001 -5.399565e-002 -5.806750e-002 2.189434e-001 -5.063683e-001 -9.637136e-001 3.593292e-001 -8.562869e-001 1.024133e+000
<VARIANCE> 39
 6.746827e+000 1.864694e+000 2.277265e+001 1.044564e+000 2.066010e+001 6.690615e-001 2.834234e+001 3.294402e+000 1.288074e+001 9.467264e+000 1.408011e+001 6.374752e+000 1.093573e+000 8.895646e-001 2.461699e+000 2.335130e+000 3.314692e-001 6.655207e-001 2.229969e-001 2.761275e+000 4.740832e-001 6.387112e-001 3.426285e+000 6.796823e-001 1.975259e+000 1.520034e+000 3.557534e-001 1.296503e-001 2.186445e+000 1.006736e-001 8.127808e-001 8.656076e-002 1.841919e+000 1.465745e-002 5.917559e-001 1.335324e-001 6.363743e-002 1.485042e-001 2.835034e-001
<GCONST> 7.500073e+001
<STATE> 3
<MEAN> 39
 -1.950445e+001 8.417229e+000 1.001692e+000 -1.042772e+001 2.878519e+000 -5.086433e+000 7.851494e+000 -6.224673e+000 -1.560823e+000 -5.832346e+000 1.142068e+000 -1.071665e+000 6.119111e+001 3.977822e-001 1.103084e+000 6.379771e+000 7.525738e-001 -3.217107e+000 -1.325607e+000 -2.974249e+000 -5.509938e-001 -2.683475e+000 -2.175813e+000 1.143973e+000 -2.568930e+000 5.973510e+000 1.418133e+000 -1.389986e+000 1.403128e+000 3.763709e-001 -2.212628e+000 -6.356183e-001 -2.620889e+000 6.697484e-001 -9.106256e-001 7.949214e-001 2.033200e-001 9.754106e-003 7.843772e-001
<VARIANCE> 39
 3.415611e-001 2.081926e+001 7.629835e+001 1.534799e+001 3.050452e+000 3.159065e+000 2.312122e+001 3.386885e+001 8.240911e+000 3.884728e-001 8.896046e-001 1.175713e+000 1.332705e+000 1.324812e+000 1.756673e+000 1.719177e+000 1.403424e-001 2.585307e+000 2.684588e-002 4.423244e+000 3.256606e-001 8.512538e-001 1.059174e+000 2.570347e-002 2.055594e-002 4.238352e-001 8.571060e-003 1.885993e-001 1.637353e+000 1.128874e-001 2.025578e-001 3.155761e-002 3.514992e-001 1.861214e-001 3.552456e-001 4.071331e-002 4.509306e-003 1.752438e-001 1.550615e-001
<GCONST> 5.060271e+001
<STATE> 4
<MEAN> 39
 -1.070679e+001 -4.896612e-002 1.734200e+001 -7.670291e+000 -1.608239e+001 -1.245867e+001 -1.015126e+001 -1.991468e+000 -8.608466e+000 -5.805322e+000 8.267826e+000 -4.132270e+000 7.808273e+001 1.614757e+000 -2.065888e+000 3.078071e-001 -2.261523e-001 -3.004147e+000 -1.206228e+000 -2.649500e+000 2.375884e+000 3.010647e-001 2.185602e-001 1.012287e+000 3.063699e-001 3.214608e+000 -5.724512e-002 1.299673e-002 -1.748439e+000 -1.961153e-001 1.415764e+000 1.281458e-001 1.122375e+000 -3.945531e-003 1.070320e+000 2.265150e-001 -8.523765e-001 8.795300e-001 -1.373109e+000
<VARIANCE> 39
 3.845759e-001 4.142643e+000 7.839567e+000 1.246763e+000 1.349989e+001 2.730576e+000 6.042292e+000 1.919671e+001 5.247694e+000 5.420465e-001 3.757105e+000 1.123817e+000 1.419132e+001 3.916501e-001 8.772120e-001 1.043762e+001 6.697214e-001 8.350867e+000 2.865103e-001 6.345154e+000 1.076316e+000 4.723534e+000 2.351915e-002 2.020563e+000 1.340298e+000 4.518018e+000 6.133612e-002 5.117332e-001 8.997705e-001 1.218814e-001 7.102719e-001 5.270764e-003 4.336394e-001 8.034480e-001 2.939738e-001 1.686379e-001 3.490366e-001 2.742157e-002 1.041039e-001
<GCONST> 6.966911e+001
<TRANSP> 5
 0.000000e+000 1.000000e+000 0.000000e+000 0.000000e+000 0.000000e+000
 0.000000e+000 7.500000e-001 2.500000e-001 0.000000e+000 0.000000e+000
 0.000000e+000 0.000000e+000 5.000000e-001 5.000000e-001 0.000000e+000
 0.000000e+000 0.000000e+000 0.000000e+000 7.500000e-001 2.500000e-001
 0.000000e+000 0.000000e+000 0.000000e+000 0.000000e+000 0.000000e+000
<ENDHMM>
~h "is"
<BEGINHMM>
<NUMSTATES> 5
<STATE> 2
<MEAN> 39
 -6.050910e+000 -3.835690e+000 9.693975e+000 -8.241232e+000 -1.309365e+001 -1.578975e+001 -1.007124e+001 1.978276e+000 -1.868729e+000 -5.730816e+000 1.750768e+000 2.725268e+000 7.934674e+001 1.471627e+000 3.064275e-001 -3.363819e-001 9.913656e-001 2.069458e+000 8.039809e-001 9.169031e-001 -8.592626e-001 5.076336e-001 -3.343168e-001 -3.802655e+000 3.498572e-001 -2.196241e+000 3.981634e-002 5.888316e-001 7.025297e-001 4.757593e-001 -3.907308e-003 1.150185e+000 1.688687e-001 -8.464552e-001 -4.687107e-001 1.933474e-002 -2.721541e-001 -1.097040e+000 -9.426949e-001
<VARIANCE> 39
 1.096709e+000 7.917472e-001 9.607559e-001 1.232499e+000 6.242563e+000 6.690615e-001 4.826127e-001 5.483438e+000 6.305968e-001 3.884728e-001 2.336876e+001 7.030483e+000 2.154373e+000 5.428590e-002 8.920720e-001 1.526034e+000 4.859566e-001 1.733870e-001 3.602827e+000 1.112886e-001 6.551920e-001 8.460032e-001 5.389880e-002 7.794474e-001 4.645333e+000 2.602314e+000 1.114855e-002 9.967255e-003 4.233330e-002 2.420437e-002 4.577001e-001 1.869567e-001 5.394868e-002 1.060298e-002 1.087357e-001 4.871523e-002 8.840014e-001 3.476345e-001 1.376709e-001
<GCONST> 3.699339e+001
<STATE> 3
<MEAN> 39
 -1.618109e+000 1.664559e+000 1.241564e+001 -2.061938e+000 -1.000632e+001 -1.713908e+000 -7.117875e+000 -8.647462e+000 -1.848695e-001 -4.522451e+000 -8.407622e+000 -7.185085e+000 6.657854e+001 -2.679526e-001 3.864777e-001 -1.186571e-001 2.590318e-001 -5.790476e-001 1.715616e+000 -3.610900e-001 -2.225187e+000 1.474454e+000 9.492015e-001 -2.951178e-001 -1.666076e+000 -6.282818e-001 -3.964064e-001 -5.029894e-001 -2.572342e-001 -5.589964e-001 -9.023315e-002 -1.004370e+000 -2.870418e-001 6.300855e-001 2.508717e-001 -7.073076e-003 2.238689e-001 4.584559e-001 8.311638e-001
<VARIANCE> 39
 1.916142e+000 7.917472e-001 1.366284e+000 1.729238e+000 7.696266e+000 8.454456e+000 3.669280e+000 3.770162e+001 1.139928e+001 8.259019e+000 6.851073e+000 6.515622e+000 1.645179e+000 1.164352e+000 1.090544e+000 5.568072e-001 1.719651e+000 7.032589e-001 6.075491e+000 5.611495e-001 3.485491e+000 8.216383e-001 3.662200e-001 1.874706e+000 1.841657e+000 4.343266e+000 1.934944e-001 4.770619e-002 6.990620e-002 8.385642e-002 5.603277e-001 4.177895e-001 1.052061e-001 7.732527e-001 2.579661e-001 2.857077e-001 1.271583e+000 1.807937e-001 4.501888e-001
<GCONST> 7.606411e+001
<STATE> 4
<MEAN> 39
 -1.670976e+000 -1.763458e+000 8.172870e+000 -3.797951e+000 -8.001443e+000 -6.471908e+000 -1.205666e+001 -1.064223e+001 1.081574e+000 -8.870433e+000 -1.710988e+001 -8.519510e+000 6.501043e+001 4.137152e-001 -9.491818e-002 -5.051262e-001 4.233252e-001 8.000678e-001 4.669363e-002 2.299086e-001 6.217249e-001 -1.013456e+000 -1.874729e+000 -1.688348e+000 -8.215260e-002 -1.015429e+000 4.051484e-004 1.483385e-001 7.617425e-002 2.417244e-001 5.341796e-002 2.136236e-001 1.751585e-001 4.235225e-002 -2.446165e-001 -2.282734e-001 6.484150e-002 4.538234e-002 -1.637036e-001
<VARIANCE> 39
 5.517175e+000 1.329213e+000 8.821595e+000 3.076721e+000 3.772737e+000 1.528396e+001 8.391286e+000 6.996740e+000 1.629484e+001 2.368525e+001 1.663456e+001 5.101646e+000 1.243110e+001 3.722537e-001 4.613635e-001 7.041704e-001 7.430186e-001 3.113976e-001 3.479794e+000 2.905369e+000 3.049586e+000 9.677531e-001 1.094662e+000 1.817985e+000 6.332888e-001 2.908738e-001 1.348050e-001 2.546746e-002 1.692754e-001 7.431126e-002 5.157682e-002 4.841685e-001 4.680559e-001 6.841410e-001 2.395191e-001 2.655163e-001 5.437775e-001 1.661565e-001 8.125017e-002
<GCONST> 7.428273e+001
<TRANSP> 5
 0.000000e+000 1.000000e+000 0.000000e+000 0.000000e+000 0.000000e+000
 0.000000e+000 7.500000e-001 2.500000e-001 0.000000e+000 0.000000e+000
 0.000000e+000 0.000000e+000 8.000000e-001 2.000000e-001 0.000000e+000
 0.000000e+000 0.000000e+000 0.000000e+000 9.000000e-001 9.999999e-002
 0.000000e+000 0.000000e+000 0.000000e+000 0.000000e+000 0.000000e+000
<ENDHMM>
~h "kh"
<BEGINHMM>
<NUMSTATES> 5
<STATE> 2
<MEAN> 39
 -1.596733e+001 -3.997203e+000 -1.143209e+001 4.258613e+000 1.010292e+001 -2.587152e+000 -8.141246e+000 4.063012e+000 9.738930e+000 -2.140196e+000 -3.826773e-001 -6.691337e+000 5.679387e+001 8.041950e-002 -9.220218e-001 3.823884e-001 1.357257e-001 1.237343e+000 9.323812e-001 -4.154686e-001 -8.979034e-001 3.868725e-001 3.028002e-001 1.583910e+000 -4.231457e-001 1.469406e+000 4.521211e-001 2.014620e-002 4.627710e-002 -8.383062e-002 1.029647e-001 4.379928e-001 6.543379e-001 1.976787e-001 -4.441859e-001 1.032327e-001 -1.003432e+000 -2.989575e-002 1.303421e-001
<VARIANCE> 39
 2.084380e+000 3.590203e+000 2.496394e+000 9.015216e+000 6.199272e+000 3.854489e+000 1.061760e+001 1.031565e+001 2.490490e+000 2.865712e+000 1.795875e+001 1.315296e+000 4.177665e+000 6.793742e-001 2.442461e-002 1.238072e-001 2.024966e-001 1.980592e-001 1.261277e+000 2.850830e-001 2.343814e-001 5.952649e-001 1.582096e-001 2.634984e+000 6.018499e-002 1.532892e-001 1.796379e-002 8.599022e-003 3.830723e-003 1.766442e-002 7.203031e-002 1.568704e-001 2.619736e-001 1.392034e-002 2.574307e-002 3.081202e-002 1.820634e-001 1.820707e-002 3.182095e-002
<GCONST> 2.850381e+001
<STATE> 3
<MEAN> 39
 -1.323045e+001 -6.524339e+000 -1.148247e+001 2.919370e+000 1.420066e+001 4.752900e+000 -5.291142e+000 4.003714e+000 8.344825e+000 -1.675065e+000 -1.093413e+000 -7.569571e+000 6.209032e+001 9.622098e-001 -5.015898e-001 9.390486e-001 -3.148812e-001 5.052925e-001 4.789702e-001 3.661642e+000 -8.725520e-001 -8.771725e-001 -1.035046e-001 -1.996055e+000 1.478264e-002 1.092299e+000 7.368144e-001 -5.169494e-001 3.606767e-001 -8.330772e-001 -1.209470e+000 -1.088655e+000 2.032917e-001 -3.614910e-001 -7.834523e-001 -1.762626e-001 -1.066104e-001 -4.815732e-001 3.614777e-001
<VARIANCE> 39
 3.415611e-001 7.917472e-001 9.895343e-001 5.187615e+000 2.052489e+000 6.396767e+000 4.944654e+000 6.164958e+000 6.305968e-001 1.870340e+000 4.429239e-001 1.386109e+000 1.093573e+000 7.338549e-002 1.080571e-001 2.803278e-002 3.689717e-002 3.780415e-001 2.306615e+000 8.988557e-002 2.382361e-001 9.960035e-002 1.709859e-001 2.570347e-002 2.055594e-002 1.138415e-001 5.452995e-002 1.134971e-001 6.795570e-003 1.466534e-001 7.392313e-002 5.805715e-003 1.930009e-001 1.313019e-002 8.729752e-003 4.069068e-003 1.677424e-001 7.936742e-002 9.800837e-002
<GCONST> 5.665873e+000
<STATE> 4
<MEAN> 39
 -1.193426e+001 -7.847635e+000 -6.534401e+000 3.271119e+000 1.344095e+001 -3.739234e-001 4.907516e+000 -6.030232e-001 7.291471e+000 -1.551604e-001 -5.536473e+000 -8.194183e+000 6.276036e+001 4.145317e+000 -3.146813e+000 1.640416e+000 -3.695934e+000 -3.238483e+000 -1.587652e+000 6.343793e-001 -1.504368e+000 -3.730639e+000 -2.446175e-001 -4.545051e-001 -2.600206e+000 3.598408e+000 9.304586e-001 -1.208907e+000 -1.351144e-001 -1.243702e+000 -8.946074e-001 1.353782e-001 -1.457168e+000 4.085834e-001 -5.892440e-001 -2.567200e-001 6.956306e-001 -5.733841e-001 1.060016e+000
<VARIANCE> 39
 3.415611e-001 1.358378e+000 6.772413e-001 4.129501e+000 6.616836e-001 1.036406e+001 2.063541e+000 1.654457e+000 1.863928e+000 7.676699e+000 6.260162e-001 2.991177e-001 1.093573e+000 7.653013e-001 1.212916e+000 2.803278e-002 2.159461e+000 7.390613e-001 4.181644e-001 5.398087e-001 6.581882e-001 1.550816e-001 2.124268e-002 7.239672e-002 3.882327e-001 1.076048e+000 4.564828e-002 2.703772e-002 2.698331e-002 7.384272e-002 1.607378e-001 3.329572e-001 5.017790e-003 3.188887e-002 5.999676e-002 2.115147e-002 4.509306e-003 9.533752e-002 1.014074e-002
<GCONST> 1.826766e+001
<TRANSP> 5
 0.000000e+000 1.000000e+000 0.000000e+000 0.000000e+000 0.000000e+000
 0.000000e+000 7.500000e-001 2.500000e-001 0.000000e+000 0.000000e+000
 0.000000e+000 0.000000e+000 5.000000e-001 5.000000e-001 0.000000e+000
 0.000000e+000 0.000000e+000 0.000000e+000 5.000000e-001 5.000000e-001
 0.000000e+000 0.000000e+000 0.000000e+000 0.000000e+000 0.000000e+000
<ENDHMM>
~h "ng"
<BEGINHMM>
<NUMSTATES> 5
<STATE> 2
<MEAN> 39
 7.544671e+000 -1.714955e+001 -7.094894e+000 -2.153686e+001 -1.021060e+001 9.546524e+000 3.302408e+000 4.599999e+000 -1.606274e+001 -8.856895e+000 -2.916085e+000 -1.846905e+001 7.485659e+001 9.173726e-002 2.864311e+000 2.408397e+000 -2.680867e-001 -2.770898e+000 -7.824015e-002 -1.887554e+000 1.699993e+000 4.881611e-001 9.136259e-001 -2.764359e+000 3.946601e-001 -1.530946e+000 -4.790552e-001 2.107597e-001 8.090354e-001 8.963265e-001 9.029055e-001 3.996256e-002 -1.551181e+000 -6.063507e-001 4.616686e-001 -2.629674e-001 -2.134737e-001 1.186064e+000 -8.362755e-002
<VARIANCE> 39
 1.081992e+000 4.806551e+000 5.370942e+000 2.888998e+000 2.712939e+001 1.454806e+000 1.390567e+000 1.064865e+001 2.912664e+000 1.717547e+000 2.259679e+001 2.676969e+000 2.976033e+000 3.281761e-001 9.815351e-002 1.420010e+000 1.635202e+000 1.823419e+000 2.684588e-002 2.929392e+000 1.696856e+000 8.139554e-001 6.112966e-001 2.570347e-002 2.758174e+000 4.928688e-002 1.499917e-002 5.097134e-002 2.561160e-002 1.796255e-002 1.043309e+000 6.559351e-002 2.234533e-002 1.632001e-001 1.632027e-001 1.744535e-001 5.736332e-001 3.627153e-002 1.245157e-002
<GCONST> 4.390707e+001
<STATE> 3
<MEAN> 39
 5.019064e+000 -9.758525e+000 3.305442e+000 -1.671223e+001 -9.732798e+000 8.948431e+000 -8.445486e+000 2.031322e+000 -1.222824e+001 -7.500263e+000 -8.022330e+000 -1.109855e+001 7.100208e+001 -1.297133e+000 2.560855e+000 3.546871e+000 1.318653e+000 2.960691e+000 1.210828e+000 -5.656899e+000 -3.441750e-001 -1.917188e-001 -1.355629e+000 -5.506360e-001 2.706933e+000 -1.301004e+000 -4.836150e-002 -3.760166e-001 -4.891687e-001 -5.132598e-001 1.111589e+000 8.209921e-002 1.763695e-001 3.872039e-001 -7.935497e-001 -6.663167e-001 1.037649e+000 -1.292811e-001 2.387148e-001
<VARIANCE> 39
 1.071545e+000 1.233694e+000 8.156413e+000 4.599844e+000 5.983792e+000 1.700235e+000 7.009472e+000 6.430594e-001 3.405073e+000 2.671072e+001 7.359983e+000 6.619709e+000 1.760351e+000 1.494153e-002 1.429203e-001 1.762593e-001 1.603885e-001 7.993991e-001 4.757766e-002 2.923816e-002 3.356280e-001 8.904954e-001 4.333487e-001 1.279916e+000 1.154245e-001 4.928688e-002 3.031006e-002 2.880168e-003 1.278622e-001 9.750018e-002 3.831975e-001 5.097888e-002 4.181344e-001 1.047994e-001 3.397919e-003 1.281812e-001 4.509306e-003 1.114468e-001 6.135949e-003
<GCONST> 2.366327e+001
<STATE> 4
<MEAN> 39
 3.156166e+000 -4.390337e+000 8.256893e+000 -1.967696e+001 -2.292784e+000 1.120456e+001 -1.833793e+001 7.822013e+000 -1.705183e+001 -1.262129e+001 -6.288306e+000 -7.411065e+000 6.852429e+001 -3.627968e-001 1.275158e+000 7.433619e-001 -7.275385e-001 9.911114e-001 -5.845683e-001 -7.848895e-001 1.577768e+000 -9.403646e-001 -1.134171e+000 6.229882e-001 1.064816e+000 -4.330466e-001 1.789365e-001 -3.088846e-001 -6.123202e-001 -1.880266e-002 -7.003447e-001 -3.756900e-001 1.164101e+000 -3.518910e-002 2.360629e-001 1.808825e-001 -6.870741e-002 -2.867020e-001 2.004807e-001
<VARIANCE> 39
 3.415611e-001 2.266244e+000 7.785809e-001 2.525942e+000 9.670226e-001 4.830008e+000 9.082356e-001 6.269899e+000 2.695951e+000 3.318664e+000 4.302979e+000 3.017830e+000 1.093573e+000 3.689805e-002 1.455624e-001 5.842066e-001 3.199482e-001 1.340746e+000 5.510687e-001 2.580159e+000 3.735417e-001 5.647312e-001 3.018084e-001 3.316138e-001 7.331645e-002 7.931942e-002 1.189051e-002 1.028128e-002 8.734581e-002 1.743909e-001 6.938664e-002 1.026045e-001 3.146693e-001 2.068946e-001 9.862106e-002 1.875273e-002 1.453612e-001 2.437538e-002 9.181145e-003
<GCONST> 2.746238e+001
<TRANSP> 5
 0.000000e+000 1.000000e+000 0.000000e+000 0.000000e+000 0.000000e+000
 0.000000e+000 6.666667e-001 3.333333e-001 0.000000e+000 0.000000e+000
 0.000000e+000 0.000000e+000 5.000000e-001 5.000000e-001 0.000000e+000
 0.000000e+000 0.000000e+000 0.000000e+000 7.500000e-001 2.500000e-001
 0.000000e+000 0.000000e+000 0.000000e+000 0.000000e+000 0.000000e+000
<ENDHMM>
~h "oo"
<BEGINHMM>
<NUMSTATES> 5
<STATE> 2
<MEAN> 39
 3.519358e+000 -2.167669e+001 -4.854614e+000 -1.362621e+001 2.016557e+000 -5.053645e-001 -3.334805e+000 -1.446135e+000 -6.244067e+000 -4.053240e+000 -3.337404e+000 -1.753603e+001 7.851555e+001 3.043563e+000 -4.116248e+000 2.553073e-002 -2.965038e+000 -1.651186e+000 9.250076e-001 -6.375877e-001 3.045702e-001 -1.515858e+000 -9.427171e-001 7.676240e-001 -6.090979e-001 3.534960e+000 -1.029063e+000 6.453635e-001 -5.282902e-001 1.375300e+000 9.374423e-001 6.621001e-001 4.257439e-001 4.411558e-002 1.068772e+000 -1.133839e-001 1.652053e-001 1.190856e+000 -1.078513e+000
<VARIANCE> 39
 5.572002e-001 2.039169e+001 9.188645e-001 4.874356e+000 7.118926e-001 6.690615e-001 1.107001e+000 5.551805e+000 2.202598e+000 9.471288e-001 5.898432e-001 2.991177e-001 8.659000e+000 2.730162e+000 1.278760e+000 2.111842e-001 5.645679e+000 2.575927e+000 7.022214e-001 2.476989e+000 2.980957e-002 4.011529e+000 1.487260e-001 2.570347e-002 3.639682e+000 3.104666e+000 7.872669e-002 3.212367e-001 1.687432e-002 2.744029e-001 4.934870e-002 7.447618e-002 1.322165e-001 1.783943e-001 3.702685e-002 9.284833e-003 4.998945e-002 4.157101e-002 2.821741e-001
<GCONST> 4.167751e+001
<STATE> 3
<MEAN> 39
 5.771813e+000 -2.771646e+001 -7.500414e+000 -1.142125e+001 2.046560e+000 4.785656e+000 2.596116e-001 -2.641852e+000 -4.976017e+000 -6.623286e+000 -1.330342e+000 -1.168921e+001 8.003795e+001 8.924202e-002 -3.599938e-001 -8.592731e-001 2.885247e-001 -9.274985e-001 1.144235e+000 1.571523e-001 -3.989442e-001 -1.000472e+000 -1.011563e+000 -3.196591e-002 7.902044e-001 -1.354802e-001 -3.587546e-001 7.867239e-001 -1.079062e-002 -1.497162e-001 -2.259941e-001 -1.778625e-001 -1.381613e-001 1.002282e-001 -3.927341e-001 3.551034e-002 -5.977551e-002 -3.652417e-001 -3.409012e-001
<VARIANCE> 39
 3.415611e-001 1.903620e+000 6.772413e-001 1.044564e+000 1.643724e+000 1.010433e+000 1.639860e+000 8.304829e-001 2.268619e+000 1.412810e+000 1.023260e+000 9.802044e-001 1.093573e+000 1.977397e-001 6.871408e-001 4.558942e-002 3.588066e-001 6.947021e-001 9.435032e-002 3.939680e-001 3.605067e-001 5.822475e-001 3.923973e-002 2.764304e-001 7.154996e-001 4.928688e-002 6.727589e-002 2.969684e-002 1.469072e-002 3.195877e-001 1.012257e-001 3.917357e-003 6.843131e-002 2.930463e-002 7.804160e-002 4.834899e-003 1.170906e-001 1.057968e-001 1.394080e-001
<GCONST> 1.391320e+001
<STATE> 4
<MEAN> 39
 5.186331e+000 -2.465746e+001 -9.521367e+000 -1.498536e+001 -2.274084e+000 7.646978e+000 5.227862e-001 -2.644040e+000 -1.195488e+001 -1.007272e+001 1.911686e-001 -1.281726e+001 7.887877e+001 3.371476e-001 1.435162e+000 1.408180e-001 -1.782417e+000 -6.489862e-001 6.682279e-001 8.768417e-001 4.416557e-001 -1.707274e+000 -3.182071e-001 8.969884e-001 -1.183810e+000 -7.035202e-001 2.105299e-001 3.183978e-001 4.104533e-001 -2.038851e-001 -2.653348e-001 -1.019473e-001 5.038645e-002 4.837275e-001 2.395771e-001 3.731229e-001 -3.912809e-001 -2.747517e-001 -2.351915e-001
<VARIANCE> 39
 8.576328e-001 1.046038e+000 1.240393e+000 8.812595e+000 1.363512e+000 7.164531e-001 1.960085e+000 1.339252e+000 4.157208e+000 1.696603e+000 5.051803e+000 2.328664e+000 1.093573e+000 1.721162e-001 7.279205e-002 1.978025e-001 2.632029e-001 3.107488e-001 5.132252e-002 1.296010e-001 8.774898e-001 2.837351e-002 2.117820e-001 4.999774e-001 5.556614e-001 8.796614e-002 1.714800e-002 2.299849e-002 3.830723e-003 1.324109e-001 3.918236e-001 3.917357e-003 1.732353e-001 1.368947e-001 7.944652e-002 2.905207e-002 5.202399e-001 8.849770e-002 4.068455e-003
<GCONST> 1.663666e+001
<TRANSP> 5
 0.000000e+000 1.000000e+000 0.000000e+000 0.000000e+000 0.000000e+000
 0.000000e+000 6.666667e-001 3.333333e-001 0.000000e+000 0.000000e+000
 0.000000e+000 0.000000e+000 7.500000e-001 2.500000e-001 0.000000e+000
 0.000000e+000 0.000000e+000 0.000000e+000 7.500000e-001 2.500000e-001
 0.000000e+000 0.000000e+000 0.000000e+000 0.000000e+000 0.000000e+000
<ENDHMM>
~h "ooj"
<BEGINHMM>
<NUMSTATES> 5
<STATE> 2
<MEAN> 39
 5.390991e+000 -2.927218e+000 -2.197255e+000 -2.205016e+001 6.665012e-001 1.170974e+001 -4.595722e+000 5.371605e+000 -1.245847e+001 4.748298e+000 -2.724979e+000 -5.935652e+000 7.210003e+001 1.456633e-001 1.267159e-001 -1.940426e+000 -2.133107e+000 -1.195098e+000 1.842407e+000 2.479642e-002 2.684434e+000 -5.304509e-001 -1.375753e+000 1.624250e+000 -1.668800e+000 1.026485e+000 -5.134774e-001 3.352064e-001 4.608184e-001 3.306988e-001 1.281815e-001 -1.897571e-001 4.259744e-002 -1.579335e-001 2.130769e-001 -1.588224e-001 -2.395943e-001 6.232097e-002 -4.949231e-001
<VARIANCE> 39
 1.345657e+000 1.266596e+000 8.316925e+000 9.724107e+000 3.850118e+000 1.881873e+001 1.366873e+000 1.814277e+001 5.169124e+000 1.111081e+001 1.385039e+001 1.239055e+001 2.401562e+000 1.630153e+000 5.729458e-001 3.103192e+000 5.832604e-001 1.673023e-001 7.715356e-001 1.060392e-001 8.720156e-001 5.829003e-001 7.625036e-001 4.021374e-001 9.849169e-002 1.931100e-001 1.224177e-001 2.609386e-002 3.349895e-001 2.265970e-001 1.474367e-002 6.611284e-001 4.640969e-002 2.360104e-001 7.483432e-002 1.394721e-001 1.629058e-001 5.441903e-002 2.148821e-001
<GCONST> 5.628659e+001
<STATE> 3
<MEAN> 39
 2.271757e+000 1.311671e+000 -3.591969e+000 -3.122105e+001 -3.943503e+000 1.079085e+001 -2.638960e+000 1.388290e+001 -1.087331e+001 -1.423816e+000 -2.302750e+000 -1.187381e+001 7.374684e+001 -2.143772e-001 1.098586e+000 2.781709e-001 -9.312782e-002 -1.317331e+000 -1.692293e+000 4.738509e-001 2.105626e-001 1.096778e+000 3.222441e-001 -1.277026e+000 -2.184109e-002 -6.202722e-001 1.996168e-001 1.360282e-001 1.182224e-001 8.186296e-001 -1.481893e-001 -4.518822e-002 -1.016763e-001 -5.200520e-001 1.077895e-001 3.587076e-001 -1.830000e-001 3.108998e-001 -4.415575e-001
<VARIANCE> 39
 3.415611e-001 2.483953e+000 8.965242e-001 3.015103e+000 4.950737e+000 1.316270e+001 3.167528e+000 1.279531e+000 6.450113e+000 2.062246e+000 5.290906e+000 5.906392e-001 1.132429e+000 5.155068e-002 2.287796e-001 5.088256e-002 2.984288e+000 1.170647e+000 2.377713e-001 5.298080e-001 7.078689e-001 7.112988e-002 1.070709e+000 1.775436e-001 2.260271e-001 2.749475e-001 2.241660e-002 2.712832e-002 3.942427e-002 1.028566e-001 2.535145e-001 3.190680e-001 1.323887e-001 2.517221e-002 2.726919e-002 1.692919e-001 1.164435e-001 4.867399e-002 4.381448e-002
<GCONST> 3.145835e+001
<STATE> 4
<MEAN> 39
 3.998333e+000 8.546512e+000 4.902439e-001 -1.950969e+001 -9.152475e+000 5.519767e+000 -2.289135e+000 8.950562e+000 -4.876985e+000 1.475636e-001 -8.094865e+000 -8.144877e+000 6.407774e+001 7.393928e-001 8.061410e-001 1.688849e+000 4.737877e+000 2.126976e+000 5.670762e-002 1.080569e+000 -5.458732e-001 1.876855e+000 -1.365118e+000 -1.821056e-001 1.418636e+000 -3.277791e+000 -1.520542e-001 -6.379183e-001 -4.246295e-002 3.827040e-001 1.031099e+000 3.008305e-001 5.854176e-001 5.968366e-001 1.226702e-001 -4.260274e-001 5.171328e-001 -2.631429e-002 1.022554e-001
<VARIANCE> 39
 4.809174e+000 1.977564e+000 1.046929e+001 6.790299e+001 3.192471e+001 2.276002e+000 2.116845e+000 2.488131e+001 7.805867e-001 2.328038e+001 3.759653e+000 1.351014e+001 2.336185e+001 2.363078e-001 8.347802e-001 3.215156e-001 1.768635e+000 5.674717e+000 2.684588e-002 1.294029e+000 3.741518e+000 4.722137e-001 2.035507e+000 4.900520e-001 4.160593e-001 2.225717e-001 1.642243e-001 5.911215e-002 3.705424e-001 6.173435e-001 1.068781e+000 1.662823e-002 5.367843e-002 2.198600e-001 6.620148e-002 7.357710e-001 2.905860e-002 2.077857e-001 4.722643e-001
<GCONST> 6.963901e+001
<TRANSP> 5
 0.000000e+000 1.000000e+000 0.000000e+000 0.000000e+000 0.000000e+000
 0.000000e+000 8.333333e-001 1.666667e-001 0.000000e+000 0.000000e+000
 0.000000e+000 0.000000e+000 8.333333e-001 1.666667e-001 0.000000e+000
 0.000000e+000 0.000000e+000 0.000000e+000 7.500000e-001 2.500000e-001
 0.000000e+000 0.000000e+000 0.000000e+000 0.000000e+000 0.000000e+000
<ENDHMM>
~h "oos"
<BEGINHMM>
<NUMSTATES> 5
<STATE> 2
<MEAN> 39
 -1.046904e+001 -2.235392e+000 -9.707123e+000 -3.551672e+001 -1.267661e+001 8.638893e+000 -1.311387e+001 1.291960e+000 -8.746938e+000 -3.963608e+000 1.155684e+000 -9.244195e+000 8.594482e+001 -2.447068e-001 3.407177e-001 -3.567764e-002 -4.414560e-001 5.873104e-002 -7.616535e-002 -5.512131e-001 7.269196e-001 -2.968554e-001 -3.052010e-001 -1.535357e+000 3.737525e-001 -1.257201e-001 1.676514e-001 8.422749e-002 5.478546e-002 3.612264e-001 -7.527648e-002 -2.463955e-003 3.879094e-002 -2.801904e-003 1.213979e-001 -2.408053e-001 9.899823e-002 7.797391e-002 -1.842598e-001
<VARIANCE> 39
 7.407754e-001 1.128784e+000 8.607662e-001 4.728426e+000 4.253267e+000 2.127208e+000 3.177957e+001 1.475238e+001 4.021335e+000 1.535409e+000 2.107842e+001 7.013834e+000 1.093573e+000 1.430406e-001 3.112345e-002 1.151615e-001 6.401647e-001 1.113325e+000 2.119989e-001 4.533970e+000 1.396364e+000 4.996666e-001 4.351152e-001 5.572478e-001 2.648345e+000 2.096931e-001 6.627713e-003 1.497950e-002 3.952733e-002 1.418734e-001 2.317096e-001 6.425237e-002 1.211987e+000 3.099744e-001 1.093980e-001 4.138302e-002 2.021314e-001 7.557607e-001 2.328481e-002
<GCONST> 4.721774e+001
<STATE> 3
<MEAN> 39
 -9.068309e+000 1.430606e+000 -9.865156e+000 -3.284529e+001 -1.341419e+001 1.057830e+001 -1.355577e+001 7.637225e+000 -7.376067e+000 -9.726828e+000 -4.242183e+000 -3.592133e+000 8.299848e+001 1.125380e+000 7.781505e-001 1.407327e-001 1.930777e+000 -5.909581e-001 -9.434968e-001 2.472115e+000 1.142807e-001 2.107008e+000 -9.602084e-001 -3.048199e-001 2.737313e+000 -1.184386e+000 1.831000e-001 -3.628972e-001 2.927001e-001 5.825241e-002 -1.900345e-001 -1.451348e+000 -3.304921e-002 -6.288791e-001 2.680495e-001 8.673204e-001 -3.493124e-001 -8.833253e-001 -3.988681e-001
<VARIANCE> 39
 1.308242e+000 2.574657e+000 1.052754e+000 5.391704e+000 1.201970e+000 6.690615e-001 5.557951e+000 1.263610e+000 1.038084e+001 1.617628e+000 6.934420e-001 1.610061e+001 1.093573e+000 3.013861e-002 1.648582e-001 7.470871e-002 6.879404e-002 5.483400e-001 3.452137e+000 3.268487e-001 5.900279e-001 3.806808e-001 6.322756e-001 7.015545e-001 1.497058e+000 1.818127e-001 7.570971e-003 8.381379e-002 5.867362e-003 3.923959e-002 9.016220e-002 2.339409e-001 1.365359e-001 8.230414e-002 1.444028e-001 1.703015e-001 8.172739e-002 6.943162e-001 4.068455e-003
<GCONST> 3.085386e+001
<STATE> 4
<MEAN> 39
 -3.785657e+000 -4.556701e-001 -5.849380e+000 -2.614280e+001 -1.335433e+001 -4.382412e+000 -7.243599e+000 1.335185e+000 -1.368125e+000 -4.181180e+000 -7.334389e+000 -4.903805e+000 7.461250e+001 9.610695e-001 -7.433971e-001 1.782604e+000 1.578555e+000 1.656372e+000 -2.777214e+000 9.023739e-001 -1.825534e+000 -3.813098e-001 9.954416e-001 3.764391e-001 -1.145247e+000 -2.367795e+000 -3.531923e-001 -2.162025e-002 1.972605e-001 -1.028019e-001 3.842762e-001 6.091415e-001 -3.142085e-001 -1.241983e-003 -6.786474e-001 -4.861185e-001 4.467255e-001 3.283902e-002 1.442949e-002
<VARIANCE> 39
 4.457941e+000 2.570702e+000 1.089160e+001 6.423513e+000 1.218987e+001 2.923820e+001 4.280011e+000 9.045809e+000 1.317500e+000 1.639563e+001 9.340601e+000 1.788766e+001 1.291532e+001 2.977395e-001 2.421419e-001 3.941145e-001 9.209594e-002 1.492974e+000 5.519341e+000 2.326896e-001 3.402171e-001 1.838793e+000 3.809312e+000 2.638979e+000 1.336968e+000 4.928688e-002 1.135176e-001 9.898329e-002 1.316826e-001 2.683611e-002 4.454383e-001 5.513400e-001 8.915571e-003 1.341209e-001 1.327885e-001 7.333251e-001 3.201894e-001 6.076479e-001 7.826884e-002
<GCONST> 6.768946e+001
<TRANSP> 5
 0.000000e+000 1.000000e+000 0.000000e+000 0.000000e+000 0.000000e+000
 0.000000e+000 9.000000e-001 9.999999e-002 0.000000e+000 0.000000e+000
 0.000000e+000 0.000000e+000 6.666667e-001 3.333333e-001 0.000000e+000
 0.000000e+000 0.000000e+000 0.000000e+000 8.000000e-001 2.000000e-001
 0.000000e+000 0.000000e+000 0.000000e+000 0.000000e+000 0.000000e+000
<ENDHMM>
