~o
<STREAMINFO> 1 39
<VECSIZE> 39<NULLD><MFCC_D_A_0><DIAGC>
~s "silst"
<MEAN> 39
 -1.632614e+01 9.456221e-01 -1.964726e+00 -1.390600e+00 -1.437962e+00 9.553369e-02 -1.443826e-01 1.301469e+00 -2.466036e+00 -9.645218e-01 -2.449203e+00 -2.580187e+00 5.718475e+01 5.632292e-02 -4.200869e-03 -7.730273e-02 -4.372087e-02 -3.342953e-02 -3.147202e-02 6.208581e-02 -2.982021e-02 6.142151e-02 2.948959e-02 7.256676e-02 1.905295e-02 4.901281e-02 3.582590e-02 -1.568169e-02 -9.240609e-03 -1.781531e-02 -1.344708e-02 -1.309734e-02 -5.132083e-03 -1.923967e-02 -5.362928e-02 -1.340140e-02 1.118058e-02 2.104361e-02 3.284492e-02
<VARIANCE> 39
 1.748512e+01 5.114805e+00 4.092861e+00 4.317737e+00 1.031952e+01 1.312241e+01 1.937046e+01 1.191074e+01 9.684601e+00 8.583043e+00 8.052768e+00 6.376944e+00 1.463665e+01 1.522033e+00 3.225543e-01 2.743742e-01 4.327185e-01 6.352255e-01 9.195865e-01 1.447728e+00 1.346756e+00 1.242599e+00 7.570947e-01 5.425142e-01 5.172958e-01 1.146502e+00 3.834039e-01 7.507806e-02 4.876878e-02 9.677510e-02 1.464014e-01 2.278417e-01 3.390050e-01 3.095103e-01 2.930297e-01 1.882627e-01 9.063172e-02 9.823452e-02 3.008895e-01
<GCONST> 7.314878e+01
~h "a"
<BEGINHMM>
<NUMSTATES> 5
<STATE> 2
<MEAN> 39
 -2.455703e+00 -5.717303e+00 1.076835e+01 -6.640776e+00 -9.621048e-02 3.865978e+00 -9.732310e+00 4.915656e+00 -5.077766e-01 7.779971e+00 -7.286119e+00 3.530341e+00 7.156342e+01 6.148428e-02 1.400941e-01 2.083330e-01 1.449675e-01 -4.727847e-02 7.933066e-02 -1.209719e-02 9.011694e-02 -2.011663e-02 -9.748098e-02 3.703512e-02 -8.239833e-02 -3.252154e-03 4.343029e-02 -6.422262e-03 -7.289152e-03 -1.579119e-02 -3.128738e-02 -3.447816e-02 -9.092795e-03 -4.128731e-02 -4.199384e-03 1.418165e-02 1.165347e-02 1.728878e-02 3.912682e-02
<VARIANCE> 39
 2.944928e+01 1.275568e+01 6.722233e+01 9.176039e+01 9.895422e+01 6.958385e+01 1.039606e+02 9.409481e+01 4.874114e+01 6.919073e+01 8.511372e+01 6.862362e+01 6.105831e+01 1.640682e+00 1.054916e+00 3.101656e+00 1.927933e+00 3.516902e+00 5.980243e+00 6.319464e+00 4.580436e+00 2.992494e+00 4.595581e+00 4.445662e+00 3.366205e+00 8.522838e-01 3.149445e-01 1.797418e-01 4.488324e-01 3.416802e-01 5.789410e-01 1.282519e+00 1.127957e+00 7.826523e-01 6.770163e-01 9.622419e-01 6.909320e-01 7.669483e-01 1.260168e-01
<GCONST> 1.308780e+02
<STATE> 3
<MEAN> 39
 2.709211e+00 -3.589352e+00 5.866185e+00 -1.556237e+01 -1.633540e-01 -2.720350e+00 1.108720e+00 9.948183e-01 -1.024667e+00 1.144478e+01 -1.142674e+01 1.157238e+01 7.778294e+01 2.953912e-01 -5.006515e-01 -4.552288e-01 -5.725933e-01 -1.882395e-01 -6.156986e-01 9.634005e-02 -8.019222e-01 3.001529e-01 4.884462e-01 4.257161e-01 3.430330e-01 6.076843e-01 -1.044765e-01 9.531410e-02 5.119259e-02 1.094513e-01 1.368100e-01 1.045092e-01 2.957895e-03 3.063961e-02 7.899673e-02 -1.094479e-01 5.566591e-02 -9.588904e-02 -1.034873e-01
<VARIANCE> 39
 4.260494e+01 1.615118e+01 5.419343e+01 8.701403e+01 2.265977e+01 2.688455e+01 1.084824e+01 3.408049e+01 1.395904e+01 6.871955e+01 6.330696e+01 5.566478e+01 4.510465e+01 6.998661e-01 8.293614e-01 6.677731e-01 3.823876e+00 1.407812e+00 3.275383e+00 1.852793e+00 2.399290e+00 1.625178e+00 2.162343e+00 3.015511e+00 2.550321e+00 1.453253e+00 9.745077e-02 2.283970e-01 1.563582e-01 6.244414e-01 2.141405e-01 4.973277e-01 2.235344e-01 4.512161e-01 3.131272e-01 2.508500e-01 4.706342e-01 3.521326e-01 2.198121e-01
<GCONST> 1.083999e+02
<STATE> 4
<MEAN> 39
 -1.170867e+01 -3.933288e+00 -6.582604e+00 2.802110e+00 -4.295910e+00 1.533177e+00 -4.141074e+00 -6.818885e+00 -1.282893e+00 -3.472242e+00 7.488000e-01 -9.677641e-01 6.670633e+01 -5.795269e-02 1.406244e-01 2.088971e-02 -1.633966e-02 5.957984e-02 -1.827329e-02 3.914194e-02 7.399613e-02 1.327050e-01 -1.167675e-01 -1.212977e-01 -2.270759e-02 -7.788761e-02 2.756136e-02 3.603479e-02 3.282649e-02 1.360776e-02 2.515262e-02 3.896454e-02 2.473313e-02 1.798860e-02 -2.964382e-02 -2.862487e-02 -5.247304e-02 -3.393330e-02 1.025742e-02
<VARIANCE> 39
 8.516195e+00 1.100023e+01 1.020650e+01 1.902781e+01 8.652585e+00 8.909537e+00 7.481058e+00 2.276153e+01 8.819160e+00 1.505119e+01 1.400407e+01 1.012116e+01 6.279818e+00 3.259323e-01 2.734829e-01 4.460681e-01 7.191902e-01 4.673353e-01 5.179362e-01 8.155971e-01 8.774172e-01 1.052201e+00 6.971328e-01 9.015293e-01 7.074481e-01 1.828150e-01 6.544624e-02 8.866626e-02 7.657789e-02 1.559792e-01 9.365018e-02 1.167461e-01 1.932329e-01 1.655979e-01 2.104276e-01 1.597549e-01 2.373368e-01 1.343744e-01 2.751378e-02
<GCONST> 6.691541e+01
<TRANSP> 5
 0.000000e+00 1.000000e+00 0.000000e+00 0.000000e+00 0.000000e+00
 0.000000e+00 9.531750e-01 4.682503e-02 0.000000e+00 0.000000e+00
 0.000000e+00 0.000000e+00 8.629561e-01 1.370439e-01 0.000000e+00
 0.000000e+00 0.000000e+00 0.000000e+00 9.393943e-01 6.060569e-02
 0.000000e+00 0.000000e+00 0.000000e+00 0.000000e+00 0.000000e+00
<ENDHMM>
~h "b"
<BEGINHMM>
<NUMSTATES> 5
<STATE> 2
<MEAN> 39
 -4.172847e+00 -2.394178e+00 3.216501e+00 -3.434207e+00 -7.129177e+00 -7.033318e-01 -2.597516e+00 -6.656299e-01 -3.273852e+00 -4.080887e+00 -1.050417e+00 -1.090840e-01 7.146645e+01 9.543625e-01 1.722667e-01 -1.982701e-02 -9.147285e-01 -2.714769e-01 -5.137023e-01 2.499731e-01 -2.363446e-01 -5.610688e-02 -1.593140e-01 -9.545029e-04 2.364174e-01 1.133735e+00 -8.090304e-03 -1.157325e-01 -9.225322e-02 -1.069022e-01 -6.145854e-02 -6.084199e-02 -4.659295e-02 1.019720e-01 -2.314334e-03 1.430303e-02 1.517395e-02 2.527736e-02 8.183408e-03
<VARIANCE> 39
 5.712007e+01 9.900002e+01 1.169855e+02 6.907152e+01 6.440919e+01 6.586285e+01 5.062437e+01 5.740311e+01 3.789680e+01 4.602859e+01 3.342795e+01 3.412147e+01 6.249930e+01 4.710153e+00 5.866420e+00 4.723958e+00 3.367384e+00 5.320901e+00 7.684948e+00 2.944841e+00 2.211884e+00 5.071328e+00 4.889597e+00 4.202538e+00 2.451194e+00 2.267311e+00 6.143103e-01 7.725619e-01 5.932283e-01 5.820854e-01 8.667926e-01 1.589311e+00 5.063953e-01 3.950003e-01 8.507252e-01 9.529156e-01 8.120103e-01 4.879895e-01 3.601417e-01
<GCONST> 1.370583e+02
<STATE> 3
<MEAN> 39
 3.619265e+00 -8.789167e-01 -2.365464e+00 -1.137277e+01 -1.113208e+01 -8.995210e+00 -2.507778e+00 1.050791e+00 -4.069396e+00 -1.061653e+00 -2.561656e+00 -4.224831e-01 7.680875e+01 -2.465892e-01 2.031632e-01 2.478397e-01 5.039476e-01 2.566706e-02 -4.569725e-01 -6.507961e-01 2.686605e-02 -9.361956e-02 4.110074e-01 1.776261e-01 -4.941064e-01 -4.197376e-01 -7.192958e-02 -1.216951e-02 4.898983e-02 1.142733e-01 1.418784e-02 3.286254e-02 -5.680399e-02 -1.754819e-01 4.473243e-03 2.935191e-02 -6.059769e-02 1.566947e-02 -5.091887e-02
<VARIANCE> 39
 1.599181e+01 8.973042e+01 1.067022e+02 1.798034e+01 6.096684e+01 9.614935e+01 7.348779e+01 4.023545e+01 9.487556e+01 1.236058e+02 6.930501e+01 3.967017e+01 3.780738e+01 5.086223e-01 1.453801e+00 1.105654e+00 1.519935e+00 2.062123e+00 2.526847e+00 2.673785e+00 2.368631e+00 2.102588e+00 1.438856e+00 1.661486e+00 1.541682e+00 4.747896e-01 6.318579e-02 1.571332e-01 1.762483e-01 2.314197e-01 2.522679e-01 4.232848e-01 5.040106e-01 3.009573e-01 4.005582e-01 2.893775e-01 2.583420e-01 2.612408e-01 3.942549e-02
<GCONST> 1.090926e+02
<STATE> 4
<MEAN> 39
 -1.127637e+01 3.351067e-01 -3.672659e+00 -3.604522e+00 -5.098790e+00 -1.756366e+00 -6.978664e-02 -6.704639e-01 -2.111905e+00 -2.020719e+00 -1.732345e+00 -1.272156e+00 6.314088e+01 -2.166054e-01 -1.750913e-02 1.317750e-02 1.653504e-01 1.346159e-01 1.660061e-01 1.755548e-02 1.629212e-02 9.820961e-02 4.374401e-02 7.218598e-03 1.321837e-01 -1.968465e-01 6.574353e-03 -1.199966e-02 1.106252e-02 1.916211e-03 5.262398e-03 1.402314e-03 1.545729e-02 1.962727e-02 -2.836977e-02 1.422082e-02 2.584177e-02 -5.170702e-03 1.719533e-02
<VARIANCE> 39
 3.639948e+01 1.754966e+01 1.695752e+01 3.428796e+01 3.305045e+01 4.240981e+01 1.247311e+01 1.225014e+01 3.300822e+01 1.714077e+01 2.077187e+01 9.890170e+00 3.901291e+01 5.057507e-01 4.600959e-01 4.786487e-01 7.365295e-01 8.728551e-01 8.695388e-01 6.445616e-01 8.717826e-01 1.135042e+00 1.274158e+00 9.573147e-01 7.261868e-01 4.544635e-01 1.106417e-01 9.540471e-02 9.592337e-02 1.521412e-01 1.811880e-01 1.412828e-01 1.583695e-01 1.770770e-01 2.152827e-01 2.489182e-01 1.888333e-01 1.323118e-01 1.033798e-01
<GCONST> 8.306531e+01
<TRANSP> 5
 0.000000e+00 1.000000e+00 0.000000e+00 0.000000e+00 0.000000e+00
 0.000000e+00 8.097389e-01 1.902611e-01 0.000000e+00 0.000000e+00
 0.000000e+00 0.000000e+00 8.640835e-01 1.359165e-01 0.000000e+00
 0.000000e+00 0.000000e+00 0.000000e+00 9.190400e-01 8.095998e-02
 0.000000e+00 0.000000e+00 0.000000e+00 0.000000e+00 0.000000e+00
<ENDHMM>
~h "h"
<BEGINHMM>
<NUMSTATES> 5
<STATE> 2
<MEAN> 39
 -1.111059e+01 -8.473675e+00 2.872199e+00 -6.067769e+00 -1.912161e+00 1.610471e+00 -4.571634e+00 3.999071e+00 -6.918490e-01 3.891866e+00 2.287742e+00 -1.603765e+00 6.958711e+01 4.823491e-02 -2.068748e-01 2.661856e-01 -1.229257e-02 -4.299350e-02 1.113320e-01 -2.497786e-01 2.476836e-01 1.760942e-01 2.620380e-02 1.331698e-01 -4.941729e-01 6.167845e-01 5.188510e-02 2.128071e-01 -4.397615e-02 1.275039e-02 -7.733107e-02 -5.023431e-02 -8.308309e-02 -1.098405e-01 -1.204923e-01 -1.738441e-01 -1.016728e-01 -5.938021e-04 -8.417666e-03
<VARIANCE> 39
 5.774628e+00 4.646681e+01 7.757329e+01 5.945245e+01 1.569841e+01 1.198475e+01 2.693630e+01 6.187944e+01 3.913320e+01 2.480020e+01 4.400977e+01 4.437108e+01 4.148077e+01 7.841589e-01 2.233713e+00 1.212229e+00 1.061349e+00 8.428344e-01 9.122468e-01 1.223206e+00 1.680108e+00 2.064612e+00 3.247193e+00 1.765908e+00 1.943117e+00 1.070819e+00 1.916594e-01 2.794138e-01 2.852303e-01 1.878286e-01 1.654902e-01 1.428463e-01 2.497849e-01 2.807313e-01 3.680663e-01 5.129575e-01 3.203748e-01 4.001280e-01 3.744391e-02
<GCONST> 1.017535e+02
<STATE> 3
<MEAN> 39
 -7.218132e+00 -5.947424e+00 -2.488725e+00 -3.101288e+00 -7.717595e+00 -1.162708e+00 -6.786343e+00 -4.187812e+00 -2.234136e+00 -6.158105e-01 5.981725e+00 -7.873172e+00 7.856438e+01 7.291527e-01 1.036875e-01 -8.508894e-01 -2.076466e-01 -9.487571e-01 -7.729757e-02 -5.815042e-01 -5.268098e-01 -4.682942e-01 -6.358854e-01 7.887511e-01 -9.658615e-02 4.872542e-01 -1.815916e-01 -3.510089e-01 -1.944863e-01 -1.581296e-02 1.840596e-01 2.198114e-02 1.333321e-01 1.199468e-01 2.984672e-01 3.103590e-02 1.036886e-02 9.210132e-02 -1.399035e-01
<VARIANCE> 39
 9.782398e+00 1.426742e+01 1.036183e+02 2.682477e+01 3.003816e+01 3.258488e+01 3.558484e+01 1.721922e+02 2.742158e+01 5.056680e+01 4.962686e+01 8.838980e+01 1.570840e+02 9.878740e-01 3.426722e+00 2.504210e+00 1.720751e+00 1.780277e+00 1.272058e+00 1.717563e+00 1.451156e+00 1.913993e+00 1.175031e+00 1.422496e+00 4.154854e-01 4.147987e-01 8.076428e-02 4.005645e-01 4.716164e-01 3.584448e-01 3.135412e-01 7.270823e-02 2.463599e-01 1.605733e-01 2.186709e-01 3.260166e-01 4.989356e-01 8.268559e-02 3.568342e-02
<GCONST> 1.032640e+02
<STATE> 4
<MEAN> 39
 -1.148257e+01 -6.134454e+00 -5.448105e+00 1.382459e+00 -6.757783e+00 -4.835411e+00 -5.957739e+00 -7.550432e+00 -1.578993e+00 -5.783205e+00 1.288034e+00 -4.018951e+00 7.374319e+01 -8.646816e-02 2.126193e-02 1.107178e-01 2.843753e-02 5.917341e-02 6.316562e-02 3.801557e-02 5.811162e-02 -4.167148e-02 -6.125396e-02 -1.203626e-01 8.729020e-02 -1.189403e-01 6.629770e-03 1.059390e-02 6.169862e-03 5.316705e-03 9.487122e-03 6.495621e-03 -4.264101e-03 -6.869761e-03 8.504565e-04 5.883132e-03 2.088072e-03 7.156492e-03 -2.416224e-03
<VARIANCE> 39
 1.570059e+01 1.509040e+01 5.354116e+01 6.658114e+00 1.601508e+01 1.099971e+02 1.242429e+01 2.785895e+01 2.624880e+01 1.417547e+01 1.516994e+01 4.397216e+01 1.244084e+02 1.132187e-01 3.290026e-01 5.957721e-01 3.489020e-01 5.245010e-01 1.035378e+00 8.358608e-01 7.584376e-01 1.113325e+00 9.769250e-01 5.494587e-01 8.287938e-01 2.523586e-01 1.969236e-02 5.582413e-02 5.658882e-02 7.247437e-02 9.447170e-02 1.287984e-01 1.777525e-01 1.542276e-01 2.049577e-01 1.905142e-01 9.483752e-02 1.478526e-01 1.756994e-02
<GCONST> 7.371394e+01
<TRANSP> 5
 0.000000e+00 1.000000e+00 0.000000e+00 0.000000e+00 0.000000e+00
 0.000000e+00 8.501678e-01 1.498322e-01 0.000000e+00 0.000000e+00
 0.000000e+00 0.000000e+00 6.562753e-01 3.437247e-01 0.000000e+00
 0.000000e+00 0.000000e+00 0.000000e+00 9.752340e-01 2.476597e-02
 0.000000e+00 0.000000e+00 0.000000e+00 0.000000e+00 0.000000e+00
<ENDHMM>
~h "m"
<BEGINHMM>
<NUMSTATES> 5
<STATE> 2
<MEAN> 39
 -7.987243e+00 1.193830e-01 1.471106e+00 -2.161362e+00 -3.017934e+00 1.186715e+00 -5.616986e+00 2.452964e+00 -3.628228e+00 9.233243e-01 -2.711639e+00 -3.861529e-04 6.392886e+01 2.432148e-01 1.237670e-01 5.765542e-01 1.015694e-01 2.710970e-01 1.699625e-01 -6.017399e-01 -7.678602e-01 6.938189e-02 -8.860014e-02 4.116001e-01 -4.885761e-01 4.536974e-01 -5.681528e-03 -1.384272e-01 -5.857439e-02 -1.712325e-01 1.671530e-01 -5.329556e-02 9.292033e-02 -1.059160e-01 1.011010e-01 -7.391553e-03 1.042152e-01 -6.971711e-03 2.041672e-01
<VARIANCE> 39
 1.065356e+01 2.549569e+01 5.622419e+01 2.068302e+01 4.674555e+01 2.973882e+01 4.105288e+01 6.120503e+01 2.510770e+01 4.000615e+01 1.794119e+01 1.838470e+01 7.888900e+00 9.693925e-01 2.727679e+00 1.361655e+00 2.157407e+00 3.757905e+00 1.601025e+00 3.480828e+00 2.235699e+00 1.650616e+00 2.311422e+00 1.577121e+00 1.124715e+00 1.488358e+00 9.850934e-02 3.926821e-01 3.655408e-01 4.000806e-01 5.483701e-01 2.478520e-01 4.413115e-01 3.673664e-01 3.302958e-01 2.898445e-01 3.386807e-01 1.933188e-01 1.919501e-01
<GCONST> 1.066762e+02
<STATE> 3
<MEAN> 39
 -1.785991e+00 3.824027e+00 1.825297e+00 -5.847486e+00 -4.825556e+00 -4.904338e+00 -5.919127e+00 -7.598425e-01 -3.644171e+00 -9.803164e-01 -2.007214e-01 -2.358674e+00 6.971231e+01 1.120274e-01 -1.444490e-01 2.565421e-01 -9.575077e-02 -1.133079e-01 3.169228e-01 -9.667301e-02 4.591633e-01 -1.694299e-02 8.583196e-02 -2.774361e-01 -3.944468e-01 2.181374e-01 -8.013810e-02 1.191535e-01 8.848867e-02 1.453480e-01 -5.508010e-02 5.156551e-02 2.087068e-01 1.086681e-01 -7.511236e-02 5.985660e-02 -1.466074e-01 4.203652e-02 -1.253544e-01
<VARIANCE> 39
 7.080207e+01 6.018525e+01 2.745164e+01 4.011951e+01 9.295090e+01 1.316574e+02 4.161039e+01 5.500054e+01 4.117360e+01 2.893414e+01 3.405701e+01 3.672371e+01 4.148034e+01 1.243026e+00 1.620982e+00 2.933582e+00 4.637664e+00 3.508304e+00 5.525011e+00 3.642600e+00 3.571836e+00 2.342479e+00 2.365368e+00 3.535742e+00 2.589548e+00 2.395624e+00 1.005189e-01 3.843089e-01 2.818758e-01 5.930637e-01 5.230832e-01 6.486058e-01 6.497806e-01 5.192790e-01 3.923304e-01 5.534785e-01 6.740829e-01 4.237230e-01 2.409244e-01
<GCONST> 1.243543e+02
<STATE> 4
<MEAN> 39
 -1.201138e+01 9.801250e-02 -2.251047e+00 -9.896103e-01 -9.719295e-01 8.407661e-01 -2.426058e+00 -1.676696e+00 -4.910675e+00 -2.484982e+00 -3.270092e+00 -1.448902e+00 6.161308e+01 -5.485277e-02 -3.518071e-03 1.623889e-02 2.229712e-02 4.708583e-02 4.263801e-02 1.738414e-02 1.250884e-02 -4.719938e-03 1.740322e-03 2.312617e-03 1.260633e-02 -3.786476e-02 1.325946e-02 5.603022e-03 -2.694674e-03 -1.597914e-03 5.994196e-03 -9.076310e-03 -1.206596e-02 -4.222136e-03 -5.814669e-03 5.669533e-03 2.170055e-03 9.353049e-03 7.655773e-03
<VARIANCE> 39
 1.633658e+01 3.905496e+00 8.965919e+00 5.940484e+00 1.107347e+01 1.181914e+01 1.158022e+01 1.072844e+01 2.084368e+01 9.418176e+00 1.099477e+01 6.934897e+00 1.361995e+01 5.518000e-01 2.137513e-01 3.417695e-01 4.115322e-01 5.991119e-01 6.328444e-01 8.513902e-01 8.728390e-01 7.602767e-01 7.559615e-01 8.047984e-01 7.351564e-01 4.038994e-01 1.324491e-01 4.191213e-02 6.655763e-02 8.943095e-02 1.236021e-01 1.353527e-01 1.885724e-01 1.907557e-01 1.544925e-01 1.571236e-01 1.751257e-01 1.611911e-01 9.782593e-02
<GCONST> 6.703530e+01
<TRANSP> 5
 0.000000e+00 1.000000e+00 0.000000e+00 0.000000e+00 0.000000e+00
 0.000000e+00 6.263522e-01 3.736478e-01 0.000000e+00 0.000000e+00
 0.000000e+00 0.000000e+00 7.834715e-01 2.165285e-01 0.000000e+00
 0.000000e+00 0.000000e+00 0.000000e+00 9.778501e-01 2.214995e-02
 0.000000e+00 0.000000e+00 0.000000e+00 0.000000e+00 0.000000e+00
<ENDHMM>
~h "n"
<BEGINHMM>
<NUMSTATES> 5
<STATE> 2
<MEAN> 39
 -3.621554e+00 -2.829424e-01 9.125791e+00 -1.027879e+00 -3.287396e+00 1.236448e+00 -9.655149e+00 3.718585e+00 -3.953188e+00 3.103482e+00 -6.468695e-01 -1.734735e+00 6.833534e+01 4.197297e-02 -8.892711e-02 -1.054255e-01 8.475467e-02 -3.199646e-01 4.462554e-02 -1.568395e-01 -3.657591e-02 -9.712537e-02 -1.700611e-01 1.838330e-01 -2.475859e-01 7.326461e-02 -2.110473e-02 -1.683052e-02 -1.220075e-02 -4.247008e-02 2.498605e-02 6.254936e-03 5.163855e-02 1.027753e-03 6.067578e-02 -1.315838e-02 -9.443130e-04 8.324187e-03 3.471547e-02
<VARIANCE> 39
 3.412788e+01 3.044268e+01 8.656536e+01 4.746901e+01 3.543085e+01 1.157102e+02 6.960158e+01 1.282267e+02 4.277247e+01 4.741355e+01 3.932868e+01 3.279559e+01 2.819459e+01 1.881212e+00 1.321738e+00 1.208777e+00 3.224453e+00 4.469330e+00 6.958761e+00 6.133889e+00 5.943112e+00 4.313528e+00 4.331440e+00 4.983550e+00 2.942582e+00 2.016437e+00 3.027488e-01 1.927731e-01 1.708585e-01 5.962656e-01 7.546979e-01 1.334789e+00 1.126961e+00 1.224059e+00 9.218359e-01 9.655619e-01 8.983789e-01 4.351636e-01 3.159121e-01
<GCONST> 1.310905e+02
<STATE> 3
<MEAN> 39
 -3.995975e+00 -6.496855e+00 -3.316059e+00 1.808342e-01 -1.081433e+01 1.873071e+00 -7.437710e+00 -2.165647e+00 -2.592492e+00 -5.569634e+00 5.698162e+00 -9.066361e+00 7.169391e+01 -2.498889e-01 2.242813e-01 1.339236e-01 -9.158187e-02 3.094692e-01 -3.037293e-01 4.372118e-01 -2.960472e-01 2.409832e-01 -5.958299e-02 -2.715729e-01 1.814562e-01 -1.258398e-01 2.398927e-02 2.886088e-02 5.479539e-02 3.109543e-02 6.980678e-02 -2.090095e-02 -4.310083e-02 -4.189423e-02 -1.015659e-01 4.360758e-03 -4.603337e-02 3.286196e-02 -3.633491e-02
<VARIANCE> 39
 2.583326e+01 4.118569e+01 1.137920e+02 2.662439e+01 3.888704e+01 1.250318e+02 6.112840e+01 1.739933e+02 4.409508e+01 2.941902e+01 3.066552e+01 2.083885e+01 1.427707e+02 1.091839e+00 7.752382e-01 5.540364e-01 1.547501e+00 2.392703e+00 4.760816e+00 3.620299e+00 1.796031e+00 2.740501e+00 2.049670e+00 2.359143e+00 1.300203e+00 6.246533e-01 1.861564e-01 1.050142e-01 1.225700e-01 3.402342e-01 5.578000e-01 9.100694e-01 7.935793e-01 3.180769e-01 4.536131e-01 4.095179e-01 6.539821e-01 3.176886e-01 1.009361e-01
<GCONST> 1.146594e+02
<STATE> 4
<MEAN> 39
 -8.187099e+00 -2.033495e-01 -1.871768e+00 2.388532e+00 -2.217701e+00 -2.691915e+00 -4.733410e+00 -5.116321e+00 -7.340600e+00 -4.960491e+00 -3.166691e+00 -2.452627e+00 6.582581e+01 -2.096540e-01 6.083277e-02 -2.379168e-02 -1.314585e-01 7.796662e-02 2.482942e-01 1.219452e-01 4.916772e-02 1.680211e-01 7.774979e-02 1.735246e-02 7.311670e-02 -1.702696e-01 1.613915e-02 -1.524149e-02 -1.357557e-02 -1.135692e-02 4.739004e-04 -7.378433e-04 -8.410978e-03 1.670334e-02 -4.333631e-03 1.669369e-02 1.842950e-02 1.406522e-03 1.434082e-02
<VARIANCE> 39
 1.764922e+01 8.495727e+00 2.099194e+01 2.849204e+01 2.049335e+01 3.561276e+01 1.253792e+01 2.255061e+01 3.346779e+01 1.185617e+01 1.298403e+01 1.416599e+01 2.194184e+01 2.900430e-01 4.316009e-01 5.084672e-01 9.048558e-01 8.996774e-01 1.037140e+00 8.493368e-01 9.044322e-01 9.470122e-01 1.193376e+00 1.020216e+00 7.850091e-01 1.733096e-01 3.691799e-02 8.581918e-02 1.012109e-01 1.714686e-01 1.890627e-01 1.623364e-01 1.482728e-01 1.741830e-01 1.752708e-01 2.415471e-01 1.910076e-01 1.570137e-01 2.676557e-02
<GCONST> 7.732703e+01
<TRANSP> 5
 0.000000e+00 1.000000e+00 0.000000e+00 0.000000e+00 0.000000e+00
 0.000000e+00 8.914079e-01 1.085921e-01 0.000000e+00 0.000000e+00
 0.000000e+00 0.000000e+00 8.024406e-01 1.975594e-01 0.000000e+00
 0.000000e+00 0.000000e+00 0.000000e+00 9.515523e-01 4.844767e-02
 0.000000e+00 0.000000e+00 0.000000e+00 0.000000e+00 0.000000e+00
<ENDHMM>
~h "s"
<BEGINHMM>
<NUMSTATES> 5
<STATE> 2
<MEAN> 39
 7.564250e-01 1.755786e+00 9.844576e+00 1.062176e-01 2.111829e+00 1.462540e+01 -1.133422e+01 8.057021e+00 -5.896497e+00 5.024103e+00 -7.980654e+00 -6.660232e+00 6.875654e+01 -1.504520e-01 3.151472e-01 6.192195e-01 3.063152e-01 1.538019e-01 9.221283e-02 4.306242e-01 3.713641e-01 -1.074265e-02 2.185041e-01 -1.724942e-02 4.432931e-01 2.871966e-02 -1.345692e-01 -1.515155e-01 -5.095209e-02 -1.429879e-01 -2.166414e-01 -4.668613e-02 5.602876e-02 1.270309e-01 5.965357e-02 9.615375e-02 1.784192e-01 -6.894211e-03 -1.054343e-01
<VARIANCE> 39
 6.685831e+01 3.825957e+00 2.454609e+01 1.374120e+01 1.316204e+01 5.613115e+01 1.970819e+01 8.011066e+01 2.397594e+01 4.145559e+01 1.651892e+01 1.772578e+01 2.147390e+01 9.423285e-01 8.186221e-01 5.906492e-01 5.972299e-01 1.321127e+00 1.219565e+00 8.090612e-01 1.340332e+00 7.829015e-01 1.136784e+00 9.574751e-01 9.625590e-01 3.141522e-01 8.001523e-02 1.890714e-01 1.331341e-01 7.812663e-02 2.810788e-01 2.163589e-01 3.492811e-01 3.300456e-01 1.316735e-01 1.981570e-01 1.971821e-01 2.006413e-01 5.143320e-02
<GCONST> 8.699973e+01
<STATE> 3
<MEAN> 39
 -1.175011e+01 2.768034e+00 1.171655e+01 -3.333241e+00 1.901105e+00 7.310098e+00 -4.119404e+00 1.966567e+00 -3.703210e+00 1.979457e+00 -3.743333e+00 -2.673645e+00 6.937081e+01 -7.043235e-01 -3.609815e-01 3.396214e-01 -3.448969e-01 -9.502738e-01 7.716098e-02 6.629769e-01 7.491642e-01 3.212945e-01 1.082262e+00 9.298069e-01 1.788430e-01 -1.216693e-01 -2.371617e-01 -7.587757e-01 -6.579675e-01 -4.591249e-01 -1.672765e-01 -5.096357e-01 -2.828329e-01 -1.044554e-01 -1.481445e-01 -2.797242e-01 1.833472e-01 -1.118113e-01 -7.423685e-02
<VARIANCE> 39
 1.071325e+02 1.147932e+01 7.325323e+01 3.256771e+01 3.520361e+00 2.774733e+01 1.262997e+01 6.946732e+01 6.938263e+01 4.937806e+01 4.656484e+01 2.956807e+00 1.105629e+02 8.246242e-01 1.135565e+00 6.459134e-01 1.054663e+00 1.761764e+00 2.319867e+00 3.286012e+00 9.456796e-01 3.917990e-01 1.245246e+00 9.854648e-01 1.818108e-01 3.452544e-01 5.291562e-02 2.238039e-01 1.633967e-01 1.840701e-01 1.762107e-01 1.811837e-01 3.884620e-01 2.522381e-01 6.577629e-02 3.262613e-01 2.146273e-01 1.550024e-01 4.622903e-02
<GCONST> 9.026270e+01
<STATE> 4
<MEAN> 39
 -1.195581e+01 9.982970e-01 9.326875e+00 -4.428762e+00 8.903556e-01 7.735429e+00 -2.646387e+00 3.827089e+00 -4.753969e+00 1.705860e+00 -3.504080e+00 -1.192149e+00 6.811298e+01 -8.314656e-01 -7.886039e-01 -3.063677e-01 -3.601954e-01 -3.240674e-01 -1.720149e-01 1.568708e-01 5.952548e-01 7.639447e-02 1.977916e-01 5.718527e-01 -2.451217e-01 -2.823869e-01 1.121313e-01 -5.262113e-01 -5.064655e-01 -3.381034e-01 4.878778e-03 -5.440281e-01 -3.205897e-01 -3.891777e-01 -2.706005e-01 -4.595100e-01 9.902260e-03 -1.457992e-01 3.013505e-01
<VARIANCE> 39
 1.258877e+02 2.286304e+01 6.768391e+01 4.538438e+01 1.561166e+00 1.849784e+01 3.530269e+01 9.003745e+01 7.865670e+01 3.831535e+01 4.828394e+01 1.631504e+00 1.010202e+02 7.529488e-01 1.380134e+00 3.526829e-01 7.708796e-01 4.134480e-01 8.521461e-01 2.876346e+00 1.222764e+00 3.158941e-01 3.781210e-01 7.063829e-01 4.236907e-01 4.109446e-01 7.126229e-02 1.265073e-01 7.204279e-02 6.688773e-02 2.602222e-01 2.010313e-01 3.503722e-01 2.551936e-01 1.107254e-01 1.519341e-01 1.072629e-01 8.315723e-02 8.540531e-02
<GCONST> 8.414823e+01
<TRANSP> 5
 0.000000e+00 1.000000e+00 0.000000e+00 0.000000e+00 0.000000e+00
 0.000000e+00 8.103961e-01 1.896039e-01 0.000000e+00 0.000000e+00
 0.000000e+00 0.000000e+00 1.473859e-01 8.526141e-01 0.000000e+00
 0.000000e+00 0.000000e+00 0.000000e+00 2.650995e-03 9.973490e-01
 0.000000e+00 0.000000e+00 0.000000e+00 0.000000e+00 0.000000e+00
<ENDHMM>
~h "t"
<BEGINHMM>
<NUMSTATES> 5
<STATE> 2
<MEAN> 39
 -7.083392e+00 -2.780422e+00 -2.841205e+00 -2.987235e+00 -5.163106e-01 -1.196438e+00 -6.662754e+00 -6.901328e+00 -8.688227e+00 -4.597907e+00 -3.177181e+00 -1.453071e+00 6.869738e+01 7.733836e-01 -1.869471e+00 -1.097560e+00 -1.685894e+00 -5.832992e-01 -6.792661e-01 6.942727e-01 -8.743548e-02 -1.211057e-01 7.004797e-01 1.307270e+00 -4.375300e-01 1.977735e+00 1.974319e-01 -3.850305e-01 -2.121569e-01 -1.350030e-01 -1.658268e-01 1.116790e-01 4.787849e-01 1.024711e-01 2.374226e-03 4.559467e-02 2.817215e-01 -2.294806e-01 3.844079e-01
<VARIANCE> 39
 3.521571e+01 2.502263e+01 4.627683e+01 4.941698e+01 9.553104e+01 2.397910e+01 4.645598e+01 4.014857e+01 4.626230e+01 2.712704e+01 4.401481e+01 2.396857e+01 4.686822e+01 2.607145e+00 2.594153e+00 6.292819e+00 3.051377e+00 4.326365e+00 1.893346e+00 5.105823e+00 1.629545e+00 5.351016e-01 1.482359e+00 6.727034e+00 2.743247e+00 3.466719e+00 3.814198e-01 2.756325e-01 1.024841e+00 6.434058e-01 6.121969e-01 4.186608e-01 7.138588e-01 3.198626e-01 1.674634e-01 4.456512e-01 9.258268e-01 4.348965e-01 3.757480e-01
<GCONST> 1.224286e+02
<STATE> 3
<MEAN> 39
 -4.731079e-01 -1.299493e+01 -1.146869e+01 -8.956141e+00 -1.124325e+00 -2.739191e+00 4.661896e+00 -5.008784e+00 -9.470856e+00 -5.062437e+00 -1.332875e+00 -1.300050e+00 7.775932e+01 2.154269e-01 -4.061705e-01 -3.291599e-02 5.745221e-01 -3.678549e-01 3.130456e-01 5.487912e-01 9.667216e-02 4.627245e-01 -6.917785e-01 -2.422992e-01 -1.410860e-01 2.913185e-01 -1.417300e-01 2.290778e-01 2.422961e-01 1.948530e-01 2.493982e-01 1.223262e-01 -3.215919e-01 1.108655e-02 4.211697e-02 -1.512684e-01 -2.466371e-01 1.253163e-01 -2.793703e-01
<VARIANCE> 39
 2.586088e+01 3.687012e+01 4.694822e+01 3.383112e+01 8.387534e+01 2.450943e+01 8.760594e+01 2.526451e+01 4.485351e+01 3.636416e+01 6.894630e+01 3.683483e+01 6.658421e+01 2.697648e-01 2.271065e+00 1.771459e+00 2.187602e+00 2.046305e+00 1.746996e+00 4.445037e+00 1.582583e+00 2.623830e+00 1.987601e+00 2.313917e+00 1.227870e+00 1.381830e+00 1.306767e-01 2.456976e-01 3.461674e-01 4.925025e-01 4.917081e-01 3.351479e-01 5.821327e-01 4.445266e-01 3.706660e-01 3.337396e-01 8.124213e-01 3.034125e-01 2.573967e-01
<GCONST> 1.145723e+02
<STATE> 4
<MEAN> 39
 -7.149883e+00 -1.562146e+00 -2.162483e+00 -1.917857e+00 1.777394e+00 2.530821e+00 -1.187105e+00 -2.028331e+00 -9.119085e+00 -3.352880e+00 -4.916909e+00 -1.083410e+00 6.516843e+01 -4.412612e-02 1.722877e-02 2.139943e-02 -2.338336e-02 3.290133e-03 5.775754e-02 -3.038853e-02 3.743455e-02 2.926070e-02 1.668599e-02 4.802142e-02 1.204286e-02 -4.112371e-02 1.747180e-03 2.878923e-03 8.385784e-03 1.070995e-03 7.844904e-03 -3.120535e-03 -4.759635e-03 1.222514e-02 -1.211685e-02 1.613747e-02 7.122443e-03 1.887814e-02 -3.480394e-03
<VARIANCE> 39
 1.518426e+01 2.066240e+01 1.716469e+01 1.244594e+01 9.785829e+00 1.169922e+01 2.786134e+01 1.230360e+01 1.043750e+01 9.884348e+00 1.223983e+01 7.196049e+00 2.846758e+01 8.802388e-02 2.001609e-01 3.921737e-01 4.011350e-01 4.614907e-01 8.495642e-01 8.619661e-01 8.695214e-01 7.655344e-01 6.936407e-01 8.864671e-01 6.905190e-01 6.419513e-02 1.590593e-02 2.839020e-02 7.329448e-02 8.623328e-02 9.306613e-02 1.584070e-01 1.819757e-01 1.783486e-01 1.636657e-01 1.375254e-01 1.951493e-01 1.265378e-01 6.926642e-03
<GCONST> 6.196924e+01
<TRANSP> 5
 0.000000e+00 1.000000e+00 0.000000e+00 0.000000e+00 0.000000e+00
 0.000000e+00 6.646459e-01 3.353541e-01 0.000000e+00 0.000000e+00
 0.000000e+00 0.000000e+00 7.131906e-01 2.868095e-01 0.000000e+00
 0.000000e+00 0.000000e+00 0.000000e+00 9.677636e-01 3.223644e-02
 0.000000e+00 0.000000e+00 0.000000e+00 0.000000e+00 0.000000e+00
<ENDHMM>
~h "ai"
<BEGINHMM>
<NUMSTATES> 5
<STATE> 2
<MEAN> 39
 -4.483801e+00 -1.525535e+00 1.026772e+01 -4.253600e+00 -5.267289e+00 2.662774e+00 -9.469841e+00 4.737741e+00 -5.829532e+00 3.550790e+00 -2.884097e+00 -1.615473e-02 6.872742e+01 5.615039e-01 -1.116731e-01 -6.277827e-02 -8.003403e-02 2.498616e-01 -7.351063e-03 -1.850230e-01 -3.149619e-01 -1.948363e-01 1.960945e-01 -7.304884e-02 -2.234726e-02 5.209615e-01 6.044117e-03 -1.109129e-01 -9.130283e-02 -8.286677e-02 -5.772681e-02 -5.881417e-02 7.503668e-03 -3.358892e-03 1.220888e-02 1.142327e-01 4.637510e-02 -1.886331e-02 7.296890e-02
<VARIANCE> 39
 3.394167e+01 6.364349e+01 5.478049e+01 2.554479e+01 4.101133e+01 5.461477e+01 5.215857e+01 8.572736e+01 2.485124e+01 7.688755e+01 3.666154e+01 2.385466e+01 2.183088e+01 2.261278e+00 6.165388e+00 2.634809e+00 2.126657e+00 3.295046e+00 4.126106e+00 4.684216e+00 2.238240e+00 2.053408e+00 2.096570e+00 3.855552e+00 1.423915e+00 1.335944e+00 2.716335e-01 9.275802e-01 3.500967e-01 3.636343e-01 4.886659e-01 7.097169e-01 1.073463e+00 4.405736e-01 3.758285e-01 3.865509e-01 6.959417e-01 2.745510e-01 1.681958e-01
<GCONST> 1.222868e+02
<STATE> 3
<MEAN> 39
 -8.804734e+00 -9.935412e+00 5.926163e+00 -9.168322e+00 5.503881e+00 6.824775e-01 -2.098048e+00 1.212049e+00 -2.601791e+00 1.870269e+00 -2.861237e+00 2.830603e+00 7.378976e+01 2.273008e-01 -1.252622e-01 -8.183781e-01 -6.717519e-01 -3.412642e-01 -2.937616e-01 6.269726e-01 6.374196e-02 2.083511e-01 2.140063e-01 -3.406902e-02 1.154392e-01 2.376111e-01 4.527183e-03 1.405690e-01 -1.907159e-02 6.684565e-02 2.093209e-02 2.941190e-02 2.161004e-02 7.896689e-02 5.369508e-02 -1.078164e-01 -6.419249e-02 -5.850805e-02 -9.541520e-02
<VARIANCE> 39
 5.379884e+01 6.738988e+01 8.229312e+01 4.525780e+01 1.126492e+02 6.116712e+01 6.670975e+01 8.520295e+01 7.854355e+01 7.947841e+01 5.848751e+01 3.490823e+01 2.991207e+01 3.920081e+00 4.104254e+00 3.972448e+00 3.731637e+00 4.641479e+00 9.737761e+00 8.498401e+00 6.072491e+00 5.734231e+00 7.256940e+00 3.519770e+00 3.547576e+00 1.152463e+00 7.189528e-01 7.024449e-01 5.876289e-01 9.021700e-01 8.549969e-01 2.503833e+00 2.166901e+00 1.476234e+00 1.172673e+00 1.281782e+00 6.832143e-01 5.635102e-01 2.085906e-01
<GCONST> 1.434537e+02
<STATE> 4
<MEAN> 39
 -8.084415e-01 -1.175754e+01 -1.753096e+01 -1.031532e+01 -1.039241e+01 -5.003223e+00 5.559551e+00 -1.429317e+01 2.314749e+00 -4.048243e+00 6.372462e-01 -1.374930e+01 8.645358e+01 -6.162866e-02 2.002302e-01 3.711121e-02 3.862446e-02 -5.680599e-02 -2.880321e-01 1.890800e-01 1.073210e-01 1.478407e-01 -3.963320e-01 -1.882711e-02 -2.166554e-02 -7.886521e-02 -1.557948e-02 5.015247e-02 1.126925e-01 3.701274e-02 2.311686e-02 -4.739005e-02 -1.003270e-01 5.457066e-02 -1.222269e-01 -6.845992e-03 5.631847e-03 1.023522e-01 -3.777031e-02
<VARIANCE> 39
 6.850253e+00 5.968853e+00 1.584531e+01 1.062259e+01 5.519945e+01 1.633363e+01 2.388226e+01 8.532764e+01 5.617060e+01 1.795595e+01 4.069578e+01 7.181577e+01 2.145709e+01 1.467674e-01 2.083259e-01 6.022906e-01 3.323530e-01 3.491091e-01 1.339926e+00 1.375816e+00 1.267164e+00 1.278187e+00 6.594955e-01 3.399917e-01 7.870394e-01 5.102293e-02 3.258690e-02 3.586219e-02 6.578785e-02 7.993557e-02 5.073570e-02 1.411483e-01 1.855667e-01 1.581100e-01 6.085133e-02 1.246534e-01 5.605264e-02 1.021664e-01 7.655878e-03
<GCONST> 6.775154e+01
<TRANSP> 5
 0.000000e+00 1.000000e+00 0.000000e+00 0.000000e+00 0.000000e+00
 0.000000e+00 9.407188e-01 5.928119e-02 0.000000e+00 0.000000e+00
 0.000000e+00 0.000000e+00 9.260185e-01 7.398150e-02 0.000000e+00
 0.000000e+00 0.000000e+00 0.000000e+00 9.226115e-01 7.738858e-02
 0.000000e+00 0.000000e+00 0.000000e+00 0.000000e+00 0.000000e+00
<ENDHMM>
~h "as"
<BEGINHMM>
<NUMSTATES> 5
<STATE> 2
<MEAN> 39
 -9.443160e-01 -1.394626e+01 -1.734286e+01 -9.616031e+00 -9.057274e+00 4.573415e+00 -4.362974e+00 -8.098063e+00 4.290466e+00 -1.584386e+01 8.399234e+00 -8.284123e+00 8.381200e+01 6.260734e-03 2.207078e-01 1.096921e-01 3.665370e-02 -5.293554e-02 -4.143928e-02 -1.489903e-01 2.005406e-02 -1.969452e-01 -2.188226e-03 -1.997412e-01 -2.956439e-01 -1.537347e-01 6.385313e-03 9.629084e-02 8.304842e-02 2.147155e-02 -8.005103e-02 -8.701076e-02 -1.903789e-01 -1.276375e-01 -3.192858e-01 -1.065643e-02 -1.185601e-01 -2.263720e-01 -3.004783e-02
<VARIANCE> 39
 7.592466e+00 2.480524e+01 5.403322e+01 9.583151e+00 4.207835e+01 2.872462e+01 8.429820e+01 6.959254e+01 6.306677e+01 8.975762e+01 3.579150e+01 3.498942e+01 8.845448e+01 1.625577e-01 5.669631e-01 5.086490e-01 6.000156e-01 5.040815e-01 7.227790e-01 2.442143e+00 7.655619e-01 1.053539e+00 1.033009e+00 1.197781e+00 1.270499e+00 1.343993e-01 2.806983e-02 3.334390e-02 2.354259e-02 7.760258e-02 5.279426e-02 1.163978e-01 6.068637e-01 9.700426e-02 1.258522e-01 2.636049e-01 2.296063e-01 2.034862e-01 1.464772e-02
<GCONST> 8.184200e+01
<STATE> 3
<MEAN> 39
 3.693288e-01 -7.955952e+00 -1.369214e+01 -4.542845e+00 -9.119675e+00 -4.409447e+00 -6.244310e+00 -1.121420e+01 -9.684701e+00 -1.540934e+01 -1.495462e+00 -1.055079e+01 7.824203e+01 1.499134e-02 7.453617e-01 3.884023e-01 6.756711e-01 2.217244e-01 -3.781562e-01 -7.916996e-01 3.931910e-02 -1.501773e+00 8.737659e-02 -6.983601e-01 2.384713e-01 -9.188775e-01 -6.358552e-02 -2.560625e-02 -5.865652e-02 -2.328455e-02 3.138725e-02 4.233336e-02 1.254910e-01 7.662100e-02 1.725104e-01 -5.396042e-02 1.531013e-01 1.226168e-01 -3.021182e-02
<VARIANCE> 39
 1.048318e+01 1.511304e+01 2.366788e+01 2.243100e+01 3.348392e+01 2.766837e+01 3.836654e+01 6.066432e+01 6.802927e+01 5.769493e+01 3.387335e+01 2.510965e+01 5.290282e+01 5.706226e-01 2.383141e-01 3.413834e-01 1.146477e+00 2.669823e-01 1.086882e+00 2.778272e+00 3.461516e-01 1.453306e+00 9.037752e-01 1.572784e+00 8.201193e-01 4.049239e-01 6.610199e-02 4.752935e-02 7.158014e-02 2.241952e-01 6.935710e-02 1.525444e-01 3.793224e-01 5.817207e-02 1.467102e-01 1.475598e-01 1.855476e-01 2.059636e-01 9.021013e-02
<GCONST> 8.424346e+01
<STATE> 4
<MEAN> 39
 -8.521415e+00 -6.107113e-01 -4.526762e+00 2.434117e-01 -1.192629e+00 1.688568e+00 -3.467481e+00 -3.898520e+00 -7.310346e+00 -5.005992e+00 -4.416979e+00 -1.759726e+00 6.432419e+01 -7.222838e-02 3.137288e-02 4.023369e-02 1.844241e-02 -1.114944e-03 4.751685e-02 3.543402e-02 4.378350e-02 9.402271e-02 3.535062e-02 -1.180045e-02 1.371230e-02 -6.359471e-02 1.884495e-03 -5.006838e-03 5.185523e-03 3.575565e-03 -9.278532e-04 -3.636729e-03 1.456036e-03 -2.108630e-04 8.944915e-03 -1.316561e-03 -3.491463e-03 -6.482879e-03 6.471280e-03
<VARIANCE> 39
 9.562180e+00 2.149540e+00 1.846374e+01 1.392833e+01 1.704229e+01 1.107576e+01 9.700000e+00 1.543452e+01 2.856606e+01 1.110966e+01 9.615871e+00 8.572793e+00 4.048521e+00 1.217508e-01 1.795563e-01 3.129574e-01 3.814547e-01 5.416080e-01 6.934728e-01 8.341517e-01 7.552498e-01 9.142461e-01 8.851708e-01 9.668579e-01 8.471421e-01 5.845534e-02 1.963884e-02 3.602105e-02 6.283864e-02 7.208061e-02 1.040449e-01 1.324159e-01 1.774686e-01 1.396110e-01 1.836833e-01 1.950478e-01 2.087305e-01 1.735674e-01 5.854421e-03
<GCONST> 5.900792e+01
<TRANSP> 5
 0.000000e+00 1.000000e+00 0.000000e+00 0.000000e+00 0.000000e+00
 0.000000e+00 8.103312e-01 1.896688e-01 0.000000e+00 0.000000e+00
 0.000000e+00 0.000000e+00 8.237258e-01 1.762742e-01 0.000000e+00
 0.000000e+00 0.000000e+00 0.000000e+00 9.866435e-01 1.335650e-02
 0.000000e+00 0.000000e+00 0.000000e+00 0.000000e+00 0.000000e+00
<ENDHMM>
~h "aw"
<BEGINHMM>
<NUMSTATES> 5
<STATE> 2
<MEAN> 39
 -1.271781e+01 5.931575e-01 1.708860e+00 -3.069987e+00 1.765724e+00 -3.619279e+00 3.064473e+00 -6.156024e+00 1.979785e+00 -2.706701e+00 4.157832e+00 -1.302441e+00 6.846194e+01 5.428495e-01 -6.464540e-01 -5.129104e-01 2.028933e-02 4.904555e-01 5.215525e-01 -1.238100e-01 7.403162e-01 3.464492e-02 1.062045e+00 -1.262258e-01 3.866939e-01 7.530378e-02 -3.689660e-02 -1.547910e-01 -6.670482e-02 -6.431060e-02 -4.373012e-02 -3.483154e-01 -1.665570e-01 -3.346015e-02 -1.712444e-01 2.938763e-02 -2.644532e-01 -9.475861e-03 -1.660574e-02
<VARIANCE> 39
 1.857290e+01 5.608248e+00 2.850803e+01 4.333260e+01 4.618056e+01 7.051374e+01 1.971185e+01 1.918798e+01 4.000294e+01 2.529323e+01 1.604030e+01 1.605875e+01 9.913425e+00 3.514852e-01 8.744612e-01 1.385387e+00 2.277810e-01 1.446669e+00 1.338491e+00 1.222341e+00 1.009229e+00 1.220152e+00 2.131087e+00 1.428806e+00 1.656507e+00 3.778312e-01 9.174109e-02 1.401611e-01 7.276248e-02 5.583977e-02 4.002626e-01 3.240110e-01 3.832994e-01 4.084941e-01 4.704817e-01 6.950996e-01 3.979327e-01 5.349395e-01 9.308284e-02
<GCONST> 9.281689e+01
<STATE> 3
<MEAN> 39
 -1.009146e+01 -3.178243e+00 -1.192769e+00 -3.793011e+00 1.172100e-01 -4.546266e+00 -1.251186e+00 -3.891860e+00 -2.969277e+00 5.964926e-01 -4.183963e-01 3.136271e+00 6.789539e+01 1.349899e-01 -4.276396e-01 -2.734405e-02 -1.824698e-01 -4.130244e-01 -1.567362e-02 -8.945276e-01 8.957013e-01 -1.028872e+00 1.345353e-01 -1.228729e+00 5.357078e-01 -5.192135e-01 -6.390510e-02 2.051378e-01 1.506255e-01 1.998139e-01 4.107143e-03 4.296742e-01 1.089524e-01 8.429935e-02 7.299943e-02 -1.376267e-01 1.758376e-01 -3.449753e-01 -9.091216e-02
<VARIANCE> 39
 5.107731e+00 3.574201e+00 5.844159e+01 2.249173e+01 4.284088e+01 2.074922e+01 6.089298e+00 5.308491e+01 2.576213e+01 3.050002e+01 1.829458e+01 2.118668e+01 5.069548e+00 6.992179e-01 3.771190e-01 8.753089e-01 1.197567e+00 1.786119e+00 3.284745e+00 2.126665e+00 5.733908e+00 1.307591e+00 2.884643e+00 1.104553e+00 4.062342e+00 1.843046e-01 6.078679e-02 9.195405e-02 9.522811e-02 1.799187e-01 2.819832e-01 1.964595e-01 2.744093e-01 4.000462e-01 3.467480e-01 5.400951e-01 2.431929e-01 5.203055e-01 5.558765e-02
<GCONST> 9.171490e+01
<STATE> 4
<MEAN> 39
 -1.013187e+01 -1.042187e+00 -4.118066e+00 3.756802e-01 -9.176458e-01 2.957208e+00 -2.119901e+00 -3.045290e+00 -4.352737e+00 -2.447479e+00 -3.989258e+00 -1.442574e-01 6.352365e+01 -2.504989e-02 8.525916e-03 2.375152e-02 4.520865e-02 3.902606e-02 6.696156e-02 2.422993e-02 2.566888e-02 3.183839e-02 8.517380e-05 -1.800735e-02 -1.082243e-02 -3.413090e-02 -1.690431e-03 -4.265972e-03 5.440838e-03 -7.689552e-03 -1.162608e-02 -7.955713e-03 -1.747918e-02 -2.323550e-02 -6.182343e-03 -5.380422e-03 3.811167e-03 -4.249469e-03 6.049627e-03
<VARIANCE> 39
 4.857488e+00 2.301588e+00 1.899492e+01 1.527698e+01 1.194608e+01 7.671689e+00 6.493560e+00 1.237049e+01 3.450307e+01 7.671618e+00 1.071764e+01 6.877467e+00 8.652817e-01 7.572491e-02 1.645292e-01 3.052795e-01 3.644746e-01 5.154722e-01 6.258295e-01 5.617418e-01 7.662981e-01 7.607489e-01 7.315472e-01 8.855905e-01 6.368623e-01 2.863564e-02 1.427246e-02 3.740839e-02 6.876152e-02 8.176387e-02 1.036967e-01 1.380136e-01 1.251478e-01 1.616230e-01 1.531148e-01 1.411159e-01 1.855090e-01 1.364610e-01 5.283087e-03
<GCONST> 5.151460e+01
<TRANSP> 5
 0.000000e+00 1.000000e+00 0.000000e+00 0.000000e+00 0.000000e+00
 0.000000e+00 6.344422e-01 3.655578e-01 0.000000e+00 0.000000e+00
 0.000000e+00 0.000000e+00 6.197813e-01 3.802187e-01 0.000000e+00
 0.000000e+00 0.000000e+00 0.000000e+00 9.826290e-01 1.737097e-02
 0.000000e+00 0.000000e+00 0.000000e+00 0.000000e+00 0.000000e+00
<ENDHMM>
~h "ch"
<BEGINHMM>
<NUMSTATES> 5
<STATE> 2
<MEAN> 39
 -9.341580e+00 -1.159493e+00 6.172133e-01 1.805079e-01 -7.172688e+00 4.996222e+00 -7.242964e+00 4.583542e+00 -5.197263e+00 -1.846968e+00 1.035757e-01 -5.086094e+00 6.067937e+01 1.000399e-01 1.009863e-01 1.103020e+00 -1.115491e+00 6.535272e-01 -1.331609e+00 -2.417885e-01 -5.612639e-01 -1.391953e+00 1.172987e+00 -5.010453e-01 9.489973e-01 8.262234e-01 -2.108868e-01 7.718803e-02 1.229487e-01 -5.569425e-01 4.713844e-01 -2.825314e-01 5.116230e-02 -1.395579e-01 -4.542241e-02 3.282376e-01 -1.764683e-01 2.161584e-01 1.512439e-01
<VARIANCE> 39
 5.282878e+01 3.271300e+00 2.437230e+01 8.260463e+00 6.759301e+01 2.588556e+01 9.692007e+01 2.609955e+01 2.047083e+01 4.163033e+00 2.024666e+01 1.497947e+01 1.174900e+01 9.240143e-01 3.170349e-01 1.229338e+00 1.918688e+00 1.531004e+00 4.275916e-01 1.528370e+00 4.934330e-01 2.450552e-01 8.964434e-01 1.107398e+00 2.137117e+00 3.022260e-01 1.932491e-01 5.302515e-02 2.244475e-01 1.147251e-01 1.447819e-01 1.237974e-01 2.890550e-01 8.447669e-02 2.608515e-01 3.325498e-01 1.282043e-01 2.093088e-01 1.460100e-01
<GCONST> 8.317381e+01
<STATE> 3
<MEAN> 39
 -1.378538e+01 -4.799921e-01 3.382762e+00 -5.224712e+00 -5.146008e-01 4.860849e-01 -4.133386e+00 4.583239e+00 -6.707057e+00 3.119726e+00 -1.247849e+00 -3.194651e+00 6.108173e+01 -1.417606e-01 -4.833816e-02 -4.463947e-01 -7.953306e-02 3.559863e-01 -6.087826e-01 4.101185e-01 -5.683655e-01 4.705841e-02 5.279711e-01 -2.776588e-01 5.996126e-02 -1.081361e-02 2.496359e-01 -9.018067e-02 -3.055032e-01 3.402498e-01 -3.960256e-01 3.371373e-01 -2.004613e-01 -8.368975e-02 1.058125e-01 -4.313374e-01 -1.294999e-01 -1.231474e-01 -5.573595e-02
<VARIANCE> 39
 5.774735e+01 5.624453e+00 3.690447e+01 3.000241e+01 5.095935e+01 1.306322e+01 2.838010e+01 1.670987e+01 1.567618e+01 1.079099e+01 5.047233e+00 1.023909e+01 1.487850e+01 2.441570e+00 1.725515e-01 3.301286e+00 3.317806e+00 3.343281e+00 9.436148e-01 1.609178e+00 1.165261e+00 2.318818e+00 2.361785e+00 6.857422e-01 3.763274e-01 7.625811e-01 4.198550e-01 1.418572e-01 7.176581e-01 6.489771e-01 4.986955e-01 1.664158e-01 4.964293e-01 1.597845e-01 3.954781e-01 3.135149e-01 1.168891e-01 2.171729e-01 2.317402e-01
<GCONST> 9.645856e+01
<STATE> 4
<MEAN> 39
 -1.125727e+01 -1.074407e+00 -2.334536e-01 -2.344863e+00 -3.549892e+00 5.137608e-01 -5.230006e+00 1.534063e+00 -7.239849e+00 1.344651e+00 -3.711270e+00 -3.161617e+00 6.182395e+01 1.774695e-01 2.061769e-01 3.234981e-01 3.290485e-01 1.045294e-01 2.973174e-01 -4.198172e-01 -3.249495e-02 -3.145528e-01 -2.044774e-01 -4.886281e-01 2.144610e-01 2.871468e-02 -1.919544e-01 -7.892045e-02 5.614842e-01 -6.736784e-02 9.971771e-02 2.624441e-01 2.232601e-01 1.632971e-01 2.284508e-01 1.189639e-02 1.630183e-01 -9.421286e-02 1.597803e-01
<VARIANCE> 39
 3.001060e+01 2.297629e+00 3.140987e+01 2.995700e+01 9.759522e+00 1.400467e+01 5.327892e+01 3.490676e+01 3.030788e+01 1.968750e+01 1.374937e+01 9.180910e+00 1.746415e+01 6.313620e-01 7.071033e-01 2.677471e-01 6.757036e-01 7.599236e-01 4.919494e-01 1.363687e+00 9.584676e-01 1.404465e+00 1.181069e+00 1.493001e+00 3.058798e-01 5.580557e-01 3.727490e-01 2.474972e-01 2.279320e-01 5.678706e-01 2.439721e-01 8.541141e-02 3.342455e-01 2.702004e-01 3.566797e-01 3.341968e-01 3.920020e-01 1.025483e-01 1.852611e-01
<GCONST> 8.746967e+01
<TRANSP> 5
 0.000000e+00 1.000000e+00 0.000000e+00 0.000000e+00 0.000000e+00
 0.000000e+00 4.851924e-01 5.148076e-01 0.000000e+00 0.000000e+00
 0.000000e+00 0.000000e+00 6.467116e-01 3.532884e-01 0.000000e+00
 0.000000e+00 0.000000e+00 0.000000e+00 6.930990e-01 3.069010e-01
 0.000000e+00 0.000000e+00 0.000000e+00 0.000000e+00 0.000000e+00
<ENDHMM>
~h "is"
<BEGINHMM>
<NUMSTATES> 5
<STATE> 2
<MEAN> 39
 -8.509554e-01 -2.841688e+00 8.594050e+00 -1.655896e+00 -5.684628e+00 7.804006e+00 -1.295133e+01 7.832137e+00 -3.467623e+00 2.631814e+00 6.747634e-01 -2.647523e+00 6.804470e+01 -2.184825e-02 -4.314316e-02 1.804523e-02 1.500347e-02 -6.587923e-02 4.947505e-02 3.492989e-02 -4.626593e-02 4.653432e-02 -6.776198e-02 9.900153e-02 -2.843342e-02 1.321028e-02 -3.824501e-02 -1.765976e-02 9.373873e-03 -4.246963e-02 1.441869e-02 -2.693054e-02 9.049150e-03 -4.017590e-02 -2.207184e-03 1.139601e-03 -1.191607e-02 -3.820982e-03 1.299592e-02
<VARIANCE> 39
 2.867516e+01 1.055768e+01 3.491853e+01 4.843424e+01 1.030217e+02 8.140240e+01 7.315231e+01 1.003911e+02 4.212536e+01 4.841324e+01 6.647381e+01 4.501712e+01 4.155251e+01 2.400225e+00 1.067263e+00 2.099229e+00 2.494309e+00 3.124163e+00 3.679323e+00 5.349748e+00 6.836333e+00 4.787330e+00 3.812363e+00 3.490309e+00 2.621620e+00 1.080478e+00 4.711463e-01 2.251309e-01 3.782114e-01 4.223345e-01 5.495729e-01 6.557077e-01 9.749669e-01 1.286611e+00 9.883797e-01 7.890201e-01 5.845952e-01 4.139320e-01 1.699148e-01
<GCONST> 1.276315e+02
<STATE> 3
<MEAN> 39
 -6.436673e+00 -3.353944e+00 1.338244e+01 8.582208e-01 -2.265348e+00 3.309092e+00 -1.184878e+01 1.581787e+00 -4.355431e+00 -5.873468e-01 -3.496701e+00 -4.053146e+00 6.885510e+01 3.240018e-01 -1.055949e-01 3.165799e-01 3.537368e-01 1.045682e-01 -6.681195e-01 -4.642071e-01 -1.622100e-01 -4.273254e-01 -8.944639e-02 1.853826e-02 -2.793002e-02 4.611654e-01 1.220567e-01 2.643654e-02 -1.527913e-01 1.121670e-01 -2.893194e-02 -5.308850e-02 -3.562272e-02 8.504659e-02 -3.769708e-02 1.357020e-02 4.490682e-02 2.181944e-02 -3.596937e-02
<VARIANCE> 39
 6.102753e+01 3.261839e+01 1.060397e+02 5.772971e+01 1.204547e+02 1.520125e+02 1.070492e+02 9.999173e+01 3.744016e+01 2.977783e+01 7.430032e+01 3.826342e+01 5.403910e+01 4.638761e+00 3.185249e+00 4.636590e+00 7.463282e+00 1.040513e+01 1.355804e+01 8.253564e+00 4.624707e+00 2.967842e+00 3.253376e+00 3.582573e+00 3.334685e+00 2.797582e+00 8.110687e-01 6.203055e-01 5.631848e-01 1.434201e+00 2.091385e+00 2.447142e+00 1.769252e+00 9.082619e-01 5.634568e-01 5.799174e-01 4.528915e-01 7.116250e-01 4.124120e-01
<GCONST> 1.447205e+02
<STATE> 4
<MEAN> 39
 -1.816563e+00 -7.460275e+00 4.483379e+00 8.037593e+00 7.506331e-01 -2.220330e+01 -1.371048e+01 -1.119583e+01 -1.916785e+01 -7.667055e-01 -5.249959e+00 -8.388632e+00 7.972549e+01 1.364435e-01 1.522158e-01 -4.307897e-01 -1.402531e-01 -3.873643e-01 1.060925e-01 5.411206e-02 2.098699e-01 1.880524e-01 -1.475052e-01 -7.249963e-02 -1.350834e-01 -3.088900e-01 -1.097971e-01 7.088021e-02 9.743756e-02 -8.177967e-02 -7.385610e-02 1.823054e-01 7.179266e-02 -1.445771e-02 1.653394e-01 4.441942e-02 -9.767608e-03 5.833935e-02 -7.938170e-02
<VARIANCE> 39
 6.132059e+00 1.807211e+01 9.102515e+01 1.442972e+01 6.421254e+01 3.892076e+01 1.815564e+01 1.043937e+02 1.923004e+01 4.423525e+01 3.076251e+01 4.328640e+01 3.559778e+01 4.001274e-01 7.917091e-01 9.294838e-01 1.126867e+00 1.458768e+00 1.486430e+00 1.095016e+00 9.256935e-01 9.548092e-01 1.129682e+00 1.326257e+00 1.023108e+00 5.489936e-01 8.433808e-02 1.189050e-01 1.108788e-01 2.570729e-01 2.846032e-01 3.623201e-01 1.837684e-01 1.498647e-01 1.603132e-01 2.312077e-01 2.293731e-01 1.444027e-01 6.396799e-02
<GCONST> 9.243831e+01
<TRANSP> 5
 0.000000e+00 1.000000e+00 0.000000e+00 0.000000e+00 0.000000e+00
 0.000000e+00 9.737957e-01 2.620432e-02 0.000000e+00 0.000000e+00
 0.000000e+00 0.000000e+00 9.567701e-01 4.322987e-02 0.000000e+00
 0.000000e+00 0.000000e+00 0.000000e+00 9.243814e-01 7.561859e-02
 0.000000e+00 0.000000e+00 0.000000e+00 0.000000e+00 0.000000e+00
<ENDHMM>
~h "kh"
<BEGINHMM>
<NUMSTATES> 5
<STATE> 2
<MEAN> 39
 -1.180432e+01 -7.047127e+00 4.119908e+00 -8.560654e+00 -9.760346e-01 8.640958e+00 -5.095224e+00 -2.402165e+00 -6.694596e+00 1.353652e+00 8.633323e-03 1.801843e-01 6.872013e+01 3.686626e-01 -7.472101e-01 -8.574881e-02 -1.162439e+00 -1.710622e-01 -8.174192e-01 3.783179e-01 -3.196337e-01 -1.986648e-01 1.371285e-01 1.561653e-01 2.130108e-01 1.565999e+00 9.065040e-02 1.157962e-02 -1.503596e-01 4.793840e-02 -1.106869e-01 -4.534710e-03 2.997397e-02 1.758993e-01 5.733930e-02 2.091263e-02 3.037829e-02 -7.748439e-02 -3.557403e-02
<VARIANCE> 39
 4.852649e+01 3.836147e+01 3.008247e+01 4.377435e+01 4.896366e+01 6.563832e+01 3.245594e+01 1.053766e+02 2.456735e+01 3.736978e+01 4.116549e+01 3.622230e+01 5.537534e+01 2.823868e+00 4.335194e+00 3.536813e+00 6.530743e+00 7.011631e+00 6.529919e+00 5.191241e+00 3.929391e+00 3.003751e+00 6.398932e+00 2.122847e+00 5.363613e+00 3.149779e+00 3.078355e-01 4.888397e-01 5.272666e-01 1.064862e+00 1.183998e+00 1.052462e+00 8.496864e-01 6.706538e-01 7.253122e-01 1.385866e+00 4.772628e-01 1.077552e+00 3.241885e-01
<GCONST> 1.351658e+02
<STATE> 3
<MEAN> 39
 -3.576452e+00 -9.248417e+00 -1.093850e+00 -1.556551e+01 1.139983e+00 -1.924542e+00 2.205569e+00 4.261446e+00 -5.178474e+00 1.396227e+00 -3.069896e+00 2.802902e+00 7.566236e+01 2.664413e-01 -9.634591e-02 -3.422144e-01 -9.361627e-03 -1.661697e-01 -9.087718e-02 2.090363e-01 -1.766200e-03 2.273004e-01 -1.028255e-01 1.050648e-01 -1.909328e-01 1.579308e-01 -6.349795e-02 7.605900e-02 2.427341e-02 3.761746e-02 4.017053e-02 2.531383e-02 -3.562482e-02 -6.800071e-02 1.359734e-02 -3.865675e-02 2.950357e-02 6.274893e-02 -6.896529e-02
<VARIANCE> 39
 4.180124e+01 2.833464e+01 1.234746e+02 2.645201e+01 4.876116e+01 7.457796e+01 9.198476e+01 8.848962e+01 3.927682e+01 3.425537e+01 4.930424e+01 5.314874e+01 5.401464e+01 1.057282e+00 1.413024e+00 2.315582e+00 1.391421e+00 1.734122e+00 3.162413e+00 3.049728e+00 4.602575e+00 3.616744e+00 3.116999e+00 2.488216e+00 2.393659e+00 8.710639e-01 1.749564e-01 3.392231e-01 3.519007e-01 2.347984e-01 2.762067e-01 5.601028e-01 5.437993e-01 8.094628e-01 6.484149e-01 5.866330e-01 4.909389e-01 5.132696e-01 1.513815e-01
<GCONST> 1.208599e+02
<STATE> 4
<MEAN> 39
 -7.535826e+00 -1.911888e-01 -1.455573e+00 -2.100374e+00 7.797732e-01 2.467441e+00 -2.412042e+00 -1.590073e+00 -8.231512e+00 -2.341684e+00 -4.193736e+00 -6.916859e-01 6.418168e+01 8.407643e-04 9.633500e-02 4.663899e-02 4.386203e-02 -2.617966e-03 -5.615595e-02 -5.623865e-02 -3.485148e-02 -4.072588e-02 -7.158177e-02 4.560755e-02 3.140659e-02 -3.544402e-02 2.145468e-03 1.485457e-03 1.542217e-02 -3.443246e-03 9.205548e-03 2.609302e-03 3.906030e-03 4.075744e-03 -7.892886e-03 9.829024e-03 -9.204487e-03 1.056537e-03 4.179779e-03
<VARIANCE> 39
 6.459620e+00 6.506444e+00 1.125541e+01 9.404480e+00 8.614702e+00 1.170592e+01 1.323244e+01 8.674399e+00 9.842792e+00 1.144061e+01 9.407454e+00 7.888618e+00 9.107463e+00 1.610785e-01 2.220164e-01 3.348557e-01 4.182698e-01 7.533028e-01 7.882336e-01 7.105837e-01 9.061116e-01 9.807838e-01 1.153976e+00 1.075735e+00 8.562421e-01 6.389579e-02 2.751051e-02 4.349757e-02 6.867483e-02 8.841775e-02 1.506793e-01 1.596181e-01 1.329939e-01 1.919337e-01 2.169131e-01 2.262590e-01 1.820037e-01 1.761680e-01 1.041274e-02
<GCONST> 6.146019e+01
<TRANSP> 5
 0.000000e+00 1.000000e+00 0.000000e+00 0.000000e+00 0.000000e+00
 0.000000e+00 8.936376e-01 1.063624e-01 0.000000e+00 0.000000e+00
 0.000000e+00 0.000000e+00 9.547446e-01 4.525539e-02 0.000000e+00
 0.000000e+00 0.000000e+00 0.000000e+00 9.799793e-01 2.002075e-02
 0.000000e+00 0.000000e+00 0.000000e+00 0.000000e+00 0.000000e+00
<ENDHMM>
~h "ng"
<BEGINHMM>
<NUMSTATES> 5
<STATE> 2
<MEAN> 39
 2.440162e+00 2.622025e-01 -7.334459e+00 -5.046930e+00 -1.733805e+01 -6.293581e+00 2.314417e+00 9.136863e-01 -3.923426e+00 -9.227367e+00 4.013824e+00 -6.046553e+00 7.678266e+01 -1.077862e-01 4.749781e-02 -5.415533e-02 -1.897250e-01 -2.284831e-01 -1.486630e-01 1.691150e-03 4.513267e-02 6.960687e-02 -1.584816e-02 1.498536e-01 9.591178e-02 -6.607256e-02 -2.906861e-02 -2.613238e-02 -2.944917e-02 -2.106719e-02 1.788350e-02 -2.638723e-02 1.355082e-02 2.010899e-02 6.436652e-02 2.467608e-02 3.515512e-02 9.047229e-03 -2.530465e-03
<VARIANCE> 39
 2.592500e+01 7.850980e+00 3.863129e+01 5.506668e+01 9.351068e+01 5.454001e+01 6.589789e+01 4.201462e+01 1.431688e+01 5.655429e+01 7.127514e+01 2.777530e+01 5.029098e+01 1.150060e+00 4.959224e-01 1.044903e+00 2.350443e+00 2.147863e+00 1.516577e+00 1.691043e+00 2.228075e+00 1.874223e+00 1.753253e+00 3.324471e+00 1.348210e+00 9.793789e-01 8.491167e-02 8.445868e-02 1.515949e-01 3.735127e-01 2.960829e-01 2.689401e-01 2.255880e-01 3.481269e-01 4.067033e-01 2.686556e-01 4.899518e-01 2.221003e-01 6.860457e-02
<GCONST> 1.048422e+02
<STATE> 3
<MEAN> 39
 -3.675572e+00 -9.384305e-01 1.343219e+01 -5.061319e-01 3.347331e+00 8.550564e+00 -7.138260e+00 1.036976e+01 -2.351661e+00 6.293278e+00 -2.041924e+00 4.196628e-01 6.813680e+01 -2.473629e-01 -8.399944e-02 -2.877626e-01 -1.528494e-02 -4.740541e-02 -1.349691e-01 4.949685e-02 -1.121781e-01 1.245297e-01 -9.897774e-02 2.089655e-01 -8.826639e-02 -1.798908e-01 3.147028e-02 1.845265e-02 -5.119586e-03 1.003358e-02 3.576882e-02 -3.307176e-03 -8.150615e-02 -9.620188e-03 -1.815760e-03 2.376338e-03 -5.380925e-02 -1.323174e-02 4.802283e-03
<VARIANCE> 39
 1.495899e+01 5.160744e+01 8.481266e+01 3.579546e+01 8.151030e+01 7.081481e+01 6.532720e+01 5.908889e+01 3.338841e+01 3.427848e+01 3.388766e+01 3.730124e+01 1.729559e+01 1.556291e+00 2.112918e+00 1.384601e+00 3.594509e+00 3.164718e+00 4.344220e+00 5.673294e+00 2.973739e+00 3.396471e+00 3.232535e+00 3.439788e+00 2.423900e+00 9.838748e-01 3.142454e-01 2.429203e-01 1.809246e-01 7.888746e-01 5.740079e-01 8.144118e-01 1.010330e+00 4.793095e-01 6.656159e-01 6.681093e-01 5.582796e-01 4.647388e-01 1.577250e-01
<GCONST> 1.230298e+02
<STATE> 4
<MEAN> 39
 -1.432098e+01 1.813285e+00 -2.969354e+00 -3.379583e+00 -2.929779e+00 -4.389816e-01 6.517686e-01 2.151659e+00 -1.112635e+00 2.444790e-01 -1.497884e+00 -7.310292e-01 5.861061e+01 -6.808147e-02 3.546062e-02 1.607933e-01 2.592752e-01 1.938351e-01 7.969729e-02 -3.597068e-02 2.912488e-02 9.068280e-02 3.542765e-02 4.402092e-02 -3.801076e-02 -5.318325e-02 3.498779e-02 1.829997e-02 1.841269e-02 -4.147825e-03 -3.564847e-02 1.628947e-02 1.200276e-02 1.732851e-03 -1.382125e-02 2.414821e-02 2.520998e-02 -1.650998e-02 1.428657e-02
<VARIANCE> 39
 9.913116e+00 2.753186e+00 6.546315e+00 1.182501e+01 1.178330e+01 8.809996e+00 1.393430e+01 1.294889e+01 7.932690e+00 8.267219e+00 6.442480e+00 4.711917e+00 9.027667e+00 8.462552e-01 2.888772e-01 3.196980e-01 7.436831e-01 7.631774e-01 1.042318e+00 1.225658e+00 1.408030e+00 8.586601e-01 7.568150e-01 7.114031e-01 5.338262e-01 8.576677e-01 2.160159e-01 7.536075e-02 6.644373e-02 1.483991e-01 1.449026e-01 2.494206e-01 2.796834e-01 3.299276e-01 1.732102e-01 1.609855e-01 1.659729e-01 1.217590e-01 2.191479e-01
<GCONST> 7.144661e+01
<TRANSP> 5
 0.000000e+00 1.000000e+00 0.000000e+00 0.000000e+00 0.000000e+00
 0.000000e+00 9.370927e-01 6.290726e-02 0.000000e+00 0.000000e+00
 0.000000e+00 0.000000e+00 9.384919e-01 6.150815e-02 0.000000e+00
 0.000000e+00 0.000000e+00 0.000000e+00 9.477336e-01 5.226638e-02
 0.000000e+00 0.000000e+00 0.000000e+00 0.000000e+00 0.000000e+00
<ENDHMM>
~h "oo"
<BEGINHMM>
<NUMSTATES> 5
<STATE> 2
<MEAN> 39
 2.036904e+00 -1.365265e+00 -4.582958e+00 -1.053037e+01 -1.076562e+01 -4.643429e+00 1.892834e+00 -4.327539e+00 -6.184006e+00 -8.045245e+00 2.355485e+00 -2.706065e+00 7.806512e+01 3.054732e-01 -2.533498e-01 2.986518e-01 -1.009898e+00 -9.639492e-01 -7.211306e-01 -2.284011e-01 5.631203e-01 -2.229385e-01 1.550398e-01 -2.600324e-01 -6.437734e-02 4.674821e-01 6.561318e-02 -5.034367e-03 1.262011e-01 1.601716e-01 -2.303347e-02 -9.565231e-02 -4.310862e-01 3.967142e-01 -2.170750e-01 1.790574e-01 -3.015542e-01 -8.540658e-02 -1.227122e-01
<VARIANCE> 39
 1.155171e+01 6.625014e+01 1.260979e+02 3.775098e+01 9.595568e+01 3.749604e+01 2.973356e+01 3.459164e+01 2.317099e+01 3.416482e+01 3.410758e+01 4.978246e+01 6.504737e+01 5.853634e-01 1.144513e+00 1.788579e+00 1.610056e+00 7.139706e-01 4.306100e+00 2.039803e+00 5.341782e+00 2.460628e+00 1.576408e+00 2.013817e+00 1.503335e+00 1.114936e+00 1.531370e-01 2.231864e-01 3.231963e-01 4.641043e-01 1.848259e-01 6.240140e-01 3.661804e-01 9.908725e-01 4.236572e-01 5.173667e-01 6.073155e-01 3.701284e-01 2.329812e-01
<GCONST> 1.140224e+02
<STATE> 3
<MEAN> 39
 3.825799e+00 -2.345934e+00 1.434022e+00 -7.966197e+00 -8.551862e+00 -1.379220e+01 -7.234166e+00 4.020729e+00 -1.311605e+01 -3.979659e+00 -2.681924e+00 -4.241351e+00 7.768739e+01 1.503689e-01 3.533429e-02 1.374179e-01 9.357005e-01 2.124632e-01 3.003248e-01 -5.392323e-01 2.704093e-01 -4.549328e-01 3.915661e-01 -5.314004e-01 -8.832212e-02 -5.548485e-01 -7.667300e-02 -1.423789e-02 1.110980e-02 6.744573e-02 4.965084e-02 1.267709e-01 1.581369e-01 -2.028659e-01 8.146092e-02 -8.021798e-02 6.560718e-02 -2.361414e-02 1.140104e-02
<VARIANCE> 39
 5.422454e+00 1.713265e+01 9.862778e+01 2.613470e+01 6.818694e+01 7.416892e+01 8.020762e+01 3.225141e+01 3.567086e+01 6.070295e+01 3.401260e+01 3.043894e+01 1.428184e+01 2.360583e-01 1.119595e+00 9.094378e-01 1.670969e+00 7.259810e-01 5.256686e+00 4.449291e+00 2.529959e+00 8.481766e-01 1.863168e+00 2.804339e+00 3.300074e+00 9.541677e-01 4.289767e-02 1.564855e-01 1.493026e-01 2.241216e-01 2.058252e-01 7.678532e-01 5.406697e-01 3.743201e-01 1.668940e-01 2.840059e-01 4.831181e-01 7.849830e-01 8.964001e-02
<GCONST> 1.049415e+02
<STATE> 4
<MEAN> 39
 -7.178388e+00 -3.254079e+00 -4.814181e+00 1.909224e+00 -6.781194e+00 -1.307202e+00 -1.126295e+00 -6.489876e+00 -7.293799e+00 -4.792043e+00 -1.418845e+00 -2.497310e+00 6.887084e+01 -1.848696e-01 1.029695e-01 3.085189e-02 6.225978e-02 1.523393e-01 2.343593e-01 -1.071285e-02 -5.453432e-02 1.358781e-01 -3.126093e-02 -3.434961e-02 8.217578e-02 -1.802431e-01 -2.142750e-03 -1.461935e-03 1.079592e-02 -1.431924e-03 -3.956379e-03 6.985111e-03 2.071533e-02 1.339451e-03 -3.301716e-04 -1.310170e-02 1.249131e-02 -6.996710e-04 7.022915e-03
<VARIANCE> 39
 4.435886e+01 1.516180e+01 2.424135e+01 2.158516e+01 1.537352e+01 4.071386e+01 2.753381e+01 1.977007e+01 3.672699e+01 8.204375e+00 1.859056e+01 2.200027e+01 9.589520e+00 2.774315e-01 3.486005e-01 3.975140e-01 5.202391e-01 5.077827e-01 5.717547e-01 6.330897e-01 6.111862e-01 8.957713e-01 7.486212e-01 9.088526e-01 1.130290e+00 1.367747e-01 2.785507e-02 4.480632e-02 6.189763e-02 8.259407e-02 8.600602e-02 1.064926e-01 1.195549e-01 1.184055e-01 1.593294e-01 1.643781e-01 2.118294e-01 2.374047e-01 1.251930e-02
<GCONST> 7.078368e+01
<TRANSP> 5
 0.000000e+00 1.000000e+00 0.000000e+00 0.000000e+00 0.000000e+00
 0.000000e+00 8.184400e-01 1.815600e-01 0.000000e+00 0.000000e+00
 0.000000e+00 0.000000e+00 9.009196e-01 9.908035e-02 0.000000e+00
 0.000000e+00 0.000000e+00 0.000000e+00 9.712519e-01 2.874813e-02
 0.000000e+00 0.000000e+00 0.000000e+00 0.000000e+00 0.000000e+00
<ENDHMM>
~h "sp"
<BEGINHMM>
<NUMSTATES> 3
<STATE> 2
~s "silst"
<TRANSP> 3
 0.000000e+00 7.000000e-01 3.000000e-01
 0.000000e+00 5.000000e-01 5.000000e-01
 0.000000e+00 0.000000e+00 0.000000e+00
<ENDHMM>
~h "ary"
<BEGINHMM>
<NUMSTATES> 5
<STATE> 2
<MEAN> 39
 -1.432343e+00 -5.419496e+00 5.097827e+00 1.142213e-01 -3.683684e+00 -9.240020e+00 -1.254473e+01 2.009110e-02 -6.865112e+00 6.731547e+00 -9.347432e-01 -4.501307e+00 7.600708e+01 -3.663956e-01 -1.704568e-01 2.675416e-01 3.731013e-01 3.030905e-02 -2.743803e-01 -3.248520e-01 7.278013e-01 -1.004520e+00 -3.647159e-01 1.809154e-01 -4.044999e-01 -1.931933e-01 -1.719197e-02 3.639958e-02 2.989531e-02 -8.689023e-02 -1.216568e-02 1.674274e-01 9.333122e-02 6.176541e-02 5.407564e-02 -1.207117e-01 3.503481e-02 -6.480459e-02 -1.456925e-02
<VARIANCE> 39
 6.403395e+00 4.242941e+01 1.565060e+02 2.657566e+01 1.116227e+02 2.541079e+02 3.992260e+01 1.403290e+02 9.736400e+01 4.293219e+01 2.982554e+01 8.976279e+00 9.643510e+01 2.374586e-01 7.651287e-01 2.174942e+00 8.547574e-01 1.894929e+00 5.095189e+00 3.088887e+00 2.106045e+00 4.711666e+00 1.721872e+00 1.253002e+00 1.144508e+00 2.555744e-01 3.960891e-02 6.193544e-02 1.661510e-01 1.408425e-01 2.016607e-01 4.060217e-01 6.559943e-01 3.470474e-01 4.210252e-01 2.179310e-01 1.551053e-01 2.147703e-01 1.992619e-02
<GCONST> 1.036862e+02
<STATE> 3
<MEAN> 39
 -4.512254e+00 -3.892184e+00 5.701869e+00 2.165848e+00 -9.128352e+00 -8.399816e+00 -1.456012e+01 1.951593e+00 -1.133839e+01 -2.899660e+00 1.358447e+00 -9.754825e+00 7.209884e+01 -9.016749e-02 2.283437e-01 1.075932e-02 -7.545133e-02 -2.390299e-01 3.524982e-01 1.289962e-02 7.159291e-02 7.915974e-03 -3.509643e-01 -1.486513e-01 1.412072e-01 -4.866367e-01 8.610250e-04 -7.243393e-03 -8.056436e-02 -4.004182e-03 -9.017932e-03 2.062324e-02 5.209893e-02 -3.727429e-02 9.529956e-02 4.110965e-02 -1.706531e-02 9.026924e-02 -1.748324e-02
<VARIANCE> 39
 1.275128e+01 6.602681e+00 1.288870e+01 1.182658e+01 1.017022e+02 3.930120e+02 2.322468e+01 1.037943e+02 5.577216e+01 3.841404e+01 2.961278e+01 2.108356e+01 1.043206e+02 1.740220e-01 5.297347e-01 1.109422e+00 7.931212e-01 1.537159e+00 1.884290e+00 1.174158e+00 1.716898e+00 1.889926e+00 1.923952e+00 1.681154e+00 1.338320e+00 3.907494e-01 2.805862e-02 9.231459e-02 9.865364e-02 1.898561e-01 2.778105e-01 2.313446e-01 2.654644e-01 3.075752e-01 3.209276e-01 3.630278e-01 3.453466e-01 2.215448e-01 3.010411e-02
<GCONST> 9.528233e+01
<STATE> 4
<MEAN> 39
 -9.359068e+00 -5.000383e-01 -3.013426e+00 1.152900e+00 -1.075194e+00 1.261539e+00 -4.031703e+00 -3.761645e+00 -6.078806e+00 -3.781350e+00 -3.932521e+00 -1.658164e+00 6.425435e+01 -2.379896e-02 1.485173e-02 -5.045702e-02 -6.426054e-03 2.351665e-02 1.150845e-01 5.624101e-02 -4.302704e-02 2.057204e-02 -1.677074e-02 -1.186292e-02 2.985910e-03 -3.962461e-02 -1.790419e-03 -8.529241e-04 6.829999e-03 -4.104796e-03 6.476132e-03 -1.419320e-02 -7.152778e-03 3.759378e-04 -6.715256e-03 -3.381674e-04 1.669322e-03 -9.118571e-03 5.818836e-03
<VARIANCE> 39
 3.728535e+00 2.521379e+00 1.305839e+01 1.133586e+01 1.732312e+01 1.405499e+01 9.994858e+00 1.460488e+01 2.160593e+01 1.390344e+01 9.381145e+00 8.557261e+00 2.931840e+00 7.646947e-02 1.787041e-01 2.708406e-01 4.007662e-01 5.138518e-01 7.755542e-01 7.561285e-01 8.434609e-01 9.966551e-01 7.316639e-01 7.546027e-01 6.761876e-01 4.418211e-02 1.430645e-02 3.704922e-02 5.640480e-02 8.179368e-02 1.060279e-01 1.472110e-01 1.599274e-01 1.825077e-01 1.965988e-01 1.424285e-01 1.458900e-01 1.384124e-01 4.869140e-03
<GCONST> 5.515075e+01
<TRANSP> 5
 0.000000e+00 1.000000e+00 0.000000e+00 0.000000e+00 0.000000e+00
 0.000000e+00 8.831861e-01 1.168139e-01 0.000000e+00 0.000000e+00
 0.000000e+00 0.000000e+00 9.351464e-01 6.485366e-02 0.000000e+00
 0.000000e+00 0.000000e+00 0.000000e+00 9.872860e-01 1.271394e-02
 0.000000e+00 0.000000e+00 0.000000e+00 0.000000e+00 0.000000e+00
<ENDHMM>
~h "asu"
<BEGINHMM>
<NUMSTATES> 5
<STATE> 2
<MEAN> 39
 -8.549241e+00 -3.357887e+00 4.969419e+00 -7.857081e+00 -4.727135e+00 2.246603e+00 -2.859344e+00 -3.867748e-01 -5.262373e+00 -4.768146e-01 1.352641e+00 -2.370925e+00 7.431838e+01 1.833086e+00 -9.436309e-01 -1.731496e+00 -8.061601e-01 -1.651333e+00 -9.516038e-01 4.412978e-01 -4.663719e-01 -3.680551e-01 -8.432269e-01 1.001560e+00 -4.988858e-02 1.272658e+00 1.627222e-01 -8.234620e-03 -2.349894e-01 2.778061e-02 -4.147481e-02 1.278892e-01 6.057579e-03 -8.860998e-02 1.667051e-01 -1.570992e-01 -4.143794e-02 2.547826e-02 2.039072e-02
<VARIANCE> 39
 1.220734e+02 2.677610e+01 5.696814e+01 4.925107e+01 4.080859e+01 4.705136e+01 5.209096e+01 7.393272e+01 5.243457e+01 5.573993e+01 5.192776e+01 1.724557e+01 1.286998e+02 6.073225e+00 4.272537e+00 2.755140e+00 4.904775e+00 2.406065e+00 1.926261e+00 2.082257e+00 3.827899e+00 3.646739e+00 2.924861e+00 2.129308e+00 1.515277e+00 2.119679e+00 1.046643e+00 7.783355e-01 3.477693e-01 9.681081e-01 5.748051e-01 3.562857e-01 3.590042e-01 9.266475e-01 5.415269e-01 5.347062e-01 4.596045e-01 1.642976e-01 3.751843e-01
<GCONST> 1.281359e+02
<STATE> 3
<MEAN> 39
 -4.059348e-01 -4.953035e+00 -3.862034e+00 -1.027130e+01 -1.636906e+01 4.169005e-01 -7.752378e+00 1.082540e+00 -4.639488e+00 -9.740791e+00 5.536497e+00 -5.727702e+00 7.496256e+01 -1.522723e-02 7.707525e-02 -7.300865e-02 2.044316e-03 -1.117266e-01 -2.467583e-01 -1.317563e-01 1.565089e-02 -4.365855e-02 8.987044e-02 -3.188267e-01 6.191475e-02 -1.918776e-01 -3.886416e-02 6.912056e-02 1.087754e-01 3.608480e-02 6.571169e-02 2.865990e-02 5.592376e-03 1.812037e-02 -2.597855e-02 1.120766e-01 -2.018532e-02 -1.091717e-02 -4.193170e-02
<VARIANCE> 39
 1.273464e+01 2.613248e+01 8.912617e+01 8.089250e+01 2.741542e+01 1.828778e+02 8.134758e+01 7.012999e+01 3.927296e+01 8.562383e+01 3.106069e+01 3.384097e+01 1.107005e+02 2.251260e-01 8.919421e-01 1.020430e+00 7.369320e-01 1.288690e+00 2.242257e+00 1.387215e+00 2.913903e+00 2.229246e+00 3.166446e+00 1.492099e+00 1.848861e+00 1.610509e-01 5.538948e-02 1.813249e-01 1.464264e-01 8.658846e-02 2.008985e-01 3.667671e-01 2.768365e-01 5.518399e-01 4.551666e-01 4.843096e-01 2.965927e-01 4.073532e-01 2.547700e-02
<GCONST> 1.042812e+02
<STATE> 4
<MEAN> 39
 -1.046382e+01 -1.091853e+00 -8.592446e+00 2.859172e+00 -5.683939e+00 -3.439150e-03 -2.681857e+00 -5.519234e+00 -8.745850e-01 -4.204421e+00 -7.346163e-01 2.172638e-01 6.522489e+01 -6.868367e-02 -2.194729e-02 1.177731e-03 1.205434e-01 1.234154e-01 2.165449e-01 1.617840e-02 3.802766e-02 6.674913e-02 -2.438961e-03 -1.984320e-02 -1.042640e-02 -1.057132e-01 5.471690e-03 2.126499e-02 2.461446e-03 -7.008206e-03 -5.493569e-03 -3.461651e-02 -6.624979e-04 -5.053665e-03 -1.149763e-02 -2.241850e-02 4.141901e-04 7.052799e-04 8.432197e-03
<VARIANCE> 39
 9.413971e+00 4.389032e+00 4.215103e+00 1.745125e+01 1.704329e+01 2.774960e+01 9.171280e+00 9.661924e+00 9.744389e+00 1.114549e+01 1.107191e+01 9.590343e+00 7.426376e+00 1.222374e-01 2.289228e-01 2.187909e-01 3.956693e-01 5.222736e-01 1.204216e+00 5.839041e-01 6.732793e-01 7.612239e-01 9.241607e-01 9.965185e-01 9.057268e-01 9.017836e-02 2.137158e-02 4.651425e-02 4.126717e-02 5.769413e-02 1.135172e-01 2.467038e-01 1.379407e-01 1.618014e-01 1.559898e-01 1.833464e-01 2.033113e-01 1.903112e-01 9.428502e-03
<GCONST> 5.961514e+01
<TRANSP> 5
 0.000000e+00 1.000000e+00 0.000000e+00 0.000000e+00 0.000000e+00
 0.000000e+00 8.588379e-01 1.411621e-01 0.000000e+00 0.000000e+00
 0.000000e+00 0.000000e+00 9.467272e-01 5.327282e-02 0.000000e+00
 0.000000e+00 0.000000e+00 0.000000e+00 9.664602e-01 3.353982e-02
 0.000000e+00 0.000000e+00 0.000000e+00 0.000000e+00 0.000000e+00
<ENDHMM>
~h "ooj"
<BEGINHMM>
<NUMSTATES> 5
<STATE> 2
<MEAN> 39
 -7.732141e+00 -3.631907e+00 4.855934e+00 1.480616e-01 -6.505363e+00 9.519074e+00 -9.909329e+00 6.403357e+00 -1.299044e+00 -1.995417e+00 4.702363e+00 -4.205262e+00 6.280460e+01 1.091698e-01 1.884272e-01 2.671593e-01 -1.007450e-01 2.852777e-01 -1.631048e-01 1.640985e-01 -7.028531e-02 -1.421001e-01 -1.104422e-01 -3.131585e-01 3.020073e-01 2.142677e-01 9.070075e-02 -1.481660e-02 -7.480423e-02 -2.656928e-02 -1.064966e-01 1.963353e-02 -1.020647e-01 -3.455207e-02 -1.038475e-01 -3.910546e-02 -5.407672e-04 -3.164660e-02 1.166416e-02
<VARIANCE> 39
 3.680914e+01 3.401586e+01 2.262665e+01 1.821161e+01 9.559187e+01 9.885880e+01 8.661913e+01 3.408835e+01 3.157483e+01 2.121898e+01 3.533096e+01 3.995734e+01 7.015589e+01 4.535260e+00 3.049290e+00 2.724323e+00 2.252672e+00 1.135347e+01 8.699578e+00 1.094774e+01 3.859911e+00 5.253584e+00 2.556167e+00 3.336803e+00 4.199218e+00 1.359695e+01 8.497950e-01 6.759500e-01 6.585403e-01 4.726466e-01 2.334855e+00 1.511374e+00 2.413360e+00 7.895324e-01 1.130054e+00 4.494390e-01 6.777306e-01 7.988878e-01 3.302623e+00
<GCONST> 1.406985e+02
<STATE> 3
<MEAN> 39
 -3.049546e+00 -1.726567e-01 2.906959e+00 -4.589684e+00 -5.280924e+00 -8.169891e-01 -1.960177e+00 3.785219e+00 -8.584373e+00 -3.364250e+00 -2.424926e+00 3.677242e+00 6.802605e+01 4.878309e-01 1.205699e-01 -1.504779e-02 -1.099790e-01 -1.077996e-02 -5.134390e-01 -1.581295e-01 -7.997327e-04 -2.218778e-01 3.761792e-02 -2.617701e-01 2.141912e-01 3.325910e-01 -1.553334e-01 -2.484370e-02 -4.441266e-03 -4.328956e-03 1.563289e-01 2.187638e-02 4.731970e-02 -8.248820e-03 2.401599e-01 -5.226598e-03 -3.761453e-02 -6.264321e-02 -4.992481e-02
<VARIANCE> 39
 4.344964e+01 6.592269e+01 3.416294e+01 2.469370e+01 5.175543e+01 2.139582e+01 4.831714e+01 6.179882e+01 2.376591e+01 3.480445e+01 1.623495e+01 3.095685e+01 1.254377e+01 1.469656e+00 2.738009e+00 1.359483e+00 2.128365e+00 5.270217e+00 1.991701e+00 2.017053e+00 2.990304e+00 2.781644e+00 1.233656e+00 2.038575e+00 2.708277e+00 9.005731e-01 1.317041e-01 4.754006e-01 2.043845e-01 2.646980e-01 6.895849e-01 4.305657e-01 3.385486e-01 4.829828e-01 2.990842e-01 2.732343e-01 2.616161e-01 4.384206e-01 1.035922e-01
<GCONST> 1.106429e+02
<STATE> 4
<MEAN> 39
 -1.261511e+01 1.556926e+00 -2.660954e+00 -1.107251e+00 -2.725728e+00 -1.421192e-01 1.220653e-01 2.269957e-01 -1.680744e+00 -1.007954e+00 -2.572677e+00 -1.869765e+00 6.067663e+01 -1.286213e-01 -9.742977e-02 -4.789117e-02 7.221738e-03 -4.549479e-02 2.841583e-03 1.416972e-02 -1.063909e-01 -8.780864e-03 8.516511e-02 1.036030e-01 -9.993353e-03 -7.051411e-02 7.245193e-03 -2.594366e-02 -6.979792e-04 -1.457972e-02 -4.676349e-02 -1.237431e-02 3.008198e-02 6.663724e-03 -9.810118e-03 1.258007e-02 1.969329e-02 3.987511e-03 1.825487e-02
<VARIANCE> 39
 2.895991e+01 1.302954e+01 2.179928e+01 7.250939e+00 6.495874e+00 6.630497e+00 1.642732e+01 1.830391e+01 1.413590e+01 9.956965e+00 1.429542e+01 1.291959e+01 1.427187e+01 6.217981e-01 4.341481e-01 3.567309e-01 3.469600e-01 5.761633e-01 9.779242e-01 1.487914e+00 9.599534e-01 7.694132e-01 9.545373e-01 6.134307e-01 5.936890e-01 4.744338e-01 1.304243e-01 1.091286e-01 7.874888e-02 6.872328e-02 1.347692e-01 2.152878e-01 3.598033e-01 2.102078e-01 1.528307e-01 2.008407e-01 1.213332e-01 1.224522e-01 1.039938e-01
<GCONST> 7.373631e+01
<TRANSP> 5
 0.000000e+00 1.000000e+00 0.000000e+00 0.000000e+00 0.000000e+00
 0.000000e+00 9.017159e-01 9.828413e-02 0.000000e+00 0.000000e+00
 0.000000e+00 0.000000e+00 8.743956e-01 1.256044e-01 0.000000e+00
 0.000000e+00 0.000000e+00 0.000000e+00 9.642680e-01 3.573200e-02
 0.000000e+00 0.000000e+00 0.000000e+00 0.000000e+00 0.000000e+00
<ENDHMM>
~h "oos"
<BEGINHMM>
<NUMSTATES> 5
<STATE> 2
<MEAN> 39
 4.075039e+00 -2.336900e+00 -4.139121e+00 -1.397913e+01 -2.234803e+01 -1.717474e+01 -2.707354e+00 2.285644e+00 -9.969635e+00 -3.581696e+00 4.013015e+00 -1.010242e+01 8.163007e+01 -1.989573e-01 2.313863e-02 -1.885371e-01 6.155608e-01 4.086464e-01 -1.258447e-01 -4.091639e-01 -6.261916e-01 -1.569521e-01 2.904403e-01 -2.236983e-01 8.297957e-03 -2.935816e-01 -2.177487e-02 2.520048e-02 -4.596458e-02 1.894791e-01 1.256973e-01 -2.262927e-02 -6.733617e-02 -2.087689e-02 3.854430e-02 -2.488193e-02 -6.857710e-02 -1.133390e-01 -9.467494e-02
<VARIANCE> 39
 3.902276e+00 2.720526e+00 1.279128e+01 1.430882e+01 1.022048e+02 5.926023e+01 2.217224e+01 2.953799e+01 4.665331e+01 2.047375e+01 2.523694e+01 7.861263e+01 1.423525e+01 9.799146e-02 2.424615e-01 3.066569e-01 1.503386e+00 1.673749e+00 1.229730e+00 1.918048e+00 2.109316e+00 9.003994e-01 1.083173e+00 7.278292e-01 4.308690e-01 3.720782e-01 1.239444e-02 3.621459e-02 4.898802e-02 2.169355e-01 1.491341e-01 1.636929e-01 2.787273e-01 2.305687e-01 1.973382e-01 2.015912e-01 2.894975e-01 1.016749e-01 2.269173e-02
<GCONST> 7.773902e+01
<STATE> 3
<MEAN> 39
 2.924351e-01 -1.034133e+00 -6.126216e+00 -3.200418e+00 -1.279147e+01 -1.765850e+01 -9.090398e+00 -1.140241e+01 -1.091322e+01 -4.941949e+00 -3.004870e+00 -8.452434e+00 7.606176e+01 -6.939507e-01 8.523678e-02 2.477708e-01 1.033934e+00 8.337076e-01 6.379206e-01 -5.202209e-01 -6.231185e-02 4.307863e-01 -8.952727e-02 -2.504649e-01 2.567247e-01 -7.436438e-01 -4.528649e-02 -7.587935e-03 9.261557e-02 -1.061659e-01 -1.051214e-01 1.896741e-01 1.262027e-01 2.838605e-01 1.904842e-02 -8.296788e-02 4.093974e-02 -5.967767e-02 -2.177470e-03
<VARIANCE> 39
 1.139742e+01 2.286289e+00 1.782543e+01 1.468144e+01 4.655494e+01 5.010567e+01 2.515681e+01 2.689569e+01 2.924149e+01 3.485848e+01 3.555665e+01 5.834463e+01 9.910342e+00 1.001514e-01 2.838025e-01 4.008414e-01 2.128161e+00 1.206033e+00 1.439092e+00 1.432926e+00 9.597591e-01 1.015006e+00 9.547587e-01 2.818669e+00 1.411003e+00 2.164417e-01 1.830543e-02 5.759237e-02 7.012329e-02 1.540624e-01 2.070278e-01 2.830970e-01 2.830325e-01 1.338127e-01 1.647622e-01 1.388434e-01 6.876014e-01 1.834834e-01 4.256578e-03
<GCONST> 7.980347e+01
<STATE> 4
<MEAN> 39
 -1.281861e+01 -1.418787e+00 -5.221977e+00 1.482292e+00 -3.202983e+00 1.670034e+00 -3.035365e+00 -5.150877e+00 -1.037419e-01 -4.172236e+00 1.325010e-01 -8.761868e-01 6.686166e+01 -6.028284e-02 -1.656319e-02 -1.360914e-02 6.633073e-02 8.659636e-02 1.501766e-01 3.956228e-02 8.171555e-02 3.475950e-02 2.476151e-02 -1.682659e-04 7.518215e-03 -8.548494e-02 1.407415e-02 4.817937e-03 4.812554e-03 3.078619e-03 -3.152710e-02 -1.422034e-02 -1.342330e-02 -5.197685e-03 -1.927732e-02 -1.433755e-02 -1.074307e-02 -2.331359e-02 6.652467e-03
<VARIANCE> 39
 1.308310e+01 2.609168e+00 9.224224e+00 1.503990e+01 9.718838e+00 1.632160e+01 1.392175e+01 1.173016e+01 1.082150e+01 1.093296e+01 1.089425e+01 1.229947e+01 4.338439e+00 1.589638e-01 1.774462e-01 3.523706e-01 6.615815e-01 8.173698e-01 1.202158e+00 9.323260e-01 1.132700e+00 8.995566e-01 7.525027e-01 1.046012e+00 9.753688e-01 1.548298e-01 2.009748e-02 3.334009e-02 6.771738e-02 1.130390e-01 1.913650e-01 2.314606e-01 1.720685e-01 2.197649e-01 1.704670e-01 1.539364e-01 2.007133e-01 1.875920e-01 2.021284e-02
<GCONST> 6.482414e+01
<TRANSP> 5
 0.000000e+00 1.000000e+00 0.000000e+00 0.000000e+00 0.000000e+00
 0.000000e+00 8.358158e-01 1.641842e-01 0.000000e+00 0.000000e+00
 0.000000e+00 0.000000e+00 7.713896e-01 2.286104e-01 0.000000e+00
 0.000000e+00 0.000000e+00 0.000000e+00 9.701664e-01 2.983358e-02
 0.000000e+00 0.000000e+00 0.000000e+00 0.000000e+00 0.000000e+00
<ENDHMM>
~h "sil"
<BEGINHMM>
<NUMSTATES> 5
<STATE> 2
<MEAN> 39
 -1.429433e+01 2.056912e+00 -1.954701e+00 -4.423980e-01 -5.637033e+00 7.887987e+00 -1.107588e+01 3.851354e+00 -3.739017e+00 -9.674624e-01 -6.929734e-01 -3.837208e+00 5.342358e+01 5.655123e-02 6.376313e-02 2.556775e-02 7.016069e-02 -2.394844e-02 4.970656e-02 -4.356357e-02 9.021904e-02 4.172437e-02 7.926981e-04 -1.758377e-02 -5.062651e-02 -2.776358e-02 -2.581722e-02 -1.250746e-02 -1.483911e-02 2.123856e-02 2.454833e-03 -3.420217e-02 6.723110e-02 -2.264027e-03 2.301742e-03 -3.638263e-02 4.574121e-03 -1.222513e-02 -6.103137e-03
<VARIANCE> 39
 2.115368e+02 4.726040e+01 3.745802e+01 8.212528e+00 7.412566e+01 4.777184e+01 7.819348e+01 2.893142e+01 1.568980e+01 7.293597e+00 2.739358e+01 1.651607e+01 2.240520e+02 4.468697e-01 1.665762e-01 3.771713e-01 4.019839e-01 6.796680e-01 6.638578e-01 5.528866e-01 8.956239e-01 6.607060e-01 4.826437e-01 5.892219e-01 5.634849e-01 2.474104e-01 1.056881e-01 3.812743e-02 7.342105e-02 7.928114e-02 1.038637e-01 1.276107e-01 9.778149e-02 1.965677e-01 1.388616e-01 8.389116e-02 1.109758e-01 9.450682e-02 6.533909e-02
<GCONST> 7.848014e+01
<STATE> 3
~s "silst"
<STATE> 4
<MEAN> 39
 -8.596500e+00 -9.314799e-01 -4.140030e-01 -2.633023e+00 -8.184183e-01 -7.990077e-01 -8.139105e-01 -9.848084e-01 -7.524809e+00 -1.439422e+00 -3.554547e+00 -7.366710e-01 6.456166e+01 4.036288e-03 1.737857e-02 5.158515e-03 9.055876e-03 3.962740e-03 1.580292e-02 7.230243e-04 -4.901786e-03 -1.610958e-03 -8.461328e-03 -1.548280e-03 -1.941593e-03 -5.668591e-03 -1.374529e-03 -4.657892e-03 2.072599e-03 -8.488119e-03 -8.443710e-04 -9.860790e-04 -9.125964e-04 1.211066e-03 -1.864794e-03 7.357528e-04 -2.313206e-03 4.949167e-04 3.616260e-03
<VARIANCE> 39
 3.491939e+01 2.828563e+01 1.502808e+01 1.646284e+01 3.002175e+01 4.832171e+01 2.136546e+01 2.385753e+01 2.173457e+01 1.687454e+01 1.314213e+01 1.019063e+01 3.999314e+01 7.812070e-01 6.838752e-01 6.908908e-01 7.822482e-01 8.988532e-01 1.282427e+00 1.221540e+00 1.147360e+00 1.025365e+00 1.074659e+00 9.409124e-01 8.269001e-01 6.749515e-01 1.122673e-01 1.228882e-01 1.389014e-01 1.458641e-01 1.722318e-01 2.284842e-01 2.385913e-01 2.199417e-01 2.055663e-01 2.103608e-01 1.808908e-01 1.714323e-01 9.666767e-02
<GCONST> 8.746259e+01
<TRANSP> 5
 0.000000e+00 1.000000e+00 0.000000e+00 0.000000e+00 0.000000e+00
 0.000000e+00 7.385190e-01 6.148108e-02 2.000000e-01 0.000000e+00
 0.000000e+00 0.000000e+00 9.348052e-01 6.519480e-02 0.000000e+00
 0.000000e+00 2.000000e-01 0.000000e+00 7.944242e-01 5.575852e-03
 0.000000e+00 0.000000e+00 0.000000e+00 0.000000e+00 0.000000e+00
<ENDHMM>
