~o
<STREAMINFO> 1 39
<VECSIZE> 39<NULLD><MFCC_D_A_0><DIAGC>
~h "a"
<BEGINHMM>
<NUMSTATES> 5
<STATE> 2
<MEAN> 39
 -1.877892e+000 -5.389341e+000 1.019951e+001 -7.756315e+000 5.358077e-001 2.952809e+000 -7.716188e+000 3.659366e+000 -9.550222e-002 8.175200e+000 -8.191286e+000 4.460491e+000 7.271878e+001 6.713645e-002 1.927535e-002 1.064370e-001 1.046977e-001 -1.162273e-001 7.056294e-002 -4.096668e-002 2.089686e-002 -2.944825e-002 -2.537235e-002 6.996784e-002 -8.690789e-002 2.712898e-002 2.404035e-002 -8.887004e-003 -2.680024e-002 9.122879e-004 -2.784281e-002 -2.606303e-002 -3.530457e-002 -5.517077e-003 2.173906e-003 3.350703e-003 4.099287e-002 1.182042e-002 8.442300e-003
<VARIANCE> 39
 3.695851e+001 1.404731e+001 7.639429e+001 1.008647e+002 8.552983e+001 6.518725e+001 1.195801e+002 9.149512e+001 4.398273e+001 6.899590e+001 8.610003e+001 7.588398e+001 6.534773e+001 1.547391e+000 1.056559e+000 2.806731e+000 2.394030e+000 3.118783e+000 5.951752e+000 5.766555e+000 4.614417e+000 2.795665e+000 4.125558e+000 4.421691e+000 3.446727e+000 1.082583e+000 2.833546e-001 1.785058e-001 3.835977e-001 3.740599e-001 5.090253e-001 1.181041e+000 1.020402e+000 7.463024e-001 6.180568e-001 8.241662e-001 6.772763e-001 7.319949e-001 1.416262e-001
<GCONST> 1.305976e+002
<STATE> 3
<MEAN> 39
 -4.197120e-001 -4.660574e+000 5.425476e+000 -1.077011e+001 -1.072415e+000 2.031612e+000 -1.974419e+000 3.136318e+000 -2.845669e+000 8.871099e+000 -8.102428e+000 6.298020e+000 7.349186e+001 1.840253e-001 -1.155102e-003 -7.323719e-002 -1.883938e-001 -2.576723e-002 -2.013794e-001 1.178163e-001 -3.000987e-001 1.872400e-001 3.718763e-002 2.791372e-001 1.699880e-001 2.567683e-001 -2.999240e-002 6.799298e-002 -1.160978e-002 6.025170e-003 1.826754e-002 -6.018979e-002 -4.168064e-003 9.197442e-003 1.021026e-001 -9.380485e-002 3.502943e-003 1.955020e-002 -3.879810e-002
<VARIANCE> 39
 5.364887e+001 1.855504e+001 5.661842e+001 9.992372e+001 4.151499e+001 6.037378e+001 7.335038e+001 5.358049e+001 2.326297e+001 6.979053e+001 7.240623e+001 8.931532e+001 7.014342e+001 8.624012e-001 1.046947e+000 1.655488e+000 2.648596e+000 2.513013e+000 4.322840e+000 2.895783e+000 2.474149e+000 2.128211e+000 3.523691e+000 3.031144e+000 2.912339e+000 1.065159e+000 1.684696e-001 1.915717e-001 3.002228e-001 5.285121e-001 4.458008e-001 9.530301e-001 5.457056e-001 5.031427e-001 4.344523e-001 6.161966e-001 5.273470e-001 5.713344e-001 1.850833e-001
<GCONST> 1.221004e+002
<STATE> 4
<MEAN> 39
 -1.127867e+001 -3.395088e+000 -6.154025e+000 1.503613e+000 -3.710107e+000 2.038224e+000 -2.854164e+000 -5.630105e+000 -1.625901e+000 -3.036178e+000 -7.753925e-002 -8.574902e-001 6.620700e+001 -5.381534e-002 1.301877e-001 -1.844605e-002 7.083973e-003 -9.271090e-004 -6.138001e-002 6.282192e-003 1.025498e-001 1.175211e-001 -1.005721e-001 -4.266058e-002 4.700568e-002 -1.120014e-001 -2.883786e-003 3.537944e-003 1.700621e-002 6.333261e-003 3.735610e-002 4.431386e-002 3.124560e-002 1.863702e-002 -1.091678e-002 1.547799e-002 -2.301470e-002 -1.753868e-002 -9.057582e-004
<VARIANCE> 39
 2.246880e+001 1.205592e+001 1.177232e+001 2.576598e+001 1.165401e+001 1.055583e+001 1.648676e+001 2.501132e+001 1.020923e+001 1.793900e+001 1.618287e+001 1.026207e+001 1.597582e+001 3.511526e-001 2.542002e-001 4.183641e-001 6.933537e-001 6.460896e-001 6.870416e-001 9.285141e-001 8.968190e-001 9.562492e-001 7.390071e-001 9.760664e-001 6.914450e-001 2.320399e-001 7.717685e-002 5.821044e-002 6.978017e-002 1.523726e-001 1.183859e-001 1.667143e-001 1.878075e-001 1.792008e-001 2.057928e-001 1.492358e-001 2.099292e-001 1.288766e-001 4.580902e-002
<GCONST> 7.262910e+001
<TRANSP> 5
 0.000000e+000 1.000000e+000 0.000000e+000 0.000000e+000 0.000000e+000
 0.000000e+000 9.538665e-001 4.613346e-002 0.000000e+000 0.000000e+000
 0.000000e+000 0.000000e+000 8.720113e-001 1.279887e-001 0.000000e+000
 0.000000e+000 0.000000e+000 0.000000e+000 9.426482e-001 5.735181e-002
 0.000000e+000 0.000000e+000 0.000000e+000 0.000000e+000 0.000000e+000
<ENDHMM>
~h "b"
<BEGINHMM>
<NUMSTATES> 5
<STATE> 2
<MEAN> 39
 -2.559454e+000 -3.395374e+000 2.593129e+000 -6.056930e+000 -6.953048e+000 -1.277116e+000 -3.198146e+000 5.485716e-001 -1.820585e+000 -2.069878e+000 -1.674421e+000 3.140031e-001 7.333874e+001 4.081089e-001 5.281084e-002 6.161090e-002 -3.358843e-001 -9.000084e-003 -3.832641e-001 -2.905552e-002 -6.968568e-002 1.573131e-001 5.626689e-002 2.023695e-002 2.555068e-002 5.514650e-001 -1.575105e-002 -3.253172e-002 1.696164e-004 7.399431e-003 -1.952103e-002 -7.523759e-002 -5.710432e-002 -7.187769e-003 1.423329e-002 4.229943e-002 2.272563e-003 -1.746784e-002 -5.414444e-003
<VARIANCE> 39
 6.496216e+001 8.987183e+001 1.383188e+002 6.436834e+001 6.637925e+001 8.930686e+001 6.632343e+001 5.786371e+001 5.796461e+001 9.838485e+001 5.453729e+001 4.306034e+001 7.713951e+001 3.295563e+000 3.971909e+000 3.135024e+000 2.802329e+000 3.798639e+000 6.525463e+000 3.294964e+000 2.447107e+000 4.113315e+000 4.288857e+000 3.761929e+000 2.199815e+000 1.982804e+000 4.649740e-001 5.196391e-001 3.854223e-001 3.748297e-001 6.093953e-001 1.359138e+000 5.650114e-001 4.222038e-001 7.793556e-001 8.463343e-001 7.245782e-001 4.029873e-001 2.534560e-001
<GCONST> 1.348538e+002
<STATE> 3
<MEAN> 39
 1.806422e+000 -1.057854e+000 -2.160055e-001 -8.470814e+000 -9.595970e+000 -6.161442e+000 -5.237814e+000 2.478733e-002 -2.630446e+000 3.868718e-001 1.448021e-001 -2.105983e+000 7.664587e+001 2.968495e-002 -2.087535e-001 -6.840741e-003 9.940688e-002 -2.959962e-001 -4.336692e-001 -2.389107e-001 -1.969490e-003 -9.266974e-002 3.386250e-001 2.853132e-001 -1.902193e-001 9.768122e-002 -7.057658e-002 -1.989969e-002 2.940444e-002 6.050980e-002 2.800649e-002 2.184078e-002 4.253104e-002 -2.467381e-002 -4.663604e-002 -1.135775e-002 -7.578640e-002 6.371459e-003 -4.345727e-002
<VARIANCE> 39
 2.609813e+001 7.717551e+001 1.536886e+002 4.579525e+001 8.505671e+001 1.016564e+002 8.276510e+001 5.326063e+001 9.796997e+001 1.238239e+002 6.133013e+001 5.931863e+001 5.690987e+001 1.040550e+000 1.333521e+000 1.588184e+000 2.466144e+000 2.146671e+000 4.503783e+000 3.172090e+000 2.338539e+000 2.516757e+000 1.947874e+000 2.163062e+000 1.745080e+000 1.097930e+000 1.110438e-001 2.010044e-001 2.050987e-001 2.582867e-001 2.440955e-001 5.689845e-001 5.876795e-001 3.435207e-001 4.387891e-001 3.395039e-001 3.433247e-001 3.140590e-001 1.215976e-001
<GCONST> 1.196689e+002
<STATE> 4
<MEAN> 39
 -6.956728e+000 -4.835219e-001 -2.987324e+000 -3.370572e+000 -6.742940e+000 -1.789462e+000 8.174875e-001 -9.232144e-001 -3.193718e+000 -1.023949e+000 7.915033e-001 -1.182076e+000 6.723077e+001 -2.347469e-001 3.168553e-002 7.476494e-002 1.684838e-001 1.782088e-001 6.919605e-002 -7.559499e-003 -1.050076e-002 -1.746720e-002 2.395875e-002 -1.293648e-001 -4.310428e-002 -1.933915e-001 -1.096603e-002 1.158090e-002 1.657920e-002 4.262147e-003 2.522555e-002 1.121811e-002 2.733244e-003 1.116820e-002 -2.540268e-002 9.757260e-003 1.175838e-002 -1.118585e-002 -7.554245e-003
<VARIANCE> 39
 7.709869e+001 1.538946e+001 2.390541e+001 4.388049e+001 6.996952e+001 5.161487e+001 2.223579e+001 1.865073e+001 2.766398e+001 1.715665e+001 1.661010e+001 2.374682e+001 6.684319e+001 4.267237e-001 3.248723e-001 6.681656e-001 7.560266e-001 8.785475e-001 1.171008e+000 9.827632e-001 9.301473e-001 9.833463e-001 8.778782e-001 8.319983e-001 7.169729e-001 4.110954e-001 8.926157e-002 5.709971e-002 1.030244e-001 1.242377e-001 1.728930e-001 1.950387e-001 1.835316e-001 1.927853e-001 1.915442e-001 1.751265e-001 1.723923e-001 1.265183e-001 8.463915e-002
<GCONST> 8.594221e+001
<TRANSP> 5
 0.000000e+000 1.000000e+000 0.000000e+000 0.000000e+000 0.000000e+000
 0.000000e+000 8.455478e-001 1.544522e-001 0.000000e+000 0.000000e+000
 0.000000e+000 0.000000e+000 7.751287e-001 2.248713e-001 0.000000e+000
 0.000000e+000 0.000000e+000 0.000000e+000 9.209808e-001 7.901922e-002
 0.000000e+000 0.000000e+000 0.000000e+000 0.000000e+000 0.000000e+000
<ENDHMM>
~h "h"
<BEGINHMM>
<NUMSTATES> 5
<STATE> 2
<MEAN> 39
 -1.080927e+001 -7.952191e+000 1.202687e+000 -6.033262e+000 -2.213824e+000 3.797927e+000 -3.548723e+000 2.118474e+000 -3.037498e+000 2.228502e+000 6.262188e-001 -6.818931e-001 6.837749e+001 3.552424e-001 -3.958010e-002 3.548187e-002 -4.490050e-001 -1.806848e-001 -2.216264e-003 6.926482e-003 1.029756e-001 -2.626831e-002 -3.470494e-001 1.370802e-001 -1.806637e-001 7.456189e-001 9.767347e-002 1.974919e-001 -4.598234e-002 -2.671887e-002 -8.182886e-002 -5.974508e-002 6.424750e-002 -1.018225e-003 -5.844716e-003 -3.721622e-002 -3.059122e-002 -2.726364e-002 2.845579e-003
<VARIANCE> 39
 1.892025e+001 5.848130e+001 7.441142e+001 4.521153e+001 1.977359e+001 4.105922e+001 4.718999e+001 1.018373e+002 4.208088e+001 4.731707e+001 4.347807e+001 4.649891e+001 5.739090e+001 1.036490e+000 5.073462e+000 1.259516e+000 2.033718e+000 1.219480e+000 3.380623e+000 1.999026e+000 1.613051e+000 2.644158e+000 3.633665e+000 1.620044e+000 2.973073e+000 1.178761e+000 1.826939e-001 8.737046e-001 2.638556e-001 3.478406e-001 2.199364e-001 6.459589e-001 3.896537e-001 3.295360e-001 4.817551e-001 6.682093e-001 3.338362e-001 5.379517e-001 1.363126e-001
<GCONST> 1.173582e+002
<STATE> 3
<MEAN> 39
 -6.388080e+000 -4.116004e+000 3.882870e+000 -6.558016e+000 -4.468527e+000 2.083403e+000 -5.915886e+000 2.705681e+000 -3.255207e+000 3.419620e+000 -1.350421e-001 -1.756080e+000 7.169298e+001 6.088096e-001 5.169852e-001 -3.847557e-001 -2.650654e-001 -5.162202e-001 -4.645315e-001 1.697791e-002 -2.025780e-001 -7.260082e-002 -1.764441e-003 8.077494e-002 -2.702884e-001 3.962890e-001 -2.925703e-002 -1.270980e-001 -9.641948e-002 1.849515e-002 -2.855358e-002 -4.440743e-003 2.266963e-002 -2.335061e-002 3.491220e-002 7.257782e-002 2.306625e-002 5.064486e-002 -4.871285e-002
<VARIANCE> 39
 3.497938e+001 6.477761e+001 1.328433e+002 3.185415e+001 2.296276e+001 5.630423e+001 7.443147e+001 1.315313e+002 3.747624e+001 6.134996e+001 5.887503e+001 6.869547e+001 9.329999e+001 1.357115e+000 4.914379e+000 2.199373e+000 1.762843e+000 1.850403e+000 3.916175e+000 2.813307e+000 2.477098e+000 2.235547e+000 2.810479e+000 2.473703e+000 2.082549e+000 9.988980e-001 1.989376e-001 9.431298e-001 3.520470e-001 3.635051e-001 3.657794e-001 5.986091e-001 5.095859e-001 4.214797e-001 4.655783e-001 4.891423e-001 5.029758e-001 4.351925e-001 1.003664e-001
<GCONST> 1.232549e+002
<STATE> 4
<MEAN> 39
 -9.067600e+000 -4.011908e+000 -3.092303e+000 -6.799459e-001 -1.206801e+000 -1.547664e+000 -3.295420e+000 -4.701384e+000 -6.136144e+000 -2.269734e+000 -2.319069e+000 -1.936146e+000 6.915417e+001 -2.437801e-002 5.847906e-002 6.577884e-002 4.053945e-002 1.642289e-002 3.056787e-004 -3.295646e-002 2.155101e-002 -1.623877e-002 -2.778710e-002 -3.851791e-002 3.779920e-002 -6.943796e-002 4.459614e-003 9.975513e-003 1.170857e-002 4.870897e-003 5.983375e-003 8.137543e-003 -3.519644e-003 -6.764187e-004 -2.195653e-003 -1.934517e-003 4.367950e-004 2.737576e-003 7.778503e-004
<VARIANCE> 39
 1.767213e+001 2.753028e+001 3.365689e+001 1.150854e+001 3.523203e+001 6.848592e+001 2.458026e+001 2.627128e+001 3.304640e+001 3.479131e+001 2.097432e+001 2.680266e+001 8.573784e+001 1.490279e-001 3.249027e-001 5.090033e-001 4.075707e-001 5.519039e-001 1.153752e+000 9.055035e-001 8.792917e-001 1.003729e+000 1.204581e+000 7.591428e-001 8.375420e-001 1.569671e-001 2.211550e-002 5.048158e-002 7.192922e-002 7.970043e-002 1.085901e-001 1.753126e-001 1.936180e-001 1.685009e-001 1.962419e-001 2.335796e-001 1.496547e-001 1.630467e-001 1.128804e-002
<GCONST> 7.789548e+001
<TRANSP> 5
 0.000000e+000 1.000000e+000 0.000000e+000 0.000000e+000 0.000000e+000
 0.000000e+000 8.386371e-001 1.613629e-001 0.000000e+000 0.000000e+000
 0.000000e+000 0.000000e+000 8.688495e-001 1.311505e-001 0.000000e+000
 0.000000e+000 0.000000e+000 0.000000e+000 9.900540e-001 9.946063e-003
 0.000000e+000 0.000000e+000 0.000000e+000 0.000000e+000 0.000000e+000
<ENDHMM>
~h "m"
<BEGINHMM>
<NUMSTATES> 5
<STATE> 2
<MEAN> 39
 -5.606862e+000 6.500402e-001 1.158780e+000 -3.886390e+000 -2.216048e+000 7.920454e-001 -5.220386e+000 2.119415e+000 -2.903727e+000 5.089228e-001 -2.208851e+000 5.392511e-003 6.626079e+001 3.050157e-003 -2.726555e-001 1.441824e-001 -2.564172e-001 3.537192e-001 5.188379e-001 -3.925142e-001 -3.386265e-001 8.177837e-002 1.981277e-001 5.606263e-002 -2.124418e-001 2.823876e-001 -9.663752e-002 -9.311258e-002 1.623810e-001 -2.932654e-002 9.846085e-002 -7.277430e-002 -1.940577e-003 -4.273031e-002 7.307823e-003 7.059354e-002 4.214112e-002 -1.186797e-002 9.606556e-002
<VARIANCE> 39
 4.837029e+001 3.280293e+001 4.539969e+001 3.091770e+001 6.071420e+001 5.339473e+001 4.601669e+001 6.536681e+001 3.013993e+001 4.530117e+001 2.513587e+001 2.671869e+001 4.030688e+001 1.166131e+000 1.923743e+000 1.765188e+000 2.284245e+000 3.285398e+000 3.241481e+000 3.953481e+000 3.205298e+000 2.564939e+000 2.873908e+000 2.810447e+000 1.863250e+000 2.113698e+000 1.513390e-001 2.487321e-001 2.659720e-001 3.596652e-001 4.572049e-001 4.446008e-001 5.908048e-001 4.500057e-001 4.657345e-001 5.372084e-001 5.552087e-001 3.334325e-001 2.660569e-001
<GCONST> 1.183799e+002
<STATE> 3
<MEAN> 39
 -4.511975e+000 1.389979e-001 1.905109e+000 -4.985167e+000 -1.259639e+000 1.855089e+000 -6.226504e+000 9.096524e-001 -2.315684e+000 9.273267e-001 -1.983419e+000 -1.518694e+000 6.832475e+001 -3.989695e-001 -5.145113e-001 6.889626e-001 -1.682008e-001 4.282542e-001 3.860150e-001 -3.820202e-001 4.718971e-002 1.105184e-002 2.238857e-001 -5.761651e-002 -3.612167e-001 3.076581e-001 -2.511149e-002 5.179571e-002 6.043580e-002 4.144192e-002 -2.501252e-002 -1.250254e-001 1.415048e-001 5.239387e-002 -2.568206e-002 -4.205754e-002 -5.037072e-002 4.184643e-002 4.253098e-002
<VARIANCE> 39
 8.196231e+001 6.754633e+001 3.661032e+001 3.833789e+001 7.359430e+001 8.539771e+001 5.426385e+001 7.331422e+001 2.986335e+001 3.370376e+001 2.935812e+001 3.723495e+001 5.044580e+001 1.713033e+000 2.526153e+000 2.395814e+000 3.428082e+000 3.116555e+000 5.129544e+000 3.633793e+000 3.584083e+000 2.272699e+000 2.934215e+000 2.706696e+000 3.138330e+000 2.821266e+000 1.609840e-001 3.181601e-001 2.516381e-001 4.279486e-001 4.098667e-001 6.598429e-001 6.423498e-001 4.753503e-001 4.312708e-001 5.798361e-001 5.698862e-001 4.729519e-001 2.407857e-001
<GCONST> 1.245776e+002
<STATE> 4
<MEAN> 39
 -1.173994e+001 -2.751205e-001 -1.613786e+000 -9.264094e-001 -9.304001e-001 6.468383e-001 -1.762891e+000 -1.905170e+000 -4.794829e+000 -2.265939e+000 -2.842106e+000 -1.201665e+000 6.273938e+001 -1.228232e-002 -2.678504e-002 4.133218e-002 3.014548e-002 3.835821e-002 -1.102855e-002 4.474008e-003 1.498332e-002 -1.096471e-002 -9.809184e-003 1.914419e-003 -4.888344e-003 2.299847e-002 8.634725e-003 8.871361e-003 -2.004394e-003 -8.623871e-004 -1.385800e-002 -1.306425e-002 1.040124e-002 2.503321e-003 -8.672033e-004 1.084044e-002 5.112213e-003 9.393281e-003 2.109725e-003
<VARIANCE> 39
 1.900257e+001 7.861431e+000 1.826453e+001 8.668717e+000 1.643011e+001 1.425031e+001 1.340308e+001 1.555343e+001 2.148985e+001 1.169728e+001 1.010624e+001 7.976470e+000 1.740990e+001 5.672072e-001 3.027199e-001 4.339506e-001 5.326015e-001 6.885105e-001 7.272187e-001 9.151918e-001 9.495832e-001 8.342684e-001 8.692548e-001 8.313516e-001 6.912098e-001 4.025126e-001 1.178472e-001 5.863513e-002 7.496898e-002 1.012210e-001 1.297575e-001 1.385247e-001 1.826210e-001 1.973440e-001 1.705307e-001 1.862762e-001 1.715336e-001 1.444569e-001 8.569224e-002
<GCONST> 7.267149e+001
<TRANSP> 5
 0.000000e+000 1.000000e+000 0.000000e+000 0.000000e+000 0.000000e+000
 0.000000e+000 6.320064e-001 3.679936e-001 0.000000e+000 0.000000e+000
 0.000000e+000 0.000000e+000 6.623087e-001 3.376913e-001 0.000000e+000
 0.000000e+000 0.000000e+000 0.000000e+000 9.669619e-001 3.303813e-002
 0.000000e+000 0.000000e+000 0.000000e+000 0.000000e+000 0.000000e+000
<ENDHMM>
~h "n"
<BEGINHMM>
<NUMSTATES> 5
<STATE> 2
<MEAN> 39
 -3.680784e+000 -5.651516e-001 6.868365e+000 -1.002321e+000 -4.556888e+000 1.272167e+000 -8.315444e+000 2.578726e+000 -3.922647e+000 9.449501e-001 6.663044e-001 -3.201979e+000 6.862282e+001 1.433116e-001 -5.279643e-002 -1.112522e-002 1.369143e-002 -2.560884e-001 -2.059528e-001 -1.017999e-001 -6.248671e-002 -8.768479e-002 -1.290300e-001 1.366790e-001 -2.368879e-001 1.839136e-001 -8.558544e-003 -2.968544e-004 -1.014664e-002 -2.696832e-002 2.803154e-002 -5.538029e-002 6.145092e-003 7.142575e-003 9.130763e-003 -1.344965e-003 -1.888148e-002 1.111388e-002 7.139540e-003
<VARIANCE> 39
 3.655216e+001 4.369561e+001 9.926411e+001 3.981208e+001 4.856255e+001 1.222385e+002 7.150433e+001 1.329268e+002 4.814866e+001 5.236817e+001 4.681905e+001 3.911730e+001 5.520977e+001 1.793166e+000 1.436791e+000 1.310858e+000 3.074763e+000 3.828609e+000 6.798020e+000 5.376862e+000 5.331286e+000 3.827012e+000 3.519415e+000 4.199811e+000 2.483564e+000 1.849109e+000 2.891862e-001 2.314581e-001 2.029160e-001 5.667856e-001 6.230308e-001 1.245427e+000 9.958858e-001 1.061268e+000 8.011157e-001 7.706906e-001 8.532270e-001 4.099801e-001 3.039653e-001
<GCONST> 1.312665e+002
<STATE> 3
<MEAN> 39
 -3.444647e+000 -2.839410e+000 7.429621e-001 -1.012384e+000 -8.402239e+000 -2.733292e+000 -7.450917e+000 1.386336e-001 -5.918643e+000 -3.693498e+000 3.152164e+000 -6.552001e+000 6.996614e+001 -1.374037e-001 1.635596e-001 4.217239e-002 9.894479e-002 2.930117e-001 -5.418722e-001 1.645691e-001 -1.451104e-001 5.796890e-002 -1.438116e-001 -1.180906e-002 4.051962e-002 -5.785505e-002 -1.350570e-003 2.285789e-002 2.990080e-002 5.260504e-002 1.436196e-002 1.097592e-001 2.063899e-004 -8.843337e-002 -2.411014e-002 -3.359205e-002 -3.944861e-002 5.442888e-002 -4.356693e-002
<VARIANCE> 39
 4.286474e+001 5.116312e+001 7.615917e+001 2.571200e+001 5.233392e+001 1.559019e+002 6.349120e+001 1.262377e+002 7.251710e+001 2.661460e+001 3.405735e+001 2.559765e+001 8.684146e+001 1.374600e+000 8.265479e-001 8.956081e-001 2.488114e+000 3.218186e+000 5.014917e+000 3.959399e+000 2.990557e+000 2.584385e+000 2.172845e+000 3.114861e+000 2.018559e+000 9.288697e-001 2.145890e-001 1.372122e-001 1.431844e-001 3.943379e-001 6.150177e-001 9.366369e-001 7.665954e-001 5.027075e-001 4.499144e-001 4.738277e-001 5.964971e-001 4.144286e-001 1.339909e-001
<GCONST> 1.205603e+002
<STATE> 4
<MEAN> 39
 -7.094151e+000 -6.807992e-001 -1.913459e+000 1.365403e+000 -3.310280e+000 -3.768776e+000 -4.689950e+000 -4.687805e+000 -8.095807e+000 -4.763254e+000 -2.527532e+000 -2.795375e+000 6.702543e+001 -1.563646e-001 8.742447e-002 1.685631e-002 -4.990867e-002 6.202269e-002 2.143189e-001 1.033044e-001 5.652787e-002 1.332652e-001 3.264618e-002 -4.513008e-002 8.657225e-002 -1.617122e-001 8.492671e-003 -7.744038e-003 -9.259491e-003 -2.102986e-002 2.736155e-003 9.411968e-003 -1.510528e-003 1.132448e-002 3.774842e-003 1.853334e-002 5.227240e-003 -6.549296e-003 1.108446e-002
<VARIANCE> 39
 2.779162e+001 1.339550e+001 2.819636e+001 3.430466e+001 2.850674e+001 5.273016e+001 1.778456e+001 3.133730e+001 4.421076e+001 1.371029e+001 1.638763e+001 1.652275e+001 3.445357e+001 2.815304e-001 3.429450e-001 4.606112e-001 9.889364e-001 8.993823e-001 1.054384e+000 8.715902e-001 8.454375e-001 9.852053e-001 1.101260e+000 1.092015e+000 8.965089e-001 1.818638e-001 4.127809e-002 5.928212e-002 8.910126e-002 1.856032e-001 1.906115e-001 1.734588e-001 1.627312e-001 1.654573e-001 1.787541e-001 2.240915e-001 2.122960e-001 1.778098e-001 2.999229e-002
<GCONST> 8.139108e+001
<TRANSP> 5
 0.000000e+000 1.000000e+000 0.000000e+000 0.000000e+000 0.000000e+000
 0.000000e+000 9.225674e-001 7.743259e-002 0.000000e+000 0.000000e+000
 0.000000e+000 0.000000e+000 7.109075e-001 2.890925e-001 0.000000e+000
 0.000000e+000 0.000000e+000 0.000000e+000 9.571501e-001 4.284991e-002
 0.000000e+000 0.000000e+000 0.000000e+000 0.000000e+000 0.000000e+000
<ENDHMM>
~h "s"
<BEGINHMM>
<NUMSTATES> 5
<STATE> 2
<MEAN> 39
 -5.805570e+000 -2.099674e+000 7.154749e+000 -1.986154e+000 3.157644e+000 5.469468e+000 -6.079804e+000 1.816938e+000 -4.608896e+000 7.142161e-001 -4.512824e+000 -1.886249e+000 6.992908e+001 5.690230e-001 3.154685e-001 4.016343e-001 -9.393284e-004 -2.523136e-001 -9.521490e-002 5.072182e-001 4.946360e-001 -1.678948e-001 -5.869044e-002 -1.522302e-001 3.871557e-001 6.349485e-001 1.130905e-001 3.194064e-002 -2.224840e-001 -5.621489e-002 -2.440759e-001 3.169646e-002 -2.779350e-002 6.273258e-002 -8.504818e-002 -2.434976e-002 1.392038e-002 -2.665599e-002 -1.070822e-001
<VARIANCE> 39
 1.192699e+002 1.474152e+002 3.777227e+001 3.478081e+001 1.108438e+002 8.993623e+001 5.851381e+001 6.350001e+001 1.948705e+001 4.092681e+001 2.700448e+001 3.490468e+001 5.225311e+001 2.045632e+000 3.636746e+000 2.415617e+000 2.166947e+000 2.594464e+000 1.405019e+000 8.872652e-001 1.406392e+000 1.598420e+000 1.520089e+000 1.608497e+000 8.075587e-001 8.220285e-001 1.994670e-001 7.076583e-001 3.083573e-001 4.781664e-001 3.733407e-001 2.471981e-001 1.917497e-001 2.779937e-001 2.799440e-001 3.369221e-001 3.162231e-001 1.387594e-001 9.593052e-002
<GCONST> 1.126583e+002
<STATE> 3
<MEAN> 39
 -2.697522e+000 -3.585940e+000 4.621279e+000 -4.952168e+000 1.044237e+000 2.237023e+000 -3.790180e+000 3.350693e+000 -7.105366e+000 -7.540526e-002 -5.058316e+000 4.429491e-001 7.297569e+001 6.384273e-001 3.738302e-001 -7.036317e-001 -6.627197e-001 -7.334983e-001 -2.369097e-001 4.806460e-001 6.910117e-001 -2.719987e-001 1.259650e-002 -3.579211e-003 -1.590159e-002 1.790078e-001 -8.977354e-002 -1.638088e-001 -1.457013e-001 -7.235144e-002 1.638461e-002 1.107202e-002 -5.164387e-002 -9.042996e-002 5.446398e-002 3.929588e-003 2.873624e-002 -1.191256e-001 -5.840372e-002
<VARIANCE> 39
 9.706434e+001 1.289511e+002 7.483507e+001 3.906063e+001 1.297917e+002 9.410328e+001 6.474932e+001 5.014597e+001 4.211089e+001 4.733133e+001 4.271756e+001 3.572376e+001 3.573885e+001 3.212220e+000 3.663457e+000 3.638857e+000 3.211852e+000 3.447706e+000 1.226619e+000 2.081028e+000 1.393604e+000 2.811602e+000 1.352423e+000 1.898954e+000 1.851584e+000 6.897219e-001 3.132551e-001 7.271480e-001 3.883269e-001 5.278823e-001 4.535988e-001 2.824192e-001 2.890329e-001 2.823625e-001 4.199598e-001 2.871892e-001 2.448537e-001 2.216845e-001 8.216041e-002
<GCONST> 1.195918e+002
<STATE> 4
<MEAN> 39
 -7.895185e+000 -5.297319e-001 -1.623015e+000 -3.756898e+000 -1.197621e+000 -6.141624e-001 -1.154101e+000 -2.776690e-001 -7.641770e+000 -1.650850e+000 -5.426862e+000 -1.476268e+000 6.446480e+001 -6.435304e-002 3.239400e-002 5.382644e-002 4.544193e-002 -3.342570e-002 3.359938e-002 -2.363409e-002 -5.190539e-002 2.005117e-004 -1.354914e-002 1.603707e-002 -1.459673e-002 -6.389854e-002 3.085190e-003 -1.082670e-003 5.382852e-003 -6.366214e-004 -6.508396e-003 -7.109135e-003 1.143372e-003 -1.528128e-003 -7.053155e-003 -5.658858e-003 4.305999e-003 6.773137e-003 4.265514e-003
<VARIANCE> 39
 3.219515e+001 1.867528e+001 1.665839e+001 1.930686e+001 2.989855e+001 4.826823e+001 2.372332e+001 1.381941e+001 1.796250e+001 9.052999e+000 1.183832e+001 8.438921e+000 3.091094e+001 3.336214e-001 4.939554e-001 4.726343e-001 4.863972e-001 8.527811e-001 9.690033e-001 1.175983e+000 1.086085e+000 8.834257e-001 8.356833e-001 8.979602e-001 7.779835e-001 2.306841e-001 6.229991e-002 9.447809e-002 8.871506e-002 1.009783e-001 1.529028e-001 1.783609e-001 2.357179e-001 2.297878e-001 1.613337e-001 1.605230e-001 1.935090e-001 1.559422e-001 4.405195e-002
<GCONST> 7.805063e+001
<TRANSP> 5
 0.000000e+000 1.000000e+000 0.000000e+000 0.000000e+000 0.000000e+000
 0.000000e+000 7.856597e-001 2.143404e-001 0.000000e+000 0.000000e+000
 0.000000e+000 0.000000e+000 8.351758e-001 1.648242e-001 0.000000e+000
 0.000000e+000 0.000000e+000 0.000000e+000 9.869134e-001 1.308659e-002
 0.000000e+000 0.000000e+000 0.000000e+000 0.000000e+000 0.000000e+000
<ENDHMM>
~h "t"
<BEGINHMM>
<NUMSTATES> 5
<STATE> 2
<MEAN> 39
 -6.979588e+000 -3.638369e+000 -9.989809e-001 -5.082911e+000 -4.668527e+000 -4.180817e+000 -5.715650e+000 -3.309498e+000 -5.465322e+000 -4.986394e+000 -2.270164e+000 -1.950859e+000 7.071602e+001 4.506717e-001 -7.540996e-001 -3.713093e-001 -8.604232e-001 -3.870853e-001 -8.902319e-002 1.437262e-001 -2.652617e-001 4.879469e-001 2.840814e-001 1.216123e+000 -3.088305e-001 1.194643e+000 8.203819e-002 -1.543735e-001 -1.447685e-001 -7.520854e-002 2.726178e-003 -2.180895e-002 2.651280e-001 -2.741854e-002 4.612899e-002 2.260339e-002 2.010235e-001 -6.550110e-002 1.940878e-001
<VARIANCE> 39
 4.058980e+001 2.537544e+001 5.822554e+001 3.938348e+001 4.397211e+001 1.229622e+002 5.116109e+001 6.265508e+001 3.011666e+001 3.528096e+001 6.771777e+001 3.436668e+001 8.179950e+001 2.917093e+000 2.063111e+000 4.726563e+000 2.239678e+000 2.044598e+000 3.058495e+000 4.218238e+000 1.517449e+000 8.955466e-001 2.447573e+000 6.264198e+000 2.440047e+000 4.394526e+000 5.110039e-001 1.797213e-001 8.391454e-001 3.817492e-001 3.654463e-001 4.642810e-001 7.094173e-001 2.946670e-001 1.856811e-001 5.591503e-001 1.217758e+000 5.474664e-001 5.408625e-001
<GCONST> 1.248310e+002
<STATE> 3
<MEAN> 39
 -5.948783e+000 -5.564911e+000 -1.829570e+000 -7.815341e+000 -4.819629e+000 -5.024957e+000 -2.513214e+000 -2.784751e+000 -3.149026e+000 -3.206446e+000 2.324645e+000 -2.427202e+000 7.343478e+001 -2.782483e-002 -7.916286e-001 -2.613753e-001 -3.397549e-001 3.147742e-001 1.824686e-001 7.838370e-001 -1.649552e-001 6.448996e-001 -5.545947e-002 6.522517e-001 -3.523002e-001 7.050757e-001 -7.280262e-002 2.097804e-002 7.858490e-002 1.418209e-001 9.801800e-002 9.372304e-002 -1.524885e-001 1.358479e-002 -7.530031e-002 -9.280648e-002 -3.254226e-001 8.416419e-002 -1.667380e-001
<VARIANCE> 39
 4.002630e+001 4.612562e+001 9.242923e+001 3.284953e+001 5.237638e+001 1.172130e+002 8.017355e+001 5.912695e+001 4.235567e+001 4.817351e+001 6.859967e+001 4.344658e+001 1.139948e+002 1.919345e+000 1.548796e+000 1.655968e+000 1.160704e+000 1.317161e+000 1.812774e+000 2.777835e+000 1.294479e+000 1.421789e+000 2.339146e+000 3.912020e+000 1.895863e+000 2.411484e+000 2.680602e-001 1.774544e-001 2.401257e-001 2.652520e-001 2.437537e-001 3.584448e-001 4.403645e-001 2.584612e-001 2.691993e-001 3.852253e-001 8.269258e-001 4.707918e-001 3.626293e-001
<GCONST> 1.181044e+002
<STATE> 4
<MEAN> 39
 -7.982712e+000 -4.897194e+000 -2.658953e+000 -3.015010e+000 8.775871e-001 1.014687e+000 -1.295380e+000 -3.039353e+000 -7.452028e+000 -2.955717e+000 -3.085228e+000 -7.271004e-001 6.762208e+001 1.356752e-002 -6.921082e-002 -9.774570e-002 3.459519e-002 3.084417e-002 1.639640e-001 4.269429e-003 -2.150620e-002 -1.403693e-002 -1.560765e-003 -2.495797e-002 1.450866e-002 -1.693548e-002 3.326223e-003 1.344963e-002 9.343593e-003 -4.357980e-003 -8.795056e-003 -1.115721e-002 -1.543316e-002 6.289579e-003 -7.223238e-003 3.379689e-003 9.520941e-003 -6.442357e-003 9.261537e-004
<VARIANCE> 39
 1.462973e+001 3.150031e+001 4.479832e+001 1.885281e+001 1.731436e+001 3.934123e+001 3.200499e+001 1.934482e+001 3.047090e+001 2.201257e+001 2.042826e+001 1.273441e+001 5.105355e+001 9.832420e-002 3.970085e-001 4.166875e-001 4.601792e-001 5.502529e-001 9.767990e-001 7.984344e-001 8.856093e-001 9.686588e-001 8.098307e-001 7.908224e-001 7.840149e-001 1.109724e-001 2.285139e-002 6.045876e-002 7.925852e-002 9.116594e-002 1.125134e-001 1.821894e-001 1.814178e-001 1.577581e-001 1.923211e-001 1.616340e-001 1.649369e-001 1.668788e-001 1.436129e-002
<GCONST> 7.445958e+001
<TRANSP> 5
 0.000000e+000 1.000000e+000 0.000000e+000 0.000000e+000 0.000000e+000
 0.000000e+000 6.464312e-001 3.535689e-001 0.000000e+000 0.000000e+000
 0.000000e+000 0.000000e+000 5.444800e-001 4.555200e-001 0.000000e+000
 0.000000e+000 0.000000e+000 0.000000e+000 9.660130e-001 3.398699e-002
 0.000000e+000 0.000000e+000 0.000000e+000 0.000000e+000 0.000000e+000
<ENDHMM>
~h "ai"
<BEGINHMM>
<NUMSTATES> 5
<STATE> 2
<MEAN> 39
 -3.554885e+000 -2.606747e-001 8.043810e+000 -4.946300e+000 -4.234176e+000 1.792471e+000 -7.893518e+000 3.961152e+000 -5.918784e+000 3.443014e+000 -3.291079e+000 -2.188425e-001 6.904136e+001 4.423457e-001 -4.518139e-001 -3.651642e-001 -2.422530e-001 -1.111309e-001 -3.422785e-002 3.949986e-001 1.105654e-002 -1.273751e-001 2.374007e-001 2.191497e-001 -3.577970e-002 5.549065e-001 -1.761384e-002 -1.462690e-001 -9.483108e-002 -6.805905e-002 -2.435907e-002 -4.447538e-002 6.632058e-002 1.314152e-002 2.402097e-002 4.608211e-002 1.199552e-002 -3.844872e-002 6.855529e-002
<VARIANCE> 39
 2.855919e+001 5.701812e+001 8.671289e+001 3.400678e+001 3.520092e+001 5.940671e+001 7.476972e+001 9.420528e+001 2.896626e+001 7.462154e+001 4.508089e+001 2.661065e+001 3.315548e+001 1.923474e+000 5.786030e+000 3.476955e+000 2.713029e+000 2.700980e+000 5.013011e+000 5.817021e+000 3.013407e+000 2.673723e+000 2.857035e+000 3.583795e+000 1.947500e+000 1.685009e+000 2.714210e-001 9.194267e-001 4.427786e-001 4.335586e-001 4.615599e-001 9.745834e-001 1.234350e+000 6.562997e-001 5.434273e-001 4.940990e-001 6.749269e-001 3.091886e-001 1.950472e-001
<GCONST> 1.278936e+002
<STATE> 3
<MEAN> 39
 -7.102506e+000 -5.467870e+000 5.787270e+000 -9.460974e+000 8.693895e-001 2.303860e+000 -8.564111e-001 3.144253e+000 -1.694009e+000 2.376258e+000 -1.398048e+000 1.734746e+000 7.181979e+001 1.526222e-001 -3.659594e-001 -4.104962e-001 -3.865487e-001 3.031211e-002 -1.268966e-001 3.253418e-001 -2.084843e-001 2.386012e-001 3.107383e-001 -6.804927e-002 5.600223e-002 3.818454e-001 -2.835620e-002 4.235736e-002 -2.817431e-003 2.847474e-002 1.163757e-002 2.736129e-002 -8.299452e-002 -7.063581e-003 3.652484e-002 -7.317665e-002 -2.576803e-002 -2.406404e-002 -5.756560e-002
<VARIANCE> 39
 4.088199e+001 3.255945e+001 8.660005e+001 4.105842e+001 6.684795e+001 6.492851e+001 8.653728e+001 7.727239e+001 5.737015e+001 9.214191e+001 5.505495e+001 4.611155e+001 3.765481e+001 2.748932e+000 3.437886e+000 3.130383e+000 3.077050e+000 3.946948e+000 9.658128e+000 9.562580e+000 5.144490e+000 5.281317e+000 7.257504e+000 4.165862e+000 3.085432e+000 1.478046e+000 5.493212e-001 6.220838e-001 5.485426e-001 6.882614e-001 7.666635e-001 2.417293e+000 2.326685e+000 1.313856e+000 1.010359e+000 1.286973e+000 7.632660e-001 5.257776e-001 2.318649e-001
<GCONST> 1.404844e+002
<STATE> 4
<MEAN> 39
 -2.104645e+000 -1.099030e+001 -1.489899e+001 -8.816441e+000 -6.767653e+000 -2.479449e+000 6.105758e+000 -1.133512e+001 2.283626e+000 -2.301655e+000 3.372987e-001 -8.733137e+000 8.283039e+001 -4.153313e-002 7.255244e-002 3.844898e-002 7.520902e-002 9.435572e-002 1.051435e-001 -4.584069e-002 1.386452e-001 -7.696154e-002 -1.192996e-001 2.280882e-003 1.111233e-001 -1.600643e-001 -1.076168e-002 2.877277e-002 4.539519e-002 1.827881e-002 1.409024e-002 2.328823e-003 -1.868029e-002 2.957083e-002 -7.469950e-002 1.773523e-002 -1.079661e-002 3.516401e-002 -3.040919e-002
<VARIANCE> 39
 2.319445e+001 2.112061e+001 3.780169e+001 2.999258e+001 7.426354e+001 1.946762e+001 3.022808e+001 7.639735e+001 3.505284e+001 2.514594e+001 3.667697e+001 1.060946e+002 6.100933e+001 1.758661e-001 2.223645e-001 5.444980e-001 4.590143e-001 4.548531e-001 9.681237e-001 7.966878e-001 9.429927e-001 1.243804e+000 7.782458e-001 4.683545e-001 4.812944e-001 1.744924e-001 2.488657e-002 4.036913e-002 7.677899e-002 9.684692e-002 7.930216e-002 1.634414e-001 1.537444e-001 1.609086e-001 1.582673e-001 1.455494e-001 8.467992e-002 8.315065e-002 1.270810e-002
<GCONST> 7.714045e+001
<TRANSP> 5
 0.000000e+000 1.000000e+000 0.000000e+000 0.000000e+000 0.000000e+000
 0.000000e+000 9.072025e-001 9.279746e-002 0.000000e+000 0.000000e+000
 0.000000e+000 0.000000e+000 9.270130e-001 7.298697e-002 0.000000e+000
 0.000000e+000 0.000000e+000 0.000000e+000 9.460859e-001 5.391405e-002
 0.000000e+000 0.000000e+000 0.000000e+000 0.000000e+000 0.000000e+000
<ENDHMM>
~h "as"
<BEGINHMM>
<NUMSTATES> 5
<STATE> 2
<MEAN> 39
 -2.297125e+000 -9.137211e+000 -1.035403e+001 -6.653632e+000 -9.637579e+000 4.803353e+000 -6.275146e+000 -2.822170e+000 1.019001e+000 -1.125048e+001 6.756314e+000 -8.110178e+000 7.586673e+001 -1.270274e-002 4.687307e-001 3.133230e-001 1.994126e-001 -1.327286e-001 -2.875499e-001 -4.303697e-001 -1.619294e-001 -5.443414e-001 1.316226e-002 -3.531705e-001 -5.996136e-001 -3.005804e-001 3.088805e-002 1.227661e-002 1.614898e-002 6.607947e-002 2.912058e-002 -1.000172e-001 -9.318236e-002 -1.285866e-001 -3.272052e-001 -7.060439e-003 -2.496427e-001 -9.032349e-003 -5.381477e-002
<VARIANCE> 39
 2.924570e+001 4.850151e+001 1.170982e+002 2.744478e+001 5.872402e+001 4.498679e+001 1.144444e+002 1.078302e+002 6.913300e+001 1.265757e+002 4.535869e+001 3.714437e+001 1.698589e+002 3.427218e-001 6.456498e-001 3.684334e-001 1.034802e+000 5.030226e-001 7.832484e-001 3.559113e+000 1.112065e+000 1.868505e+000 1.008984e+000 2.032425e+000 1.192569e+000 4.399985e-001 5.676534e-002 4.867261e-002 4.024534e-002 1.396159e-001 8.769941e-002 8.127803e-002 5.678046e-001 2.263952e-001 2.164128e-001 2.196697e-001 2.920393e-001 1.953448e-001 5.981079e-002
<GCONST> 9.782607e+001
<STATE> 3
<MEAN> 39
 -1.548362e+000 -8.462084e+000 -1.089676e+001 -6.215852e+000 -1.041819e+001 2.202714e+000 -6.654519e+000 -6.130466e+000 -2.026202e+000 -1.273412e+001 3.505638e+000 -1.014498e+001 7.650040e+001 3.467455e-001 5.545296e-001 5.003775e-001 7.650365e-001 8.117422e-002 -5.062193e-001 -6.616960e-001 -7.794661e-002 -1.632486e+000 9.421857e-002 -1.027981e+000 -1.344020e-001 -6.991166e-001 1.140295e-002 -3.989555e-002 1.874779e-003 6.381515e-002 8.223101e-002 -9.148809e-002 2.297192e-002 4.194934e-002 -1.683896e-001 -2.529588e-002 1.875410e-002 1.274091e-001 -1.070301e-002
<VARIANCE> 39
 3.027135e+001 3.196465e+001 8.757314e+001 2.399790e+001 4.681318e+001 4.640973e+001 7.198137e+001 1.283887e+002 6.316632e+001 1.082199e+002 4.503606e+001 3.072989e+001 1.454476e+002 5.187964e-001 5.975867e-001 4.407208e-001 1.750601e+000 4.006803e-001 7.015605e-001 3.305599e+000 7.374976e-001 1.597032e+000 9.429470e-001 1.516883e+000 1.032936e+000 8.525938e-001 1.010167e-001 6.237736e-002 7.154568e-002 2.511790e-001 7.636260e-002 1.157941e-001 3.776423e-001 1.371206e-001 2.139241e-001 1.461723e-001 2.415410e-001 2.161819e-001 1.277784e-001
<GCONST> 9.770083e+001
<STATE> 4
<MEAN> 39
 -8.150119e+000 -8.696002e-001 -5.055155e+000 2.966119e-001 -1.659613e+000 1.178440e+000 -3.708806e+000 -4.384542e+000 -7.546739e+000 -5.586234e+000 -4.356413e+000 -2.149344e+000 6.486549e+001 -8.923764e-002 5.334170e-002 5.216751e-002 2.752826e-002 1.368801e-002 3.687508e-002 1.560587e-002 4.254884e-002 5.750637e-002 5.792830e-002 -1.343139e-002 4.120959e-002 -9.630171e-002 -2.856510e-003 -5.272141e-003 -3.099306e-003 -7.977895e-003 -1.209203e-003 6.598780e-003 1.029852e-002 -5.388352e-004 1.548725e-002 1.179027e-003 5.320180e-003 3.155299e-004 5.212516e-003
<VARIANCE> 39
 1.410075e+001 3.715916e+000 2.040481e+001 1.348457e+001 1.792166e+001 1.446290e+001 1.110037e+001 1.962113e+001 3.170776e+001 1.665858e+001 9.872691e+000 1.233868e+001 1.106511e+001 1.436498e-001 1.901281e-001 2.891631e-001 3.941468e-001 5.263632e-001 7.280351e-001 9.152636e-001 7.599559e-001 1.000888e+000 8.610981e-001 9.626501e-001 8.492238e-001 9.424326e-002 2.289111e-002 3.565854e-002 5.825570e-002 7.443506e-002 1.038639e-001 1.354690e-001 1.906936e-001 1.373977e-001 1.894692e-001 1.881141e-001 2.045233e-001 1.717199e-001 8.928582e-003
<GCONST> 6.400501e+001
<TRANSP> 5
 0.000000e+000 1.000000e+000 0.000000e+000 0.000000e+000 0.000000e+000
 0.000000e+000 6.234116e-001 3.765884e-001 0.000000e+000 0.000000e+000
 0.000000e+000 0.000000e+000 6.806603e-001 3.193397e-001 0.000000e+000
 0.000000e+000 0.000000e+000 0.000000e+000 9.862534e-001 1.374656e-002
 0.000000e+000 0.000000e+000 0.000000e+000 0.000000e+000 0.000000e+000
<ENDHMM>
~h "aw"
<BEGINHMM>
<NUMSTATES> 5
<STATE> 2
<MEAN> 39
 -6.365616e+000 3.233785e+000 2.142574e+000 -1.956716e+000 -2.271466e+000 -6.818224e+000 -1.133599e+000 -3.484341e+000 -2.844433e+000 -2.704091e+000 2.408751e+000 -2.285605e+000 6.916999e+001 3.741304e-001 -5.675762e-001 -7.053992e-001 -3.837180e-001 3.707701e-001 4.244409e-001 -2.840683e-001 6.486560e-001 1.252166e-001 4.791315e-001 -6.806778e-001 3.241500e-001 1.177420e-002 -7.094753e-002 -1.459040e-001 2.437177e-003 -8.656419e-003 -8.368497e-003 -1.360600e-001 -1.269995e-001 -5.665552e-003 -8.772276e-002 -6.341883e-002 -2.401583e-001 1.451694e-002 -2.092595e-002
<VARIANCE> 39
 6.908453e+001 3.595913e+001 2.428827e+001 3.378276e+001 8.890572e+001 1.127551e+002 4.337358e+001 3.994727e+001 6.262234e+001 2.081241e+001 2.904994e+001 2.429734e+001 2.854009e+000 4.138569e-001 7.377187e-001 8.960512e-001 8.217689e-001 1.838624e+000 1.970187e+000 1.368170e+000 1.760953e+000 2.128231e+000 2.494240e+000 2.135312e+000 2.207543e+000 3.754172e-001 7.663247e-002 1.258186e-001 1.066344e-001 1.718998e-001 2.991205e-001 3.260309e-001 2.755719e-001 3.556811e-001 4.027338e-001 4.484119e-001 2.957106e-001 4.348324e-001 6.895734e-002
<GCONST> 1.008418e+002
<STATE> 3
<MEAN> 39
 -5.124032e+000 1.153557e+000 4.299191e-001 -2.992969e+000 -1.780654e+000 -6.195569e+000 -2.762740e+000 -9.397435e-001 -3.647258e+000 -1.753136e+000 -1.265505e+000 -1.078771e+000 6.901221e+001 1.054415e-001 -6.766186e-001 -3.371632e-001 -7.438415e-002 3.940352e-002 3.293331e-001 -5.658258e-001 5.187247e-001 -4.616831e-001 1.276665e-001 -1.241886e+000 3.257226e-001 -2.608275e-001 -1.136947e-001 5.561536e-002 2.154687e-001 2.054918e-001 -7.151546e-002 8.498088e-002 -1.629868e-002 -9.089499e-002 -9.728264e-002 -1.524034e-002 9.714189e-002 -2.912743e-002 -8.217201e-002
<VARIANCE> 39
 5.458142e+001 3.413311e+001 3.987546e+001 2.471833e+001 6.143826e+001 6.929504e+001 3.228633e+001 6.675407e+001 4.105010e+001 3.445195e+001 3.518372e+001 3.971831e+001 3.396559e+000 6.493828e-001 5.520157e-001 9.800438e-001 1.600766e+000 2.373954e+000 2.740796e+000 2.044860e+000 3.920363e+000 2.081642e+000 2.513475e+000 1.597246e+000 2.935416e+000 3.177320e-001 6.577267e-002 1.087140e-001 1.249714e-001 2.357962e-001 2.683512e-001 3.178524e-001 2.996958e-001 4.298491e-001 3.210097e-001 3.678568e-001 3.081346e-001 5.462463e-001 4.770925e-002
<GCONST> 1.033473e+002
<STATE> 4
<MEAN> 39
 -8.542447e+000 -5.767246e-001 -2.614713e+000 -5.013909e-001 4.755443e-001 1.842832e+000 -2.501955e+000 -2.661086e+000 -7.330481e+000 -3.368149e+000 -4.555313e+000 -6.619027e-001 6.396179e+001 -4.517415e-002 -1.041878e-002 -3.104856e-004 6.790697e-003 1.901401e-002 4.120588e-002 1.723637e-002 1.641760e-002 2.807966e-002 1.680403e-002 3.613563e-003 1.264169e-002 -3.540974e-002 1.675487e-003 -1.335759e-003 5.055130e-004 -3.030614e-003 9.251995e-004 1.342106e-003 -4.273109e-003 -4.711524e-004 1.764498e-003 3.041451e-003 3.940944e-003 -2.017017e-003 2.958100e-003
<VARIANCE> 39
 1.409113e+001 1.132935e+001 1.755047e+001 1.199956e+001 1.418435e+001 1.422080e+001 1.468223e+001 1.152666e+001 2.882474e+001 9.166472e+000 1.040043e+001 7.193136e+000 1.272741e+001 1.537182e-001 3.776633e-001 4.862428e-001 6.440154e-001 6.616392e-001 7.426162e-001 9.504289e-001 9.023480e-001 8.883174e-001 7.740138e-001 9.005875e-001 6.976566e-001 1.513051e-001 2.263759e-002 5.737723e-002 9.069378e-002 1.207400e-001 1.385126e-001 1.511596e-001 1.893839e-001 1.882306e-001 1.847020e-001 1.562387e-001 1.942659e-001 1.422586e-001 1.844320e-002
<GCONST> 6.788633e+001
<TRANSP> 5
 0.000000e+000 1.000000e+000 0.000000e+000 0.000000e+000 0.000000e+000
 0.000000e+000 6.519896e-001 3.480105e-001 0.000000e+000 0.000000e+000
 0.000000e+000 0.000000e+000 6.507676e-001 3.492323e-001 0.000000e+000
 0.000000e+000 0.000000e+000 0.000000e+000 9.931905e-001 6.809506e-003
 0.000000e+000 0.000000e+000 0.000000e+000 0.000000e+000 0.000000e+000
<ENDHMM>
~h "ch"
<BEGINHMM>
<NUMSTATES> 5
<STATE> 2
<MEAN> 39
 -8.792017e+000 -1.392611e+000 4.377834e-001 -1.664867e-001 -6.422738e+000 5.201945e+000 -6.533756e+000 4.219374e+000 -5.406521e+000 -1.872352e+000 -9.115586e-001 -4.250165e+000 6.175914e+001 -3.280189e-001 6.185665e-002 4.092049e-001 -1.825718e-001 4.937103e-001 -7.793992e-001 2.495628e-001 -2.539679e-001 -4.976022e-001 8.196716e-001 -3.744743e-001 4.989442e-001 3.461774e-002 4.795837e-002 4.263186e-002 -7.530379e-002 -2.340668e-001 3.760704e-002 -1.649916e-001 -1.849773e-001 -1.973229e-001 -8.390084e-002 1.751079e-002 -1.604144e-001 4.492990e-002 8.174701e-002
<VARIANCE> 39
 4.027189e+001 5.757151e+000 3.085995e+001 1.738363e+001 5.970879e+001 2.501014e+001 8.496510e+001 2.634727e+001 3.180922e+001 1.515123e+001 2.328625e+001 2.113137e+001 1.441161e+001 6.374789e-001 3.351779e-001 4.534057e-001 1.494255e+000 1.099253e+000 9.880975e-001 1.524147e+000 1.227952e+000 1.925297e+000 1.215050e+000 1.325378e+000 1.638060e+000 4.599339e-001 1.573815e-001 1.189745e-001 9.553070e-002 2.374851e-001 2.157549e-001 1.982460e-001 3.310343e-001 1.387423e-001 2.631855e-001 4.078637e-001 1.857158e-001 2.907629e-001 8.933730e-002
<GCONST> 9.153807e+001
<STATE> 3
<MEAN> 39
 -9.328673e+000 -1.324035e+000 1.376234e+000 -1.706293e+000 -5.248921e+000 3.251478e+000 -6.211294e+000 3.591027e+000 -6.477037e+000 5.374753e-001 -2.020171e+000 -2.428650e+000 6.225569e+001 -3.110196e-002 3.344702e-002 1.835538e-001 -5.026761e-001 4.146145e-001 -8.565925e-001 -1.373232e-001 -5.582684e-001 -5.327371e-001 6.621288e-001 -6.601796e-001 2.576837e-001 2.862155e-001 2.052881e-001 7.661321e-002 1.456004e-002 2.926117e-002 -4.842556e-002 2.031171e-001 -2.371506e-001 -1.972692e-002 1.067688e-002 -2.625572e-001 -8.836108e-002 -1.652515e-001 8.179747e-002
<VARIANCE> 39
 3.683139e+001 4.487738e+000 3.512210e+001 2.907747e+001 3.398020e+001 1.694986e+001 6.215878e+001 2.952079e+001 3.743119e+001 1.651406e+001 1.714632e+001 1.782985e+001 1.749012e+001 7.196891e-001 3.385472e-001 4.122604e-001 1.410306e+000 1.314579e+000 1.098217e+000 2.466260e+000 1.120830e+000 1.721291e+000 1.589799e+000 1.209403e+000 1.187777e+000 3.650237e-001 1.737630e-001 1.603243e-001 1.226395e-001 3.114915e-001 1.505140e-001 2.263646e-001 4.460663e-001 1.833728e-001 3.560938e-001 2.957931e-001 2.178435e-001 2.179461e-001 1.063312e-001
<GCONST> 9.211861e+001
<STATE> 4
<MEAN> 39
 -9.287613e+000 -1.090796e+000 6.148639e-001 -1.659954e+000 -3.828385e+000 1.408603e+000 -6.178575e+000 1.084381e+000 -7.519097e+000 3.617913e-001 -4.355100e+000 -2.629259e+000 6.301805e+001 3.736551e-001 2.648013e-001 2.691422e-001 -3.110863e-002 1.542647e-001 -1.264055e-001 -7.254248e-001 -1.931203e-001 -2.974869e-001 -6.872310e-002 -5.842966e-001 3.055919e-002 2.065429e-001 1.510536e-002 1.186334e-001 3.682456e-001 -2.032894e-002 1.741863e-001 3.931491e-001 6.971078e-002 1.701222e-001 2.728490e-001 -1.810281e-001 9.737188e-002 -7.566293e-002 1.379337e-001
<VARIANCE> 39
 2.151477e+001 2.987409e+000 3.409430e+001 3.208008e+001 1.372447e+001 1.152022e+001 4.689704e+001 3.580170e+001 3.382404e+001 2.013084e+001 9.993703e+000 1.544274e+001 1.192701e+001 4.161729e-001 6.508746e-001 3.645085e-001 1.014845e+000 5.237231e-001 1.248720e+000 1.139843e+000 1.148522e+000 1.649177e+000 1.473348e+000 1.326315e+000 3.937884e-001 3.085008e-001 2.402152e-001 3.094411e-001 2.415080e-001 5.740353e-001 1.313279e-001 1.530853e-001 4.895729e-001 2.186470e-001 3.715967e-001 2.187676e-001 3.101273e-001 1.198844e-001 9.104360e-002
<GCONST> 8.706010e+001
<TRANSP> 5
 0.000000e+000 1.000000e+000 0.000000e+000 0.000000e+000 0.000000e+000
 0.000000e+000 3.564474e-001 6.435527e-001 0.000000e+000 0.000000e+000
 0.000000e+000 0.000000e+000 3.696501e-001 6.303499e-001 0.000000e+000
 0.000000e+000 0.000000e+000 0.000000e+000 4.509801e-001 5.490199e-001
 0.000000e+000 0.000000e+000 0.000000e+000 0.000000e+000 0.000000e+000
<ENDHMM>
~h "is"
<BEGINHMM>
<NUMSTATES> 5
<STATE> 2
<MEAN> 39
 -1.513899e+000 -2.796503e+000 8.834209e+000 -2.842625e+000 -4.059097e+000 5.999969e+000 -1.173772e+001 6.261280e+000 -3.467769e+000 3.124845e+000 -6.214030e-001 -1.707030e+000 6.898112e+001 1.905002e-002 -3.119170e-002 1.518296e-001 -4.631240e-002 2.300541e-002 6.019556e-002 9.120974e-003 -6.450520e-002 4.347608e-002 -4.388421e-002 4.322463e-002 -4.944133e-002 1.322178e-001 -1.398557e-002 -2.105395e-002 3.365466e-002 -2.080731e-002 -1.402339e-002 -1.009450e-002 -1.723355e-003 -1.740160e-002 -1.691977e-002 7.475981e-003 -3.442761e-004 -9.907207e-003 2.471360e-002
<VARIANCE> 39
 3.835105e+001 1.404902e+001 4.281834e+001 5.092112e+001 1.013431e+002 7.840389e+001 8.077796e+001 1.146182e+002 4.844321e+001 5.216821e+001 6.325256e+001 4.514072e+001 4.296887e+001 3.088140e+000 1.480686e+000 2.986394e+000 3.224288e+000 3.326037e+000 4.054323e+000 6.011374e+000 7.768705e+000 5.302495e+000 4.200968e+000 3.521358e+000 2.842314e+000 1.484430e+000 5.747621e-001 2.916007e-001 4.930222e-001 5.696971e-001 5.926128e-001 7.218271e-001 1.106342e+000 1.437052e+000 1.091342e+000 8.513707e-001 5.679618e-001 4.488705e-001 2.146288e-001
<GCONST> 1.329313e+002
<STATE> 3
<MEAN> 39
 -3.074789e+000 -2.640627e+000 1.138372e+001 8.504990e-001 -4.911764e+000 6.363596e+000 -1.362860e+001 4.105921e+000 -4.212810e+000 -5.546626e-001 -7.401879e-001 -4.553570e+000 6.859789e+001 2.912143e-001 -1.224817e-001 -3.189833e-002 1.460607e-001 -1.517414e-001 -4.245950e-001 -2.021319e-001 -2.019898e-001 -3.474835e-001 3.513134e-003 1.621792e-001 3.770528e-002 2.923885e-001 2.348054e-002 -6.581739e-003 -1.139197e-001 5.091947e-002 7.570121e-003 -2.996400e-002 1.638669e-002 2.095196e-002 -4.298622e-003 1.881002e-002 9.939190e-003 1.941080e-002 -3.938618e-002
<VARIANCE> 39
 4.899399e+001 3.184344e+001 1.069626e+002 4.824920e+001 1.275851e+002 1.520648e+002 8.457363e+001 1.115396e+002 3.405505e+001 2.419732e+001 8.779424e+001 3.772917e+001 5.232784e+001 3.713844e+000 2.612279e+000 3.414079e+000 5.414282e+000 7.993651e+000 1.116544e+001 6.185245e+000 3.946279e+000 2.621233e+000 2.643705e+000 3.481537e+000 3.083699e+000 2.393766e+000 6.455162e-001 5.021076e-001 4.469866e-001 1.079164e+000 1.475906e+000 2.065756e+000 1.284408e+000 8.038698e-001 4.764836e-001 5.361719e-001 4.874967e-001 6.266471e-001 3.510855e-001
<GCONST> 1.391327e+002
<STATE> 4
<MEAN> 39
 -1.817812e+000 -7.838455e+000 3.893153e+000 6.912302e+000 5.703301e-001 -2.179415e+001 -1.356069e+001 -1.234739e+001 -1.914791e+001 5.315843e-001 -5.579396e+000 -8.568916e+000 8.019855e+001 1.091665e-001 1.851649e-001 -4.187911e-001 -1.707956e-003 -2.512766e-001 1.071516e-001 3.083180e-002 2.349008e-001 1.229341e-001 -2.568944e-001 -8.126294e-002 -2.039909e-001 -3.760938e-001 -7.927672e-002 4.420602e-002 8.351488e-002 -3.071763e-002 -3.751213e-002 1.280089e-001 3.319332e-002 2.426836e-004 1.145872e-001 -2.980708e-002 2.589433e-002 4.900430e-002 -5.918362e-002
<VARIANCE> 39
 9.079347e+000 1.798655e+001 1.021739e+002 1.455390e+001 7.864039e+001 5.357849e+001 2.830376e+001 9.050190e+001 2.191894e+001 2.632808e+001 3.435952e+001 4.733554e+001 3.335361e+001 4.715259e-001 8.396714e-001 8.845209e-001 1.218826e+000 1.610723e+000 1.622258e+000 1.149590e+000 9.483692e-001 9.416212e-001 1.104108e+000 1.476763e+000 1.092870e+000 5.491732e-001 7.624017e-002 1.135514e-001 1.200630e-001 2.561409e-001 3.177612e-001 3.347784e-001 2.098826e-001 1.473561e-001 1.490641e-001 2.050228e-001 2.204326e-001 1.436171e-001 6.565529e-002
<GCONST> 9.403272e+001
<TRANSP> 5
 0.000000e+000 1.000000e+000 0.000000e+000 0.000000e+000 0.000000e+000
 0.000000e+000 9.693539e-001 3.064611e-002 0.000000e+000 0.000000e+000
 0.000000e+000 0.000000e+000 9.654295e-001 3.457043e-002 0.000000e+000
 0.000000e+000 0.000000e+000 0.000000e+000 9.154767e-001 8.452323e-002
 0.000000e+000 0.000000e+000 0.000000e+000 0.000000e+000 0.000000e+000
<ENDHMM>
~h "kh"
<BEGINHMM>
<NUMSTATES> 5
<STATE> 2
<MEAN> 39
 -1.336025e+001 -7.766684e+000 4.600950e+000 -9.463710e+000 -1.748152e+000 8.860067e+000 -4.281392e+000 -2.220132e+000 -5.880689e+000 2.350746e+000 -8.831209e-001 6.338362e-001 6.746649e+001 5.297699e-002 -4.129496e-001 4.863676e-001 -7.542775e-001 -2.848266e-001 -9.311573e-002 3.179660e-001 -4.595614e-001 -8.728791e-002 1.520548e-001 4.106048e-002 6.419323e-002 1.046818e+000 1.003020e-001 7.192972e-002 -1.958605e-001 1.029062e-001 -8.270928e-002 -3.379866e-002 -7.997208e-002 1.728745e-001 -3.110477e-002 -1.315140e-001 4.052937e-002 -9.514831e-002 -7.069904e-002
<VARIANCE> 39
 2.616982e+001 1.933040e+001 5.460323e+001 4.367416e+001 5.325213e+001 4.456253e+001 3.451081e+001 1.004350e+002 1.840787e+001 3.092808e+001 4.277074e+001 3.697873e+001 5.750169e+001 2.552103e+000 2.122621e+000 5.881493e+000 5.161143e+000 6.385634e+000 5.014974e+000 4.366760e+000 4.589242e+000 2.923675e+000 6.221074e+000 1.884567e+000 4.586563e+000 2.718514e+000 3.948092e-001 3.846561e-001 1.200486e+000 9.713811e-001 1.194847e+000 9.217815e-001 8.617184e-001 7.930188e-001 6.296455e-001 1.395840e+000 3.933664e-001 9.694385e-001 3.037510e-001
<GCONST> 1.326900e+002
<STATE> 3
<MEAN> 39
 -7.308365e+000 -6.865009e+000 4.921354e+000 -1.609767e+001 -1.476022e+000 -1.476653e+000 -3.500868e+000 7.209883e+000 -5.585061e+000 -3.069658e-003 5.150536e-001 2.725255e+000 7.315482e+001 5.176451e-001 -9.889937e-002 -5.371970e-001 -2.633052e-002 -2.006904e-001 -6.288714e-001 1.578686e-001 7.346129e-003 2.017655e-001 -5.024626e-001 2.946194e-002 -2.704214e-001 4.140332e-001 -6.583729e-002 1.494059e-002 5.911747e-002 -2.799498e-002 7.544885e-002 -1.457190e-002 1.083771e-002 -7.358744e-002 3.822606e-002 -1.382229e-002 -1.348515e-004 6.532252e-002 -3.379791e-003
<VARIANCE> 39
 3.821062e+001 1.623607e+001 6.725413e+001 4.007790e+001 6.862432e+001 9.487827e+001 4.311163e+001 1.072965e+002 5.012407e+001 4.608768e+001 4.559761e+001 8.218519e+001 7.267359e+001 1.589993e+000 1.582154e+000 3.148185e+000 1.847975e+000 2.367198e+000 2.975954e+000 3.589339e+000 6.629825e+000 4.405270e+000 4.205142e+000 3.013523e+000 3.091893e+000 1.099858e+000 2.608024e-001 3.542848e-001 6.122103e-001 2.497409e-001 3.539135e-001 4.799024e-001 6.251830e-001 1.190438e+000 8.488653e-001 7.418069e-001 6.105229e-001 6.323589e-001 1.637961e-001
<GCONST> 1.269875e+002
<STATE> 4
<MEAN> 39
 -8.619390e+000 -3.830915e+000 -1.769711e+000 -3.151248e+000 -3.649169e-001 3.168364e+000 -1.024714e+000 -4.505540e+000 -1.017083e+001 -3.272252e+000 -4.285331e+000 -2.617277e-001 6.570089e+001 9.636922e-003 2.547802e-002 -1.537631e-003 -1.205781e-001 4.457337e-002 -1.197820e-002 8.097094e-002 -3.323959e-002 -5.401460e-002 -6.822234e-002 1.056503e-001 6.138461e-002 5.149073e-002 -1.065353e-003 -1.122611e-002 2.661551e-002 2.843844e-003 -1.422719e-002 2.907978e-002 5.306854e-003 1.847988e-002 -1.557868e-002 5.106607e-002 -8.408502e-003 7.099458e-003 -2.753505e-003
<VARIANCE> 39
 8.809997e+000 7.533745e+000 2.029771e+001 1.951486e+001 3.008219e+001 2.430252e+001 1.560267e+001 2.009384e+001 2.223653e+001 1.545719e+001 1.912048e+001 1.478922e+001 2.190077e+001 2.005803e-001 3.827094e-001 4.850716e-001 6.622935e-001 8.158749e-001 7.263520e-001 1.141439e+000 1.749182e+000 1.473068e+000 8.830017e-001 1.205500e+000 9.772621e-001 1.398381e-001 3.042615e-002 6.489270e-002 1.158018e-001 1.120526e-001 1.314895e-001 1.401495e-001 2.217208e-001 4.043025e-001 2.989738e-001 1.984909e-001 2.454982e-001 2.119619e-001 2.214685e-002
<GCONST> 7.712456e+001
<TRANSP> 5
 0.000000e+000 1.000000e+000 0.000000e+000 0.000000e+000 0.000000e+000
 0.000000e+000 8.985930e-001 1.014069e-001 0.000000e+000 0.000000e+000
 0.000000e+000 0.000000e+000 9.301283e-001 6.987170e-002 0.000000e+000
 0.000000e+000 0.000000e+000 0.000000e+000 9.588937e-001 4.110626e-002
 0.000000e+000 0.000000e+000 0.000000e+000 0.000000e+000 0.000000e+000
<ENDHMM>
~h "ng"
<BEGINHMM>
<NUMSTATES> 5
<STATE> 2
<MEAN> 39
 1.915276e+000 -2.630248e-002 7.496589e-001 -3.543651e+000 -1.090129e+001 -3.089323e+000 -9.931917e-001 4.492756e+000 -4.002336e+000 -5.160809e+000 1.732744e+000 -4.409348e+000 7.563606e+001 1.431883e-001 1.782901e-001 8.448394e-002 -4.054201e-002 -2.286602e-001 -1.946055e-001 1.298718e-001 7.863994e-002 1.546018e-002 4.264966e-002 2.824937e-001 -6.543390e-002 1.042738e-001 -1.268832e-002 -1.898797e-002 -4.520453e-002 -3.554257e-002 3.735206e-002 -1.516592e-002 -1.587277e-002 1.679647e-003 1.367699e-002 2.280851e-002 -4.199631e-003 3.044026e-002 -1.989204e-003
<VARIANCE> 39
 2.781535e+001 2.104920e+001 1.462671e+002 5.416638e+001 2.043912e+002 8.703777e+001 9.113297e+001 5.914357e+001 1.453619e+001 1.075733e+002 8.499174e+001 3.828446e+001 4.860088e+001 1.374118e+000 1.132923e+000 1.247059e+000 2.876454e+000 2.625462e+000 2.149728e+000 4.057715e+000 2.196801e+000 1.719447e+000 1.986829e+000 3.478740e+000 1.396709e+000 1.018698e+000 1.833244e-001 1.488522e-001 1.639761e-001 4.793437e-001 4.240078e-001 3.494374e-001 6.464925e-001 3.015125e-001 3.307299e-001 3.151706e-001 5.060164e-001 2.677400e-001 1.106837e-001
<GCONST> 1.170476e+002
<STATE> 3
<MEAN> 39
 -1.497626e+000 1.454832e+000 9.205621e+000 -2.017821e+000 -2.153598e+000 2.139028e+000 -5.478042e+000 8.639965e+000 -2.435271e+000 3.570121e+000 -1.046686e+000 -1.107358e+000 6.963644e+001 -1.667521e-001 4.023730e-002 -2.560184e-001 8.633166e-002 7.292731e-002 -6.201418e-002 -2.782536e-001 -4.541656e-002 1.433570e-001 1.795579e-002 9.184914e-003 -6.030868e-002 -2.385738e-001 -3.036050e-002 -2.940932e-002 -1.350686e-002 7.467448e-003 3.250631e-002 1.238739e-002 2.763602e-002 -2.996150e-002 -2.308971e-002 -8.051609e-002 1.723644e-003 -1.847828e-003 -9.594804e-004
<VARIANCE> 39
 2.607638e+001 5.916798e+001 1.317766e+002 3.615064e+001 1.796617e+002 1.680395e+002 5.665205e+001 5.450176e+001 3.004346e+001 5.414310e+001 3.488939e+001 3.656465e+001 2.177926e+001 1.605370e+000 2.000925e+000 1.076226e+000 2.828264e+000 3.017552e+000 4.074733e+000 3.904528e+000 2.704981e+000 3.345172e+000 3.002528e+000 3.195161e+000 2.377715e+000 9.487026e-001 2.817965e-001 2.419227e-001 1.422837e-001 5.939191e-001 5.075039e-001 7.450425e-001 6.837184e-001 4.747395e-001 6.886548e-001 6.147968e-001 5.814103e-001 4.530224e-001 1.299400e-001
<GCONST> 1.234043e+002
<STATE> 4
<MEAN> 39
 -8.622814e+000 4.265542e+000 -1.004063e+000 -2.406589e+000 -4.985163e+000 -4.231026e+000 -9.958029e-001 2.681220e+000 -2.321794e+000 -1.473136e+000 -2.019871e+000 -2.322300e+000 6.236598e+001 -4.531434e-002 1.530475e-002 2.492950e-002 -1.033353e-003 3.679527e-002 8.325008e-002 6.966154e-003 -7.966383e-002 -1.547249e-002 -5.346723e-002 -1.273473e-003 4.778116e-002 -4.326902e-002 1.083825e-002 -2.794674e-003 8.933823e-004 -9.483305e-003 -1.025605e-002 2.682476e-002 3.344133e-003 9.584068e-003 1.679477e-002 8.933881e-003 -1.791073e-003 -1.481138e-002 6.428868e-003
<VARIANCE> 39
 6.586528e+001 2.124749e+001 1.431318e+001 1.065827e+001 3.093326e+001 3.908170e+001 1.590146e+001 2.107603e+001 8.498732e+000 9.532929e+000 1.158749e+001 5.722859e+000 2.828186e+001 9.822779e-001 6.361484e-001 4.321952e-001 8.259524e-001 1.247057e+000 1.255149e+000 1.373445e+000 1.146410e+000 6.866400e-001 7.838997e-001 1.030324e+000 5.505267e-001 6.050478e-001 1.545027e-001 1.186594e-001 8.726466e-002 1.745918e-001 2.456267e-001 2.421636e-001 3.042841e-001 2.278646e-001 1.379426e-001 1.328357e-001 1.551290e-001 1.044994e-001 1.217063e-001
<GCONST> 8.260289e+001
<TRANSP> 5
 0.000000e+000 1.000000e+000 0.000000e+000 0.000000e+000 0.000000e+000
 0.000000e+000 9.457600e-001 5.424001e-002 0.000000e+000 0.000000e+000
 0.000000e+000 0.000000e+000 9.144171e-001 8.558292e-002 0.000000e+000
 0.000000e+000 0.000000e+000 0.000000e+000 9.658809e-001 3.411910e-002
 0.000000e+000 0.000000e+000 0.000000e+000 0.000000e+000 0.000000e+000
<ENDHMM>
~h "oo"
<BEGINHMM>
<NUMSTATES> 5
<STATE> 2
<MEAN> 39
 -3.979241e+000 -8.145304e+000 -4.118029e+000 -1.348440e+001 -6.001939e+000 -4.077914e+000 5.114369e+000 -5.593435e+000 -9.970598e+000 -6.182759e+000 -2.046134e+000 -2.402673e+000 7.725254e+001 7.371358e-001 -1.924134e-001 9.807202e-002 9.314489e-002 -5.586482e-001 -5.898298e-001 -1.114849e-001 7.387851e-001 -6.494797e-001 1.496409e-001 -5.127096e-001 1.427985e-001 3.210545e-001 7.902601e-002 2.446191e-002 5.685992e-002 2.178788e-001 5.194034e-002 2.084793e-003 -1.838582e-001 1.327299e-001 -6.996178e-002 8.670660e-002 -1.050658e-001 -9.086119e-002 -7.683450e-002
<VARIANCE> 39
 5.434123e+001 2.117982e+001 7.616243e+001 1.849237e+001 1.198504e+002 5.771387e+001 4.736177e+001 8.136627e+001 4.673061e+001 4.258351e+001 4.037775e+001 3.818395e+001 6.336814e+001 1.003548e+000 1.369914e+000 1.389377e+000 1.783065e+000 1.721159e+000 3.161460e+000 3.609558e+000 3.135654e+000 2.094232e+000 2.290792e+000 2.724370e+000 3.716960e+000 1.100994e+000 1.281896e-001 1.729928e-001 2.531599e-001 2.599595e-001 3.143267e-001 5.435254e-001 5.421600e-001 3.865966e-001 3.998204e-001 5.341215e-001 5.739632e-001 8.734856e-001 1.126696e-001
<GCONST> 1.172083e+002
<STATE> 3
<MEAN> 39
 3.072004e+000 -7.026891e+000 -3.595000e+000 -9.928791e+000 -9.414605e+000 -8.871714e+000 -1.768627e+000 1.911283e+000 -1.038357e+001 -4.486178e+000 -4.320230e+000 -4.104895e+000 7.889399e+001 3.807108e-001 2.381264e-001 5.319303e-001 1.223438e+000 3.115620e-001 4.923960e-001 -7.694917e-001 8.621261e-001 -1.793471e-001 4.834448e-001 -8.388743e-001 -5.009061e-001 -6.305510e-001 -1.118527e-001 -5.563068e-003 4.099824e-003 7.995277e-002 6.333303e-002 1.340682e-001 1.371598e-001 -1.439652e-001 1.433539e-001 -1.570814e-002 7.990922e-002 -5.160664e-002 -1.800235e-002
<VARIANCE> 39
 2.003892e+001 3.378310e+001 9.773027e+001 2.245390e+001 9.717254e+001 5.314613e+001 1.656661e+002 4.522515e+001 2.834728e+001 9.355367e+001 4.393289e+001 3.962888e+001 3.040433e+001 4.029115e-001 1.536247e+000 8.017960e-001 1.353809e+000 1.813990e+000 7.408300e+000 6.206553e+000 1.576925e+000 1.398642e+000 2.543404e+000 3.691514e+000 3.175797e+000 1.663217e+000 6.430245e-002 2.333131e-001 1.460710e-001 2.245739e-001 3.671401e-001 8.165792e-001 7.811320e-001 1.790978e-001 2.439138e-001 4.120176e-001 5.400497e-001 8.254051e-001 1.557586e-001
<GCONST> 1.150872e+002
<STATE> 4
<MEAN> 39
 -7.330632e+000 -3.649106e+000 -3.209216e+000 1.564195e+000 -5.371620e+000 -1.916781e+000 -1.620576e-001 -3.550954e+000 -7.397445e+000 -4.331929e+000 -1.765174e+000 -2.605150e+000 6.870074e+001 -1.359706e-001 1.217310e-001 4.524351e-002 8.077893e-002 7.439222e-002 1.291165e-001 -7.527515e-002 -4.128096e-002 1.179962e-001 3.044488e-002 4.331345e-004 7.377052e-002 -1.640158e-001 -1.305793e-003 1.115282e-002 3.113805e-003 -9.659274e-003 -1.231514e-002 -4.707030e-003 2.632569e-003 -1.174153e-002 -3.379908e-003 -8.149678e-003 2.718879e-003 -2.829771e-003 6.150562e-004
<VARIANCE> 39
 3.574801e+001 1.573855e+001 2.939886e+001 1.810890e+001 1.995322e+001 4.798856e+001 1.695466e+001 5.182058e+001 2.682938e+001 1.220231e+001 1.491031e+001 2.071530e+001 1.953650e+001 2.973692e-001 3.767683e-001 4.344501e-001 7.708846e-001 6.122114e-001 7.955221e-001 9.151666e-001 7.046431e-001 8.912892e-001 8.628843e-001 8.134546e-001 9.658593e-001 1.644905e-001 3.317493e-002 4.970418e-002 7.244410e-002 1.131927e-001 1.233925e-001 1.357081e-001 1.661303e-001 1.308396e-001 1.648462e-001 1.805535e-001 1.753957e-001 1.962355e-001 1.658163e-002
<GCONST> 7.556387e+001
<TRANSP> 5
 0.000000e+000 1.000000e+000 0.000000e+000 0.000000e+000 0.000000e+000
 0.000000e+000 8.393272e-001 1.606728e-001 0.000000e+000 0.000000e+000
 0.000000e+000 0.000000e+000 7.820323e-001 2.179678e-001 0.000000e+000
 0.000000e+000 0.000000e+000 0.000000e+000 9.764589e-001 2.354109e-002
 0.000000e+000 0.000000e+000 0.000000e+000 0.000000e+000 0.000000e+000
<ENDHMM>
~h "ary"
<BEGINHMM>
<NUMSTATES> 5
<STATE> 2
<MEAN> 39
 -2.546704e+000 -4.600538e+000 4.766800e+000 5.911526e-001 -9.776853e+000 -2.105928e+000 -1.457447e+001 2.944168e+000 -6.234744e+000 3.160134e+000 1.262506e+000 -5.934803e+000 7.197847e+001 -2.670018e-001 9.802404e-003 1.777080e-001 2.277150e-001 5.639025e-003 -1.674634e-001 -1.219666e-001 3.131597e-001 -6.521457e-001 -3.598231e-001 1.605968e-001 -3.531713e-001 -1.808358e-001 3.600625e-003 2.710156e-002 3.703344e-002 -5.586392e-002 1.614077e-002 6.196183e-002 4.771197e-002 -5.576729e-003 5.070323e-002 -5.823771e-002 3.398220e-002 9.538902e-003 1.168208e-002
<VARIANCE> 39
 9.570499e+000 2.826885e+001 1.097697e+002 2.430510e+001 6.426077e+001 2.918605e+002 3.731965e+001 1.432621e+002 7.454182e+001 5.554667e+001 3.181833e+001 1.347545e+001 1.302254e+002 2.328200e-001 7.855893e-001 1.926416e+000 8.970721e-001 1.612083e+000 3.921109e+000 2.391337e+000 2.131096e+000 4.752351e+000 2.397606e+000 1.779750e+000 1.087174e+000 2.110173e-001 3.278020e-002 8.099235e-002 1.090027e-001 1.644608e-001 1.661751e-001 4.330200e-001 5.242662e-001 3.551042e-001 4.429671e-001 3.965392e-001 2.709721e-001 2.504971e-001 2.020041e-002
<GCONST> 1.041100e+002
<STATE> 3
<MEAN> 39
 -3.682186e+000 -4.479630e+000 4.599504e+000 1.530228e+000 -1.096687e+001 -2.444453e+000 -1.488219e+001 2.989310e+000 -8.037730e+000 -7.049023e-001 2.784353e+000 -8.149703e+000 7.080247e+001 -1.640714e-001 1.351918e-001 4.025232e-001 -5.529401e-003 -4.249486e-002 -1.100908e-001 6.869324e-002 -1.346796e-002 -3.539857e-001 -4.546660e-001 1.154801e-001 -2.016166e-001 -8.467494e-002 2.745134e-002 -1.439957e-002 -5.054548e-002 -5.115561e-003 -7.074401e-003 1.649276e-002 -9.931955e-003 2.815307e-002 3.404323e-002 1.883779e-002 -2.819065e-002 2.955387e-002 -1.680884e-002
<VARIANCE> 39
 1.114695e+001 1.125854e+001 2.995974e+001 1.676330e+001 7.143787e+001 3.460768e+002 3.214313e+001 1.318386e+002 4.534316e+001 4.426841e+001 2.603210e+001 1.460201e+001 1.375640e+002 2.369085e-001 7.237279e-001 1.555760e+000 9.323980e-001 1.400596e+000 1.786308e+000 1.326739e+000 2.017202e+000 3.155602e+000 2.859629e+000 2.268572e+000 1.041523e+000 2.006236e-001 3.517002e-002 1.266575e-001 1.380973e-001 2.071541e-001 2.025023e-001 3.274410e-001 2.852109e-001 3.656054e-001 4.539869e-001 5.069319e-001 4.152697e-001 2.297046e-001 3.532008e-002
<GCONST> 1.005241e+002
<STATE> 4
<MEAN> 39
 -9.145379e+000 -7.886430e-001 -2.230623e+000 1.223636e+000 -1.031919e+000 -9.269975e-001 -4.588704e+000 -3.649805e+000 -6.899249e+000 -3.692070e+000 -3.821793e+000 -2.422163e+000 6.530566e+001 -2.991871e-002 3.738767e-002 -6.364970e-002 4.348281e-003 -4.241699e-004 1.722759e-001 2.764085e-002 9.537261e-004 3.423258e-002 -3.388758e-002 -2.697096e-002 3.820219e-002 -1.127097e-001 -1.057553e-003 -2.881625e-003 -1.535716e-003 -3.715506e-003 -1.292785e-003 4.979572e-004 -3.085234e-003 -6.011098e-003 8.510070e-003 4.063104e-004 -1.900182e-003 2.413965e-003 3.409654e-003
<VARIANCE> 39
 5.699959e+000 4.565980e+000 1.940688e+001 1.141931e+001 2.638125e+001 6.962556e+001 1.414207e+001 1.710906e+001 2.989080e+001 1.748845e+001 9.985787e+000 1.605369e+001 1.990474e+001 7.718503e-002 2.081442e-001 3.133209e-001 4.392433e-001 6.624402e-001 8.978292e-001 8.160301e-001 9.110045e-001 1.018236e+000 7.411820e-001 7.486871e-001 7.573736e-001 1.269199e-001 1.548014e-002 4.209930e-002 6.533036e-002 9.474129e-002 1.333359e-001 1.492879e-001 1.746333e-001 1.854642e-001 1.936103e-001 1.440722e-001 1.448750e-001 1.426524e-001 9.068849e-003
<GCONST> 6.589651e+001
<TRANSP> 5
 0.000000e+000 1.000000e+000 0.000000e+000 0.000000e+000 0.000000e+000
 0.000000e+000 8.601208e-001 1.398791e-001 0.000000e+000 0.000000e+000
 0.000000e+000 0.000000e+000 8.612361e-001 1.387639e-001 0.000000e+000
 0.000000e+000 0.000000e+000 0.000000e+000 9.885159e-001 1.148409e-002
 0.000000e+000 0.000000e+000 0.000000e+000 0.000000e+000 0.000000e+000
<ENDHMM>
~h "asu"
<BEGINHMM>
<NUMSTATES> 5
<STATE> 2
<MEAN> 39
 -5.752035e+000 -4.330410e+000 4.423676e+000 -6.863077e+000 -9.176301e+000 5.399069e+000 -5.363447e+000 1.369532e+000 -4.729299e+000 -2.762539e+000 2.331158e+000 -3.112683e+000 7.245737e+001 6.816123e-001 -3.009207e-001 -6.503931e-001 -2.707950e-001 -6.808032e-001 -4.321107e-001 1.675631e-001 -6.728502e-002 -1.411608e-001 -4.736183e-001 3.767133e-001 1.901292e-002 3.742863e-001 6.575657e-002 5.841846e-003 -6.756844e-002 1.930428e-003 3.222063e-002 -3.159059e-002 1.094580e-002 3.166017e-003 3.216792e-002 1.696079e-002 -1.675791e-002 -4.872615e-003 1.667885e-002
<VARIANCE> 39
 8.957898e+001 3.538813e+001 8.553556e+001 5.838445e+001 6.420609e+001 7.119110e+001 7.410693e+001 8.329037e+001 4.408205e+001 8.959467e+001 5.513799e+001 2.629267e+001 1.040742e+002 3.373191e+000 3.487361e+000 2.573010e+000 2.527042e+000 1.982790e+000 2.199961e+000 1.716202e+000 2.519656e+000 2.078861e+000 2.924491e+000 1.881034e+000 1.335091e+000 9.152549e-001 4.751853e-001 6.156563e-001 2.812355e-001 4.967044e-001 3.174803e-001 3.572195e-001 2.659748e-001 4.893494e-001 3.684770e-001 5.257570e-001 3.313073e-001 2.376686e-001 1.099615e-001
<GCONST> 1.217234e+002
<STATE> 3
<MEAN> 39
 -7.314654e-001 -3.954326e+000 -1.861630e+000 -1.047256e+001 -1.576243e+001 -2.380131e-001 -6.166751e+000 1.278395e+000 -5.046642e+000 -9.073241e+000 4.578820e+000 -5.078154e+000 7.508987e+001 2.191063e-001 1.520068e-001 -2.144969e-001 -1.144022e-001 -3.115737e-001 -5.680293e-001 -1.013780e-001 3.443933e-002 -7.542524e-002 4.234933e-002 -1.223262e-001 -9.081189e-002 -2.664610e-002 -5.033231e-002 5.262559e-002 4.617016e-002 4.381676e-002 5.026714e-002 4.660400e-002 -3.945527e-002 -3.772993e-002 7.040041e-003 5.617251e-002 -4.528750e-002 1.442940e-002 -5.950616e-002
<VARIANCE> 39
 2.567349e+001 3.960970e+001 8.035131e+001 7.397621e+001 4.551356e+001 1.446806e+002 7.767095e+001 6.170557e+001 3.647714e+001 8.513892e+001 3.560549e+001 3.500115e+001 1.046769e+002 1.322031e+000 2.370765e+000 2.021882e+000 1.413648e+000 1.628256e+000 2.342707e+000 1.782738e+000 3.226753e+000 2.175511e+000 3.171881e+000 1.767277e+000 1.721918e+000 5.785306e-001 1.476653e-001 3.529378e-001 1.977290e-001 2.285235e-001 2.452571e-001 3.919432e-001 3.165579e-001 6.053061e-001 4.169192e-001 5.312380e-001 3.222861e-001 3.444133e-001 7.045336e-002
<GCONST> 1.157532e+002
<STATE> 4
<MEAN> 39
 -9.114264e+000 2.787971e-001 -7.445152e+000 6.542159e-001 -6.861275e+000 -2.205753e+000 -2.954670e+000 -5.140818e+000 -2.037939e+000 -4.343903e+000 -1.336217e+000 -4.684486e-001 6.580769e+001 -7.903110e-002 3.743637e-003 -2.512708e-002 1.348181e-001 1.529730e-001 2.129196e-001 9.977487e-003 -5.174194e-004 9.434622e-002 7.000385e-002 -7.457007e-002 2.743123e-002 -1.357823e-001 1.733044e-002 -4.820799e-004 -2.880858e-003 -1.022872e-002 -9.063660e-003 1.157791e-002 1.968441e-002 1.011843e-002 -2.900342e-004 -2.099163e-002 1.916675e-002 1.232958e-003 2.064935e-002
<VARIANCE> 39
 1.934522e+001 2.369434e+001 1.334262e+001 4.324534e+001 2.831427e+001 5.400895e+001 1.320929e+001 1.337630e+001 1.698394e+001 1.369139e+001 1.537161e+001 1.094359e+001 1.767000e+001 4.151543e-001 6.025523e-001 4.279704e-001 5.230720e-001 5.886207e-001 1.193132e+000 7.030991e-001 8.110000e-001 8.598439e-001 1.070165e+000 1.005787e+000 9.271351e-001 2.259004e-001 3.692510e-002 1.113237e-001 7.164169e-002 8.984697e-002 1.127691e-001 2.345126e-001 1.625229e-001 1.723850e-001 1.640102e-001 2.077546e-001 2.046629e-001 1.919229e-001 1.950548e-002
<GCONST> 7.637671e+001
<TRANSP> 5
 0.000000e+000 1.000000e+000 0.000000e+000 0.000000e+000 0.000000e+000
 0.000000e+000 9.058978e-001 9.410220e-002 0.000000e+000 0.000000e+000
 0.000000e+000 0.000000e+000 9.400063e-001 5.999373e-002 0.000000e+000
 0.000000e+000 0.000000e+000 0.000000e+000 9.734229e-001 2.657710e-002
 0.000000e+000 0.000000e+000 0.000000e+000 0.000000e+000 0.000000e+000
<ENDHMM>
~h "ooj"
<BEGINHMM>
<NUMSTATES> 5
<STATE> 2
<MEAN> 39
 -7.127830e+000 -4.501548e+000 4.814378e+000 -1.087546e+000 -7.309932e+000 7.288722e+000 -9.551150e+000 7.160699e+000 -1.785551e+000 -7.563668e-001 4.133283e+000 -3.912264e+000 6.396663e+001 -1.290503e-001 -2.224706e-001 8.504307e-002 -1.600012e-001 -4.976467e-002 -3.548767e-001 2.495472e-001 -6.233887e-002 -1.042886e-001 5.019358e-002 -5.379693e-002 2.991328e-001 1.387690e-001 2.590088e-003 1.377271e-002 1.842338e-002 2.017136e-002 6.381426e-002 1.197199e-002 -6.117418e-003 5.875590e-003 1.315284e-002 -1.653635e-002 -2.478570e-002 2.454663e-002 1.374446e-003
<VARIANCE> 39
 3.443143e+001 3.047429e+001 2.653230e+001 2.375230e+001 7.483286e+001 1.473879e+002 7.470322e+001 4.277616e+001 3.469781e+001 2.634797e+001 3.140260e+001 3.548763e+001 6.886380e+001 3.485553e+000 2.924070e+000 2.414082e+000 2.686964e+000 9.794388e+000 8.148634e+000 9.492684e+000 3.795914e+000 4.925760e+000 2.423584e+000 3.196926e+000 3.613797e+000 1.110921e+001 7.241191e-001 6.007693e-001 5.465201e-001 5.159964e-001 1.903292e+000 1.421480e+000 2.105811e+000 7.598010e-001 1.039614e+000 4.576464e-001 6.229936e-001 7.065229e-001 2.702399e+000
<GCONST> 1.388109e+002
<STATE> 3
<MEAN> 39
 -8.576728e+000 -5.074197e+000 5.586476e+000 -5.295193e+000 -5.895251e+000 -4.494404e+000 -4.174567e+000 5.641287e+000 -5.623608e+000 1.098281e+000 -1.322817e+000 2.807221e+000 6.694225e+001 -2.942166e-001 1.130081e-001 1.524380e-001 -4.907550e-001 6.691997e-001 -4.978102e-001 3.143605e-001 -1.010487e-001 2.103559e-001 2.383979e-001 -3.688461e-001 6.637771e-001 4.077334e-002 -4.529117e-003 4.368333e-002 -1.231915e-001 -2.741657e-002 1.328574e-001 1.376406e-001 -1.595749e-001 1.253245e-002 1.061329e-001 -1.209422e-001 -1.437202e-001 -7.116513e-002 -5.516582e-002
<VARIANCE> 39
 2.064655e+001 3.608032e+001 3.559289e+001 1.965972e+001 4.428788e+001 1.246870e+002 4.201577e+001 5.338165e+001 2.531531e+001 1.972425e+001 1.504341e+001 4.128740e+001 3.954801e+001 1.144657e+000 2.507388e+000 1.801408e+000 2.074970e+000 5.802727e+000 3.595013e+000 3.131636e+000 2.865052e+000 2.974609e+000 1.322705e+000 1.540728e+000 2.448827e+000 1.122928e+000 2.361579e-001 5.720273e-001 3.826673e-001 3.972592e-001 1.146363e+000 6.437439e-001 6.580917e-001 4.901133e-001 4.977533e-001 2.142503e-001 3.023738e-001 5.393255e-001 2.247819e-001
<GCONST> 1.170486e+002
<STATE> 4
<MEAN> 39
 -1.301097e+001 -6.576774e-001 -1.947035e+000 -1.854581e+000 -1.967594e+000 -2.088343e+000 -1.648761e+000 -2.512282e-001 -3.173897e+000 -1.236443e+000 -2.513112e+000 -1.845482e-001 6.165054e+001 -1.096693e-002 -3.312822e-002 -5.758158e-002 3.103440e-002 8.540776e-004 8.366081e-002 -4.958515e-003 2.261706e-003 -1.601705e-002 -1.976207e-002 -3.382016e-002 -5.081362e-002 -2.725568e-002 4.002767e-003 4.387430e-004 9.122177e-003 1.629267e-002 -1.831903e-002 1.367397e-002 6.013760e-003 2.474170e-003 -4.382203e-003 8.426628e-003 2.483006e-002 -2.380666e-002 -1.387193e-003
<VARIANCE> 39
 1.876765e+001 1.218475e+001 2.503470e+001 1.388988e+001 1.203930e+001 4.846694e+001 1.167835e+001 1.215015e+001 1.994159e+001 8.136431e+000 1.138773e+001 1.230222e+001 3.703116e+001 5.570946e-001 2.799605e-001 3.338610e-001 3.891973e-001 6.912796e-001 6.116345e-001 1.043615e+000 6.540094e-001 6.355780e-001 6.959276e-001 8.533514e-001 6.782914e-001 4.942794e-001 1.428058e-001 5.357192e-002 7.566702e-002 8.829378e-002 1.669596e-001 1.332558e-001 2.252399e-001 1.372401e-001 1.249769e-001 1.392932e-001 1.823262e-001 1.363555e-001 1.250096e-001
<GCONST> 7.373135e+001
<TRANSP> 5
 0.000000e+000 1.000000e+000 0.000000e+000 0.000000e+000 0.000000e+000
 0.000000e+000 9.207499e-001 7.925007e-002 0.000000e+000 0.000000e+000
 0.000000e+000 0.000000e+000 7.589321e-001 2.410679e-001 0.000000e+000
 0.000000e+000 0.000000e+000 0.000000e+000 9.678404e-001 3.215961e-002
 0.000000e+000 0.000000e+000 0.000000e+000 0.000000e+000 0.000000e+000
<ENDHMM>
~h "oos"
<BEGINHMM>
<NUMSTATES> 5
<STATE> 2
<MEAN> 39
 -3.538570e-001 1.859749e-001 -4.359339e+000 -1.046766e+001 -9.132183e+000 -3.399259e+000 4.447471e+000 9.382691e-001 -5.008882e+000 1.299702e+000 7.524791e-001 -1.021851e+000 7.274642e+001 -6.361277e-001 9.718066e-002 -3.964954e-001 6.113655e-001 5.264497e-001 -9.769472e-002 -5.682644e-001 -1.949793e-001 3.007282e-001 6.413839e-001 -1.784243e-001 -9.918018e-002 -9.102445e-001 -5.656408e-003 -8.177592e-002 -4.653088e-002 1.933651e-001 -1.778540e-001 -2.533711e-003 -1.184644e-001 -1.866616e-002 -3.699409e-002 -1.255340e-001 -9.607380e-002 -1.402523e-001 -7.008198e-002
<VARIANCE> 39
 1.381396e+001 1.006167e+001 3.081011e+001 2.261374e+001 1.141397e+002 1.882650e+002 6.738833e+001 3.771510e+001 6.542567e+001 3.708038e+001 3.145715e+001 8.189018e+001 5.531000e+001 2.996307e-001 4.671148e-001 6.865054e-001 2.772501e+000 2.439202e+000 2.226055e+000 1.664594e+000 4.056282e+000 2.192455e+000 1.755547e+000 2.266605e+000 1.141940e+000 3.861654e-001 3.612272e-002 9.716541e-002 1.749668e-001 3.530318e-001 3.640873e-001 4.044249e-001 2.888890e-001 5.035790e-001 4.515397e-001 3.371186e-001 4.967199e-001 2.177961e-001 4.401431e-002
<GCONST> 1.047516e+002
<STATE> 3
<MEAN> 39
 -2.376215e+000 -4.716882e-001 -6.046490e+000 -8.760656e+000 -8.770174e+000 -4.525899e+000 1.886133e+000 -9.099908e-001 -4.624790e+000 1.793208e+000 -1.446065e+000 -2.747763e+000 7.048135e+001 -5.733019e-001 -1.151041e-001 -1.646538e-001 1.005132e+000 4.779484e-001 2.151022e-001 -9.607532e-001 -2.823422e-001 -1.850034e-001 -3.098825e-001 -6.816291e-001 -4.760253e-001 -7.991741e-001 2.073529e-002 -9.278686e-003 1.632753e-001 4.554260e-002 -1.189777e-001 5.412650e-002 -1.900008e-001 9.469020e-002 -1.419131e-001 -2.226088e-001 1.703239e-001 -2.941657e-002 5.134939e-002
<VARIANCE> 39
 2.271021e+001 8.602044e+000 3.672818e+001 2.788445e+001 9.020209e+001 1.860806e+002 7.192586e+001 5.764317e+001 4.517121e+001 4.849736e+001 3.454166e+001 9.597858e+001 5.940588e+001 2.685956e-001 2.917554e-001 9.823111e-001 3.370672e+000 1.781892e+000 2.126624e+000 1.894950e+000 2.234237e+000 1.931886e+000 1.874855e+000 3.017497e+000 1.038486e+000 4.738073e-001 5.038891e-002 8.139928e-002 2.015218e-001 4.158216e-001 4.461296e-001 3.478766e-001 3.682713e-001 2.981659e-001 3.216310e-001 2.838553e-001 5.678741e-001 3.078680e-001 3.069166e-002
<GCONST> 1.052637e+002
<STATE> 4
<MEAN> 39
 -1.067039e+001 -7.597110e-002 -2.771741e+000 -7.956433e-001 -1.402637e+000 1.050249e+000 -2.609904e+000 -2.529711e+000 -4.490621e+000 -2.797319e+000 -2.325491e+000 -1.005254e+000 6.412801e+001 -5.384303e-002 2.518121e-002 5.267857e-002 7.206324e-002 6.114390e-002 4.494815e-002 -2.391460e-002 6.828663e-003 8.741433e-003 -6.560772e-003 1.255304e-002 2.611262e-002 -5.504395e-002 8.326997e-003 1.633846e-003 1.257217e-003 -1.764741e-003 -9.502149e-003 -2.106969e-003 4.818037e-003 -8.484949e-004 -1.202792e-003 1.477726e-003 3.666904e-003 -5.374307e-003 5.821101e-003
<VARIANCE> 39
 1.535781e+001 3.868405e+000 1.123813e+001 1.286846e+001 1.590884e+001 2.199556e+001 1.581620e+001 1.988149e+001 2.574528e+001 1.219762e+001 1.252839e+001 1.043394e+001 1.437016e+001 2.536416e-001 2.126118e-001 3.258018e-001 5.327770e-001 7.495256e-001 9.785648e-001 8.487086e-001 1.070011e+000 9.365901e-001 9.188045e-001 9.001588e-001 8.344893e-001 2.101538e-001 4.724844e-002 4.077657e-002 6.162474e-002 1.036769e-001 1.592840e-001 1.997862e-001 1.609932e-001 2.190982e-001 1.885695e-001 1.887986e-001 1.848162e-001 1.655734e-001 4.459947e-002
<GCONST> 7.052872e+001
<TRANSP> 5
 0.000000e+000 1.000000e+000 0.000000e+000 0.000000e+000 0.000000e+000
 0.000000e+000 6.735325e-001 3.264675e-001 0.000000e+000 0.000000e+000
 0.000000e+000 0.000000e+000 6.290668e-001 3.709332e-001 0.000000e+000
 0.000000e+000 0.000000e+000 0.000000e+000 9.896658e-001 1.033420e-002
 0.000000e+000 0.000000e+000 0.000000e+000 0.000000e+000 0.000000e+000
<ENDHMM>
~h "sil"
<BEGINHMM>
<NUMSTATES> 5
<STATE> 2
<MEAN> 39
 -1.550652e+001 1.577129e+000 -2.055386e+000 -1.061518e+000 -3.281352e+000 3.582939e+000 -5.029970e+000 2.225512e+000 -3.132379e+000 -5.684521e-001 -1.527592e+000 -2.683234e+000 5.532961e+001 2.294471e-002 3.484070e-002 -7.578687e-003 3.515774e-002 1.609277e-002 4.567881e-002 -3.575255e-002 1.459903e-002 4.722558e-002 1.202116e-002 2.263159e-002 -1.379922e-002 -1.973299e-002 -1.898579e-002 -1.271012e-002 -3.956609e-003 3.484714e-003 5.184228e-003 -1.567838e-002 3.193346e-002 8.279593e-003 2.537218e-004 -2.195592e-002 3.920541e-003 -6.767018e-003 -2.539010e-003
<VARIANCE> 39
 1.066544e+002 2.543682e+001 1.972124e+001 6.102535e+000 4.247429e+001 4.439854e+001 7.534365e+001 2.094464e+001 1.118149e+001 7.763077e+000 1.588350e+001 1.065728e+001 1.174019e+002 8.538281e-001 1.873414e-001 3.161127e-001 3.460377e-001 6.113789e-001 7.172294e-001 8.860087e-001 1.233415e+000 7.479247e-001 6.077242e-001 5.254737e-001 5.324299e-001 6.443564e-001 2.122624e-001 3.712047e-002 5.978194e-002 7.182377e-002 1.071548e-001 1.600935e-001 1.976523e-001 2.809255e-001 1.589021e-001 1.293886e-001 9.453848e-002 1.014594e-001 1.649294e-001
<GCONST> 7.877312e+001
<STATE> 3
<MEAN> 39
 -1.588396e+001 5.078431e-001 -2.128417e+000 -9.692761e-001 -2.424120e+000 2.152520e+000 -1.979636e+000 2.518800e+000 -1.985773e+000 -1.258416e-001 -1.856723e+000 -3.144197e+000 5.651851e+001 1.137089e-001 -4.823918e-002 -1.748858e-001 3.689133e-002 -8.350857e-002 -1.993048e-001 2.734719e-001 -5.794799e-002 1.269835e-001 -8.310538e-002 2.042532e-001 2.405994e-004 1.231711e-001 1.453367e-001 -4.278816e-002 -7.304505e-003 -5.174937e-002 -1.021083e-001 -7.631209e-002 -4.842003e-003 -8.829815e-002 -1.412314e-001 -1.203921e-002 4.356100e-002 5.926928e-002 1.316522e-001
<VARIANCE> 39
 5.487012e+001 1.528544e+001 1.217924e+001 6.365042e+000 2.423844e+001 3.123372e+001 5.103384e+001 1.428580e+001 1.493087e+001 1.098004e+001 8.950036e+000 9.713493e+000 5.984947e+001 1.617204e+000 3.795036e-001 3.222105e-001 7.380955e-001 1.117508e+000 1.083522e+000 2.330097e+000 1.437450e+000 1.878953e+000 1.014481e+000 7.005554e-001 4.888527e-001 1.103256e+000 4.296020e-001 8.830293e-002 6.888516e-002 2.246443e-001 2.915538e-001 2.542219e-001 5.779654e-001 3.578961e-001 4.675760e-001 2.237677e-001 9.780529e-002 1.246794e-001 3.517545e-001
<GCONST> 8.945758e+001
<STATE> 4
<MEAN> 39
 -1.238727e+001 1.272357e+000 -2.204830e+000 -2.447154e+000 -4.175873e+000 -2.441172e+000 -8.968746e-001 7.496483e-001 -4.861228e+000 -2.498218e+000 -2.698779e+000 -2.034275e+000 5.996608e+001 -4.531858e-002 2.234275e-002 -4.680804e-002 -2.352607e-002 -2.865409e-002 3.034716e-002 -7.119582e-003 -3.235321e-003 1.817493e-003 -1.901502e-003 1.205058e-002 1.639912e-002 -6.371464e-002 -1.748938e-002 -9.225410e-003 1.603679e-002 -2.632488e-002 1.066290e-002 1.936271e-002 -2.963432e-003 5.358101e-003 -1.488008e-003 8.104801e-003 -2.570896e-002 2.789277e-005 7.009808e-004
<VARIANCE> 39
 7.201866e+001 1.440969e+001 2.527792e+001 4.329942e+001 3.325168e+001 3.412371e+001 2.294968e+001 1.285076e+001 2.153013e+001 1.848032e+001 1.044968e+001 1.070096e+001 5.779387e+001 2.761875e+000 1.210090e+000 1.003340e+000 1.774779e+000 2.198939e+000 1.166310e+000 1.661446e+000 1.190072e+000 1.312723e+000 1.241314e+000 9.596893e-001 9.050513e-001 2.516299e+000 4.110329e-001 2.317388e-001 2.105977e-001 3.151101e-001 4.371791e-001 1.954671e-001 3.584023e-001 2.377930e-001 2.420578e-001 2.442510e-001 1.915276e-001 1.767962e-001 3.427041e-001
<GCONST> 1.005075e+002
<TRANSP> 5
 0.000000e+000 1.000000e+000 0.000000e+000 0.000000e+000 0.000000e+000
 0.000000e+000 9.605948e-001 3.940517e-002 0.000000e+000 0.000000e+000
 0.000000e+000 0.000000e+000 7.884263e-001 2.115736e-001 0.000000e+000
 0.000000e+000 0.000000e+000 0.000000e+000 9.658176e-001 3.418247e-002
 0.000000e+000 0.000000e+000 0.000000e+000 0.000000e+000 0.000000e+000
<ENDHMM>
