~o
<STREAMINFO> 1 39
<VECSIZE> 39<NULLD><MFCC_D_A_0><DIAGC>
~h "a"
<BEGINHMM>
<NUMSTATES> 5
<STATE> 2
<MEAN> 39
 -7.204639e+000 -2.122457e+000 -3.447359e-001 -3.699268e+000 -2.768391e+000 2.300758e-001 -2.286030e+000 -1.015461e+000 -3.559484e+000 -1.236731e-001 -2.373686e+000 -6.208161e-001 6.803777e+001 5.943213e-003 1.114012e-002 2.083917e-004 4.768589e-003 -7.592670e-003 -1.403459e-003 -3.787025e-003 6.365266e-003 -2.656399e-003 -3.660421e-003 1.733672e-003 -4.730632e-003 -6.853858e-003 -1.207526e-004 1.509678e-004 5.296761e-005 1.274423e-004 -5.961262e-005 -8.294145e-005 -1.004652e-004 9.801571e-005 -1.188612e-004 -1.190072e-004 1.323015e-004 -1.466456e-004 -1.814783e-004
<VARIANCE> 39
 4.731041e+001 2.882545e+001 7.022654e+001 4.758160e+001 5.186734e+001 5.018709e+001 5.439799e+001 5.652002e+001 3.812909e+001 4.681495e+001 3.782169e+001 4.385600e+001 7.031231e+001 8.155780e-001 8.662750e-001 1.118773e+000 1.332789e+000 1.607257e+000 2.572353e+000 2.315154e+000 1.948085e+000 1.698726e+000 1.980663e+000 1.739427e+000 1.443027e+000 7.052316e-001 1.372699e-001 1.510171e-001 1.719983e-001 2.338036e-001 2.748018e-001 5.167773e-001 4.585003e-001 3.788681e-001 3.423058e-001 3.860065e-001 3.086301e-001 2.763826e-001 1.059555e-001
<GCONST> 1.092986e+002
<STATE> 3
<MEAN> 39
 -7.172032e+000 -2.052316e+000 -3.411867e-001 -3.669576e+000 -2.813972e+000 2.196409e-001 -2.310436e+000 -9.747677e-001 -3.578216e+000 -1.479540e-001 -2.361704e+000 -6.509306e-001 6.799265e+001 5.166076e-003 1.195318e-002 5.249293e-004 5.529765e-003 -7.812547e-003 -1.862588e-003 -4.301782e-003 6.894503e-003 -3.293953e-003 -4.261320e-003 2.514559e-003 -5.501834e-003 -7.887701e-003 -1.390873e-004 1.396835e-004 5.457515e-005 1.344745e-004 -2.991422e-005 -6.893177e-005 -7.390369e-005 9.154575e-005 -1.041249e-004 -9.966548e-005 1.415761e-004 -1.302328e-004 -1.803806e-004
<VARIANCE> 39
 4.739244e+001 2.879901e+001 6.965150e+001 4.751744e+001 5.193929e+001 5.064898e+001 5.442815e+001 5.649058e+001 3.810453e+001 4.629292e+001 3.756440e+001 4.370052e+001 6.972482e+001 8.093372e-001 8.500727e-001 1.104718e+000 1.344607e+000 1.623019e+000 2.567650e+000 2.290179e+000 1.952219e+000 1.702568e+000 1.973489e+000 1.739440e+000 1.446609e+000 7.098359e-001 1.357361e-001 1.477665e-001 1.702419e-001 2.357853e-001 2.767140e-001 5.137886e-001 4.510373e-001 3.791577e-001 3.432567e-001 3.862398e-001 3.096986e-001 2.768255e-001 1.071852e-001
<GCONST> 1.092169e+002
<STATE> 4
<MEAN> 39
 -7.261912e+000 -1.737262e+000 -1.393217e+000 -2.911978e+000 -2.543742e+000 -6.871243e-003 -2.223858e+000 -1.783317e+000 -4.735995e+000 -1.263421e+000 -2.457028e+000 -1.226978e+000 6.760157e+001 2.165162e-003 1.218211e-002 3.122557e-003 6.214390e-003 -5.136415e-003 -4.259151e-003 -6.062150e-003 5.975079e-003 -4.809025e-003 -5.543145e-003 2.378188e-003 -4.941713e-003 -8.691953e-003 -1.066299e-004 5.930678e-005 5.140765e-005 9.885832e-005 4.205542e-005 -6.207443e-005 -5.892416e-005 -1.416288e-005 -4.034905e-005 -5.818055e-005 6.415392e-005 -6.722179e-005 -8.097654e-005
<VARIANCE> 39
 4.008026e+001 2.716358e+001 5.496801e+001 3.911034e+001 4.674393e+001 4.981608e+001 4.372217e+001 4.714461e+001 3.825966e+001 3.452506e+001 3.013123e+001 3.545438e+001 6.166785e+001 6.113675e-001 7.328689e-001 8.862663e-001 1.156060e+000 1.327349e+000 2.054224e+000 1.733976e+000 1.644042e+000 1.478786e+000 1.596323e+000 1.452088e+000 1.238338e+000 5.817320e-001 9.914417e-002 1.225415e-001 1.386392e-001 2.012012e-001 2.286329e-001 3.977682e-001 3.346163e-001 3.183134e-001 2.942999e-001 3.179888e-001 2.691923e-001 2.374701e-001 8.482585e-002
<GCONST> 1.019720e+002
<TRANSP> 5
 0.000000e+000 1.000000e+000 0.000000e+000 0.000000e+000 0.000000e+000
 0.000000e+000 8.350554e-001 1.649446e-001 0.000000e+000 0.000000e+000
 0.000000e+000 0.000000e+000 8.350556e-001 1.649443e-001 0.000000e+000
 0.000000e+000 0.000000e+000 0.000000e+000 9.771046e-001 2.289544e-002
 0.000000e+000 0.000000e+000 0.000000e+000 0.000000e+000 0.000000e+000
<ENDHMM>
~h "b"
<BEGINHMM>
<NUMSTATES> 5
<STATE> 2
<MEAN> 39
 -7.247380e+000 -1.790996e+000 -3.086293e-001 -3.265625e+000 -3.552406e+000 9.220116e-002 -3.180624e+000 -7.534124e-001 -4.108631e+000 -7.467272e-001 -2.142861e+000 -1.031972e+000 6.741798e+001 3.531070e-003 6.196660e-003 -4.305800e-004 4.881522e-003 -2.821672e-003 -1.746556e-003 -5.061610e-003 6.268575e-004 -3.059589e-003 -2.252712e-003 1.081857e-003 -3.310899e-003 -3.844967e-003 -9.307293e-005 7.484593e-005 1.635439e-005 1.236427e-004 7.309050e-005 1.479726e-005 -3.452514e-005 4.219329e-005 -1.167386e-005 -6.430980e-005 5.717727e-005 -9.198911e-005 -1.145377e-004
<VARIANCE> 39
 4.798417e+001 2.949721e+001 6.858155e+001 4.406242e+001 5.532120e+001 6.104610e+001 5.505825e+001 5.454892e+001 3.873088e+001 4.539104e+001 3.523117e+001 3.623782e+001 6.670005e+001 8.920992e-001 9.651421e-001 1.109048e+000 1.279925e+000 1.575353e+000 2.376283e+000 2.175731e+000 1.930120e+000 1.745062e+000 1.907624e+000 1.702078e+000 1.357482e+000 6.815368e-001 1.406838e-001 1.626681e-001 1.627686e-001 2.246211e-001 2.679448e-001 4.616830e-001 4.287674e-001 3.735117e-001 3.387203e-001 3.700603e-001 3.107978e-001 2.568827e-001 9.969045e-002
<GCONST> 1.085972e+002
<STATE> 3
<MEAN> 39
 -7.228138e+000 -1.751986e+000 -3.098828e-001 -3.234588e+000 -3.568630e+000 8.107907e-002 -3.211942e+000 -7.479792e-001 -4.127741e+000 -7.615047e-001 -2.135931e+000 -1.053165e+000 6.739223e+001 2.990108e-003 6.557951e-003 -3.443621e-004 5.612765e-003 -2.430683e-003 -1.601045e-003 -5.274525e-003 8.972425e-004 -3.143272e-003 -2.608500e-003 1.403354e-003 -3.822286e-003 -4.501308e-003 -9.258562e-005 5.415230e-005 1.385629e-005 1.191633e-004 5.639428e-005 3.009738e-005 -3.111453e-005 5.225653e-005 -1.226599e-005 -5.903425e-005 5.654114e-005 -8.748323e-005 -1.115778e-004
<VARIANCE> 39
 4.791520e+001 2.926696e+001 6.828043e+001 4.396639e+001 5.536064e+001 6.123141e+001 5.524440e+001 5.460856e+001 3.889808e+001 4.510367e+001 3.513142e+001 3.614062e+001 6.638904e+001 8.869863e-001 9.508275e-001 1.100388e+000 1.289204e+000 1.581557e+000 2.367594e+000 2.168140e+000 1.944257e+000 1.756362e+000 1.905765e+000 1.703273e+000 1.360100e+000 6.856117e-001 1.398347e-001 1.601900e-001 1.618902e-001 2.262002e-001 2.687325e-001 4.588963e-001 4.260310e-001 3.763733e-001 3.409451e-001 3.705445e-001 3.111187e-001 2.571572e-001 1.007077e-001
<GCONST> 1.085725e+002
<STATE> 4
<MEAN> 39
 -7.364639e+000 -1.666628e+000 -1.392829e+000 -2.647532e+000 -2.912045e+000 -2.243535e-001 -2.904923e+000 -1.692278e+000 -5.087471e+000 -1.648786e+000 -2.457618e+000 -1.374113e+000 6.725544e+001 1.278618e-003 6.685424e-003 1.141572e-003 6.384493e-003 -8.929251e-004 -2.159169e-003 -5.542201e-003 1.373371e-003 -3.397448e-003 -3.376661e-003 9.453390e-004 -3.850295e-003 -5.290389e-003 -6.329954e-005 1.472436e-005 8.640422e-006 7.125061e-005 6.000410e-005 2.626126e-005 -4.178968e-006 1.148818e-005 2.155599e-006 -4.344109e-005 2.317856e-005 -4.718000e-005 -5.127147e-005
<VARIANCE> 39
 4.007464e+001 2.731780e+001 5.462498e+001 3.795613e+001 5.062800e+001 5.869782e+001 4.379972e+001 4.487309e+001 3.899405e+001 3.535882e+001 2.960694e+001 2.971052e+001 6.094749e+001 6.836113e-001 8.315737e-001 9.288918e-001 1.126818e+000 1.312657e+000 1.919301e+000 1.700319e+000 1.647125e+000 1.533045e+000 1.566360e+000 1.435012e+000 1.179476e+000 5.733001e-001 1.049730e-001 1.368589e-001 1.375544e-001 1.955706e-001 2.247552e-001 3.593459e-001 3.287961e-001 3.186999e-001 2.926234e-001 3.053880e-001 2.694434e-001 2.245184e-001 8.053680e-002
<GCONST> 1.019221e+002
<TRANSP> 5
 0.000000e+000 1.000000e+000 0.000000e+000 0.000000e+000 0.000000e+000
 0.000000e+000 8.350323e-001 1.649678e-001 0.000000e+000 0.000000e+000
 0.000000e+000 0.000000e+000 8.350317e-001 1.649683e-001 0.000000e+000
 0.000000e+000 0.000000e+000 0.000000e+000 9.770588e-001 2.294119e-002
 0.000000e+000 0.000000e+000 0.000000e+000 0.000000e+000 0.000000e+000
<ENDHMM>
~h "h"
<BEGINHMM>
<NUMSTATES> 5
<STATE> 2
<MEAN> 39
 -8.466980e+000 -2.676695e+000 -1.641288e-001 -3.209112e+000 -2.495977e+000 -1.722508e-001 -2.992819e+000 -5.915485e-001 -3.913905e+000 -2.445979e-001 -1.846667e+000 -7.956606e-001 6.750409e+001 7.218495e-003 -6.953460e-003 -2.491951e-004 -1.081631e-002 9.739792e-003 -3.251041e-004 1.272386e-002 -1.571934e-002 3.730689e-003 1.045927e-002 -9.081278e-003 8.795572e-003 1.814949e-002 1.492107e-004 3.640771e-005 -6.792536e-005 1.474856e-004 3.439913e-007 1.491072e-004 7.093127e-005 -1.586815e-005 1.188937e-004 -1.118405e-004 4.593055e-005 -8.029570e-005 1.621370e-005
<VARIANCE> 39
 3.871460e+001 3.424976e+001 7.020672e+001 3.401733e+001 4.059011e+001 6.061634e+001 4.479933e+001 5.612605e+001 3.374728e+001 4.462146e+001 3.251907e+001 3.534906e+001 7.295843e+001 8.744781e-001 1.231487e+000 1.034917e+000 1.057274e+000 1.521722e+000 2.547029e+000 2.386559e+000 1.695435e+000 1.573424e+000 1.785872e+000 1.608787e+000 1.298688e+000 7.615380e-001 1.572561e-001 2.197529e-001 1.701613e-001 2.016302e-001 2.887597e-001 5.044599e-001 5.201040e-001 3.486801e-001 3.088363e-001 3.312204e-001 2.988066e-001 2.515163e-001 1.292451e-001
<GCONST> 1.080663e+002
<STATE> 3
<MEAN> 39
 -8.421937e+000 -2.717017e+000 -1.690822e-001 -3.267950e+000 -2.441856e+000 -1.673698e-001 -2.917131e+000 -6.838125e-001 -3.890137e+000 -1.874757e-001 -1.896108e+000 -7.485968e-001 6.760923e+001 7.989184e-003 -6.704889e-003 -6.771130e-004 -1.004220e-002 9.537314e-003 5.385750e-004 1.299189e-002 -1.567746e-002 4.390375e-003 9.719879e-003 -8.780532e-003 8.298296e-003 1.805394e-002 1.223155e-004 4.135289e-005 -7.945500e-005 1.375435e-004 -3.370177e-005 1.593050e-004 3.878969e-005 1.305049e-005 1.164855e-004 -1.263059e-004 6.108563e-005 -8.850077e-005 -2.731675e-005
<VARIANCE> 39
 3.914963e+001 3.387562e+001 7.090430e+001 3.497087e+001 4.080510e+001 5.966605e+001 4.534751e+001 5.606084e+001 3.417447e+001 4.556137e+001 3.304820e+001 3.602429e+001 7.365797e+001 8.716562e-001 1.225472e+000 1.049394e+000 1.067093e+000 1.494293e+000 2.561458e+000 2.404741e+000 1.715321e+000 1.579313e+000 1.816632e+000 1.619281e+000 1.297075e+000 7.294197e-001 1.566278e-001 2.187028e-001 1.708096e-001 2.028126e-001 2.824292e-001 5.108860e-001 5.237058e-001 3.531667e-001 3.104193e-001 3.367895e-001 2.994998e-001 2.508914e-001 1.203201e-001
<GCONST> 1.081483e+002
<STATE> 4
<MEAN> 39
 -8.225712e+000 -3.039041e+000 -1.500162e+000 -2.805335e+000 -1.776759e+000 -1.209308e-001 -2.235134e+000 -2.139930e+000 -4.706440e+000 -7.669733e-001 -2.280027e+000 -1.028692e+000 6.800085e+001 7.498662e-003 -1.667550e-003 -2.082771e-003 -6.039954e-003 2.436447e-003 3.841332e-003 8.806141e-003 -8.734443e-003 3.974892e-003 3.779794e-003 -4.831498e-003 3.384620e-003 9.429658e-003 5.429457e-005 8.949355e-005 -2.684705e-005 7.041600e-005 -1.057935e-004 4.889340e-005 -5.984215e-005 1.020770e-004 3.257990e-005 -9.904155e-005 3.161838e-005 -5.357675e-005 -1.137523e-004
<VARIANCE> 39
 3.407707e+001 3.165692e+001 5.958451e+001 3.137667e+001 3.935297e+001 5.415002e+001 3.980376e+001 4.699284e+001 3.614316e+001 3.971186e+001 3.001468e+001 3.383157e+001 7.381584e+001 6.402509e-001 9.748091e-001 9.199547e-001 9.082242e-001 1.143294e+000 2.055460e+000 1.872735e+000 1.454148e+000 1.403428e+000 1.617796e+000 1.341796e+000 1.141230e+000 5.409364e-001 1.105542e-001 1.680582e-001 1.425773e-001 1.677958e-001 2.130952e-001 3.998415e-001 3.956278e-001 2.914255e-001 2.762541e-001 3.032927e-001 2.500859e-001 2.191946e-001 7.593782e-002
<GCONST> 1.014205e+002
<TRANSP> 5
 0.000000e+000 1.000000e+000 0.000000e+000 0.000000e+000 0.000000e+000
 0.000000e+000 8.350680e-001 1.649320e-001 0.000000e+000 0.000000e+000
 0.000000e+000 0.000000e+000 8.350682e-001 1.649317e-001 0.000000e+000
 0.000000e+000 0.000000e+000 0.000000e+000 9.771250e-001 2.287496e-002
 0.000000e+000 0.000000e+000 0.000000e+000 0.000000e+000 0.000000e+000
<ENDHMM>
~h "m"
<BEGINHMM>
<NUMSTATES> 5
<STATE> 2
<MEAN> 39
 -7.342606e+000 -1.276660e+000 -4.890606e-001 -1.873164e+000 -3.622818e+000 6.207864e-001 -3.764515e+000 -2.364897e-002 -4.515763e+000 -2.126009e+000 -1.690531e+000 -2.006514e+000 6.634421e+001 -7.813575e-003 -4.798577e-003 -5.085580e-003 1.690181e-003 -6.183914e-003 7.808961e-003 -6.582382e-003 2.748307e-004 2.330698e-003 -2.627014e-003 3.541321e-003 -3.451211e-003 -8.721169e-003 -1.315700e-004 -1.380553e-004 1.361835e-004 -1.990240e-004 -5.532276e-006 -3.970890e-004 -1.077267e-004 -8.726414e-005 -1.365842e-004 -3.192563e-005 -1.036141e-004 1.253503e-004 1.011209e-004
<VARIANCE> 39
 4.800677e+001 2.754906e+001 6.395104e+001 3.329234e+001 5.711963e+001 7.031837e+001 4.858068e+001 6.034344e+001 3.448294e+001 3.884560e+001 3.184975e+001 2.449928e+001 5.542007e+001 1.071129e+000 8.924707e-001 9.541935e-001 1.254521e+000 1.780729e+000 2.146673e+000 2.229189e+000 1.922753e+000 1.753710e+000 1.562176e+000 1.727571e+000 1.332125e+000 1.025417e+000 1.792651e-001 1.491042e-001 1.564794e-001 2.254848e-001 3.210118e-001 3.780824e-001 4.333374e-001 3.527363e-001 3.363028e-001 3.027698e-001 3.206944e-001 2.470241e-001 1.819883e-001
<GCONST> 1.080043e+002
<STATE> 3
<MEAN> 39
 -7.389528e+000 -1.308181e+000 -5.197049e-001 -1.872181e+000 -3.657457e+000 6.577575e-001 -3.803280e+000 -2.363856e-002 -4.503354e+000 -2.141685e+000 -1.673205e+000 -2.022462e+000 6.629771e+001 -8.279196e-003 -5.434406e-003 -4.060394e-003 7.141166e-004 -6.033473e-003 5.410722e-003 -7.212700e-003 -2.212708e-004 1.469103e-003 -2.607609e-003 2.730728e-003 -2.655089e-003 -7.928851e-003 -5.812924e-005 -1.015965e-004 2.029545e-004 -1.686542e-004 4.977436e-005 -4.278733e-004 -1.078865e-004 -9.464422e-005 -1.526459e-004 6.349419e-006 -1.675822e-004 1.487453e-004 1.646103e-004
<VARIANCE> 39
 4.794979e+001 2.769291e+001 6.369173e+001 3.324210e+001 5.677712e+001 7.045108e+001 4.848307e+001 5.990801e+001 3.430729e+001 3.867953e+001 3.196856e+001 2.452576e+001 5.548479e+001 1.078087e+000 9.037933e-001 9.616024e-001 1.248188e+000 1.800301e+000 2.161565e+000 2.218855e+000 1.902261e+000 1.741762e+000 1.556699e+000 1.723778e+000 1.332382e+000 1.037434e+000 1.808769e-001 1.514985e-001 1.576739e-001 2.247984e-001 3.256027e-001 3.821398e-001 4.338437e-001 3.500699e-001 3.341984e-001 3.016308e-001 3.203036e-001 2.474452e-001 1.856253e-001
<GCONST> 1.080675e+002
<STATE> 4
<MEAN> 39
 -7.718291e+000 -1.740083e+000 -1.626500e+000 -1.817042e+000 -2.748925e+000 1.878625e-001 -3.286851e+000 -1.363607e+000 -5.377868e+000 -2.728310e+000 -2.264020e+000 -1.835523e+000 6.654084e+001 -5.426328e-003 -5.110267e-003 -9.482243e-004 -1.379858e-003 -1.139761e-003 2.847127e-004 -5.278004e-003 -1.975288e-003 -4.071775e-004 5.211639e-004 -1.273538e-003 3.748805e-004 -2.230329e-003 3.993727e-005 2.781007e-006 2.574823e-004 2.788604e-005 1.126980e-004 -2.611825e-004 -7.028934e-005 -8.801666e-005 -1.215702e-004 8.766501e-005 -1.501808e-004 7.773499e-005 1.557554e-004
<VARIANCE> 39
 3.948771e+001 2.697323e+001 5.295321e+001 3.078634e+001 4.965437e+001 6.240195e+001 3.868771e+001 4.725650e+001 3.496004e+001 3.334264e+001 2.849465e+001 2.165147e+001 5.504485e+001 8.342267e-001 8.033496e-001 8.682998e-001 1.057908e+000 1.422351e+000 1.753144e+000 1.783374e+000 1.524280e+000 1.458005e+000 1.329624e+000 1.461113e+000 1.145331e+000 7.740095e-001 1.361639e-001 1.320155e-001 1.396633e-001 1.894605e-001 2.579722e-001 3.085018e-001 3.499121e-001 2.863081e-001 2.760720e-001 2.570156e-001 2.764372e-001 2.169748e-001 1.281891e-001
<GCONST> 1.014414e+002
<TRANSP> 5
 0.000000e+000 1.000000e+000 0.000000e+000 0.000000e+000 0.000000e+000
 0.000000e+000 8.350081e-001 1.649919e-001 0.000000e+000 0.000000e+000
 0.000000e+000 0.000000e+000 8.350080e-001 1.649920e-001 0.000000e+000
 0.000000e+000 0.000000e+000 0.000000e+000 9.770024e-001 2.299768e-002
 0.000000e+000 0.000000e+000 0.000000e+000 0.000000e+000 0.000000e+000
<ENDHMM>
~h "n"
<BEGINHMM>
<NUMSTATES> 5
<STATE> 2
<MEAN> 39
 -7.499434e+000 -6.174947e-001 7.642540e-001 -6.162063e-001 -2.998880e+000 -3.261945e-001 -4.816195e+000 -9.088372e-001 -5.039962e+000 -1.988238e+000 -2.214157e+000 -2.504950e+000 6.622198e+001 -5.888163e-003 4.723679e-003 -1.136304e-002 8.923312e-003 -1.227685e-002 1.355574e-002 -8.549454e-003 3.043371e-003 1.005412e-003 -9.224167e-003 1.062204e-002 -9.316402e-003 -1.751003e-002 -6.513314e-005 -3.102282e-004 -5.159154e-004 -2.977208e-004 -2.093067e-004 3.262167e-004 7.028928e-005 1.186299e-004 1.217197e-004 1.076418e-004 9.009148e-005 2.108174e-004 -1.567549e-004
<VARIANCE> 39
 4.539435e+001 2.340296e+001 6.758826e+001 3.588647e+001 4.938304e+001 8.481239e+001 5.314773e+001 6.130855e+001 4.010987e+001 3.119385e+001 3.193867e+001 2.867642e+001 5.081747e+001 9.963391e-001 8.367264e-001 9.453824e-001 1.580466e+000 2.097274e+000 2.954403e+000 2.215577e+000 1.995576e+000 1.621588e+000 1.634367e+000 1.732460e+000 1.380741e+000 7.905791e-001 1.742347e-001 1.510004e-001 1.516236e-001 2.929043e-001 3.881280e-001 5.450895e-001 4.335634e-001 3.860383e-001 3.199502e-001 3.368189e-001 3.283762e-001 2.630299e-001 1.292669e-001
<GCONST> 1.090745e+002
<STATE> 3
<MEAN> 39
 -7.535186e+000 -5.927079e-001 6.961248e-001 -5.666789e-001 -3.067473e+000 -2.440919e-001 -4.864206e+000 -8.911017e-001 -5.031831e+000 -2.040637e+000 -2.154713e+000 -2.553936e+000 6.611954e+001 -6.283693e-003 2.970017e-003 -1.430919e-002 7.153546e-003 -1.337541e-002 1.548606e-002 -8.018939e-003 3.795921e-003 1.793304e-003 -8.645292e-003 1.107324e-002 -8.011553e-003 -1.839116e-002 -2.439771e-005 -2.395763e-004 -3.313565e-004 -2.689329e-004 -5.280154e-005 2.571194e-004 1.117227e-004 1.370342e-004 1.647069e-004 9.289274e-005 -2.345119e-005 1.794757e-004 -4.504842e-005
<VARIANCE> 39
 4.552264e+001 2.305882e+001 6.544098e+001 3.489147e+001 4.944336e+001 8.449705e+001 5.316168e+001 6.120074e+001 3.964034e+001 3.047787e+001 3.155943e+001 2.821403e+001 5.021502e+001 9.864963e-001 8.267058e-001 9.187365e-001 1.546514e+000 2.050707e+000 2.910465e+000 2.176152e+000 1.975805e+000 1.600735e+000 1.609614e+000 1.705785e+000 1.360166e+000 7.772001e-001 1.728916e-001 1.492522e-001 1.475104e-001 2.866939e-001 3.799713e-001 5.364226e-001 4.257751e-001 3.816151e-001 3.152356e-001 3.318217e-001 3.258023e-001 2.585189e-001 1.274998e-001
<GCONST> 1.085056e+002
<STATE> 4
<MEAN> 39
 -7.725756e+000 -8.619954e-001 -4.236537e-001 -2.898489e-001 -2.283220e+000 -5.867183e-001 -4.487161e+000 -2.062958e+000 -6.157828e+000 -2.812350e+000 -2.673175e+000 -2.440790e+000 6.621458e+001 -6.362072e-003 9.015186e-004 -1.285095e-002 2.519719e-003 -7.115507e-003 1.555763e-002 -2.971207e-003 4.355856e-003 4.801439e-003 -5.406952e-003 6.169005e-003 -1.142708e-003 -1.495859e-002 -6.336199e-005 -2.934941e-005 -1.850268e-004 -1.953165e-004 6.251228e-005 2.429332e-004 2.210484e-004 1.971100e-004 2.433575e-004 4.771821e-005 -7.976870e-005 5.922397e-005 -8.204598e-005
<VARIANCE> 39
 3.861468e+001 2.165952e+001 5.313380e+001 3.063565e+001 4.380574e+001 7.483901e+001 4.216599e+001 5.105322e+001 4.079309e+001 2.406034e+001 2.644839e+001 2.356934e+001 4.748129e+001 7.907498e-001 7.411010e-001 8.664005e-001 1.356426e+000 1.568283e+000 2.226115e+000 1.728355e+000 1.617428e+000 1.393484e+000 1.346882e+000 1.436422e+000 1.164345e+000 6.208020e-001 1.354605e-001 1.287479e-001 1.378548e-001 2.487217e-001 2.926087e-001 3.992343e-001 3.319848e-001 3.080225e-001 2.682492e-001 2.750331e-001 2.795332e-001 2.219498e-001 9.526674e-002
<GCONST> 1.017408e+002
<TRANSP> 5
 0.000000e+000 1.000000e+000 0.000000e+000 0.000000e+000 0.000000e+000
 0.000000e+000 8.349814e-001 1.650185e-001 0.000000e+000 0.000000e+000
 0.000000e+000 0.000000e+000 8.349814e-001 1.650185e-001 0.000000e+000
 0.000000e+000 0.000000e+000 0.000000e+000 9.769248e-001 2.307520e-002
 0.000000e+000 0.000000e+000 0.000000e+000 0.000000e+000 0.000000e+000
<ENDHMM>
~h "s"
<BEGINHMM>
<NUMSTATES> 5
<STATE> 2
<MEAN> 39
 -7.393375e+000 -1.114675e+000 -3.635663e-001 -2.335679e+000 -4.108650e+000 8.071468e-001 -3.767828e+000 -3.231400e-001 -4.488093e+000 -1.949922e+000 -1.925819e+000 -1.816606e+000 6.631903e+001 5.006433e-003 -5.111324e-003 7.662292e-004 -9.549336e-003 -1.916386e-002 -5.396388e-003 -9.374085e-003 2.074951e-003 -6.612991e-003 1.731039e-004 1.321374e-004 3.803300e-003 2.790787e-003 -2.038668e-005 6.512510e-005 -2.510557e-006 7.198319e-005 4.892977e-005 -1.287356e-004 -7.227840e-005 -5.872406e-005 -3.142321e-005 3.533743e-005 3.455910e-005 -5.235246e-006 -4.119544e-005
<VARIANCE> 39
 5.344818e+001 3.068007e+001 6.173163e+001 3.897140e+001 5.762943e+001 7.108832e+001 4.882998e+001 5.412750e+001 3.534756e+001 3.770813e+001 3.143058e+001 2.459958e+001 5.584632e+001 1.023879e+000 1.069245e+000 1.088292e+000 1.150187e+000 1.567790e+000 2.183765e+000 1.919169e+000 1.844338e+000 1.629703e+000 1.699932e+000 1.664850e+000 1.291731e+000 6.444143e-001 1.422572e-001 1.702641e-001 1.436794e-001 1.966329e-001 2.604025e-001 3.900588e-001 3.546027e-001 3.266211e-001 3.048584e-001 3.324752e-001 3.293968e-001 2.333823e-001 8.700805e-002
<GCONST> 1.060599e+002
<STATE> 3
<MEAN> 39
 -7.364954e+000 -1.143401e+000 -3.595857e-001 -2.392695e+000 -4.219912e+000 7.720353e-001 -3.822239e+000 -3.116663e-001 -4.525156e+000 -1.948169e+000 -1.924452e+000 -1.793824e+000 6.633554e+001 4.855713e-003 -4.671507e-003 7.742442e-004 -9.046474e-003 -1.873575e-002 -6.043093e-003 -9.780627e-003 1.735586e-003 -6.782854e-003 3.158831e-004 3.525748e-004 3.728608e-003 2.537578e-003 -3.325901e-005 8.016877e-005 -1.928456e-006 8.945871e-005 1.002423e-004 -8.387577e-005 -5.996347e-005 -5.434244e-005 -2.475240e-005 1.948154e-005 3.474895e-005 -1.770432e-005 -4.882644e-005
<VARIANCE> 39
 5.354491e+001 3.090881e+001 6.241138e+001 3.930500e+001 5.823890e+001 7.140724e+001 4.947069e+001 5.379383e+001 3.539832e+001 3.812503e+001 3.149070e+001 2.450326e+001 5.617004e+001 1.032999e+000 1.081631e+000 1.102223e+000 1.147714e+000 1.562861e+000 2.164499e+000 1.911540e+000 1.833962e+000 1.635671e+000 1.708876e+000 1.659340e+000 1.283802e+000 6.395268e-001 1.431600e-001 1.717516e-001 1.447797e-001 1.961766e-001 2.589403e-001 3.872735e-001 3.536433e-001 3.257540e-001 3.055039e-001 3.339640e-001 3.271507e-001 2.324532e-001 8.599260e-002
<GCONST> 1.061140e+002
<STATE> 4
<MEAN> 39
 -7.551387e+000 -1.462564e+000 -1.524421e+000 -2.388225e+000 -3.343084e+000 2.685300e-001 -3.282812e+000 -1.340091e+000 -5.367498e+000 -2.546733e+000 -2.532663e+000 -1.534301e+000 6.656177e+001 3.018983e-003 -2.525146e-003 2.022733e-004 -6.450100e-003 -1.251090e-002 -7.100796e-003 -7.579480e-003 1.222272e-003 -3.908994e-003 9.709700e-004 5.597390e-004 2.310660e-003 1.868407e-003 -2.848897e-005 5.316727e-005 -1.995829e-005 1.224392e-004 1.274352e-004 -2.429980e-005 -4.377257e-005 -4.479041e-005 -2.168144e-005 5.583523e-006 2.071034e-005 -4.443092e-005 -4.579546e-005
<VARIANCE> 39
 4.502494e+001 3.011002e+001 5.332810e+001 3.944859e+001 5.746294e+001 6.356216e+001 3.929068e+001 4.213951e+001 3.585949e+001 3.290709e+001 2.901283e+001 2.013342e+001 5.580140e+001 8.711039e-001 1.016932e+000 1.049138e+000 1.066524e+000 1.323920e+000 1.714719e+000 1.602840e+000 1.550077e+000 1.432221e+000 1.453684e+000 1.403586e+000 1.089546e+000 5.239631e-001 1.181066e-001 1.598947e-001 1.349231e-001 1.829011e-001 2.165676e-001 3.035379e-001 2.984438e-001 2.843970e-001 2.625904e-001 2.788635e-001 2.777269e-001 2.018266e-001 6.592337e-002
<GCONST> 1.007791e+002
<TRANSP> 5
 0.000000e+000 1.000000e+000 0.000000e+000 0.000000e+000 0.000000e+000
 0.000000e+000 8.350047e-001 1.649952e-001 0.000000e+000 0.000000e+000
 0.000000e+000 0.000000e+000 8.350050e-001 1.649950e-001 0.000000e+000
 0.000000e+000 0.000000e+000 0.000000e+000 9.770104e-001 2.298961e-002
 0.000000e+000 0.000000e+000 0.000000e+000 0.000000e+000 0.000000e+000
<ENDHMM>
~h "t"
<BEGINHMM>
<NUMSTATES> 5
<STATE> 2
<MEAN> 39
 -7.916824e+000 -1.904767e+000 -3.712476e-001 -2.331791e+000 -3.650546e+000 -3.570932e-002 -4.343504e+000 -3.166869e-001 -4.624056e+000 -1.360595e+000 -1.703770e+000 -1.557223e+000 6.654472e+001 -2.947845e-004 -7.453986e-003 -4.089643e-003 -6.057662e-003 9.130375e-003 8.709978e-004 5.059710e-003 -8.455403e-003 1.068290e-003 4.062519e-003 -5.595231e-003 4.259879e-003 8.069652e-003 2.034510e-004 2.611688e-005 1.001464e-005 -1.972586e-005 4.087173e-005 5.298620e-005 2.089086e-004 5.097655e-006 8.771306e-005 1.522782e-005 -5.420510e-005 -2.087052e-006 1.783676e-004
<VARIANCE> 39
 4.132507e+001 2.902814e+001 6.437082e+001 3.163623e+001 5.102085e+001 7.258990e+001 5.039429e+001 5.714529e+001 3.796548e+001 4.059335e+001 3.093570e+001 2.717199e+001 6.355812e+001 9.629425e-001 1.042633e+000 1.001120e+000 1.144981e+000 1.652666e+000 2.127107e+000 2.206454e+000 1.947207e+000 1.858950e+000 1.686202e+000 1.606365e+000 1.321214e+000 9.158179e-001 1.633947e-001 1.814622e-001 1.642220e-001 2.088825e-001 3.033985e-001 3.860347e-001 4.540977e-001 3.816020e-001 3.482786e-001 3.188836e-001 2.941334e-001 2.488064e-001 1.602546e-001
<GCONST> 1.080256e+002
<STATE> 3
<MEAN> 39
 -7.914995e+000 -1.949050e+000 -3.961015e-001 -2.364630e+000 -3.594992e+000 -2.629669e-002 -4.310711e+000 -3.681691e-001 -4.617026e+000 -1.336717e+000 -1.736811e+000 -1.534705e+000 6.659525e+001 8.329656e-004 -7.325047e-003 -4.157642e-003 -6.100386e-003 9.165465e-003 1.300506e-003 6.228813e-003 -8.415946e-003 1.572418e-003 4.037918e-003 -5.773532e-003 4.085268e-003 8.959560e-003 1.849159e-004 2.916416e-005 -1.080131e-005 1.367007e-005 4.852513e-006 8.659405e-005 1.759374e-004 1.399948e-005 8.765628e-005 1.070615e-006 -2.034724e-005 -4.059085e-005 1.310282e-004
<VARIANCE> 39
 4.137222e+001 2.880666e+001 6.469228e+001 3.209223e+001 5.052820e+001 7.169985e+001 5.055528e+001 5.745367e+001 3.811447e+001 4.118487e+001 3.108175e+001 2.750276e+001 6.409025e+001 9.671813e-001 1.039415e+000 1.005764e+000 1.146118e+000 1.632979e+000 2.129371e+000 2.212962e+000 1.962767e+000 1.857895e+000 1.694833e+000 1.609422e+000 1.318170e+000 8.863103e-001 1.649302e-001 1.813555e-001 1.651296e-001 2.087735e-001 2.994307e-001 3.878947e-001 4.558182e-001 3.850708e-001 3.480889e-001 3.200161e-001 2.940148e-001 2.478155e-001 1.519698e-001
<GCONST> 1.080105e+002
<STATE> 4
<MEAN> 39
 -7.962352e+000 -2.340360e+000 -1.560279e+000 -2.068984e+000 -2.483352e+000 -3.339194e-001 -3.520057e+000 -1.789097e+000 -5.348578e+000 -1.778969e+000 -2.327443e+000 -1.568881e+000 6.708385e+001 3.058031e-003 -5.127103e-003 -5.610147e-003 -3.528718e-003 5.651439e-003 5.258522e-003 6.398933e-003 -7.240926e-003 1.581405e-003 9.097027e-004 -3.354902e-003 6.048929e-004 6.974271e-003 9.945025e-005 3.796128e-005 -4.357941e-005 2.886351e-006 -6.467361e-005 7.238684e-005 7.626849e-005 2.725709e-005 5.904411e-005 -6.277553e-005 2.560035e-005 -4.003085e-005 1.581260e-005
<VARIANCE> 39
 3.423307e+001 2.770232e+001 5.431225e+001 2.965664e+001 4.511999e+001 6.619819e+001 4.173225e+001 4.660173e+001 3.882639e+001 3.779330e+001 2.823438e+001 2.550416e+001 6.550422e+001 7.248434e-001 8.877007e-001 8.869008e-001 9.773045e-001 1.259285e+000 1.782088e+000 1.770397e+000 1.608315e+000 1.582932e+000 1.482969e+000 1.371073e+000 1.136323e+000 6.466193e-001 1.215241e-001 1.502665e-001 1.416909e-001 1.749209e-001 2.304628e-001 3.181016e-001 3.601651e-001 3.153247e-001 2.927200e-001 2.775433e-001 2.542832e-001 2.151049e-001 9.499062e-002
<GCONST> 1.014164e+002
<TRANSP> 5
 0.000000e+000 1.000000e+000 0.000000e+000 0.000000e+000 0.000000e+000
 0.000000e+000 8.350168e-001 1.649832e-001 0.000000e+000 0.000000e+000
 0.000000e+000 0.000000e+000 8.350165e-001 1.649834e-001 0.000000e+000
 0.000000e+000 0.000000e+000 0.000000e+000 9.770221e-001 2.297797e-002
 0.000000e+000 0.000000e+000 0.000000e+000 0.000000e+000 0.000000e+000
<ENDHMM>
~h "ai"
<BEGINHMM>
<NUMSTATES> 5
<STATE> 2
<MEAN> 39
 -8.047322e+000 -2.800061e+000 -2.740355e-001 -3.571664e+000 -2.321558e+000 2.868580e-002 -2.476569e+000 -1.121682e+000 -3.690447e+000 2.768838e-003 -2.138496e+000 -5.792348e-001 6.807951e+001 1.074320e-002 -2.129162e-003 -1.931968e-003 -6.450527e-003 4.272576e-003 2.956612e-003 9.978522e-003 -1.049990e-002 5.937638e-003 4.763695e-003 -7.293641e-003 5.517752e-003 1.229057e-002 5.109569e-005 1.078818e-004 -5.456165e-005 1.429720e-004 -1.980609e-004 8.363466e-005 -1.556277e-004 1.910611e-004 -6.609672e-008 -1.310992e-004 9.053768e-005 -1.156408e-004 -1.963624e-004
<VARIANCE> 39
 4.244225e+001 3.184640e+001 7.349636e+001 4.056857e+001 4.422395e+001 5.359778e+001 4.925019e+001 5.635064e+001 3.626242e+001 4.890692e+001 3.599023e+001 4.019941e+001 7.586385e+001 8.684716e-001 1.149588e+000 1.131759e+000 1.138725e+000 1.443403e+000 2.615056e+000 2.486510e+000 1.821602e+000 1.636301e+000 1.952932e+000 1.669455e+000 1.325457e+000 6.669042e-001 1.540687e-001 2.049399e-001 1.758839e-001 2.102342e-001 2.646637e-001 5.351287e-001 5.325397e-001 3.717025e-001 3.247854e-001 3.639809e-001 3.003992e-001 2.544440e-001 9.984250e-002
<GCONST> 1.089765e+002
<STATE> 3
<MEAN> 39
 -7.983556e+000 -2.808697e+000 -2.868720e-001 -3.607040e+000 -2.303759e+000 4.953606e-002 -2.421226e+000 -1.177417e+000 -3.656550e+000 2.646843e-002 -2.177950e+000 -5.508775e-001 6.814509e+001 1.095471e-002 -1.471016e-003 -2.208957e-003 -5.710239e-003 3.084364e-003 3.307505e-003 9.057034e-003 -9.309108e-003 5.826157e-003 4.030752e-003 -6.819919e-003 4.882953e-003 1.108613e-002 2.506137e-005 1.097458e-004 -4.643165e-005 1.250288e-004 -2.082577e-004 5.412751e-005 -1.598442e-004 2.054346e-004 -2.594173e-005 -1.288317e-004 8.333497e-005 -1.154233e-004 -2.108110e-004
<VARIANCE> 39
 4.293687e+001 3.150617e+001 7.369411e+001 4.145895e+001 4.492762e+001 5.298878e+001 4.980877e+001 5.626041e+001 3.659327e+001 4.937309e+001 3.652784e+001 4.083876e+001 7.610599e+001 8.667817e-001 1.128785e+000 1.142434e+000 1.150705e+000 1.442125e+000 2.618583e+000 2.493029e+000 1.836835e+000 1.644253e+000 1.971260e+000 1.677840e+000 1.333716e+000 6.620566e-001 1.533224e-001 2.011350e-001 1.765335e-001 2.113601e-001 2.628590e-001 5.369228e-001 5.315501e-001 3.734809e-001 3.270607e-001 3.679409e-001 3.005091e-001 2.559323e-001 9.796122e-002
<GCONST> 1.090872e+002
<STATE> 4
<MEAN> 39
 -7.839579e+000 -2.831677e+000 -1.596687e+000 -3.044132e+000 -1.923512e+000 1.172923e-001 -1.946415e+000 -2.278333e+000 -4.528708e+000 -7.850073e-001 -2.438247e+000 -9.892901e-001 6.814189e+001 8.173706e-003 3.886785e-003 -1.424908e-003 -3.074790e-003 -2.703676e-003 3.285158e-003 4.101709e-003 -1.563813e-003 2.938438e-003 -3.664040e-005 -3.266364e-003 9.561499e-004 2.326263e-003 -1.678008e-005 1.194404e-004 5.651851e-006 8.992029e-005 -1.323589e-004 -1.557926e-005 -1.311275e-004 1.744458e-004 -6.346151e-005 -7.417672e-005 6.289307e-005 -8.330645e-005 -1.798334e-004
<VARIANCE> 39
 3.719875e+001 3.013903e+001 6.044472e+001 3.592091e+001 4.284330e+001 4.814293e+001 4.282393e+001 4.732863e+001 3.732088e+001 3.997087e+001 3.142719e+001 3.657993e+001 7.246339e+001 6.399835e-001 9.019052e-001 9.683563e-001 9.829471e-001 1.169362e+000 2.063639e+000 1.892647e+000 1.526298e+000 1.449140e+000 1.670827e+000 1.378335e+000 1.180786e+000 5.443920e-001 1.079765e-001 1.545035e-001 1.464559e-001 1.758169e-001 2.107455e-001 4.081207e-001 3.887541e-001 3.014778e-001 2.869118e-001 3.174949e-001 2.510792e-001 2.257370e-001 7.401799e-002
<GCONST> 1.021528e+002
<TRANSP> 5
 0.000000e+000 1.000000e+000 0.000000e+000 0.000000e+000 0.000000e+000
 0.000000e+000 8.350646e-001 1.649354e-001 0.000000e+000 0.000000e+000
 0.000000e+000 0.000000e+000 8.350645e-001 1.649355e-001 0.000000e+000
 0.000000e+000 0.000000e+000 0.000000e+000 9.771193e-001 2.288070e-002
 0.000000e+000 0.000000e+000 0.000000e+000 0.000000e+000 0.000000e+000
<ENDHMM>
~h "as"
<BEGINHMM>
<NUMSTATES> 5
<STATE> 2
<MEAN> 39
 -7.046978e+000 -1.732397e+000 -1.200428e+000 -1.864739e+000 -4.144033e+000 6.551387e-001 -5.005470e+000 -8.752672e-001 -5.170883e+000 -2.355715e+000 -1.958339e+000 -2.228207e+000 6.637873e+001 4.589853e-003 -3.851415e-003 -1.255435e-002 -1.044077e-003 1.990663e-003 9.950607e-003 7.163369e-003 1.786457e-003 5.277728e-003 -8.814313e-003 1.115226e-004 -4.696330e-003 1.338823e-003 -5.331707e-005 6.928419e-005 4.983489e-005 1.439493e-004 -7.752415e-005 3.224680e-005 -9.574600e-005 1.025244e-004 -1.548661e-005 -8.379886e-006 5.319068e-005 -7.728836e-005 -1.578432e-004
<VARIANCE> 39
 4.579219e+001 2.096568e+001 6.387247e+001 3.582917e+001 5.572297e+001 6.911134e+001 5.863008e+001 6.378488e+001 4.325463e+001 4.417304e+001 3.254571e+001 2.396540e+001 6.215572e+001 1.150062e+000 7.720543e-001 1.050393e+000 1.274208e+000 1.573248e+000 1.765293e+000 2.173297e+000 2.358248e+000 2.131589e+000 1.710876e+000 1.675776e+000 1.314436e+000 8.244960e-001 1.975958e-001 1.319920e-001 1.721880e-001 2.190597e-001 2.738290e-001 3.017018e-001 4.211383e-001 4.476713e-001 3.892374e-001 3.255437e-001 2.906691e-001 2.340988e-001 1.143432e-001
<GCONST> 1.078175e+002
<STATE> 3
<MEAN> 39
 -7.019738e+000 -1.754712e+000 -1.275695e+000 -1.871585e+000 -4.133264e+000 7.162052e-001 -4.963940e+000 -8.652964e-001 -5.141700e+000 -2.409578e+000 -1.958358e+000 -2.256981e+000 6.638512e+001 4.181101e-003 -3.405541e-003 -1.215917e-002 -1.461332e-004 1.544413e-003 1.016377e-002 6.570316e-003 2.330250e-003 5.145990e-003 -8.818066e-003 4.203299e-004 -5.176961e-003 3.420177e-004 -1.017811e-004 7.510557e-005 1.205382e-004 1.910261e-004 -4.529261e-005 2.986233e-005 -1.381841e-004 6.933488e-005 -4.450831e-005 8.741497e-006 4.038643e-005 -8.897984e-005 -1.873037e-004
<VARIANCE> 39
 4.620485e+001 2.092031e+001 6.363227e+001 3.632452e+001 5.542698e+001 6.868449e+001 5.840931e+001 6.410322e+001 4.289226e+001 4.434854e+001 3.278344e+001 2.404199e+001 6.225296e+001 1.172945e+000 7.651460e-001 1.052326e+000 1.278912e+000 1.588099e+000 1.772261e+000 2.172996e+000 2.345387e+000 2.111492e+000 1.695442e+000 1.684103e+000 1.312331e+000 8.311325e-001 2.029093e-001 1.311406e-001 1.737280e-001 2.197991e-001 2.769202e-001 3.024637e-001 4.212375e-001 4.444926e-001 3.860927e-001 3.220694e-001 2.918132e-001 2.336426e-001 1.151025e-001
<GCONST> 1.078773e+002
<STATE> 4
<MEAN> 39
 -7.226403e+000 -1.899414e+000 -2.395916e+000 -1.654777e+000 -2.964466e+000 3.524634e-001 -4.143249e+000 -2.048717e+000 -5.852381e+000 -3.072087e+000 -2.594340e+000 -2.256237e+000 6.658231e+001 2.432130e-003 -2.283233e-003 -1.027462e-002 1.354432e-005 1.031565e-003 1.052334e-002 4.536305e-003 5.449780e-004 1.955554e-003 -8.725217e-003 -1.866871e-005 -4.640022e-003 -1.843730e-003 -1.410745e-004 5.395100e-005 1.895641e-004 1.934333e-004 3.647004e-005 -4.848157e-005 -1.412346e-004 2.194657e-005 -5.318755e-005 4.596895e-005 -1.897835e-006 -3.329170e-005 -1.503661e-004
<VARIANCE> 39
 3.786559e+001 2.191619e+001 5.213139e+001 3.306379e+001 4.776451e+001 6.109754e+001 4.694296e+001 4.986013e+001 4.139412e+001 3.973656e+001 2.855099e+001 2.116370e+001 6.002615e+001 8.892791e-001 6.910016e-001 9.056464e-001 1.082922e+000 1.300494e+000 1.521466e+000 1.801766e+000 1.792691e+000 1.728970e+000 1.396688e+000 1.471736e+000 1.135651e+000 7.227559e-001 1.528601e-001 1.132269e-001 1.506110e-001 1.853064e-001 2.308327e-001 2.569155e-001 3.500974e-001 3.431952e-001 3.086593e-001 2.632448e-001 2.614771e-001 2.077085e-001 9.511785e-002
<GCONST> 1.015555e+002
<TRANSP> 5
 0.000000e+000 1.000000e+000 0.000000e+000 0.000000e+000 0.000000e+000
 0.000000e+000 8.349482e-001 1.650518e-001 0.000000e+000 0.000000e+000
 0.000000e+000 0.000000e+000 8.349482e-001 1.650518e-001 0.000000e+000
 0.000000e+000 0.000000e+000 0.000000e+000 9.768783e-001 2.312176e-002
 0.000000e+000 0.000000e+000 0.000000e+000 0.000000e+000 0.000000e+000
<ENDHMM>
~h "aw"
<BEGINHMM>
<NUMSTATES> 5
<STATE> 2
<MEAN> 39
 -7.651170e+000 -4.739641e-001 -1.309924e-001 -1.461078e+000 -2.934727e+000 5.876281e-001 -3.528350e+000 -5.565212e-001 -4.348367e+000 -1.880935e+000 -1.841846e+000 -2.069690e+000 6.605804e+001 1.532755e-003 -6.133638e-003 -4.559927e-003 -1.782264e-003 -6.608971e-003 1.017377e-002 -1.325600e-003 1.252032e-003 -1.449380e-003 -3.983626e-003 -4.079708e-004 -1.695609e-003 -1.048336e-004 9.504444e-005 -8.894505e-005 5.524234e-005 -2.034196e-004 -1.769193e-004 -1.038030e-004 -5.212064e-005 3.651804e-005 -6.198862e-005 8.802308e-005 -6.398855e-005 1.341882e-004 1.145104e-004
<VARIANCE> 39
 4.987273e+001 2.616596e+001 5.642719e+001 3.211127e+001 4.599136e+001 6.696963e+001 4.255765e+001 5.772423e+001 3.647249e+001 3.234972e+001 2.994975e+001 2.613671e+001 4.974418e+001 8.679349e-001 8.350080e-001 8.387838e-001 1.259836e+000 1.598097e+000 2.431003e+000 2.045300e+000 2.037830e+000 1.643830e+000 1.604152e+000 1.791647e+000 1.345413e+000 7.124667e-001 1.304919e-001 1.371364e-001 1.263944e-001 2.203104e-001 2.770057e-001 4.375036e-001 3.797513e-001 3.693561e-001 3.193696e-001 3.241599e-001 3.651534e-001 2.418495e-001 1.084217e-001
<GCONST> 1.052682e+002
<STATE> 3
<MEAN> 39
 -7.641920e+000 -5.121397e-001 -1.575837e-001 -1.476161e+000 -2.974397e+000 6.461359e-001 -3.534735e+000 -5.487366e-001 -4.356203e+000 -1.902115e+000 -1.845981e+000 -2.075569e+000 6.605957e+001 2.025838e-003 -6.605677e-003 -4.272460e-003 -2.947703e-003 -7.745947e-003 9.551582e-003 -1.690716e-003 1.546326e-003 -1.771239e-003 -3.433425e-003 -6.930261e-004 -9.353489e-004 4.629561e-004 8.046898e-005 -7.517550e-005 5.610388e-005 -1.893684e-004 -1.926343e-004 -1.081348e-004 -6.679726e-005 5.307222e-005 -6.388435e-005 9.449210e-005 -4.819178e-005 1.287943e-004 8.853471e-005
<VARIANCE> 39
 5.019634e+001 2.631733e+001 5.629686e+001 3.224609e+001 4.654166e+001 6.711426e+001 4.281202e+001 5.777955e+001 3.637172e+001 3.244043e+001 3.000766e+001 2.601587e+001 4.995594e+001 8.744614e-001 8.472945e-001 8.514997e-001 1.247159e+000 1.593729e+000 2.411961e+000 2.034046e+000 2.022026e+000 1.636192e+000 1.603164e+000 1.782990e+000 1.346397e+000 7.078123e-001 1.305157e-001 1.388880e-001 1.272328e-001 2.174185e-001 2.758670e-001 4.328758e-001 3.769454e-001 3.643478e-001 3.167429e-001 3.229807e-001 3.630398e-001 2.417082e-001 1.065731e-001
<GCONST> 1.052270e+002
<STATE> 4
<MEAN> 39
 -7.745583e+000 -9.513232e-001 -1.355426e+000 -1.376255e+000 -2.275248e+000 5.091195e-001 -3.099157e+000 -1.620047e+000 -5.409991e+000 -2.689263e+000 -2.465094e+000 -1.847150e+000 6.624543e+001 1.502467e-003 -6.144226e-003 -3.244276e-003 -6.264416e-003 -7.473586e-003 5.150509e-003 -2.285068e-004 1.630488e-003 -2.649810e-004 -1.137377e-003 -1.076696e-003 1.658542e-003 1.845092e-003 4.483445e-005 -1.440947e-005 5.384620e-005 -1.230236e-004 -1.545235e-004 -1.337066e-004 -6.436310e-005 2.335779e-005 -4.279308e-005 4.582644e-005 -4.037765e-006 6.462007e-005 4.824720e-005
<VARIANCE> 39
 4.349264e+001 2.597830e+001 4.737824e+001 3.184851e+001 4.500813e+001 5.659112e+001 3.415529e+001 4.690669e+001 3.670794e+001 2.695063e+001 2.719306e+001 2.170433e+001 4.949435e+001 7.337381e-001 8.167203e-001 8.511230e-001 1.114401e+000 1.308739e+000 1.849164e+000 1.661922e+000 1.646345e+000 1.397861e+000 1.346989e+000 1.488802e+000 1.147237e+000 5.590065e-001 1.049332e-001 1.292782e-001 1.225557e-001 1.919263e-001 2.259411e-001 3.301240e-001 3.068289e-001 3.011181e-001 2.658683e-001 2.673144e-001 3.010038e-001 2.095196e-001 7.658649e-002
<GCONST> 9.933473e+001
<TRANSP> 5
 0.000000e+000 1.000000e+000 0.000000e+000 0.000000e+000 0.000000e+000
 0.000000e+000 8.350224e-001 1.649776e-001 0.000000e+000 0.000000e+000
 0.000000e+000 0.000000e+000 8.350226e-001 1.649773e-001 0.000000e+000
 0.000000e+000 0.000000e+000 0.000000e+000 9.770452e-001 2.295483e-002
 0.000000e+000 0.000000e+000 0.000000e+000 0.000000e+000 0.000000e+000
<ENDHMM>
~h "ch"
<BEGINHMM>
<NUMSTATES> 5
<STATE> 2
<MEAN> 39
 -7.190020e+000 -1.852242e+000 -1.525191e+000 -1.224860e+000 -3.747907e+000 1.422857e+000 -4.941882e+000 -8.258898e-001 -5.134671e+000 -3.075779e+000 -2.103854e+000 -2.771554e+000 6.591163e+001 -9.602154e-003 1.670503e-003 3.268869e-002 2.958111e-002 1.756960e-002 -1.272823e-002 -1.698041e-002 -5.627349e-003 -7.246532e-003 -6.600546e-004 -1.102741e-002 -7.276045e-003 -2.646086e-003 2.077362e-004 1.742799e-004 7.998124e-004 3.428756e-004 2.118756e-004 -4.170608e-004 -4.034457e-004 -2.956506e-004 -2.140986e-004 -3.796971e-005 -3.607398e-004 -7.583919e-005 3.587950e-004
<VARIANCE> 39
 4.810850e+001 2.026185e+001 7.236539e+001 3.827062e+001 5.230968e+001 6.377209e+001 5.948811e+001 6.463850e+001 3.699836e+001 4.134683e+001 3.602301e+001 2.320465e+001 5.712511e+001 1.265120e+000 7.587057e-001 1.143345e+000 1.440705e+000 2.034774e+000 2.207997e+000 2.315436e+000 2.003602e+000 1.724750e+000 1.541757e+000 1.857182e+000 1.328372e+000 8.790101e-001 2.340833e-001 1.355707e-001 1.940617e-001 2.618470e-001 3.826574e-001 3.976171e-001 4.617851e-001 3.857619e-001 3.288664e-001 2.997001e-001 3.212923e-001 2.502842e-001 1.315293e-001
<GCONST> 1.093026e+002
<STATE> 3
<MEAN> 39
 -7.246249e+000 -1.841131e+000 -1.326223e+000 -1.047643e+000 -3.643268e+000 1.340765e+000 -5.044757e+000 -8.612052e-001 -5.182382e+000 -3.076180e+000 -2.171226e+000 -2.814964e+000 6.589813e+001 -8.327346e-003 2.678690e-003 3.720196e-002 3.155258e-002 1.865669e-002 -1.511416e-002 -1.930849e-002 -7.245938e-003 -8.570064e-003 -9.053692e-004 -1.303025e-002 -7.837260e-003 -5.476115e-004 2.356416e-004 2.076761e-004 5.355168e-004 2.454735e-004 7.213808e-006 -2.411534e-004 -3.369617e-004 -1.852074e-004 -1.715059e-004 -8.392280e-005 -2.109724e-004 -1.458113e-004 2.502380e-004
<VARIANCE> 39
 4.761203e+001 2.028695e+001 7.576899e+001 3.805099e+001 5.281985e+001 6.603638e+001 6.029593e+001 6.427506e+001 3.696733e+001 4.047523e+001 3.644468e+001 2.309139e+001 5.665839e+001 1.264013e+000 7.800553e-001 1.168862e+000 1.478264e+000 2.123342e+000 2.322855e+000 2.361207e+000 1.984526e+000 1.699339e+000 1.543243e+000 1.868549e+000 1.346163e+000 8.886926e-001 2.344115e-001 1.401302e-001 1.969585e-001 2.706523e-001 4.018238e-001 4.212068e-001 4.727456e-001 3.840203e-001 3.251020e-001 3.009987e-001 3.217287e-001 2.561918e-001 1.344571e-001
<GCONST> 1.098043e+002
<STATE> 4
<MEAN> 39
 -7.550560e+000 -1.908491e+000 -2.126350e+000 -8.011764e-001 -2.481587e+000 7.613045e-001 -4.387331e+000 -2.255337e+000 -6.226081e+000 -3.663903e+000 -2.921186e+000 -2.689070e+000 6.609375e+001 -5.461607e-003 2.995600e-003 3.542876e-002 2.818868e-002 1.388156e-002 -2.003267e-002 -1.955293e-002 -8.020269e-003 -1.183842e-002 2.098182e-003 -1.156389e-002 -7.630609e-003 2.276626e-003 1.960947e-004 1.359728e-004 1.471569e-004 9.543430e-005 -1.947990e-004 -1.490528e-004 -2.191873e-004 -9.255316e-005 -1.129254e-004 -6.361451e-005 1.346840e-005 -1.504912e-004 1.263225e-004
<VARIANCE> 39
 3.766771e+001 2.097638e+001 6.681364e+001 3.348887e+001 4.398809e+001 5.781753e+001 5.005019e+001 5.157440e+001 3.842072e+001 3.444173e+001 2.962625e+001 2.024145e+001 5.334878e+001 9.718080e-001 6.904627e-001 1.047156e+000 1.323043e+000 1.685313e+000 1.952806e+000 1.991825e+000 1.538368e+000 1.451117e+000 1.328026e+000 1.574280e+000 1.181340e+000 7.517726e-001 1.790452e-001 1.204530e-001 1.758508e-001 2.440803e-001 3.240359e-001 3.501154e-001 3.974996e-001 2.959319e-001 2.713105e-001 2.642632e-001 2.793604e-001 2.297074e-001 1.089110e-001
<GCONST> 1.036498e+002
<TRANSP> 5
 0.000000e+000 1.000000e+000 0.000000e+000 0.000000e+000 0.000000e+000
 0.000000e+000 8.349177e-001 1.650822e-001 0.000000e+000 0.000000e+000
 0.000000e+000 0.000000e+000 8.349178e-001 1.650821e-001 0.000000e+000
 0.000000e+000 0.000000e+000 0.000000e+000 9.767886e-001 2.321134e-002
 0.000000e+000 0.000000e+000 0.000000e+000 0.000000e+000 0.000000e+000
<ENDHMM>
~h "is"
<BEGINHMM>
<NUMSTATES> 5
<STATE> 2
<MEAN> 39
 -7.519404e+000 -1.696585e+000 4.288760e-001 3.497280e-001 -2.956864e+000 3.389741e-001 -6.014750e+000 -1.257539e+000 -5.772993e+000 -2.966252e+000 -2.741816e+000 -3.195149e+000 6.601143e+001 1.189692e-003 9.335627e-003 4.527191e-002 3.665001e-002 9.706706e-003 -2.298816e-002 -3.046917e-002 -1.209187e-002 -1.426566e-002 -3.898753e-003 -1.295942e-002 -1.509798e-002 5.990951e-003 -4.296598e-005 1.785539e-004 -1.533774e-003 -5.794122e-004 -1.273264e-003 8.971371e-004 1.984649e-004 4.527786e-004 2.545468e-004 -2.133498e-004 9.052783e-004 -2.247424e-004 -8.139887e-004
<VARIANCE> 39
 4.403843e+001 2.001029e+001 9.425333e+001 3.610808e+001 5.565279e+001 9.021259e+001 6.401195e+001 6.609644e+001 3.975719e+001 3.384357e+001 3.757273e+001 2.315756e+001 5.444997e+001 1.322055e+000 9.295835e-001 1.366651e+000 1.820817e+000 2.671506e+000 3.092398e+000 2.599805e+000 1.904335e+000 1.592989e+000 1.593946e+000 1.854175e+000 1.465905e+000 9.439831e-001 2.475646e-001 1.753157e-001 2.208056e-001 3.461218e-001 5.197286e-001 5.662327e-001 5.283534e-001 3.725536e-001 3.088378e-001 3.182222e-001 3.086592e-001 2.925298e-001 1.488642e-001
<GCONST> 1.129494e+002
<STATE> 3
<MEAN> 39
 -7.511373e+000 -1.642059e+000 6.940374e-001 5.660110e-001 -2.904378e+000 1.953607e-001 -6.196435e+000 -1.330115e+000 -5.861769e+000 -2.985078e+000 -2.814809e+000 -3.285795e+000 6.604788e+001 8.650593e-004 1.023691e-002 3.613913e-002 3.305802e-002 2.247014e-003 -1.763742e-002 -2.929006e-002 -9.465659e-003 -1.273585e-002 -5.163560e-003 -7.636104e-003 -1.622657e-002 1.172095e-003 -1.283880e-004 1.768790e-005 -1.756225e-003 -6.943033e-004 -1.365994e-003 9.311993e-004 2.022635e-004 4.631560e-004 2.428206e-004 -1.536452e-004 9.883427e-004 -1.271967e-004 -9.078422e-004
<VARIANCE> 39
 4.345450e+001 2.007924e+001 9.564733e+001 3.548576e+001 5.610106e+001 9.473752e+001 6.440553e+001 6.670569e+001 4.012248e+001 3.271294e+001 3.749859e+001 2.337913e+001 5.431007e+001 1.330496e+000 9.527460e-001 1.367803e+000 1.855680e+000 2.753187e+000 3.223882e+000 2.611885e+000 1.878954e+000 1.566090e+000 1.594882e+000 1.821882e+000 1.481641e+000 9.435409e-001 2.494592e-001 1.813096e-001 2.198569e-001 3.541047e-001 5.369163e-001 5.906717e-001 5.326247e-001 3.679750e-001 3.027742e-001 3.196747e-001 3.010657e-001 2.971551e-001 1.490231e-001
<GCONST> 1.131859e+002
<STATE> 4
<MEAN> 39
 -7.741225e+000 -1.756722e+000 -1.410921e-001 7.256525e-001 -1.972146e+000 -7.115262e-001 -5.672448e+000 -2.760362e+000 -7.064360e+000 -3.453193e+000 -3.449404e+000 -3.160911e+000 6.635410e+001 4.992916e-005 6.832161e-003 2.523400e-002 2.519069e-002 -2.612402e-003 -1.917467e-002 -2.587336e-002 -7.768752e-003 -1.219364e-002 -1.153118e-003 -2.092502e-003 -1.238217e-002 -8.669607e-005 -2.274334e-004 -4.489070e-005 -1.373168e-003 -5.932405e-004 -8.278306e-004 8.938775e-004 2.331350e-004 3.943301e-004 3.654660e-004 -1.068765e-004 6.617942e-004 1.305859e-004 -7.945444e-004
<VARIANCE> 39
 3.453770e+001 2.005275e+001 8.118016e+001 3.233066e+001 4.564369e+001 8.917560e+001 5.282352e+001 5.648877e+001 4.313843e+001 2.742028e+001 2.868611e+001 2.126886e+001 5.230894e+001 1.095265e+000 8.346153e-001 1.269246e+000 1.730792e+000 2.125844e+000 2.628789e+000 2.102146e+000 1.498728e+000 1.411790e+000 1.398241e+000 1.485861e+000 1.260500e+000 7.933962e-001 2.042616e-001 1.570376e-001 2.041447e-001 3.310129e-001 4.197921e-001 4.640689e-001 4.221968e-001 2.848980e-001 2.641428e-001 2.843449e-001 2.568589e-001 2.523252e-001 1.185010e-001
<GCONST> 1.071452e+002
<TRANSP> 5
 0.000000e+000 1.000000e+000 0.000000e+000 0.000000e+000 0.000000e+000
 0.000000e+000 8.348990e-001 1.651010e-001 0.000000e+000 0.000000e+000
 0.000000e+000 0.000000e+000 8.348989e-001 1.651011e-001 0.000000e+000
 0.000000e+000 0.000000e+000 0.000000e+000 9.767243e-001 2.327578e-002
 0.000000e+000 0.000000e+000 0.000000e+000 0.000000e+000 0.000000e+000
<ENDHMM>
~h "kh"
<BEGINHMM>
<NUMSTATES> 5
<STATE> 2
<MEAN> 39
 -1.139308e+001 -2.752042e+000 -4.118962e-001 -5.421881e+000 -2.064316e+000 2.030338e+000 -2.387986e+000 4.095810e-001 -6.053896e+000 -1.024397e+000 -2.106975e+000 -7.260846e-001 6.429552e+001 1.466643e-001 -4.984829e-002 1.693566e-002 -3.297442e-002 -3.737179e-002 -1.114217e-001 5.515791e-002 -1.307152e-002 -4.691647e-002 -2.574343e-002 1.982885e-002 -2.936097e-003 1.952826e-001 2.257356e-003 1.789206e-003 -1.719580e-003 2.000271e-003 -8.939565e-004 -4.408659e-003 -2.271345e-003 -2.010313e-004 -4.208121e-004 1.027472e-004 2.639792e-003 -2.537766e-003 8.568904e-004
<VARIANCE> 39
 7.712218e+001 3.673511e+001 5.638786e+001 6.300717e+001 4.838242e+001 5.963296e+001 3.667196e+001 6.366539e+001 3.051325e+001 2.972511e+001 2.664275e+001 3.565995e+001 1.376210e+002 1.274633e+000 9.109827e-001 1.458698e+000 1.679065e+000 1.906453e+000 1.964990e+000 2.062235e+000 2.476343e+000 1.667834e+000 2.016705e+000 1.454924e+000 1.770246e+000 1.222986e+000 2.116541e-001 1.550445e-001 2.882882e-001 2.843710e-001 3.498519e-001 3.490095e-001 3.850814e-001 4.731108e-001 3.335107e-001 4.205685e-001 2.833461e-001 3.748190e-001 1.469225e-001
<GCONST> 1.126246e+002
<STATE> 3
<MEAN> 39
 -1.048141e+001 -2.997441e+000 -3.687005e-001 -5.523101e+000 -2.315040e+000 1.283868e+000 -2.094446e+000 3.423204e-001 -6.278243e+000 -1.239186e+000 -1.939289e+000 -8.205913e-001 6.545531e+001 1.492641e-001 -3.569030e-002 6.417577e-003 -1.535958e-002 -4.119248e-002 -1.264851e-001 4.624607e-002 -7.206069e-003 -3.369262e-002 -3.526954e-002 2.787941e-002 -1.635698e-002 1.870809e-001 3.729626e-004 2.282805e-003 -1.656032e-003 3.195169e-003 -8.082406e-004 -2.257047e-003 -1.413945e-003 1.011641e-003 2.541333e-003 -1.695631e-003 1.265248e-003 -2.344560e-003 -1.418834e-003
<VARIANCE> 39
 6.871916e+001 3.203580e+001 5.700954e+001 6.561001e+001 5.096381e+001 5.963816e+001 3.642974e+001 6.885233e+001 3.143163e+001 3.148502e+001 2.801473e+001 3.751132e+001 1.171054e+002 1.225676e+000 9.231883e-001 1.440503e+000 1.577467e+000 1.704796e+000 1.886351e+000 2.105549e+000 2.551423e+000 1.731702e+000 1.922945e+000 1.551543e+000 1.750630e+000 1.175782e+000 1.975279e-001 1.580733e-001 2.789695e-001 2.569118e-001 3.036022e-001 3.252101e-001 3.837804e-001 4.792270e-001 3.407495e-001 3.882081e-001 2.986240e-001 3.651716e-001 1.359806e-001
<GCONST> 1.118785e+002
<STATE> 4
<MEAN> 39
 -7.677370e+000 -2.699314e+000 -7.993826e-001 -3.531525e+000 -3.211303e+000 -8.570012e-001 -9.826717e-001 -6.101565e-001 -6.996607e+000 -2.568420e+000 -2.137346e+000 -1.471257e+000 6.766053e+001 6.410546e-002 1.544396e-002 1.116290e-002 2.734793e-002 -1.947705e-002 -5.074161e-002 1.147403e-002 1.385984e-002 1.007952e-002 -1.580110e-002 1.532664e-003 -5.422005e-003 4.828624e-002 -1.597549e-003 1.273353e-003 2.351759e-004 1.298250e-003 3.561658e-004 1.800271e-003 -8.972309e-004 4.181515e-004 1.157937e-003 5.184857e-004 -6.388932e-004 8.945011e-005 -2.990677e-003
<VARIANCE> 39
 4.935241e+001 2.573002e+001 4.812604e+001 5.077757e+001 5.451524e+001 6.012262e+001 3.568378e+001 6.353074e+001 3.253628e+001 2.968451e+001 2.543773e+001 2.866877e+001 6.378591e+001 8.414678e-001 7.561681e-001 9.602507e-001 1.232503e+000 1.334660e+000 1.679964e+000 2.056646e+000 2.016735e+000 1.647234e+000 1.533559e+000 1.544136e+000 1.463603e+000 7.563976e-001 1.215783e-001 1.241947e-001 1.751100e-001 1.924894e-001 2.295530e-001 2.710456e-001 3.624268e-001 3.613952e-001 3.225755e-001 2.963479e-001 2.832692e-001 3.043255e-001 9.688243e-002
<GCONST> 1.039502e+002
<TRANSP> 5
 0.000000e+000 1.000000e+000 0.000000e+000 0.000000e+000 0.000000e+000
 0.000000e+000 8.350762e-001 1.649239e-001 0.000000e+000 0.000000e+000
 0.000000e+000 0.000000e+000 8.350760e-001 1.649240e-001 0.000000e+000
 0.000000e+000 0.000000e+000 0.000000e+000 9.771379e-001 2.286213e-002
 0.000000e+000 0.000000e+000 0.000000e+000 0.000000e+000 0.000000e+000
<ENDHMM>
~h "ng"
<BEGINHMM>
<NUMSTATES> 5
<STATE> 2
<MEAN> 39
 -6.647638e+000 -1.149668e+000 8.587014e-001 -2.469441e+000 -3.486140e+000 -9.206755e-001 -2.204816e+000 1.373103e+000 -4.758812e+000 -1.739218e+000 -1.681347e+000 -1.299535e+000 6.749036e+001 -1.381041e-003 1.702580e-002 9.361217e-003 3.839405e-002 -3.950917e-003 2.786759e-002 -1.757905e-002 1.828245e-003 1.588856e-002 9.049132e-003 8.701498e-003 -1.153533e-002 -2.151527e-002 -1.542588e-003 -5.336623e-004 -5.475845e-004 -6.399744e-004 1.331885e-004 7.287750e-004 -1.336819e-004 -1.653602e-004 -2.810789e-004 -4.412413e-005 5.477162e-004 3.691106e-006 -9.965547e-004
<VARIANCE> 39
 4.823370e+001 3.034128e+001 7.014384e+001 3.802434e+001 7.153419e+001 7.536646e+001 4.744399e+001 6.361324e+001 2.848695e+001 3.852854e+001 2.987984e+001 2.336798e+001 5.150988e+001 9.593847e-001 9.098121e-001 9.094388e-001 1.386948e+000 1.885547e+000 2.188569e+000 2.749514e+000 1.873349e+000 1.773786e+000 1.571860e+000 1.835853e+000 1.383114e+000 1.185987e+000 1.571857e-001 1.447552e-001 1.588955e-001 2.515440e-001 3.446909e-001 3.647136e-001 5.047886e-001 3.282893e-001 3.560403e-001 3.009987e-001 3.214139e-001 2.791384e-001 2.274010e-001
<GCONST> 1.092319e+002
<STATE> 3
<MEAN> 39
 -6.696591e+000 -1.065948e+000 8.941399e-001 -2.273599e+000 -3.505853e+000 -7.548771e-001 -2.311172e+000 1.381386e+000 -4.667291e+000 -1.692522e+000 -1.613109e+000 -1.362882e+000 6.734517e+001 -9.526275e-003 1.339433e-002 5.367057e-003 3.369730e-002 -3.943540e-003 2.975405e-002 -1.784954e-002 9.388931e-004 1.473444e-002 7.768290e-003 1.203896e-002 -1.157399e-002 -2.588229e-002 -1.383916e-003 -6.357651e-004 -7.036825e-004 -8.405501e-004 -3.919352e-005 2.548843e-004 -1.757417e-005 -1.337335e-004 -1.878409e-004 -2.531884e-004 5.746636e-004 1.314175e-005 -7.289371e-004
<VARIANCE> 39
 4.746312e+001 3.083924e+001 7.075346e+001 3.505072e+001 7.211465e+001 7.591211e+001 4.670161e+001 6.251228e+001 2.807428e+001 3.848326e+001 3.006547e+001 2.291026e+001 5.046646e+001 9.665532e-001 9.252073e-001 8.885441e-001 1.382485e+000 1.927009e+000 2.194649e+000 2.711813e+000 1.809345e+000 1.743613e+000 1.540920e+000 1.814267e+000 1.368671e+000 1.243715e+000 1.600668e-001 1.473665e-001 1.554113e-001 2.543813e-001 3.547523e-001 3.704300e-001 5.047376e-001 3.180800e-001 3.496581e-001 2.957957e-001 3.183387e-001 2.747057e-001 2.448658e-001
<GCONST> 1.091040e+002
<STATE> 4
<MEAN> 39
 -7.519816e+000 -1.483749e+000 -1.576299e-001 -1.897574e+000 -3.069293e+000 -1.128462e+000 -2.276156e+000 -1.322738e-001 -5.213801e+000 -2.273779e+000 -1.697738e+000 -1.402499e+000 6.708757e+001 -1.712822e-002 -1.574273e-003 -5.325927e-003 6.567799e-003 1.066107e-003 1.006105e-002 -1.408971e-002 -3.159354e-003 1.040293e-002 2.201093e-003 8.027276e-003 -3.785715e-003 -1.528755e-002 -3.109825e-004 -3.943701e-004 -3.228194e-004 -5.863679e-004 -5.180794e-005 -3.402786e-004 7.026763e-005 -1.187150e-004 -1.280177e-004 -1.634700e-004 -1.122742e-005 1.184625e-004 7.780585e-005
<VARIANCE> 39
 3.859796e+001 2.742714e+001 5.528989e+001 2.519879e+001 6.285087e+001 7.233459e+001 3.325813e+001 4.810395e+001 2.792062e+001 3.115337e+001 2.774386e+001 2.025322e+001 4.823288e+001 7.715757e-001 7.568510e-001 7.144103e-001 1.117067e+000 1.579004e+000 1.807331e+000 1.971740e+000 1.424108e+000 1.438910e+000 1.271990e+000 1.492569e+000 1.173802e+000 1.001243e+000 1.266082e-001 1.238274e-001 1.279500e-001 2.078772e-001 2.951766e-001 3.119428e-001 3.845538e-001 2.614766e-001 2.887879e-001 2.473218e-001 2.736506e-001 2.341646e-001 1.999911e-001
<GCONST> 1.016799e+002
<TRANSP> 5
 0.000000e+000 1.000000e+000 0.000000e+000 0.000000e+000 0.000000e+000
 0.000000e+000 8.350762e-001 1.649238e-001 0.000000e+000 0.000000e+000
 0.000000e+000 0.000000e+000 8.350759e-001 1.649241e-001 0.000000e+000
 0.000000e+000 0.000000e+000 0.000000e+000 9.771373e-001 2.286273e-002
 0.000000e+000 0.000000e+000 0.000000e+000 0.000000e+000 0.000000e+000
<ENDHMM>
~h "oo"
<BEGINHMM>
<NUMSTATES> 5
<STATE> 2
<MEAN> 39
 -7.266881e+000 -2.221649e+000 2.026643e-001 -4.136080e+000 -3.286049e+000 -1.235178e+000 -1.517330e+000 1.029038e+000 -5.776231e+000 -2.024877e+000 -1.871516e+000 -1.085409e+000 6.786882e+001 6.760228e-002 2.831625e-002 1.828643e-002 4.786127e-002 -2.171025e-002 -3.591970e-002 1.282430e-003 1.395018e-002 2.285746e-002 -8.121000e-003 -3.983071e-003 -1.096937e-002 3.627603e-002 -1.634248e-003 8.134199e-004 5.356626e-004 1.361051e-003 6.287980e-004 2.922073e-003 -8.352360e-004 -2.403629e-004 6.219532e-004 9.259002e-004 -7.744780e-004 1.697697e-004 -2.798215e-003
<VARIANCE> 39
 5.403731e+001 2.750895e+001 6.158651e+001 5.921448e+001 6.208845e+001 6.795367e+001 4.629240e+001 7.242720e+001 3.327992e+001 3.646095e+001 2.779532e+001 3.061247e+001 6.465955e+001 9.722420e-001 8.497580e-001 1.061845e+000 1.387522e+000 1.628354e+000 2.116529e+000 2.719675e+000 2.365256e+000 1.980553e+000 1.790356e+000 1.844380e+000 1.573704e+000 9.507085e-001 1.509530e-001 1.401769e-001 1.898599e-001 2.227750e-001 2.832730e-001 3.360591e-001 4.754244e-001 4.213391e-001 3.938771e-001 3.414992e-001 3.308347e-001 3.264357e-001 1.427083e-001
<GCONST> 1.100836e+002
<STATE> 3
<MEAN> 39
 -6.929802e+000 -2.035926e+000 3.287325e-001 -3.834179e+000 -3.387329e+000 -1.363863e+000 -1.529553e+000 1.107508e+000 -5.637022e+000 -2.040868e+000 -1.912328e+000 -1.133131e+000 6.799877e+001 5.635784e-002 3.166049e-002 2.181336e-002 5.293979e-002 -1.670202e-002 -1.824491e-002 -3.323876e-003 1.220747e-002 2.383283e-002 -1.268180e-003 -7.177928e-003 -9.283634e-003 2.056668e-002 -1.886399e-003 4.908995e-004 5.926672e-004 8.376047e-004 8.668965e-004 3.046138e-003 -7.576003e-004 -3.367473e-004 5.323082e-005 1.170549e-003 -5.127383e-004 2.670349e-004 -2.591347e-003
<VARIANCE> 39
 5.310121e+001 2.789667e+001 6.337952e+001 5.634687e+001 6.381098e+001 6.949585e+001 4.816431e+001 7.196697e+001 3.303225e+001 3.712216e+001 2.803811e+001 2.916360e+001 6.112803e+001 9.627386e-001 8.594832e-001 1.043752e+000 1.391654e+000 1.663523e+000 2.156317e+000 2.810709e+000 2.306662e+000 1.984066e+000 1.770654e+000 1.879562e+000 1.551357e+000 9.599958e-001 1.494772e-001 1.401017e-001 1.850832e-001 2.265538e-001 2.905224e-001 3.413077e-001 4.907410e-001 4.069512e-001 3.959557e-001 3.364138e-001 3.336269e-001 3.216647e-001 1.503757e-001
<GCONST> 1.101519e+002
<STATE> 4
<MEAN> 39
 -6.924471e+000 -1.650809e+000 -1.330109e-001 -2.336522e+000 -3.359951e+000 -1.445434e+000 -1.454269e+000 -6.473967e-002 -5.956136e+000 -2.485467e+000 -2.012706e+000 -1.364281e+000 6.766177e+001 6.035275e-003 1.772156e-002 1.068208e-002 2.744743e-002 -1.998773e-003 8.901921e-003 -1.339317e-002 5.202015e-003 1.747400e-002 6.112927e-003 4.381288e-003 -3.443461e-003 -9.889089e-003 -1.151791e-003 -2.905023e-004 -2.400005e-004 -2.787034e-004 2.620057e-004 9.421203e-004 -2.858421e-004 -2.099499e-004 -1.683563e-004 2.156033e-004 3.138997e-004 -4.308296e-005 -8.454708e-004
<VARIANCE> 39
 4.281964e+001 2.614305e+001 5.365937e+001 3.589879e+001 6.243137e+001 6.565359e+001 3.743425e+001 5.650249e+001 2.921150e+001 3.144342e+001 2.629984e+001 2.124476e+001 4.731285e+001 7.554536e-001 7.109178e-001 7.659528e-001 1.189890e+000 1.465395e+000 1.732409e+000 2.133753e+000 1.642441e+000 1.514486e+000 1.363938e+000 1.564021e+000 1.243282e+000 7.874302e-001 1.144251e-001 1.115854e-001 1.351014e-001 2.056256e-001 2.634960e-001 2.842985e-001 3.858142e-001 2.889892e-001 3.022083e-001 2.638506e-001 2.781404e-001 2.541257e-001 1.357685e-001
<GCONST> 1.019597e+002
<TRANSP> 5
 0.000000e+000 1.000000e+000 0.000000e+000 0.000000e+000 0.000000e+000
 0.000000e+000 8.350760e-001 1.649240e-001 0.000000e+000 0.000000e+000
 0.000000e+000 0.000000e+000 8.350761e-001 1.649239e-001 0.000000e+000
 0.000000e+000 0.000000e+000 0.000000e+000 9.771379e-001 2.286213e-002
 0.000000e+000 0.000000e+000 0.000000e+000 0.000000e+000 0.000000e+000
<ENDHMM>
~h "ary"
<BEGINHMM>
<NUMSTATES> 5
<STATE> 2
<MEAN> 39
 -7.113411e+000 -1.366778e+000 -4.773374e-001 -2.273224e+000 -4.916121e+000 -4.995847e-002 -5.135316e+000 -5.388822e-001 -5.227341e+000 -1.835947e+000 -1.841039e+000 -1.846947e+000 6.636335e+001 -1.613095e-003 -2.685332e-003 -4.157272e-003 7.926823e-003 1.076898e-002 3.629046e-003 -4.360609e-003 -4.406921e-003 -2.195515e-003 -1.222715e-003 -8.106495e-004 -2.567465e-003 -1.364152e-003 -1.934804e-006 -7.004560e-005 -5.117478e-005 -5.491217e-005 7.230131e-005 8.355021e-005 1.936127e-004 5.188114e-005 1.432442e-004 -4.771431e-005 -3.001005e-005 2.123171e-006 5.914737e-005
<VARIANCE> 39
 4.705280e+001 2.548984e+001 6.591518e+001 3.675081e+001 6.033932e+001 7.928807e+001 5.784593e+001 5.453278e+001 4.243391e+001 4.184074e+001 3.180376e+001 2.328222e+001 6.091390e+001 9.820529e-001 1.014836e+000 1.109325e+000 1.239666e+000 1.522439e+000 1.852387e+000 1.979656e+000 2.088517e+000 2.017073e+000 1.818581e+000 1.634040e+000 1.276958e+000 6.884453e-001 1.436118e-001 1.655125e-001 1.550017e-001 2.138929e-001 2.577842e-001 3.231117e-001 3.808266e-001 4.001041e-001 3.617085e-001 3.474560e-001 2.985638e-001 2.343190e-001 9.489545e-002
<GCONST> 1.071192e+002
<STATE> 3
<MEAN> 39
 -7.123096e+000 -1.383193e+000 -5.018924e-001 -2.225164e+000 -4.852108e+000 -2.838469e-002 -5.159719e+000 -5.650548e-001 -5.239464e+000 -1.843933e+000 -1.846573e+000 -1.863371e+000 6.635539e+001 -1.591782e-003 -3.080304e-003 -4.490864e-003 7.550507e-003 1.108848e-002 4.166415e-003 -3.239949e-003 -4.123682e-003 -1.381765e-003 -1.576406e-003 -9.509762e-004 -2.547921e-003 -1.019650e-003 1.599274e-005 -6.143541e-005 -6.432221e-005 -7.477849e-005 2.170777e-005 7.871485e-005 1.946855e-004 5.651596e-005 1.419820e-004 -7.277902e-005 -2.016523e-005 -1.937984e-006 6.023156e-005
<VARIANCE> 39
 4.666615e+001 2.493769e+001 6.566492e+001 3.647050e+001 6.026006e+001 7.891740e+001 5.799304e+001 5.519131e+001 4.275259e+001 4.175838e+001 3.181062e+001 2.325859e+001 6.098274e+001 9.820513e-001 9.973409e-001 1.103773e+000 1.246615e+000 1.524626e+000 1.839644e+000 1.997513e+000 2.127708e+000 2.042154e+000 1.818388e+000 1.633945e+000 1.283291e+000 6.961538e-001 1.452894e-001 1.634782e-001 1.558187e-001 2.151950e-001 2.588611e-001 3.202188e-001 3.846582e-001 4.081878e-001 3.665687e-001 3.473984e-001 2.972125e-001 2.349139e-001 9.628249e-002
<GCONST> 1.071869e+002
<STATE> 4
<MEAN> 39
 -7.399367e+000 -1.588904e+000 -1.546842e+000 -1.899919e+000 -3.486380e+000 -5.732113e-001 -4.405852e+000 -1.653083e+000 -5.811162e+000 -2.351055e+000 -2.531662e+000 -1.811844e+000 6.660522e+001 -9.139939e-004 -2.627961e-003 -3.958792e-003 6.412406e-003 8.575889e-003 4.202635e-003 -1.485705e-003 -3.825807e-003 -6.756392e-004 -2.540964e-003 -1.166543e-003 -3.228389e-003 -7.178373e-004 4.533783e-005 -3.519441e-005 -7.368089e-005 -9.822968e-005 -4.102697e-005 7.103451e-005 1.385467e-004 4.113761e-005 8.743091e-005 -7.264886e-005 -6.920151e-006 -4.256433e-006 4.765590e-005
<VARIANCE> 39
 3.771460e+001 2.370370e+001 5.261151e+001 3.432389e+001 5.571453e+001 7.557203e+001 4.503434e+001 4.335257e+001 4.244704e+001 3.654460e+001 2.856057e+001 2.010919e+001 5.978880e+001 7.720453e-001 9.070132e-001 9.796599e-001 1.107589e+000 1.313067e+000 1.599545e+000 1.660279e+000 1.774085e+000 1.773942e+000 1.519825e+000 1.404702e+000 1.123761e+000 6.164438e-001 1.147478e-001 1.480892e-001 1.406208e-001 1.888652e-001 2.257686e-001 2.686152e-001 3.194959e-001 3.436824e-001 3.105346e-001 2.835032e-001 2.598932e-001 2.091311e-001 8.122607e-002
<GCONST> 1.016289e+002
<TRANSP> 5
 0.000000e+000 1.000000e+000 0.000000e+000 0.000000e+000 0.000000e+000
 0.000000e+000 8.349732e-001 1.650268e-001 0.000000e+000 0.000000e+000
 0.000000e+000 0.000000e+000 8.349734e-001 1.650265e-001 0.000000e+000
 0.000000e+000 0.000000e+000 0.000000e+000 9.769416e-001 2.305836e-002
 0.000000e+000 0.000000e+000 0.000000e+000 0.000000e+000 0.000000e+000
<ENDHMM>
~h "asu"
<BEGINHMM>
<NUMSTATES> 5
<STATE> 2
<MEAN> 39
 -7.216169e+000 -1.271916e+000 -3.504263e-001 -2.715463e+000 -4.844817e+000 4.198590e-001 -4.199855e+000 -2.502112e-001 -4.716552e+000 -1.897927e+000 -1.897268e+000 -1.676276e+000 6.642814e+001 3.435349e-003 -2.053789e-003 -3.486054e-004 -2.738096e-003 -1.240267e-002 -6.975050e-003 -1.209964e-002 -5.725677e-004 -7.901809e-003 5.173243e-004 1.439830e-003 1.611188e-003 1.410097e-004 -6.221134e-005 6.079540e-005 -7.182066e-005 1.779927e-004 2.943809e-004 8.450984e-005 8.062660e-006 -6.399639e-005 1.564211e-005 2.240497e-006 1.329156e-005 -7.177523e-005 -7.051656e-005
<VARIANCE> 39
 5.304951e+001 3.156369e+001 6.601626e+001 4.072223e+001 6.104868e+001 7.513520e+001 5.285506e+001 5.147773e+001 3.639386e+001 4.074117e+001 3.195012e+001 2.378749e+001 5.836229e+001 1.069035e+000 1.139389e+000 1.163504e+000 1.150485e+000 1.547602e+000 2.070509e+000 1.882717e+000 1.807216e+000 1.698166e+000 1.764521e+000 1.636823e+000 1.246277e+000 6.264356e-001 1.469336e-001 1.796395e-001 1.498125e-001 1.969582e-001 2.536198e-001 3.714070e-001 3.520757e-001 3.277043e-001 3.124550e-001 3.417115e-001 3.166940e-001 2.288611e-001 8.329263e-002
<GCONST> 1.065323e+002
<STATE> 3
<MEAN> 39
 -7.197376e+000 -1.282898e+000 -3.536497e-001 -2.729650e+000 -4.913610e+000 3.779366e-001 -4.269961e+000 -2.543901e-001 -4.761100e+000 -1.894698e+000 -1.888681e+000 -1.668043e+000 6.642847e+001 3.023904e-003 -1.748406e-003 -7.508358e-004 -1.760137e-003 -1.071450e-002 -6.486604e-003 -1.195003e-002 -9.637579e-004 -7.737414e-003 5.473282e-004 1.524988e-003 1.159845e-003 -2.151835e-004 -7.845490e-005 4.668867e-005 -6.497572e-005 1.555437e-004 3.022330e-004 9.444013e-005 4.229142e-005 -6.939549e-005 4.401884e-005 5.949550e-006 1.463820e-005 -7.041488e-005 -5.619284e-005
<VARIANCE> 39
 5.285205e+001 3.144257e+001 6.644637e+001 4.071669e+001 6.123006e+001 7.525817e+001 5.344551e+001 5.136726e+001 3.664178e+001 4.097433e+001 3.198300e+001 2.368493e+001 5.857716e+001 1.069299e+000 1.140281e+000 1.167390e+000 1.154831e+000 1.542829e+000 2.048386e+000 1.882562e+000 1.810667e+000 1.711782e+000 1.770888e+000 1.634625e+000 1.241629e+000 6.253723e-001 1.469952e-001 1.797235e-001 1.503091e-001 1.979005e-001 2.527657e-001 3.675200e-001 3.528522e-001 3.298821e-001 3.143203e-001 3.426290e-001 3.150644e-001 2.284073e-001 8.317626e-002
<GCONST> 1.065625e+002
<STATE> 4
<MEAN> 39
 -7.431517e+000 -1.533233e+000 -1.511077e+000 -2.587402e+000 -3.790349e+000 -1.855289e-001 -3.668370e+000 -1.302180e+000 -5.492358e+000 -2.434116e+000 -2.510384e+000 -1.495676e+000 6.665193e+001 1.805819e-003 -6.495556e-004 -6.127272e-004 1.229239e-003 -4.789722e-003 -6.467585e-003 -9.077470e-003 -1.494684e-003 -4.880383e-003 9.372613e-004 9.097774e-004 -5.970459e-004 -2.065925e-005 -4.739515e-005 1.571394e-005 -3.500297e-005 1.402047e-004 2.297432e-004 8.015412e-005 3.027358e-005 -5.071040e-005 2.472279e-005 -5.617328e-006 -7.192390e-006 -5.781718e-005 -3.038023e-005
<VARIANCE> 39
 4.359819e+001 2.975093e+001 5.513483e+001 3.987811e+001 6.003703e+001 6.939802e+001 4.198235e+001 4.033942e+001 3.726166e+001 3.523817e+001 2.941978e+001 1.966998e+001 5.793581e+001 8.741935e-001 1.049292e+000 1.072853e+000 1.074110e+000 1.326137e+000 1.671073e+000 1.583577e+000 1.558937e+000 1.513106e+000 1.499672e+000 1.393609e+000 1.076345e+000 5.319306e-001 1.185158e-001 1.657482e-001 1.376351e-001 1.840353e-001 2.162946e-001 2.923506e-001 2.983385e-001 2.915299e-001 2.711274e-001 2.834763e-001 2.712356e-001 2.020095e-001 6.706636e-002
<GCONST> 1.012779e+002
<TRANSP> 5
 0.000000e+000 1.000000e+000 0.000000e+000 0.000000e+000 0.000000e+000
 0.000000e+000 8.349949e-001 1.650051e-001 0.000000e+000 0.000000e+000
 0.000000e+000 0.000000e+000 8.349952e-001 1.650049e-001 0.000000e+000
 0.000000e+000 0.000000e+000 0.000000e+000 9.769902e-001 2.300989e-002
 0.000000e+000 0.000000e+000 0.000000e+000 0.000000e+000 0.000000e+000
<ENDHMM>
~h "ooj"
<BEGINHMM>
<NUMSTATES> 5
<STATE> 2
<MEAN> 39
 -8.385271e+000 -1.727190e+000 1.706357e-001 -2.257344e+000 -3.280607e+000 -1.918809e-001 -3.500118e+000 7.706356e-001 -3.952772e+000 -1.331564e+000 -1.188254e+000 -1.433012e+000 6.633175e+001 -1.399711e-002 -1.229989e-002 -7.040348e-003 -1.317802e-002 3.311453e-005 -5.004399e-003 -5.808734e-003 -1.030545e-002 -1.227665e-004 6.023485e-003 -3.308517e-003 7.016516e-003 -5.697784e-004 3.643641e-004 1.471530e-005 2.644265e-004 -3.147869e-004 2.994803e-004 -3.825955e-004 2.356624e-004 -9.967186e-005 -1.334540e-004 2.651754e-004 -4.051143e-004 3.386853e-004 5.548810e-004
<VARIANCE> 39
 3.881819e+001 3.499326e+001 6.151631e+001 2.526447e+001 5.274608e+001 7.714515e+001 3.915276e+001 5.332579e+001 2.887967e+001 3.457415e+001 2.975503e+001 2.629113e+001 5.774530e+001 1.001932e+000 1.114991e+000 8.809911e-001 1.112973e+000 2.035150e+000 2.421767e+000 2.385439e+000 1.581267e+000 1.650500e+000 1.458341e+000 1.605529e+000 1.370308e+000 1.484375e+000 1.801021e-001 1.960736e-001 1.637612e-001 2.177854e-001 3.922324e-001 4.398436e-001 5.069963e-001 3.067232e-001 3.289422e-001 2.774748e-001 3.023539e-001 2.697860e-001 3.197354e-001
<GCONST> 1.085593e+002
<STATE> 3
<MEAN> 39
 -8.458937e+000 -1.799638e+000 1.362964e-001 -2.337389e+000 -3.266100e+000 -2.261279e-001 -3.529423e+000 7.058856e-001 -3.955220e+000 -1.286660e+000 -1.217283e+000 -1.385356e+000 6.634322e+001 -1.188737e-002 -1.200419e-002 -5.325876e-003 -1.451062e-002 2.029140e-003 -6.650922e-003 -4.251736e-003 -1.094026e-002 -7.918184e-004 7.702880e-003 -5.449905e-003 8.702531e-003 2.526477e-003 3.654884e-004 6.571091e-005 3.048964e-004 -2.206881e-004 3.670730e-004 -2.758046e-004 2.769666e-004 -1.056238e-004 -8.884507e-005 2.937614e-004 -3.610427e-004 2.900328e-004 5.358944e-004
<VARIANCE> 39
 3.839631e+001 3.505185e+001 6.103527e+001 2.555517e+001 5.096988e+001 7.623492e+001 3.908520e+001 5.306743e+001 2.901715e+001 3.474343e+001 2.970253e+001 2.672529e+001 5.835287e+001 9.940430e-001 1.127561e+000 8.866956e-001 1.094643e+000 2.012163e+000 2.428271e+000 2.370211e+000 1.578510e+000 1.635372e+000 1.464537e+000 1.598603e+000 1.367911e+000 1.438482e+000 1.787571e-001 1.993312e-001 1.647981e-001 2.140708e-001 3.881676e-001 4.426548e-001 5.060597e-001 3.082946e-001 3.253498e-001 2.778841e-001 3.017507e-001 2.693921e-001 3.083232e-001
<GCONST> 1.084176e+002
<STATE> 4
<MEAN> 39
 -8.586911e+000 -2.559805e+000 -1.005231e+000 -2.229664e+000 -2.189726e+000 -6.997329e-001 -2.933726e+000 -1.088735e+000 -4.874042e+000 -1.483658e+000 -1.854821e+000 -1.230994e+000 6.708484e+001 -3.804611e-003 -9.779916e-003 -3.702080e-003 -8.364624e-003 7.507159e-003 -6.709768e-004 1.477184e-003 -1.167058e-002 -6.227808e-004 1.037412e-002 -5.783934e-003 5.825598e-003 8.548911e-003 2.164010e-004 4.459888e-005 1.111307e-004 -1.387100e-006 1.459468e-004 1.770089e-005 2.111095e-004 -7.035609e-005 -3.324305e-006 1.138317e-004 -9.479309e-005 5.049747e-005 2.417606e-004
<VARIANCE> 39
 3.099636e+001 3.231863e+001 5.277777e+001 2.335193e+001 4.226405e+001 6.921034e+001 3.272988e+001 4.490950e+001 3.204992e+001 3.220375e+001 2.722151e+001 2.578612e+001 6.260746e+001 6.967795e-001 9.264879e-001 7.755091e-001 8.779497e-001 1.399989e+000 1.947284e+000 1.786898e+000 1.326805e+000 1.357494e+000 1.349643e+000 1.340596e+000 1.160208e+000 8.319946e-001 1.212149e-001 1.604858e-001 1.366406e-001 1.685786e-001 2.694665e-001 3.499148e-001 3.766101e-001 2.599705e-001 2.679411e-001 2.553065e-001 2.580905e-001 2.291972e-001 1.588101e-001
<GCONST> 1.007695e+002
<TRANSP> 5
 0.000000e+000 1.000000e+000 0.000000e+000 0.000000e+000 0.000000e+000
 0.000000e+000 8.350733e-001 1.649267e-001 0.000000e+000 0.000000e+000
 0.000000e+000 0.000000e+000 8.350736e-001 1.649264e-001 0.000000e+000
 0.000000e+000 0.000000e+000 0.000000e+000 9.771333e-001 2.286668e-002
 0.000000e+000 0.000000e+000 0.000000e+000 0.000000e+000 0.000000e+000
<ENDHMM>
~h "oos"
<BEGINHMM>
<NUMSTATES> 5
<STATE> 2
<MEAN> 39
 -7.165905e+000 -7.534713e-001 6.909198e-002 -2.768277e+000 -3.173482e+000 -2.706981e-001 -3.063921e+000 -4.780485e-001 -4.118006e+000 -8.396228e-001 -2.052636e+000 -1.274628e+000 6.697331e+001 -4.785699e-003 1.350384e-002 4.230742e-003 1.510356e-002 -1.291504e-003 -3.398333e-003 -8.388472e-003 2.366722e-003 -4.141967e-003 -9.485381e-003 6.701702e-003 -1.108334e-002 -1.298137e-002 -6.081428e-005 -7.986447e-005 -5.823194e-007 6.329209e-005 7.299606e-005 9.828215e-005 3.344126e-006 -7.384684e-005 4.464436e-005 -4.081788e-005 -1.372812e-008 -4.942110e-005 1.550602e-005
<VARIANCE> 39
 4.716146e+001 2.674668e+001 6.027014e+001 4.220582e+001 4.870601e+001 6.168014e+001 4.852316e+001 5.380639e+001 3.802060e+001 3.852375e+001 3.210788e+001 3.611393e+001 5.622195e+001 7.801580e-001 7.294011e-001 8.631965e-001 1.446902e+000 1.722303e+000 2.588905e+000 2.100435e+000 2.089659e+000 1.755178e+000 1.813661e+000 1.791251e+000 1.392441e+000 7.427702e-001 1.287321e-001 1.233038e-001 1.406215e-001 2.571730e-001 2.928495e-001 4.973230e-001 4.009959e-001 4.109352e-001 3.559812e-001 3.725658e-001 3.431520e-001 2.620826e-001 1.217203e-001
<GCONST> 1.075879e+002
<STATE> 3
<MEAN> 39
 -7.194762e+000 -6.754644e-001 9.486660e-002 -2.678462e+000 -3.177824e+000 -2.897799e-001 -3.114833e+000 -4.658255e-001 -4.142720e+000 -8.959469e-001 -2.016114e+000 -1.338313e+000 6.689725e+001 -5.057666e-003 1.301053e-002 4.097995e-003 1.546557e-002 -8.610697e-004 -2.682943e-003 -8.427082e-003 1.916060e-003 -3.887363e-003 -9.693980e-003 6.636661e-003 -1.132440e-002 -1.287394e-002 -4.392177e-005 -8.678703e-005 -2.798157e-005 5.537579e-005 7.424100e-005 1.240563e-004 -2.869653e-006 -6.735358e-005 4.199438e-005 -3.638667e-005 -1.876156e-005 -4.349427e-005 1.855541e-005
<VARIANCE> 39
 4.708727e+001 2.661450e+001 5.992102e+001 4.137947e+001 4.824350e+001 6.242843e+001 4.794588e+001 5.377490e+001 3.792411e+001 3.786274e+001 3.170269e+001 3.539219e+001 5.533812e+001 7.811623e-001 7.271829e-001 8.460661e-001 1.444493e+000 1.719139e+000 2.592368e+000 2.094613e+000 2.100874e+000 1.758635e+000 1.800168e+000 1.795590e+000 1.384453e+000 7.443622e-001 1.287793e-001 1.227249e-001 1.382421e-001 2.571502e-001 2.927990e-001 4.964958e-001 3.995998e-001 4.132970e-001 3.567880e-001 3.708284e-001 3.461939e-001 2.599571e-001 1.225905e-001
<GCONST> 1.074334e+002
<STATE> 4
<MEAN> 39
 -7.381752e+000 -6.147482e-001 -8.825687e-001 -1.920240e+000 -2.621128e+000 -4.881069e-001 -3.109140e+000 -1.490351e+000 -5.373422e+000 -2.053899e+000 -2.321258e+000 -1.696718e+000 6.665833e+001 -4.057855e-003 7.197092e-003 2.357532e-003 1.194603e-002 2.056304e-003 9.291044e-005 -6.301042e-003 -1.369058e-004 -3.263948e-003 -7.721236e-003 2.505003e-003 -6.684825e-003 -8.661848e-003 -3.165910e-006 -1.219389e-004 -6.540764e-005 -1.415166e-005 4.458814e-005 1.327542e-004 4.932258e-005 -4.747296e-005 4.173411e-005 9.816695e-007 -3.242773e-005 1.095786e-005 5.580144e-005
<VARIANCE> 39
 4.028226e+001 2.361558e+001 4.751456e+001 3.349020e+001 4.379900e+001 5.901717e+001 3.669312e+001 4.512156e+001 3.829498e+001 2.815328e+001 2.648571e+001 2.773265e+001 4.886533e+001 6.131983e-001 6.561875e-001 7.241408e-001 1.224674e+000 1.362083e+000 2.070235e+000 1.659096e+000 1.770644e+000 1.488677e+000 1.443126e+000 1.531120e+000 1.189426e+000 5.871741e-001 9.845555e-002 1.068482e-001 1.193492e-001 2.147517e-001 2.367141e-001 3.880641e-001 3.144898e-001 3.459654e-001 2.976763e-001 2.978264e-001 3.016272e-001 2.258852e-001 9.193143e-002
<GCONST> 1.002433e+002
<TRANSP> 5
 0.000000e+000 1.000000e+000 0.000000e+000 0.000000e+000 0.000000e+000
 0.000000e+000 8.350443e-001 1.649557e-001 0.000000e+000 0.000000e+000
 0.000000e+000 0.000000e+000 8.350442e-001 1.649558e-001 0.000000e+000
 0.000000e+000 0.000000e+000 0.000000e+000 9.770851e-001 2.291501e-002
 0.000000e+000 0.000000e+000 0.000000e+000 0.000000e+000 0.000000e+000
<ENDHMM>
~h "sil"
<BEGINHMM>
<NUMSTATES> 5
<STATE> 2
<MEAN> 39
 -1.328306e+001 -5.232615e-002 -9.000434e-001 -9.460631e-001 -2.233863e+000 3.320362e+000 -7.340699e+000 6.389382e-001 -5.053849e+000 -1.100518e+000 -2.419176e+000 -2.437034e+000 5.887825e+001 1.034118e-001 1.576973e-001 -6.346414e-002 9.029493e-003 -8.973481e-002 3.102852e-002 -2.963581e-002 -1.001210e-001 1.282637e-001 -1.892291e-002 1.235446e-001 3.753371e-002 -2.062219e-002 -6.589361e-002 -2.905188e-002 1.214080e-002 -1.585895e-002 3.015061e-002 -2.828589e-002 4.514037e-002 2.739643e-002 -1.983140e-002 -5.762985e-002 -1.450507e-002 -9.130024e-003 -1.444985e-002
<VARIANCE> 39
 1.151358e+002 4.044324e+001 4.636563e+001 2.252444e+001 4.467323e+001 8.414545e+001 5.712655e+001 4.587728e+001 2.714645e+001 2.223533e+001 2.030973e+001 1.497515e+001 1.691254e+002 9.703518e-001 5.013759e-001 7.531961e-001 1.048113e+000 1.697453e+000 1.908066e+000 1.536149e+000 1.458409e+000 1.201781e+000 1.560164e+000 9.640779e-001 1.075612e+000 6.776595e-001 1.789701e-001 8.663633e-002 1.076765e-001 2.022077e-001 2.788295e-001 3.464988e-001 2.703864e-001 2.626221e-001 2.372697e-001 3.323141e-001 1.630657e-001 2.058322e-001 1.272123e-001
<GCONST> 1.007573e+002
<STATE> 3
<MEAN> 39
 -1.331635e+001 1.016296e-001 -1.005345e+000 -1.114196e+000 -2.304955e+000 3.579318e+000 -6.938114e+000 6.738179e-001 -4.574003e+000 -1.481640e+000 -2.328717e+000 -2.289022e+000 5.884486e+001 -3.642763e-002 2.063097e-002 -1.533111e-002 -3.468273e-002 8.033137e-003 4.542233e-002 9.121349e-002 1.637939e-002 9.162126e-002 -6.575814e-002 7.071943e-003 2.138758e-002 -1.620919e-002 -1.750078e-002 -2.172693e-002 4.706298e-003 -7.907459e-003 1.231371e-002 7.380546e-003 1.465086e-002 1.848335e-002 -5.978359e-003 -1.915738e-004 -1.847361e-002 -6.575958e-004 1.409414e-003
<VARIANCE> 39
 1.102708e+002 3.981010e+001 4.397564e+001 2.885291e+001 4.484067e+001 7.196647e+001 5.461617e+001 4.079592e+001 2.620213e+001 2.117793e+001 2.108156e+001 1.734396e+001 1.631765e+002 1.056378e+000 5.595803e-001 7.586796e-001 1.297141e+000 1.809715e+000 2.106420e+000 1.751626e+000 1.594991e+000 1.416238e+000 1.887447e+000 9.296544e-001 1.065025e+000 9.789205e-001 2.112250e-001 1.038364e-001 1.503625e-001 2.535725e-001 3.500886e-001 3.858121e-001 3.485105e-001 3.370359e-001 3.038807e-001 4.190892e-001 1.746896e-001 2.368484e-001 1.745128e-001
<GCONST> 1.048676e+002
<STATE> 4
<MEAN> 39
 -1.078775e+001 -1.452893e+000 -1.280032e+000 -1.337947e+000 -2.487977e+000 1.821870e+000 -4.582831e+000 -1.276636e+000 -6.149322e+000 -2.429386e+000 -2.620017e+000 -2.199867e+000 6.304325e+001 -1.822790e-002 1.856899e-003 -4.074376e-002 -3.379704e-002 -1.948822e-002 2.668891e-002 4.406089e-002 1.677830e-002 2.741905e-002 9.112725e-004 2.719123e-002 3.974915e-004 -6.330522e-003 4.610495e-003 -4.936286e-003 -2.455983e-003 -7.316338e-003 7.767697e-004 8.897943e-005 -4.034125e-003 1.877508e-003 -9.814308e-003 3.816994e-003 -2.428859e-003 9.977287e-005 5.540708e-003
<VARIANCE> 39
 6.958279e+001 2.862812e+001 4.287338e+001 3.985368e+001 4.396354e+001 6.284411e+001 4.654636e+001 4.878384e+001 3.245758e+001 2.149580e+001 2.439595e+001 2.437290e+001 1.111324e+002 1.417905e+000 8.058412e-001 1.184476e+000 1.326251e+000 1.424039e+000 1.644953e+000 1.536667e+000 1.644686e+000 1.346194e+000 1.464519e+000 1.097282e+000 1.197021e+000 1.521713e+000 2.215096e-001 1.433441e-001 2.281459e-001 2.439828e-001 2.711435e-001 2.837478e-001 2.958552e-001 3.229118e-001 2.664575e-001 3.047026e-001 2.077602e-001 2.488286e-001 1.938317e-001
<GCONST> 1.053852e+002
<TRANSP> 5
 0.000000e+000 1.000000e+000 0.000000e+000 0.000000e+000 0.000000e+000
 0.000000e+000 8.349621e-001 1.650378e-001 0.000000e+000 0.000000e+000
 0.000000e+000 0.000000e+000 8.349622e-001 1.650378e-001 0.000000e+000
 0.000000e+000 0.000000e+000 0.000000e+000 9.768093e-001 2.319075e-002
 0.000000e+000 0.000000e+000 0.000000e+000 0.000000e+000 0.000000e+000
<ENDHMM>
