~o
<STREAMINFO> 1 39
<VECSIZE> 39<NULLD><MFCC_D_A_0><DIAGC>
~s "silst"
<MEAN> 39
 -1.639087e+001 1.323848e+000 -1.933581e+000 -1.554109e+000 -1.473915e+000 -4.813927e-001 7.879700e-002 8.233157e-001 -2.453522e+000 -5.560069e-001 -2.231000e+000 -2.030598e+000 5.715295e+001 -1.023928e-001 6.041902e-002 -1.446903e-002 2.901301e-002 3.710931e-002 8.902705e-002 3.337894e-002 6.642047e-002 3.052315e-002 3.716504e-003 6.061650e-003 5.357169e-003 -1.225353e-001 9.224617e-003 -9.720069e-004 3.825977e-003 -1.634696e-002 -1.856829e-002 -5.516358e-003 -2.383193e-003 5.588814e-003 -1.190502e-002 -1.480335e-002 -1.159064e-002 -3.336682e-004 9.083654e-003
<VARIANCE> 39
 1.057998e+001 3.932596e+000 2.849813e+000 4.071872e+000 6.933630e+000 9.132382e+000 1.115161e+001 8.162504e+000 6.850213e+000 5.919571e+000 5.347152e+000 4.916018e+000 1.281084e+001 1.752424e+000 4.750080e-001 3.424902e-001 4.933375e-001 7.203398e-001 9.413170e-001 1.340497e+000 1.045539e+000 8.606321e-001 6.704535e-001 5.728452e-001 5.370469e-001 1.768838e+000 3.706969e-001 1.002817e-001 6.528343e-002 1.136128e-001 1.619616e-001 2.138845e-001 3.136942e-001 2.392354e-001 1.870864e-001 1.456733e-001 1.155934e-001 1.092699e-001 3.522924e-001
<GCONST> 6.970130e+001
~h "a"
<BEGINHMM>
<NUMSTATES> 5
<STATE> 2
<MEAN> 39
 -2.548662e+000 -5.709653e+000 1.040417e+001 -6.512805e+000 -1.782902e-001 3.911509e+000 -9.575389e+000 4.787347e+000 -7.068306e-001 7.614033e+000 -7.116540e+000 3.390048e+000 7.149230e+001 1.228688e-001 8.235000e-002 1.927996e-001 1.112747e-001 -9.570979e-002 -8.356731e-004 -1.451773e-002 -3.878710e-002 -1.907557e-002 -3.104426e-002 1.257057e-001 -4.102484e-002 8.707145e-002 2.995096e-002 4.993029e-003 5.341223e-003 -3.228905e-002 -1.682625e-002 -4.222420e-002 1.184496e-002 -4.355186e-002 1.011224e-002 5.856453e-003 1.241789e-002 4.661271e-002 3.474266e-002
<VARIANCE> 39
 2.960400e+001 1.412576e+001 7.516489e+001 9.062683e+001 9.711265e+001 6.853594e+001 1.018327e+002 9.703507e+001 4.861469e+001 6.943502e+001 8.591722e+001 6.775823e+001 5.948322e+001 1.681093e+000 1.213185e+000 3.037797e+000 2.006225e+000 3.492841e+000 6.091274e+000 6.291915e+000 4.837930e+000 3.023348e+000 4.645138e+000 4.705864e+000 3.349798e+000 1.008308e+000 3.104616e-001 1.951003e-001 4.578608e-001 3.872510e-001 5.662471e-001 1.298059e+000 1.098571e+000 8.022722e-001 6.689446e-001 9.338890e-001 6.880214e-001 7.861603e-001 1.361380e-001
<GCONST> 1.317751e+002
<STATE> 3
<MEAN> 39
 4.014716e+000 -3.588621e+000 6.772464e+000 -1.783364e+001 -2.402932e-003 -3.934252e+000 1.373179e+000 1.059323e+000 -5.138780e-001 1.297048e+001 -1.274894e+001 1.320113e+001 7.907874e+001 1.525870e-001 -3.557945e-001 -4.335730e-001 -6.051152e-001 -3.227467e-003 -3.920788e-001 1.827183e-001 -5.232559e-001 3.765357e-001 3.289107e-001 2.219760e-001 3.210747e-001 4.295366e-001 -1.126338e-001 1.266116e-001 6.770779e-002 2.144334e-001 1.605964e-001 1.918822e-001 2.462493e-003 9.396183e-002 4.090045e-002 -1.513704e-001 1.263675e-002 -2.176685e-001 -1.468391e-001
<VARIANCE> 39
 2.694680e+001 1.187762e+001 3.414077e+001 5.108374e+001 2.105510e+001 1.288912e+001 9.970182e+000 2.016787e+001 1.008972e+001 5.151159e+001 4.753486e+001 3.738195e+001 3.280303e+001 5.727767e-001 4.787941e-001 6.862980e-001 3.837255e+000 1.224677e+000 2.903318e+000 1.511259e+000 1.818819e+000 1.423307e+000 1.960545e+000 2.057693e+000 2.573334e+000 1.250838e+000 7.736823e-002 1.839612e-001 1.234992e-001 4.965418e-001 2.085965e-001 3.510954e-001 2.501656e-001 3.082535e-001 3.069597e-001 1.936554e-001 4.136556e-001 2.196132e-001 1.596489e-001
<GCONST> 9.863800e+001
<STATE> 4
<MEAN> 39
 -1.166928e+001 -3.930591e+000 -6.563581e+000 2.810188e+000 -4.264666e+000 1.545957e+000 -4.112772e+000 -6.813388e+000 -1.252822e+000 -3.451009e+000 7.886376e-001 -9.294552e-001 6.674929e+001 -5.888094e-002 1.505625e-001 3.247117e-002 1.755328e-003 7.084482e-002 8.490886e-004 5.733256e-002 7.164444e-002 1.230041e-001 -1.180629e-001 -1.246162e-001 -3.727761e-002 -8.427245e-002 2.681875e-002 3.890691e-002 3.255383e-002 1.339199e-002 2.313102e-002 3.708440e-002 2.325941e-002 2.153859e-002 -2.930644e-002 -2.974746e-002 -5.657073e-002 -3.937000e-002 8.313728e-003
<VARIANCE> 39
 8.150716e+000 1.101355e+001 1.030588e+001 1.901560e+001 8.585661e+000 8.503819e+000 7.610031e+000 2.287823e+001 8.550051e+000 1.507689e+001 1.365761e+001 1.024174e+001 5.643526e+000 3.239846e-001 2.877980e-001 4.691716e-001 7.518727e-001 4.710392e-001 5.324249e-001 8.142973e-001 8.732534e-001 1.062410e+000 6.936390e-001 9.000019e-001 7.224392e-001 1.688509e-001 6.461141e-002 9.424649e-002 7.543672e-002 1.510691e-001 9.171701e-002 1.155302e-001 1.944889e-001 1.682025e-001 2.099541e-001 1.589771e-001 2.376276e-001 1.372912e-001 2.836818e-002
<GCONST> 6.685198e+001
<TRANSP> 5
 0.000000e+000 1.000000e+000 0.000000e+000 0.000000e+000 0.000000e+000
 0.000000e+000 9.545791e-001 4.542094e-002 0.000000e+000 0.000000e+000
 0.000000e+000 0.000000e+000 8.456241e-001 1.543760e-001 0.000000e+000
 0.000000e+000 0.000000e+000 0.000000e+000 9.393942e-001 6.060587e-002
 0.000000e+000 0.000000e+000 0.000000e+000 0.000000e+000 0.000000e+000
<ENDHMM>
~h "b"
<BEGINHMM>
<NUMSTATES> 5
<STATE> 2
<MEAN> 39
 -3.895534e+000 -2.177931e+000 3.232011e+000 -3.444593e+000 -7.805761e+000 -7.568391e-001 -3.291155e+000 -9.774427e-002 -3.765891e+000 -3.995201e+000 -6.780373e-001 -5.880251e-001 7.122058e+001 9.216460e-001 8.510754e-002 -8.397018e-002 -9.437100e-001 -3.837318e-001 -6.077384e-001 2.517063e-001 -1.768806e-001 -1.311802e-001 -1.550256e-001 1.240598e-001 2.127470e-001 1.105077e+000 -2.767478e-003 -1.059826e-001 -1.002571e-001 -4.787125e-002 -3.993465e-002 -2.040748e-002 -2.159131e-002 5.312835e-002 4.010157e-002 5.138107e-003 2.422846e-002 4.683984e-002 7.577627e-003
<VARIANCE> 39
 5.725155e+001 9.894357e+001 1.136392e+002 6.834325e+001 6.938618e+001 7.981451e+001 6.170137e+001 6.110666e+001 3.376046e+001 3.939118e+001 2.972882e+001 3.631767e+001 6.101654e+001 4.433088e+000 5.506333e+000 4.570120e+000 3.336346e+000 5.046357e+000 7.928164e+000 2.818749e+000 2.275080e+000 4.908772e+000 4.599335e+000 4.148110e+000 2.466504e+000 2.112455e+000 5.874051e-001 7.266028e-001 5.763553e-001 5.886518e-001 8.355764e-001 1.587952e+000 5.198327e-001 4.191931e-001 7.724050e-001 8.774721e-001 7.753787e-001 4.605781e-001 3.393540e-001
<GCONST> 1.364040e+002
<STATE> 3
<MEAN> 39
 3.772665e+000 -8.006892e-001 -2.923417e+000 -1.157055e+001 -1.171142e+001 -8.722642e+000 -1.615229e+000 1.379476e+000 -4.876239e+000 -1.805572e+000 -3.416921e+000 2.574844e-001 7.600719e+001 -2.966968e-001 3.541231e-001 3.601202e-001 5.409390e-001 1.517451e-001 -2.115761e-001 -7.038707e-001 1.354754e-001 -2.777680e-002 3.480468e-001 1.104638e-001 -4.390932e-001 -5.416446e-001 -8.859333e-002 -1.381097e-002 4.283306e-002 8.643476e-002 5.218944e-002 -3.524159e-002 -2.158475e-002 -1.367438e-001 3.902766e-003 6.408749e-002 -3.410936e-002 -1.330570e-002 -3.960808e-002
<VARIANCE> 39
 1.615635e+001 7.833490e+001 8.766548e+001 1.333948e+001 4.959019e+001 9.869723e+001 6.853472e+001 3.522333e+001 8.617918e+001 1.140793e+002 6.125113e+001 3.048944e+001 3.520417e+001 4.641628e-001 1.332570e+000 9.390424e-001 1.069270e+000 1.859745e+000 1.715724e+000 2.443709e+000 2.169133e+000 1.936270e+000 1.422384e+000 1.533533e+000 1.501891e+000 3.670001e-001 5.241771e-002 1.653112e-001 1.550349e-001 2.018310e-001 2.366436e-001 3.414139e-001 4.482942e-001 2.960003e-001 4.143019e-001 3.095691e-001 2.323453e-001 2.375880e-001 3.839424e-002
<GCONST> 1.046945e+002
<STATE> 4
<MEAN> 39
 -1.186424e+001 3.589319e-001 -3.696845e+000 -3.343383e+000 -4.547182e+000 -1.002320e+000 6.533123e-002 -6.904268e-001 -1.698336e+000 -1.989707e+000 -1.533001e+000 -1.201498e+000 6.275741e+001 -2.239519e-001 -4.895620e-002 7.011952e-003 1.554071e-001 1.392411e-001 1.121461e-001 3.969765e-002 4.614467e-003 9.594630e-002 1.000866e-001 3.100214e-002 1.043603e-001 -1.724399e-001 2.138261e-002 -6.524778e-003 2.708053e-003 1.582233e-003 -2.024032e-002 -8.484133e-003 -6.137333e-003 -2.207724e-002 -2.310523e-002 1.373203e-002 1.624908e-002 -7.263940e-003 2.162117e-002
<VARIANCE> 39
 2.899110e+001 1.834503e+001 1.746910e+001 3.399940e+001 2.689054e+001 3.175474e+001 1.157093e+001 1.172984e+001 2.668632e+001 1.923665e+001 2.064810e+001 1.037998e+001 3.654397e+001 5.189811e-001 4.717926e-001 5.056607e-001 8.173721e-001 9.197816e-001 7.752016e-001 6.520014e-001 8.508294e-001 1.121286e+000 1.267709e+000 9.786682e-001 7.198731e-001 4.570776e-001 1.196884e-001 9.965369e-002 9.990972e-002 1.594066e-001 1.824892e-001 1.530610e-001 1.744054e-001 1.782609e-001 2.134642e-001 2.659141e-001 2.117628e-001 1.443443e-001 1.115497e-001
<GCONST> 8.304057e+001
<TRANSP> 5
 0.000000e+000 1.000000e+000 0.000000e+000 0.000000e+000 0.000000e+000
 0.000000e+000 8.219092e-001 1.780908e-001 0.000000e+000 0.000000e+000
 0.000000e+000 0.000000e+000 8.638021e-001 1.361979e-001 0.000000e+000
 0.000000e+000 0.000000e+000 0.000000e+000 9.168637e-001 8.313631e-002
 0.000000e+000 0.000000e+000 0.000000e+000 0.000000e+000 0.000000e+000
<ENDHMM>
~h "h"
<BEGINHMM>
<NUMSTATES> 5
<STATE> 2
<MEAN> 39
 -1.112755e+001 -8.018083e+000 1.679593e+000 -5.597489e+000 -2.236665e+000 9.816488e-001 -4.444995e+000 2.741191e+000 -8.605810e-001 3.680201e+000 2.239967e+000 -1.316252e+000 6.938748e+001 1.342267e-001 -3.021857e-001 2.354734e-001 9.569753e-002 -2.058830e-002 2.430061e-001 -1.404124e-001 2.652905e-001 3.527367e-002 1.435809e-001 1.889201e-001 -5.194635e-001 6.295829e-001 6.906227e-002 1.242594e-001 -4.198247e-002 4.145154e-002 -3.385296e-002 2.059221e-002 -3.339133e-002 -1.520589e-002 -7.141821e-002 -1.329525e-001 -5.734861e-002 5.337496e-003 -4.856141e-005
<VARIANCE> 39
 5.179543e+000 4.202605e+001 9.351991e+001 6.064565e+001 1.612164e+001 1.027890e+001 2.227909e+001 6.633855e+001 3.701080e+001 2.143957e+001 4.061474e+001 4.308364e+001 3.898063e+001 7.289402e-001 2.346609e+000 1.043330e+000 9.869582e-001 8.460303e-001 8.535682e-001 1.281986e+000 1.612694e+000 1.910588e+000 2.957780e+000 1.640908e+000 1.752641e+000 9.592474e-001 1.722292e-001 2.805344e-001 2.527060e-001 1.608450e-001 1.689090e-001 1.530942e-001 2.089262e-001 3.014224e-001 3.356134e-001 4.611511e-001 3.036926e-001 3.749650e-001 3.936392e-002
<GCONST> 9.970606e+001
<STATE> 3
<MEAN> 39
 -6.538499e+000 -5.800755e+000 -4.627341e+000 -2.272466e+000 -8.161157e+000 -2.085188e+000 -6.473089e+000 -6.801354e+000 -2.101334e+000 -1.891809e+000 6.986743e+000 -9.616374e+000 8.069270e+001 6.483626e-001 -1.223971e-001 -1.113094e+000 -2.482453e-001 -7.782796e-001 -6.820934e-002 -3.344939e-001 -4.664035e-001 -2.421212e-001 -7.079741e-001 8.806797e-001 -1.569329e-001 4.735928e-001 -2.345776e-001 -3.768537e-001 -1.388446e-001 -3.043119e-002 1.998800e-001 5.837065e-003 1.630486e-001 1.346679e-001 3.595540e-001 5.757520e-002 -4.523709e-002 8.644921e-002 -1.400214e-001
<VARIANCE> 39
 9.035724e+000 1.136861e+001 1.038658e+002 2.430121e+001 3.356745e+001 2.972112e+001 3.826962e+001 1.460607e+002 2.755174e+001 4.583220e+001 5.337968e+001 6.967569e+001 1.523750e+002 9.845924e-001 3.210557e+000 2.116565e+000 1.709166e+000 1.886363e+000 1.549760e+000 1.544956e+000 1.431831e+000 1.869194e+000 7.326688e-001 1.215719e+000 3.895308e-001 3.569463e-001 4.299372e-002 4.111325e-001 5.542340e-001 3.673969e-001 2.686229e-001 3.811997e-002 1.658280e-001 1.584699e-001 1.635918e-001 3.147961e-001 4.727713e-001 4.969015e-002 3.936467e-002
<GCONST> 9.910622e+001
<STATE> 4
<MEAN> 39
 -1.132920e+001 -6.279362e+000 -5.665719e+000 1.400367e+000 -6.903544e+000 -5.024223e+000 -5.916385e+000 -7.582872e+000 -1.467587e+000 -5.699875e+000 1.417455e+000 -4.024669e+000 7.379957e+001 -1.053623e-001 1.593953e-002 1.017502e-001 2.124237e-002 4.823732e-002 7.366826e-002 5.674627e-002 7.236969e-002 -2.831091e-002 -2.309285e-002 -7.075109e-002 9.774307e-002 -1.248185e-001 1.633074e-003 9.076743e-003 1.170136e-002 3.442176e-004 4.330057e-003 -4.759703e-003 -2.064599e-002 -1.041166e-002 -5.102903e-003 -1.576431e-003 -5.530314e-003 3.504294e-003 3.675890e-004
<VARIANCE> 39
 1.468105e+001 1.493465e+001 5.334322e+001 6.779187e+000 1.572044e+001 1.146568e+002 1.188510e+001 2.785387e+001 2.627979e+001 1.378293e+001 1.385085e+001 4.503948e+001 1.281927e+002 1.005016e-001 3.020169e-001 5.830567e-001 3.623154e-001 4.873565e-001 1.005869e+000 6.162730e-001 6.877206e-001 1.091849e+000 9.880633e-001 4.858927e-001 8.053998e-001 2.573876e-001 1.615185e-002 5.059636e-002 4.903664e-002 7.469088e-002 8.730645e-002 1.207737e-001 1.410259e-001 1.410250e-001 1.997996e-001 1.969153e-001 8.447441e-002 1.444360e-001 1.714399e-002
<GCONST> 7.170171e+001
<TRANSP> 5
 0.000000e+000 1.000000e+000 0.000000e+000 0.000000e+000 0.000000e+000
 0.000000e+000 8.747036e-001 1.252963e-001 0.000000e+000 0.000000e+000
 0.000000e+000 0.000000e+000 6.374008e-001 3.625992e-001 0.000000e+000
 0.000000e+000 0.000000e+000 0.000000e+000 9.738831e-001 2.611693e-002
 0.000000e+000 0.000000e+000 0.000000e+000 0.000000e+000 0.000000e+000
<ENDHMM>
~h "m"
<BEGINHMM>
<NUMSTATES> 5
<STATE> 2
<MEAN> 39
 -8.573359e+000 2.856316e-001 3.309048e-001 -1.658653e+000 -3.396596e+000 6.940598e-001 -5.425873e+000 2.745245e+000 -2.620586e+000 7.927811e-001 -2.853741e+000 -5.070903e-002 6.330093e+001 3.015751e-001 2.435475e-001 6.307352e-001 1.520191e-001 1.961295e-001 1.790746e-001 -6.170616e-001 -6.736307e-001 1.595162e-003 -6.746893e-002 2.691749e-001 -3.759303e-001 3.977490e-001 -1.814943e-002 -9.471872e-002 3.700907e-002 -2.754495e-001 3.771096e-002 -1.025250e-001 1.184722e-001 -2.489704e-001 7.841837e-003 -5.705755e-002 1.001811e-001 -3.138134e-002 2.360588e-001
<VARIANCE> 39
 1.047361e+001 3.601425e+001 6.250377e+001 2.486117e+001 3.741961e+001 2.908803e+001 3.718545e+001 4.911373e+001 2.289355e+001 3.577772e+001 1.784606e+001 1.678293e+001 5.697159e+000 1.051836e+000 3.045489e+000 1.337254e+000 2.924912e+000 3.653720e+000 1.626624e+000 3.633491e+000 1.675451e+000 1.720726e+000 2.120634e+000 1.437893e+000 1.123792e+000 1.482601e+000 1.144263e-001 5.424808e-001 3.432401e-001 5.001579e-001 5.091829e-001 2.485593e-001 5.122165e-001 2.272962e-001 3.651516e-001 2.580023e-001 3.164273e-001 1.768470e-001 1.930195e-001
<GCONST> 1.062467e+002
<STATE> 3
<MEAN> 39
 -6.932316e-001 4.846066e+000 2.206462e+000 -6.299165e+000 -5.957307e+000 -6.490533e+000 -5.708567e+000 -7.724909e-001 -3.947080e+000 -1.825615e+000 -4.775087e-001 -2.578655e+000 7.044268e+001 1.459947e-001 -7.411006e-002 2.903074e-001 -2.465111e-002 -1.667228e-001 1.743715e-001 -1.723531e-001 2.702999e-001 -2.050682e-001 -8.097655e-002 -1.712865e-001 -4.239125e-001 2.416358e-001 -6.279399e-002 9.458634e-002 8.083478e-002 2.433755e-001 7.294244e-002 1.036507e-001 9.789984e-002 1.439727e-001 -6.053431e-002 1.183190e-001 -1.167596e-001 4.436808e-002 -1.375044e-001
<VARIANCE> 39
 6.600439e+001 4.874112e+001 1.961842e+001 4.028584e+001 8.779182e+001 1.196447e+002 3.889655e+001 5.366896e+001 4.434197e+001 3.274175e+001 4.202593e+001 3.916714e+001 4.166957e+001 1.454764e+000 1.265790e+000 2.806789e+000 4.560593e+000 2.933710e+000 6.197098e+000 3.521607e+000 4.102109e+000 2.698984e+000 2.515385e+000 3.762904e+000 2.830189e+000 2.472216e+000 9.758929e-002 2.685964e-001 2.383348e-001 4.805645e-001 3.924020e-001 6.175628e-001 6.224449e-001 5.137844e-001 4.255203e-001 5.876887e-001 7.358718e-001 4.270525e-001 2.055423e-001
<GCONST> 1.231709e+002
<STATE> 4
<MEAN> 39
 -1.435951e+001 1.151776e-001 -3.628746e+000 -7.943912e-001 -2.585540e+000 -3.339350e-002 -1.411901e+000 -1.311458e+000 -1.792405e+000 -2.067675e+000 -1.794285e+000 -1.711775e+000 6.059095e+001 -6.619069e-002 -2.684759e-003 2.209450e-002 4.144311e-002 8.901665e-002 5.204013e-002 4.865997e-003 9.069576e-003 -9.485045e-003 2.020326e-002 1.928979e-002 1.662911e-002 -4.418309e-002 1.321100e-002 1.051198e-003 -6.530103e-003 -5.881129e-003 -5.632961e-004 -1.083361e-002 -3.667742e-003 2.741766e-003 3.574362e-003 1.689372e-002 1.325984e-003 1.906241e-002 8.033549e-003
<VARIANCE> 39
 1.366302e+001 5.504637e+000 9.921174e+000 7.948318e+000 9.691217e+000 1.270897e+001 1.274811e+001 1.425150e+001 9.050510e+000 1.123908e+001 8.705363e+000 7.491009e+000 2.039573e+001 8.952280e-001 2.610027e-001 3.661684e-001 4.189008e-001 6.432812e-001 6.276485e-001 9.412365e-001 1.017519e+000 7.906861e-001 7.827896e-001 8.060836e-001 8.127747e-001 6.682004e-001 2.138596e-001 4.181324e-002 6.715576e-002 9.194145e-002 1.297665e-001 1.391653e-001 2.150761e-001 2.186349e-001 1.507736e-001 1.595187e-001 1.649896e-001 1.886444e-001 1.625163e-001
<GCONST> 7.072160e+001
<TRANSP> 5
 0.000000e+000 1.000000e+000 0.000000e+000 0.000000e+000 0.000000e+000
 0.000000e+000 6.775483e-001 3.224517e-001 0.000000e+000 0.000000e+000
 0.000000e+000 0.000000e+000 7.565859e-001 2.434140e-001 0.000000e+000
 0.000000e+000 0.000000e+000 0.000000e+000 9.620697e-001 3.793030e-002
 0.000000e+000 0.000000e+000 0.000000e+000 0.000000e+000 0.000000e+000
<ENDHMM>
~h "n"
<BEGINHMM>
<NUMSTATES> 5
<STATE> 2
<MEAN> 39
 -4.790094e+000 -5.924620e-001 8.604027e+000 -1.455801e+000 -2.728534e+000 1.539661e+000 -8.908563e+000 3.376646e+000 -3.247824e+000 2.423760e+000 -3.588197e-001 -1.974908e+000 6.761823e+001 -8.563086e-002 -1.077962e-002 -8.579292e-002 -2.156056e-002 -6.413089e-002 -1.745288e-001 1.535834e-002 -1.804246e-001 2.119063e-002 -2.168623e-001 1.939268e-001 -2.408537e-001 1.149057e-001 3.175537e-004 -1.117033e-002 -3.591392e-002 -3.840873e-002 -2.470903e-002 9.382494e-003 2.965815e-002 2.903037e-002 4.678802e-002 -1.309981e-002 3.589456e-002 -2.615558e-003 2.857573e-002
<VARIANCE> 39
 3.633666e+001 2.697154e+001 7.019593e+001 4.407471e+001 4.201112e+001 1.065040e+002 7.324239e+001 1.121171e+002 4.385926e+001 4.513510e+001 3.490606e+001 3.081436e+001 2.125232e+001 1.966817e+000 1.266478e+000 1.124625e+000 3.102328e+000 4.592505e+000 7.127791e+000 6.542873e+000 5.630723e+000 4.128013e+000 3.870879e+000 4.582265e+000 2.592159e+000 1.785391e+000 3.171127e-001 2.042618e-001 1.719461e-001 5.809157e-001 8.589539e-001 1.342947e+000 1.213801e+000 1.119964e+000 8.792458e-001 9.039578e-001 8.527791e-001 4.230270e-001 2.851862e-001
<GCONST> 1.296375e+002
<STATE> 3
<MEAN> 39
 -1.600930e+000 -7.044072e+000 -6.097115e+000 3.603894e+000 -1.017212e+001 -2.249454e+000 -5.395051e+000 -6.735763e+000 -6.770985e+000 -6.613903e+000 4.015539e+000 -1.019196e+001 7.532156e+001 -1.587009e-001 1.936657e-001 2.454162e-001 9.533890e-002 1.809753e-002 1.489750e-001 1.324715e-001 1.458603e-001 1.143025e-001 3.227973e-002 -3.471162e-001 1.173432e-001 -3.185842e-001 4.968300e-003 2.134119e-002 7.990048e-002 -7.281539e-003 8.331098e-002 1.925379e-002 -3.949190e-002 -3.973837e-002 -6.750719e-002 3.975004e-002 -9.372024e-002 7.607826e-002 -3.995042e-002
<VARIANCE> 39
 2.028823e+001 3.693771e+001 9.595071e+001 3.972025e+001 3.333191e+001 1.340039e+002 4.343144e+001 1.674855e+002 5.606881e+001 2.273022e+001 4.503840e+001 1.863272e+001 1.280437e+002 5.428976e-001 7.060838e-001 7.475327e-001 1.165755e+000 1.304903e+000 2.191942e+000 1.116939e+000 1.055592e+000 1.782116e+000 1.208656e+000 1.785722e+000 9.388677e-001 4.873162e-001 7.312141e-002 5.841226e-002 1.226189e-001 2.521222e-001 2.588274e-001 4.435727e-001 2.305539e-001 2.179275e-001 2.375617e-001 2.735339e-001 4.776565e-001 2.268862e-001 8.479101e-002
<GCONST> 1.017470e+002
<STATE> 4
<MEAN> 39
 -8.646188e+000 -3.619362e-001 -1.825498e+000 4.068860e-002 -7.199247e-001 4.214942e-001 -4.270700e+000 -3.265877e+000 -7.540375e+000 -3.695187e+000 -4.194624e+000 -1.326879e+000 6.438183e+001 -9.098442e-002 6.878428e-003 -2.097701e-002 -6.038929e-002 6.311480e-002 1.471551e-001 6.483109e-002 4.942797e-002 7.496004e-002 4.673279e-002 1.050692e-002 5.434874e-002 -7.638618e-002 9.754243e-003 -5.334090e-003 -5.235065e-003 -3.608468e-003 -1.399442e-003 -1.021984e-002 2.835311e-004 -3.266140e-003 -5.568389e-003 3.039785e-003 2.217385e-002 2.029742e-003 9.260066e-003
<VARIANCE> 39
 4.842885e+000 2.452592e+000 1.095866e+001 1.917659e+001 1.849159e+001 2.176365e+001 1.115684e+001 1.458790e+001 2.178819e+001 1.211094e+001 1.103846e+001 8.422720e+000 4.663327e+000 1.354233e-001 2.616987e-001 3.699556e-001 7.006002e-001 8.283576e-001 8.761151e-001 7.691729e-001 7.750262e-001 8.864753e-001 1.081366e+000 9.879679e-001 8.002379e-001 7.134490e-002 2.129065e-002 5.566790e-002 7.589105e-002 1.300574e-001 1.648026e-001 1.600112e-001 1.420151e-001 1.617310e-001 1.669908e-001 2.012341e-001 1.976871e-001 1.644678e-001 1.164832e-002
<GCONST> 6.375454e+001
<TRANSP> 5
 0.000000e+000 1.000000e+000 0.000000e+000 0.000000e+000 0.000000e+000
 0.000000e+000 9.108062e-001 8.919380e-002 0.000000e+000 0.000000e+000
 0.000000e+000 0.000000e+000 8.156561e-001 1.843439e-001 0.000000e+000
 0.000000e+000 0.000000e+000 0.000000e+000 9.631019e-001 3.689809e-002
 0.000000e+000 0.000000e+000 0.000000e+000 0.000000e+000 0.000000e+000
<ENDHMM>
~h "s"
<BEGINHMM>
<NUMSTATES> 5
<STATE> 2
<MEAN> 39
 1.700295e+000 1.818191e+000 9.539953e+000 3.701824e-001 2.022542e+000 1.517824e+001 -1.180257e+001 8.587666e+000 -5.971238e+000 5.312273e+000 -8.439530e+000 -6.979187e+000 6.835193e+001 -1.339855e-001 2.714760e-001 5.764807e-001 3.055714e-001 1.374345e-001 1.518076e-002 4.274026e-001 2.997698e-001 -4.739903e-002 2.086655e-001 -8.777253e-002 4.615706e-001 2.383771e-002 -1.137077e-001 -1.054507e-001 -3.650688e-002 -1.192685e-001 -2.224025e-001 -8.152766e-002 8.291364e-002 1.423261e-001 5.694380e-002 9.329696e-002 2.107091e-001 2.144703e-002 -8.413133e-002
<VARIANCE> 39
 4.953765e+001 3.898654e+000 1.977697e+001 8.761252e+000 1.282559e+001 5.601327e+001 1.643526e+001 7.656208e+001 2.192242e+001 3.999449e+001 1.459032e+001 1.728443e+001 1.423643e+001 9.069942e-001 8.142213e-001 5.740298e-001 5.897804e-001 1.285872e+000 1.160856e+000 7.561530e-001 1.300177e+000 6.719103e-001 1.008005e+000 9.381468e-001 9.355906e-001 2.958121e-001 8.494229e-002 1.176764e-001 8.551571e-002 5.991823e-002 2.724075e-001 2.476739e-001 3.133118e-001 3.240310e-001 1.278974e-001 1.939442e-001 2.128912e-001 2.111237e-001 4.915937e-002
<GCONST> 8.335680e+001
<STATE> 3
<MEAN> 39
 -1.354107e+001 2.694488e+000 1.305381e+001 -4.649739e+000 2.063031e+000 7.202857e+000 -3.551124e+000 1.216268e+000 -2.840779e+000 1.571323e+000 -2.940191e+000 -2.566948e+000 7.117882e+001 -7.570457e-001 -3.599475e-001 3.978170e-001 -2.566778e-001 -9.214486e-001 2.615203e-001 7.428057e-001 8.243673e-001 4.800626e-001 1.290967e+000 1.004957e+000 1.740966e-001 -7.182170e-002 -2.544209e-001 -8.904878e-001 -7.677669e-001 -5.124388e-001 -2.179618e-001 -5.666441e-001 -3.940296e-001 -1.405041e-001 -1.337017e-001 -3.103627e-001 2.208239e-001 -9.766617e-002 -1.265088e-001
<VARIANCE> 39
 1.060852e+002 1.028519e+001 7.609582e+001 3.843442e+001 3.020175e+000 2.138930e+001 1.053056e+001 5.920974e+001 6.714280e+001 4.321078e+001 4.287875e+001 2.960524e+000 1.239626e+002 5.784063e-001 9.925102e-001 6.666143e-001 1.009107e+000 1.591541e+000 2.284755e+000 3.121255e+000 8.469020e-001 4.735128e-001 1.213669e+000 8.271356e-001 1.743446e-001 3.245038e-001 3.939007e-002 2.894100e-001 1.871726e-001 1.911186e-001 1.813624e-001 1.714763e-001 3.754097e-001 1.816227e-001 5.394723e-002 2.764555e-001 1.740899e-001 1.329537e-001 5.361580e-002
<GCONST> 8.773080e+001
<STATE> 4
<MEAN> 39
 -1.033896e+001 2.290908e-001 1.002457e+001 -3.931367e+000 5.313660e-001 8.842813e+000 -4.517225e+000 6.421291e+000 -4.030582e+000 5.536709e+000 -3.794057e+000 -1.561396e+000 6.756091e+001 -8.229912e-001 -1.006375e+000 -4.840041e-001 -3.208789e-001 -3.486612e-001 -2.768519e-001 -2.379874e-001 5.006903e-001 3.149088e-001 2.335455e-001 5.587229e-001 -6.415654e-001 -2.841877e-001 1.002614e-001 -4.085394e-001 -4.535401e-001 -2.755820e-001 -4.593495e-002 -3.988786e-001 -2.535299e-001 -3.240891e-001 -2.320357e-001 -6.012595e-001 1.426992e-001 -1.104696e-001 2.266435e-001
<VARIANCE> 39
 1.120260e+002 2.069529e+001 5.618903e+001 3.734685e+001 1.702660e+000 1.935014e+001 4.336724e+001 9.806643e+001 6.440846e+001 8.817920e+001 3.863319e+001 2.156764e+000 8.251418e+001 5.752236e-001 1.258824e+000 3.727504e-001 6.249047e-001 3.373814e-001 7.276430e-001 3.021587e+000 1.015102e+000 4.729961e-001 2.667849e-001 5.288643e-001 9.551288e-001 3.284230e-001 5.128644e-002 1.649775e-001 7.069363e-002 6.625269e-002 2.120705e-001 2.557598e-001 2.934334e-001 2.100917e-001 9.186894e-002 1.872802e-001 1.526899e-001 6.757991e-002 9.033518e-002
<GCONST> 8.359830e+001
<TRANSP> 5
 0.000000e+000 1.000000e+000 0.000000e+000 0.000000e+000 0.000000e+000
 0.000000e+000 8.183355e-001 1.816645e-001 0.000000e+000 0.000000e+000
 0.000000e+000 0.000000e+000 2.001589e-001 7.998411e-001 0.000000e+000
 0.000000e+000 0.000000e+000 0.000000e+000 1.972865e-001 8.027135e-001
 0.000000e+000 0.000000e+000 0.000000e+000 0.000000e+000 0.000000e+000
<ENDHMM>
~h "t"
<BEGINHMM>
<NUMSTATES> 5
<STATE> 2
<MEAN> 39
 -6.930901e+000 -3.130102e+000 -3.513330e+000 -3.481925e+000 -1.359552e+000 -1.149858e+000 -5.538378e+000 -7.142359e+000 -8.505226e+000 -4.728373e+000 -2.135705e+000 -1.869853e+000 6.941698e+001 7.965644e-001 -1.874344e+000 -1.111524e+000 -1.619011e+000 -5.180476e-001 -5.350812e-001 8.197665e-001 4.574912e-002 1.875401e-002 5.071864e-001 1.507165e+000 -4.638171e-001 2.063044e+000 1.052646e-001 -3.864330e-001 -1.428870e-001 -1.363439e-001 -1.206408e-001 1.167580e-001 3.330791e-001 1.387977e-001 3.141211e-002 -1.910152e-003 1.813584e-001 -1.874580e-001 2.936692e-001
<VARIANCE> 39
 3.541806e+001 2.450774e+001 4.263580e+001 4.775064e+001 9.112092e+001 2.726519e+001 5.667871e+001 3.366218e+001 4.163806e+001 2.652581e+001 6.200029e+001 3.383175e+001 6.190980e+001 2.641387e+000 2.466292e+000 6.037159e+000 2.943712e+000 4.054009e+000 2.028874e+000 5.099859e+000 1.561971e+000 7.449198e-001 2.022350e+000 6.238050e+000 2.744111e+000 3.504267e+000 4.831492e-001 2.192392e-001 1.033785e+000 6.101961e-001 6.340392e-001 5.016731e-001 8.149840e-001 2.633419e-001 1.694104e-001 4.815136e-001 1.223300e+000 4.508456e-001 5.246434e-001
<GCONST> 1.245164e+002
<STATE> 3
<MEAN> 39
 1.569440e+000 -1.211934e+001 -1.175169e+001 -7.693767e+000 1.629681e+000 -2.634463e+000 6.400193e+000 -4.584980e+000 -1.163249e+001 -5.056923e+000 -3.775295e+000 -1.459971e+000 7.774612e+001 7.764988e-002 1.950235e-001 4.945119e-002 3.000799e-001 -2.717491e-001 2.034958e-001 -9.781789e-002 2.093154e-001 9.681410e-002 -3.672312e-001 -2.274692e-001 -7.442624e-003 -1.740502e-001 -4.656168e-002 1.341594e-001 1.194867e-001 6.311010e-002 7.804123e-002 5.088324e-002 -1.417976e-001 -2.868855e-002 -2.824431e-002 -1.610490e-002 -4.859555e-002 9.325554e-002 -1.167587e-001
<VARIANCE> 39
 1.393038e+001 3.541115e+001 2.405271e+001 3.353812e+001 3.878483e+001 2.190102e+001 7.518796e+001 2.306233e+001 3.558717e+001 2.556460e+001 3.387272e+001 1.733296e+001 3.638396e+001 9.124758e-002 1.338251e+000 1.190626e+000 1.416168e+000 1.154190e+000 1.840786e+000 3.694834e+000 1.199521e+000 1.776855e+000 1.360492e+000 1.224495e+000 1.247691e+000 4.720999e-001 3.618194e-002 1.462977e-001 2.198239e-001 3.026650e-001 2.675585e-001 2.835917e-001 5.800683e-001 2.833733e-001 2.833802e-001 2.670819e-001 4.224477e-001 2.840717e-001 1.004755e-001
<GCONST> 9.743971e+001
<STATE> 4
<MEAN> 39
 -7.970799e+000 -2.707539e-001 -1.425240e+000 -1.389433e+000 1.500745e+000 3.030679e+000 -2.487938e+000 -1.661097e+000 -9.101572e+000 -3.401607e+000 -4.855001e+000 -9.429210e-001 6.369448e+001 -6.665017e-002 -3.540370e-003 4.595646e-002 -2.083880e-002 -2.085754e-002 2.918355e-002 -3.625008e-002 -8.630171e-003 3.463436e-002 3.649087e-002 3.412258e-002 1.113942e-002 -4.091410e-002 3.153014e-003 -3.818580e-003 -1.682627e-003 3.520448e-003 4.833099e-003 -8.583407e-003 -6.543243e-003 -1.847272e-003 -8.774737e-003 1.306817e-003 -4.706054e-003 8.166831e-003 2.826087e-003
<VARIANCE> 39
 7.172950e+000 2.758678e+000 6.358982e+000 5.277160e+000 1.020025e+001 7.383544e+000 9.761302e+000 8.599801e+000 1.043402e+001 8.104453e+000 1.142448e+001 6.609824e+000 6.052179e+000 9.951764e-002 1.662256e-001 3.341999e-001 4.065548e-001 4.791055e-001 7.292387e-001 8.306748e-001 8.301251e-001 7.672117e-001 6.814272e-001 9.362604e-001 6.592391e-001 6.035721e-002 1.587875e-002 2.652538e-002 6.132364e-002 8.257014e-002 9.505565e-002 1.442968e-001 1.774088e-001 1.722582e-001 1.634902e-001 1.317510e-001 2.010991e-001 1.199917e-001 5.471775e-003
<GCONST> 5.242419e+001
<TRANSP> 5
 0.000000e+000 1.000000e+000 0.000000e+000 0.000000e+000 0.000000e+000
 0.000000e+000 6.790549e-001 3.209451e-001 0.000000e+000 0.000000e+000
 0.000000e+000 0.000000e+000 8.723990e-001 1.276010e-001 0.000000e+000
 0.000000e+000 0.000000e+000 0.000000e+000 9.676458e-001 3.235412e-002
 0.000000e+000 0.000000e+000 0.000000e+000 0.000000e+000 0.000000e+000
<ENDHMM>
~h "ai"
<BEGINHMM>
<NUMSTATES> 5
<STATE> 2
<MEAN> 39
 -5.775238e+000 -1.650137e+000 9.895995e+000 -3.635641e+000 -5.257197e+000 2.533191e+000 -9.468415e+000 4.513691e+000 -5.415965e+000 2.960769e+000 -2.786716e+000 -2.495525e-001 6.856622e+001 5.069823e-001 6.094079e-002 9.771629e-002 2.720910e-002 3.302776e-001 -1.537348e-003 -2.772976e-001 -3.138524e-001 -1.835384e-001 1.908871e-002 -2.218779e-001 -2.098151e-002 3.839576e-001 4.769393e-002 -8.610072e-002 -8.582173e-002 -8.571662e-002 -2.980472e-002 -2.230529e-002 -2.331789e-003 -8.798942e-003 -5.338342e-003 1.191438e-001 4.462546e-002 -1.196116e-002 7.461387e-002
<VARIANCE> 39
 4.213892e+001 5.710079e+001 5.446297e+001 2.533899e+001 3.390928e+001 5.420358e+001 5.050766e+001 8.750932e+001 2.366862e+001 8.207079e+001 3.551082e+001 2.429388e+001 1.869584e+001 2.015125e+000 5.378679e+000 2.056129e+000 1.764806e+000 2.691467e+000 3.972661e+000 4.840136e+000 2.212229e+000 1.987372e+000 1.894886e+000 3.586442e+000 1.384910e+000 1.082518e+000 2.418156e-001 8.520139e-001 3.346913e-001 3.325387e-001 4.748327e-001 6.900410e-001 1.099290e+000 4.537187e-001 3.493954e-001 3.339680e-001 6.799396e-001 2.685992e-001 1.461615e-001
<GCONST> 1.199255e+002
<STATE> 3
<MEAN> 39
 -8.163172e+000 -9.710896e+000 5.234637e+000 -9.162786e+000 4.786173e+000 6.456088e-001 -2.222125e+000 6.039308e-001 -3.187248e+000 1.472810e+000 -2.869351e+000 2.584165e+000 7.414119e+001 2.813261e-001 -2.941337e-001 -8.975205e-001 -7.396010e-001 -4.297134e-001 -2.847952e-001 6.415209e-001 2.723877e-002 1.659686e-001 3.032202e-001 2.341935e-002 7.244136e-002 3.480394e-001 -3.437515e-002 1.247620e-001 -2.941780e-002 9.104627e-002 4.546413e-003 2.114926e-003 6.141347e-002 8.086220e-002 7.520311e-002 -1.020832e-001 -4.482400e-002 -5.070718e-002 -1.094233e-001
<VARIANCE> 39
 5.763744e+001 6.945120e+001 8.817128e+001 4.495124e+001 1.195863e+002 5.720628e+001 6.345763e+001 8.749764e+001 7.784473e+001 7.800191e+001 5.572424e+001 3.531784e+001 3.067893e+001 3.837630e+000 4.370819e+000 4.167783e+000 3.639473e+000 4.846321e+000 9.158760e+000 8.015258e+000 5.753801e+000 5.590833e+000 6.956213e+000 3.582392e+000 3.495106e+000 1.369569e+000 6.923890e-001 7.160691e-001 5.672578e-001 8.562401e-001 8.158445e-001 2.334414e+000 2.040308e+000 1.377424e+000 1.137915e+000 1.241119e+000 6.469228e-001 5.488963e-001 2.100437e-001
<GCONST> 1.430984e+002
<STATE> 4
<MEAN> 39
 -9.201500e-001 -1.173471e+001 -1.767165e+001 -1.017102e+001 -1.065037e+001 -4.809552e+000 5.573936e+000 -1.484601e+001 2.797984e+000 -4.091360e+000 9.239168e-001 -1.422015e+001 8.662927e+001 -6.247688e-002 1.890106e-001 1.199347e-002 1.131557e-002 -6.566063e-002 -3.250825e-001 2.077659e-001 5.070611e-002 1.338193e-001 -4.223062e-001 -1.385084e-003 -1.215211e-002 -6.743176e-002 -1.322743e-002 3.962346e-002 1.002272e-001 2.612501e-002 7.029765e-003 -6.087811e-002 -1.108658e-001 5.527232e-002 -1.121704e-001 -4.937152e-003 2.613259e-003 9.964434e-002 -2.966169e-002
<VARIANCE> 39
 6.720560e+000 5.919900e+000 1.556758e+001 9.496643e+000 5.355673e+001 1.346474e+001 2.361777e+001 8.033204e+001 5.302133e+001 1.790366e+001 3.714967e+001 6.816027e+001 2.120678e+001 1.300540e-001 2.011181e-001 5.341867e-001 3.083620e-001 3.174499e-001 1.229487e+000 1.308112e+000 1.221642e+000 1.169035e+000 6.532011e-001 3.151309e-001 6.994264e-001 4.368350e-002 3.077509e-002 2.724306e-002 5.793715e-002 7.572481e-002 4.444092e-002 1.423395e-001 1.826225e-001 1.527734e-001 4.982176e-002 1.129756e-001 5.815196e-002 9.820160e-002 5.247782e-003
<GCONST> 6.465012e+001
<TRANSP> 5
 0.000000e+000 1.000000e+000 0.000000e+000 0.000000e+000 0.000000e+000
 0.000000e+000 9.439471e-001 5.605294e-002 0.000000e+000 0.000000e+000
 0.000000e+000 0.000000e+000 9.316519e-001 6.834809e-002 0.000000e+000
 0.000000e+000 0.000000e+000 0.000000e+000 9.187709e-001 8.122910e-002
 0.000000e+000 0.000000e+000 0.000000e+000 0.000000e+000 0.000000e+000
<ENDHMM>
~h "as"
<BEGINHMM>
<NUMSTATES> 5
<STATE> 2
<MEAN> 39
 -1.781205e+000 -1.407825e+001 -1.847454e+001 -9.967126e+000 -1.110580e+001 5.163772e+000 -6.889503e+000 -1.046546e+001 6.574116e+000 -1.883186e+001 9.398869e+000 -1.045023e+001 8.505995e+001 -1.308717e-001 2.869800e-003 -5.079900e-002 -9.394401e-002 5.770648e-002 -2.838490e-001 2.503354e-001 -2.291636e-001 -1.906205e-001 -1.370148e-001 -3.568485e-001 -1.591434e-001 -3.911342e-002 1.505408e-002 9.060363e-002 6.295577e-002 9.258762e-003 -5.194340e-002 -1.223775e-001 3.667234e-002 -3.016126e-002 -2.180649e-001 8.222587e-002 -3.045135e-002 -9.661452e-002 -9.269960e-003
<VARIANCE> 39
 5.997259e+000 2.941525e+001 4.464081e+001 8.871240e+000 7.382976e+000 1.975036e+001 2.318033e+001 5.130127e+001 3.351867e+001 5.994337e+001 2.958755e+001 1.621291e+001 8.840479e+001 1.202764e-001 1.477111e-001 3.391700e-001 4.351599e-001 4.622863e-001 9.193100e-001 1.548384e+000 5.518783e-001 1.499698e+000 9.143587e-001 1.436666e+000 6.724887e-001 4.479612e-002 2.854643e-002 3.558862e-002 2.363684e-002 7.100144e-002 5.247689e-002 1.126784e-001 3.125661e-001 7.679510e-002 8.322948e-002 2.110422e-001 2.160746e-001 1.135178e-001 1.089073e-002
<GCONST> 6.896268e+001
<STATE> 3
<MEAN> 39
 -1.476680e+000 -5.593881e+000 -1.302637e+001 -2.728197e+000 -1.007843e+001 -4.977670e+000 -7.515514e+000 -1.239656e+001 -1.034084e+001 -1.556340e+001 -2.345585e+000 -9.081339e+000 7.503780e+001 -1.396970e-001 5.879626e-001 4.179346e-001 6.216426e-001 2.036968e-001 -7.124264e-002 -2.072847e-001 1.445315e-001 -6.232092e-001 4.021409e-001 -5.137292e-001 4.135639e-001 -8.750178e-001 -5.990981e-002 -2.766044e-002 5.375715e-003 4.430044e-002 6.419837e-002 9.403680e-002 5.459682e-002 7.200591e-002 1.328600e-001 -3.354817e-002 6.182332e-002 -5.707064e-002 -1.939457e-002
<VARIANCE> 39
 1.029053e+001 1.908108e+001 1.976188e+001 1.967323e+001 1.090507e+001 2.130393e+001 2.426677e+001 4.001808e+001 4.013292e+001 3.430589e+001 2.379903e+001 2.928431e+001 5.679936e+001 5.706406e-001 1.892329e-001 3.234094e-001 8.221223e-001 3.944134e-001 9.404179e-001 9.354008e-001 2.965953e-001 2.052374e+000 6.880917e-001 1.526615e+000 3.922353e-001 3.139730e-001 7.097717e-002 5.332536e-002 6.135491e-002 1.830449e-001 1.004660e-001 1.281661e-001 2.522642e-001 8.818412e-002 1.089482e-001 1.720969e-001 2.297322e-001 1.216261e-001 7.036498e-002
<GCONST> 7.747779e+001
<STATE> 4
<MEAN> 39
 -9.186104e+000 -5.080035e-001 -4.250334e+000 6.776837e-001 -1.081161e+000 1.960954e+000 -3.375216e+000 -3.883354e+000 -6.511852e+000 -4.696855e+000 -4.392208e+000 -1.810602e+000 6.396182e+001 -4.180779e-002 4.172447e-003 1.582964e-002 8.526974e-003 2.514010e-002 2.466627e-002 1.925305e-002 4.052795e-002 5.255550e-002 2.215924e-002 -4.382265e-003 -1.395018e-002 -2.097359e-002 4.964594e-003 2.498133e-003 4.209716e-003 -2.690132e-004 -8.356951e-003 -7.104006e-003 -3.146369e-003 -1.302481e-003 1.595737e-003 -6.892732e-003 1.238375e-003 -2.370794e-003 4.264543e-003
<VARIANCE> 39
 3.965452e+000 1.888800e+000 1.694844e+001 1.308107e+001 1.651245e+001 9.107051e+000 9.392488e+000 1.380575e+001 2.550775e+001 9.232528e+000 9.794227e+000 8.330227e+000 1.636436e+000 1.095568e-001 1.706135e-001 3.165002e-001 3.744192e-001 5.412036e-001 6.450590e-001 8.433900e-001 7.829186e-001 9.457482e-001 8.977919e-001 9.198630e-001 8.795892e-001 3.762477e-002 1.842936e-002 3.460952e-002 6.602681e-002 7.082924e-002 1.046432e-001 1.234621e-001 1.726914e-001 1.410545e-001 1.915175e-001 1.983430e-001 1.953724e-001 1.830973e-001 6.136022e-003
<GCONST> 5.560956e+001
<TRANSP> 5
 0.000000e+000 1.000000e+000 0.000000e+000 0.000000e+000 0.000000e+000
 0.000000e+000 7.894726e-001 2.105274e-001 0.000000e+000 0.000000e+000
 0.000000e+000 0.000000e+000 8.529478e-001 1.470522e-001 0.000000e+000
 0.000000e+000 0.000000e+000 0.000000e+000 9.845503e-001 1.544969e-002
 0.000000e+000 0.000000e+000 0.000000e+000 0.000000e+000 0.000000e+000
<ENDHMM>
~h "aw"
<BEGINHMM>
<NUMSTATES> 5
<STATE> 2
<MEAN> 39
 -1.276966e+001 -1.992415e-002 1.015433e+000 -5.106881e-001 1.329655e+000 -1.435216e+000 2.325314e+000 -7.482839e+000 2.849462e-001 -2.445390e+000 4.758178e+000 -9.566348e-001 6.847398e+001 4.656063e-001 -3.199527e-001 -2.605055e-001 4.406713e-002 4.701070e-001 8.242162e-001 1.648862e-001 6.045014e-001 1.848158e-001 9.404573e-001 1.931558e-001 6.379372e-001 4.275261e-002 3.852878e-002 -1.446644e-001 -1.043800e-001 -5.330763e-002 2.397124e-002 -2.398864e-001 -1.542618e-001 7.103298e-002 -1.705931e-001 -8.013888e-002 -3.679717e-001 -6.545193e-002 3.110308e-002
<VARIANCE> 39
 8.938033e+000 5.207515e+000 2.230642e+001 6.172780e+001 4.829856e+001 5.867849e+001 1.178732e+001 1.259467e+001 3.422477e+001 1.967906e+001 1.115026e+001 1.238672e+001 1.461961e+001 2.437811e-001 8.394896e-001 1.171160e+000 2.836757e-001 1.249398e+000 1.630219e+000 1.023009e+000 9.140666e-001 1.334840e+000 2.232413e+000 2.056889e+000 1.437977e+000 2.933868e-001 7.743178e-002 1.063671e-001 1.238684e-001 9.183971e-002 3.796062e-001 3.115133e-001 2.791074e-001 3.226076e-001 3.581455e-001 6.199800e-001 3.820436e-001 3.869205e-001 7.779611e-002
<GCONST> 8.893574e+001
<STATE> 3
<MEAN> 39
 -1.048297e+001 -3.562861e+000 -4.227336e+000 4.149558e-002 -9.170088e-001 -1.791915e+000 -2.143273e+000 -6.871423e+000 -4.071601e+000 -1.253499e+000 1.062410e+000 1.079076e+000 6.758999e+001 -6.073953e-003 -1.189908e-001 1.525664e-001 -3.043148e-002 -4.677236e-001 -3.721545e-002 -5.733086e-001 8.050022e-001 -2.808021e-001 1.212327e-001 -8.430868e-001 1.258466e-001 -4.773279e-001 -4.934034e-002 1.166016e-001 7.223581e-002 8.463933e-002 4.400330e-002 2.811141e-001 7.827926e-002 8.506488e-002 5.279642e-002 -1.219570e-001 7.713185e-002 -1.852372e-001 -5.498095e-002
<VARIANCE> 39
 1.703638e+000 2.005129e+000 4.765017e+001 2.530260e+001 2.615052e+001 2.185693e+001 5.385542e+000 3.604696e+001 1.410373e+001 2.190674e+001 1.328427e+001 2.416521e+001 3.880709e+000 4.589037e-001 3.294815e-001 7.971849e-001 1.031192e+000 9.335524e-001 2.101794e+000 1.269880e+000 3.699430e+000 1.533372e+000 1.828813e+000 1.212660e+000 3.511726e+000 1.195189e-001 4.638131e-002 8.726785e-002 1.296249e-001 1.906354e-001 2.103203e-001 2.168767e-001 1.858552e-001 2.999814e-001 2.248358e-001 3.275417e-001 2.147118e-001 5.671079e-001 3.782133e-002
<GCONST> 8.179637e+001
<STATE> 4
<MEAN> 39
 -1.145341e+001 -1.488880e+000 -6.270007e+000 2.350544e+000 -2.279947e+000 3.202331e+000 -2.066179e+000 -4.345952e+000 -8.900374e-001 -2.646012e+000 -3.659230e+000 1.740748e-001 6.329930e+001 -5.544684e-003 2.018640e-002 1.183827e-002 2.330168e-002 7.277497e-004 3.494585e-002 1.022732e-002 5.270408e-002 -7.068370e-003 -4.408499e-002 -6.601831e-002 -2.700910e-003 -3.008101e-002 2.866580e-003 6.673483e-004 1.118572e-003 2.871548e-003 -1.075665e-002 -6.112838e-003 -1.414169e-002 -1.887876e-002 -9.306021e-003 -1.571286e-003 1.700202e-002 -4.992688e-003 5.096485e-003
<VARIANCE> 39
 3.321344e+000 1.549585e+000 1.704400e+001 1.142247e+001 1.034201e+001 5.466236e+000 8.341207e+000 1.005841e+001 2.915816e+001 7.266628e+000 9.179481e+000 6.760015e+000 6.486427e-001 7.606745e-002 1.182907e-001 2.505539e-001 3.258280e-001 4.956339e-001 4.883865e-001 7.647064e-001 7.192728e-001 7.742115e-001 6.125407e-001 8.312247e-001 5.335404e-001 2.700154e-002 1.481905e-002 2.465158e-002 5.330321e-002 6.599980e-002 1.001639e-001 9.480807e-002 1.731214e-001 1.443014e-001 1.627460e-001 1.169806e-001 1.709688e-001 1.091414e-001 4.180355e-003
<GCONST> 4.636785e+001
<TRANSP> 5
 0.000000e+000 1.000000e+000 0.000000e+000 0.000000e+000 0.000000e+000
 0.000000e+000 7.675319e-001 2.324681e-001 0.000000e+000 0.000000e+000
 0.000000e+000 0.000000e+000 7.627968e-001 2.372033e-001 0.000000e+000
 0.000000e+000 0.000000e+000 0.000000e+000 9.686278e-001 3.137220e-002
 0.000000e+000 0.000000e+000 0.000000e+000 0.000000e+000 0.000000e+000
<ENDHMM>
~h "ch"
<BEGINHMM>
<NUMSTATES> 5
<STATE> 2
<MEAN> 39
 -9.470744e+000 -1.087236e+000 5.767582e-001 1.385915e-001 -7.025560e+000 4.929043e+000 -7.141491e+000 4.517162e+000 -5.171925e+000 -1.810517e+000 4.078325e-002 -5.029160e+000 6.057577e+001 1.079250e-001 9.541720e-002 1.137269e+000 -1.150007e+000 6.562257e-001 -1.341725e+000 -2.635908e-001 -5.535828e-001 -1.397244e+000 1.198978e+000 -4.932114e-001 9.596833e-001 8.522605e-001 -2.192151e-001 7.283376e-002 1.340749e-001 -5.603336e-001 4.758848e-001 -2.909375e-001 4.956662e-002 -1.305229e-001 -4.462698e-002 3.353581e-001 -1.686548e-001 2.128205e-001 1.517321e-001
<VARIANCE> 39
 5.318624e+001 2.996188e+000 2.400228e+001 8.160156e+000 6.731835e+001 2.561953e+001 9.698814e+001 2.576772e+001 1.994709e+001 3.966920e+000 1.975668e+001 1.463497e+001 1.156188e+001 9.300268e-001 3.090249e-001 1.291285e+000 1.939880e+000 1.524974e+000 4.097585e-001 1.543466e+000 4.559725e-001 2.229912e-001 8.991511e-001 1.101786e+000 2.106755e+000 2.979150e-001 2.016256e-001 4.854823e-002 2.240138e-001 1.065624e-001 1.424050e-001 1.198178e-001 2.922509e-001 8.554760e-002 2.581455e-001 3.238136e-001 1.250317e-001 2.055840e-001 1.503391e-001
<GCONST> 8.250298e+001
<STATE> 3
<MEAN> 39
 -1.373742e+001 -5.431997e-001 3.904474e+000 -5.428496e+000 -2.941690e-001 6.000847e-001 -4.240139e+000 4.807716e+000 -6.971165e+000 3.205904e+000 -1.265657e+000 -3.326178e+000 6.136974e+001 -1.776723e-001 -3.702977e-002 -5.752381e-001 -6.923077e-002 4.205047e-001 -6.587128e-001 5.186617e-001 -6.430374e-001 1.680838e-001 5.394552e-001 -2.638424e-001 1.762524e-002 -4.033062e-002 3.061869e-001 -8.927900e-002 -4.040287e-001 3.709385e-001 -4.681808e-001 3.715675e-001 -2.452169e-001 -1.093785e-001 1.440070e-001 -4.958743e-001 -1.308110e-001 -1.301596e-001 -6.884730e-002
<VARIANCE> 39
 6.106927e+001 6.391507e+000 3.782667e+001 3.256895e+001 5.588848e+001 1.264162e+001 2.805934e+001 1.684431e+001 1.593555e+001 1.086230e+001 4.920945e+000 1.121745e+001 1.446375e+001 2.603002e+000 1.584961e-001 3.441800e+000 3.572073e+000 3.613880e+000 9.654932e-001 1.487920e+000 1.245400e+000 2.405703e+000 2.523958e+000 5.094581e-001 3.351377e-001 7.064639e-001 3.913722e-001 1.526916e-001 7.136459e-001 7.000840e-001 4.732261e-001 1.704501e-001 5.088813e-001 1.430565e-001 4.195156e-001 2.906621e-001 1.186659e-001 2.388811e-001 2.339427e-001
<GCONST> 9.672550e+001
<STATE> 4
<MEAN> 39
 -1.187535e+001 -9.518994e-001 -5.547296e-001 -2.194576e+000 -3.266210e+000 -8.229223e-002 -4.318131e+000 1.208854e+000 -6.827950e+000 1.301813e+000 -3.345757e+000 -3.111800e+000 6.145259e+001 1.667581e-001 4.948512e-002 4.125629e-001 3.769339e-001 -1.113586e-001 2.591307e-001 -2.599249e-001 -1.996491e-001 -5.452222e-001 -1.992364e-001 -5.547391e-001 1.779035e-001 7.711792e-002 -2.463439e-001 -1.031045e-001 5.381712e-001 -6.152149e-002 7.817981e-002 2.413161e-001 2.023518e-001 1.539948e-001 1.564689e-001 2.026289e-002 1.070206e-001 -9.685692e-002 1.064223e-001
<VARIANCE> 39
 2.871409e+001 2.110495e+000 2.720251e+001 2.713353e+001 9.042339e+000 1.429169e+001 4.631320e+001 3.010254e+001 2.725393e+001 1.782879e+001 1.275025e+001 8.421771e+000 1.722581e+001 6.540814e-001 8.754829e-001 4.503314e-001 7.176824e-001 1.141798e+000 4.732727e-001 1.812041e+000 9.769387e-001 1.180792e+000 1.063850e+000 1.407226e+000 3.383431e-001 6.261376e-001 3.797070e-001 2.192640e-001 2.200623e-001 5.064285e-001 2.555293e-001 7.609665e-002 2.978867e-001 2.593491e-001 3.362442e-001 3.219692e-001 3.305472e-001 9.313940e-002 2.151425e-001
<GCONST> 8.706130e+001
<TRANSP> 5
 0.000000e+000 1.000000e+000 0.000000e+000 0.000000e+000 0.000000e+000
 0.000000e+000 4.991477e-001 5.008524e-001 0.000000e+000 0.000000e+000
 0.000000e+000 0.000000e+000 5.999799e-001 4.000201e-001 0.000000e+000
 0.000000e+000 0.000000e+000 0.000000e+000 7.263486e-001 2.736514e-001
 0.000000e+000 0.000000e+000 0.000000e+000 0.000000e+000 0.000000e+000
<ENDHMM>
~h "is"
<BEGINHMM>
<NUMSTATES> 5
<STATE> 2
<MEAN> 39
 -7.758810e-001 -2.838902e+000 8.599113e+000 -1.651271e+000 -5.788192e+000 7.900648e+000 -1.309091e+001 7.905381e+000 -3.457136e+000 2.591084e+000 7.844921e-001 -2.655804e+000 6.803321e+001 -3.094362e-002 -2.691483e-002 -2.129063e-003 4.133134e-003 -3.474972e-002 1.434560e-002 5.477380e-002 -7.433666e-002 7.478441e-002 -7.766863e-002 8.083706e-002 -3.126700e-002 1.885515e-002 -3.837683e-002 -1.806041e-002 8.880495e-003 -4.688994e-002 3.036545e-002 -3.732446e-002 1.814758e-002 -4.174801e-002 3.337743e-004 6.288188e-003 -2.597604e-002 -1.979615e-003 1.953429e-002
<VARIANCE> 39
 2.713059e+001 1.046420e+001 3.450350e+001 4.837304e+001 1.034215e+002 8.030227e+001 7.133237e+001 9.948975e+001 4.201011e+001 4.869675e+001 6.768211e+001 4.483350e+001 4.126072e+001 2.400398e+000 1.048224e+000 2.046156e+000 2.476366e+000 3.151188e+000 3.817135e+000 5.403557e+000 6.994980e+000 4.795139e+000 3.815056e+000 3.571410e+000 2.612762e+000 1.077598e+000 4.681702e-001 2.238104e-001 3.729665e-001 4.275086e-001 5.728465e-001 6.695005e-001 9.720119e-001 1.285833e+000 9.841745e-001 7.924409e-001 6.209408e-001 4.129822e-001 1.701960e-001
<GCONST> 1.276712e+002
<STATE> 3
<MEAN> 39
 -6.558459e+000 -3.387781e+000 1.355912e+001 7.742441e-001 -2.078784e+000 3.311623e+000 -1.175568e+001 1.486144e+000 -4.341044e+000 -4.847964e-001 -3.771601e+000 -4.046273e+000 6.891614e+001 3.411622e-001 -1.084460e-001 3.454668e-001 3.683643e-001 8.764778e-002 -6.118300e-001 -5.267423e-001 -9.170250e-002 -4.460495e-001 -7.194324e-002 5.740935e-002 -1.880626e-002 4.474774e-001 1.405234e-001 3.254118e-002 -1.564086e-001 1.309791e-001 -5.083284e-002 -4.200115e-002 -5.530902e-002 9.062653e-002 -4.123019e-002 1.392232e-004 7.752788e-002 2.082966e-002 -3.963448e-002
<VARIANCE> 39
 6.208663e+001 3.318758e+001 1.061996e+002 5.770538e+001 1.197741e+002 1.506494e+002 1.094935e+002 1.004067e+002 3.743552e+001 2.932713e+001 7.111767e+001 3.889883e+001 5.418983e+001 4.686347e+000 3.229616e+000 4.717273e+000 7.577616e+000 1.046078e+001 1.360594e+001 8.138970e+000 4.374941e+000 2.941293e+000 3.277031e+000 3.479225e+000 3.379913e+000 2.846634e+000 8.107722e-001 6.322071e-001 5.777622e-001 1.436965e+000 2.078192e+000 2.451925e+000 1.795639e+000 9.137619e-001 5.721875e-001 5.750024e-001 3.929591e-001 7.223622e-001 4.129792e-001
<GCONST> 1.446677e+002
<STATE> 4
<MEAN> 39
 -1.720810e+000 -7.139877e+000 4.462913e+000 8.177909e+000 3.318676e-001 -2.175456e+001 -1.351858e+001 -1.048525e+001 -1.905775e+001 -1.197386e+000 -4.847699e+000 -7.969808e+000 7.905740e+001 8.676115e-002 1.831149e-001 -4.039144e-001 -1.199069e-001 -4.579899e-001 1.027186e-001 6.880384e-002 1.648733e-001 2.387208e-001 -6.085815e-002 -8.723111e-002 -8.117203e-002 -3.471783e-001 -1.119566e-001 7.032729e-002 9.208132e-002 -8.990894e-002 -5.229089e-002 1.665407e-001 7.068618e-002 -7.140742e-003 1.429772e-001 2.156569e-002 -3.919875e-002 2.329259e-002 -7.810034e-002
<VARIANCE> 39
 5.885266e+000 1.820447e+001 8.489970e+001 1.431186e+001 6.183802e+001 3.867287e+001 1.731307e+001 1.034376e+002 1.860175e+001 4.416076e+001 3.042860e+001 4.220702e+001 3.853280e+001 4.280559e-001 8.067299e-001 8.971642e-001 1.174846e+000 1.419442e+000 1.427365e+000 1.038542e+000 9.042283e-001 9.925741e-001 1.244846e+000 1.281161e+000 1.084222e+000 5.582765e-001 8.510804e-002 1.106747e-001 1.106562e-001 2.569721e-001 2.830552e-001 3.630454e-001 1.982460e-001 1.527877e-001 1.615469e-001 2.325062e-001 2.260396e-001 1.532812e-001 6.187344e-002
<GCONST> 9.241003e+001
<TRANSP> 5
 0.000000e+000 1.000000e+000 0.000000e+000 0.000000e+000 0.000000e+000
 0.000000e+000 9.739264e-001 2.607361e-002 0.000000e+000 0.000000e+000
 0.000000e+000 0.000000e+000 9.559854e-001 4.401462e-002 0.000000e+000
 0.000000e+000 0.000000e+000 0.000000e+000 9.303438e-001 6.965620e-002
 0.000000e+000 0.000000e+000 0.000000e+000 0.000000e+000 0.000000e+000
<ENDHMM>
~h "kh"
<BEGINHMM>
<NUMSTATES> 5
<STATE> 2
<MEAN> 39
 -1.212447e+001 -3.211714e+000 1.692895e+000 -5.387929e+000 -2.734710e+000 7.534058e+000 -4.328972e+000 -2.418185e+000 -5.289887e+000 -1.123382e-001 3.706239e-001 -2.340458e+000 6.596972e+001 9.472136e-001 -5.978819e-001 9.533148e-002 -7.412044e-001 -5.096441e-001 -6.435670e-001 2.738710e-001 -2.743541e-001 -1.480932e-002 -3.585638e-001 2.572958e-002 -1.153028e-001 1.591098e+000 1.067747e-002 -2.833031e-002 -1.218388e-001 -6.212657e-002 -1.076668e-001 -1.049538e-001 -4.284531e-002 1.091666e-001 -6.692634e-002 -3.078298e-002 2.294412e-002 7.929685e-003 -3.783587e-002
<VARIANCE> 39
 7.148138e+001 8.048544e+001 6.925504e+001 6.203845e+001 6.222617e+001 5.087554e+001 3.332122e+001 8.938576e+001 1.951033e+001 3.708511e+001 4.367695e+001 5.109793e+001 1.793643e+002 3.526291e+000 3.133658e+000 3.502372e+000 5.413694e+000 5.548946e+000 5.108370e+000 3.337238e+000 3.735488e+000 2.587414e+000 4.783158e+000 1.975654e+000 4.138006e+000 2.570380e+000 4.923416e-001 6.184424e-001 5.380540e-001 9.452513e-001 9.552087e-001 9.816788e-001 7.020649e-001 7.916279e-001 5.481655e-001 1.093957e+000 4.898747e-001 8.398871e-001 3.988484e-001
<GCONST> 1.361814e+002
<STATE> 3
<MEAN> 39
 -3.717170e+000 -3.951015e+000 6.634848e+000 -1.249525e+001 -2.127012e+000 -8.155592e+000 -5.255570e+000 8.120421e+000 -1.036784e+001 -1.564453e+000 -1.111189e+000 1.772782e+000 7.270681e+001 2.407324e-001 2.339604e-002 -2.650794e-001 1.100948e-001 -1.352475e-001 -2.863404e-001 3.854413e-002 -3.030197e-002 2.054467e-002 -3.578671e-002 6.504823e-002 -1.119152e-001 1.196447e-001 -4.152756e-002 1.947745e-002 8.203805e-004 1.415625e-002 3.863548e-002 6.654260e-002 3.365979e-002 -9.471570e-002 3.379591e-002 -2.238855e-002 2.590014e-002 3.334764e-002 -1.562663e-002
<VARIANCE> 39
 4.407730e+001 1.877489e+001 2.205281e+001 7.261478e+001 4.188849e+001 1.262621e+002 3.488062e+001 5.515122e+001 7.817265e+001 3.700089e+001 2.442490e+001 5.275603e+001 3.231131e+001 9.601265e-001 8.172572e-001 1.677390e+000 1.715914e+000 1.531059e+000 3.273697e+000 3.128259e+000 6.080092e+000 3.593844e+000 2.909760e+000 2.737938e+000 2.795532e+000 8.823532e-001 1.511590e-001 1.388772e-001 3.321430e-001 2.469860e-001 2.431290e-001 5.049739e-001 5.158192e-001 9.506502e-001 6.469823e-001 5.560901e-001 5.090649e-001 5.703719e-001 1.151724e-001
<GCONST> 1.165512e+002
<STATE> 4
<MEAN> 39
 -8.127560e+000 2.834242e-001 -3.856435e-001 -1.166142e+000 7.681748e-001 1.328315e+000 -4.218796e+000 -2.617984e+000 -9.605406e+000 -3.490898e+000 -4.922823e+000 -1.015190e+000 6.355807e+001 -4.433231e-002 -1.779613e-003 -2.840073e-002 -1.629162e-002 4.167884e-002 6.078309e-002 5.009864e-002 -1.852871e-003 1.317495e-002 -9.889165e-003 1.745870e-002 1.719172e-002 -2.832181e-002 3.433020e-003 -6.821208e-004 4.331361e-003 -4.023060e-003 -4.200113e-003 -4.975419e-003 -9.006784e-003 4.730671e-003 -1.273356e-002 -2.052015e-003 -8.262731e-003 -5.326015e-003 3.376906e-004
<VARIANCE> 39
 5.334860e+000 3.412145e+000 4.041051e+000 4.642503e+000 9.154860e+000 1.551999e+001 1.044097e+001 7.039974e+000 8.162178e+000 6.901652e+000 8.359805e+000 7.367059e+000 7.651038e+000 7.779062e-002 1.640338e-001 3.324764e-001 4.002013e-001 5.084299e-001 7.166860e-001 6.764855e-001 6.776860e-001 7.484903e-001 8.833038e-001 9.784954e-001 7.255471e-001 3.398487e-002 1.482742e-002 3.913939e-002 7.295385e-002 8.093778e-002 1.104223e-001 1.463427e-001 1.435031e-001 1.516244e-001 1.652506e-001 1.725265e-001 1.819947e-001 1.494546e-001 9.551506e-003
<GCONST> 5.229485e+001
<TRANSP> 5
 0.000000e+000 1.000000e+000 0.000000e+000 0.000000e+000 0.000000e+000
 0.000000e+000 9.278648e-001 7.213514e-002 0.000000e+000 0.000000e+000
 0.000000e+000 0.000000e+000 9.517155e-001 4.828450e-002 0.000000e+000
 0.000000e+000 0.000000e+000 0.000000e+000 9.799101e-001 2.008986e-002
 0.000000e+000 0.000000e+000 0.000000e+000 0.000000e+000 0.000000e+000
<ENDHMM>
~h "ng"
<BEGINHMM>
<NUMSTATES> 5
<STATE> 2
<MEAN> 39
 1.813338e+000 3.963800e-001 -7.799488e+000 -5.602483e+000 -1.697038e+001 -5.803510e+000 3.253706e+000 8.737594e-001 -3.875120e+000 -8.491176e+000 4.010519e+000 -5.039492e+000 7.576039e+001 -1.177087e-001 6.088842e-002 -4.632045e-002 -1.282941e-001 -1.055671e-001 -7.717054e-002 -6.323292e-002 7.705223e-003 8.228104e-002 4.774706e-002 1.574637e-002 5.335010e-002 -1.010049e-001 -1.557894e-002 -9.076521e-003 -2.355421e-003 7.155213e-003 3.348446e-002 1.039903e-002 -2.615329e-003 1.746051e-003 1.932916e-002 -1.431215e-002 -1.645440e-002 -1.260286e-002 -3.212484e-003
<VARIANCE> 39
 3.162261e+001 7.777243e+000 2.322079e+001 5.329137e+001 8.225903e+001 4.945165e+001 5.678974e+001 3.696177e+001 1.375592e+001 5.648689e+001 5.882339e+001 3.213346e+001 5.504793e+001 1.017958e+000 4.685636e-001 9.724531e-001 2.248916e+000 2.017104e+000 1.539546e+000 1.293322e+000 2.054568e+000 1.780366e+000 1.680915e+000 2.706282e+000 1.249445e+000 8.859653e-001 8.266035e-002 7.916059e-002 1.534043e-001 3.682426e-001 2.677047e-001 2.576882e-001 1.960945e-001 3.378410e-001 3.909808e-001 2.632347e-001 4.442901e-001 2.171345e-001 6.069459e-002
<GCONST> 1.021119e+002
<STATE> 3
<MEAN> 39
 -3.486517e+000 -1.076981e+000 1.438864e+001 -4.813856e-002 3.969486e+000 9.038503e+000 -7.926820e+000 1.079036e+001 -2.289879e+000 6.435987e+000 -2.554296e+000 2.388759e-001 6.833463e+001 -2.493192e-001 -8.472812e-002 -2.397052e-001 4.738585e-002 -6.968667e-002 -7.434519e-002 1.898386e-001 -8.019619e-002 1.485438e-001 -1.238335e-001 3.091082e-001 -6.653225e-002 -1.673867e-001 2.083555e-002 1.212376e-002 -2.968334e-002 -1.408908e-002 3.506038e-002 -3.777797e-002 -6.947581e-002 -3.460429e-002 -1.010149e-002 4.788701e-003 -1.825947e-002 -1.471090e-003 1.117774e-002
<VARIANCE> 39
 1.703602e+001 5.204434e+001 6.682918e+001 3.061457e+001 7.178801e+001 6.556513e+001 5.501272e+001 5.319070e+001 3.143502e+001 3.122722e+001 3.479530e+001 3.715825e+001 1.752631e+001 1.591503e+000 2.139790e+000 1.443253e+000 3.660365e+000 3.287124e+000 4.399530e+000 6.032909e+000 3.002470e+000 3.384917e+000 3.212002e+000 3.717181e+000 2.414532e+000 9.900482e-001 3.293959e-001 2.583088e-001 1.778170e-001 7.852969e-001 6.004033e-001 8.190668e-001 1.047033e+000 4.792763e-001 6.715517e-001 6.703873e-001 5.805798e-001 4.603413e-001 1.655161e-001
<GCONST> 1.227244e+002
<STATE> 4
<MEAN> 39
 -1.461271e+001 1.763317e+000 -2.833409e+000 -3.434324e+000 -2.739294e+000 -1.520722e-001 8.806990e-001 2.359706e+000 -1.068839e+000 3.715197e-001 -1.526858e+000 -7.654629e-001 5.833844e+001 -5.581234e-002 3.884243e-002 1.440281e-001 2.281511e-001 1.673794e-001 3.836364e-002 -6.440397e-002 -1.133540e-002 2.944320e-002 1.183474e-002 2.648074e-002 -5.205542e-002 -4.301182e-002 5.235619e-002 3.330247e-002 2.775040e-002 1.103818e-002 -2.174340e-002 -8.631375e-004 -6.470144e-003 -1.401662e-002 -3.079902e-002 7.888654e-003 2.424088e-002 -1.140198e-002 2.531900e-002
<VARIANCE> 39
 7.024214e+000 3.038159e+000 5.658640e+000 1.132868e+001 1.042024e+001 7.195526e+000 1.130453e+001 1.137626e+001 7.112524e+000 7.373701e+000 7.096502e+000 4.856291e+000 6.190362e+000 8.640042e-001 2.945037e-001 3.057836e-001 6.891161e-001 7.174178e-001 9.399195e-001 1.195295e+000 1.470127e+000 9.126312e-001 7.395014e-001 7.209896e-001 5.527809e-001 8.761420e-001 2.275041e-001 8.443669e-002 6.608624e-002 1.529204e-001 1.442455e-001 2.574978e-001 2.894159e-001 3.472020e-001 1.923883e-001 1.667836e-001 1.624588e-001 1.183250e-001 2.252647e-001
<GCONST> 7.017426e+001
<TRANSP> 5
 0.000000e+000 1.000000e+000 0.000000e+000 0.000000e+000 0.000000e+000
 0.000000e+000 9.443956e-001 5.560440e-002 0.000000e+000 0.000000e+000
 0.000000e+000 0.000000e+000 9.373547e-001 6.264529e-002 0.000000e+000
 0.000000e+000 0.000000e+000 0.000000e+000 9.465517e-001 5.344828e-002
 0.000000e+000 0.000000e+000 0.000000e+000 0.000000e+000 0.000000e+000
<ENDHMM>
~h "oo"
<BEGINHMM>
<NUMSTATES> 5
<STATE> 2
<MEAN> 39
 3.025226e+000 -4.396794e+000 -9.469233e+000 -1.353184e+001 -1.436521e+001 -4.774880e+000 3.058206e+000 -2.289384e+000 -5.192769e+000 -7.718648e+000 4.399940e+000 -2.854504e+000 8.000517e+001 3.084497e-001 -3.705598e-003 2.252773e-001 -5.721485e-001 -6.673252e-001 -6.612410e-002 -4.303173e-001 3.986712e-001 -5.666300e-001 1.929672e-001 -5.719665e-001 4.439111e-001 -4.350726e-003 3.732445e-002 7.497717e-002 3.043060e-001 2.747887e-001 9.273543e-002 6.220464e-002 -4.212217e-001 2.102409e-001 -5.758904e-002 2.188292e-001 -3.215024e-001 -4.172571e-003 -1.351836e-001
<VARIANCE> 39
 1.387474e+001 5.153365e+001 6.389129e+001 1.278387e+001 7.391150e+001 3.395726e+001 2.580640e+001 1.618027e+001 1.516164e+001 4.610515e+001 1.590823e+001 5.906040e+001 6.935201e+001 2.274715e-001 1.009008e+000 1.545399e+000 5.665198e-001 4.392090e-001 1.309802e+000 1.966487e+000 1.627592e+000 1.409820e+000 1.805825e+000 2.384796e+000 1.341279e+000 5.461389e-001 5.170460e-002 1.534710e-001 1.519731e-001 2.024838e-001 1.128628e-001 4.178995e-001 3.929792e-001 3.692962e-001 2.977334e-001 4.977103e-001 7.264665e-001 3.161297e-001 1.404964e-001
<GCONST> 9.830473e+001
<STATE> 3
<MEAN> 39
 4.852365e+000 -3.510657e+000 -4.724646e+000 -8.225372e+000 -9.155117e+000 -6.844905e+000 -7.458859e+000 -5.970919e-001 -8.548268e+000 -3.178016e+000 -5.663380e+000 -5.335667e+000 7.837737e+001 1.152707e-001 4.397820e-001 5.867222e-001 1.680939e+000 6.968737e-001 8.071346e-001 -1.016306e+000 3.931640e-001 -2.251535e-001 6.997522e-001 -1.245169e+000 -6.157432e-001 -1.136657e+000 -1.064056e-001 -1.464054e-001 -4.530574e-002 4.919214e-002 -2.324718e-002 1.536757e-001 4.283592e-001 -5.942472e-002 1.100352e-001 -1.774199e-001 2.082812e-001 -1.457045e-001 9.231799e-002
<VARIANCE> 39
 1.761032e+001 1.063919e+001 1.357674e+002 2.395843e+001 1.360170e+002 6.700306e+001 1.644681e+002 3.374720e+001 1.566446e+001 1.233767e+002 5.264855e+001 4.665821e+001 2.790262e+001 1.400967e-001 1.508591e+000 3.560502e-001 5.336402e-001 8.839599e-001 9.312371e+000 7.520594e+000 1.571877e+000 7.700639e-001 2.691455e+000 3.054327e+000 3.751013e+000 1.109179e+000 1.995283e-002 2.141070e-001 1.036955e-001 1.385752e-001 3.364030e-001 1.042098e+000 7.000223e-001 1.646608e-001 1.600212e-001 5.275136e-001 5.753691e-001 1.105636e+000 1.278434e-001
<GCONST> 1.081841e+002
<STATE> 4
<MEAN> 39
 -9.001988e+000 -4.128945e+000 -5.610649e+000 2.587033e+000 -6.384429e+000 2.815513e-001 -3.391429e-001 -7.281353e+000 -5.740788e+000 -4.727733e+000 -1.001863e+000 -2.271456e+000 6.858616e+001 -1.597753e-001 5.185261e-002 5.299084e-002 5.259852e-002 1.108499e-001 1.626174e-001 -8.932163e-003 1.131772e-002 1.043383e-001 -2.653619e-002 3.593206e-002 1.186162e-001 -1.339444e-001 4.105839e-003 7.144903e-003 9.689789e-003 -1.743163e-003 -1.235908e-002 6.922054e-003 1.646214e-002 -4.259554e-003 4.964924e-003 1.136498e-002 1.353401e-002 7.373246e-003 3.516239e-003
<VARIANCE> 39
 3.344262e+001 1.257467e+001 2.207449e+001 1.830144e+001 1.480507e+001 2.946599e+001 1.760970e+001 1.750036e+001 2.358655e+001 8.466615e+000 1.817621e+001 2.267644e+001 9.169171e+000 3.104888e-001 3.459302e-001 4.411168e-001 4.895389e-001 5.381332e-001 5.491285e-001 6.054128e-001 6.165484e-001 9.000776e-001 7.513410e-001 7.646104e-001 1.004059e+000 1.325144e-001 2.478533e-002 4.437437e-002 6.045347e-002 7.502428e-002 9.203713e-002 1.023380e-001 1.067442e-001 1.172802e-001 1.585290e-001 1.490836e-001 1.822410e-001 1.990797e-001 1.177001e-002
<GCONST> 6.766042e+001
<TRANSP> 5
 0.000000e+000 1.000000e+000 0.000000e+000 0.000000e+000 0.000000e+000
 0.000000e+000 7.978061e-001 2.021938e-001 0.000000e+000 0.000000e+000
 0.000000e+000 0.000000e+000 7.729556e-001 2.270445e-001 0.000000e+000
 0.000000e+000 0.000000e+000 0.000000e+000 9.649042e-001 3.509579e-002
 0.000000e+000 0.000000e+000 0.000000e+000 0.000000e+000 0.000000e+000
<ENDHMM>
~h "sp"
<BEGINHMM>
<NUMSTATES> 3
<STATE> 2
~s "silst"
<TRANSP> 3
 0.000000e+000 7.000000e-001 3.000000e-001
 0.000000e+000 5.000000e-001 5.000000e-001
 0.000000e+000 0.000000e+000 0.000000e+000
<ENDHMM>
~h "ary"
<BEGINHMM>
<NUMSTATES> 5
<STATE> 2
<MEAN> 39
 -1.138250e+000 -6.141463e+000 3.857409e+000 3.540329e-001 -1.544166e+000 -1.284439e+001 -1.150259e+001 -1.894866e+000 -5.892898e+000 6.263657e+000 -7.449733e-001 -4.811364e+000 7.840287e+001 -3.645911e-001 -5.351581e-002 4.596598e-001 4.590726e-001 1.923907e-001 -4.590876e-001 -4.104570e-001 6.383677e-001 -1.191905e+000 -1.578480e-001 -7.602193e-002 -3.649971e-001 -1.457673e-001 2.050918e-003 3.650509e-002 -1.200569e-003 -1.182472e-001 -5.247152e-002 1.557836e-001 7.119714e-003 1.339530e-002 -1.629928e-002 -1.310202e-001 -6.089962e-003 -1.028000e-002 -4.698651e-002
<VARIANCE> 39
 6.290430e+000 4.919915e+001 1.806941e+002 2.450173e+001 1.267786e+002 1.997667e+002 3.267354e+001 1.215445e+002 1.358730e+002 5.360265e+001 3.677359e+001 1.399961e+001 7.829526e+001 2.095517e-001 7.668697e-001 1.849872e+000 9.750519e-001 1.625568e+000 5.367366e+000 2.867044e+000 2.279864e+000 3.871316e+000 1.598482e+000 1.032289e+000 1.282043e+000 2.620436e-001 4.462446e-002 6.596769e-002 2.007783e-001 1.346242e-001 2.571568e-001 3.687176e-001 5.938104e-001 3.828575e-001 4.719898e-001 1.937937e-001 1.396883e-001 2.349306e-001 2.472872e-002
<GCONST> 1.045163e+002
<STATE> 3
<MEAN> 39
 -4.630539e+000 -3.304677e+000 5.373057e+000 1.996100e+000 -1.001224e+001 -6.247313e+000 -1.454420e+001 2.330954e+000 -1.062413e+001 -3.093769e+000 7.148362e-001 -8.781844e+000 7.050329e+001 -6.918277e-002 1.711120e-001 -2.102957e-001 1.893979e-002 -3.004559e-001 5.966989e-001 9.686227e-002 -1.647803e-002 3.469537e-001 -3.514387e-001 -2.673108e-002 1.802610e-001 -5.168992e-001 -7.313390e-003 -1.431200e-002 -2.371794e-002 -6.619188e-003 2.870012e-002 1.713470e-002 6.668089e-002 1.856614e-002 3.802987e-002 6.107406e-002 2.209813e-002 2.379046e-002 1.190807e-002
<VARIANCE> 39
 1.282364e+001 3.784137e+000 1.365644e+001 1.228500e+001 7.257741e+001 3.508105e+002 2.445412e+001 9.628345e+001 5.176014e+001 3.495531e+001 3.305780e+001 2.572387e+001 8.852440e+001 1.650893e-001 4.799628e-001 9.553232e-001 7.728571e-001 1.371499e+000 2.087449e+000 1.300173e+000 1.628220e+000 1.877887e+000 1.876453e+000 1.635967e+000 1.175743e+000 3.462143e-001 2.649405e-002 8.269381e-002 8.686125e-002 1.725800e-001 2.351373e-001 2.220909e-001 2.567357e-001 2.904189e-001 3.256615e-001 3.283134e-001 3.278930e-001 2.120177e-001 2.546084e-002
<GCONST> 9.269204e+001
<STATE> 4
<MEAN> 39
 -9.467404e+000 -4.474908e-001 -3.114636e+000 1.106894e+000 -1.065565e+000 1.597256e+000 -3.912936e+000 -3.860862e+000 -6.004447e+000 -3.799125e+000 -3.859263e+000 -1.618118e+000 6.412086e+001 -1.989269e-002 1.752115e-002 -3.023495e-002 -1.904625e-002 2.060413e-002 6.374222e-002 3.707813e-002 -5.452513e-002 -1.689043e-002 -1.845114e-002 -9.708079e-003 -5.563539e-003 -2.475023e-002 -1.299606e-003 -1.704571e-003 1.464641e-003 9.642282e-005 9.875275e-004 -1.322195e-002 -3.822614e-003 5.325647e-003 1.199265e-003 -6.650729e-003 -2.409471e-003 -2.930323e-003 2.516659e-003
<VARIANCE> 39
 3.050229e+000 2.456907e+000 1.297179e+001 1.138737e+001 1.667914e+001 9.626107e+000 9.841904e+000 1.422963e+001 2.174163e+001 1.376678e+001 9.397103e+000 8.417252e+000 2.291310e+000 7.635200e-002 1.760265e-001 2.577255e-001 3.928035e-001 5.234084e-001 6.540545e-001 7.174909e-001 8.475876e-001 9.359123e-001 7.445845e-001 7.785721e-001 6.772808e-001 3.384555e-002 1.423451e-002 3.655689e-002 5.580272e-002 8.134215e-002 1.049887e-001 1.485859e-001 1.597220e-001 1.801260e-001 1.923669e-001 1.440874e-001 1.454291e-001 1.373986e-001 4.504695e-003
<GCONST> 5.348615e+001
<TRANSP> 5
 0.000000e+000 1.000000e+000 0.000000e+000 0.000000e+000 0.000000e+000
 0.000000e+000 9.035361e-001 9.646395e-002 0.000000e+000 0.000000e+000
 0.000000e+000 0.000000e+000 9.420493e-001 5.795065e-002 0.000000e+000
 0.000000e+000 0.000000e+000 0.000000e+000 9.869382e-001 1.306185e-002
 0.000000e+000 0.000000e+000 0.000000e+000 0.000000e+000 0.000000e+000
<ENDHMM>
~h "asu"
<BEGINHMM>
<NUMSTATES> 5
<STATE> 2
<MEAN> 39
 -7.590640e+000 -3.777379e+000 2.924607e+000 -8.843428e+000 -5.623619e+000 6.883585e-001 -9.671678e-001 -1.876276e+000 -5.911696e+000 -2.299788e+000 1.724919e+000 -1.605650e+000 7.591640e+001 1.834915e+000 -1.093507e+000 -1.843551e+000 -9.344187e-001 -1.467297e+000 -9.170635e-001 5.290370e-001 -4.109957e-001 -4.067334e-001 -6.965307e-001 6.356160e-001 1.222404e-001 1.309078e+000 8.540619e-002 4.169378e-002 -1.523639e-001 2.749332e-002 3.058209e-002 1.087976e-001 -1.905994e-002 -1.587113e-001 1.600231e-001 -9.447916e-002 -1.263375e-001 -1.976014e-002 -2.489103e-002
<VARIANCE> 39
 1.342149e+002 3.043144e+001 6.867652e+001 4.627258e+001 5.148316e+001 4.491988e+001 4.080243e+001 5.318663e+001 5.342685e+001 3.743266e+001 5.632934e+001 1.942156e+001 1.232582e+002 5.930764e+000 4.181973e+000 2.827724e+000 4.717866e+000 2.513345e+000 1.941093e+000 1.896947e+000 4.081212e+000 3.181985e+000 3.764774e+000 2.019729e+000 1.234043e+000 2.004976e+000 1.109187e+000 8.713828e-001 4.303535e-001 9.498234e-001 6.147815e-001 4.034266e-001 3.639121e-001 9.276414e-001 5.170624e-001 5.222155e-001 4.446393e-001 2.089290e-001 4.029781e-001
<GCONST> 1.284195e+002
<STATE> 3
<MEAN> 39
 -9.918320e-001 -4.454250e+000 -4.158267e+000 -1.022696e+001 -1.596616e+001 -9.685291e-001 -7.712269e+000 4.092220e-001 -4.499763e+000 -9.061959e+000 5.389717e+000 -5.867505e+000 7.480365e+001 -4.003099e-002 1.350428e-001 -7.499462e-002 1.415012e-001 -1.230496e-001 -1.448689e-001 -1.102871e-001 -2.319674e-002 6.078165e-003 5.488798e-002 -2.079195e-001 5.328913e-002 -2.829899e-001 -1.533480e-002 3.755062e-002 9.801672e-002 3.607909e-002 3.782727e-002 3.514535e-002 -1.269617e-002 5.415586e-002 -4.769225e-002 7.947545e-002 -1.690021e-002 7.305078e-003 -1.622481e-002
<VARIANCE> 39
 1.168061e+001 2.821060e+001 8.867123e+001 7.833632e+001 2.998529e+001 1.942810e+002 7.271021e+001 6.961081e+001 3.801800e+001 9.511804e+001 3.167732e+001 3.001493e+001 1.056648e+002 2.040677e-001 7.450131e-001 7.528889e-001 7.517772e-001 1.438718e+000 2.462027e+000 1.343679e+000 2.844824e+000 2.375560e+000 2.902565e+000 1.798869e+000 1.913243e+000 1.615801e-001 2.949664e-002 1.423460e-001 1.188889e-001 8.627930e-002 1.898643e-001 3.564005e-001 2.670218e-001 5.313295e-001 4.618158e-001 4.865633e-001 2.776352e-001 3.944774e-001 1.500995e-002
<GCONST> 1.021255e+002
<STATE> 4
<MEAN> 39
 -1.079217e+001 -1.212653e+000 -8.533860e+000 3.445780e+000 -5.213481e+000 7.089276e-001 -2.680699e+000 -5.559932e+000 -6.210897e-001 -4.291781e+000 -9.748171e-001 2.863702e-001 6.486214e+001 -5.519416e-002 -1.640480e-002 1.871082e-002 7.498442e-002 1.311080e-001 1.674360e-001 1.446689e-003 3.880723e-002 4.165695e-002 -5.744456e-002 -2.660733e-002 -1.176882e-002 -5.979346e-002 -5.109757e-004 3.499638e-003 -1.571916e-003 -1.848171e-002 -7.097574e-003 -1.291985e-002 4.342475e-003 1.450462e-002 -9.115004e-004 -2.733402e-003 2.039659e-002 4.410977e-003 3.980180e-003
<VARIANCE> 39
 6.639841e+000 3.596191e+000 3.410165e+000 1.064426e+001 1.201702e+001 1.610999e+001 9.246284e+000 8.611068e+000 8.690609e+000 1.141541e+001 1.224272e+001 9.316184e+000 4.626210e+000 1.152332e-001 2.022163e-001 2.159307e-001 3.442326e-001 5.233867e-001 1.145119e+000 6.038663e-001 6.498249e-001 7.386922e-001 9.169482e-001 1.010283e+000 8.767730e-001 6.040223e-002 1.762434e-002 3.529006e-002 3.578376e-002 5.458334e-002 1.053350e-001 2.323809e-001 1.288127e-001 1.450293e-001 1.494167e-001 1.794073e-001 2.151699e-001 1.943015e-001 7.414758e-003
<GCONST> 5.481800e+001
<TRANSP> 5
 0.000000e+000 1.000000e+000 0.000000e+000 0.000000e+000 0.000000e+000
 0.000000e+000 8.618581e-001 1.381419e-001 0.000000e+000 0.000000e+000
 0.000000e+000 0.000000e+000 9.471239e-001 5.287612e-002 0.000000e+000
 0.000000e+000 0.000000e+000 0.000000e+000 9.644617e-001 3.553826e-002
 0.000000e+000 0.000000e+000 0.000000e+000 0.000000e+000 0.000000e+000
<ENDHMM>
~h "ooj"
<BEGINHMM>
<NUMSTATES> 5
<STATE> 2
<MEAN> 39
 -7.408594e+000 -4.407494e+000 4.843497e+000 3.810477e-002 -7.189298e+000 9.837592e+000 -1.078229e+001 6.471645e+000 -1.435249e+000 -1.942735e+000 5.483714e+000 -4.255352e+000 6.307154e+001 -9.583748e-002 2.092885e-002 2.323932e-001 -1.522193e-001 3.411473e-001 -1.868324e-001 2.201525e-001 -2.716999e-002 9.111190e-003 6.345374e-002 -1.589107e-001 3.838796e-001 1.496344e-001 5.268864e-002 2.910313e-002 -4.779372e-002 7.847865e-003 -5.245217e-002 7.415687e-002 -3.788580e-002 4.121483e-002 -2.405519e-002 9.285102e-003 -2.493332e-002 -5.526463e-002 -3.988257e-002
<VARIANCE> 39
 3.800713e+001 2.205542e+001 2.344081e+001 1.728181e+001 9.567431e+001 1.061168e+002 8.345790e+001 4.020453e+001 3.827625e+001 2.212510e+001 2.802995e+001 4.348081e+001 7.455126e+001 4.211571e+000 2.563863e+000 2.664703e+000 2.001935e+000 1.183169e+001 9.229518e+000 1.165516e+001 3.940384e+000 5.245523e+000 2.492645e+000 3.486270e+000 4.377075e+000 1.441439e+001 8.940528e-001 6.095248e-001 6.636054e-001 4.243731e-001 2.454816e+000 1.600230e+000 2.593117e+000 8.168761e-001 1.196648e+000 4.414549e-001 6.982368e-001 8.378911e-001 3.516871e+000
<GCONST> 1.407809e+002
<STATE> 3
<MEAN> 39
 -3.632187e+000 3.261122e-001 3.258205e+000 -4.573890e+000 -5.052949e+000 -7.380318e-001 -1.124661e+000 4.548673e+000 -7.317236e+000 -2.923260e+000 -2.285293e+000 3.867868e+000 6.757077e+001 5.324802e-001 1.397446e-001 -8.033027e-002 -2.489093e-001 -1.453314e-001 -2.430861e-001 6.984620e-002 2.234768e-001 -1.036782e-001 -3.977648e-002 -4.574578e-001 7.374281e-002 3.063506e-001 -1.207784e-001 -7.638322e-002 -5.113030e-002 -6.094411e-002 7.832929e-002 1.288622e-004 -3.877677e-003 -6.919904e-002 1.396940e-001 -5.471261e-002 -5.583153e-002 -7.615794e-002 -9.570548e-003
<VARIANCE> 39
 4.808038e+001 7.485324e+001 3.348528e+001 2.747758e+001 5.149257e+001 2.080884e+001 4.077429e+001 4.883986e+001 2.281288e+001 3.377871e+001 1.575200e+001 3.101110e+001 1.666802e+001 1.624905e+000 3.045707e+000 1.426929e+000 1.977106e+000 5.262268e+000 1.922669e+000 1.625187e+000 2.482692e+000 2.539893e+000 1.378881e+000 2.028398e+000 2.668409e+000 9.632657e-001 1.228164e-001 5.828379e-001 2.452333e-001 3.059576e-001 7.565880e-001 3.967578e-001 3.001907e-001 4.497776e-001 2.878173e-001 2.928651e-001 2.943386e-001 4.279253e-001 1.140628e-001
<GCONST> 1.110170e+002
<STATE> 4
<MEAN> 39
 -1.272865e+001 1.759881e+000 -2.175325e+000 -1.249539e+000 -2.638030e+000 -1.417796e-001 4.089442e-001 5.725078e-001 -1.841041e+000 -9.692386e-001 -2.852705e+000 -2.111475e+000 6.042715e+001 -1.405604e-001 -8.318383e-002 -4.315385e-002 -3.632382e-003 -3.322386e-002 1.787607e-002 1.830788e-002 -9.349436e-002 -1.468298e-002 6.617252e-002 8.787202e-002 1.147481e-002 -8.349468e-002 7.157292e-003 -1.663684e-002 -3.094328e-003 -1.682943e-002 -3.136987e-002 -1.542429e-002 3.235431e-002 1.469660e-003 -1.241635e-002 1.011659e-002 1.848280e-002 7.554085e-003 1.826188e-002
<VARIANCE> 39
 3.006309e+001 1.254299e+001 1.900224e+001 6.720609e+000 6.156165e+000 6.603838e+000 1.588375e+001 1.734477e+001 1.348812e+001 9.837070e+000 1.327817e+001 1.151254e+001 1.415522e+001 6.565147e-001 4.413137e-001 3.716826e-001 3.586115e-001 6.013890e-001 9.904534e-001 1.534545e+000 1.000535e+000 8.010728e-001 9.754981e-001 6.150914e-001 5.684474e-001 4.997083e-001 1.372159e-001 1.112056e-001 8.135345e-002 7.000923e-002 1.339120e-001 2.202414e-001 3.672300e-001 2.202181e-001 1.582395e-001 2.075949e-001 1.220667e-001 1.141183e-001 1.107732e-001
<GCONST> 7.373720e+001
<TRANSP> 5
 0.000000e+000 1.000000e+000 0.000000e+000 0.000000e+000 0.000000e+000
 0.000000e+000 8.947438e-001 1.052562e-001 0.000000e+000 0.000000e+000
 0.000000e+000 0.000000e+000 8.798940e-001 1.201060e-001 0.000000e+000
 0.000000e+000 0.000000e+000 0.000000e+000 9.618405e-001 3.815954e-002
 0.000000e+000 0.000000e+000 0.000000e+000 0.000000e+000 0.000000e+000
<ENDHMM>
~h "oos"
<BEGINHMM>
<NUMSTATES> 5
<STATE> 2
<MEAN> 39
 4.057037e+000 -2.074521e+000 -4.071619e+000 -1.471473e+001 -2.367140e+001 -1.882974e+001 -3.444234e+000 3.129976e+000 -1.044807e+001 -4.492239e+000 4.713262e+000 -1.196501e+001 8.214832e+001 -1.648668e-001 -1.532020e-001 -2.458635e-001 3.318776e-001 1.219086e-001 -1.375502e-001 -2.896584e-001 -6.647085e-001 -2.848972e-002 2.349012e-001 -2.683035e-001 -6.469508e-002 -1.461244e-001 -6.006721e-003 6.940100e-002 -2.627068e-002 1.899127e-001 1.220784e-001 -8.813965e-003 -8.702418e-002 -9.060632e-002 4.565634e-002 9.810893e-003 -1.174259e-001 -3.527990e-002 -9.413932e-002
<VARIANCE> 39
 3.075841e+000 3.120006e+000 9.122508e+000 9.994930e+000 6.482574e+001 4.138296e+001 1.559212e+001 2.298591e+001 3.158083e+001 1.052376e+001 1.686728e+001 4.737910e+001 1.225212e+001 8.400214e-002 3.820021e-001 2.312347e-001 9.563143e-001 1.706544e+000 1.197843e+000 1.826052e+000 1.935336e+000 7.584938e-001 9.171677e-001 5.314720e-001 3.928977e-001 2.438299e-001 7.026654e-003 2.271020e-002 4.130813e-002 2.012172e-001 1.282631e-001 1.485410e-001 2.494146e-001 2.362387e-001 1.568223e-001 1.830008e-001 2.479541e-001 6.270640e-002 1.992079e-002
<GCONST> 6.895595e+001
<STATE> 3
<MEAN> 39
 -1.186505e+000 -1.000233e+000 -5.733652e+000 -2.532259e+000 -1.239359e+001 -1.628592e+001 -9.061897e+000 -1.133215e+001 -9.239790e+000 -5.332742e+000 -2.605751e+000 -7.604257e+000 7.533055e+001 -6.347077e-001 7.225102e-002 2.852865e-001 1.067981e+000 9.255492e-001 8.106459e-001 -9.106600e-002 1.960769e-001 5.814699e-001 -2.303152e-002 -3.083934e-001 2.194803e-001 -6.822482e-001 -1.270328e-002 1.114943e-002 1.109209e-001 -8.714209e-003 -1.205567e-002 2.017091e-001 1.839749e-001 2.606753e-001 3.335121e-003 -5.186402e-003 3.586785e-002 -3.631465e-002 3.526816e-003
<VARIANCE> 39
 1.911374e+001 1.926514e+000 1.186747e+001 1.578422e+001 3.113205e+001 4.848457e+001 2.418005e+001 1.905595e+001 3.767280e+001 2.427783e+001 2.923013e+001 5.121665e+001 1.125719e+001 9.959411e-002 2.309268e-001 3.758411e-001 1.763122e+000 1.111462e+000 1.395006e+000 1.774830e+000 1.119108e+000 9.459628e-001 9.786295e-001 2.432645e+000 1.246743e+000 1.755959e-001 1.914407e-002 4.856445e-002 6.238342e-002 1.733822e-001 1.479619e-001 2.534178e-001 2.476249e-001 1.592488e-001 1.436555e-001 1.304202e-001 5.559701e-001 1.287206e-001 6.840973e-003
<GCONST> 7.712981e+001
<STATE> 4
<MEAN> 39
 -1.302395e+001 -1.428089e+000 -5.250366e+000 1.516020e+000 -2.920379e+000 2.147633e+000 -2.769950e+000 -4.970001e+000 5.380027e-003 -4.079705e+000 1.626356e-001 -7.722878e-001 6.668497e+001 -4.678597e-002 -5.414402e-003 -2.352062e-002 4.472388e-002 6.552456e-002 9.305528e-002 2.009179e-003 4.158840e-002 5.044709e-003 2.828603e-002 -1.206212e-002 1.045946e-002 -7.584341e-002 1.030033e-002 2.533593e-003 -1.454996e-003 -4.067688e-003 -3.599747e-002 -2.564387e-002 -2.849748e-002 -9.421194e-003 -2.084564e-002 -1.604656e-002 -1.088430e-002 -1.915736e-002 3.994219e-003
<VARIANCE> 39
 1.235819e+001 2.711007e+000 9.810705e+000 1.550591e+001 7.609434e+000 9.688848e+000 1.224154e+001 1.023535e+001 1.081628e+001 1.119992e+001 1.196026e+001 1.132282e+001 3.674952e+000 1.551691e-001 1.821545e-001 3.598307e-001 6.820883e-001 7.959955e-001 1.112708e+000 8.578454e-001 1.058977e+000 8.212016e-001 7.739711e-001 1.040967e+000 9.906439e-001 1.636892e-001 1.945477e-002 3.406260e-002 6.834137e-002 1.106784e-001 1.777447e-001 2.340689e-001 1.700913e-001 2.202520e-001 1.748739e-001 1.455754e-001 2.079870e-001 1.922504e-001 2.031684e-002
<GCONST> 6.347716e+001
<TRANSP> 5
 0.000000e+000 1.000000e+000 0.000000e+000 0.000000e+000 0.000000e+000
 0.000000e+000 8.399999e-001 1.600001e-001 0.000000e+000 0.000000e+000
 0.000000e+000 0.000000e+000 8.242658e-001 1.757342e-001 0.000000e+000
 0.000000e+000 0.000000e+000 0.000000e+000 9.690544e-001 3.094561e-002
 0.000000e+000 0.000000e+000 0.000000e+000 0.000000e+000 0.000000e+000
<ENDHMM>
~h "sil"
<BEGINHMM>
<NUMSTATES> 5
<STATE> 2
<MEAN> 39
 -5.949441e+000 1.265436e+000 -3.625808e+000 -3.813042e+000 -7.779259e+000 2.886952e+000 -6.229102e+000 4.157947e+000 -3.264125e+000 -1.035405e+000 -1.297304e-002 -3.093060e+000 6.177991e+001 1.932346e-002 3.787564e-002 -4.376654e-002 2.898698e-003 1.299566e-001 3.379520e-002 -5.248361e-002 -7.660345e-002 9.015807e-002 1.273430e-001 1.409916e-002 -9.666670e-002 -2.982627e-003 -3.769497e-002 3.797715e-003 3.702253e-002 4.939872e-002 2.802520e-002 2.117628e-002 1.162852e-002 -1.671536e-002 -5.817013e-002 1.636681e-004 -2.169094e-002 2.789976e-002 -3.588592e-002
<VARIANCE> 39
 2.442870e+002 1.031197e+002 5.490255e+001 3.857219e+001 7.039577e+001 1.156236e+002 1.627059e+002 3.577731e+001 1.916214e+001 1.126099e+001 3.402396e+001 2.305779e+001 3.152023e+002 1.728929e-001 2.401454e-001 3.571718e-001 4.572909e-001 5.468329e-001 6.673214e-001 8.108754e-001 9.248609e-001 9.059272e-001 6.298270e-001 6.808282e-001 3.639021e-001 9.560578e-002 2.680640e-002 4.185883e-002 5.425678e-002 8.554932e-002 8.000696e-002 1.222870e-001 1.253233e-001 2.224230e-001 1.964958e-001 1.134837e-001 1.284202e-001 5.591726e-002 1.621497e-002
<GCONST> 8.110880e+001
<STATE> 3
~s "silst"
<STATE> 4
<MEAN> 39
 -7.481586e+000 -1.560449e+000 -3.281830e-001 -2.645384e+000 6.764065e-002 -1.219220e-001 -1.258821e+000 -1.652838e+000 -8.713318e+000 -1.739345e+000 -4.273461e+000 -5.171285e-001 6.563905e+001 -5.855649e-004 3.945744e-003 -5.582033e-003 -8.364432e-003 -1.955808e-002 -1.351004e-004 -6.803441e-004 -1.370366e-002 -3.118702e-003 -1.265676e-002 1.262787e-002 9.316261e-003 -3.980800e-003 8.067691e-004 -2.951223e-003 -1.908429e-003 -2.320826e-003 3.634653e-003 -3.774513e-003 1.861024e-003 -5.355624e-005 7.141818e-003 3.025515e-003 4.424296e-003 -2.474741e-003 4.741395e-003
<VARIANCE> 39
 1.778134e+001 2.482261e+001 1.642480e+001 1.685313e+001 2.554085e+001 4.779384e+001 2.190471e+001 2.148295e+001 1.534234e+001 1.834730e+001 1.189102e+001 9.857012e+000 2.542300e+001 4.209210e-001 7.006304e-001 7.267452e-001 7.829122e-001 8.883697e-001 1.319879e+000 1.144226e+000 1.163129e+000 1.092778e+000 1.163034e+000 9.919018e-001 9.122893e-001 2.959613e-001 5.352681e-002 1.198149e-001 1.414963e-001 1.404072e-001 1.681543e-001 2.280736e-001 2.109867e-001 2.193369e-001 2.195315e-001 2.286258e-001 1.876983e-001 1.919981e-001 3.396666e-002
<GCONST> 8.287398e+001
<TRANSP> 5
 0.000000e+000 1.000000e+000 0.000000e+000 0.000000e+000 0.000000e+000
 0.000000e+000 8.540893e-001 4.514106e-002 1.007697e-001 0.000000e+000
 0.000000e+000 0.000000e+000 9.815470e-001 1.845297e-002 0.000000e+000
 0.000000e+000 9.807725e-003 0.000000e+000 9.833066e-001 6.885677e-003
 0.000000e+000 0.000000e+000 0.000000e+000 0.000000e+000 0.000000e+000
<ENDHMM>
