~o
<STREAMINFO> 1 39
<VECSIZE> 39<NULLD><MFCC_D_A_0><DIAGC>
~h "a"
<BEGINHMM>
<NUMSTATES> 5
<STATE> 2
<MEAN> 39
 -2.455703e+000 -5.717303e+000 1.076835e+001 -6.640776e+000 -9.621048e-002 3.865978e+000 -9.732310e+000 4.915656e+000 -5.077766e-001 7.779971e+000 -7.286119e+000 3.530341e+000 7.156342e+001 6.148428e-002 1.400941e-001 2.083330e-001 1.449675e-001 -4.727847e-002 7.933066e-002 -1.209719e-002 9.011694e-002 -2.011663e-002 -9.748098e-002 3.703512e-002 -8.239833e-002 -3.252154e-003 4.343029e-002 -6.422262e-003 -7.289152e-003 -1.579119e-002 -3.128738e-002 -3.447816e-002 -9.092795e-003 -4.128731e-002 -4.199384e-003 1.418165e-002 1.165347e-002 1.728878e-002 3.912682e-002
<VARIANCE> 39
 2.944928e+001 1.275568e+001 6.722233e+001 9.176039e+001 9.895422e+001 6.958385e+001 1.039606e+002 9.409481e+001 4.874114e+001 6.919073e+001 8.511372e+001 6.862362e+001 6.105831e+001 1.640682e+000 1.054916e+000 3.101656e+000 1.927933e+000 3.516902e+000 5.980243e+000 6.319464e+000 4.580436e+000 2.992494e+000 4.595581e+000 4.445662e+000 3.366205e+000 8.522838e-001 3.149445e-001 1.797418e-001 4.488324e-001 3.416802e-001 5.789410e-001 1.282519e+000 1.127957e+000 7.826523e-001 6.770163e-001 9.622419e-001 6.909320e-001 7.669483e-001 1.260168e-001
<GCONST> 1.308780e+002
<STATE> 3
<MEAN> 39
 2.709211e+000 -3.589352e+000 5.866185e+000 -1.556237e+001 -1.633540e-001 -2.720350e+000 1.108720e+000 9.948183e-001 -1.024667e+000 1.144478e+001 -1.142674e+001 1.157238e+001 7.778294e+001 2.953912e-001 -5.006515e-001 -4.552288e-001 -5.725933e-001 -1.882395e-001 -6.156986e-001 9.634005e-002 -8.019222e-001 3.001529e-001 4.884462e-001 4.257161e-001 3.430330e-001 6.076843e-001 -1.044765e-001 9.531410e-002 5.119259e-002 1.094513e-001 1.368100e-001 1.045092e-001 2.957895e-003 3.063961e-002 7.899673e-002 -1.094479e-001 5.566591e-002 -9.588904e-002 -1.034873e-001
<VARIANCE> 39
 4.260494e+001 1.615118e+001 5.419343e+001 8.701403e+001 2.265977e+001 2.688455e+001 1.084824e+001 3.408049e+001 1.395904e+001 6.871955e+001 6.330696e+001 5.566478e+001 4.510465e+001 6.998661e-001 8.293614e-001 6.677731e-001 3.823876e+000 1.407812e+000 3.275383e+000 1.852793e+000 2.399290e+000 1.625178e+000 2.162343e+000 3.015511e+000 2.550321e+000 1.453253e+000 9.745077e-002 2.283970e-001 1.563582e-001 6.244414e-001 2.141405e-001 4.973277e-001 2.235344e-001 4.512161e-001 3.131272e-001 2.508500e-001 4.706342e-001 3.521326e-001 2.198121e-001
<GCONST> 1.083999e+002
<STATE> 4
<MEAN> 39
 -1.170867e+001 -3.933288e+000 -6.582604e+000 2.802110e+000 -4.295910e+000 1.533177e+000 -4.141074e+000 -6.818885e+000 -1.282893e+000 -3.472242e+000 7.488000e-001 -9.677641e-001 6.670633e+001 -5.795269e-002 1.406244e-001 2.088971e-002 -1.633966e-002 5.957984e-002 -1.827329e-002 3.914194e-002 7.399613e-002 1.327050e-001 -1.167675e-001 -1.212977e-001 -2.270759e-002 -7.788761e-002 2.756136e-002 3.603479e-002 3.282649e-002 1.360776e-002 2.515262e-002 3.896454e-002 2.473313e-002 1.798860e-002 -2.964382e-002 -2.862487e-002 -5.247304e-002 -3.393330e-002 1.025742e-002
<VARIANCE> 39
 8.516195e+000 1.100023e+001 1.020650e+001 1.902781e+001 8.652585e+000 8.909537e+000 7.481058e+000 2.276153e+001 8.819160e+000 1.505119e+001 1.400407e+001 1.012116e+001 6.279818e+000 3.259323e-001 2.734829e-001 4.460681e-001 7.191902e-001 4.673353e-001 5.179362e-001 8.155971e-001 8.774172e-001 1.052201e+000 6.971328e-001 9.015293e-001 7.074481e-001 1.828150e-001 6.544624e-002 8.866626e-002 7.657789e-002 1.559792e-001 9.365018e-002 1.167461e-001 1.932329e-001 1.655979e-001 2.104276e-001 1.597549e-001 2.373368e-001 1.343744e-001 2.751378e-002
<GCONST> 6.691543e+001
<TRANSP> 5
 0.000000e+000 1.000000e+000 0.000000e+000 0.000000e+000 0.000000e+000
 0.000000e+000 9.531750e-001 4.682502e-002 0.000000e+000 0.000000e+000
 0.000000e+000 0.000000e+000 8.629561e-001 1.370439e-001 0.000000e+000
 0.000000e+000 0.000000e+000 0.000000e+000 9.393944e-001 6.060569e-002
 0.000000e+000 0.000000e+000 0.000000e+000 0.000000e+000 0.000000e+000
<ENDHMM>
~h "b"
<BEGINHMM>
<NUMSTATES> 5
<STATE> 2
<MEAN> 39
 -4.172847e+000 -2.394178e+000 3.216501e+000 -3.434207e+000 -7.129177e+000 -7.033318e-001 -2.597516e+000 -6.656299e-001 -3.273852e+000 -4.080887e+000 -1.050417e+000 -1.090840e-001 7.146645e+001 9.543625e-001 1.722667e-001 -1.982701e-002 -9.147285e-001 -2.714769e-001 -5.137023e-001 2.499731e-001 -2.363446e-001 -5.610688e-002 -1.593140e-001 -9.545029e-004 2.364174e-001 1.133735e+000 -8.090304e-003 -1.157325e-001 -9.225322e-002 -1.069022e-001 -6.145854e-002 -6.084199e-002 -4.659295e-002 1.019720e-001 -2.314334e-003 1.430303e-002 1.517395e-002 2.527736e-002 8.183408e-003
<VARIANCE> 39
 5.712007e+001 9.900002e+001 1.169855e+002 6.907152e+001 6.440919e+001 6.586285e+001 5.062437e+001 5.740311e+001 3.789680e+001 4.602859e+001 3.342795e+001 3.412147e+001 6.249930e+001 4.710153e+000 5.866420e+000 4.723958e+000 3.367384e+000 5.320901e+000 7.684948e+000 2.944841e+000 2.211884e+000 5.071328e+000 4.889597e+000 4.202538e+000 2.451194e+000 2.267311e+000 6.143103e-001 7.725619e-001 5.932283e-001 5.820854e-001 8.667926e-001 1.589311e+000 5.063953e-001 3.950003e-001 8.507252e-001 9.529156e-001 8.120103e-001 4.879895e-001 3.601417e-001
<GCONST> 1.370583e+002
<STATE> 3
<MEAN> 39
 3.619265e+000 -8.789167e-001 -2.365464e+000 -1.137277e+001 -1.113208e+001 -8.995210e+000 -2.507778e+000 1.050791e+000 -4.069396e+000 -1.061653e+000 -2.561656e+000 -4.224831e-001 7.680875e+001 -2.465892e-001 2.031632e-001 2.478397e-001 5.039476e-001 2.566706e-002 -4.569725e-001 -6.507961e-001 2.686605e-002 -9.361956e-002 4.110074e-001 1.776261e-001 -4.941064e-001 -4.197376e-001 -7.192958e-002 -1.216951e-002 4.898983e-002 1.142733e-001 1.418784e-002 3.286254e-002 -5.680399e-002 -1.754819e-001 4.473243e-003 2.935191e-002 -6.059769e-002 1.566947e-002 -5.091887e-002
<VARIANCE> 39
 1.599181e+001 8.973042e+001 1.067022e+002 1.798034e+001 6.096684e+001 9.614935e+001 7.348779e+001 4.023545e+001 9.487556e+001 1.236058e+002 6.930501e+001 3.967017e+001 3.780738e+001 5.086223e-001 1.453801e+000 1.105654e+000 1.519935e+000 2.062123e+000 2.526847e+000 2.673785e+000 2.368631e+000 2.102588e+000 1.438856e+000 1.661486e+000 1.541682e+000 4.747896e-001 6.318579e-002 1.571332e-001 1.762483e-001 2.314197e-001 2.522679e-001 4.232848e-001 5.040106e-001 3.009573e-001 4.005582e-001 2.893775e-001 2.583420e-001 2.612408e-001 3.942549e-002
<GCONST> 1.090926e+002
<STATE> 4
<MEAN> 39
 -1.127637e+001 3.351067e-001 -3.672659e+000 -3.604522e+000 -5.098790e+000 -1.756366e+000 -6.978664e-002 -6.704639e-001 -2.111905e+000 -2.020719e+000 -1.732345e+000 -1.272156e+000 6.314088e+001 -2.166054e-001 -1.750913e-002 1.317750e-002 1.653504e-001 1.346159e-001 1.660061e-001 1.755548e-002 1.629212e-002 9.820961e-002 4.374401e-002 7.218598e-003 1.321837e-001 -1.968465e-001 6.574353e-003 -1.199966e-002 1.106252e-002 1.916211e-003 5.262398e-003 1.402314e-003 1.545729e-002 1.962727e-002 -2.836977e-002 1.422082e-002 2.584177e-002 -5.170702e-003 1.719533e-002
<VARIANCE> 39
 3.639948e+001 1.754966e+001 1.695752e+001 3.428796e+001 3.305045e+001 4.240981e+001 1.247311e+001 1.225014e+001 3.300822e+001 1.714077e+001 2.077187e+001 9.890170e+000 3.901291e+001 5.057507e-001 4.600959e-001 4.786487e-001 7.365295e-001 8.728551e-001 8.695388e-001 6.445616e-001 8.717826e-001 1.135042e+000 1.274158e+000 9.573147e-001 7.261868e-001 4.544635e-001 1.106417e-001 9.540471e-002 9.592337e-002 1.521412e-001 1.811880e-001 1.412828e-001 1.583695e-001 1.770770e-001 2.152827e-001 2.489182e-001 1.888333e-001 1.323118e-001 1.033798e-001
<GCONST> 8.306531e+001
<TRANSP> 5
 0.000000e+000 1.000000e+000 0.000000e+000 0.000000e+000 0.000000e+000
 0.000000e+000 8.097389e-001 1.902611e-001 0.000000e+000 0.000000e+000
 0.000000e+000 0.000000e+000 8.640835e-001 1.359165e-001 0.000000e+000
 0.000000e+000 0.000000e+000 0.000000e+000 9.190400e-001 8.095998e-002
 0.000000e+000 0.000000e+000 0.000000e+000 0.000000e+000 0.000000e+000
<ENDHMM>
~h "h"
<BEGINHMM>
<NUMSTATES> 5
<STATE> 2
<MEAN> 39
 -1.111059e+001 -8.473675e+000 2.872199e+000 -6.067769e+000 -1.912161e+000 1.610471e+000 -4.571634e+000 3.999071e+000 -6.918490e-001 3.891866e+000 2.287742e+000 -1.603765e+000 6.958711e+001 4.823491e-002 -2.068748e-001 2.661856e-001 -1.229257e-002 -4.299350e-002 1.113320e-001 -2.497786e-001 2.476836e-001 1.760942e-001 2.620380e-002 1.331698e-001 -4.941729e-001 6.167845e-001 5.188510e-002 2.128071e-001 -4.397615e-002 1.275039e-002 -7.733107e-002 -5.023431e-002 -8.308309e-002 -1.098405e-001 -1.204923e-001 -1.738441e-001 -1.016728e-001 -5.938021e-004 -8.417666e-003
<VARIANCE> 39
 5.774628e+000 4.646681e+001 7.757329e+001 5.945245e+001 1.569841e+001 1.198475e+001 2.693630e+001 6.187944e+001 3.913320e+001 2.480020e+001 4.400977e+001 4.437108e+001 4.148077e+001 7.841589e-001 2.233713e+000 1.212229e+000 1.061349e+000 8.428344e-001 9.122468e-001 1.223206e+000 1.680108e+000 2.064612e+000 3.247193e+000 1.765908e+000 1.943117e+000 1.070819e+000 1.916594e-001 2.794138e-001 2.852303e-001 1.878286e-001 1.654902e-001 1.428463e-001 2.497849e-001 2.807313e-001 3.680663e-001 5.129575e-001 3.203748e-001 4.001280e-001 3.744391e-002
<GCONST> 1.017535e+002
<STATE> 3
<MEAN> 39
 -7.218132e+000 -5.947424e+000 -2.488725e+000 -3.101288e+000 -7.717595e+000 -1.162708e+000 -6.786343e+000 -4.187812e+000 -2.234136e+000 -6.158105e-001 5.981725e+000 -7.873172e+000 7.856438e+001 7.291527e-001 1.036875e-001 -8.508894e-001 -2.076466e-001 -9.487571e-001 -7.729757e-002 -5.815042e-001 -5.268098e-001 -4.682942e-001 -6.358854e-001 7.887511e-001 -9.658615e-002 4.872542e-001 -1.815916e-001 -3.510089e-001 -1.944863e-001 -1.581296e-002 1.840596e-001 2.198114e-002 1.333321e-001 1.199468e-001 2.984672e-001 3.103590e-002 1.036886e-002 9.210132e-002 -1.399035e-001
<VARIANCE> 39
 9.782398e+000 1.426742e+001 1.036183e+002 2.682477e+001 3.003816e+001 3.258488e+001 3.558484e+001 1.721922e+002 2.742158e+001 5.056680e+001 4.962686e+001 8.838980e+001 1.570840e+002 9.878740e-001 3.426722e+000 2.504210e+000 1.720751e+000 1.780277e+000 1.272058e+000 1.717563e+000 1.451156e+000 1.913993e+000 1.175031e+000 1.422496e+000 4.154854e-001 4.147987e-001 8.076428e-002 4.005645e-001 4.716164e-001 3.584448e-001 3.135412e-001 7.270823e-002 2.463599e-001 1.605733e-001 2.186709e-001 3.260166e-001 4.989356e-001 8.268559e-002 3.568342e-002
<GCONST> 1.032640e+002
<STATE> 4
<MEAN> 39
 -1.148257e+001 -6.134454e+000 -5.448105e+000 1.382459e+000 -6.757783e+000 -4.835411e+000 -5.957739e+000 -7.550432e+000 -1.578993e+000 -5.783205e+000 1.288034e+000 -4.018951e+000 7.374319e+001 -8.646816e-002 2.126193e-002 1.107178e-001 2.843753e-002 5.917341e-002 6.316562e-002 3.801557e-002 5.811162e-002 -4.167148e-002 -6.125396e-002 -1.203626e-001 8.729020e-002 -1.189403e-001 6.629770e-003 1.059390e-002 6.169862e-003 5.316705e-003 9.487122e-003 6.495621e-003 -4.264101e-003 -6.869761e-003 8.504565e-004 5.883132e-003 2.088072e-003 7.156492e-003 -2.416224e-003
<VARIANCE> 39
 1.570059e+001 1.509040e+001 5.354116e+001 6.658114e+000 1.601508e+001 1.099971e+002 1.242429e+001 2.785895e+001 2.624880e+001 1.417547e+001 1.516994e+001 4.397216e+001 1.244084e+002 1.132187e-001 3.290026e-001 5.957721e-001 3.489020e-001 5.245010e-001 1.035378e+000 8.358608e-001 7.584376e-001 1.113325e+000 9.769250e-001 5.494587e-001 8.287938e-001 2.523586e-001 1.969236e-002 5.582413e-002 5.658882e-002 7.247437e-002 9.447170e-002 1.287984e-001 1.777525e-001 1.542276e-001 2.049577e-001 1.905142e-001 9.483752e-002 1.478526e-001 1.756994e-002
<GCONST> 7.371394e+001
<TRANSP> 5
 0.000000e+000 1.000000e+000 0.000000e+000 0.000000e+000 0.000000e+000
 0.000000e+000 8.501678e-001 1.498322e-001 0.000000e+000 0.000000e+000
 0.000000e+000 0.000000e+000 6.562754e-001 3.437247e-001 0.000000e+000
 0.000000e+000 0.000000e+000 0.000000e+000 9.752340e-001 2.476597e-002
 0.000000e+000 0.000000e+000 0.000000e+000 0.000000e+000 0.000000e+000
<ENDHMM>
~h "m"
<BEGINHMM>
<NUMSTATES> 5
<STATE> 2
<MEAN> 39
 -7.987243e+000 1.193830e-001 1.471106e+000 -2.161362e+000 -3.017934e+000 1.186715e+000 -5.616986e+000 2.452964e+000 -3.628228e+000 9.233243e-001 -2.711639e+000 -3.861529e-004 6.392886e+001 2.432148e-001 1.237670e-001 5.765542e-001 1.015694e-001 2.710970e-001 1.699625e-001 -6.017399e-001 -7.678602e-001 6.938189e-002 -8.860014e-002 4.116001e-001 -4.885761e-001 4.536974e-001 -5.681528e-003 -1.384272e-001 -5.857439e-002 -1.712325e-001 1.671530e-001 -5.329556e-002 9.292033e-002 -1.059160e-001 1.011010e-001 -7.391553e-003 1.042152e-001 -6.971711e-003 2.041672e-001
<VARIANCE> 39
 1.065356e+001 2.549569e+001 5.622419e+001 2.068302e+001 4.674555e+001 2.973882e+001 4.105288e+001 6.120503e+001 2.510770e+001 4.000615e+001 1.794119e+001 1.838470e+001 7.888900e+000 9.693925e-001 2.727679e+000 1.361655e+000 2.157407e+000 3.757905e+000 1.601025e+000 3.480828e+000 2.235699e+000 1.650616e+000 2.311422e+000 1.577121e+000 1.124715e+000 1.488358e+000 9.850934e-002 3.926821e-001 3.655408e-001 4.000806e-001 5.483701e-001 2.478520e-001 4.413115e-001 3.673664e-001 3.302958e-001 2.898445e-001 3.386807e-001 1.933188e-001 1.919501e-001
<GCONST> 1.066762e+002
<STATE> 3
<MEAN> 39
 -1.785991e+000 3.824027e+000 1.825297e+000 -5.847486e+000 -4.825556e+000 -4.904338e+000 -5.919127e+000 -7.598425e-001 -3.644171e+000 -9.803164e-001 -2.007214e-001 -2.358674e+000 6.971231e+001 1.120274e-001 -1.444490e-001 2.565421e-001 -9.575077e-002 -1.133079e-001 3.169228e-001 -9.667301e-002 4.591633e-001 -1.694299e-002 8.583196e-002 -2.774361e-001 -3.944468e-001 2.181374e-001 -8.013810e-002 1.191535e-001 8.848867e-002 1.453480e-001 -5.508010e-002 5.156551e-002 2.087068e-001 1.086681e-001 -7.511236e-002 5.985660e-002 -1.466074e-001 4.203652e-002 -1.253544e-001
<VARIANCE> 39
 7.080207e+001 6.018525e+001 2.745164e+001 4.011951e+001 9.295090e+001 1.316574e+002 4.161039e+001 5.500054e+001 4.117360e+001 2.893414e+001 3.405701e+001 3.672371e+001 4.148034e+001 1.243026e+000 1.620982e+000 2.933582e+000 4.637664e+000 3.508304e+000 5.525011e+000 3.642600e+000 3.571836e+000 2.342479e+000 2.365368e+000 3.535742e+000 2.589548e+000 2.395624e+000 1.005189e-001 3.843089e-001 2.818758e-001 5.930637e-001 5.230832e-001 6.486058e-001 6.497806e-001 5.192790e-001 3.923304e-001 5.534785e-001 6.740829e-001 4.237230e-001 2.409244e-001
<GCONST> 1.243543e+002
<STATE> 4
<MEAN> 39
 -1.201138e+001 9.801250e-002 -2.251047e+000 -9.896103e-001 -9.719295e-001 8.407661e-001 -2.426058e+000 -1.676696e+000 -4.910675e+000 -2.484982e+000 -3.270092e+000 -1.448902e+000 6.161308e+001 -5.485277e-002 -3.518071e-003 1.623889e-002 2.229712e-002 4.708583e-002 4.263801e-002 1.738414e-002 1.250884e-002 -4.719938e-003 1.740322e-003 2.312617e-003 1.260633e-002 -3.786476e-002 1.325946e-002 5.603022e-003 -2.694674e-003 -1.597914e-003 5.994196e-003 -9.076310e-003 -1.206596e-002 -4.222136e-003 -5.814669e-003 5.669533e-003 2.170055e-003 9.353049e-003 7.655773e-003
<VARIANCE> 39
 1.633658e+001 3.905496e+000 8.965919e+000 5.940484e+000 1.107347e+001 1.181914e+001 1.158022e+001 1.072844e+001 2.084368e+001 9.418176e+000 1.099477e+001 6.934897e+000 1.361995e+001 5.518000e-001 2.137513e-001 3.417695e-001 4.115322e-001 5.991119e-001 6.328444e-001 8.513902e-001 8.728390e-001 7.602767e-001 7.559615e-001 8.047984e-001 7.351564e-001 4.038994e-001 1.324491e-001 4.191213e-002 6.655763e-002 8.943095e-002 1.236021e-001 1.353527e-001 1.885724e-001 1.907557e-001 1.544925e-001 1.571236e-001 1.751257e-001 1.611911e-001 9.782593e-002
<GCONST> 6.703532e+001
<TRANSP> 5
 0.000000e+000 1.000000e+000 0.000000e+000 0.000000e+000 0.000000e+000
 0.000000e+000 6.263522e-001 3.736478e-001 0.000000e+000 0.000000e+000
 0.000000e+000 0.000000e+000 7.834715e-001 2.165285e-001 0.000000e+000
 0.000000e+000 0.000000e+000 0.000000e+000 9.778501e-001 2.214995e-002
 0.000000e+000 0.000000e+000 0.000000e+000 0.000000e+000 0.000000e+000
<ENDHMM>
~h "n"
<BEGINHMM>
<NUMSTATES> 5
<STATE> 2
<MEAN> 39
 -3.621554e+000 -2.829424e-001 9.125791e+000 -1.027879e+000 -3.287396e+000 1.236448e+000 -9.655149e+000 3.718585e+000 -3.953188e+000 3.103482e+000 -6.468695e-001 -1.734735e+000 6.833534e+001 4.197297e-002 -8.892711e-002 -1.054255e-001 8.475467e-002 -3.199646e-001 4.462554e-002 -1.568395e-001 -3.657591e-002 -9.712537e-002 -1.700611e-001 1.838330e-001 -2.475859e-001 7.326461e-002 -2.110473e-002 -1.683052e-002 -1.220075e-002 -4.247008e-002 2.498605e-002 6.254936e-003 5.163855e-002 1.027753e-003 6.067578e-002 -1.315838e-002 -9.443130e-004 8.324187e-003 3.471547e-002
<VARIANCE> 39
 3.412788e+001 3.044268e+001 8.656536e+001 4.746901e+001 3.543085e+001 1.157102e+002 6.960158e+001 1.282267e+002 4.277247e+001 4.741355e+001 3.932868e+001 3.279559e+001 2.819459e+001 1.881212e+000 1.321738e+000 1.208777e+000 3.224453e+000 4.469330e+000 6.958761e+000 6.133889e+000 5.943112e+000 4.313528e+000 4.331440e+000 4.983550e+000 2.942582e+000 2.016437e+000 3.027488e-001 1.927731e-001 1.708585e-001 5.962656e-001 7.546979e-001 1.334789e+000 1.126961e+000 1.224059e+000 9.218359e-001 9.655619e-001 8.983789e-001 4.351636e-001 3.159121e-001
<GCONST> 1.310905e+002
<STATE> 3
<MEAN> 39
 -3.995975e+000 -6.496855e+000 -3.316059e+000 1.808342e-001 -1.081433e+001 1.873071e+000 -7.437710e+000 -2.165647e+000 -2.592492e+000 -5.569634e+000 5.698162e+000 -9.066361e+000 7.169391e+001 -2.498889e-001 2.242813e-001 1.339236e-001 -9.158187e-002 3.094692e-001 -3.037293e-001 4.372118e-001 -2.960472e-001 2.409832e-001 -5.958299e-002 -2.715729e-001 1.814562e-001 -1.258398e-001 2.398927e-002 2.886088e-002 5.479539e-002 3.109543e-002 6.980678e-002 -2.090095e-002 -4.310083e-002 -4.189423e-002 -1.015659e-001 4.360758e-003 -4.603337e-002 3.286196e-002 -3.633491e-002
<VARIANCE> 39
 2.583326e+001 4.118569e+001 1.137920e+002 2.662439e+001 3.888704e+001 1.250318e+002 6.112840e+001 1.739933e+002 4.409508e+001 2.941902e+001 3.066552e+001 2.083885e+001 1.427707e+002 1.091839e+000 7.752382e-001 5.540364e-001 1.547501e+000 2.392703e+000 4.760816e+000 3.620299e+000 1.796031e+000 2.740501e+000 2.049670e+000 2.359143e+000 1.300203e+000 6.246533e-001 1.861564e-001 1.050142e-001 1.225700e-001 3.402342e-001 5.578000e-001 9.100694e-001 7.935793e-001 3.180769e-001 4.536131e-001 4.095179e-001 6.539821e-001 3.176886e-001 1.009361e-001
<GCONST> 1.146594e+002
<STATE> 4
<MEAN> 39
 -8.187099e+000 -2.033495e-001 -1.871768e+000 2.388532e+000 -2.217701e+000 -2.691915e+000 -4.733410e+000 -5.116321e+000 -7.340600e+000 -4.960491e+000 -3.166691e+000 -2.452627e+000 6.582581e+001 -2.096540e-001 6.083277e-002 -2.379168e-002 -1.314585e-001 7.796662e-002 2.482942e-001 1.219452e-001 4.916772e-002 1.680211e-001 7.774979e-002 1.735246e-002 7.311670e-002 -1.702696e-001 1.613915e-002 -1.524149e-002 -1.357557e-002 -1.135692e-002 4.739004e-004 -7.378433e-004 -8.410978e-003 1.670334e-002 -4.333631e-003 1.669369e-002 1.842950e-002 1.406522e-003 1.434082e-002
<VARIANCE> 39
 1.764922e+001 8.495727e+000 2.099194e+001 2.849204e+001 2.049335e+001 3.561276e+001 1.253792e+001 2.255061e+001 3.346779e+001 1.185617e+001 1.298403e+001 1.416599e+001 2.194184e+001 2.900430e-001 4.316009e-001 5.084672e-001 9.048558e-001 8.996774e-001 1.037140e+000 8.493368e-001 9.044322e-001 9.470122e-001 1.193376e+000 1.020216e+000 7.850091e-001 1.733096e-001 3.691799e-002 8.581918e-002 1.012109e-001 1.714686e-001 1.890627e-001 1.623364e-001 1.482728e-001 1.741830e-001 1.752708e-001 2.415471e-001 1.910076e-001 1.570137e-001 2.676557e-002
<GCONST> 7.732702e+001
<TRANSP> 5
 0.000000e+000 1.000000e+000 0.000000e+000 0.000000e+000 0.000000e+000
 0.000000e+000 8.914078e-001 1.085921e-001 0.000000e+000 0.000000e+000
 0.000000e+000 0.000000e+000 8.024405e-001 1.975594e-001 0.000000e+000
 0.000000e+000 0.000000e+000 0.000000e+000 9.515523e-001 4.844767e-002
 0.000000e+000 0.000000e+000 0.000000e+000 0.000000e+000 0.000000e+000
<ENDHMM>
~h "s"
<BEGINHMM>
<NUMSTATES> 5
<STATE> 2
<MEAN> 39
 7.564250e-001 1.755786e+000 9.844576e+000 1.062176e-001 2.111829e+000 1.462540e+001 -1.133422e+001 8.057021e+000 -5.896497e+000 5.024103e+000 -7.980654e+000 -6.660232e+000 6.875654e+001 -1.504520e-001 3.151472e-001 6.192195e-001 3.063152e-001 1.538019e-001 9.221283e-002 4.306242e-001 3.713641e-001 -1.074265e-002 2.185041e-001 -1.724942e-002 4.432931e-001 2.871966e-002 -1.345692e-001 -1.515155e-001 -5.095209e-002 -1.429879e-001 -2.166414e-001 -4.668613e-002 5.602876e-002 1.270309e-001 5.965357e-002 9.615375e-002 1.784192e-001 -6.894211e-003 -1.054343e-001
<VARIANCE> 39
 6.685831e+001 3.825957e+000 2.454609e+001 1.374120e+001 1.316204e+001 5.613115e+001 1.970819e+001 8.011066e+001 2.397594e+001 4.145559e+001 1.651892e+001 1.772578e+001 2.147390e+001 9.423285e-001 8.186221e-001 5.906492e-001 5.972299e-001 1.321127e+000 1.219565e+000 8.090612e-001 1.340332e+000 7.829015e-001 1.136784e+000 9.574751e-001 9.625590e-001 3.141522e-001 8.001523e-002 1.890714e-001 1.331341e-001 7.812663e-002 2.810788e-001 2.163589e-001 3.492811e-001 3.300456e-001 1.316735e-001 1.981570e-001 1.971821e-001 2.006413e-001 5.143320e-002
<GCONST> 8.699973e+001
<STATE> 3
<MEAN> 39
 -1.175011e+001 2.768034e+000 1.171655e+001 -3.333241e+000 1.901105e+000 7.310098e+000 -4.119404e+000 1.966567e+000 -3.703210e+000 1.979457e+000 -3.743333e+000 -2.673645e+000 6.937081e+001 -7.043235e-001 -3.609815e-001 3.396214e-001 -3.448969e-001 -9.502738e-001 7.716098e-002 6.629769e-001 7.491642e-001 3.212945e-001 1.082262e+000 9.298069e-001 1.788430e-001 -1.216693e-001 -2.371617e-001 -7.587757e-001 -6.579675e-001 -4.591249e-001 -1.672765e-001 -5.096357e-001 -2.828329e-001 -1.044554e-001 -1.481445e-001 -2.797242e-001 1.833472e-001 -1.118113e-001 -7.423685e-002
<VARIANCE> 39
 1.071325e+002 1.147932e+001 7.325323e+001 3.256771e+001 3.520361e+000 2.774733e+001 1.262997e+001 6.946732e+001 6.938263e+001 4.937806e+001 4.656484e+001 2.956807e+000 1.105629e+002 8.246242e-001 1.135565e+000 6.459134e-001 1.054663e+000 1.761764e+000 2.319867e+000 3.286012e+000 9.456796e-001 3.917990e-001 1.245246e+000 9.854648e-001 1.818108e-001 3.452544e-001 5.291562e-002 2.238039e-001 1.633967e-001 1.840701e-001 1.762107e-001 1.811837e-001 3.884620e-001 2.522381e-001 6.577629e-002 3.262613e-001 2.146273e-001 1.550024e-001 4.622903e-002
<GCONST> 9.026269e+001
<STATE> 4
<MEAN> 39
 -1.195581e+001 9.982970e-001 9.326875e+000 -4.428762e+000 8.903556e-001 7.735429e+000 -2.646387e+000 3.827089e+000 -4.753969e+000 1.705860e+000 -3.504080e+000 -1.192149e+000 6.811298e+001 -8.314656e-001 -7.886039e-001 -3.063677e-001 -3.601954e-001 -3.240674e-001 -1.720149e-001 1.568708e-001 5.952548e-001 7.639447e-002 1.977916e-001 5.718527e-001 -2.451217e-001 -2.823869e-001 1.121313e-001 -5.262113e-001 -5.064655e-001 -3.381034e-001 4.878778e-003 -5.440281e-001 -3.205897e-001 -3.891777e-001 -2.706005e-001 -4.595100e-001 9.902260e-003 -1.457992e-001 3.013505e-001
<VARIANCE> 39
 1.258877e+002 2.286304e+001 6.768391e+001 4.538438e+001 1.561166e+000 1.849784e+001 3.530269e+001 9.003745e+001 7.865670e+001 3.831535e+001 4.828394e+001 1.631504e+000 1.010202e+002 7.529488e-001 1.380134e+000 3.526829e-001 7.708796e-001 4.134480e-001 8.521461e-001 2.876346e+000 1.222764e+000 3.158941e-001 3.781210e-001 7.063829e-001 4.236907e-001 4.109446e-001 7.126229e-002 1.265073e-001 7.204279e-002 6.688773e-002 2.602222e-001 2.010313e-001 3.503722e-001 2.551936e-001 1.107254e-001 1.519341e-001 1.072629e-001 8.315723e-002 8.540531e-002
<GCONST> 8.414823e+001
<TRANSP> 5
 0.000000e+000 1.000000e+000 0.000000e+000 0.000000e+000 0.000000e+000
 0.000000e+000 8.103961e-001 1.896039e-001 0.000000e+000 0.000000e+000
 0.000000e+000 0.000000e+000 1.473859e-001 8.526142e-001 0.000000e+000
 0.000000e+000 0.000000e+000 0.000000e+000 2.650995e-003 9.973490e-001
 0.000000e+000 0.000000e+000 0.000000e+000 0.000000e+000 0.000000e+000
<ENDHMM>
~h "t"
<BEGINHMM>
<NUMSTATES> 5
<STATE> 2
<MEAN> 39
 -7.083392e+000 -2.780422e+000 -2.841205e+000 -2.987235e+000 -5.163106e-001 -1.196438e+000 -6.662754e+000 -6.901328e+000 -8.688227e+000 -4.597907e+000 -3.177181e+000 -1.453071e+000 6.869738e+001 7.733836e-001 -1.869471e+000 -1.097560e+000 -1.685894e+000 -5.832992e-001 -6.792661e-001 6.942727e-001 -8.743548e-002 -1.211057e-001 7.004797e-001 1.307270e+000 -4.375300e-001 1.977735e+000 1.974319e-001 -3.850305e-001 -2.121569e-001 -1.350030e-001 -1.658268e-001 1.116790e-001 4.787849e-001 1.024711e-001 2.374226e-003 4.559467e-002 2.817215e-001 -2.294806e-001 3.844079e-001
<VARIANCE> 39
 3.521571e+001 2.502263e+001 4.627683e+001 4.941698e+001 9.553104e+001 2.397910e+001 4.645598e+001 4.014857e+001 4.626230e+001 2.712704e+001 4.401481e+001 2.396857e+001 4.686822e+001 2.607145e+000 2.594153e+000 6.292819e+000 3.051377e+000 4.326365e+000 1.893346e+000 5.105823e+000 1.629545e+000 5.351016e-001 1.482359e+000 6.727034e+000 2.743247e+000 3.466719e+000 3.814198e-001 2.756325e-001 1.024841e+000 6.434058e-001 6.121969e-001 4.186608e-001 7.138588e-001 3.198626e-001 1.674634e-001 4.456512e-001 9.258268e-001 4.348965e-001 3.757480e-001
<GCONST> 1.224286e+002
<STATE> 3
<MEAN> 39
 -4.731079e-001 -1.299493e+001 -1.146869e+001 -8.956141e+000 -1.124325e+000 -2.739191e+000 4.661896e+000 -5.008784e+000 -9.470856e+000 -5.062437e+000 -1.332875e+000 -1.300050e+000 7.775932e+001 2.154269e-001 -4.061705e-001 -3.291599e-002 5.745221e-001 -3.678549e-001 3.130456e-001 5.487912e-001 9.667216e-002 4.627245e-001 -6.917785e-001 -2.422992e-001 -1.410860e-001 2.913185e-001 -1.417300e-001 2.290778e-001 2.422961e-001 1.948530e-001 2.493982e-001 1.223262e-001 -3.215919e-001 1.108655e-002 4.211697e-002 -1.512684e-001 -2.466371e-001 1.253163e-001 -2.793703e-001
<VARIANCE> 39
 2.586088e+001 3.687012e+001 4.694822e+001 3.383112e+001 8.387534e+001 2.450943e+001 8.760594e+001 2.526451e+001 4.485351e+001 3.636416e+001 6.894630e+001 3.683483e+001 6.658421e+001 2.697648e-001 2.271065e+000 1.771459e+000 2.187602e+000 2.046305e+000 1.746996e+000 4.445037e+000 1.582583e+000 2.623830e+000 1.987601e+000 2.313917e+000 1.227870e+000 1.381830e+000 1.306767e-001 2.456976e-001 3.461674e-001 4.925025e-001 4.917081e-001 3.351479e-001 5.821327e-001 4.445266e-001 3.706660e-001 3.337396e-001 8.124213e-001 3.034125e-001 2.573967e-001
<GCONST> 1.145723e+002
<STATE> 4
<MEAN> 39
 -7.149883e+000 -1.562146e+000 -2.162483e+000 -1.917857e+000 1.777394e+000 2.530821e+000 -1.187105e+000 -2.028331e+000 -9.119085e+000 -3.352880e+000 -4.916909e+000 -1.083410e+000 6.516843e+001 -4.412612e-002 1.722877e-002 2.139943e-002 -2.338336e-002 3.290133e-003 5.775754e-002 -3.038853e-002 3.743455e-002 2.926070e-002 1.668599e-002 4.802142e-002 1.204286e-002 -4.112371e-002 1.747180e-003 2.878923e-003 8.385784e-003 1.070995e-003 7.844904e-003 -3.120535e-003 -4.759635e-003 1.222514e-002 -1.211685e-002 1.613747e-002 7.122443e-003 1.887814e-002 -3.480394e-003
<VARIANCE> 39
 1.518426e+001 2.066240e+001 1.716469e+001 1.244594e+001 9.785829e+000 1.169922e+001 2.786134e+001 1.230360e+001 1.043750e+001 9.884348e+000 1.223983e+001 7.196049e+000 2.846758e+001 8.802388e-002 2.001609e-001 3.921737e-001 4.011350e-001 4.614907e-001 8.495642e-001 8.619661e-001 8.695214e-001 7.655344e-001 6.936407e-001 8.864671e-001 6.905190e-001 6.419513e-002 1.590593e-002 2.839020e-002 7.329448e-002 8.623328e-002 9.306613e-002 1.584070e-001 1.819757e-001 1.783486e-001 1.636657e-001 1.375254e-001 1.951493e-001 1.265378e-001 6.926642e-003
<GCONST> 6.196925e+001
<TRANSP> 5
 0.000000e+000 1.000000e+000 0.000000e+000 0.000000e+000 0.000000e+000
 0.000000e+000 6.646459e-001 3.353541e-001 0.000000e+000 0.000000e+000
 0.000000e+000 0.000000e+000 7.131906e-001 2.868095e-001 0.000000e+000
 0.000000e+000 0.000000e+000 0.000000e+000 9.677636e-001 3.223644e-002
 0.000000e+000 0.000000e+000 0.000000e+000 0.000000e+000 0.000000e+000
<ENDHMM>
~h "ai"
<BEGINHMM>
<NUMSTATES> 5
<STATE> 2
<MEAN> 39
 -4.483801e+000 -1.525535e+000 1.026772e+001 -4.253600e+000 -5.267289e+000 2.662774e+000 -9.469841e+000 4.737741e+000 -5.829532e+000 3.550790e+000 -2.884097e+000 -1.615473e-002 6.872742e+001 5.615039e-001 -1.116731e-001 -6.277827e-002 -8.003403e-002 2.498616e-001 -7.351063e-003 -1.850230e-001 -3.149619e-001 -1.948363e-001 1.960945e-001 -7.304884e-002 -2.234726e-002 5.209615e-001 6.044117e-003 -1.109129e-001 -9.130283e-002 -8.286677e-002 -5.772681e-002 -5.881417e-002 7.503668e-003 -3.358892e-003 1.220888e-002 1.142327e-001 4.637510e-002 -1.886331e-002 7.296890e-002
<VARIANCE> 39
 3.394167e+001 6.364349e+001 5.478049e+001 2.554479e+001 4.101133e+001 5.461477e+001 5.215857e+001 8.572736e+001 2.485124e+001 7.688755e+001 3.666154e+001 2.385466e+001 2.183088e+001 2.261278e+000 6.165388e+000 2.634809e+000 2.126657e+000 3.295046e+000 4.126106e+000 4.684216e+000 2.238240e+000 2.053408e+000 2.096570e+000 3.855552e+000 1.423915e+000 1.335944e+000 2.716335e-001 9.275802e-001 3.500967e-001 3.636343e-001 4.886659e-001 7.097169e-001 1.073463e+000 4.405736e-001 3.758285e-001 3.865509e-001 6.959417e-001 2.745510e-001 1.681958e-001
<GCONST> 1.222868e+002
<STATE> 3
<MEAN> 39
 -8.804734e+000 -9.935412e+000 5.926163e+000 -9.168322e+000 5.503881e+000 6.824775e-001 -2.098048e+000 1.212049e+000 -2.601791e+000 1.870269e+000 -2.861237e+000 2.830603e+000 7.378976e+001 2.273008e-001 -1.252622e-001 -8.183781e-001 -6.717519e-001 -3.412642e-001 -2.937616e-001 6.269726e-001 6.374196e-002 2.083511e-001 2.140063e-001 -3.406902e-002 1.154392e-001 2.376111e-001 4.527183e-003 1.405690e-001 -1.907159e-002 6.684565e-002 2.093209e-002 2.941190e-002 2.161004e-002 7.896689e-002 5.369508e-002 -1.078164e-001 -6.419249e-002 -5.850805e-002 -9.541520e-002
<VARIANCE> 39
 5.379884e+001 6.738988e+001 8.229312e+001 4.525780e+001 1.126492e+002 6.116712e+001 6.670975e+001 8.520295e+001 7.854355e+001 7.947841e+001 5.848751e+001 3.490823e+001 2.991207e+001 3.920081e+000 4.104254e+000 3.972448e+000 3.731637e+000 4.641479e+000 9.737761e+000 8.498401e+000 6.072491e+000 5.734231e+000 7.256940e+000 3.519770e+000 3.547576e+000 1.152463e+000 7.189528e-001 7.024449e-001 5.876289e-001 9.021700e-001 8.549969e-001 2.503833e+000 2.166901e+000 1.476234e+000 1.172673e+000 1.281782e+000 6.832143e-001 5.635102e-001 2.085906e-001
<GCONST> 1.434537e+002
<STATE> 4
<MEAN> 39
 -8.084415e-001 -1.175754e+001 -1.753096e+001 -1.031532e+001 -1.039241e+001 -5.003223e+000 5.559551e+000 -1.429317e+001 2.314749e+000 -4.048243e+000 6.372462e-001 -1.374930e+001 8.645358e+001 -6.162866e-002 2.002302e-001 3.711121e-002 3.862446e-002 -5.680599e-002 -2.880321e-001 1.890800e-001 1.073210e-001 1.478407e-001 -3.963320e-001 -1.882711e-002 -2.166554e-002 -7.886521e-002 -1.557948e-002 5.015247e-002 1.126925e-001 3.701274e-002 2.311686e-002 -4.739005e-002 -1.003270e-001 5.457066e-002 -1.222269e-001 -6.845992e-003 5.631847e-003 1.023522e-001 -3.777031e-002
<VARIANCE> 39
 6.850253e+000 5.968853e+000 1.584531e+001 1.062259e+001 5.519945e+001 1.633363e+001 2.388226e+001 8.532764e+001 5.617060e+001 1.795595e+001 4.069578e+001 7.181577e+001 2.145709e+001 1.467674e-001 2.083259e-001 6.022906e-001 3.323530e-001 3.491091e-001 1.339926e+000 1.375816e+000 1.267164e+000 1.278187e+000 6.594955e-001 3.399917e-001 7.870394e-001 5.102293e-002 3.258690e-002 3.586219e-002 6.578785e-002 7.993557e-002 5.073570e-002 1.411483e-001 1.855667e-001 1.581100e-001 6.085133e-002 1.246534e-001 5.605264e-002 1.021664e-001 7.655878e-003
<GCONST> 6.775153e+001
<TRANSP> 5
 0.000000e+000 1.000000e+000 0.000000e+000 0.000000e+000 0.000000e+000
 0.000000e+000 9.407188e-001 5.928118e-002 0.000000e+000 0.000000e+000
 0.000000e+000 0.000000e+000 9.260185e-001 7.398150e-002 0.000000e+000
 0.000000e+000 0.000000e+000 0.000000e+000 9.226115e-001 7.738858e-002
 0.000000e+000 0.000000e+000 0.000000e+000 0.000000e+000 0.000000e+000
<ENDHMM>
~h "as"
<BEGINHMM>
<NUMSTATES> 5
<STATE> 2
<MEAN> 39
 -9.443160e-001 -1.394626e+001 -1.734286e+001 -9.616031e+000 -9.057274e+000 4.573415e+000 -4.362974e+000 -8.098063e+000 4.290466e+000 -1.584386e+001 8.399234e+000 -8.284123e+000 8.381200e+001 6.260734e-003 2.207078e-001 1.096921e-001 3.665370e-002 -5.293554e-002 -4.143928e-002 -1.489903e-001 2.005406e-002 -1.969452e-001 -2.188226e-003 -1.997412e-001 -2.956439e-001 -1.537347e-001 6.385313e-003 9.629084e-002 8.304842e-002 2.147155e-002 -8.005103e-002 -8.701076e-002 -1.903789e-001 -1.276375e-001 -3.192858e-001 -1.065643e-002 -1.185601e-001 -2.263720e-001 -3.004783e-002
<VARIANCE> 39
 7.592466e+000 2.480524e+001 5.403322e+001 9.583151e+000 4.207835e+001 2.872462e+001 8.429820e+001 6.959254e+001 6.306677e+001 8.975762e+001 3.579150e+001 3.498942e+001 8.845448e+001 1.625577e-001 5.669631e-001 5.086490e-001 6.000156e-001 5.040815e-001 7.227790e-001 2.442143e+000 7.655619e-001 1.053539e+000 1.033009e+000 1.197781e+000 1.270499e+000 1.343993e-001 2.806983e-002 3.334390e-002 2.354259e-002 7.760258e-002 5.279426e-002 1.163978e-001 6.068637e-001 9.700426e-002 1.258522e-001 2.636049e-001 2.296063e-001 2.034862e-001 1.464772e-002
<GCONST> 8.184200e+001
<STATE> 3
<MEAN> 39
 3.693288e-001 -7.955952e+000 -1.369214e+001 -4.542845e+000 -9.119675e+000 -4.409447e+000 -6.244310e+000 -1.121420e+001 -9.684701e+000 -1.540934e+001 -1.495462e+000 -1.055079e+001 7.824203e+001 1.499134e-002 7.453617e-001 3.884023e-001 6.756711e-001 2.217244e-001 -3.781562e-001 -7.916996e-001 3.931910e-002 -1.501773e+000 8.737659e-002 -6.983601e-001 2.384713e-001 -9.188775e-001 -6.358552e-002 -2.560625e-002 -5.865652e-002 -2.328455e-002 3.138725e-002 4.233336e-002 1.254910e-001 7.662100e-002 1.725104e-001 -5.396042e-002 1.531013e-001 1.226168e-001 -3.021182e-002
<VARIANCE> 39
 1.048318e+001 1.511304e+001 2.366788e+001 2.243100e+001 3.348392e+001 2.766837e+001 3.836654e+001 6.066432e+001 6.802927e+001 5.769493e+001 3.387335e+001 2.510965e+001 5.290282e+001 5.706226e-001 2.383141e-001 3.413834e-001 1.146477e+000 2.669823e-001 1.086882e+000 2.778272e+000 3.461516e-001 1.453306e+000 9.037752e-001 1.572784e+000 8.201193e-001 4.049239e-001 6.610199e-002 4.752935e-002 7.158014e-002 2.241952e-001 6.935710e-002 1.525444e-001 3.793224e-001 5.817207e-002 1.467102e-001 1.475598e-001 1.855476e-001 2.059636e-001 9.021013e-002
<GCONST> 8.424346e+001
<STATE> 4
<MEAN> 39
 -8.521415e+000 -6.107113e-001 -4.526762e+000 2.434117e-001 -1.192629e+000 1.688568e+000 -3.467481e+000 -3.898520e+000 -7.310346e+000 -5.005992e+000 -4.416979e+000 -1.759726e+000 6.432419e+001 -7.222838e-002 3.137288e-002 4.023369e-002 1.844241e-002 -1.114944e-003 4.751685e-002 3.543402e-002 4.378350e-002 9.402271e-002 3.535062e-002 -1.180045e-002 1.371230e-002 -6.359471e-002 1.884495e-003 -5.006838e-003 5.185523e-003 3.575565e-003 -9.278532e-004 -3.636729e-003 1.456036e-003 -2.108630e-004 8.944915e-003 -1.316561e-003 -3.491463e-003 -6.482879e-003 6.471280e-003
<VARIANCE> 39
 9.562180e+000 2.149540e+000 1.846374e+001 1.392833e+001 1.704229e+001 1.107576e+001 9.700000e+000 1.543452e+001 2.856606e+001 1.110966e+001 9.615871e+000 8.572793e+000 4.048521e+000 1.217508e-001 1.795563e-001 3.129574e-001 3.814547e-001 5.416080e-001 6.934728e-001 8.341517e-001 7.552498e-001 9.142461e-001 8.851708e-001 9.668579e-001 8.471421e-001 5.845534e-002 1.963884e-002 3.602105e-002 6.283864e-002 7.208061e-002 1.040449e-001 1.324159e-001 1.774686e-001 1.396110e-001 1.836833e-001 1.950478e-001 2.087305e-001 1.735674e-001 5.854421e-003
<GCONST> 5.900791e+001
<TRANSP> 5
 0.000000e+000 1.000000e+000 0.000000e+000 0.000000e+000 0.000000e+000
 0.000000e+000 8.103313e-001 1.896688e-001 0.000000e+000 0.000000e+000
 0.000000e+000 0.000000e+000 8.237258e-001 1.762742e-001 0.000000e+000
 0.000000e+000 0.000000e+000 0.000000e+000 9.866435e-001 1.335650e-002
 0.000000e+000 0.000000e+000 0.000000e+000 0.000000e+000 0.000000e+000
<ENDHMM>
~h "aw"
<BEGINHMM>
<NUMSTATES> 5
<STATE> 2
<MEAN> 39
 -1.271781e+001 5.931575e-001 1.708860e+000 -3.069987e+000 1.765724e+000 -3.619279e+000 3.064473e+000 -6.156024e+000 1.979785e+000 -2.706701e+000 4.157832e+000 -1.302441e+000 6.846194e+001 5.428495e-001 -6.464540e-001 -5.129104e-001 2.028933e-002 4.904555e-001 5.215525e-001 -1.238100e-001 7.403162e-001 3.464492e-002 1.062045e+000 -1.262258e-001 3.866939e-001 7.530378e-002 -3.689660e-002 -1.547910e-001 -6.670482e-002 -6.431060e-002 -4.373012e-002 -3.483154e-001 -1.665570e-001 -3.346015e-002 -1.712444e-001 2.938763e-002 -2.644532e-001 -9.475861e-003 -1.660574e-002
<VARIANCE> 39
 1.857290e+001 5.608248e+000 2.850803e+001 4.333260e+001 4.618056e+001 7.051374e+001 1.971185e+001 1.918798e+001 4.000294e+001 2.529323e+001 1.604030e+001 1.605875e+001 9.913425e+000 3.514852e-001 8.744612e-001 1.385387e+000 2.277810e-001 1.446669e+000 1.338491e+000 1.222341e+000 1.009229e+000 1.220152e+000 2.131087e+000 1.428806e+000 1.656507e+000 3.778312e-001 9.174109e-002 1.401611e-001 7.276248e-002 5.583977e-002 4.002626e-001 3.240110e-001 3.832994e-001 4.084941e-001 4.704817e-001 6.950996e-001 3.979327e-001 5.349395e-001 9.308284e-002
<GCONST> 9.281689e+001
<STATE> 3
<MEAN> 39
 -1.009146e+001 -3.178243e+000 -1.192769e+000 -3.793011e+000 1.172100e-001 -4.546266e+000 -1.251186e+000 -3.891860e+000 -2.969277e+000 5.964926e-001 -4.183963e-001 3.136271e+000 6.789539e+001 1.349899e-001 -4.276396e-001 -2.734405e-002 -1.824698e-001 -4.130244e-001 -1.567362e-002 -8.945276e-001 8.957013e-001 -1.028872e+000 1.345353e-001 -1.228729e+000 5.357078e-001 -5.192135e-001 -6.390510e-002 2.051378e-001 1.506255e-001 1.998139e-001 4.107143e-003 4.296742e-001 1.089524e-001 8.429935e-002 7.299943e-002 -1.376267e-001 1.758376e-001 -3.449753e-001 -9.091216e-002
<VARIANCE> 39
 5.107731e+000 3.574201e+000 5.844159e+001 2.249173e+001 4.284088e+001 2.074922e+001 6.089298e+000 5.308491e+001 2.576213e+001 3.050002e+001 1.829458e+001 2.118668e+001 5.069548e+000 6.992179e-001 3.771190e-001 8.753089e-001 1.197567e+000 1.786119e+000 3.284745e+000 2.126665e+000 5.733908e+000 1.307591e+000 2.884643e+000 1.104553e+000 4.062342e+000 1.843046e-001 6.078679e-002 9.195405e-002 9.522811e-002 1.799187e-001 2.819832e-001 1.964595e-001 2.744093e-001 4.000462e-001 3.467480e-001 5.400951e-001 2.431929e-001 5.203055e-001 5.558765e-002
<GCONST> 9.171490e+001
<STATE> 4
<MEAN> 39
 -1.013187e+001 -1.042187e+000 -4.118066e+000 3.756802e-001 -9.176458e-001 2.957208e+000 -2.119901e+000 -3.045290e+000 -4.352737e+000 -2.447479e+000 -3.989258e+000 -1.442574e-001 6.352365e+001 -2.504989e-002 8.525916e-003 2.375152e-002 4.520865e-002 3.902606e-002 6.696156e-002 2.422993e-002 2.566888e-002 3.183839e-002 8.517380e-005 -1.800735e-002 -1.082243e-002 -3.413090e-002 -1.690431e-003 -4.265972e-003 5.440838e-003 -7.689552e-003 -1.162608e-002 -7.955713e-003 -1.747918e-002 -2.323550e-002 -6.182343e-003 -5.380422e-003 3.811167e-003 -4.249469e-003 6.049627e-003
<VARIANCE> 39
 4.857488e+000 2.301588e+000 1.899492e+001 1.527698e+001 1.194608e+001 7.671689e+000 6.493560e+000 1.237049e+001 3.450307e+001 7.671618e+000 1.071764e+001 6.877467e+000 8.652817e-001 7.572491e-002 1.645292e-001 3.052795e-001 3.644746e-001 5.154722e-001 6.258295e-001 5.617418e-001 7.662981e-001 7.607489e-001 7.315472e-001 8.855905e-001 6.368623e-001 2.863564e-002 1.427246e-002 3.740839e-002 6.876152e-002 8.176387e-002 1.036967e-001 1.380136e-001 1.251478e-001 1.616230e-001 1.531148e-001 1.411159e-001 1.855090e-001 1.364610e-001 5.283087e-003
<GCONST> 5.151460e+001
<TRANSP> 5
 0.000000e+000 1.000000e+000 0.000000e+000 0.000000e+000 0.000000e+000
 0.000000e+000 6.344422e-001 3.655578e-001 0.000000e+000 0.000000e+000
 0.000000e+000 0.000000e+000 6.197813e-001 3.802187e-001 0.000000e+000
 0.000000e+000 0.000000e+000 0.000000e+000 9.826290e-001 1.737097e-002
 0.000000e+000 0.000000e+000 0.000000e+000 0.000000e+000 0.000000e+000
<ENDHMM>
~h "ch"
<BEGINHMM>
<NUMSTATES> 5
<STATE> 2
<MEAN> 39
 -9.341580e+000 -1.159493e+000 6.172133e-001 1.805079e-001 -7.172688e+000 4.996222e+000 -7.242964e+000 4.583542e+000 -5.197263e+000 -1.846968e+000 1.035757e-001 -5.086094e+000 6.067937e+001 1.000399e-001 1.009863e-001 1.103020e+000 -1.115491e+000 6.535272e-001 -1.331609e+000 -2.417885e-001 -5.612639e-001 -1.391953e+000 1.172987e+000 -5.010453e-001 9.489973e-001 8.262234e-001 -2.108868e-001 7.718803e-002 1.229487e-001 -5.569425e-001 4.713844e-001 -2.825314e-001 5.116230e-002 -1.395579e-001 -4.542241e-002 3.282376e-001 -1.764683e-001 2.161584e-001 1.512439e-001
<VARIANCE> 39
 5.282878e+001 3.271300e+000 2.437230e+001 8.260463e+000 6.759301e+001 2.588556e+001 9.692007e+001 2.609955e+001 2.047083e+001 4.163033e+000 2.024666e+001 1.497947e+001 1.174900e+001 9.240143e-001 3.170349e-001 1.229338e+000 1.918688e+000 1.531004e+000 4.275916e-001 1.528370e+000 4.934330e-001 2.450552e-001 8.964434e-001 1.107398e+000 2.137117e+000 3.022260e-001 1.932491e-001 5.302515e-002 2.244475e-001 1.147251e-001 1.447819e-001 1.237974e-001 2.890550e-001 8.447669e-002 2.608515e-001 3.325498e-001 1.282043e-001 2.093088e-001 1.460100e-001
<GCONST> 8.317381e+001
<STATE> 3
<MEAN> 39
 -1.378538e+001 -4.799921e-001 3.382762e+000 -5.224712e+000 -5.146008e-001 4.860849e-001 -4.133386e+000 4.583239e+000 -6.707057e+000 3.119726e+000 -1.247849e+000 -3.194651e+000 6.108173e+001 -1.417606e-001 -4.833816e-002 -4.463947e-001 -7.953306e-002 3.559863e-001 -6.087826e-001 4.101185e-001 -5.683655e-001 4.705841e-002 5.279711e-001 -2.776588e-001 5.996126e-002 -1.081361e-002 2.496359e-001 -9.018067e-002 -3.055032e-001 3.402498e-001 -3.960256e-001 3.371373e-001 -2.004613e-001 -8.368975e-002 1.058125e-001 -4.313374e-001 -1.294999e-001 -1.231474e-001 -5.573595e-002
<VARIANCE> 39
 5.774735e+001 5.624453e+000 3.690447e+001 3.000241e+001 5.095935e+001 1.306322e+001 2.838010e+001 1.670987e+001 1.567618e+001 1.079099e+001 5.047233e+000 1.023909e+001 1.487850e+001 2.441570e+000 1.725515e-001 3.301286e+000 3.317806e+000 3.343281e+000 9.436148e-001 1.609178e+000 1.165261e+000 2.318818e+000 2.361785e+000 6.857422e-001 3.763274e-001 7.625811e-001 4.198550e-001 1.418572e-001 7.176581e-001 6.489771e-001 4.986955e-001 1.664158e-001 4.964293e-001 1.597845e-001 3.954781e-001 3.135149e-001 1.168891e-001 2.171729e-001 2.317402e-001
<GCONST> 9.645857e+001
<STATE> 4
<MEAN> 39
 -1.125727e+001 -1.074407e+000 -2.334536e-001 -2.344863e+000 -3.549892e+000 5.137608e-001 -5.230006e+000 1.534063e+000 -7.239849e+000 1.344651e+000 -3.711270e+000 -3.161617e+000 6.182395e+001 1.774695e-001 2.061769e-001 3.234981e-001 3.290485e-001 1.045294e-001 2.973174e-001 -4.198172e-001 -3.249495e-002 -3.145528e-001 -2.044774e-001 -4.886281e-001 2.144610e-001 2.871468e-002 -1.919544e-001 -7.892045e-002 5.614842e-001 -6.736784e-002 9.971771e-002 2.624441e-001 2.232601e-001 1.632971e-001 2.284508e-001 1.189639e-002 1.630183e-001 -9.421286e-002 1.597803e-001
<VARIANCE> 39
 3.001060e+001 2.297629e+000 3.140987e+001 2.995700e+001 9.759522e+000 1.400467e+001 5.327892e+001 3.490676e+001 3.030788e+001 1.968750e+001 1.374937e+001 9.180910e+000 1.746415e+001 6.313620e-001 7.071033e-001 2.677471e-001 6.757036e-001 7.599236e-001 4.919494e-001 1.363687e+000 9.584676e-001 1.404465e+000 1.181069e+000 1.493001e+000 3.058798e-001 5.580557e-001 3.727490e-001 2.474972e-001 2.279320e-001 5.678706e-001 2.439721e-001 8.541141e-002 3.342455e-001 2.702004e-001 3.566797e-001 3.341968e-001 3.920020e-001 1.025483e-001 1.852611e-001
<GCONST> 8.746967e+001
<TRANSP> 5
 0.000000e+000 1.000000e+000 0.000000e+000 0.000000e+000 0.000000e+000
 0.000000e+000 4.851924e-001 5.148076e-001 0.000000e+000 0.000000e+000
 0.000000e+000 0.000000e+000 6.467116e-001 3.532884e-001 0.000000e+000
 0.000000e+000 0.000000e+000 0.000000e+000 6.930990e-001 3.069010e-001
 0.000000e+000 0.000000e+000 0.000000e+000 0.000000e+000 0.000000e+000
<ENDHMM>
~h "is"
<BEGINHMM>
<NUMSTATES> 5
<STATE> 2
<MEAN> 39
 -8.509554e-001 -2.841688e+000 8.594050e+000 -1.655896e+000 -5.684628e+000 7.804006e+000 -1.295133e+001 7.832137e+000 -3.467623e+000 2.631814e+000 6.747634e-001 -2.647523e+000 6.804470e+001 -2.184825e-002 -4.314316e-002 1.804523e-002 1.500347e-002 -6.587923e-002 4.947505e-002 3.492989e-002 -4.626593e-002 4.653432e-002 -6.776198e-002 9.900153e-002 -2.843342e-002 1.321028e-002 -3.824501e-002 -1.765976e-002 9.373873e-003 -4.246963e-002 1.441869e-002 -2.693054e-002 9.049150e-003 -4.017590e-002 -2.207184e-003 1.139601e-003 -1.191607e-002 -3.820982e-003 1.299592e-002
<VARIANCE> 39
 2.867516e+001 1.055768e+001 3.491853e+001 4.843424e+001 1.030217e+002 8.140240e+001 7.315231e+001 1.003911e+002 4.212536e+001 4.841324e+001 6.647381e+001 4.501712e+001 4.155251e+001 2.400225e+000 1.067263e+000 2.099229e+000 2.494309e+000 3.124163e+000 3.679323e+000 5.349748e+000 6.836333e+000 4.787330e+000 3.812363e+000 3.490309e+000 2.621620e+000 1.080478e+000 4.711463e-001 2.251309e-001 3.782114e-001 4.223345e-001 5.495729e-001 6.557077e-001 9.749669e-001 1.286611e+000 9.883797e-001 7.890201e-001 5.845952e-001 4.139320e-001 1.699148e-001
<GCONST> 1.276315e+002
<STATE> 3
<MEAN> 39
 -6.436673e+000 -3.353944e+000 1.338244e+001 8.582208e-001 -2.265348e+000 3.309092e+000 -1.184878e+001 1.581787e+000 -4.355431e+000 -5.873468e-001 -3.496701e+000 -4.053146e+000 6.885510e+001 3.240018e-001 -1.055949e-001 3.165799e-001 3.537368e-001 1.045682e-001 -6.681195e-001 -4.642071e-001 -1.622100e-001 -4.273254e-001 -8.944639e-002 1.853826e-002 -2.793002e-002 4.611654e-001 1.220567e-001 2.643654e-002 -1.527913e-001 1.121670e-001 -2.893194e-002 -5.308850e-002 -3.562272e-002 8.504659e-002 -3.769708e-002 1.357020e-002 4.490682e-002 2.181944e-002 -3.596937e-002
<VARIANCE> 39
 6.102753e+001 3.261839e+001 1.060397e+002 5.772971e+001 1.204547e+002 1.520125e+002 1.070492e+002 9.999173e+001 3.744016e+001 2.977783e+001 7.430032e+001 3.826342e+001 5.403910e+001 4.638761e+000 3.185249e+000 4.636590e+000 7.463282e+000 1.040513e+001 1.355804e+001 8.253564e+000 4.624707e+000 2.967842e+000 3.253376e+000 3.582573e+000 3.334685e+000 2.797582e+000 8.110687e-001 6.203055e-001 5.631848e-001 1.434201e+000 2.091385e+000 2.447142e+000 1.769252e+000 9.082619e-001 5.634568e-001 5.799174e-001 4.528915e-001 7.116250e-001 4.124120e-001
<GCONST> 1.447205e+002
<STATE> 4
<MEAN> 39
 -1.816563e+000 -7.460275e+000 4.483379e+000 8.037593e+000 7.506331e-001 -2.220330e+001 -1.371048e+001 -1.119583e+001 -1.916785e+001 -7.667055e-001 -5.249959e+000 -8.388632e+000 7.972549e+001 1.364435e-001 1.522158e-001 -4.307897e-001 -1.402531e-001 -3.873643e-001 1.060925e-001 5.411206e-002 2.098699e-001 1.880524e-001 -1.475052e-001 -7.249963e-002 -1.350834e-001 -3.088900e-001 -1.097971e-001 7.088021e-002 9.743756e-002 -8.177967e-002 -7.385610e-002 1.823054e-001 7.179266e-002 -1.445771e-002 1.653394e-001 4.441942e-002 -9.767608e-003 5.833935e-002 -7.938170e-002
<VARIANCE> 39
 6.132059e+000 1.807211e+001 9.102515e+001 1.442972e+001 6.421254e+001 3.892076e+001 1.815564e+001 1.043937e+002 1.923004e+001 4.423525e+001 3.076251e+001 4.328640e+001 3.559778e+001 4.001274e-001 7.917091e-001 9.294838e-001 1.126867e+000 1.458768e+000 1.486430e+000 1.095016e+000 9.256935e-001 9.548092e-001 1.129682e+000 1.326257e+000 1.023108e+000 5.489936e-001 8.433808e-002 1.189050e-001 1.108788e-001 2.570729e-001 2.846032e-001 3.623201e-001 1.837684e-001 1.498647e-001 1.603132e-001 2.312077e-001 2.293731e-001 1.444027e-001 6.396799e-002
<GCONST> 9.243831e+001
<TRANSP> 5
 0.000000e+000 1.000000e+000 0.000000e+000 0.000000e+000 0.000000e+000
 0.000000e+000 9.737957e-001 2.620432e-002 0.000000e+000 0.000000e+000
 0.000000e+000 0.000000e+000 9.567701e-001 4.322987e-002 0.000000e+000
 0.000000e+000 0.000000e+000 0.000000e+000 9.243814e-001 7.561859e-002
 0.000000e+000 0.000000e+000 0.000000e+000 0.000000e+000 0.000000e+000
<ENDHMM>
~h "kh"
<BEGINHMM>
<NUMSTATES> 5
<STATE> 2
<MEAN> 39
 -1.180432e+001 -7.047127e+000 4.119908e+000 -8.560654e+000 -9.760346e-001 8.640958e+000 -5.095224e+000 -2.402165e+000 -6.694596e+000 1.353652e+000 8.633323e-003 1.801843e-001 6.872013e+001 3.686626e-001 -7.472101e-001 -8.574881e-002 -1.162439e+000 -1.710622e-001 -8.174192e-001 3.783179e-001 -3.196337e-001 -1.986648e-001 1.371285e-001 1.561653e-001 2.130108e-001 1.565999e+000 9.065040e-002 1.157962e-002 -1.503596e-001 4.793840e-002 -1.106869e-001 -4.534710e-003 2.997397e-002 1.758993e-001 5.733930e-002 2.091263e-002 3.037829e-002 -7.748439e-002 -3.557403e-002
<VARIANCE> 39
 4.852649e+001 3.836147e+001 3.008247e+001 4.377435e+001 4.896366e+001 6.563832e+001 3.245594e+001 1.053766e+002 2.456735e+001 3.736978e+001 4.116549e+001 3.622230e+001 5.537534e+001 2.823868e+000 4.335194e+000 3.536813e+000 6.530743e+000 7.011631e+000 6.529919e+000 5.191241e+000 3.929391e+000 3.003751e+000 6.398932e+000 2.122847e+000 5.363613e+000 3.149779e+000 3.078355e-001 4.888397e-001 5.272666e-001 1.064862e+000 1.183998e+000 1.052462e+000 8.496864e-001 6.706538e-001 7.253122e-001 1.385866e+000 4.772628e-001 1.077552e+000 3.241885e-001
<GCONST> 1.351658e+002
<STATE> 3
<MEAN> 39
 -3.576452e+000 -9.248417e+000 -1.093850e+000 -1.556551e+001 1.139983e+000 -1.924542e+000 2.205569e+000 4.261446e+000 -5.178474e+000 1.396227e+000 -3.069896e+000 2.802902e+000 7.566236e+001 2.664413e-001 -9.634591e-002 -3.422144e-001 -9.361627e-003 -1.661697e-001 -9.087718e-002 2.090363e-001 -1.766200e-003 2.273004e-001 -1.028255e-001 1.050648e-001 -1.909328e-001 1.579308e-001 -6.349795e-002 7.605900e-002 2.427341e-002 3.761746e-002 4.017053e-002 2.531383e-002 -3.562482e-002 -6.800071e-002 1.359734e-002 -3.865675e-002 2.950357e-002 6.274893e-002 -6.896529e-002
<VARIANCE> 39
 4.180124e+001 2.833464e+001 1.234746e+002 2.645201e+001 4.876116e+001 7.457796e+001 9.198476e+001 8.848962e+001 3.927682e+001 3.425537e+001 4.930424e+001 5.314874e+001 5.401464e+001 1.057282e+000 1.413024e+000 2.315582e+000 1.391421e+000 1.734122e+000 3.162413e+000 3.049728e+000 4.602575e+000 3.616744e+000 3.116999e+000 2.488216e+000 2.393659e+000 8.710639e-001 1.749564e-001 3.392231e-001 3.519007e-001 2.347984e-001 2.762067e-001 5.601028e-001 5.437993e-001 8.094628e-001 6.484149e-001 5.866330e-001 4.909389e-001 5.132696e-001 1.513815e-001
<GCONST> 1.208599e+002
<STATE> 4
<MEAN> 39
 -7.535826e+000 -1.911888e-001 -1.455573e+000 -2.100374e+000 7.797732e-001 2.467441e+000 -2.412042e+000 -1.590073e+000 -8.231512e+000 -2.341684e+000 -4.193736e+000 -6.916859e-001 6.418168e+001 8.407643e-004 9.633500e-002 4.663899e-002 4.386203e-002 -2.617966e-003 -5.615595e-002 -5.623865e-002 -3.485148e-002 -4.072588e-002 -7.158177e-002 4.560755e-002 3.140659e-002 -3.544402e-002 2.145468e-003 1.485457e-003 1.542217e-002 -3.443246e-003 9.205548e-003 2.609302e-003 3.906030e-003 4.075744e-003 -7.892886e-003 9.829024e-003 -9.204487e-003 1.056537e-003 4.179779e-003
<VARIANCE> 39
 6.459620e+000 6.506444e+000 1.125541e+001 9.404480e+000 8.614702e+000 1.170592e+001 1.323244e+001 8.674399e+000 9.842792e+000 1.144061e+001 9.407454e+000 7.888618e+000 9.107463e+000 1.610785e-001 2.220164e-001 3.348557e-001 4.182698e-001 7.533028e-001 7.882336e-001 7.105837e-001 9.061116e-001 9.807838e-001 1.153976e+000 1.075735e+000 8.562421e-001 6.389579e-002 2.751051e-002 4.349757e-002 6.867483e-002 8.841775e-002 1.506793e-001 1.596181e-001 1.329939e-001 1.919337e-001 2.169131e-001 2.262590e-001 1.820037e-001 1.761680e-001 1.041274e-002
<GCONST> 6.146019e+001
<TRANSP> 5
 0.000000e+000 1.000000e+000 0.000000e+000 0.000000e+000 0.000000e+000
 0.000000e+000 8.936376e-001 1.063624e-001 0.000000e+000 0.000000e+000
 0.000000e+000 0.000000e+000 9.547446e-001 4.525539e-002 0.000000e+000
 0.000000e+000 0.000000e+000 0.000000e+000 9.799793e-001 2.002075e-002
 0.000000e+000 0.000000e+000 0.000000e+000 0.000000e+000 0.000000e+000
<ENDHMM>
~h "ng"
<BEGINHMM>
<NUMSTATES> 5
<STATE> 2
<MEAN> 39
 2.440162e+000 2.622025e-001 -7.334459e+000 -5.046930e+000 -1.733805e+001 -6.293581e+000 2.314417e+000 9.136863e-001 -3.923426e+000 -9.227367e+000 4.013824e+000 -6.046553e+000 7.678266e+001 -1.077862e-001 4.749781e-002 -5.415533e-002 -1.897250e-001 -2.284831e-001 -1.486630e-001 1.691150e-003 4.513267e-002 6.960687e-002 -1.584816e-002 1.498536e-001 9.591178e-002 -6.607256e-002 -2.906861e-002 -2.613238e-002 -2.944917e-002 -2.106719e-002 1.788350e-002 -2.638723e-002 1.355082e-002 2.010899e-002 6.436652e-002 2.467608e-002 3.515512e-002 9.047229e-003 -2.530465e-003
<VARIANCE> 39
 2.592500e+001 7.850980e+000 3.863129e+001 5.506668e+001 9.351068e+001 5.454001e+001 6.589789e+001 4.201462e+001 1.431688e+001 5.655429e+001 7.127514e+001 2.777530e+001 5.029098e+001 1.150060e+000 4.959224e-001 1.044903e+000 2.350443e+000 2.147863e+000 1.516577e+000 1.691043e+000 2.228075e+000 1.874223e+000 1.753253e+000 3.324471e+000 1.348210e+000 9.793789e-001 8.491167e-002 8.445868e-002 1.515949e-001 3.735127e-001 2.960829e-001 2.689401e-001 2.255880e-001 3.481269e-001 4.067033e-001 2.686556e-001 4.899518e-001 2.221003e-001 6.860457e-002
<GCONST> 1.048422e+002
<STATE> 3
<MEAN> 39
 -3.675572e+000 -9.384305e-001 1.343219e+001 -5.061319e-001 3.347331e+000 8.550564e+000 -7.138260e+000 1.036976e+001 -2.351661e+000 6.293278e+000 -2.041924e+000 4.196628e-001 6.813680e+001 -2.473629e-001 -8.399944e-002 -2.877626e-001 -1.528494e-002 -4.740541e-002 -1.349691e-001 4.949685e-002 -1.121781e-001 1.245297e-001 -9.897774e-002 2.089655e-001 -8.826639e-002 -1.798908e-001 3.147028e-002 1.845265e-002 -5.119586e-003 1.003358e-002 3.576882e-002 -3.307176e-003 -8.150615e-002 -9.620188e-003 -1.815760e-003 2.376338e-003 -5.380925e-002 -1.323174e-002 4.802283e-003
<VARIANCE> 39
 1.495899e+001 5.160744e+001 8.481266e+001 3.579546e+001 8.151030e+001 7.081481e+001 6.532720e+001 5.908889e+001 3.338841e+001 3.427848e+001 3.388766e+001 3.730124e+001 1.729559e+001 1.556291e+000 2.112918e+000 1.384601e+000 3.594509e+000 3.164718e+000 4.344220e+000 5.673294e+000 2.973739e+000 3.396471e+000 3.232535e+000 3.439788e+000 2.423900e+000 9.838748e-001 3.142454e-001 2.429203e-001 1.809246e-001 7.888746e-001 5.740079e-001 8.144118e-001 1.010330e+000 4.793095e-001 6.656159e-001 6.681093e-001 5.582796e-001 4.647388e-001 1.577250e-001
<GCONST> 1.230298e+002
<STATE> 4
<MEAN> 39
 -1.432098e+001 1.813285e+000 -2.969354e+000 -3.379583e+000 -2.929779e+000 -4.389816e-001 6.517686e-001 2.151659e+000 -1.112635e+000 2.444790e-001 -1.497884e+000 -7.310292e-001 5.861061e+001 -6.808147e-002 3.546062e-002 1.607933e-001 2.592752e-001 1.938351e-001 7.969729e-002 -3.597068e-002 2.912488e-002 9.068280e-002 3.542765e-002 4.402092e-002 -3.801076e-002 -5.318325e-002 3.498779e-002 1.829997e-002 1.841269e-002 -4.147825e-003 -3.564847e-002 1.628947e-002 1.200276e-002 1.732851e-003 -1.382125e-002 2.414821e-002 2.520998e-002 -1.650998e-002 1.428657e-002
<VARIANCE> 39
 9.913116e+000 2.753186e+000 6.546315e+000 1.182501e+001 1.178330e+001 8.809996e+000 1.393430e+001 1.294889e+001 7.932690e+000 8.267219e+000 6.442480e+000 4.711917e+000 9.027667e+000 8.462552e-001 2.888772e-001 3.196980e-001 7.436831e-001 7.631774e-001 1.042318e+000 1.225658e+000 1.408030e+000 8.586601e-001 7.568150e-001 7.114031e-001 5.338262e-001 8.576677e-001 2.160159e-001 7.536075e-002 6.644373e-002 1.483991e-001 1.449026e-001 2.494206e-001 2.796834e-001 3.299276e-001 1.732102e-001 1.609855e-001 1.659729e-001 1.217590e-001 2.191479e-001
<GCONST> 7.144662e+001
<TRANSP> 5
 0.000000e+000 1.000000e+000 0.000000e+000 0.000000e+000 0.000000e+000
 0.000000e+000 9.370927e-001 6.290726e-002 0.000000e+000 0.000000e+000
 0.000000e+000 0.000000e+000 9.384919e-001 6.150815e-002 0.000000e+000
 0.000000e+000 0.000000e+000 0.000000e+000 9.477336e-001 5.226638e-002
 0.000000e+000 0.000000e+000 0.000000e+000 0.000000e+000 0.000000e+000
<ENDHMM>
~h "oo"
<BEGINHMM>
<NUMSTATES> 5
<STATE> 2
<MEAN> 39
 2.036904e+000 -1.365265e+000 -4.582958e+000 -1.053037e+001 -1.076562e+001 -4.643429e+000 1.892834e+000 -4.327539e+000 -6.184006e+000 -8.045245e+000 2.355485e+000 -2.706065e+000 7.806512e+001 3.054732e-001 -2.533498e-001 2.986518e-001 -1.009898e+000 -9.639492e-001 -7.211306e-001 -2.284011e-001 5.631203e-001 -2.229385e-001 1.550398e-001 -2.600324e-001 -6.437734e-002 4.674821e-001 6.561318e-002 -5.034367e-003 1.262011e-001 1.601716e-001 -2.303347e-002 -9.565231e-002 -4.310862e-001 3.967142e-001 -2.170750e-001 1.790574e-001 -3.015542e-001 -8.540658e-002 -1.227122e-001
<VARIANCE> 39
 1.155171e+001 6.625014e+001 1.260979e+002 3.775098e+001 9.595568e+001 3.749604e+001 2.973356e+001 3.459164e+001 2.317099e+001 3.416482e+001 3.410758e+001 4.978246e+001 6.504737e+001 5.853634e-001 1.144513e+000 1.788579e+000 1.610056e+000 7.139706e-001 4.306100e+000 2.039803e+000 5.341782e+000 2.460628e+000 1.576408e+000 2.013817e+000 1.503335e+000 1.114936e+000 1.531370e-001 2.231864e-001 3.231963e-001 4.641043e-001 1.848259e-001 6.240140e-001 3.661804e-001 9.908725e-001 4.236572e-001 5.173667e-001 6.073155e-001 3.701284e-001 2.329812e-001
<GCONST> 1.140224e+002
<STATE> 3
<MEAN> 39
 3.825799e+000 -2.345934e+000 1.434022e+000 -7.966197e+000 -8.551862e+000 -1.379220e+001 -7.234166e+000 4.020729e+000 -1.311605e+001 -3.979659e+000 -2.681924e+000 -4.241351e+000 7.768739e+001 1.503689e-001 3.533429e-002 1.374179e-001 9.357005e-001 2.124632e-001 3.003248e-001 -5.392323e-001 2.704093e-001 -4.549328e-001 3.915661e-001 -5.314004e-001 -8.832212e-002 -5.548485e-001 -7.667300e-002 -1.423789e-002 1.110980e-002 6.744573e-002 4.965084e-002 1.267709e-001 1.581369e-001 -2.028659e-001 8.146092e-002 -8.021798e-002 6.560718e-002 -2.361414e-002 1.140104e-002
<VARIANCE> 39
 5.422454e+000 1.713265e+001 9.862778e+001 2.613470e+001 6.818694e+001 7.416892e+001 8.020762e+001 3.225141e+001 3.567086e+001 6.070295e+001 3.401260e+001 3.043894e+001 1.428184e+001 2.360583e-001 1.119595e+000 9.094378e-001 1.670969e+000 7.259810e-001 5.256686e+000 4.449291e+000 2.529959e+000 8.481766e-001 1.863168e+000 2.804339e+000 3.300074e+000 9.541677e-001 4.289767e-002 1.564855e-001 1.493026e-001 2.241216e-001 2.058252e-001 7.678532e-001 5.406697e-001 3.743201e-001 1.668940e-001 2.840059e-001 4.831181e-001 7.849830e-001 8.964001e-002
<GCONST> 1.049415e+002
<STATE> 4
<MEAN> 39
 -7.178388e+000 -3.254079e+000 -4.814181e+000 1.909224e+000 -6.781194e+000 -1.307202e+000 -1.126295e+000 -6.489876e+000 -7.293799e+000 -4.792043e+000 -1.418845e+000 -2.497310e+000 6.887084e+001 -1.848696e-001 1.029695e-001 3.085189e-002 6.225978e-002 1.523393e-001 2.343593e-001 -1.071285e-002 -5.453432e-002 1.358781e-001 -3.126093e-002 -3.434961e-002 8.217578e-002 -1.802431e-001 -2.142750e-003 -1.461935e-003 1.079592e-002 -1.431924e-003 -3.956379e-003 6.985111e-003 2.071533e-002 1.339451e-003 -3.301716e-004 -1.310170e-002 1.249131e-002 -6.996710e-004 7.022915e-003
<VARIANCE> 39
 4.435886e+001 1.516180e+001 2.424135e+001 2.158516e+001 1.537352e+001 4.071386e+001 2.753381e+001 1.977007e+001 3.672699e+001 8.204375e+000 1.859056e+001 2.200027e+001 9.589520e+000 2.774315e-001 3.486005e-001 3.975140e-001 5.202391e-001 5.077827e-001 5.717547e-001 6.330897e-001 6.111862e-001 8.957713e-001 7.486212e-001 9.088526e-001 1.130290e+000 1.367747e-001 2.785507e-002 4.480632e-002 6.189763e-002 8.259407e-002 8.600602e-002 1.064926e-001 1.195549e-001 1.184055e-001 1.593294e-001 1.643781e-001 2.118294e-001 2.374047e-001 1.251930e-002
<GCONST> 7.078368e+001
<TRANSP> 5
 0.000000e+000 1.000000e+000 0.000000e+000 0.000000e+000 0.000000e+000
 0.000000e+000 8.184400e-001 1.815600e-001 0.000000e+000 0.000000e+000
 0.000000e+000 0.000000e+000 9.009196e-001 9.908036e-002 0.000000e+000
 0.000000e+000 0.000000e+000 0.000000e+000 9.712519e-001 2.874813e-002
 0.000000e+000 0.000000e+000 0.000000e+000 0.000000e+000 0.000000e+000
<ENDHMM>
~h "ary"
<BEGINHMM>
<NUMSTATES> 5
<STATE> 2
<MEAN> 39
 -1.432343e+000 -5.419496e+000 5.097827e+000 1.142213e-001 -3.683684e+000 -9.240020e+000 -1.254473e+001 2.009110e-002 -6.865112e+000 6.731547e+000 -9.347432e-001 -4.501307e+000 7.600708e+001 -3.663956e-001 -1.704568e-001 2.675416e-001 3.731013e-001 3.030905e-002 -2.743803e-001 -3.248520e-001 7.278013e-001 -1.004520e+000 -3.647159e-001 1.809154e-001 -4.044999e-001 -1.931933e-001 -1.719197e-002 3.639958e-002 2.989531e-002 -8.689023e-002 -1.216568e-002 1.674274e-001 9.333122e-002 6.176541e-002 5.407564e-002 -1.207117e-001 3.503481e-002 -6.480459e-002 -1.456925e-002
<VARIANCE> 39
 6.403395e+000 4.242941e+001 1.565060e+002 2.657566e+001 1.116227e+002 2.541079e+002 3.992260e+001 1.403290e+002 9.736400e+001 4.293219e+001 2.982554e+001 8.976279e+000 9.643510e+001 2.374586e-001 7.651287e-001 2.174942e+000 8.547574e-001 1.894929e+000 5.095189e+000 3.088887e+000 2.106045e+000 4.711666e+000 1.721872e+000 1.253002e+000 1.144508e+000 2.555744e-001 3.960891e-002 6.193544e-002 1.661510e-001 1.408425e-001 2.016607e-001 4.060217e-001 6.559943e-001 3.470474e-001 4.210252e-001 2.179310e-001 1.551053e-001 2.147703e-001 1.992619e-002
<GCONST> 1.036862e+002
<STATE> 3
<MEAN> 39
 -4.512254e+000 -3.892184e+000 5.701869e+000 2.165848e+000 -9.128352e+000 -8.399816e+000 -1.456012e+001 1.951593e+000 -1.133839e+001 -2.899660e+000 1.358447e+000 -9.754825e+000 7.209884e+001 -9.016749e-002 2.283437e-001 1.075932e-002 -7.545133e-002 -2.390299e-001 3.524982e-001 1.289962e-002 7.159291e-002 7.915974e-003 -3.509643e-001 -1.486513e-001 1.412072e-001 -4.866367e-001 8.610250e-004 -7.243393e-003 -8.056436e-002 -4.004182e-003 -9.017932e-003 2.062324e-002 5.209893e-002 -3.727429e-002 9.529956e-002 4.110965e-002 -1.706531e-002 9.026924e-002 -1.748324e-002
<VARIANCE> 39
 1.275128e+001 6.602681e+000 1.288870e+001 1.182658e+001 1.017022e+002 3.930120e+002 2.322468e+001 1.037943e+002 5.577216e+001 3.841404e+001 2.961278e+001 2.108356e+001 1.043206e+002 1.740220e-001 5.297347e-001 1.109422e+000 7.931212e-001 1.537159e+000 1.884290e+000 1.174158e+000 1.716898e+000 1.889926e+000 1.923952e+000 1.681154e+000 1.338320e+000 3.907494e-001 2.805862e-002 9.231459e-002 9.865364e-002 1.898561e-001 2.778105e-001 2.313446e-001 2.654644e-001 3.075752e-001 3.209276e-001 3.630278e-001 3.453466e-001 2.215448e-001 3.010411e-002
<GCONST> 9.528232e+001
<STATE> 4
<MEAN> 39
 -9.359068e+000 -5.000383e-001 -3.013426e+000 1.152900e+000 -1.075194e+000 1.261539e+000 -4.031703e+000 -3.761645e+000 -6.078806e+000 -3.781350e+000 -3.932521e+000 -1.658164e+000 6.425435e+001 -2.379896e-002 1.485173e-002 -5.045702e-002 -6.426054e-003 2.351665e-002 1.150845e-001 5.624101e-002 -4.302704e-002 2.057204e-002 -1.677074e-002 -1.186292e-002 2.985910e-003 -3.962461e-002 -1.790419e-003 -8.529241e-004 6.829999e-003 -4.104796e-003 6.476132e-003 -1.419320e-002 -7.152778e-003 3.759378e-004 -6.715256e-003 -3.381674e-004 1.669322e-003 -9.118571e-003 5.818836e-003
<VARIANCE> 39
 3.728535e+000 2.521379e+000 1.305839e+001 1.133586e+001 1.732312e+001 1.405499e+001 9.994858e+000 1.460488e+001 2.160593e+001 1.390344e+001 9.381145e+000 8.557261e+000 2.931840e+000 7.646947e-002 1.787041e-001 2.708406e-001 4.007662e-001 5.138518e-001 7.755542e-001 7.561285e-001 8.434609e-001 9.966551e-001 7.316639e-001 7.546027e-001 6.761876e-001 4.418211e-002 1.430645e-002 3.704922e-002 5.640480e-002 8.179368e-002 1.060279e-001 1.472110e-001 1.599274e-001 1.825077e-001 1.965988e-001 1.424285e-001 1.458900e-001 1.384124e-001 4.869140e-003
<GCONST> 5.515075e+001
<TRANSP> 5
 0.000000e+000 1.000000e+000 0.000000e+000 0.000000e+000 0.000000e+000
 0.000000e+000 8.831861e-001 1.168139e-001 0.000000e+000 0.000000e+000
 0.000000e+000 0.000000e+000 9.351464e-001 6.485366e-002 0.000000e+000
 0.000000e+000 0.000000e+000 0.000000e+000 9.872860e-001 1.271394e-002
 0.000000e+000 0.000000e+000 0.000000e+000 0.000000e+000 0.000000e+000
<ENDHMM>
~h "asu"
<BEGINHMM>
<NUMSTATES> 5
<STATE> 2
<MEAN> 39
 -8.549241e+000 -3.357887e+000 4.969419e+000 -7.857081e+000 -4.727135e+000 2.246603e+000 -2.859344e+000 -3.867748e-001 -5.262373e+000 -4.768146e-001 1.352641e+000 -2.370925e+000 7.431838e+001 1.833086e+000 -9.436309e-001 -1.731496e+000 -8.061601e-001 -1.651333e+000 -9.516038e-001 4.412978e-001 -4.663719e-001 -3.680551e-001 -8.432269e-001 1.001560e+000 -4.988858e-002 1.272658e+000 1.627222e-001 -8.234620e-003 -2.349894e-001 2.778061e-002 -4.147481e-002 1.278892e-001 6.057579e-003 -8.860998e-002 1.667051e-001 -1.570992e-001 -4.143794e-002 2.547826e-002 2.039072e-002
<VARIANCE> 39
 1.220734e+002 2.677610e+001 5.696814e+001 4.925107e+001 4.080859e+001 4.705136e+001 5.209096e+001 7.393272e+001 5.243457e+001 5.573993e+001 5.192776e+001 1.724557e+001 1.286998e+002 6.073225e+000 4.272537e+000 2.755140e+000 4.904775e+000 2.406065e+000 1.926261e+000 2.082257e+000 3.827899e+000 3.646739e+000 2.924861e+000 2.129308e+000 1.515277e+000 2.119679e+000 1.046643e+000 7.783355e-001 3.477693e-001 9.681081e-001 5.748051e-001 3.562857e-001 3.590042e-001 9.266475e-001 5.415269e-001 5.347062e-001 4.596045e-001 1.642976e-001 3.751843e-001
<GCONST> 1.281359e+002
<STATE> 3
<MEAN> 39
 -4.059348e-001 -4.953035e+000 -3.862034e+000 -1.027130e+001 -1.636906e+001 4.169005e-001 -7.752378e+000 1.082540e+000 -4.639488e+000 -9.740791e+000 5.536497e+000 -5.727702e+000 7.496256e+001 -1.522723e-002 7.707525e-002 -7.300865e-002 2.044316e-003 -1.117266e-001 -2.467583e-001 -1.317563e-001 1.565089e-002 -4.365855e-002 8.987044e-002 -3.188267e-001 6.191475e-002 -1.918776e-001 -3.886416e-002 6.912056e-002 1.087754e-001 3.608480e-002 6.571169e-002 2.865990e-002 5.592376e-003 1.812037e-002 -2.597855e-002 1.120766e-001 -2.018532e-002 -1.091717e-002 -4.193170e-002
<VARIANCE> 39
 1.273464e+001 2.613248e+001 8.912617e+001 8.089250e+001 2.741542e+001 1.828778e+002 8.134758e+001 7.012999e+001 3.927296e+001 8.562383e+001 3.106069e+001 3.384097e+001 1.107005e+002 2.251260e-001 8.919421e-001 1.020430e+000 7.369320e-001 1.288690e+000 2.242257e+000 1.387215e+000 2.913903e+000 2.229246e+000 3.166446e+000 1.492099e+000 1.848861e+000 1.610509e-001 5.538948e-002 1.813249e-001 1.464264e-001 8.658846e-002 2.008985e-001 3.667671e-001 2.768365e-001 5.518399e-001 4.551666e-001 4.843096e-001 2.965927e-001 4.073532e-001 2.547700e-002
<GCONST> 1.042812e+002
<STATE> 4
<MEAN> 39
 -1.046382e+001 -1.091853e+000 -8.592446e+000 2.859172e+000 -5.683939e+000 -3.439150e-003 -2.681857e+000 -5.519234e+000 -8.745850e-001 -4.204421e+000 -7.346163e-001 2.172638e-001 6.522489e+001 -6.868367e-002 -2.194729e-002 1.177731e-003 1.205434e-001 1.234154e-001 2.165449e-001 1.617840e-002 3.802766e-002 6.674913e-002 -2.438961e-003 -1.984320e-002 -1.042640e-002 -1.057132e-001 5.471690e-003 2.126499e-002 2.461446e-003 -7.008206e-003 -5.493569e-003 -3.461651e-002 -6.624979e-004 -5.053665e-003 -1.149763e-002 -2.241850e-002 4.141901e-004 7.052799e-004 8.432197e-003
<VARIANCE> 39
 9.413971e+000 4.389032e+000 4.215103e+000 1.745125e+001 1.704329e+001 2.774960e+001 9.171280e+000 9.661924e+000 9.744389e+000 1.114549e+001 1.107191e+001 9.590343e+000 7.426376e+000 1.222374e-001 2.289228e-001 2.187909e-001 3.956693e-001 5.222736e-001 1.204216e+000 5.839041e-001 6.732793e-001 7.612239e-001 9.241607e-001 9.965185e-001 9.057268e-001 9.017836e-002 2.137158e-002 4.651425e-002 4.126717e-002 5.769413e-002 1.135172e-001 2.467038e-001 1.379407e-001 1.618014e-001 1.559898e-001 1.833464e-001 2.033113e-001 1.903112e-001 9.428502e-003
<GCONST> 5.961514e+001
<TRANSP> 5
 0.000000e+000 1.000000e+000 0.000000e+000 0.000000e+000 0.000000e+000
 0.000000e+000 8.588380e-001 1.411621e-001 0.000000e+000 0.000000e+000
 0.000000e+000 0.000000e+000 9.467272e-001 5.327282e-002 0.000000e+000
 0.000000e+000 0.000000e+000 0.000000e+000 9.664602e-001 3.353982e-002
 0.000000e+000 0.000000e+000 0.000000e+000 0.000000e+000 0.000000e+000
<ENDHMM>
~h "ooj"
<BEGINHMM>
<NUMSTATES> 5
<STATE> 2
<MEAN> 39
 -7.732141e+000 -3.631907e+000 4.855934e+000 1.480616e-001 -6.505363e+000 9.519074e+000 -9.909329e+000 6.403357e+000 -1.299044e+000 -1.995417e+000 4.702363e+000 -4.205262e+000 6.280460e+001 1.091698e-001 1.884272e-001 2.671593e-001 -1.007450e-001 2.852777e-001 -1.631048e-001 1.640985e-001 -7.028531e-002 -1.421001e-001 -1.104422e-001 -3.131585e-001 3.020073e-001 2.142677e-001 9.070075e-002 -1.481660e-002 -7.480423e-002 -2.656928e-002 -1.064966e-001 1.963353e-002 -1.020647e-001 -3.455207e-002 -1.038475e-001 -3.910546e-002 -5.407672e-004 -3.164660e-002 1.166416e-002
<VARIANCE> 39
 3.680914e+001 3.401586e+001 2.262665e+001 1.821161e+001 9.559187e+001 9.885880e+001 8.661913e+001 3.408835e+001 3.157483e+001 2.121898e+001 3.533096e+001 3.995734e+001 7.015589e+001 4.535260e+000 3.049290e+000 2.724323e+000 2.252672e+000 1.135347e+001 8.699578e+000 1.094774e+001 3.859911e+000 5.253584e+000 2.556167e+000 3.336803e+000 4.199218e+000 1.359695e+001 8.497950e-001 6.759500e-001 6.585403e-001 4.726466e-001 2.334855e+000 1.511374e+000 2.413360e+000 7.895324e-001 1.130054e+000 4.494390e-001 6.777306e-001 7.988878e-001 3.302623e+000
<GCONST> 1.406985e+002
<STATE> 3
<MEAN> 39
 -3.049546e+000 -1.726567e-001 2.906959e+000 -4.589684e+000 -5.280924e+000 -8.169891e-001 -1.960177e+000 3.785219e+000 -8.584373e+000 -3.364250e+000 -2.424926e+000 3.677242e+000 6.802605e+001 4.878309e-001 1.205699e-001 -1.504779e-002 -1.099790e-001 -1.077996e-002 -5.134390e-001 -1.581295e-001 -7.997327e-004 -2.218778e-001 3.761792e-002 -2.617701e-001 2.141912e-001 3.325910e-001 -1.553334e-001 -2.484370e-002 -4.441266e-003 -4.328956e-003 1.563289e-001 2.187638e-002 4.731970e-002 -8.248820e-003 2.401599e-001 -5.226598e-003 -3.761453e-002 -6.264321e-002 -4.992481e-002
<VARIANCE> 39
 4.344964e+001 6.592269e+001 3.416294e+001 2.469370e+001 5.175543e+001 2.139582e+001 4.831714e+001 6.179882e+001 2.376591e+001 3.480445e+001 1.623495e+001 3.095685e+001 1.254377e+001 1.469656e+000 2.738009e+000 1.359483e+000 2.128365e+000 5.270217e+000 1.991701e+000 2.017053e+000 2.990304e+000 2.781644e+000 1.233656e+000 2.038575e+000 2.708277e+000 9.005731e-001 1.317041e-001 4.754006e-001 2.043845e-001 2.646980e-001 6.895849e-001 4.305657e-001 3.385486e-001 4.829828e-001 2.990842e-001 2.732343e-001 2.616161e-001 4.384206e-001 1.035922e-001
<GCONST> 1.106429e+002
<STATE> 4
<MEAN> 39
 -1.261511e+001 1.556926e+000 -2.660954e+000 -1.107251e+000 -2.725728e+000 -1.421192e-001 1.220653e-001 2.269957e-001 -1.680744e+000 -1.007954e+000 -2.572677e+000 -1.869765e+000 6.067663e+001 -1.286213e-001 -9.742977e-002 -4.789117e-002 7.221738e-003 -4.549479e-002 2.841583e-003 1.416972e-002 -1.063909e-001 -8.780864e-003 8.516511e-002 1.036030e-001 -9.993353e-003 -7.051411e-002 7.245193e-003 -2.594366e-002 -6.979792e-004 -1.457972e-002 -4.676349e-002 -1.237431e-002 3.008198e-002 6.663724e-003 -9.810118e-003 1.258007e-002 1.969329e-002 3.987511e-003 1.825487e-002
<VARIANCE> 39
 2.895991e+001 1.302954e+001 2.179928e+001 7.250939e+000 6.495874e+000 6.630497e+000 1.642732e+001 1.830391e+001 1.413590e+001 9.956965e+000 1.429542e+001 1.291959e+001 1.427187e+001 6.217981e-001 4.341481e-001 3.567309e-001 3.469600e-001 5.761633e-001 9.779242e-001 1.487914e+000 9.599534e-001 7.694132e-001 9.545373e-001 6.134307e-001 5.936890e-001 4.744338e-001 1.304243e-001 1.091286e-001 7.874888e-002 6.872328e-002 1.347692e-001 2.152878e-001 3.598033e-001 2.102078e-001 1.528307e-001 2.008407e-001 1.213332e-001 1.224522e-001 1.039938e-001
<GCONST> 7.373631e+001
<TRANSP> 5
 0.000000e+000 1.000000e+000 0.000000e+000 0.000000e+000 0.000000e+000
 0.000000e+000 9.017159e-001 9.828414e-002 0.000000e+000 0.000000e+000
 0.000000e+000 0.000000e+000 8.743957e-001 1.256044e-001 0.000000e+000
 0.000000e+000 0.000000e+000 0.000000e+000 9.642680e-001 3.573200e-002
 0.000000e+000 0.000000e+000 0.000000e+000 0.000000e+000 0.000000e+000
<ENDHMM>
~h "oos"
<BEGINHMM>
<NUMSTATES> 5
<STATE> 2
<MEAN> 39
 4.075039e+000 -2.336900e+000 -4.139121e+000 -1.397913e+001 -2.234803e+001 -1.717474e+001 -2.707354e+000 2.285644e+000 -9.969635e+000 -3.581696e+000 4.013015e+000 -1.010242e+001 8.163007e+001 -1.989573e-001 2.313863e-002 -1.885371e-001 6.155608e-001 4.086464e-001 -1.258447e-001 -4.091639e-001 -6.261916e-001 -1.569521e-001 2.904403e-001 -2.236983e-001 8.297957e-003 -2.935816e-001 -2.177487e-002 2.520048e-002 -4.596458e-002 1.894791e-001 1.256973e-001 -2.262927e-002 -6.733617e-002 -2.087689e-002 3.854430e-002 -2.488193e-002 -6.857710e-002 -1.133390e-001 -9.467494e-002
<VARIANCE> 39
 3.902276e+000 2.720526e+000 1.279128e+001 1.430882e+001 1.022048e+002 5.926023e+001 2.217224e+001 2.953799e+001 4.665331e+001 2.047375e+001 2.523694e+001 7.861263e+001 1.423525e+001 9.799146e-002 2.424615e-001 3.066569e-001 1.503386e+000 1.673749e+000 1.229730e+000 1.918048e+000 2.109316e+000 9.003994e-001 1.083173e+000 7.278292e-001 4.308690e-001 3.720782e-001 1.239444e-002 3.621459e-002 4.898802e-002 2.169355e-001 1.491341e-001 1.636929e-001 2.787273e-001 2.305687e-001 1.973382e-001 2.015912e-001 2.894975e-001 1.016749e-001 2.269173e-002
<GCONST> 7.773902e+001
<STATE> 3
<MEAN> 39
 2.924351e-001 -1.034133e+000 -6.126216e+000 -3.200418e+000 -1.279147e+001 -1.765850e+001 -9.090398e+000 -1.140241e+001 -1.091322e+001 -4.941949e+000 -3.004870e+000 -8.452434e+000 7.606176e+001 -6.939507e-001 8.523678e-002 2.477708e-001 1.033934e+000 8.337076e-001 6.379206e-001 -5.202209e-001 -6.231185e-002 4.307863e-001 -8.952727e-002 -2.504649e-001 2.567247e-001 -7.436438e-001 -4.528649e-002 -7.587935e-003 9.261557e-002 -1.061659e-001 -1.051214e-001 1.896741e-001 1.262027e-001 2.838605e-001 1.904842e-002 -8.296788e-002 4.093974e-002 -5.967767e-002 -2.177470e-003
<VARIANCE> 39
 1.139742e+001 2.286289e+000 1.782543e+001 1.468144e+001 4.655494e+001 5.010567e+001 2.515681e+001 2.689569e+001 2.924149e+001 3.485848e+001 3.555665e+001 5.834463e+001 9.910342e+000 1.001514e-001 2.838025e-001 4.008414e-001 2.128161e+000 1.206033e+000 1.439092e+000 1.432926e+000 9.597591e-001 1.015006e+000 9.547587e-001 2.818669e+000 1.411003e+000 2.164417e-001 1.830543e-002 5.759237e-002 7.012329e-002 1.540624e-001 2.070278e-001 2.830970e-001 2.830325e-001 1.338127e-001 1.647622e-001 1.388434e-001 6.876014e-001 1.834834e-001 4.256578e-003
<GCONST> 7.980347e+001
<STATE> 4
<MEAN> 39
 -1.281861e+001 -1.418787e+000 -5.221977e+000 1.482292e+000 -3.202983e+000 1.670034e+000 -3.035365e+000 -5.150877e+000 -1.037419e-001 -4.172236e+000 1.325010e-001 -8.761868e-001 6.686166e+001 -6.028284e-002 -1.656319e-002 -1.360914e-002 6.633073e-002 8.659636e-002 1.501766e-001 3.956228e-002 8.171555e-002 3.475950e-002 2.476151e-002 -1.682659e-004 7.518215e-003 -8.548494e-002 1.407415e-002 4.817937e-003 4.812554e-003 3.078619e-003 -3.152710e-002 -1.422034e-002 -1.342330e-002 -5.197685e-003 -1.927732e-002 -1.433755e-002 -1.074307e-002 -2.331359e-002 6.652467e-003
<VARIANCE> 39
 1.308310e+001 2.609168e+000 9.224224e+000 1.503990e+001 9.718838e+000 1.632160e+001 1.392175e+001 1.173016e+001 1.082150e+001 1.093296e+001 1.089425e+001 1.229947e+001 4.338439e+000 1.589638e-001 1.774462e-001 3.523706e-001 6.615815e-001 8.173698e-001 1.202158e+000 9.323260e-001 1.132700e+000 8.995566e-001 7.525027e-001 1.046012e+000 9.753688e-001 1.548298e-001 2.009748e-002 3.334009e-002 6.771738e-002 1.130390e-001 1.913650e-001 2.314606e-001 1.720685e-001 2.197649e-001 1.704670e-001 1.539364e-001 2.007133e-001 1.875920e-001 2.021284e-002
<GCONST> 6.482413e+001
<TRANSP> 5
 0.000000e+000 1.000000e+000 0.000000e+000 0.000000e+000 0.000000e+000
 0.000000e+000 8.358158e-001 1.641842e-001 0.000000e+000 0.000000e+000
 0.000000e+000 0.000000e+000 7.713896e-001 2.286104e-001 0.000000e+000
 0.000000e+000 0.000000e+000 0.000000e+000 9.701664e-001 2.983358e-002
 0.000000e+000 0.000000e+000 0.000000e+000 0.000000e+000 0.000000e+000
<ENDHMM>
~h "sil"
<BEGINHMM>
<NUMSTATES> 5
<STATE> 2
<MEAN> 39
 -1.429433e+001 2.056912e+000 -1.954701e+000 -4.423980e-001 -5.637033e+000 7.887987e+000 -1.107588e+001 3.851354e+000 -3.739017e+000 -9.674624e-001 -6.929734e-001 -3.837208e+000 5.342358e+001 5.655123e-002 6.376313e-002 2.556775e-002 7.016069e-002 -2.394844e-002 4.970656e-002 -4.356357e-002 9.021904e-002 4.172437e-002 7.926981e-004 -1.758377e-002 -5.062651e-002 -2.776358e-002 -2.581722e-002 -1.250746e-002 -1.483911e-002 2.123856e-002 2.454833e-003 -3.420217e-002 6.723110e-002 -2.264027e-003 2.301742e-003 -3.638263e-002 4.574121e-003 -1.222513e-002 -6.103137e-003
<VARIANCE> 39
 2.115368e+002 4.726040e+001 3.745802e+001 8.212528e+000 7.412566e+001 4.777184e+001 7.819348e+001 2.893142e+001 1.568980e+001 7.293597e+000 2.739358e+001 1.651607e+001 2.240520e+002 4.468697e-001 1.665762e-001 3.771713e-001 4.019839e-001 6.796680e-001 6.638578e-001 5.528866e-001 8.956239e-001 6.607060e-001 4.826437e-001 5.892219e-001 5.634849e-001 2.474104e-001 1.056881e-001 3.812743e-002 7.342105e-002 7.928114e-002 1.038637e-001 1.276107e-001 9.778149e-002 1.965677e-001 1.388616e-001 8.389116e-002 1.109758e-001 9.450682e-002 6.533909e-002
<GCONST> 7.848016e+001
<STATE> 3
<MEAN> 39
 -1.632614e+001 9.456221e-001 -1.964726e+000 -1.390600e+000 -1.437962e+000 9.553369e-002 -1.443826e-001 1.301469e+000 -2.466036e+000 -9.645218e-001 -2.449203e+000 -2.580187e+000 5.718475e+001 5.632292e-002 -4.200869e-003 -7.730273e-002 -4.372087e-002 -3.342953e-002 -3.147202e-002 6.208581e-002 -2.982021e-002 6.142151e-002 2.948959e-002 7.256676e-002 1.905295e-002 4.901281e-002 3.582590e-002 -1.568169e-002 -9.240609e-003 -1.781531e-002 -1.344708e-002 -1.309734e-002 -5.132083e-003 -1.923967e-002 -5.362928e-002 -1.340140e-002 1.118058e-002 2.104361e-002 3.284492e-002
<VARIANCE> 39
 1.748512e+001 5.114805e+000 4.092861e+000 4.317737e+000 1.031952e+001 1.312241e+001 1.937046e+001 1.191074e+001 9.684601e+000 8.583043e+000 8.052768e+000 6.376944e+000 1.463665e+001 1.522033e+000 3.225543e-001 2.743742e-001 4.327185e-001 6.352255e-001 9.195865e-001 1.447728e+000 1.346756e+000 1.242599e+000 7.570947e-001 5.425142e-001 5.172958e-001 1.146502e+000 3.834039e-001 7.507806e-002 4.876878e-002 9.677510e-002 1.464014e-001 2.278417e-001 3.390050e-001 3.095103e-001 2.930297e-001 1.882627e-001 9.063172e-002 9.823452e-002 3.008895e-001
<GCONST> 7.314878e+001
<STATE> 4
<MEAN> 39
 -8.596500e+000 -9.314799e-001 -4.140030e-001 -2.633023e+000 -8.184183e-001 -7.990077e-001 -8.139105e-001 -9.848084e-001 -7.524809e+000 -1.439422e+000 -3.554547e+000 -7.366710e-001 6.456166e+001 4.036288e-003 1.737857e-002 5.158515e-003 9.055876e-003 3.962740e-003 1.580292e-002 7.230243e-004 -4.901786e-003 -1.610958e-003 -8.461328e-003 -1.548280e-003 -1.941593e-003 -5.668591e-003 -1.374529e-003 -4.657892e-003 2.072599e-003 -8.488119e-003 -8.443710e-004 -9.860790e-004 -9.125964e-004 1.211066e-003 -1.864794e-003 7.357528e-004 -2.313206e-003 4.949167e-004 3.616260e-003
<VARIANCE> 39
 3.491939e+001 2.828563e+001 1.502808e+001 1.646284e+001 3.002175e+001 4.832171e+001 2.136546e+001 2.385753e+001 2.173457e+001 1.687454e+001 1.314213e+001 1.019063e+001 3.999314e+001 7.812070e-001 6.838752e-001 6.908908e-001 7.822482e-001 8.988532e-001 1.282427e+000 1.221540e+000 1.147360e+000 1.025365e+000 1.074659e+000 9.409124e-001 8.269001e-001 6.749515e-001 1.122673e-001 1.228882e-001 1.389014e-001 1.458641e-001 1.722318e-001 2.284842e-001 2.385913e-001 2.199417e-001 2.055663e-001 2.103608e-001 1.808908e-001 1.714323e-001 9.666767e-002
<GCONST> 8.746259e+001
<TRANSP> 5
 0.000000e+000 1.000000e+000 0.000000e+000 0.000000e+000 0.000000e+000
 0.000000e+000 9.231487e-001 7.685135e-002 0.000000e+000 0.000000e+000
 0.000000e+000 0.000000e+000 9.348052e-001 6.519480e-002 0.000000e+000
 0.000000e+000 0.000000e+000 0.000000e+000 9.930302e-001 6.969816e-003
 0.000000e+000 0.000000e+000 0.000000e+000 0.000000e+000 0.000000e+000
<ENDHMM>
