~o
<STREAMINFO> 1 39
<VECSIZE> 39<NULLD><MFCC_D_A_0><DIAGC>
~h "a"
<BEGINHMM>
<NUMSTATES> 5
<STATE> 2
<MEAN> 39
 -7.966513e+000 -1.499334e+001 -5.574803e+000 -9.942514e+000 1.447943e+000 -6.518126e+000 2.437932e+000 -5.498804e+000 6.811936e+000 -3.741421e+000 -1.081781e+001 -4.476788e+000 8.240417e+001 -1.241819e-002 -7.199489e-003 3.656685e-001 8.069511e-002 -1.770152e-001 -3.405481e-001 3.116751e-002 3.748692e-002 2.059453e-001 -2.896644e-001 3.017604e-001 1.433758e-001 -1.043500e-001 1.037380e-001 6.574398e-002 6.943771e-002 -2.781130e-002 -6.069034e-002 5.558684e-002 2.526938e-002 4.216493e-002 -4.005423e-003 -8.843196e-003 2.047720e-002 -6.207632e-003 -1.066046e-001
<VARIANCE> 39
 9.716569e-001 2.423362e+000 2.599807e+001 4.563572e+000 3.481933e+001 6.226014e+000 2.943408e+000 2.544872e+001 1.229916e+001 3.651683e+000 6.660291e+000 5.536612e+000 1.677720e+000 1.562088e-001 4.864725e-002 1.059338e-001 1.930709e-001 1.569525e-001 1.129100e-001 2.360397e-001 3.827667e-001 1.931302e-001 1.080562e-001 1.530339e-001 1.359485e-001 1.319135e-001 9.482352e-003 1.017430e-002 8.280216e-003 1.154986e-002 1.318164e-002 2.541164e-002 3.636667e-002 3.898138e-002 1.934862e-002 4.925922e-002 2.051285e-002 3.237020e-002 1.159902e-002
<GCONST> 1.816920e+001
<STATE> 3
<MEAN> 39
 -4.658663e+000 -1.218499e+001 1.203128e+000 -9.484987e+000 -3.947818e+000 -7.033587e+000 3.028145e+000 -2.040773e+000 7.606040e+000 -7.640466e+000 -6.589178e+000 -3.755628e+000 7.754694e+001 1.293146e+000 1.424704e+000 1.248439e+000 2.555042e-001 -6.190484e-001 1.246108e+000 2.858608e-001 -2.689797e-001 -1.380231e-001 -1.032814e+000 1.232500e+000 3.093555e-001 -1.881372e+000 -3.074358e-002 1.770070e-001 2.662487e-001 3.886370e-001 3.355024e-001 2.252392e-001 -1.641929e-001 -5.425952e-002 -3.126791e-001 3.870655e-001 1.867797e-001 1.670703e-001 -3.911383e-001
<VARIANCE> 39
 1.040098e+001 3.200051e+000 2.899115e+001 1.334458e+001 5.090928e+001 6.264087e+000 7.652349e+000 2.199085e+001 5.439314e+001 3.206097e+001 9.996030e+000 2.039092e+000 5.883187e+000 3.492429e-001 7.360943e-001 1.435319e-001 1.564865e+000 2.592775e-001 1.016285e+000 2.774550e-001 1.716755e-001 2.592725e-001 2.423716e+000 6.102855e-002 2.983790e-001 1.017188e+000 8.963274e-002 8.549738e-002 1.183464e-002 3.626056e-002 1.444240e-001 7.842130e-002 1.449590e-001 8.116439e-003 6.444192e-002 3.063384e-001 5.174486e-002 9.153672e-003 6.500066e-002
<GCONST> 5.443416e+001
<STATE> 4
<MEAN> 39
 -1.575903e+000 -5.853130e+000 3.626387e+000 1.009669e+000 5.503606e+000 3.459694e+000 3.645086e+000 -9.026881e-001 6.024079e+000 -6.872865e+000 -6.638796e+000 -3.763515e+000 6.292580e+001 -3.189362e-001 5.214792e-001 6.286407e-002 8.328781e-001 5.760393e-001 1.079916e+000 4.534231e-001 1.127188e+000 -1.236136e+000 1.393698e+000 -4.038246e-001 1.895707e-001 -2.012047e+000 -1.531325e-001 -2.487103e-001 -3.752204e-001 -3.163423e-001 -1.891489e-001 -1.192873e-001 7.571188e-002 7.787701e-002 -2.593311e-002 1.005162e-001 -2.006013e-001 1.163338e-001 2.033560e-001
<VARIANCE> 39
 4.721477e+000 4.912299e+000 1.080968e+001 3.934666e+001 5.575106e+001 3.425637e+001 5.201678e+000 3.675362e+001 2.680542e+001 3.120187e+001 1.790718e+001 8.012072e+000 3.921624e+001 1.763468e-001 5.810427e-001 2.100704e+000 2.910006e+000 3.840379e+000 2.952184e+000 4.608766e-001 2.828537e+000 2.109236e-001 1.079342e+000 2.103302e+000 1.880778e+000 4.536433e-001 9.655236e-002 1.244695e-001 1.046510e-001 3.230177e-001 7.143817e-001 5.524374e-001 3.425995e-002 7.065577e-001 7.810894e-002 5.064335e-001 4.711934e-001 4.326383e-001 9.761954e-003
<GCONST> 8.846748e+001
<TRANSP> 5
 0.000000e+000 1.000000e+000 0.000000e+000 0.000000e+000 0.000000e+000
 0.000000e+000 9.423643e-001 5.763566e-002 0.000000e+000 0.000000e+000
 0.000000e+000 0.000000e+000 6.660394e-001 3.339606e-001 0.000000e+000
 0.000000e+000 0.000000e+000 0.000000e+000 8.265476e-001 1.734524e-001
 0.000000e+000 0.000000e+000 0.000000e+000 0.000000e+000 0.000000e+000
<ENDHMM>
~h "b"
<BEGINHMM>
<NUMSTATES> 5
<STATE> 2
<MEAN> 39
 1.732945e+000 -1.442463e+000 4.417180e+000 -7.239893e+000 -6.297005e+000 -2.258732e+000 -8.512272e+000 -8.853980e+000 -1.170109e+001 -5.816894e-001 -1.568954e+000 -9.357721e+000 6.422094e+001 -9.090409e-001 -1.606912e+000 -3.010985e+000 -2.941921e+000 5.254766e-001 -3.872551e-001 8.225080e-001 1.736082e+000 2.986634e+000 -1.284918e+000 -1.261734e+000 -3.363305e-001 3.536607e+000 -4.144150e-001 -1.772134e-001 -3.043962e-001 -1.878903e-001 1.215183e-001 6.760060e-001 3.559046e-002 -8.203009e-002 2.418058e-001 1.510279e-001 3.365214e-002 -2.530259e-001 5.297155e-001
<VARIANCE> 39
 1.825132e+000 1.521425e+001 3.801382e+001 4.908999e+001 4.667805e+001 1.196155e+001 1.249677e+001 4.788549e+001 6.481850e+001 1.118943e+002 1.580451e+001 5.029870e+000 2.977072e+001 8.623925e-001 5.045471e+000 4.631717e+000 6.102757e+000 1.093204e+000 2.251137e+000 9.704152e-001 1.944804e+000 2.928308e+000 4.637977e+000 3.480492e+000 1.320298e+000 7.339016e+000 8.754903e-002 1.373162e-001 8.240085e-001 1.819031e+000 1.948641e-001 3.865080e-001 1.972719e-001 3.267975e-001 3.911993e-001 1.583261e+000 1.097456e+000 2.833463e-001 1.101045e+000
<GCONST> 1.134902e+002
<STATE> 3
<MEAN> 39
 -4.229845e+000 -8.555636e+000 -7.337112e+000 -1.895179e+001 -3.716213e+000 1.215217e+000 -5.718964e+000 -3.505133e+000 7.539343e-001 -1.186255e+000 -5.918737e+000 -1.210071e+001 7.963377e+001 -1.560126e+000 -1.797732e+000 -2.062307e+000 -3.049675e+000 -7.580617e-001 1.388649e+000 9.244592e-001 2.036078e+000 1.782809e+000 -4.124594e-001 -1.042709e-001 -9.960725e-002 3.465966e+000 2.354370e-001 6.236904e-001 1.089879e+000 9.274155e-001 -1.913466e-001 -2.878613e-001 1.265431e-001 -2.079190e-001 -1.071426e+000 -4.515779e-002 3.538573e-001 6.813018e-001 -1.170591e+000
<VARIANCE> 39
 1.544948e+000 3.704360e+001 5.741034e+000 3.249325e+001 9.866867e+001 2.399589e+001 5.620561e+001 4.253853e+000 5.147313e+001 7.006306e+001 1.823280e+002 7.540968e+000 9.128386e+000 5.738269e-001 8.620410e-001 5.394197e+000 1.270827e+001 2.066130e+000 5.347989e+000 3.628652e+000 2.249960e+000 2.079279e+000 8.386662e+000 1.361072e+001 1.443578e+000 5.545986e+000 4.132629e-002 3.385636e-001 1.856347e-001 1.156691e+000 7.450154e-001 3.320219e-001 3.146527e-001 3.792106e-001 7.419440e-002 6.702918e-001 1.568330e+000 1.316722e-001 4.031857e-001
<GCONST> 1.125856e+002
<STATE> 4
<MEAN> 39
 -5.635286e+000 -1.152411e+001 -8.722465e+000 -1.889958e+001 -1.789375e+000 1.428910e+000 -8.242249e-001 -2.274673e+000 2.964188e+000 -1.448809e+000 -8.652213e+000 -9.886528e+000 8.183037e+001 -8.296621e-001 -1.206531e-001 -5.742655e-002 8.179837e-002 5.186517e-001 -1.944918e-001 1.298592e+000 1.758382e-001 -2.119966e-001 -8.739880e-001 1.237759e-001 1.282202e+000 6.509262e-001 1.721927e-001 6.496697e-001 6.589883e-001 6.969695e-001 1.836096e-001 -4.731492e-001 -4.046025e-001 -7.698481e-001 -5.244609e-001 3.965344e-001 4.497063e-001 2.547339e-001 -7.489665e-001
<VARIANCE> 39
 2.086632e+000 2.662768e+001 8.136700e+000 5.238168e+001 6.192766e+001 4.508783e+001 6.733109e+001 8.538428e+000 1.804426e+001 3.884728e-001 1.985304e+002 1.183017e+001 7.064823e+000 4.652844e-002 3.046532e-001 1.335275e+000 1.825813e+000 2.751570e+000 1.060986e+000 4.607302e-001 1.799844e+000 4.293299e-001 1.883359e+000 1.879597e+000 7.004648e-001 1.996571e-001 6.405856e-002 7.008798e-002 7.843666e-002 6.883688e-001 3.908535e-001 2.071424e-001 7.149003e-001 2.572211e-001 4.477790e-002 7.294714e-001 2.220709e+000 2.098453e-001 2.523598e-001
<GCONST> 8.557889e+001
<TRANSP> 5
 0.000000e+000 1.000000e+000 0.000000e+000 0.000000e+000 0.000000e+000
 0.000000e+000 6.706069e-001 3.293931e-001 0.000000e+000 0.000000e+000
 0.000000e+000 0.000000e+000 6.127753e-001 3.872247e-001 0.000000e+000
 0.000000e+000 0.000000e+000 0.000000e+000 2.761923e-001 7.238076e-001
 0.000000e+000 0.000000e+000 0.000000e+000 0.000000e+000 0.000000e+000
<ENDHMM>
~h "h"
<BEGINHMM>
<NUMSTATES> 5
<STATE> 2
<MEAN> 39
 -4.567753e+000 -7.143067e+000 -2.541086e-002 -1.135347e+001 -1.687831e+000 -1.954881e+000 -2.646961e+000 -2.072761e+000 -2.789703e+000 -2.519353e+000 -6.155596e+000 -5.577165e+000 7.077073e+001 1.284684e-001 3.519998e-002 5.042017e-002 -1.919170e-002 3.023124e-002 1.526818e-001 1.134414e-001 2.059520e-001 -9.232968e-004 -1.269177e-001 -8.922511e-002 -2.744853e-002 -7.531010e-002 5.912672e-003 1.712719e-002 -1.400904e-002 4.067212e-002 1.142783e-002 6.040929e-002 -2.948085e-002 1.259365e-002 -2.109511e-002 -7.946315e-003 -1.983920e-002 -3.233210e-002 -9.618374e-002
<VARIANCE> 39
 3.415611e+001 7.917472e+001 6.772413e+001 1.044564e+002 6.616837e+001 6.690615e+001 4.644624e+001 6.430594e+001 6.305968e+001 3.884728e+001 4.429239e+001 2.991177e+001 1.093573e+002 1.494153e+000 2.442461e+000 2.803278e+000 3.689717e+000 2.789096e+000 2.684588e+000 2.923815e+000 2.980957e+000 2.440595e+000 2.124268e+000 2.570347e+000 2.055594e+000 4.928689e+000 2.082175e-001 2.880168e-001 3.830723e-001 4.453130e-001 4.567120e-001 3.917358e-001 5.017791e-001 4.192902e-001 3.397919e-001 3.803485e-001 4.509306e-001 4.006631e-001 4.068455e-001
<GCONST> 1.247249e+002
<STATE> 3
<MEAN> 39
 -4.567753e+000 -7.143067e+000 -2.541086e-002 -1.135347e+001 -1.687831e+000 -1.954881e+000 -2.646961e+000 -2.072761e+000 -2.789703e+000 -2.519353e+000 -6.155596e+000 -5.577165e+000 7.077073e+001 1.284684e-001 3.519998e-002 5.042017e-002 -1.919170e-002 3.023124e-002 1.526818e-001 1.134414e-001 2.059520e-001 -9.232968e-004 -1.269177e-001 -8.922511e-002 -2.744853e-002 -7.531010e-002 5.912672e-003 1.712719e-002 -1.400904e-002 4.067212e-002 1.142783e-002 6.040929e-002 -2.948085e-002 1.259365e-002 -2.109511e-002 -7.946315e-003 -1.983920e-002 -3.233210e-002 -9.618374e-002
<VARIANCE> 39
 3.415611e+001 7.917472e+001 6.772413e+001 1.044564e+002 6.616837e+001 6.690615e+001 4.644624e+001 6.430594e+001 6.305968e+001 3.884728e+001 4.429239e+001 2.991177e+001 1.093573e+002 1.494153e+000 2.442461e+000 2.803278e+000 3.689717e+000 2.789096e+000 2.684588e+000 2.923815e+000 2.980957e+000 2.440595e+000 2.124268e+000 2.570347e+000 2.055594e+000 4.928689e+000 2.082175e-001 2.880168e-001 3.830723e-001 4.453130e-001 4.567120e-001 3.917358e-001 5.017791e-001 4.192902e-001 3.397919e-001 3.803485e-001 4.509306e-001 4.006631e-001 4.068455e-001
<GCONST> 1.247249e+002
<STATE> 4
<MEAN> 39
 -4.567753e+000 -7.143067e+000 -2.541086e-002 -1.135347e+001 -1.687831e+000 -1.954881e+000 -2.646961e+000 -2.072761e+000 -2.789703e+000 -2.519353e+000 -6.155596e+000 -5.577165e+000 7.077073e+001 1.284684e-001 3.519998e-002 5.042017e-002 -1.919170e-002 3.023124e-002 1.526818e-001 1.134414e-001 2.059520e-001 -9.232968e-004 -1.269177e-001 -8.922511e-002 -2.744853e-002 -7.531010e-002 5.912672e-003 1.712719e-002 -1.400904e-002 4.067212e-002 1.142783e-002 6.040929e-002 -2.948085e-002 1.259365e-002 -2.109511e-002 -7.946315e-003 -1.983920e-002 -3.233210e-002 -9.618374e-002
<VARIANCE> 39
 3.415611e+001 7.917472e+001 6.772413e+001 1.044564e+002 6.616837e+001 6.690615e+001 4.644624e+001 6.430594e+001 6.305968e+001 3.884728e+001 4.429239e+001 2.991177e+001 1.093573e+002 1.494153e+000 2.442461e+000 2.803278e+000 3.689717e+000 2.789096e+000 2.684588e+000 2.923815e+000 2.980957e+000 2.440595e+000 2.124268e+000 2.570347e+000 2.055594e+000 4.928689e+000 2.082175e-001 2.880168e-001 3.830723e-001 4.453130e-001 4.567120e-001 3.917358e-001 5.017791e-001 4.192902e-001 3.397919e-001 3.803485e-001 4.509306e-001 4.006631e-001 4.068455e-001
<GCONST> 1.247249e+002
<TRANSP> 5
 0.000000e+000 1.000000e+000 0.000000e+000 0.000000e+000 0.000000e+000
 0.000000e+000 6.000000e-001 4.000000e-001 0.000000e+000 0.000000e+000
 0.000000e+000 0.000000e+000 6.000000e-001 4.000000e-001 0.000000e+000
 0.000000e+000 0.000000e+000 0.000000e+000 7.000000e-001 3.000000e-001
 0.000000e+000 0.000000e+000 0.000000e+000 0.000000e+000 0.000000e+000
<ENDHMM>
~h "i"
<BEGINHMM>
<NUMSTATES> 5
<STATE> 2
<MEAN> 39
 -4.567753e+000 -7.143067e+000 -2.541086e-002 -1.135347e+001 -1.687831e+000 -1.954881e+000 -2.646961e+000 -2.072761e+000 -2.789703e+000 -2.519353e+000 -6.155596e+000 -5.577165e+000 7.077073e+001 1.284684e-001 3.519998e-002 5.042017e-002 -1.919170e-002 3.023124e-002 1.526818e-001 1.134414e-001 2.059520e-001 -9.232968e-004 -1.269177e-001 -8.922511e-002 -2.744853e-002 -7.531010e-002 5.912672e-003 1.712719e-002 -1.400904e-002 4.067212e-002 1.142783e-002 6.040929e-002 -2.948085e-002 1.259365e-002 -2.109511e-002 -7.946315e-003 -1.983920e-002 -3.233210e-002 -9.618374e-002
<VARIANCE> 39
 3.415611e+001 7.917472e+001 6.772413e+001 1.044564e+002 6.616837e+001 6.690615e+001 4.644624e+001 6.430594e+001 6.305968e+001 3.884728e+001 4.429239e+001 2.991177e+001 1.093573e+002 1.494153e+000 2.442461e+000 2.803278e+000 3.689717e+000 2.789096e+000 2.684588e+000 2.923815e+000 2.980957e+000 2.440595e+000 2.124268e+000 2.570347e+000 2.055594e+000 4.928689e+000 2.082175e-001 2.880168e-001 3.830723e-001 4.453130e-001 4.567120e-001 3.917358e-001 5.017791e-001 4.192902e-001 3.397919e-001 3.803485e-001 4.509306e-001 4.006631e-001 4.068455e-001
<GCONST> 1.247249e+002
<STATE> 3
<MEAN> 39
 -4.567753e+000 -7.143067e+000 -2.541086e-002 -1.135347e+001 -1.687831e+000 -1.954881e+000 -2.646961e+000 -2.072761e+000 -2.789703e+000 -2.519353e+000 -6.155596e+000 -5.577165e+000 7.077073e+001 1.284684e-001 3.519998e-002 5.042017e-002 -1.919170e-002 3.023124e-002 1.526818e-001 1.134414e-001 2.059520e-001 -9.232968e-004 -1.269177e-001 -8.922511e-002 -2.744853e-002 -7.531010e-002 5.912672e-003 1.712719e-002 -1.400904e-002 4.067212e-002 1.142783e-002 6.040929e-002 -2.948085e-002 1.259365e-002 -2.109511e-002 -7.946315e-003 -1.983920e-002 -3.233210e-002 -9.618374e-002
<VARIANCE> 39
 3.415611e+001 7.917472e+001 6.772413e+001 1.044564e+002 6.616837e+001 6.690615e+001 4.644624e+001 6.430594e+001 6.305968e+001 3.884728e+001 4.429239e+001 2.991177e+001 1.093573e+002 1.494153e+000 2.442461e+000 2.803278e+000 3.689717e+000 2.789096e+000 2.684588e+000 2.923815e+000 2.980957e+000 2.440595e+000 2.124268e+000 2.570347e+000 2.055594e+000 4.928689e+000 2.082175e-001 2.880168e-001 3.830723e-001 4.453130e-001 4.567120e-001 3.917358e-001 5.017791e-001 4.192902e-001 3.397919e-001 3.803485e-001 4.509306e-001 4.006631e-001 4.068455e-001
<GCONST> 1.247249e+002
<STATE> 4
<MEAN> 39
 -4.567753e+000 -7.143067e+000 -2.541086e-002 -1.135347e+001 -1.687831e+000 -1.954881e+000 -2.646961e+000 -2.072761e+000 -2.789703e+000 -2.519353e+000 -6.155596e+000 -5.577165e+000 7.077073e+001 1.284684e-001 3.519998e-002 5.042017e-002 -1.919170e-002 3.023124e-002 1.526818e-001 1.134414e-001 2.059520e-001 -9.232968e-004 -1.269177e-001 -8.922511e-002 -2.744853e-002 -7.531010e-002 5.912672e-003 1.712719e-002 -1.400904e-002 4.067212e-002 1.142783e-002 6.040929e-002 -2.948085e-002 1.259365e-002 -2.109511e-002 -7.946315e-003 -1.983920e-002 -3.233210e-002 -9.618374e-002
<VARIANCE> 39
 3.415611e+001 7.917472e+001 6.772413e+001 1.044564e+002 6.616837e+001 6.690615e+001 4.644624e+001 6.430594e+001 6.305968e+001 3.884728e+001 4.429239e+001 2.991177e+001 1.093573e+002 1.494153e+000 2.442461e+000 2.803278e+000 3.689717e+000 2.789096e+000 2.684588e+000 2.923815e+000 2.980957e+000 2.440595e+000 2.124268e+000 2.570347e+000 2.055594e+000 4.928689e+000 2.082175e-001 2.880168e-001 3.830723e-001 4.453130e-001 4.567120e-001 3.917358e-001 5.017791e-001 4.192902e-001 3.397919e-001 3.803485e-001 4.509306e-001 4.006631e-001 4.068455e-001
<GCONST> 1.247249e+002
<TRANSP> 5
 0.000000e+000 1.000000e+000 0.000000e+000 0.000000e+000 0.000000e+000
 0.000000e+000 6.000000e-001 4.000000e-001 0.000000e+000 0.000000e+000
 0.000000e+000 0.000000e+000 6.000000e-001 4.000000e-001 0.000000e+000
 0.000000e+000 0.000000e+000 0.000000e+000 7.000000e-001 3.000000e-001
 0.000000e+000 0.000000e+000 0.000000e+000 0.000000e+000 0.000000e+000
<ENDHMM>
~h "m"
<BEGINHMM>
<NUMSTATES> 5
<STATE> 2
<MEAN> 39
 -6.316828e+000 -5.608093e+000 4.477702e-001 -4.392121e-001 2.196875e+000 6.769687e-001 -2.144454e-001 -8.335285e+000 -4.471721e+000 6.750909e+000 -3.603067e+000 -1.265730e+000 5.674356e+001 -1.032849e-001 1.409535e+000 1.616246e+000 1.263503e+000 1.830793e+000 4.171267e-001 -1.225199e+000 -2.416509e+000 -1.375787e+000 6.514531e-001 -5.367899e-001 1.276756e+000 -6.707495e-001 2.133081e-001 -1.307647e-001 1.668173e-001 -5.611888e-001 6.186903e-002 -6.448471e-002 -4.623687e-001 3.791369e-001 -1.742279e-001 -7.990571e-001 -6.360148e-001 -1.709943e-001 7.409647e-001
<VARIANCE> 39
 2.284878e+001 4.730978e+001 1.057819e+001 1.416582e+001 1.919204e+001 3.023105e+001 2.013341e+001 9.126123e+001 3.151601e+001 6.947809e+000 4.032413e+000 3.348180e+001 1.308910e+002 4.304110e-001 9.236761e-001 9.206428e-001 2.993733e+000 1.242496e+000 1.465919e+000 1.865791e+000 5.195304e-001 4.686879e+000 1.655724e+000 9.296567e-001 2.258158e+000 2.037207e+000 3.705323e-001 4.015830e-002 3.326330e-001 3.190143e-001 2.333555e-001 8.698194e-002 2.655035e-001 2.726872e-001 8.696468e-001 1.274501e-001 1.040698e-001 1.640680e-001 1.916438e-001
<GCONST> 9.598689e+001
<STATE> 3
<MEAN> 39
 -3.288090e+000 -3.163171e+000 4.902350e+000 -2.211266e+000 6.981493e+000 2.490949e+000 -5.132103e+000 -9.951199e+000 -9.776402e+000 5.883033e+000 -8.433247e+000 -3.453146e-001 5.866652e+001 1.472739e+000 3.280481e-001 1.750142e+000 -1.667439e+000 -3.204089e-002 -4.290563e-001 -1.793549e+000 -1.092892e+000 -2.145095e+000 -6.397514e-001 -1.314615e+000 -7.857056e-001 2.419718e+000 1.506332e-001 -4.339328e-001 -7.853455e-001 -6.914009e-001 -8.820342e-001 -1.065203e-001 4.565131e-001 8.787898e-001 5.536968e-001 -2.115762e-001 3.890509e-001 -5.203920e-001 4.236627e-001
<VARIANCE> 39
 1.104512e+001 2.946239e+001 2.476491e+001 1.440086e+001 8.414223e+000 4.553603e+001 1.698770e+001 4.743034e+001 4.348265e+001 1.710688e+001 3.758421e+000 1.874210e+001 6.056253e+001 2.778257e+000 1.961269e+000 1.497833e+000 4.624761e+000 1.593486e+000 1.172924e+000 1.554298e+000 4.029039e-001 1.630727e+000 7.009106e-001 9.052330e-001 2.164678e+000 1.124639e+001 1.095441e-001 2.964453e-002 5.967919e-001 2.397834e-001 1.338342e-001 2.653690e-001 2.765647e-001 1.379106e-001 5.482910e-001 1.201102e-001 2.126259e-001 4.883924e-002 4.787880e-001
<GCONST> 9.566155e+001
<STATE> 4
<MEAN> 39
 -3.849948e+000 -4.192647e+000 5.675152e+000 -4.315879e+000 5.165555e+000 4.174531e-001 -6.991697e+000 -1.873021e+001 -1.158805e+001 3.217539e+000 -9.689426e+000 5.629652e-001 6.566204e+001 3.057020e-001 3.446831e-001 -2.392333e-001 -1.175454e-001 -4.828092e-001 1.057310e-001 -2.587577e-002 4.414555e-001 -1.986081e-001 1.223264e-001 -1.956010e-001 9.617952e-002 -3.586625e-001 3.160950e-002 -1.235553e-001 -3.070672e-001 -8.059131e-002 7.655543e-002 -2.047401e-002 2.427665e-001 2.559852e-001 2.087408e-001 1.454300e-001 1.716905e-001 5.984806e-003 -7.667978e-002
<VARIANCE> 39
 4.844318e+000 5.354343e+000 9.497440e+000 3.786158e+001 1.496976e+001 2.949338e+001 4.093527e+000 3.239730e+001 1.231955e+001 1.437770e+001 4.631670e+000 7.405765e+001 3.963008e+001 4.986470e-001 5.334265e-001 4.951737e-001 2.449246e+000 7.253916e-001 1.016644e+000 3.098790e-001 9.070041e-001 1.893374e+000 1.300502e+000 5.307018e-001 1.417967e+000 2.011589e+000 1.820189e-002 6.552270e-002 2.688898e-001 1.006174e-001 1.160409e-001 1.623624e-001 1.050315e-001 3.210574e-001 1.244223e-001 9.930943e-002 1.957312e-001 2.570522e-001 1.740416e-001
<GCONST> 7.826603e+001
<TRANSP> 5
 0.000000e+000 1.000000e+000 0.000000e+000 0.000000e+000 0.000000e+000
 0.000000e+000 5.755969e-001 4.244031e-001 0.000000e+000 0.000000e+000
 0.000000e+000 0.000000e+000 5.324268e-001 4.675732e-001 0.000000e+000
 0.000000e+000 0.000000e+000 0.000000e+000 7.951400e-001 2.048601e-001
 0.000000e+000 0.000000e+000 0.000000e+000 0.000000e+000 0.000000e+000
<ENDHMM>
~h "n"
<BEGINHMM>
<NUMSTATES> 5
<STATE> 2
<MEAN> 39
 -4.456913e+000 -3.019686e+000 3.285721e+000 -1.546294e+001 -4.055916e+000 -9.753096e+000 -4.331156e+000 -6.622490e+000 -3.887220e+000 -8.298621e+000 -9.245584e+000 -5.693059e+000 6.607954e+001 -6.373504e-001 7.437696e-002 4.312508e-001 6.601686e-001 7.392458e-001 1.113229e-001 -1.844516e-001 -1.130258e+000 -3.715596e-001 -3.386146e-001 -4.833241e-001 3.302741e-001 -9.819409e-001 2.405581e-001 2.974545e-001 -3.876125e-001 -1.835706e-001 -1.963202e-001 5.406506e-001 -3.487760e-001 1.033619e-001 3.145045e-001 6.145147e-001 9.838431e-002 6.618543e-002 6.388932e-002
<VARIANCE> 39
 5.173032e+000 2.774113e+000 8.030729e+000 7.265913e+001 8.750861e+000 1.037127e+001 6.716748e+000 3.102422e+001 5.027696e+001 5.478693e+001 8.576083e+001 8.656474e+000 1.667396e+001 5.916510e-001 3.859964e-001 3.231700e-001 1.620791e-001 4.136685e-001 2.249070e+000 3.960529e-001 3.524626e-001 1.167568e+000 1.256131e+000 4.616143e-001 3.191477e-001 2.309846e-001 1.823303e-001 8.650566e-002 1.977139e-002 6.318672e-002 1.811165e-001 4.699851e-001 2.521146e-001 5.422367e-001 1.039023e-001 2.691340e-001 6.721529e-001 2.340363e-002 6.189221e-002
<GCONST> 7.263795e+001
<STATE> 3
<MEAN> 39
 -1.335534e+000 1.571889e+000 4.221600e+000 -5.207306e+000 -4.369596e+000 -3.829546e+000 -9.266080e+000 -8.507659e+000 -4.590451e+000 -1.249852e+001 -1.613588e+001 -7.482671e+000 5.861488e+001 4.759090e-001 1.291081e+000 -1.113682e-001 6.330863e-001 -2.527167e-001 1.206313e+000 -2.206059e-001 8.236269e-001 4.118722e-001 1.573103e+000 1.376775e+000 -1.774205e-001 -1.438698e+000 -1.455480e-001 -1.386953e-001 -8.216554e-002 1.183542e-002 1.671230e-001 2.905320e-001 5.372572e-001 8.635427e-001 2.077056e-001 2.934690e-001 2.877186e-001 4.932984e-002 -6.847967e-002
<VARIANCE> 39
 5.354588e+000 1.027079e+001 6.137836e+000 9.785306e+001 6.722304e+000 1.232655e+001 1.700255e+001 1.868214e+001 3.607678e+001 5.996900e+001 5.076545e+001 1.471210e+001 2.844291e+001 7.077014e-001 3.269280e-001 4.840829e-001 2.547102e-001 1.011009e+000 3.180300e+000 2.052968e+000 2.269460e+000 9.103883e-001 7.608775e-001 8.058805e-001 1.221522e+000 3.505499e-001 2.022376e-001 1.412598e-001 1.165602e-001 1.039979e-001 4.876170e-001 1.493974e-001 5.032847e-001 4.000258e-001 2.403491e-001 3.939388e-001 1.449489e-001 2.494428e-001 3.205249e-002
<GCONST> 8.631462e+001
<STATE> 4
<MEAN> 39
 -3.732497e+000 2.674787e+000 2.045228e+000 -9.346009e+000 -1.867573e+000 3.928011e+000 -3.784075e+000 1.253584e+000 -2.349774e+000 -3.037498e+000 -5.864314e+000 -4.379992e+000 5.456896e+001 -6.654283e-001 -1.043842e-001 -7.564272e-001 2.260778e-001 9.108486e-001 1.119295e+000 7.220723e-001 1.603544e+000 7.788608e-001 6.738263e-001 3.344759e-001 -1.352030e-002 -1.089939e+000 -1.071081e-001 -2.730016e-001 -2.343841e-001 -3.390121e-001 9.539977e-002 -3.594891e-001 -2.364314e-001 -3.797625e-001 -8.141559e-004 -2.710267e-001 -1.675844e-001 -2.023610e-001 2.500370e-001
<VARIANCE> 39
 1.574802e+000 8.013937e+000 8.586086e+000 8.047630e+001 6.565270e+000 2.943493e+001 7.810096e+000 4.221735e+001 1.982368e+001 2.961653e+001 4.160140e+001 9.381430e+000 3.051571e+001 1.781336e-001 1.683287e-001 1.069171e+000 7.188007e-001 1.191818e+000 1.698852e+000 1.723394e+000 4.779515e+000 6.465358e-001 4.277771e-001 6.439083e-001 6.746287e-001 3.713368e-001 4.139734e-002 4.801772e-002 1.549129e-001 4.891458e-002 7.848567e-002 2.623642e-001 1.624821e-001 8.423504e-001 1.811686e-001 1.756433e-002 2.063240e-001 6.901079e-002 1.155470e-002
<GCONST> 7.206959e+001
<TRANSP> 5
 0.000000e+000 1.000000e+000 0.000000e+000 0.000000e+000 0.000000e+000
 0.000000e+000 6.068234e-001 3.931766e-001 0.000000e+000 0.000000e+000
 0.000000e+000 0.000000e+000 6.397505e-001 3.602495e-001 0.000000e+000
 0.000000e+000 0.000000e+000 0.000000e+000 7.429250e-001 2.570750e-001
 0.000000e+000 0.000000e+000 0.000000e+000 0.000000e+000 0.000000e+000
<ENDHMM>
~h "s"
<BEGINHMM>
<NUMSTATES> 5
<STATE> 2
<MEAN> 39
 -2.399527e+001 8.138465e-001 5.408369e+000 -2.694894e+000 1.088942e+001 -1.195715e+001 -4.415038e+000 2.702976e+000 -5.650752e+000 -4.243607e+000 -8.742953e+000 -1.505594e+000 6.471436e+001 -5.269240e-001 -9.902813e-002 -1.011138e-001 1.551649e+000 -3.349758e+000 -3.177134e+000 3.599137e+000 2.029968e+000 -4.591272e-001 -1.411418e+000 2.212484e+000 1.977964e+000 9.084463e-001 8.810568e-001 -3.876019e-001 -1.253597e-001 -5.333249e-001 -5.506879e-001 7.103781e-001 5.151420e-001 -3.852983e-001 -2.474362e-002 5.883648e-001 3.269668e-001 -3.973392e-001 -1.291717e-001
<VARIANCE> 39
 3.059040e+000 7.917472e-001 6.772413e-001 7.177764e+000 1.340838e+001 2.665747e+001 2.347440e+001 1.251806e+001 6.305968e-001 1.038779e+001 5.191859e+000 9.006636e+000 1.512717e+000 3.934608e-001 5.426948e-002 4.065884e-002 3.689717e-002 8.063586e-001 1.697033e-001 1.209849e+000 4.418832e-001 2.546523e-002 6.071721e-001 1.173861e+000 6.175825e-001 4.928688e-002 2.356386e-001 6.452024e-002 3.830723e-003 1.785925e-001 1.838256e-002 1.984406e-001 1.986871e-001 9.932119e-002 3.397919e-003 2.638242e-002 2.320361e-001 1.040670e-001 1.963023e-002
<GCONST> 3.339206e+001
<STATE> 3
<MEAN> 39
 -2.215794e+001 -5.966679e-001 3.947821e+000 -5.069545e-001 2.937540e-002 -1.667246e+001 7.556100e+000 5.550923e+000 -7.343016e+000 -3.707437e+000 8.891366e-001 1.899581e+000 6.665572e+001 3.566682e+000 -2.002972e+000 -3.867848e-001 -1.533589e+000 -4.067790e+000 5.174870e-001 3.164954e+000 -1.864446e-001 -3.241538e-001 4.555057e-001 7.997246e-001 -2.768006e-001 1.353101e-001 1.388933e+000 -1.397938e+000 -3.225682e-001 -1.639847e+000 7.762134e-001 1.107301e+000 -1.714576e+000 -4.308411e-001 3.101806e-002 2.854937e-001 -1.872329e+000 -8.854573e-001 7.657142e-001
<VARIANCE> 39
 2.561604e+000 7.917472e-001 6.772413e-001 1.252683e+000 5.060936e+000 6.690615e-001 4.644624e-001 1.577092e+001 6.305968e-001 4.010142e+000 1.304174e+000 2.205418e+001 1.093573e+000 1.713392e+000 1.243201e+000 2.209665e-001 1.952827e+000 3.244378e-001 4.627104e-002 5.326105e+000 3.998771e-001 1.531409e-001 2.124268e-002 3.758525e+000 3.772458e-001 7.481197e-001 1.057681e-001 2.195947e-002 1.073434e-002 4.453130e-003 1.638883e-001 2.343793e-002 7.052802e-002 1.210764e-001 3.397919e-003 8.215709e-002 4.593930e-002 8.669744e-002 1.370522e-001
<GCONST> 2.857533e+001
<STATE> 4
<MEAN> 39
 -8.386640e+000 -1.180524e+001 2.555553e+000 -1.095768e+001 -6.668458e+000 -1.336773e+001 7.404228e+000 6.564890e+000 -7.647521e+000 -4.059041e+000 -7.867273e+000 -5.453896e-001 7.137143e+001 3.782035e+000 -5.394058e+000 -1.722622e+000 -3.951977e+000 2.163245e-001 1.629511e+000 -1.655336e+000 2.372576e-001 -1.317976e-001 -1.787999e-002 -3.168685e+000 -1.420053e+000 4.043536e+000 -1.079486e+000 1.877047e-003 -2.682839e-001 5.290442e-001 1.620523e+000 3.801561e-001 -4.214238e-001 -2.307862e-001 3.065405e-001 -2.530616e-001 2.204200e-001 3.484875e-002 2.422957e-001
<VARIANCE> 39
 3.129987e+001 4.803550e+001 6.722153e+000 3.722672e+001 6.616836e-001 1.415558e+000 4.444759e+001 1.789124e+000 3.768762e+000 4.190850e+000 2.500776e+001 1.183020e+001 5.346277e+001 2.291787e+000 2.025362e-001 2.970252e-001 8.950230e-001 3.429831e+000 1.765031e-001 6.016109e-002 3.856616e-001 5.372474e-002 1.868429e-001 5.987548e-001 2.458386e-001 5.000775e-001 4.170121e-001 8.270870e-001 5.416378e-002 8.317354e-001 5.372472e-002 1.067520e-002 9.101846e-001 6.206850e-002 3.117635e-002 5.711221e-003 1.189915e+000 9.251353e-002 8.807988e-001
<GCONST> 6.221747e+001
<TRANSP> 5
 0.000000e+000 1.000000e+000 0.000000e+000 0.000000e+000 0.000000e+000
 0.000000e+000 6.666667e-001 3.333333e-001 0.000000e+000 0.000000e+000
 0.000000e+000 0.000000e+000 5.000000e-001 5.000000e-001 0.000000e+000
 0.000000e+000 0.000000e+000 0.000000e+000 6.666667e-001 3.333333e-001
 0.000000e+000 0.000000e+000 0.000000e+000 0.000000e+000 0.000000e+000
<ENDHMM>
~h "t"
<BEGINHMM>
<NUMSTATES> 5
<STATE> 2
<MEAN> 39
 -4.722078e+000 -2.437137e+000 -5.303186e+000 -5.829653e+000 1.464220e+000 1.199373e+000 2.141733e+000 1.405460e+000 1.977399e+000 -3.585262e+000 -7.570823e+000 -5.278978e+000 5.670973e+001 -4.747161e-001 -9.212539e-001 2.177754e+000 4.206010e-001 1.009315e+000 -2.234560e+000 3.960205e+000 1.108154e+000 8.538882e-001 -5.169868e-002 8.464082e-001 3.402964e-001 4.266285e+000 -2.433575e-002 -1.015180e+000 -7.361574e-001 -4.644418e-001 -2.374866e-001 3.066976e-001 -8.132595e-001 -3.725772e-002 -1.002869e+000 4.380082e-001 -1.538334e-001 -5.744402e-001 3.839965e-001
<VARIANCE> 39
 4.074396e+001 8.357244e+001 8.421962e+001 1.395103e+000 2.463090e+000 1.147821e+001 3.467316e+001 1.254293e+002 3.905005e+001 5.463701e+000 9.707743e+000 1.321072e+001 2.349833e+001 5.099879e-002 1.023114e+000 3.324086e+000 8.265957e+000 4.851299e-001 4.234043e+000 1.591819e+000 2.917470e-001 4.414471e-001 2.104057e-001 1.477367e-001 4.732717e-001 1.437587e+001 7.323439e-002 1.632543e-001 6.885232e-002 2.837057e-001 6.591358e-001 8.846377e-002 2.003286e-001 2.757162e-001 3.296237e-002 1.304528e-001 3.029565e-001 9.220171e-002 2.716352e-001
<GCONST> 8.318116e+001
<STATE> 3
<MEAN> 39
 -3.621337e+000 -1.059562e+001 -3.171284e+000 -9.886403e+000 1.031970e+000 -8.979899e+000 8.186893e+000 4.994780e+000 -3.903269e+000 -1.139440e+000 -5.751729e+000 -8.171559e+000 6.982756e+001 -2.295959e-001 -3.460736e+000 2.059562e-002 -3.182823e-001 1.082029e+000 -2.815701e-001 9.426625e-001 7.778585e-001 -1.404186e+000 1.094121e+000 1.445300e-001 -9.947329e-001 3.509935e+000 -7.084145e-002 -8.148099e-002 -6.885607e-001 -7.622570e-002 -1.501702e-001 1.266508e+000 -1.511065e+000 -6.781737e-001 -3.648328e-001 7.063315e-002 -2.469456e-001 3.590099e-002 -9.612397e-001
<VARIANCE> 39
 2.298159e+001 1.496959e+002 1.521948e+001 5.939393e+000 1.012557e+001 1.134903e+002 1.123278e+001 1.307502e+001 1.685151e+001 1.049195e+001 6.847279e+000 3.380473e+000 1.009356e+002 3.438772e-001 1.479390e+000 1.335300e+000 2.053688e+000 4.406926e-001 2.932775e+000 2.874671e+000 1.614692e+000 1.732603e+000 4.074735e-001 2.637936e+000 8.634781e-001 9.318773e+000 3.010458e-003 2.399221e-001 1.206949e-001 4.578070e-001 2.070233e-001 6.637383e-001 3.608781e-001 5.369574e-002 2.406292e-001 1.949264e-001 6.502913e-002 1.684135e-001 1.291071e+000
<GCONST> 9.074833e+001
<STATE> 4
<MEAN> 39
 -1.302865e+000 1.115940e+000 6.668811e-001 -3.591102e-001 1.960986e+000 7.949094e+000 6.748810e+000 7.563727e+000 4.898360e-001 -7.693079e-001 -2.250888e+000 -4.253239e+000 5.568164e+001 -9.494978e-001 -2.484056e-001 -2.597063e-001 6.319372e-001 3.333356e-001 3.158693e-001 -1.118100e-001 7.343610e-002 3.497591e-001 -7.466964e-002 7.638844e-003 -1.495498e-001 -9.314913e-001 -1.322025e-002 2.664608e-001 4.369940e-002 -9.141334e-002 -2.274998e-002 -1.216093e-001 -2.225569e-001 2.427747e-001 2.650411e-001 -2.062944e-001 -2.374098e-001 -6.186062e-002 -2.677117e-001
<VARIANCE> 39
 1.383307e+001 7.256035e+001 1.559614e+001 1.871825e+001 4.705743e+000 3.737138e+001 9.436370e+000 1.954875e+001 1.643047e+001 9.957366e+000 5.594087e+000 1.214748e+001 7.995232e+001 1.267431e-001 5.426530e-001 3.173763e-001 4.420778e-001 3.196857e-001 2.331315e+000 1.233999e+000 1.510362e+000 7.970401e-001 9.792610e-001 8.725572e-001 1.616931e+000 1.182284e+000 2.463227e-002 1.694390e-001 6.945928e-002 1.444322e-001 3.159900e-002 2.333580e-001 1.392321e-001 1.436318e-001 9.771719e-002 1.016769e-001 6.378620e-002 3.288176e-001 3.941848e-001
<GCONST> 7.599186e+001
<TRANSP> 5
 0.000000e+000 1.000000e+000 0.000000e+000 0.000000e+000 0.000000e+000
 0.000000e+000 3.367675e-001 6.632325e-001 0.000000e+000 0.000000e+000
 0.000000e+000 0.000000e+000 3.333619e-001 6.666381e-001 0.000000e+000
 0.000000e+000 0.000000e+000 0.000000e+000 7.773904e-001 2.226096e-001
 0.000000e+000 0.000000e+000 0.000000e+000 0.000000e+000 0.000000e+000
<ENDHMM>
~h "u"
<BEGINHMM>
<NUMSTATES> 5
<STATE> 2
<MEAN> 39
 -3.607263e+000 -1.984537e+001 -8.269763e+000 -2.089291e+001 6.484892e+000 -1.452932e+000 3.750006e-001 -6.639628e+000 -4.948824e+000 2.046687e+000 -5.025468e+000 -1.593259e+001 7.697801e+001 1.088462e+000 2.551008e+000 -1.084569e+000 -1.054981e+000 -1.450009e+000 -4.909639e-002 -2.156999e-001 -6.812669e-001 -1.000449e+000 1.693171e+000 6.910536e-001 -5.631731e-001 -1.231416e+000 2.672703e-001 5.735563e-001 5.653533e-002 4.754200e-001 -2.957769e-001 -4.442253e-001 -1.555343e-003 5.992044e-001 -5.260488e-001 2.356680e-001 -8.103105e-002 1.338038e+000 -5.153081e-001
<VARIANCE> 39
 5.798656e-001 3.719823e+000 1.242248e+000 1.697088e+000 1.493207e+000 6.690615e-001 4.644624e-001 2.227503e+000 1.344016e+000 6.664028e-001 4.429239e-001 2.739406e+000 1.093573e+000 1.232821e-001 4.348804e-001 2.803278e-002 2.193943e-001 6.424823e-002 3.423844e-002 2.923816e-002 3.252913e-001 2.372605e-001 3.357489e-001 4.773289e-002 2.326060e+000 1.902348e-001 2.082174e-003 2.637150e-002 3.946951e-002 6.520635e-002 6.882472e-002 1.739529e-002 7.831695e-003 1.638003e-002 5.772538e-002 2.019600e-002 2.731124e-002 1.001445e-001 2.085417e-002
<GCONST> 2.306681e-001
<STATE> 3
<MEAN> 39
 5.418885e-001 -1.097654e+001 -1.071919e+001 -2.159191e+001 2.042832e+000 -2.004118e+000 -3.701637e-001 -6.141830e+000 -1.032722e+001 8.874191e+000 -2.745202e+000 -1.073403e+001 7.213356e+001 1.565733e+000 3.281971e+000 -2.515354e-001 1.003008e+000 -1.290808e+000 -1.827858e+000 -4.411419e-001 1.224572e+000 -3.025273e+000 1.569789e+000 -2.653009e-001 3.473454e+000 -3.033255e+000 -4.281216e-001 -7.908806e-001 4.053615e-001 1.320423e+000 7.178645e-001 3.343603e-001 4.300369e-002 1.326423e+000 7.729418e-001 -1.205478e+000 -1.034563e+000 -6.109848e-001 -6.974708e-001
<VARIANCE> 39
 4.709694e-001 5.309769e+000 3.085438e+000 1.044564e+000 2.784641e+000 6.690615e-001 6.597796e-001 1.857535e+000 6.533878e+000 3.884728e-001 4.429239e-001 1.861285e+000 2.694630e+000 1.501710e-002 1.005056e-001 1.166101e-001 8.554127e-001 4.730655e-001 2.684588e-002 1.738914e-001 4.868629e-001 7.492686e-001 3.246734e-001 1.685606e-001 2.559790e-002 2.190410e-001 3.956229e-002 1.396227e-001 3.830723e-003 1.524339e-002 4.055580e-002 1.875886e-001 1.351049e-002 3.709602e-002 2.994378e-001 6.932441e-002 1.385278e-002 6.308217e-001 1.305388e-002
<GCONST> 1.192752e+001
<STATE> 4
<MEAN> 39
 1.594548e+000 -7.860921e+000 -9.294065e+000 -1.316282e+001 2.737281e+000 -4.597346e+000 -6.357635e-001 2.950507e+000 -1.165246e+001 5.240896e+000 -9.022722e+000 -8.971678e+000 6.177299e+001 -6.518194e-001 -6.037829e-001 3.081292e-001 4.048904e+000 1.123631e+000 2.158512e+000 3.384466e-001 4.663341e+000 2.083174e+000 -2.701883e+000 -3.094011e+000 -3.070163e+000 -3.602509e+000 -5.689856e-001 -9.964795e-001 -1.017342e-002 3.668371e-001 4.620579e-001 1.221518e+000 2.761324e-001 4.757895e-001 1.200344e+000 -8.217050e-001 -4.104750e-001 -1.763706e+000 2.527202e-001
<VARIANCE> 39
 3.692359e+000 5.274623e+000 9.909671e-001 3.379395e+001 6.710328e+000 3.070779e+001 9.690958e+000 4.715988e+001 2.958415e+001 2.111049e+001 1.956900e+001 5.786252e+001 1.859549e+001 2.488043e-001 8.363732e-001 7.486648e-002 2.362026e-001 1.344533e-001 1.697308e+000 1.296742e-001 3.318453e-001 1.056425e+000 1.842725e-001 7.397538e-002 2.649237e+000 5.113367e-001 4.838298e-002 1.513453e-001 1.666453e-002 2.230289e-001 9.577180e-002 1.147127e-001 7.257685e-003 2.517152e-001 3.081457e-001 2.668596e-001 1.536397e-001 3.926245e-001 4.742559e-002
<GCONST> 6.215447e+001
<TRANSP> 5
 0.000000e+000 1.000000e+000 0.000000e+000 0.000000e+000 0.000000e+000
 0.000000e+000 6.666678e-001 3.333323e-001 0.000000e+000 0.000000e+000
 0.000000e+000 0.000000e+000 4.999976e-001 5.000024e-001 0.000000e+000
 0.000000e+000 0.000000e+000 0.000000e+000 6.666667e-001 3.333333e-001
 0.000000e+000 0.000000e+000 0.000000e+000 0.000000e+000 0.000000e+000
<ENDHMM>
~h "y"
<BEGINHMM>
<NUMSTATES> 5
<STATE> 2
<MEAN> 39
 -4.567753e+000 -7.143067e+000 -2.541086e-002 -1.135347e+001 -1.687831e+000 -1.954881e+000 -2.646961e+000 -2.072761e+000 -2.789703e+000 -2.519353e+000 -6.155596e+000 -5.577165e+000 7.077073e+001 1.284684e-001 3.519998e-002 5.042017e-002 -1.919170e-002 3.023124e-002 1.526818e-001 1.134414e-001 2.059520e-001 -9.232968e-004 -1.269177e-001 -8.922511e-002 -2.744853e-002 -7.531010e-002 5.912672e-003 1.712719e-002 -1.400904e-002 4.067212e-002 1.142783e-002 6.040929e-002 -2.948085e-002 1.259365e-002 -2.109511e-002 -7.946315e-003 -1.983920e-002 -3.233210e-002 -9.618374e-002
<VARIANCE> 39
 3.415611e+001 7.917472e+001 6.772413e+001 1.044564e+002 6.616837e+001 6.690615e+001 4.644624e+001 6.430594e+001 6.305968e+001 3.884728e+001 4.429239e+001 2.991177e+001 1.093573e+002 1.494153e+000 2.442461e+000 2.803278e+000 3.689717e+000 2.789096e+000 2.684588e+000 2.923815e+000 2.980957e+000 2.440595e+000 2.124268e+000 2.570347e+000 2.055594e+000 4.928689e+000 2.082175e-001 2.880168e-001 3.830723e-001 4.453130e-001 4.567120e-001 3.917358e-001 5.017791e-001 4.192902e-001 3.397919e-001 3.803485e-001 4.509306e-001 4.006631e-001 4.068455e-001
<GCONST> 1.247249e+002
<STATE> 3
<MEAN> 39
 -4.567753e+000 -7.143067e+000 -2.541086e-002 -1.135347e+001 -1.687831e+000 -1.954881e+000 -2.646961e+000 -2.072761e+000 -2.789703e+000 -2.519353e+000 -6.155596e+000 -5.577165e+000 7.077073e+001 1.284684e-001 3.519998e-002 5.042017e-002 -1.919170e-002 3.023124e-002 1.526818e-001 1.134414e-001 2.059520e-001 -9.232968e-004 -1.269177e-001 -8.922511e-002 -2.744853e-002 -7.531010e-002 5.912672e-003 1.712719e-002 -1.400904e-002 4.067212e-002 1.142783e-002 6.040929e-002 -2.948085e-002 1.259365e-002 -2.109511e-002 -7.946315e-003 -1.983920e-002 -3.233210e-002 -9.618374e-002
<VARIANCE> 39
 3.415611e+001 7.917472e+001 6.772413e+001 1.044564e+002 6.616837e+001 6.690615e+001 4.644624e+001 6.430594e+001 6.305968e+001 3.884728e+001 4.429239e+001 2.991177e+001 1.093573e+002 1.494153e+000 2.442461e+000 2.803278e+000 3.689717e+000 2.789096e+000 2.684588e+000 2.923815e+000 2.980957e+000 2.440595e+000 2.124268e+000 2.570347e+000 2.055594e+000 4.928689e+000 2.082175e-001 2.880168e-001 3.830723e-001 4.453130e-001 4.567120e-001 3.917358e-001 5.017791e-001 4.192902e-001 3.397919e-001 3.803485e-001 4.509306e-001 4.006631e-001 4.068455e-001
<GCONST> 1.247249e+002
<STATE> 4
<MEAN> 39
 -4.567753e+000 -7.143067e+000 -2.541086e-002 -1.135347e+001 -1.687831e+000 -1.954881e+000 -2.646961e+000 -2.072761e+000 -2.789703e+000 -2.519353e+000 -6.155596e+000 -5.577165e+000 7.077073e+001 1.284684e-001 3.519998e-002 5.042017e-002 -1.919170e-002 3.023124e-002 1.526818e-001 1.134414e-001 2.059520e-001 -9.232968e-004 -1.269177e-001 -8.922511e-002 -2.744853e-002 -7.531010e-002 5.912672e-003 1.712719e-002 -1.400904e-002 4.067212e-002 1.142783e-002 6.040929e-002 -2.948085e-002 1.259365e-002 -2.109511e-002 -7.946315e-003 -1.983920e-002 -3.233210e-002 -9.618374e-002
<VARIANCE> 39
 3.415611e+001 7.917472e+001 6.772413e+001 1.044564e+002 6.616837e+001 6.690615e+001 4.644624e+001 6.430594e+001 6.305968e+001 3.884728e+001 4.429239e+001 2.991177e+001 1.093573e+002 1.494153e+000 2.442461e+000 2.803278e+000 3.689717e+000 2.789096e+000 2.684588e+000 2.923815e+000 2.980957e+000 2.440595e+000 2.124268e+000 2.570347e+000 2.055594e+000 4.928689e+000 2.082175e-001 2.880168e-001 3.830723e-001 4.453130e-001 4.567120e-001 3.917358e-001 5.017791e-001 4.192902e-001 3.397919e-001 3.803485e-001 4.509306e-001 4.006631e-001 4.068455e-001
<GCONST> 1.247249e+002
<TRANSP> 5
 0.000000e+000 1.000000e+000 0.000000e+000 0.000000e+000 0.000000e+000
 0.000000e+000 6.000000e-001 4.000000e-001 0.000000e+000 0.000000e+000
 0.000000e+000 0.000000e+000 6.000000e-001 4.000000e-001 0.000000e+000
 0.000000e+000 0.000000e+000 0.000000e+000 7.000000e-001 3.000000e-001
 0.000000e+000 0.000000e+000 0.000000e+000 0.000000e+000 0.000000e+000
<ENDHMM>
~h "ar"
<BEGINHMM>
<NUMSTATES> 5
<STATE> 2
<MEAN> 39
 -4.567753e+000 -7.143067e+000 -2.541086e-002 -1.135347e+001 -1.687831e+000 -1.954881e+000 -2.646961e+000 -2.072761e+000 -2.789703e+000 -2.519353e+000 -6.155596e+000 -5.577165e+000 7.077073e+001 1.284684e-001 3.519998e-002 5.042017e-002 -1.919170e-002 3.023124e-002 1.526818e-001 1.134414e-001 2.059520e-001 -9.232968e-004 -1.269177e-001 -8.922511e-002 -2.744853e-002 -7.531010e-002 5.912672e-003 1.712719e-002 -1.400904e-002 4.067212e-002 1.142783e-002 6.040929e-002 -2.948085e-002 1.259365e-002 -2.109511e-002 -7.946315e-003 -1.983920e-002 -3.233210e-002 -9.618374e-002
<VARIANCE> 39
 3.415611e+001 7.917472e+001 6.772413e+001 1.044564e+002 6.616837e+001 6.690615e+001 4.644624e+001 6.430594e+001 6.305968e+001 3.884728e+001 4.429239e+001 2.991177e+001 1.093573e+002 1.494153e+000 2.442461e+000 2.803278e+000 3.689717e+000 2.789096e+000 2.684588e+000 2.923815e+000 2.980957e+000 2.440595e+000 2.124268e+000 2.570347e+000 2.055594e+000 4.928689e+000 2.082175e-001 2.880168e-001 3.830723e-001 4.453130e-001 4.567120e-001 3.917358e-001 5.017791e-001 4.192902e-001 3.397919e-001 3.803485e-001 4.509306e-001 4.006631e-001 4.068455e-001
<GCONST> 1.247249e+002
<STATE> 3
<MEAN> 39
 -4.567753e+000 -7.143067e+000 -2.541086e-002 -1.135347e+001 -1.687831e+000 -1.954881e+000 -2.646961e+000 -2.072761e+000 -2.789703e+000 -2.519353e+000 -6.155596e+000 -5.577165e+000 7.077073e+001 1.284684e-001 3.519998e-002 5.042017e-002 -1.919170e-002 3.023124e-002 1.526818e-001 1.134414e-001 2.059520e-001 -9.232968e-004 -1.269177e-001 -8.922511e-002 -2.744853e-002 -7.531010e-002 5.912672e-003 1.712719e-002 -1.400904e-002 4.067212e-002 1.142783e-002 6.040929e-002 -2.948085e-002 1.259365e-002 -2.109511e-002 -7.946315e-003 -1.983920e-002 -3.233210e-002 -9.618374e-002
<VARIANCE> 39
 3.415611e+001 7.917472e+001 6.772413e+001 1.044564e+002 6.616837e+001 6.690615e+001 4.644624e+001 6.430594e+001 6.305968e+001 3.884728e+001 4.429239e+001 2.991177e+001 1.093573e+002 1.494153e+000 2.442461e+000 2.803278e+000 3.689717e+000 2.789096e+000 2.684588e+000 2.923815e+000 2.980957e+000 2.440595e+000 2.124268e+000 2.570347e+000 2.055594e+000 4.928689e+000 2.082175e-001 2.880168e-001 3.830723e-001 4.453130e-001 4.567120e-001 3.917358e-001 5.017791e-001 4.192902e-001 3.397919e-001 3.803485e-001 4.509306e-001 4.006631e-001 4.068455e-001
<GCONST> 1.247249e+002
<STATE> 4
<MEAN> 39
 -4.567753e+000 -7.143067e+000 -2.541086e-002 -1.135347e+001 -1.687831e+000 -1.954881e+000 -2.646961e+000 -2.072761e+000 -2.789703e+000 -2.519353e+000 -6.155596e+000 -5.577165e+000 7.077073e+001 1.284684e-001 3.519998e-002 5.042017e-002 -1.919170e-002 3.023124e-002 1.526818e-001 1.134414e-001 2.059520e-001 -9.232968e-004 -1.269177e-001 -8.922511e-002 -2.744853e-002 -7.531010e-002 5.912672e-003 1.712719e-002 -1.400904e-002 4.067212e-002 1.142783e-002 6.040929e-002 -2.948085e-002 1.259365e-002 -2.109511e-002 -7.946315e-003 -1.983920e-002 -3.233210e-002 -9.618374e-002
<VARIANCE> 39
 3.415611e+001 7.917472e+001 6.772413e+001 1.044564e+002 6.616837e+001 6.690615e+001 4.644624e+001 6.430594e+001 6.305968e+001 3.884728e+001 4.429239e+001 2.991177e+001 1.093573e+002 1.494153e+000 2.442461e+000 2.803278e+000 3.689717e+000 2.789096e+000 2.684588e+000 2.923815e+000 2.980957e+000 2.440595e+000 2.124268e+000 2.570347e+000 2.055594e+000 4.928689e+000 2.082175e-001 2.880168e-001 3.830723e-001 4.453130e-001 4.567120e-001 3.917358e-001 5.017791e-001 4.192902e-001 3.397919e-001 3.803485e-001 4.509306e-001 4.006631e-001 4.068455e-001
<GCONST> 1.247249e+002
<TRANSP> 5
 0.000000e+000 1.000000e+000 0.000000e+000 0.000000e+000 0.000000e+000
 0.000000e+000 6.000000e-001 4.000000e-001 0.000000e+000 0.000000e+000
 0.000000e+000 0.000000e+000 6.000000e-001 4.000000e-001 0.000000e+000
 0.000000e+000 0.000000e+000 0.000000e+000 7.000000e-001 3.000000e-001
 0.000000e+000 0.000000e+000 0.000000e+000 0.000000e+000 0.000000e+000
<ENDHMM>
~h "as"
<BEGINHMM>
<NUMSTATES> 5
<STATE> 2
<MEAN> 39
 -6.984174e+000 -2.323463e+001 -3.983595e+000 -1.457399e+001 1.954063e+000 -6.529132e+000 4.849518e+000 3.531652e+000 -7.132784e+000 -5.024026e+000 -1.094508e+001 -5.213624e+000 8.018711e+001 -4.035659e-001 -1.597888e+000 -7.835947e-001 2.420357e-001 2.487773e+000 2.220612e+000 -1.359224e-001 -1.299085e+000 1.072987e+000 -4.835222e-001 5.499347e-001 -5.534333e-002 6.562337e-001 -4.481290e-001 1.312212e+000 3.669581e-001 6.965967e-001 -3.891089e-003 -2.425922e-001 2.030664e-001 -3.920460e-001 4.747829e-001 3.067001e-001 8.354405e-001 3.137982e-001 -1.174900e+000
<VARIANCE> 39
 1.103726e+000 7.917472e-001 2.536792e+000 4.637435e+000 1.081121e+001 1.475002e+000 1.768135e+000 6.669456e+000 9.777957e-001 5.312903e+000 4.429239e-001 7.417137e+000 1.093573e+000 1.494153e-002 8.124605e-001 7.842050e-001 9.465902e-002 8.012871e-001 7.503482e-002 9.064597e-001 8.231740e-002 4.276287e-002 1.268569e-001 3.583330e-001 2.301064e-001 2.860889e-001 1.987200e-001 2.470392e-002 3.830723e-003 2.788198e-001 1.202907e-001 6.565427e-003 4.486365e-002 3.826377e-002 9.505563e-002 5.423002e-002 1.613759e-001 1.722228e-001 4.430975e-002
<GCONST> 2.315135e+001
<STATE> 3
<MEAN> 39
 -7.058049e+000 -2.364092e+001 -4.091589e+000 -1.371383e+001 7.942458e+000 -4.191067e+000 2.158275e+000 -8.220659e-001 -2.764158e+000 -2.052245e+000 -8.683630e+000 -4.781981e+000 7.882932e+001 4.235207e-001 4.605563e-002 -8.078338e-002 -3.439785e-001 6.991149e-001 4.681728e-001 -6.450357e-001 -5.523203e-001 7.447414e-001 4.400676e-001 3.849756e-001 -1.435206e-001 -4.826372e-001 1.841194e-001 2.653996e-001 -3.178768e-002 -7.026280e-002 -3.566011e-001 -1.579279e-001 5.355898e-002 -5.916674e-003 -2.597439e-001 1.825534e-001 9.056532e-003 -2.653050e-001 -2.327950e-001
<VARIANCE> 39
 1.545371e+000 7.917472e-001 1.119184e+000 1.175422e+000 2.207201e+000 7.835161e-001 2.224376e+000 1.951290e+000 3.218277e+000 1.981513e+000 1.213703e+000 4.364916e+000 1.533763e+000 1.148640e-001 8.001737e-002 3.480276e-001 1.198633e-001 5.531893e-001 3.075840e-001 1.377842e-001 4.399692e-001 1.943571e-001 3.686400e-001 2.160795e-001 1.449334e+000 1.413831e-001 1.097927e-002 7.858828e-002 4.423343e-002 1.182099e-001 9.088859e-002 1.069928e-001 7.345088e-002 2.299844e-002 8.340115e-002 6.667057e-002 2.400432e-002 9.699347e-002 2.934979e-002
<GCONST> 2.181415e+001
<STATE> 4
<MEAN> 39
 -2.766964e+000 -2.213258e+001 -5.639940e+000 -1.563585e+001 7.125725e+000 -2.003524e+000 1.396916e+000 -2.875864e+000 -2.404675e+000 9.035140e-001 -7.155937e+000 -8.138819e+000 7.440388e+001 1.094671e+000 1.457988e+000 -6.425709e-002 1.120248e+000 -1.429472e+000 5.177734e-001 -1.702295e-001 -1.538010e+000 -1.783701e+000 1.642489e+000 6.304169e-001 -1.621913e+000 -1.844736e+000 -1.528001e-001 5.411347e-001 1.946978e-001 6.032479e-001 -1.729876e-001 -3.733033e-001 -2.004161e-001 -2.618818e-001 -5.620844e-001 -5.200692e-002 2.211540e-003 1.327342e-001 -2.055017e-001
<VARIANCE> 39
 7.716765e+000 4.967391e+000 7.057816e-001 3.515299e+000 1.920885e+001 1.893781e+000 4.591030e+000 1.278337e+000 5.039027e+000 1.045348e+001 6.053614e-001 4.755565e+000 1.939904e+001 4.241225e-001 4.792320e-001 6.462934e-001 7.353015e+000 1.828388e+000 3.123790e-001 4.823423e-001 3.490226e-001 1.489035e+000 2.878174e-001 7.149161e-002 4.641412e-001 1.516301e+000 1.306878e-001 1.401472e-002 1.316562e-001 6.070802e-001 6.172594e-001 5.599679e-002 2.795449e-001 1.286581e-001 1.234921e-001 2.364719e-001 2.633235e-002 9.452938e-002 6.160768e-002
<GCONST> 5.553362e+001
<TRANSP> 5
 0.000000e+000 1.000000e+000 0.000000e+000 0.000000e+000 0.000000e+000
 0.000000e+000 3.636363e-001 6.363636e-001 0.000000e+000 0.000000e+000
 0.000000e+000 0.000000e+000 8.255063e-001 1.744936e-001 0.000000e+000
 0.000000e+000 0.000000e+000 0.000000e+000 5.593026e-001 4.406974e-001
 0.000000e+000 0.000000e+000 0.000000e+000 0.000000e+000 0.000000e+000
<ENDHMM>
~h "aw"
<BEGINHMM>
<NUMSTATES> 5
<STATE> 2
<MEAN> 39
 -4.567753e+000 -7.143067e+000 -2.541086e-002 -1.135347e+001 -1.687831e+000 -1.954881e+000 -2.646961e+000 -2.072761e+000 -2.789703e+000 -2.519353e+000 -6.155596e+000 -5.577165e+000 7.077073e+001 1.284684e-001 3.519998e-002 5.042017e-002 -1.919170e-002 3.023124e-002 1.526818e-001 1.134414e-001 2.059520e-001 -9.232968e-004 -1.269177e-001 -8.922511e-002 -2.744853e-002 -7.531010e-002 5.912672e-003 1.712719e-002 -1.400904e-002 4.067212e-002 1.142783e-002 6.040929e-002 -2.948085e-002 1.259365e-002 -2.109511e-002 -7.946315e-003 -1.983920e-002 -3.233210e-002 -9.618374e-002
<VARIANCE> 39
 3.415611e+001 7.917472e+001 6.772413e+001 1.044564e+002 6.616837e+001 6.690615e+001 4.644624e+001 6.430594e+001 6.305968e+001 3.884728e+001 4.429239e+001 2.991177e+001 1.093573e+002 1.494153e+000 2.442461e+000 2.803278e+000 3.689717e+000 2.789096e+000 2.684588e+000 2.923815e+000 2.980957e+000 2.440595e+000 2.124268e+000 2.570347e+000 2.055594e+000 4.928689e+000 2.082175e-001 2.880168e-001 3.830723e-001 4.453130e-001 4.567120e-001 3.917358e-001 5.017791e-001 4.192902e-001 3.397919e-001 3.803485e-001 4.509306e-001 4.006631e-001 4.068455e-001
<GCONST> 1.247249e+002
<STATE> 3
<MEAN> 39
 -4.567753e+000 -7.143067e+000 -2.541086e-002 -1.135347e+001 -1.687831e+000 -1.954881e+000 -2.646961e+000 -2.072761e+000 -2.789703e+000 -2.519353e+000 -6.155596e+000 -5.577165e+000 7.077073e+001 1.284684e-001 3.519998e-002 5.042017e-002 -1.919170e-002 3.023124e-002 1.526818e-001 1.134414e-001 2.059520e-001 -9.232968e-004 -1.269177e-001 -8.922511e-002 -2.744853e-002 -7.531010e-002 5.912672e-003 1.712719e-002 -1.400904e-002 4.067212e-002 1.142783e-002 6.040929e-002 -2.948085e-002 1.259365e-002 -2.109511e-002 -7.946315e-003 -1.983920e-002 -3.233210e-002 -9.618374e-002
<VARIANCE> 39
 3.415611e+001 7.917472e+001 6.772413e+001 1.044564e+002 6.616837e+001 6.690615e+001 4.644624e+001 6.430594e+001 6.305968e+001 3.884728e+001 4.429239e+001 2.991177e+001 1.093573e+002 1.494153e+000 2.442461e+000 2.803278e+000 3.689717e+000 2.789096e+000 2.684588e+000 2.923815e+000 2.980957e+000 2.440595e+000 2.124268e+000 2.570347e+000 2.055594e+000 4.928689e+000 2.082175e-001 2.880168e-001 3.830723e-001 4.453130e-001 4.567120e-001 3.917358e-001 5.017791e-001 4.192902e-001 3.397919e-001 3.803485e-001 4.509306e-001 4.006631e-001 4.068455e-001
<GCONST> 1.247249e+002
<STATE> 4
<MEAN> 39
 -4.567753e+000 -7.143067e+000 -2.541086e-002 -1.135347e+001 -1.687831e+000 -1.954881e+000 -2.646961e+000 -2.072761e+000 -2.789703e+000 -2.519353e+000 -6.155596e+000 -5.577165e+000 7.077073e+001 1.284684e-001 3.519998e-002 5.042017e-002 -1.919170e-002 3.023124e-002 1.526818e-001 1.134414e-001 2.059520e-001 -9.232968e-004 -1.269177e-001 -8.922511e-002 -2.744853e-002 -7.531010e-002 5.912672e-003 1.712719e-002 -1.400904e-002 4.067212e-002 1.142783e-002 6.040929e-002 -2.948085e-002 1.259365e-002 -2.109511e-002 -7.946315e-003 -1.983920e-002 -3.233210e-002 -9.618374e-002
<VARIANCE> 39
 3.415611e+001 7.917472e+001 6.772413e+001 1.044564e+002 6.616837e+001 6.690615e+001 4.644624e+001 6.430594e+001 6.305968e+001 3.884728e+001 4.429239e+001 2.991177e+001 1.093573e+002 1.494153e+000 2.442461e+000 2.803278e+000 3.689717e+000 2.789096e+000 2.684588e+000 2.923815e+000 2.980957e+000 2.440595e+000 2.124268e+000 2.570347e+000 2.055594e+000 4.928689e+000 2.082175e-001 2.880168e-001 3.830723e-001 4.453130e-001 4.567120e-001 3.917358e-001 5.017791e-001 4.192902e-001 3.397919e-001 3.803485e-001 4.509306e-001 4.006631e-001 4.068455e-001
<GCONST> 1.247249e+002
<TRANSP> 5
 0.000000e+000 1.000000e+000 0.000000e+000 0.000000e+000 0.000000e+000
 0.000000e+000 6.000000e-001 4.000000e-001 0.000000e+000 0.000000e+000
 0.000000e+000 0.000000e+000 6.000000e-001 4.000000e-001 0.000000e+000
 0.000000e+000 0.000000e+000 0.000000e+000 7.000000e-001 3.000000e-001
 0.000000e+000 0.000000e+000 0.000000e+000 0.000000e+000 0.000000e+000
<ENDHMM>
~h "ch"
<BEGINHMM>
<NUMSTATES> 5
<STATE> 2
<MEAN> 39
 -1.023063e+001 -4.345596e-001 2.341331e+000 -7.562520e+000 -4.097927e+000 -8.286828e+000 -3.336890e+000 -5.454583e+000 -3.356277e+000 2.719454e+000 -6.993359e-001 3.364883e+000 5.130564e+001 -2.068504e+000 7.427626e-001 -1.932950e+000 -6.106339e-001 2.847422e+000 4.418042e-001 3.208507e+000 -6.272236e-001 1.687490e+000 -7.724105e-001 9.298742e-001 5.505396e-001 1.171751e+000 -1.240660e-001 6.190787e-001 8.801723e-001 -8.986564e-003 -8.198952e-001 -5.399564e-002 -5.806750e-002 2.189434e-001 -5.063683e-001 -9.637136e-001 3.593292e-001 -8.562869e-001 1.024133e+000
<VARIANCE> 39
 6.746827e+000 1.864694e+000 2.277265e+001 1.044564e+000 2.066010e+001 6.690615e-001 2.834234e+001 3.294402e+000 1.288074e+001 9.467264e+000 1.408011e+001 6.374751e+000 1.093573e+000 8.895646e-001 2.461699e+000 2.335130e+000 3.314692e-001 6.655207e-001 2.229969e-001 2.761275e+000 4.740832e-001 6.387112e-001 3.426285e+000 6.796824e-001 1.975259e+000 1.520034e+000 3.557534e-001 1.296503e-001 2.186444e+000 1.006736e-001 8.127807e-001 8.656075e-002 1.841919e+000 1.465745e-002 5.917559e-001 1.335324e-001 6.363743e-002 1.485042e-001 2.835034e-001
<GCONST> 7.500073e+001
<STATE> 3
<MEAN> 39
 -1.950445e+001 8.417229e+000 1.001692e+000 -1.042772e+001 2.878519e+000 -5.086433e+000 7.851494e+000 -6.224673e+000 -1.560823e+000 -5.832346e+000 1.142068e+000 -1.071665e+000 6.119111e+001 3.977823e-001 1.103084e+000 6.379771e+000 7.525738e-001 -3.217107e+000 -1.325607e+000 -2.974249e+000 -5.509939e-001 -2.683475e+000 -2.175813e+000 1.143973e+000 -2.568930e+000 5.973510e+000 1.418133e+000 -1.389986e+000 1.403128e+000 3.763709e-001 -2.212628e+000 -6.356183e-001 -2.620889e+000 6.697484e-001 -9.106256e-001 7.949214e-001 2.033200e-001 9.754106e-003 7.843772e-001
<VARIANCE> 39
 3.415611e-001 2.081926e+001 7.629834e+001 1.534799e+001 3.050452e+000 3.159065e+000 2.312122e+001 3.386885e+001 8.240911e+000 3.884728e-001 8.896047e-001 1.175713e+000 1.332705e+000 1.324812e+000 1.756673e+000 1.719177e+000 1.403424e-001 2.585307e+000 2.684588e-002 4.423244e+000 3.256606e-001 8.512539e-001 1.059174e+000 2.570347e-002 2.055594e-002 4.238352e-001 8.571061e-003 1.885993e-001 1.637354e+000 1.128874e-001 2.025578e-001 3.155761e-002 3.514992e-001 1.861214e-001 3.552456e-001 4.071331e-002 4.509306e-003 1.752438e-001 1.550615e-001
<GCONST> 5.060271e+001
<STATE> 4
<MEAN> 39
 -1.070679e+001 -4.899809e-002 1.734196e+001 -7.670305e+000 -1.608245e+001 -1.245865e+001 -1.015130e+001 -1.991398e+000 -8.608475e+000 -5.805315e+000 8.267859e+000 -4.132275e+000 7.808279e+001 1.614749e+000 -2.065886e+000 3.077555e-001 -2.261659e-001 -3.004112e+000 -1.206221e+000 -2.649465e+000 2.375894e+000 3.010959e-001 2.185615e-001 1.012273e+000 3.063850e-001 3.214584e+000 -5.724916e-002 1.300775e-002 -1.748434e+000 -1.961130e-001 1.415778e+000 1.281452e-001 1.122385e+000 -3.957175e-003 1.070321e+000 2.265088e-001 -8.523849e-001 8.795297e-001 -1.373114e+000
<VARIANCE> 39
 3.845795e-001 4.142579e+000 7.839486e+000 1.246757e+000 1.349965e+001 2.730567e+000 6.042176e+000 1.919638e+001 5.247737e+000 5.420466e-001 3.757037e+000 1.123826e+000 1.419109e+001 3.916476e-001 8.772202e-001 1.043745e+001 6.697090e-001 8.350824e+000 2.865075e-001 6.345088e+000 1.076316e+000 4.723479e+000 2.351920e-002 2.020561e+000 1.340287e+000 4.518000e+000 6.133505e-002 5.117257e-001 8.997768e-001 1.218820e-001 7.102595e-001 5.270780e-003 4.336334e-001 8.034420e-001 2.939766e-001 1.686355e-001 3.490326e-001 2.742183e-002 1.041022e-001
<GCONST> 6.966885e+001
<TRANSP> 5
 0.000000e+000 1.000000e+000 0.000000e+000 0.000000e+000 0.000000e+000
 0.000000e+000 7.500000e-001 2.500000e-001 0.000000e+000 0.000000e+000
 0.000000e+000 0.000000e+000 5.000098e-001 4.999902e-001 0.000000e+000
 0.000000e+000 0.000000e+000 0.000000e+000 7.499976e-001 2.500025e-001
 0.000000e+000 0.000000e+000 0.000000e+000 0.000000e+000 0.000000e+000
<ENDHMM>
~h "is"
<BEGINHMM>
<NUMSTATES> 5
<STATE> 2
<MEAN> 39
 -5.672072e+000 -3.468428e+000 1.006062e+001 -7.902264e+000 -1.245796e+001 -1.508809e+001 -9.576618e+000 1.937832e+000 -2.058100e+000 -5.974320e+000 6.575785e-001 2.261475e+000 7.833504e+001 1.471547e+000 4.232130e-001 -2.183646e-001 1.081721e+000 1.940535e+000 1.112307e+000 9.114969e-001 -1.023027e+000 4.657278e-001 -2.977158e-001 -3.670755e+000 4.089833e-002 -2.344071e+000 -9.185168e-003 5.303523e-001 6.176534e-001 4.136104e-001 -9.749473e-002 1.065066e+000 1.039482e-001 -8.421425e-001 -3.796831e-001 6.803650e-002 -1.085731e-001 -1.027500e+000 -7.890133e-001
<VARIANCE> 39
 2.647607e+000 1.600685e+000 2.418797e+000 2.445601e+000 1.035555e+001 6.179620e+000 3.238083e+000 5.060675e+000 6.305968e-001 8.949505e-001 3.513693e+001 8.921310e+000 1.367118e+001 4.991568e-002 9.760322e-001 1.562261e+000 5.400813e-001 3.492675e-001 4.398568e+000 1.026631e-001 9.087589e-001 7.979528e-001 6.486037e-002 9.154055e-001 5.361610e+000 2.642418e+000 3.767585e-002 4.822459e-002 1.212059e-001 6.637138e-002 5.208896e-001 2.546580e-001 9.774367e-002 9.961814e-003 1.905080e-001 7.188372e-002 1.118461e+000 3.748807e-001 3.963422e-001
<GCONST> 5.793891e+001
<STATE> 3
<MEAN> 39
 -1.641304e+000 1.733574e+000 1.227646e+001 -1.915323e+000 -1.036903e+001 -1.311883e+000 -7.359607e+000 -9.410325e+000 1.228973e-001 -4.202052e+000 -8.152220e+000 -7.498240e+000 6.656571e+001 -3.988607e-001 2.820032e-001 -2.127222e-001 1.183667e-001 -6.566402e-001 1.493403e+000 -4.521404e-001 -2.172320e+000 1.585960e+000 1.010736e+000 -1.558460e-001 -1.527893e+000 -3.713192e-001 -3.827105e-001 -5.301304e-001 -2.497924e-001 -5.781161e-001 -8.948412e-003 -1.086329e+000 -2.604821e-001 7.369900e-001 2.210420e-001 -5.522456e-002 1.076742e-001 5.101950e-001 8.199445e-001
<VARIANCE> 39
 2.062874e+000 7.917472e-001 1.198210e+000 1.548431e+000 6.398765e+000 6.763571e+000 3.121797e+000 3.221857e+001 1.095097e+001 7.428081e+000 6.421999e+000 5.608567e+000 1.772343e+000 1.006534e+000 1.022011e+000 4.722248e-001 1.570812e+000 6.692600e-001 5.847525e+000 4.843605e-001 3.718344e+000 7.042392e-001 3.390603e-001 1.734965e+000 1.711681e+000 3.729617e+000 2.062251e-001 4.066318e-002 7.454253e-002 8.516201e-002 5.084470e-001 3.521651e-001 1.031440e-001 6.671332e-001 2.658937e-001 2.752579e-001 1.175843e+000 1.557339e-001 4.838254e-001
<GCONST> 7.309881e+001
<STATE> 4
<MEAN> 39
 -1.669759e+000 -1.763833e+000 8.172062e+000 -3.797790e+000 -8.000431e+000 -6.472809e+000 -1.205754e+001 -1.064246e+001 1.080135e+000 -8.872691e+000 -1.711177e+001 -8.519549e+000 6.500883e+001 4.139630e-001 -9.446368e-002 -5.051987e-001 4.238774e-001 7.999529e-001 4.734324e-002 2.300627e-001 6.214616e-001 -1.014066e+000 -1.875257e+000 -1.688148e+000 -8.212892e-002 -1.015900e+000 2.017358e-004 1.483830e-001 7.613122e-002 2.416803e-001 5.333197e-002 2.137311e-001 1.752266e-001 4.225129e-002 -2.444267e-001 -2.280517e-001 6.506577e-002 4.539700e-002 -1.635403e-001
<VARIANCE> 39
 5.514452e+000 1.329219e+000 8.822487e+000 3.077649e+000 3.770842e+000 1.528648e+001 8.391674e+000 6.998875e+000 1.629384e+001 2.367741e+001 1.662909e+001 5.103310e+000 1.242737e+001 3.721879e-001 4.608832e-001 7.043847e-001 7.423300e-001 3.114592e-001 3.479643e+000 2.906247e+000 3.050372e+000 9.669348e-001 1.094169e+000 1.818458e+000 6.334945e-001 2.902903e-001 1.347227e-001 2.546974e-002 1.693252e-001 7.432964e-002 5.157109e-002 4.842917e-001 4.681948e-001 6.843336e-001 2.394874e-001 2.654530e-001 5.438018e-001 1.662103e-001 8.119527e-002
<GCONST> 7.427818e+001
<TRANSP> 5
 0.000000e+000 1.000000e+000 0.000000e+000 0.000000e+000 0.000000e+000
 0.000000e+000 7.701263e-001 2.298737e-001 0.000000e+000 0.000000e+000
 0.000000e+000 0.000000e+000 7.850875e-001 2.149125e-001 0.000000e+000
 0.000000e+000 0.000000e+000 0.000000e+000 8.999673e-001 1.000327e-001
 0.000000e+000 0.000000e+000 0.000000e+000 0.000000e+000 0.000000e+000
<ENDHMM>
~h "kh"
<BEGINHMM>
<NUMSTATES> 5
<STATE> 2
<MEAN> 39
 -1.596733e+001 -3.997203e+000 -1.143209e+001 4.258613e+000 1.010292e+001 -2.587152e+000 -8.141246e+000 4.063012e+000 9.738930e+000 -2.140196e+000 -3.826773e-001 -6.691337e+000 5.679387e+001 8.041950e-002 -9.220218e-001 3.823884e-001 1.357257e-001 1.237343e+000 9.323812e-001 -4.154686e-001 -8.979034e-001 3.868725e-001 3.028002e-001 1.583910e+000 -4.231457e-001 1.469406e+000 4.521211e-001 2.014620e-002 4.627710e-002 -8.383062e-002 1.029647e-001 4.379928e-001 6.543379e-001 1.976787e-001 -4.441859e-001 1.032327e-001 -1.003432e+000 -2.989575e-002 1.303421e-001
<VARIANCE> 39
 2.084380e+000 3.590203e+000 2.496394e+000 9.015216e+000 6.199272e+000 3.854489e+000 1.061760e+001 1.031565e+001 2.490490e+000 2.865712e+000 1.795875e+001 1.315296e+000 4.177665e+000 6.793742e-001 2.442461e-002 1.238072e-001 2.024966e-001 1.980592e-001 1.261277e+000 2.850830e-001 2.343814e-001 5.952648e-001 1.582096e-001 2.634984e+000 6.018499e-002 1.532892e-001 1.796379e-002 8.599023e-003 3.830723e-003 1.766441e-002 7.203031e-002 1.568704e-001 2.619736e-001 1.392034e-002 2.574307e-002 3.081202e-002 1.820633e-001 1.820707e-002 3.182095e-002
<GCONST> 2.850381e+001
<STATE> 3
<MEAN> 39
 -1.323045e+001 -6.524339e+000 -1.148247e+001 2.919370e+000 1.420066e+001 4.752900e+000 -5.291142e+000 4.003714e+000 8.344825e+000 -1.675065e+000 -1.093413e+000 -7.569571e+000 6.209032e+001 9.622098e-001 -5.015898e-001 9.390486e-001 -3.148812e-001 5.052925e-001 4.789701e-001 3.661642e+000 -8.725520e-001 -8.771725e-001 -1.035046e-001 -1.996055e+000 1.478264e-002 1.092299e+000 7.368144e-001 -5.169494e-001 3.606767e-001 -8.330772e-001 -1.209470e+000 -1.088655e+000 2.032917e-001 -3.614910e-001 -7.834523e-001 -1.762626e-001 -1.066104e-001 -4.815732e-001 3.614777e-001
<VARIANCE> 39
 3.415611e-001 7.917472e-001 9.895343e-001 5.187615e+000 2.052489e+000 6.396767e+000 4.944654e+000 6.164958e+000 6.305968e-001 1.870340e+000 4.429239e-001 1.386109e+000 1.093573e+000 7.338549e-002 1.080571e-001 2.803278e-002 3.689717e-002 3.780415e-001 2.306615e+000 8.988556e-002 2.382361e-001 9.960036e-002 1.709859e-001 2.570347e-002 2.055594e-002 1.138415e-001 5.452995e-002 1.134971e-001 6.795571e-003 1.466534e-001 7.392313e-002 5.805715e-003 1.930009e-001 1.313019e-002 8.729752e-003 4.069068e-003 1.677424e-001 7.936742e-002 9.800837e-002
<GCONST> 5.665873e+000
<STATE> 4
<MEAN> 39
 -1.193426e+001 -7.847635e+000 -6.534401e+000 3.271119e+000 1.344095e+001 -3.739234e-001 4.907516e+000 -6.030232e-001 7.291471e+000 -1.551604e-001 -5.536473e+000 -8.194183e+000 6.276036e+001 4.145317e+000 -3.146813e+000 1.640416e+000 -3.695934e+000 -3.238483e+000 -1.587652e+000 6.343793e-001 -1.504368e+000 -3.730639e+000 -2.446175e-001 -4.545051e-001 -2.600206e+000 3.598408e+000 9.304586e-001 -1.208907e+000 -1.351144e-001 -1.243702e+000 -8.946074e-001 1.353782e-001 -1.457168e+000 4.085834e-001 -5.892440e-001 -2.567200e-001 6.956306e-001 -5.733841e-001 1.060016e+000
<VARIANCE> 39
 3.415611e-001 1.358378e+000 6.772413e-001 4.129501e+000 6.616836e-001 1.036406e+001 2.063541e+000 1.654457e+000 1.863928e+000 7.676700e+000 6.260161e-001 2.991177e-001 1.093573e+000 7.653013e-001 1.212916e+000 2.803278e-002 2.159461e+000 7.390613e-001 4.181644e-001 5.398087e-001 6.581882e-001 1.550816e-001 2.124268e-002 7.239671e-002 3.882327e-001 1.076048e+000 4.564828e-002 2.703772e-002 2.698331e-002 7.384272e-002 1.607378e-001 3.329572e-001 5.017790e-003 3.188887e-002 5.999675e-002 2.115146e-002 4.509306e-003 9.533752e-002 1.014074e-002
<GCONST> 1.826766e+001
<TRANSP> 5
 0.000000e+000 1.000000e+000 0.000000e+000 0.000000e+000 0.000000e+000
 0.000000e+000 7.500000e-001 2.500000e-001 0.000000e+000 0.000000e+000
 0.000000e+000 0.000000e+000 5.000000e-001 5.000000e-001 0.000000e+000
 0.000000e+000 0.000000e+000 0.000000e+000 5.000000e-001 5.000000e-001
 0.000000e+000 0.000000e+000 0.000000e+000 0.000000e+000 0.000000e+000
<ENDHMM>
~h "ng"
<BEGINHMM>
<NUMSTATES> 5
<STATE> 2
<MEAN> 39
 7.544671e+000 -1.714955e+001 -7.094894e+000 -2.153686e+001 -1.021060e+001 9.546524e+000 3.302408e+000 4.599999e+000 -1.606274e+001 -8.856895e+000 -2.916085e+000 -1.846905e+001 7.485659e+001 9.173725e-002 2.864311e+000 2.408397e+000 -2.680867e-001 -2.770898e+000 -7.824015e-002 -1.887554e+000 1.699993e+000 4.881611e-001 9.136259e-001 -2.764359e+000 3.946601e-001 -1.530946e+000 -4.790552e-001 2.107597e-001 8.090354e-001 8.963265e-001 9.029055e-001 3.996256e-002 -1.551181e+000 -6.063507e-001 4.616686e-001 -2.629674e-001 -2.134737e-001 1.186064e+000 -8.362754e-002
<VARIANCE> 39
 1.081992e+000 4.806551e+000 5.370942e+000 2.888998e+000 2.712939e+001 1.454807e+000 1.390567e+000 1.064865e+001 2.912664e+000 1.717547e+000 2.259679e+001 2.676968e+000 2.976033e+000 3.281762e-001 9.815351e-002 1.420010e+000 1.635202e+000 1.823419e+000 2.684588e-002 2.929392e+000 1.696856e+000 8.139554e-001 6.112966e-001 2.570347e-002 2.758174e+000 4.928688e-002 1.499917e-002 5.097134e-002 2.561161e-002 1.796255e-002 1.043309e+000 6.559351e-002 2.234533e-002 1.632001e-001 1.632027e-001 1.744535e-001 5.736332e-001 3.627153e-002 1.245157e-002
<GCONST> 4.390707e+001
<STATE> 3
<MEAN> 39
 5.019064e+000 -9.758525e+000 3.305442e+000 -1.671223e+001 -9.732798e+000 8.948431e+000 -8.445486e+000 2.031322e+000 -1.222824e+001 -7.500263e+000 -8.022330e+000 -1.109855e+001 7.100208e+001 -1.297133e+000 2.560855e+000 3.546871e+000 1.318653e+000 2.960691e+000 1.210828e+000 -5.656899e+000 -3.441749e-001 -1.917188e-001 -1.355629e+000 -5.506361e-001 2.706933e+000 -1.301004e+000 -4.836150e-002 -3.760166e-001 -4.891687e-001 -5.132598e-001 1.111589e+000 8.209921e-002 1.763695e-001 3.872039e-001 -7.935497e-001 -6.663167e-001 1.037649e+000 -1.292811e-001 2.387148e-001
<VARIANCE> 39
 1.071545e+000 1.233694e+000 8.156413e+000 4.599845e+000 5.983793e+000 1.700235e+000 7.009472e+000 6.430594e-001 3.405073e+000 2.671072e+001 7.359982e+000 6.619708e+000 1.760351e+000 1.494153e-002 1.429203e-001 1.762593e-001 1.603885e-001 7.993991e-001 4.757766e-002 2.923816e-002 3.356280e-001 8.904954e-001 4.333487e-001 1.279916e+000 1.154245e-001 4.928688e-002 3.031006e-002 2.880168e-003 1.278622e-001 9.750018e-002 3.831975e-001 5.097888e-002 4.181344e-001 1.047994e-001 3.397919e-003 1.281812e-001 4.509306e-003 1.114468e-001 6.135949e-003
<GCONST> 2.366327e+001
<STATE> 4
<MEAN> 39
 3.156166e+000 -4.390337e+000 8.256893e+000 -1.967696e+001 -2.292784e+000 1.120456e+001 -1.833793e+001 7.822012e+000 -1.705183e+001 -1.262129e+001 -6.288306e+000 -7.411065e+000 6.852429e+001 -3.627968e-001 1.275158e+000 7.433619e-001 -7.275385e-001 9.911114e-001 -5.845683e-001 -7.848896e-001 1.577768e+000 -9.403646e-001 -1.134171e+000 6.229882e-001 1.064816e+000 -4.330466e-001 1.789365e-001 -3.088846e-001 -6.123202e-001 -1.880266e-002 -7.003447e-001 -3.756900e-001 1.164101e+000 -3.518910e-002 2.360629e-001 1.808825e-001 -6.870741e-002 -2.867020e-001 2.004807e-001
<VARIANCE> 39
 3.415611e-001 2.266244e+000 7.785810e-001 2.525942e+000 9.670224e-001 4.830009e+000 9.082357e-001 6.269899e+000 2.695951e+000 3.318664e+000 4.302979e+000 3.017830e+000 1.093573e+000 3.689805e-002 1.455624e-001 5.842066e-001 3.199482e-001 1.340745e+000 5.510687e-001 2.580159e+000 3.735417e-001 5.647311e-001 3.018084e-001 3.316138e-001 7.331645e-002 7.931942e-002 1.189051e-002 1.028127e-002 8.734581e-002 1.743909e-001 6.938664e-002 1.026045e-001 3.146693e-001 2.068946e-001 9.862106e-002 1.875273e-002 1.453612e-001 2.437538e-002 9.181144e-003
<GCONST> 2.746238e+001
<TRANSP> 5
 0.000000e+000 1.000000e+000 0.000000e+000 0.000000e+000 0.000000e+000
 0.000000e+000 6.666667e-001 3.333333e-001 0.000000e+000 0.000000e+000
 0.000000e+000 0.000000e+000 5.000000e-001 5.000000e-001 0.000000e+000
 0.000000e+000 0.000000e+000 0.000000e+000 7.500000e-001 2.500000e-001
 0.000000e+000 0.000000e+000 0.000000e+000 0.000000e+000 0.000000e+000
<ENDHMM>
~h "oo"
<BEGINHMM>
<NUMSTATES> 5
<STATE> 2
<MEAN> 39
 3.519358e+000 -2.167669e+001 -4.854614e+000 -1.362621e+001 2.016557e+000 -5.053645e-001 -3.334805e+000 -1.446135e+000 -6.244067e+000 -4.053240e+000 -3.337404e+000 -1.753603e+001 7.851555e+001 3.043563e+000 -4.116248e+000 2.553073e-002 -2.965038e+000 -1.651186e+000 9.250076e-001 -6.375877e-001 3.045702e-001 -1.515858e+000 -9.427171e-001 7.676240e-001 -6.090979e-001 3.534960e+000 -1.029063e+000 6.453635e-001 -5.282902e-001 1.375300e+000 9.374423e-001 6.621001e-001 4.257439e-001 4.411558e-002 1.068772e+000 -1.133839e-001 1.652053e-001 1.190856e+000 -1.078513e+000
<VARIANCE> 39
 5.572002e-001 2.039169e+001 9.188645e-001 4.874356e+000 7.118925e-001 6.690615e-001 1.107001e+000 5.551805e+000 2.202598e+000 9.471289e-001 5.898433e-001 2.991177e-001 8.658999e+000 2.730162e+000 1.278760e+000 2.111842e-001 5.645680e+000 2.575927e+000 7.022215e-001 2.476989e+000 2.980957e-002 4.011529e+000 1.487260e-001 2.570347e-002 3.639683e+000 3.104666e+000 7.872669e-002 3.212367e-001 1.687433e-002 2.744029e-001 4.934870e-002 7.447619e-002 1.322165e-001 1.783943e-001 3.702685e-002 9.284832e-003 4.998946e-002 4.157101e-002 2.821741e-001
<GCONST> 4.167751e+001
<STATE> 3
<MEAN> 39
 5.771813e+000 -2.771646e+001 -7.500414e+000 -1.142125e+001 2.046560e+000 4.785656e+000 2.596116e-001 -2.641852e+000 -4.976017e+000 -6.623286e+000 -1.330342e+000 -1.168921e+001 8.003795e+001 8.924205e-002 -3.599938e-001 -8.592731e-001 2.885247e-001 -9.274984e-001 1.144235e+000 1.571523e-001 -3.989442e-001 -1.000472e+000 -1.011563e+000 -3.196589e-002 7.902045e-001 -1.354802e-001 -3.587546e-001 7.867239e-001 -1.079062e-002 -1.497162e-001 -2.259941e-001 -1.778625e-001 -1.381613e-001 1.002282e-001 -3.927341e-001 3.551034e-002 -5.977551e-002 -3.652417e-001 -3.409012e-001
<VARIANCE> 39
 3.415611e-001 1.903620e+000 6.772413e-001 1.044564e+000 1.643724e+000 1.010432e+000 1.639860e+000 8.304828e-001 2.268619e+000 1.412810e+000 1.023260e+000 9.802043e-001 1.093573e+000 1.977397e-001 6.871408e-001 4.558941e-002 3.588065e-001 6.947021e-001 9.435031e-002 3.939680e-001 3.605066e-001 5.822475e-001 3.923973e-002 2.764304e-001 7.154996e-001 4.928688e-002 6.727589e-002 2.969684e-002 1.469072e-002 3.195877e-001 1.012257e-001 3.917357e-003 6.843131e-002 2.930463e-002 7.804160e-002 4.834900e-003 1.170906e-001 1.057968e-001 1.394080e-001
<GCONST> 1.391320e+001
<STATE> 4
<MEAN> 39
 5.186331e+000 -2.465746e+001 -9.521367e+000 -1.498536e+001 -2.274084e+000 7.646978e+000 5.227863e-001 -2.644040e+000 -1.195488e+001 -1.007272e+001 1.911686e-001 -1.281726e+001 7.887877e+001 3.371476e-001 1.435162e+000 1.408181e-001 -1.782417e+000 -6.489862e-001 6.682279e-001 8.768417e-001 4.416557e-001 -1.707274e+000 -3.182071e-001 8.969884e-001 -1.183810e+000 -7.035202e-001 2.105299e-001 3.183978e-001 4.104533e-001 -2.038851e-001 -2.653348e-001 -1.019473e-001 5.038645e-002 4.837275e-001 2.395771e-001 3.731229e-001 -3.912809e-001 -2.747517e-001 -2.351915e-001
<VARIANCE> 39
 8.576330e-001 1.046039e+000 1.240393e+000 8.812595e+000 1.363512e+000 7.164531e-001 1.960085e+000 1.339252e+000 4.157208e+000 1.696603e+000 5.051803e+000 2.328664e+000 1.093573e+000 1.721161e-001 7.279205e-002 1.978025e-001 2.632029e-001 3.107488e-001 5.132252e-002 1.296010e-001 8.774899e-001 2.837351e-002 2.117820e-001 4.999774e-001 5.556614e-001 8.796615e-002 1.714800e-002 2.299849e-002 3.830723e-003 1.324109e-001 3.918236e-001 3.917357e-003 1.732354e-001 1.368946e-001 7.944652e-002 2.905207e-002 5.202398e-001 8.849771e-002 4.068455e-003
<GCONST> 1.663666e+001
<TRANSP> 5
 0.000000e+000 1.000000e+000 0.000000e+000 0.000000e+000 0.000000e+000
 0.000000e+000 6.666667e-001 3.333333e-001 0.000000e+000 0.000000e+000
 0.000000e+000 0.000000e+000 7.500000e-001 2.500000e-001 0.000000e+000
 0.000000e+000 0.000000e+000 0.000000e+000 7.500000e-001 2.500000e-001
 0.000000e+000 0.000000e+000 0.000000e+000 0.000000e+000 0.000000e+000
<ENDHMM>
~h "ooj"
<BEGINHMM>
<NUMSTATES> 5
<STATE> 2
<MEAN> 39
 5.390908e+000 -2.927159e+000 -2.197321e+000 -2.205032e+001 6.664177e-001 1.170985e+001 -4.595747e+000 5.371799e+000 -1.245851e+001 4.748140e+000 -2.724870e+000 -5.935836e+000 7.210011e+001 1.456420e-001 1.267340e-001 -1.940370e+000 -2.133109e+000 -1.195068e+000 1.842328e+000 2.481456e-002 2.684397e+000 -5.304179e-001 -1.375743e+000 1.624194e+000 -1.668783e+000 1.026461e+000 -5.134541e-001 3.351951e-001 4.608121e-001 3.306950e-001 1.281839e-001 -1.897765e-001 4.260831e-002 -1.579374e-001 2.130808e-001 -1.588040e-001 -2.396080e-001 6.233553e-002 -4.949200e-001
<VARIANCE> 39
 1.345875e+000 1.266691e+000 8.316860e+000 9.724879e+000 3.850267e+000 1.881870e+001 1.366860e+000 1.814366e+001 5.169024e+000 1.111141e+001 1.385045e+001 1.239146e+001 2.401742e+000 1.630125e+000 5.729422e-001 3.103224e+000 5.832446e-001 1.673294e-001 7.717445e-001 1.060484e-001 8.720409e-001 5.829246e-001 7.624862e-001 4.022378e-001 9.849991e-002 1.931252e-001 1.224343e-001 2.609783e-002 3.349818e-001 2.265914e-001 1.474347e-002 6.611242e-001 4.641275e-002 2.360045e-001 7.483281e-002 1.394807e-001 1.629083e-001 5.442534e-002 2.148766e-001
<GCONST> 5.628851e+001
<STATE> 3
<MEAN> 39
 2.271755e+000 1.311727e+000 -3.591940e+000 -3.122113e+001 -3.943545e+000 1.079071e+001 -2.638881e+000 1.388294e+001 -1.087323e+001 -1.423826e+000 -2.302848e+000 -1.187379e+001 7.374680e+001 -2.143658e-001 1.098595e+000 2.781750e-001 -9.306997e-002 -1.317364e+000 -1.692310e+000 4.738451e-001 2.105318e-001 1.096790e+000 3.222805e-001 -1.277050e+000 -2.181345e-002 -6.202934e-001 1.996130e-001 1.360341e-001 1.182193e-001 8.186468e-001 -1.481992e-001 -4.516485e-002 -1.016911e-001 -5.200580e-001 1.077828e-001 3.587033e-001 -1.829846e-001 3.108920e-001 -4.415591e-001
<VARIANCE> 39
 3.415611e-001 2.483905e+000 8.965185e-001 3.014939e+000 4.950807e+000 1.316235e+001 3.167386e+000 1.279514e+000 6.450071e+000 2.062298e+000 5.290697e+000 5.906369e-001 1.132410e+000 5.154728e-002 2.287833e-001 5.088331e-002 2.984246e+000 1.170640e+000 2.377670e-001 5.298213e-001 7.078534e-001 7.112715e-002 1.070689e+000 1.775274e-001 2.260053e-001 2.749384e-001 2.241667e-002 2.712779e-002 3.942501e-002 1.028486e-001 2.535179e-001 3.190567e-001 1.323843e-001 2.517160e-002 2.726826e-002 1.692958e-001 1.164380e-001 4.867310e-002 4.381558e-002
<GCONST> 3.145761e+001
<STATE> 4
<MEAN> 39
 3.998333e+000 8.546512e+000 4.902439e-001 -1.950969e+001 -9.152475e+000 5.519767e+000 -2.289135e+000 8.950562e+000 -4.876985e+000 1.475637e-001 -8.094865e+000 -8.144877e+000 6.407774e+001 7.393927e-001 8.061410e-001 1.688849e+000 4.737877e+000 2.126977e+000 5.670762e-002 1.080569e+000 -5.458732e-001 1.876855e+000 -1.365118e+000 -1.821056e-001 1.418636e+000 -3.277791e+000 -1.520542e-001 -6.379183e-001 -4.246295e-002 3.827040e-001 1.031099e+000 3.008305e-001 5.854176e-001 5.968366e-001 1.226702e-001 -4.260274e-001 5.171328e-001 -2.631429e-002 1.022554e-001
<VARIANCE> 39
 4.809174e+000 1.977564e+000 1.046929e+001 6.790299e+001 3.192471e+001 2.276003e+000 2.116845e+000 2.488131e+001 7.805867e-001 2.328038e+001 3.759653e+000 1.351014e+001 2.336185e+001 2.363078e-001 8.347802e-001 3.215156e-001 1.768635e+000 5.674718e+000 2.684588e-002 1.294029e+000 3.741518e+000 4.722136e-001 2.035507e+000 4.900520e-001 4.160593e-001 2.225717e-001 1.642243e-001 5.911215e-002 3.705424e-001 6.173435e-001 1.068781e+000 1.662823e-002 5.367842e-002 2.198600e-001 6.620149e-002 7.357710e-001 2.905860e-002 2.077857e-001 4.722643e-001
<GCONST> 6.963901e+001
<TRANSP> 5
 0.000000e+000 1.000000e+000 0.000000e+000 0.000000e+000 0.000000e+000
 0.000000e+000 8.333379e-001 1.666621e-001 0.000000e+000 0.000000e+000
 0.000000e+000 0.000000e+000 8.333288e-001 1.666712e-001 0.000000e+000
 0.000000e+000 0.000000e+000 0.000000e+000 7.500000e-001 2.500000e-001
 0.000000e+000 0.000000e+000 0.000000e+000 0.000000e+000 0.000000e+000
<ENDHMM>
~h "oos"
<BEGINHMM>
<NUMSTATES> 5
<STATE> 2
<MEAN> 39
 -1.046904e+001 -2.235392e+000 -9.707123e+000 -3.551672e+001 -1.267661e+001 8.638893e+000 -1.311387e+001 1.291960e+000 -8.746938e+000 -3.963608e+000 1.155684e+000 -9.244195e+000 8.594482e+001 -2.447068e-001 3.407177e-001 -3.567765e-002 -4.414560e-001 5.873106e-002 -7.616536e-002 -5.512131e-001 7.269196e-001 -2.968554e-001 -3.052010e-001 -1.535357e+000 3.737525e-001 -1.257201e-001 1.676513e-001 8.422749e-002 5.478546e-002 3.612264e-001 -7.527648e-002 -2.463955e-003 3.879090e-002 -2.801903e-003 1.213979e-001 -2.408053e-001 9.899823e-002 7.797392e-002 -1.842598e-001
<VARIANCE> 39
 7.407756e-001 1.128784e+000 8.607663e-001 4.728426e+000 4.253267e+000 2.127208e+000 3.177957e+001 1.475238e+001 4.021334e+000 1.535409e+000 2.107843e+001 7.013834e+000 1.093573e+000 1.430406e-001 3.112345e-002 1.151615e-001 6.401647e-001 1.113325e+000 2.119990e-001 4.533969e+000 1.396364e+000 4.996665e-001 4.351153e-001 5.572478e-001 2.648345e+000 2.096931e-001 6.627712e-003 1.497950e-002 3.952734e-002 1.418735e-001 2.317097e-001 6.425237e-002 1.211986e+000 3.099743e-001 1.093980e-001 4.138302e-002 2.021315e-001 7.557608e-001 2.328481e-002
<GCONST> 4.721774e+001
<STATE> 3
<MEAN> 39
 -9.068309e+000 1.430606e+000 -9.865156e+000 -3.284529e+001 -1.341419e+001 1.057830e+001 -1.355577e+001 7.637225e+000 -7.376067e+000 -9.726828e+000 -4.242183e+000 -3.592133e+000 8.299848e+001 1.125380e+000 7.781505e-001 1.407327e-001 1.930777e+000 -5.909581e-001 -9.434968e-001 2.472115e+000 1.142807e-001 2.107008e+000 -9.602084e-001 -3.048199e-001 2.737313e+000 -1.184386e+000 1.831000e-001 -3.628972e-001 2.927001e-001 5.825241e-002 -1.900345e-001 -1.451348e+000 -3.304921e-002 -6.288791e-001 2.680495e-001 8.673204e-001 -3.493124e-001 -8.833253e-001 -3.988681e-001
<VARIANCE> 39
 1.308242e+000 2.574657e+000 1.052754e+000 5.391704e+000 1.201970e+000 6.690615e-001 5.557951e+000 1.263610e+000 1.038084e+001 1.617629e+000 6.934420e-001 1.610061e+001 1.093573e+000 3.013861e-002 1.648582e-001 7.470872e-002 6.879403e-002 5.483400e-001 3.452137e+000 3.268487e-001 5.900279e-001 3.806808e-001 6.322757e-001 7.015546e-001 1.497058e+000 1.818127e-001 7.570971e-003 8.381380e-002 5.867362e-003 3.923959e-002 9.016220e-002 2.339409e-001 1.365359e-001 8.230415e-002 1.444028e-001 1.703015e-001 8.172740e-002 6.943162e-001 4.068455e-003
<GCONST> 3.085386e+001
<STATE> 4
<MEAN> 39
 -3.803325e+000 -4.496598e-001 -5.882067e+000 -2.616906e+001 -1.338554e+001 -4.377484e+000 -7.252642e+000 1.353324e+000 -1.356662e+000 -4.189241e+000 -7.364670e+000 -4.899431e+000 7.464929e+001 9.685072e-001 -7.473437e-001 1.779467e+000 1.581025e+000 1.657599e+000 -2.795205e+000 9.086738e-001 -1.830040e+000 -3.698178e-001 1.019195e+000 3.671067e-001 -1.154659e+000 -2.368964e+000 -3.498787e-001 -2.199372e-002 2.015457e-001 -1.008547e-001 3.912008e-001 6.125743e-001 -3.150157e-001 -1.563269e-003 -6.835839e-001 -4.846766e-001 4.531917e-001 3.090084e-002 1.149688e-002
<VARIANCE> 39
 4.446943e+000 2.584336e+000 1.082227e+001 6.374415e+000 1.214306e+001 2.944694e+001 4.299707e+000 9.065750e+000 1.308813e+000 1.650555e+001 9.281053e+000 1.801477e+001 1.282099e+001 2.922187e-001 2.417360e-001 3.956070e-001 9.191666e-002 1.503596e+000 5.514441e+000 2.288671e-001 3.398667e-001 1.833797e+000 3.758608e+000 2.646031e+000 1.334368e+000 4.928688e-002 1.128166e-001 9.968202e-002 1.300884e-001 2.650437e-002 4.420123e-001 5.537035e-001 8.889786e-003 1.350795e-001 1.303684e-001 7.383565e-001 3.167070e-001 6.115345e-001 7.764256e-002
<GCONST> 6.758920e+001
<TRANSP> 5
 0.000000e+000 1.000000e+000 0.000000e+000 0.000000e+000 0.000000e+000
 0.000000e+000 9.000000e-001 9.999999e-002 0.000000e+000 0.000000e+000
 0.000000e+000 0.000000e+000 6.666667e-001 3.333333e-001 0.000000e+000
 0.000000e+000 0.000000e+000 0.000000e+000 7.985491e-001 2.014510e-001
 0.000000e+000 0.000000e+000 0.000000e+000 0.000000e+000 0.000000e+000
<ENDHMM>
