~o
<STREAMINFO> 1 39
<VECSIZE> 39<NULLD><MFCC_D_A_0><DIAGC>
~h "a"
<BEGINHMM>
<NUMSTATES> 5
<STATE> 2
<MEAN> 39
 -7.815257e+000 -1.483306e+001 -5.233334e+000 -9.797381e+000 1.157979e+000 -6.578233e+000 2.359203e+000 -5.205044e+000 6.854651e+000 -3.866468e+000 -1.061371e+001 -4.481669e+000 8.218866e+001 1.952139e-002 5.997469e-002 3.722658e-001 9.067094e-002 -2.011482e-001 -2.593479e-001 1.801510e-002 1.704294e-002 2.024510e-001 -3.545988e-001 3.236782e-001 1.290046e-001 -1.524428e-001 1.129296e-001 9.034286e-002 7.997849e-002 -7.923807e-003 -4.669556e-002 7.072452e-002 3.304618e-002 3.089985e-002 -1.327572e-002 -1.788540e-002 2.760545e-002 1.698141e-002 -1.405589e-001
<VARIANCE> 39
 1.380696e+000 2.854143e+000 2.682105e+001 4.990154e+000 3.615961e+001 6.214562e+000 3.254627e+000 2.699183e+001 1.469301e+001 4.788677e+000 7.127102e+000 5.327242e+000 2.236464e+000 3.157212e-001 1.397685e-001 1.365622e-001 2.348101e-001 1.622227e-001 2.711113e-001 2.470478e-001 3.654970e-001 1.940438e-001 2.671174e-001 1.743298e-001 1.804572e-001 2.889203e-001 1.155399e-002 1.975436e-002 1.040824e-002 1.676944e-002 1.755706e-002 3.418149e-002 4.108351e-002 3.845753e-002 2.257944e-002 5.392567e-002 2.912918e-002 3.868525e-002 2.880776e-002
<GCONST> 2.882775e+001
<STATE> 3
<MEAN> 39
 -3.392019e+000 -1.148166e+001 8.523357e-001 -8.369050e+000 -3.465137e+000 -5.665073e+000 2.324687e+000 -2.455300e+000 8.427564e+000 -9.579997e+000 -6.427961e+000 -3.242259e+000 7.633461e+001 1.406181e+000 1.725337e+000 1.427400e+000 5.116262e-001 -4.440572e-001 1.480778e+000 4.435448e-001 -3.790205e-001 -2.294987e-001 -1.153778e+000 1.380189e+000 3.800341e-001 -2.281030e+000 -2.021231e-001 6.026443e-002 2.775142e-001 4.431772e-001 5.267943e-001 2.110185e-001 -1.219227e-001 2.099836e-003 -4.132221e-001 7.278969e-001 1.549769e-001 1.020490e-001 -3.387642e-001
<VARIANCE> 39
 1.255876e+001 3.816539e+000 2.160508e+001 1.220944e+001 3.910277e+001 6.397966e+000 6.710627e+000 1.965223e+001 4.803863e+001 3.207320e+001 7.870305e+000 6.642033e-001 7.577549e+000 3.936357e-001 8.020617e-001 1.338973e-001 1.691007e+000 3.532636e-001 1.030432e+000 2.235744e-001 1.794188e-001 1.433617e-001 2.074704e+000 4.495128e-002 3.565345e-001 1.157183e+000 7.561697e-002 7.830875e-002 1.347351e-002 4.941376e-002 1.603492e-001 3.872320e-002 9.517414e-002 1.689365e-002 6.966317e-002 1.882448e-001 5.749165e-002 1.195788e-002 4.695766e-002
<GCONST> 5.184697e+001
<STATE> 4
<MEAN> 39
 -2.197765e+000 -6.407481e+000 4.593501e+000 -7.888619e-001 3.250757e+000 1.964436e+000 3.735652e+000 -2.513144e-001 4.876251e+000 -5.742765e+000 -6.000863e+000 -3.605943e+000 6.445677e+001 -2.409851e-001 4.818269e-001 2.070403e-001 6.951674e-001 4.490465e-001 9.026681e-001 3.170410e-001 1.029211e+000 -1.203789e+000 1.364083e+000 -2.957398e-001 1.599988e-001 -1.875198e+000 -1.340777e-001 -2.269072e-001 -3.425805e-001 -2.445849e-001 -1.533584e-001 -1.119353e-001 2.851196e-002 5.662752e-002 -2.910198e-002 6.190214e-002 -1.978396e-001 1.206303e-001 1.788148e-001
<VARIANCE> 39
 7.391188e+000 6.980805e+000 1.837596e+001 6.302612e+001 9.323914e+001 5.000558e+001 5.507660e+000 3.614454e+001 3.486920e+001 3.894851e+001 1.977705e+001 7.410357e+000 5.542778e+001 2.138840e-001 5.280334e-001 2.066652e+000 2.820321e+000 3.601127e+000 2.915584e+000 6.682898e-001 2.616810e+000 2.046417e-001 1.002332e+000 2.005483e+000 1.693994e+000 5.523615e-001 8.791085e-002 1.141989e-001 1.070831e-001 3.347391e-001 6.493649e-001 4.978448e-001 6.588418e-002 6.336834e-001 6.985728e-002 4.766505e-001 4.225485e-001 3.875483e-001 1.437567e-002
<GCONST> 9.248096e+001
<TRANSP> 5
 0.000000e+000 1.000000e+000 0.000000e+000 0.000000e+000 0.000000e+000
 0.000000e+000 9.462653e-001 5.373465e-002 0.000000e+000 0.000000e+000
 0.000000e+000 0.000000e+000 4.188850e-001 5.811150e-001 0.000000e+000
 0.000000e+000 0.000000e+000 0.000000e+000 8.445310e-001 1.554690e-001
 0.000000e+000 0.000000e+000 0.000000e+000 0.000000e+000 0.000000e+000
<ENDHMM>
~h "b"
<BEGINHMM>
<NUMSTATES> 5
<STATE> 2
<MEAN> 39
 1.032301e+000 -2.605324e+000 2.762936e+000 -8.473274e+000 -5.462031e+000 -2.473138e+000 -7.843256e+000 -8.411180e+000 -9.434702e+000 5.032834e-001 -3.003687e+000 -9.848697e+000 6.611564e+001 -1.021374e+000 -1.830139e+000 -3.197541e+000 -3.092850e+000 5.378319e-001 -2.190438e-001 1.090401e+000 1.980345e+000 3.060155e+000 -1.358734e+000 -1.605987e+000 -3.263653e-001 3.774505e+000 -3.521964e-001 -7.492692e-002 -1.137021e-001 4.664542e-002 1.275084e-001 6.041334e-001 3.696081e-002 -1.408291e-001 7.919795e-002 3.377472e-002 9.502396e-002 -1.334029e-001 2.983904e-001
<VARIANCE> 39
 4.962668e+000 2.404873e+001 5.237916e+001 5.373869e+001 4.562814e+001 1.092589e+001 1.445198e+001 4.314412e+001 9.415070e+001 1.122509e+002 2.926955e+001 6.146060e+000 5.094970e+001 8.509194e-001 4.800857e+000 4.320248e+000 5.644983e+000 1.018527e+000 2.300604e+000 1.567644e+000 2.286117e+000 2.608330e+000 4.301832e+000 4.647960e+000 1.195458e+000 6.849723e+000 1.035521e-001 2.060156e-001 9.803083e-001 2.058897e+000 1.932976e-001 3.768192e-001 1.749955e-001 3.179736e-001 5.252644e-001 1.540485e+000 9.896105e-001 3.498818e-001 1.354104e+000
<GCONST> 1.186013e+002
<STATE> 3
<MEAN> 39
 -4.380697e+000 -9.153469e+000 -7.536055e+000 -1.832820e+001 -2.687157e+000 1.362365e+000 -4.415601e+000 -3.425403e+000 7.197186e-001 -2.694374e+000 -7.330720e+000 -1.112964e+001 7.977968e+001 -1.427755e+000 -1.391366e+000 -1.435832e+000 -2.192850e+000 -6.389228e-001 1.324845e+000 7.241544e-001 1.403574e+000 1.275802e+000 -6.008607e-001 4.547111e-001 6.848285e-002 2.788583e+000 2.621008e-001 6.463367e-001 1.059468e+000 7.851658e-001 -2.906263e-001 -2.951769e-001 -8.137669e-002 -3.567161e-001 -1.040864e+000 2.193197e-001 6.124509e-001 5.477290e-001 -1.124671e+000
<VARIANCE> 39
 1.517784e+000 4.033866e+001 6.527679e+000 3.130016e+001 1.005270e+002 1.705009e+001 6.528240e+001 3.438622e+000 4.669461e+001 4.899096e+001 1.827551e+002 8.181801e+000 8.921252e+000 6.502752e-001 3.784696e-001 4.525749e+000 1.480041e+001 2.170803e+000 5.582501e+000 2.869460e+000 2.171155e+000 1.762146e+000 8.658051e+000 1.049716e+001 1.618166e+000 5.739154e+000 3.512061e-002 3.515565e-001 1.854758e-001 9.658468e-001 6.481825e-001 2.759611e-001 4.612117e-001 5.998401e-001 9.106576e-002 5.217829e-001 1.600423e+000 1.696289e-001 3.854270e-001
<GCONST> 1.112129e+002
<STATE> 4
<MEAN> 39
 -5.660909e+000 -1.073586e+001 -8.241925e+000 -1.992636e+001 -4.010799e+000 2.266309e+000 -2.465548e+000 -1.865881e+000 1.852615e+000 -1.939140e+000 -5.528982e+000 -1.065927e+001 8.188663e+001 -8.563933e-001 -9.036373e-002 -4.496316e-002 -5.707601e-001 -1.327509e-001 -1.729642e-001 8.787398e-001 4.097026e-001 -1.485364e-001 -1.198888e-001 6.755643e-001 1.114286e+000 7.969978e-001 1.626705e-001 5.945678e-001 5.864713e-001 5.813854e-001 2.371564e-001 -5.782970e-001 -1.567996e-001 -4.729749e-001 -4.910030e-001 3.186415e-001 6.705216e-002 3.888148e-001 -6.832587e-001
<VARIANCE> 39
 2.579414e+000 3.189949e+001 9.354361e+000 5.882264e+001 8.389826e+001 5.363351e+001 8.580980e+001 9.762666e+000 2.908097e+001 1.655260e+000 2.390301e+002 1.544713e+001 8.418811e+000 1.036329e-001 3.692877e-001 2.007280e+000 4.471418e+000 3.705823e+000 1.971859e+000 7.119315e-001 2.273928e+000 5.252193e-001 2.139100e+000 2.081893e+000 1.055331e+000 7.133060e-001 8.078901e-002 8.987524e-002 8.228713e-002 8.537542e-001 5.561674e-001 2.645722e-001 8.013365e-001 1.584027e-001 6.461304e-002 8.458502e-001 2.372571e+000 3.134397e-001 3.371965e-001
<GCONST> 9.787515e+001
<TRANSP> 5
 0.000000e+000 1.000000e+000 0.000000e+000 0.000000e+000 0.000000e+000
 0.000000e+000 7.124707e-001 2.875293e-001 0.000000e+000 0.000000e+000
 0.000000e+000 0.000000e+000 5.713843e-001 4.286157e-001 0.000000e+000
 0.000000e+000 0.000000e+000 0.000000e+000 3.796509e-002 9.620349e-001
 0.000000e+000 0.000000e+000 0.000000e+000 0.000000e+000 0.000000e+000
<ENDHMM>
~h "h"
<BEGINHMM>
<NUMSTATES> 5
<STATE> 2
<MEAN> 39
 -4.567753e+000 -7.143067e+000 -2.541086e-002 -1.135347e+001 -1.687831e+000 -1.954881e+000 -2.646961e+000 -2.072761e+000 -2.789703e+000 -2.519353e+000 -6.155596e+000 -5.577165e+000 7.077073e+001 1.284684e-001 3.519998e-002 5.042017e-002 -1.919170e-002 3.023124e-002 1.526818e-001 1.134414e-001 2.059520e-001 -9.232968e-004 -1.269177e-001 -8.922511e-002 -2.744853e-002 -7.531010e-002 5.912672e-003 1.712719e-002 -1.400904e-002 4.067212e-002 1.142783e-002 6.040929e-002 -2.948085e-002 1.259365e-002 -2.109511e-002 -7.946315e-003 -1.983920e-002 -3.233210e-002 -9.618374e-002
<VARIANCE> 39
 3.415611e+001 7.917472e+001 6.772413e+001 1.044564e+002 6.616837e+001 6.690615e+001 4.644624e+001 6.430594e+001 6.305968e+001 3.884728e+001 4.429239e+001 2.991177e+001 1.093573e+002 1.494153e+000 2.442461e+000 2.803278e+000 3.689717e+000 2.789096e+000 2.684588e+000 2.923815e+000 2.980957e+000 2.440595e+000 2.124268e+000 2.570347e+000 2.055594e+000 4.928689e+000 2.082175e-001 2.880168e-001 3.830723e-001 4.453130e-001 4.567120e-001 3.917358e-001 5.017791e-001 4.192902e-001 3.397919e-001 3.803485e-001 4.509306e-001 4.006631e-001 4.068455e-001
<GCONST> 1.247249e+002
<STATE> 3
<MEAN> 39
 -4.567753e+000 -7.143067e+000 -2.541086e-002 -1.135347e+001 -1.687831e+000 -1.954881e+000 -2.646961e+000 -2.072761e+000 -2.789703e+000 -2.519353e+000 -6.155596e+000 -5.577165e+000 7.077073e+001 1.284684e-001 3.519998e-002 5.042017e-002 -1.919170e-002 3.023124e-002 1.526818e-001 1.134414e-001 2.059520e-001 -9.232968e-004 -1.269177e-001 -8.922511e-002 -2.744853e-002 -7.531010e-002 5.912672e-003 1.712719e-002 -1.400904e-002 4.067212e-002 1.142783e-002 6.040929e-002 -2.948085e-002 1.259365e-002 -2.109511e-002 -7.946315e-003 -1.983920e-002 -3.233210e-002 -9.618374e-002
<VARIANCE> 39
 3.415611e+001 7.917472e+001 6.772413e+001 1.044564e+002 6.616837e+001 6.690615e+001 4.644624e+001 6.430594e+001 6.305968e+001 3.884728e+001 4.429239e+001 2.991177e+001 1.093573e+002 1.494153e+000 2.442461e+000 2.803278e+000 3.689717e+000 2.789096e+000 2.684588e+000 2.923815e+000 2.980957e+000 2.440595e+000 2.124268e+000 2.570347e+000 2.055594e+000 4.928689e+000 2.082175e-001 2.880168e-001 3.830723e-001 4.453130e-001 4.567120e-001 3.917358e-001 5.017791e-001 4.192902e-001 3.397919e-001 3.803485e-001 4.509306e-001 4.006631e-001 4.068455e-001
<GCONST> 1.247249e+002
<STATE> 4
<MEAN> 39
 -4.567753e+000 -7.143067e+000 -2.541086e-002 -1.135347e+001 -1.687831e+000 -1.954881e+000 -2.646961e+000 -2.072761e+000 -2.789703e+000 -2.519353e+000 -6.155596e+000 -5.577165e+000 7.077073e+001 1.284684e-001 3.519998e-002 5.042017e-002 -1.919170e-002 3.023124e-002 1.526818e-001 1.134414e-001 2.059520e-001 -9.232968e-004 -1.269177e-001 -8.922511e-002 -2.744853e-002 -7.531010e-002 5.912672e-003 1.712719e-002 -1.400904e-002 4.067212e-002 1.142783e-002 6.040929e-002 -2.948085e-002 1.259365e-002 -2.109511e-002 -7.946315e-003 -1.983920e-002 -3.233210e-002 -9.618374e-002
<VARIANCE> 39
 3.415611e+001 7.917472e+001 6.772413e+001 1.044564e+002 6.616837e+001 6.690615e+001 4.644624e+001 6.430594e+001 6.305968e+001 3.884728e+001 4.429239e+001 2.991177e+001 1.093573e+002 1.494153e+000 2.442461e+000 2.803278e+000 3.689717e+000 2.789096e+000 2.684588e+000 2.923815e+000 2.980957e+000 2.440595e+000 2.124268e+000 2.570347e+000 2.055594e+000 4.928689e+000 2.082175e-001 2.880168e-001 3.830723e-001 4.453130e-001 4.567120e-001 3.917358e-001 5.017791e-001 4.192902e-001 3.397919e-001 3.803485e-001 4.509306e-001 4.006631e-001 4.068455e-001
<GCONST> 1.247249e+002
<TRANSP> 5
 0.000000e+000 1.000000e+000 0.000000e+000 0.000000e+000 0.000000e+000
 0.000000e+000 6.000000e-001 4.000000e-001 0.000000e+000 0.000000e+000
 0.000000e+000 0.000000e+000 6.000000e-001 4.000000e-001 0.000000e+000
 0.000000e+000 0.000000e+000 0.000000e+000 7.000000e-001 3.000000e-001
 0.000000e+000 0.000000e+000 0.000000e+000 0.000000e+000 0.000000e+000
<ENDHMM>
~h "i"
<BEGINHMM>
<NUMSTATES> 5
<STATE> 2
<MEAN> 39
 -4.567753e+000 -7.143067e+000 -2.541086e-002 -1.135347e+001 -1.687831e+000 -1.954881e+000 -2.646961e+000 -2.072761e+000 -2.789703e+000 -2.519353e+000 -6.155596e+000 -5.577165e+000 7.077073e+001 1.284684e-001 3.519998e-002 5.042017e-002 -1.919170e-002 3.023124e-002 1.526818e-001 1.134414e-001 2.059520e-001 -9.232968e-004 -1.269177e-001 -8.922511e-002 -2.744853e-002 -7.531010e-002 5.912672e-003 1.712719e-002 -1.400904e-002 4.067212e-002 1.142783e-002 6.040929e-002 -2.948085e-002 1.259365e-002 -2.109511e-002 -7.946315e-003 -1.983920e-002 -3.233210e-002 -9.618374e-002
<VARIANCE> 39
 3.415611e+001 7.917472e+001 6.772413e+001 1.044564e+002 6.616837e+001 6.690615e+001 4.644624e+001 6.430594e+001 6.305968e+001 3.884728e+001 4.429239e+001 2.991177e+001 1.093573e+002 1.494153e+000 2.442461e+000 2.803278e+000 3.689717e+000 2.789096e+000 2.684588e+000 2.923815e+000 2.980957e+000 2.440595e+000 2.124268e+000 2.570347e+000 2.055594e+000 4.928689e+000 2.082175e-001 2.880168e-001 3.830723e-001 4.453130e-001 4.567120e-001 3.917358e-001 5.017791e-001 4.192902e-001 3.397919e-001 3.803485e-001 4.509306e-001 4.006631e-001 4.068455e-001
<GCONST> 1.247249e+002
<STATE> 3
<MEAN> 39
 -4.567753e+000 -7.143067e+000 -2.541086e-002 -1.135347e+001 -1.687831e+000 -1.954881e+000 -2.646961e+000 -2.072761e+000 -2.789703e+000 -2.519353e+000 -6.155596e+000 -5.577165e+000 7.077073e+001 1.284684e-001 3.519998e-002 5.042017e-002 -1.919170e-002 3.023124e-002 1.526818e-001 1.134414e-001 2.059520e-001 -9.232968e-004 -1.269177e-001 -8.922511e-002 -2.744853e-002 -7.531010e-002 5.912672e-003 1.712719e-002 -1.400904e-002 4.067212e-002 1.142783e-002 6.040929e-002 -2.948085e-002 1.259365e-002 -2.109511e-002 -7.946315e-003 -1.983920e-002 -3.233210e-002 -9.618374e-002
<VARIANCE> 39
 3.415611e+001 7.917472e+001 6.772413e+001 1.044564e+002 6.616837e+001 6.690615e+001 4.644624e+001 6.430594e+001 6.305968e+001 3.884728e+001 4.429239e+001 2.991177e+001 1.093573e+002 1.494153e+000 2.442461e+000 2.803278e+000 3.689717e+000 2.789096e+000 2.684588e+000 2.923815e+000 2.980957e+000 2.440595e+000 2.124268e+000 2.570347e+000 2.055594e+000 4.928689e+000 2.082175e-001 2.880168e-001 3.830723e-001 4.453130e-001 4.567120e-001 3.917358e-001 5.017791e-001 4.192902e-001 3.397919e-001 3.803485e-001 4.509306e-001 4.006631e-001 4.068455e-001
<GCONST> 1.247249e+002
<STATE> 4
<MEAN> 39
 -4.567753e+000 -7.143067e+000 -2.541086e-002 -1.135347e+001 -1.687831e+000 -1.954881e+000 -2.646961e+000 -2.072761e+000 -2.789703e+000 -2.519353e+000 -6.155596e+000 -5.577165e+000 7.077073e+001 1.284684e-001 3.519998e-002 5.042017e-002 -1.919170e-002 3.023124e-002 1.526818e-001 1.134414e-001 2.059520e-001 -9.232968e-004 -1.269177e-001 -8.922511e-002 -2.744853e-002 -7.531010e-002 5.912672e-003 1.712719e-002 -1.400904e-002 4.067212e-002 1.142783e-002 6.040929e-002 -2.948085e-002 1.259365e-002 -2.109511e-002 -7.946315e-003 -1.983920e-002 -3.233210e-002 -9.618374e-002
<VARIANCE> 39
 3.415611e+001 7.917472e+001 6.772413e+001 1.044564e+002 6.616837e+001 6.690615e+001 4.644624e+001 6.430594e+001 6.305968e+001 3.884728e+001 4.429239e+001 2.991177e+001 1.093573e+002 1.494153e+000 2.442461e+000 2.803278e+000 3.689717e+000 2.789096e+000 2.684588e+000 2.923815e+000 2.980957e+000 2.440595e+000 2.124268e+000 2.570347e+000 2.055594e+000 4.928689e+000 2.082175e-001 2.880168e-001 3.830723e-001 4.453130e-001 4.567120e-001 3.917358e-001 5.017791e-001 4.192902e-001 3.397919e-001 3.803485e-001 4.509306e-001 4.006631e-001 4.068455e-001
<GCONST> 1.247249e+002
<TRANSP> 5
 0.000000e+000 1.000000e+000 0.000000e+000 0.000000e+000 0.000000e+000
 0.000000e+000 6.000000e-001 4.000000e-001 0.000000e+000 0.000000e+000
 0.000000e+000 0.000000e+000 6.000000e-001 4.000000e-001 0.000000e+000
 0.000000e+000 0.000000e+000 0.000000e+000 7.000000e-001 3.000000e-001
 0.000000e+000 0.000000e+000 0.000000e+000 0.000000e+000 0.000000e+000
<ENDHMM>
~h "m"
<BEGINHMM>
<NUMSTATES> 5
<STATE> 2
<MEAN> 39
 -6.389317e+000 -5.329436e+000 9.125386e-001 -6.859004e-001 2.796760e+000 9.528988e-001 -4.567530e-001 -8.907336e+000 -4.405814e+000 6.613147e+000 -4.119893e+000 -8.950824e-001 5.714482e+001 3.120295e-002 1.284989e+000 1.606785e+000 1.026994e+000 1.725179e+000 4.506436e-001 -1.259321e+000 -2.221728e+000 -1.493250e+000 5.445288e-001 -6.131386e-001 1.211484e+000 -4.288200e-001 2.340851e-001 -1.548013e-001 1.123121e-001 -5.827160e-001 -1.847172e-003 -9.442833e-002 -4.113720e-001 4.073137e-001 -1.622176e-001 -7.508203e-001 -5.598940e-001 -2.267589e-001 7.465796e-001
<VARIANCE> 39
 2.100184e+001 4.468287e+001 1.186927e+001 1.528964e+001 2.048274e+001 3.351264e+001 2.094873e+001 9.691254e+001 2.983607e+001 6.457242e+000 6.986742e+000 3.133216e+001 1.345340e+002 8.097845e-001 1.013209e+000 1.103663e+000 3.169588e+000 1.309188e+000 1.413560e+000 1.971388e+000 8.768994e-001 4.511142e+000 1.618830e+000 9.868467e-001 2.228605e+000 2.871377e+000 3.460651e-001 4.528819e-002 3.436552e-001 3.080028e-001 2.854991e-001 1.147918e-001 2.883338e-001 2.676610e-001 8.401448e-001 1.338349e-001 1.456182e-001 1.767225e-001 2.221371e-001
<GCONST> 9.973862e+001
<STATE> 3
<MEAN> 39
 -3.240408e+000 -3.488238e+000 5.187240e+000 -2.758451e+000 6.911618e+000 1.922224e+000 -5.460160e+000 -1.134182e+001 -9.868882e+000 5.903367e+000 -8.168521e+000 -1.922695e-001 6.016272e+001 1.321626e+000 3.184426e-001 1.539571e+000 -1.583800e+000 -9.629850e-002 -3.278898e-001 -1.583079e+000 -9.227792e-001 -2.021824e+000 -6.755145e-001 -1.209645e+000 -6.483219e-001 2.206784e+000 1.135451e-001 -3.950614e-001 -7.888142e-001 -6.372814e-001 -7.749028e-001 -6.411430e-002 4.852252e-001 8.547717e-001 5.825985e-001 -2.041649e-001 3.632019e-001 -4.878700e-001 3.310373e-001
<VARIANCE> 39
 9.884734e+000 2.838048e+001 2.487684e+001 1.522374e+001 8.255172e+000 4.116958e+001 1.347802e+001 5.581654e+001 3.823468e+001 1.624078e+001 4.201398e+000 2.015838e+001 6.399279e+001 2.730955e+000 1.882844e+000 1.548682e+000 4.900716e+000 1.450675e+000 1.438437e+000 1.606248e+000 7.039019e-001 1.466097e+000 6.482483e-001 8.670239e-001 2.416975e+000 1.133038e+001 8.969772e-002 4.241697e-002 5.845524e-001 2.387229e-001 2.127808e-001 2.267981e-001 2.319493e-001 1.465341e-001 4.359734e-001 1.183275e-001 2.483495e-001 6.246353e-002 4.171174e-001
<GCONST> 9.641172e+001
<STATE> 4
<MEAN> 39
 -3.656643e+000 -4.108065e+000 5.565831e+000 -4.187001e+000 5.019394e+000 5.295959e-001 -7.067555e+000 -1.825845e+001 -1.196467e+001 3.108984e+000 -9.858149e+000 3.724231e-001 6.524606e+001 3.334949e-001 3.552384e-001 -2.524193e-001 -1.201308e-001 -5.288919e-001 2.770829e-002 -3.958836e-002 4.230972e-001 -1.289991e-001 1.625215e-001 -1.764808e-001 -7.470877e-003 -3.597307e-001 2.431472e-002 -1.269782e-001 -3.048345e-001 -6.452784e-002 6.069646e-002 -1.592795e-002 2.417787e-001 2.488154e-001 2.109083e-001 1.658638e-001 1.885158e-001 3.063235e-002 -8.699801e-002
<VARIANCE> 39
 5.034340e+000 5.635101e+000 9.951969e+000 3.961519e+001 1.546387e+001 3.040468e+001 4.156551e+000 3.385598e+001 1.132745e+001 1.525812e+001 3.715385e+000 7.701915e+001 3.879555e+001 5.260938e-001 5.810204e-001 6.290536e-001 2.597952e+000 7.199874e-001 9.306657e-001 3.474446e-001 1.008986e+000 1.883039e+000 1.338034e+000 5.816556e-001 1.380012e+000 2.153611e+000 2.013191e-002 6.866090e-002 2.796869e-001 1.039437e-001 1.325323e-001 1.750717e-001 1.090309e-001 3.317737e-001 1.393070e-001 9.684540e-002 1.946914e-001 2.483258e-001 1.872105e-001
<GCONST> 7.967986e+001
<TRANSP> 5
 0.000000e+000 1.000000e+000 0.000000e+000 0.000000e+000 0.000000e+000
 0.000000e+000 6.183723e-001 3.816278e-001 0.000000e+000 0.000000e+000
 0.000000e+000 0.000000e+000 5.280564e-001 4.719436e-001 0.000000e+000
 0.000000e+000 0.000000e+000 0.000000e+000 7.852247e-001 2.147753e-001
 0.000000e+000 0.000000e+000 0.000000e+000 0.000000e+000 0.000000e+000
<ENDHMM>
~h "n"
<BEGINHMM>
<NUMSTATES> 5
<STATE> 2
<MEAN> 39
 -4.134924e+000 -2.780859e+000 3.273986e+000 -1.490218e+001 -4.166786e+000 -9.168223e+000 -4.598282e+000 -7.540132e+000 -3.300378e+000 -7.772257e+000 -9.836136e+000 -5.580647e+000 6.604591e+001 -4.556399e-001 1.883939e-001 4.100843e-001 6.633300e-001 7.131487e-001 2.674517e-001 -1.415700e-001 -8.890771e-001 -3.796319e-001 -3.104507e-001 -3.433579e-001 2.137430e-001 -1.036660e+000 1.687324e-001 2.292427e-001 -3.411730e-001 -1.732931e-001 -1.673595e-001 4.589775e-001 -2.802015e-001 2.387864e-001 2.672364e-001 5.136396e-001 1.479445e-001 6.050894e-002 7.363860e-002
<VARIANCE> 39
 5.118276e+000 3.466483e+000 8.187574e+000 7.675574e+001 8.579000e+000 1.497553e+001 9.513989e+000 3.208912e+001 5.546208e+001 5.221723e+001 7.668762e+001 9.915050e+000 1.820743e+001 7.400813e-001 5.398640e-001 4.698563e-001 1.973313e-001 5.300430e-001 2.372998e+000 6.878659e-001 8.860645e-001 1.107479e+000 1.672370e+000 9.055135e-001 3.568783e-001 3.471033e-001 1.981662e-001 1.026811e-001 3.840899e-002 7.734421e-002 1.760280e-001 4.487589e-001 2.719258e-001 6.184621e-001 1.309384e-001 3.006704e-001 5.906166e-001 5.218845e-002 6.502352e-002
<GCONST> 8.046523e+001
<STATE> 3
<MEAN> 39
 -1.791465e+000 5.340037e-001 4.017345e+000 -6.210030e+000 -3.614896e+000 -4.732513e+000 -7.757109e+000 -9.227342e+000 -3.393666e+000 -1.072665e+001 -1.533452e+001 -6.597861e+000 6.036324e+001 4.252015e-001 9.482579e-001 -3.023630e-001 4.674338e-001 -7.985891e-002 1.027311e+000 -3.290376e-001 1.315941e+000 4.362101e-001 1.333825e+000 1.229441e+000 -2.957047e-001 -1.151194e+000 -1.191707e-001 -1.680753e-001 -6.471068e-002 -3.253463e-002 4.426464e-002 2.011298e-001 3.592436e-001 8.719620e-001 2.072131e-001 2.375989e-001 3.359352e-001 2.267472e-002 2.959344e-003
<VARIANCE> 39
 6.248950e+000 1.258809e+001 6.162421e+000 9.127495e+001 8.066258e+000 2.381410e+001 2.547195e+001 2.490281e+001 5.482874e+001 8.199840e+001 6.672240e+001 1.192803e+001 3.913906e+001 5.320487e-001 9.847637e-001 4.374059e-001 7.013086e-001 1.228083e+000 3.470506e+000 1.878806e+000 3.828902e+000 9.604279e-001 1.173061e+000 9.140862e-001 1.362092e+000 9.749936e-001 1.880035e-001 1.743277e-001 9.461835e-002 1.115048e-001 3.896147e-001 2.214621e-001 6.261142e-001 5.125756e-001 2.190571e-001 4.974913e-001 2.472297e-001 1.947765e-001 7.027823e-002
<GCONST> 9.528914e+001
<STATE> 4
<MEAN> 39
 -3.530037e+000 2.731844e+000 2.305839e+000 -8.403750e+000 -1.977091e+000 3.314916e+000 -4.321807e+000 1.518231e+000 -1.996797e+000 -3.738607e+000 -7.032330e+000 -5.153133e+000 5.446977e+001 -7.167744e-001 -1.657408e-001 -7.038897e-001 1.795131e-001 8.858515e-001 1.101024e+000 6.938088e-001 1.666437e+000 6.547237e-001 6.396597e-001 4.842961e-001 4.186716e-002 -1.011544e+000 -1.329540e-001 -2.647449e-001 -2.657443e-001 -2.887413e-001 1.435298e-001 -2.528954e-001 -1.503632e-001 -4.585559e-001 -1.718079e-002 -3.099336e-001 -1.365228e-001 -1.224718e-001 2.287269e-001
<VARIANCE> 39
 2.686460e+000 1.121419e+001 9.162085e+000 8.286520e+001 8.825497e+000 3.790000e+001 1.053210e+001 3.264326e+001 2.015563e+001 3.761526e+001 5.145566e+001 1.372851e+001 3.520979e+001 1.922953e-001 5.428503e-001 1.286032e+000 7.908946e-001 1.174031e+000 1.387725e+000 1.878556e+000 5.068646e+000 8.073979e-001 6.905992e-001 7.535243e-001 5.766429e-001 7.270641e-001 5.303719e-002 4.864715e-002 1.587706e-001 6.683519e-002 1.476729e-001 3.381951e-001 2.268086e-001 6.468877e-001 1.687928e-001 4.256689e-002 2.023505e-001 1.333589e-001 1.043215e-002
<GCONST> 8.034963e+001
<TRANSP> 5
 0.000000e+000 1.000000e+000 0.000000e+000 0.000000e+000 0.000000e+000
 0.000000e+000 6.592440e-001 3.407560e-001 0.000000e+000 0.000000e+000
 0.000000e+000 0.000000e+000 6.427988e-001 3.572012e-001 0.000000e+000
 0.000000e+000 0.000000e+000 0.000000e+000 7.514673e-001 2.485326e-001
 0.000000e+000 0.000000e+000 0.000000e+000 0.000000e+000 0.000000e+000
<ENDHMM>
~h "s"
<BEGINHMM>
<NUMSTATES> 5
<STATE> 2
<MEAN> 39
 -2.399510e+001 8.138400e-001 5.408228e+000 -2.695210e+000 1.089009e+001 -1.195646e+001 -4.416032e+000 2.702274e+000 -5.650781e+000 -4.243289e+000 -8.743416e+000 -1.505798e+000 6.471414e+001 -5.270502e-001 -9.899048e-002 -1.010825e-001 1.551676e+000 -3.349609e+000 -3.177217e+000 3.598979e+000 2.030075e+000 -4.591217e-001 -1.411577e+000 2.212305e+000 1.978090e+000 9.084625e-001 8.809665e-001 -3.875510e-001 -1.253516e-001 -5.332425e-001 -5.507130e-001 7.103065e-001 5.152314e-001 -3.852399e-001 -2.474378e-002 5.883436e-001 3.270656e-001 -3.972796e-001 -1.291699e-001
<VARIANCE> 39
 3.059274e+000 7.917472e-001 6.772413e-001 7.178116e+000 1.340721e+001 2.665799e+001 2.347100e+001 1.251648e+001 6.305968e-001 1.038861e+001 5.191133e+000 9.007653e+000 1.512617e+000 3.934080e-001 5.426756e-002 4.065800e-002 3.689717e-002 8.063221e-001 1.696812e-001 1.209854e+000 4.418686e-001 2.546871e-002 6.070852e-001 1.173810e+000 6.175629e-001 4.928688e-002 2.356164e-001 6.451165e-002 3.830723e-003 1.785715e-001 1.838087e-002 1.984341e-001 1.986607e-001 9.931207e-002 3.397919e-003 2.638313e-002 2.320025e-001 1.040576e-001 1.963306e-002
<GCONST> 3.339059e+001
<STATE> 3
<MEAN> 39
 -2.189501e+001 -6.883833e-001 4.056633e+000 -6.082851e-001 -3.173373e-001 -1.648910e+001 7.992414e+000 5.647340e+000 -7.261699e+000 -3.879499e+000 7.927529e-001 2.068424e+000 6.640880e+001 3.643474e+000 -2.134667e+000 -4.098921e-001 -1.652915e+000 -3.977983e+000 5.402279e-001 2.976601e+000 -1.666897e-001 -3.138039e-001 4.614753e-001 6.102309e-001 -3.468488e-001 2.654876e-001 1.317573e+000 -1.383760e+000 -3.335875e-001 -1.593913e+000 8.203702e-001 1.077670e+000 -1.711875e+000 -4.134746e-001 3.263227e-002 2.643960e-001 -1.838684e+000 -8.645100e-001 7.919816e-001
<VARIANCE> 39
 4.023232e+000 7.917472e-001 6.772413e-001 1.344425e+000 7.610076e+000 6.690615e-001 4.194173e+000 1.505280e+001 6.305968e-001 4.246155e+000 1.379885e+000 2.123638e+001 2.034187e+000 1.804851e+000 1.602576e+000 2.266779e-001 2.230519e+000 4.939705e-001 5.947913e-002 5.996618e+000 3.836949e-001 1.463576e-001 2.124268e-002 4.479805e+000 4.790542e-001 1.102449e+000 2.128742e-001 2.394967e-002 1.321299e-002 4.164808e-002 2.043197e-001 4.193864e-002 6.766709e-002 1.245112e-001 3.397919e-003 9.025126e-002 6.285946e-002 9.436429e-002 1.495256e-001
<GCONST> 3.892379e+001
<STATE> 4
<MEAN> 39
 -8.249162e+000 -1.197158e+001 2.458431e+000 -1.111878e+001 -6.599777e+000 -1.342169e+001 7.119462e+000 6.508771e+000 -7.717299e+000 -3.964425e+000 -7.995138e+000 -7.138795e-001 7.161155e+001 3.748725e+000 -5.390308e+000 -1.736328e+000 -3.940322e+000 2.451740e-001 1.638390e+000 -1.644847e+000 2.399682e-001 -1.367490e-001 -3.279562e-002 -3.145598e+000 -1.397649e+000 4.048725e+000 -1.088383e+000 1.937634e-002 -2.610678e-001 5.448665e-001 1.613561e+000 3.835342e-001 -3.972248e-001 -2.351424e-001 3.115392e-001 -2.525871e-001 2.414068e-001 4.136468e-002 2.192230e-001
<VARIANCE> 39
 3.129019e+001 4.728992e+001 6.469216e+000 3.684922e+001 7.196080e-001 1.533562e+000 4.276120e+001 2.030446e+000 3.744002e+000 4.074740e+000 2.481907e+001 1.141397e+001 5.160646e+001 2.247819e+000 2.473813e-001 2.917413e-001 9.156061e-001 3.439760e+000 1.763788e-001 1.103465e-001 4.036812e-001 5.753680e-002 1.820943e-001 6.372201e-001 2.483971e-001 5.582954e-001 4.383845e-001 8.203562e-001 5.239201e-002 8.405911e-001 5.527538e-002 1.340653e-002 8.947446e-001 6.131829e-002 3.073872e-002 6.383874e-003 1.190271e+000 9.217954e-002 8.600631e-001
<GCONST> 6.367303e+001
<TRANSP> 5
 0.000000e+000 1.000000e+000 0.000000e+000 0.000000e+000 0.000000e+000
 0.000000e+000 6.666183e-001 3.333817e-001 0.000000e+000 0.000000e+000
 0.000000e+000 0.000000e+000 5.184050e-001 4.815949e-001 0.000000e+000
 0.000000e+000 0.000000e+000 0.000000e+000 6.551019e-001 3.448981e-001
 0.000000e+000 0.000000e+000 0.000000e+000 0.000000e+000 0.000000e+000
<ENDHMM>
~h "t"
<BEGINHMM>
<NUMSTATES> 5
<STATE> 2
<MEAN> 39
 -4.158343e+000 -2.120514e+000 -4.826990e+000 -6.082625e+000 8.572057e-001 1.134616e+000 2.277671e+000 1.796494e+000 1.504115e+000 -3.740748e+000 -6.886363e+000 -5.418851e+000 5.703112e+001 -5.068683e-001 -1.055539e+000 1.942986e+000 3.883824e-001 9.208060e-001 -1.932792e+000 3.731546e+000 9.164075e-001 7.501488e-001 1.764254e-001 9.729044e-001 3.198927e-001 3.981646e+000 -2.492731e-002 -9.230775e-001 -6.970161e-001 -4.813497e-001 -2.387260e-001 3.218848e-001 -8.215706e-001 -9.591782e-002 -9.639952e-001 4.370479e-001 -1.654478e-001 -4.872556e-001 3.517845e-001
<VARIANCE> 39
 4.156963e+001 8.464025e+001 7.876781e+001 1.670748e+000 4.239717e+000 1.958784e+001 3.268984e+001 1.123048e+002 3.570766e+001 6.273539e+000 1.084198e+001 1.237661e+001 2.764683e+001 8.296809e-002 1.157682e+000 3.681893e+000 7.286763e+000 5.598606e-001 5.000669e+000 1.950348e+000 7.097093e-001 5.632756e-001 6.367435e-001 3.793969e-001 4.651747e-001 1.473819e+001 6.573863e-002 2.365621e-001 8.657245e-002 2.793701e-001 5.781980e-001 1.267700e-001 2.252337e-001 2.949120e-001 4.129888e-002 1.236890e-001 2.662497e-001 1.707751e-001 2.999477e-001
<GCONST> 9.043037e+001
<STATE> 3
<MEAN> 39
 -3.159559e+000 -1.011427e+001 -3.110558e+000 -8.509278e+000 1.637122e+000 -7.262290e+000 8.364957e+000 4.621957e+000 -4.205176e+000 -7.227938e-001 -5.746353e+000 -7.862992e+000 6.927605e+001 -2.051465e-001 -3.270766e+000 5.102432e-002 -1.670285e-001 9.096834e-001 -2.934353e-001 5.876888e-001 5.350338e-001 -1.626608e+000 8.450335e-001 1.839162e-001 -7.537295e-001 3.272842e+000 -5.341640e-002 1.018767e-002 -5.660464e-001 -9.996642e-002 -1.064439e-001 1.163698e+000 -1.425188e+000 -5.693057e-001 -2.453169e-001 1.700794e-002 -2.591522e-001 7.640996e-002 -9.724275e-001
<VARIANCE> 39
 2.545600e+001 1.448398e+002 1.391077e+001 2.049830e+001 7.314001e+000 1.414540e+002 8.582012e+000 9.720225e+000 1.313218e+001 7.470339e+000 6.298675e+000 4.276573e+000 1.014514e+002 2.788580e-001 1.881036e+000 1.143528e+000 2.197551e+000 7.409801e-001 2.507363e+000 2.926907e+000 2.157693e+000 1.320328e+000 3.839557e-001 2.487528e+000 1.442184e+000 9.037563e+000 3.310304e-003 2.601307e-001 2.288687e-001 4.337038e-001 1.505343e-001 7.688891e-001 4.219499e-001 9.093656e-002 2.204794e-001 1.423111e-001 5.298673e-002 1.678841e-001 1.129466e+000
<GCONST> 9.209940e+001
<STATE> 4
<MEAN> 39
 -1.602588e+000 9.515950e-001 6.571650e-001 -4.107719e-001 1.981627e+000 7.804325e+000 6.752488e+000 7.650371e+000 6.321948e-001 -7.415342e-001 -2.189876e+000 -4.186097e+000 5.559831e+001 -9.702649e-001 -1.819535e-001 -2.613920e-001 5.633369e-001 3.865853e-001 3.033751e-001 -8.980461e-002 1.813397e-001 4.729248e-001 -9.112570e-002 -1.033756e-001 -2.301347e-001 -9.892800e-001 -1.441470e-002 2.588414e-001 3.155771e-002 -4.666032e-002 -8.901709e-003 -1.273760e-001 -2.021481e-001 2.637030e-001 2.832895e-001 -2.275793e-001 -2.396397e-001 -9.098605e-002 -2.829897e-001
<VARIANCE> 39
 1.311942e+001 7.667155e+001 1.649723e+001 1.985566e+001 4.990942e+000 3.911308e+001 1.003887e+001 2.059182e+001 1.707004e+001 1.054174e+001 5.931903e+000 1.281195e+001 8.479844e+001 1.268992e-001 4.986167e-001 3.380935e-001 3.844082e-001 2.863200e-001 2.456412e+000 1.294603e+000 1.396562e+000 5.854506e-001 1.032108e+000 7.028031e-001 1.594406e+000 1.191670e+000 2.608650e-002 1.786570e-001 7.098997e-002 1.167557e-001 3.007717e-002 2.447208e-001 1.422514e-001 1.438751e-001 9.795862e-002 9.958956e-002 6.795042e-002 3.339946e-001 4.090011e-001
<GCONST> 7.590488e+001
<TRANSP> 5
 0.000000e+000 1.000000e+000 0.000000e+000 0.000000e+000 0.000000e+000
 0.000000e+000 3.996166e-001 6.003835e-001 0.000000e+000 0.000000e+000
 0.000000e+000 0.000000e+000 3.570543e-001 6.429456e-001 0.000000e+000
 0.000000e+000 0.000000e+000 0.000000e+000 7.639937e-001 2.360063e-001
 0.000000e+000 0.000000e+000 0.000000e+000 0.000000e+000 0.000000e+000
<ENDHMM>
~h "u"
<BEGINHMM>
<NUMSTATES> 5
<STATE> 2
<MEAN> 39
 -3.027556e+000 -1.874887e+001 -8.373399e+000 -2.084331e+001 6.028872e+000 -1.437244e+000 3.907641e-001 -6.314554e+000 -5.403306e+000 3.171801e+000 -4.620138e+000 -1.524326e+001 7.644049e+001 1.187633e+000 2.721286e+000 -9.981809e-001 -8.610975e-001 -1.531692e+000 -3.306648e-001 -1.820850e-001 -4.807633e-001 -1.492065e+000 1.767745e+000 5.990134e-001 9.038160e-002 -1.454517e+000 1.819275e-001 4.040596e-001 1.075113e-001 5.950121e-001 -1.596207e-001 -3.844763e-001 -1.185081e-002 6.879352e-001 -3.969842e-001 3.370788e-002 -2.229179e-001 1.133151e+000 -5.637043e-001
<VARIANCE> 39
 2.203225e+000 9.313712e+000 1.141967e+000 1.472036e+000 2.387324e+000 6.690615e-001 4.644624e-001 2.342992e+000 2.274567e+000 7.138702e+000 1.178266e+000 4.523561e+000 2.034614e+000 1.554956e-001 5.313118e-001 5.325874e-002 3.607553e-001 1.037745e-001 4.356807e-001 2.923816e-002 4.839286e-001 1.377367e+000 3.060163e-001 8.126350e-002 4.067131e+000 4.140661e-001 3.643420e-002 1.601125e-001 4.630143e-002 1.303374e-001 1.517927e-001 3.134952e-002 7.837076e-003 5.528177e-002 1.275858e-001 2.122240e-001 1.214819e-001 2.790354e-001 3.070432e-002
<GCONST> 3.046570e+001
<STATE> 3
<MEAN> 39
 1.051007e+000 -9.469622e+000 -1.136024e+001 -2.177517e+001 1.028964e+000 -3.228450e+000 -4.505122e-001 -6.580401e+000 -1.239180e+001 8.904802e+000 -3.044115e+000 -9.424616e+000 7.087472e+001 1.330280e+000 2.838337e+000 -4.776190e-002 1.714695e+000 -7.872737e-001 -1.589382e+000 -5.717993e-001 1.869640e+000 -2.239131e+000 8.998423e-001 -7.526513e-001 3.008681e+000 -3.374808e+000 -5.510900e-001 -1.013243e+000 3.932262e-001 1.327160e+000 8.137621e-001 6.466231e-001 1.167232e-001 1.374394e+000 1.119209e+000 -1.335659e+000 -1.062205e+000 -1.132979e+000 -5.735331e-001
<VARIANCE> 39
 6.252062e-001 5.361284e+000 2.319657e+000 1.044564e+000 2.469973e+000 6.313114e+000 1.043209e+000 1.517359e+000 1.070645e+001 3.884728e-001 4.429239e-001 4.833309e+000 3.875687e+000 2.461547e-001 7.281801e-001 1.006126e-001 1.240710e+000 6.086817e-001 5.756959e-001 1.448137e-001 1.141533e+000 1.674145e+000 1.471335e+000 7.840285e-001 2.096605e+000 2.797635e-001 3.609872e-002 1.199774e-001 8.390358e-003 2.772553e-002 2.872201e-002 2.329565e-001 1.288517e-002 3.662747e-002 2.844197e-001 4.978343e-002 1.426296e-002 6.431261e-001 4.744232e-002
<GCONST> 3.552460e+001
<STATE> 4
<MEAN> 39
 1.532259e+000 -7.985170e+000 -9.224882e+000 -1.267981e+001 2.984808e+000 -4.243659e+000 -7.877179e-001 3.514998e+000 -1.114951e+001 4.991618e+000 -9.321717e+000 -9.284462e+000 6.141101e+001 -6.979424e-001 -6.897394e-001 3.073272e-001 4.061439e+000 1.157520e+000 2.275591e+000 3.728590e-001 4.689911e+000 2.181389e+000 -2.743054e+000 -3.104119e+000 -3.220199e+000 -3.553075e+000 -5.535201e-001 -9.682488e-001 -2.222151e-002 3.253286e-001 4.352903e-001 1.202443e+000 2.763212e-001 4.334265e-001 1.156050e+000 -7.806612e-001 -3.784246e-001 -1.724795e+000 2.731736e-001
<VARIANCE> 39
 3.882880e+000 5.391550e+000 9.833491e-001 3.243474e+001 6.205988e+000 3.083600e+001 9.988510e+000 4.537169e+001 2.763003e+001 2.157291e+001 1.949884e+001 6.026715e+001 1.780600e+001 2.323702e-001 7.774051e-001 7.995354e-002 2.498194e-001 1.255906e-001 1.597823e+000 1.199249e-001 3.433622e-001 9.770192e-001 1.702257e-001 7.740910e-002 2.476459e+000 5.078137e-001 4.792475e-002 1.491465e-001 1.552190e-002 2.111837e-001 9.105176e-002 1.168147e-001 7.751252e-003 2.406987e-001 2.983471e-001 2.586002e-001 1.479848e-001 3.956037e-001 4.409159e-002
<GCONST> 6.133624e+001
<TRANSP> 5
 0.000000e+000 1.000000e+000 0.000000e+000 0.000000e+000 0.000000e+000
 0.000000e+000 7.246145e-001 2.753855e-001 0.000000e+000 0.000000e+000
 0.000000e+000 0.000000e+000 3.641635e-001 6.358365e-001 0.000000e+000
 0.000000e+000 0.000000e+000 0.000000e+000 6.439724e-001 3.560276e-001
 0.000000e+000 0.000000e+000 0.000000e+000 0.000000e+000 0.000000e+000
<ENDHMM>
~h "y"
<BEGINHMM>
<NUMSTATES> 5
<STATE> 2
<MEAN> 39
 -4.567753e+000 -7.143067e+000 -2.541086e-002 -1.135347e+001 -1.687831e+000 -1.954881e+000 -2.646961e+000 -2.072761e+000 -2.789703e+000 -2.519353e+000 -6.155596e+000 -5.577165e+000 7.077073e+001 1.284684e-001 3.519998e-002 5.042017e-002 -1.919170e-002 3.023124e-002 1.526818e-001 1.134414e-001 2.059520e-001 -9.232968e-004 -1.269177e-001 -8.922511e-002 -2.744853e-002 -7.531010e-002 5.912672e-003 1.712719e-002 -1.400904e-002 4.067212e-002 1.142783e-002 6.040929e-002 -2.948085e-002 1.259365e-002 -2.109511e-002 -7.946315e-003 -1.983920e-002 -3.233210e-002 -9.618374e-002
<VARIANCE> 39
 3.415611e+001 7.917472e+001 6.772413e+001 1.044564e+002 6.616837e+001 6.690615e+001 4.644624e+001 6.430594e+001 6.305968e+001 3.884728e+001 4.429239e+001 2.991177e+001 1.093573e+002 1.494153e+000 2.442461e+000 2.803278e+000 3.689717e+000 2.789096e+000 2.684588e+000 2.923815e+000 2.980957e+000 2.440595e+000 2.124268e+000 2.570347e+000 2.055594e+000 4.928689e+000 2.082175e-001 2.880168e-001 3.830723e-001 4.453130e-001 4.567120e-001 3.917358e-001 5.017791e-001 4.192902e-001 3.397919e-001 3.803485e-001 4.509306e-001 4.006631e-001 4.068455e-001
<GCONST> 1.247249e+002
<STATE> 3
<MEAN> 39
 -4.567753e+000 -7.143067e+000 -2.541086e-002 -1.135347e+001 -1.687831e+000 -1.954881e+000 -2.646961e+000 -2.072761e+000 -2.789703e+000 -2.519353e+000 -6.155596e+000 -5.577165e+000 7.077073e+001 1.284684e-001 3.519998e-002 5.042017e-002 -1.919170e-002 3.023124e-002 1.526818e-001 1.134414e-001 2.059520e-001 -9.232968e-004 -1.269177e-001 -8.922511e-002 -2.744853e-002 -7.531010e-002 5.912672e-003 1.712719e-002 -1.400904e-002 4.067212e-002 1.142783e-002 6.040929e-002 -2.948085e-002 1.259365e-002 -2.109511e-002 -7.946315e-003 -1.983920e-002 -3.233210e-002 -9.618374e-002
<VARIANCE> 39
 3.415611e+001 7.917472e+001 6.772413e+001 1.044564e+002 6.616837e+001 6.690615e+001 4.644624e+001 6.430594e+001 6.305968e+001 3.884728e+001 4.429239e+001 2.991177e+001 1.093573e+002 1.494153e+000 2.442461e+000 2.803278e+000 3.689717e+000 2.789096e+000 2.684588e+000 2.923815e+000 2.980957e+000 2.440595e+000 2.124268e+000 2.570347e+000 2.055594e+000 4.928689e+000 2.082175e-001 2.880168e-001 3.830723e-001 4.453130e-001 4.567120e-001 3.917358e-001 5.017791e-001 4.192902e-001 3.397919e-001 3.803485e-001 4.509306e-001 4.006631e-001 4.068455e-001
<GCONST> 1.247249e+002
<STATE> 4
<MEAN> 39
 -4.567753e+000 -7.143067e+000 -2.541086e-002 -1.135347e+001 -1.687831e+000 -1.954881e+000 -2.646961e+000 -2.072761e+000 -2.789703e+000 -2.519353e+000 -6.155596e+000 -5.577165e+000 7.077073e+001 1.284684e-001 3.519998e-002 5.042017e-002 -1.919170e-002 3.023124e-002 1.526818e-001 1.134414e-001 2.059520e-001 -9.232968e-004 -1.269177e-001 -8.922511e-002 -2.744853e-002 -7.531010e-002 5.912672e-003 1.712719e-002 -1.400904e-002 4.067212e-002 1.142783e-002 6.040929e-002 -2.948085e-002 1.259365e-002 -2.109511e-002 -7.946315e-003 -1.983920e-002 -3.233210e-002 -9.618374e-002
<VARIANCE> 39
 3.415611e+001 7.917472e+001 6.772413e+001 1.044564e+002 6.616837e+001 6.690615e+001 4.644624e+001 6.430594e+001 6.305968e+001 3.884728e+001 4.429239e+001 2.991177e+001 1.093573e+002 1.494153e+000 2.442461e+000 2.803278e+000 3.689717e+000 2.789096e+000 2.684588e+000 2.923815e+000 2.980957e+000 2.440595e+000 2.124268e+000 2.570347e+000 2.055594e+000 4.928689e+000 2.082175e-001 2.880168e-001 3.830723e-001 4.453130e-001 4.567120e-001 3.917358e-001 5.017791e-001 4.192902e-001 3.397919e-001 3.803485e-001 4.509306e-001 4.006631e-001 4.068455e-001
<GCONST> 1.247249e+002
<TRANSP> 5
 0.000000e+000 1.000000e+000 0.000000e+000 0.000000e+000 0.000000e+000
 0.000000e+000 6.000000e-001 4.000000e-001 0.000000e+000 0.000000e+000
 0.000000e+000 0.000000e+000 6.000000e-001 4.000000e-001 0.000000e+000
 0.000000e+000 0.000000e+000 0.000000e+000 7.000000e-001 3.000000e-001
 0.000000e+000 0.000000e+000 0.000000e+000 0.000000e+000 0.000000e+000
<ENDHMM>
~h "ar"
<BEGINHMM>
<NUMSTATES> 5
<STATE> 2
<MEAN> 39
 -4.567753e+000 -7.143067e+000 -2.541086e-002 -1.135347e+001 -1.687831e+000 -1.954881e+000 -2.646961e+000 -2.072761e+000 -2.789703e+000 -2.519353e+000 -6.155596e+000 -5.577165e+000 7.077073e+001 1.284684e-001 3.519998e-002 5.042017e-002 -1.919170e-002 3.023124e-002 1.526818e-001 1.134414e-001 2.059520e-001 -9.232968e-004 -1.269177e-001 -8.922511e-002 -2.744853e-002 -7.531010e-002 5.912672e-003 1.712719e-002 -1.400904e-002 4.067212e-002 1.142783e-002 6.040929e-002 -2.948085e-002 1.259365e-002 -2.109511e-002 -7.946315e-003 -1.983920e-002 -3.233210e-002 -9.618374e-002
<VARIANCE> 39
 3.415611e+001 7.917472e+001 6.772413e+001 1.044564e+002 6.616837e+001 6.690615e+001 4.644624e+001 6.430594e+001 6.305968e+001 3.884728e+001 4.429239e+001 2.991177e+001 1.093573e+002 1.494153e+000 2.442461e+000 2.803278e+000 3.689717e+000 2.789096e+000 2.684588e+000 2.923815e+000 2.980957e+000 2.440595e+000 2.124268e+000 2.570347e+000 2.055594e+000 4.928689e+000 2.082175e-001 2.880168e-001 3.830723e-001 4.453130e-001 4.567120e-001 3.917358e-001 5.017791e-001 4.192902e-001 3.397919e-001 3.803485e-001 4.509306e-001 4.006631e-001 4.068455e-001
<GCONST> 1.247249e+002
<STATE> 3
<MEAN> 39
 -4.567753e+000 -7.143067e+000 -2.541086e-002 -1.135347e+001 -1.687831e+000 -1.954881e+000 -2.646961e+000 -2.072761e+000 -2.789703e+000 -2.519353e+000 -6.155596e+000 -5.577165e+000 7.077073e+001 1.284684e-001 3.519998e-002 5.042017e-002 -1.919170e-002 3.023124e-002 1.526818e-001 1.134414e-001 2.059520e-001 -9.232968e-004 -1.269177e-001 -8.922511e-002 -2.744853e-002 -7.531010e-002 5.912672e-003 1.712719e-002 -1.400904e-002 4.067212e-002 1.142783e-002 6.040929e-002 -2.948085e-002 1.259365e-002 -2.109511e-002 -7.946315e-003 -1.983920e-002 -3.233210e-002 -9.618374e-002
<VARIANCE> 39
 3.415611e+001 7.917472e+001 6.772413e+001 1.044564e+002 6.616837e+001 6.690615e+001 4.644624e+001 6.430594e+001 6.305968e+001 3.884728e+001 4.429239e+001 2.991177e+001 1.093573e+002 1.494153e+000 2.442461e+000 2.803278e+000 3.689717e+000 2.789096e+000 2.684588e+000 2.923815e+000 2.980957e+000 2.440595e+000 2.124268e+000 2.570347e+000 2.055594e+000 4.928689e+000 2.082175e-001 2.880168e-001 3.830723e-001 4.453130e-001 4.567120e-001 3.917358e-001 5.017791e-001 4.192902e-001 3.397919e-001 3.803485e-001 4.509306e-001 4.006631e-001 4.068455e-001
<GCONST> 1.247249e+002
<STATE> 4
<MEAN> 39
 -4.567753e+000 -7.143067e+000 -2.541086e-002 -1.135347e+001 -1.687831e+000 -1.954881e+000 -2.646961e+000 -2.072761e+000 -2.789703e+000 -2.519353e+000 -6.155596e+000 -5.577165e+000 7.077073e+001 1.284684e-001 3.519998e-002 5.042017e-002 -1.919170e-002 3.023124e-002 1.526818e-001 1.134414e-001 2.059520e-001 -9.232968e-004 -1.269177e-001 -8.922511e-002 -2.744853e-002 -7.531010e-002 5.912672e-003 1.712719e-002 -1.400904e-002 4.067212e-002 1.142783e-002 6.040929e-002 -2.948085e-002 1.259365e-002 -2.109511e-002 -7.946315e-003 -1.983920e-002 -3.233210e-002 -9.618374e-002
<VARIANCE> 39
 3.415611e+001 7.917472e+001 6.772413e+001 1.044564e+002 6.616837e+001 6.690615e+001 4.644624e+001 6.430594e+001 6.305968e+001 3.884728e+001 4.429239e+001 2.991177e+001 1.093573e+002 1.494153e+000 2.442461e+000 2.803278e+000 3.689717e+000 2.789096e+000 2.684588e+000 2.923815e+000 2.980957e+000 2.440595e+000 2.124268e+000 2.570347e+000 2.055594e+000 4.928689e+000 2.082175e-001 2.880168e-001 3.830723e-001 4.453130e-001 4.567120e-001 3.917358e-001 5.017791e-001 4.192902e-001 3.397919e-001 3.803485e-001 4.509306e-001 4.006631e-001 4.068455e-001
<GCONST> 1.247249e+002
<TRANSP> 5
 0.000000e+000 1.000000e+000 0.000000e+000 0.000000e+000 0.000000e+000
 0.000000e+000 6.000000e-001 4.000000e-001 0.000000e+000 0.000000e+000
 0.000000e+000 0.000000e+000 6.000000e-001 4.000000e-001 0.000000e+000
 0.000000e+000 0.000000e+000 0.000000e+000 7.000000e-001 3.000000e-001
 0.000000e+000 0.000000e+000 0.000000e+000 0.000000e+000 0.000000e+000
<ENDHMM>
~h "as"
<BEGINHMM>
<NUMSTATES> 5
<STATE> 2
<MEAN> 39
 -7.244929e+000 -2.291057e+001 -4.196664e+000 -1.459056e+001 1.761779e+000 -6.756677e+000 4.439878e+000 3.369057e+000 -7.622773e+000 -4.250701e+000 -1.093380e+001 -5.689201e+000 7.989561e+001 -3.796827e-001 -1.759893e+000 -5.301486e-001 3.925051e-002 2.263515e+000 2.331234e+000 -1.947293e-001 -1.133145e+000 1.039429e+000 -6.377558e-001 2.461928e-001 9.189423e-002 8.837967e-001 -5.254259e-001 1.314093e+000 3.391222e-001 7.777671e-001 9.837673e-002 -2.070456e-001 3.244253e-001 -4.587964e-001 5.888780e-001 2.020758e-001 8.802348e-001 4.292029e-001 -1.163895e+000
<VARIANCE> 39
 1.501084e+000 7.917472e-001 3.491795e+000 6.440472e+000 1.619967e+001 2.324093e+000 1.984795e+000 9.808344e+000 6.305968e-001 5.864643e+000 4.429239e-001 9.745871e+000 1.093573e+000 7.106216e-002 1.235675e+000 9.704644e-001 1.427812e-001 1.009923e+000 7.507023e-002 1.263989e+000 6.946667e-002 6.521416e-002 8.705427e-002 3.296872e-001 3.232413e-001 4.412381e-001 2.804447e-001 4.947808e-002 5.355682e-003 3.757998e-001 1.568029e-001 1.341244e-002 1.921378e-002 4.216645e-002 7.931144e-002 4.088813e-002 2.261286e-001 1.885342e-001 7.548549e-002
<GCONST> 3.153149e+001
<STATE> 3
<MEAN> 39
 -6.981312e+000 -2.366194e+001 -4.026303e+000 -1.378503e+001 7.549528e+000 -4.304544e+000 2.424593e+000 -4.813002e-001 -2.973152e+000 -2.383970e+000 -8.829900e+000 -4.730714e+000 7.897121e+001 3.705404e-001 -4.302283e-002 -1.812207e-001 -2.736220e-001 8.523816e-001 5.694458e-001 -5.908203e-001 -6.389145e-001 7.565182e-001 4.121960e-001 4.474578e-001 -1.812103e-001 -4.400415e-001 1.486810e-001 3.396015e-001 -2.778027e-004 -2.548899e-002 -3.476475e-001 -1.730384e-001 4.151836e-002 -2.195291e-002 -2.300457e-001 2.080421e-001 6.096633e-002 -2.456019e-001 -3.006569e-001
<VARIANCE> 39
 1.490583e+000 7.917472e-001 1.063454e+000 1.131482e+000 4.181743e+000 1.039517e+000 2.952940e+000 3.348208e+000 3.615216e+000 3.366364e+000 1.543392e+000 4.063928e+000 1.752994e+000 1.585603e-001 1.982161e-001 4.307532e-001 1.851841e-001 9.176025e-001 4.192992e-001 1.665054e-001 4.959659e-001 2.250984e-001 3.706845e-001 2.432441e-001 1.365268e+000 1.738342e-001 2.359505e-002 1.409207e-001 5.559415e-002 1.392752e-001 8.527587e-002 9.863822e-002 6.837492e-002 2.436527e-002 9.012250e-002 7.158437e-002 5.632262e-002 9.324385e-002 8.560967e-002
<GCONST> 3.141829e+001
<STATE> 4
<MEAN> 39
 -2.781234e+000 -2.211772e+001 -5.661886e+000 -1.562604e+001 7.066641e+000 -2.052908e+000 1.388631e+000 -2.847234e+000 -2.435125e+000 8.815712e-001 -7.193876e+000 -8.107275e+000 7.438811e+001 1.087474e+000 1.450054e+000 -6.749755e-002 1.136407e+000 -1.400857e+000 5.178488e-001 -1.947719e-001 -1.526040e+000 -1.751870e+000 1.626282e+000 6.316797e-001 -1.592512e+000 -1.842360e+000 -1.492806e-001 5.394714e-001 1.989847e-001 6.005202e-001 -1.696129e-001 -3.647811e-001 -2.019629e-001 -2.613799e-001 -5.642164e-001 -4.678690e-002 1.799930e-003 1.342341e-001 -2.069483e-001
<VARIANCE> 39
 7.869328e+000 4.972201e+000 7.043244e-001 3.603386e+000 1.911509e+001 2.016521e+000 4.637288e+000 1.362914e+000 5.138631e+000 1.071028e+001 5.867122e-001 5.047173e+000 1.937156e+001 4.170247e-001 4.990949e-001 6.544341e-001 7.339130e+000 1.886670e+000 3.185050e-001 4.695196e-001 3.527123e-001 1.598516e+000 3.056962e-001 7.207355e-002 4.789581e-001 1.510229e+000 1.346560e-001 1.442076e-002 1.274905e-001 5.969751e-001 6.194897e-001 6.406694e-002 2.803231e-001 1.287069e-001 1.210442e-001 2.405498e-001 2.672880e-002 1.005911e-001 6.257603e-002
<GCONST> 5.625565e+001
<TRANSP> 5
 0.000000e+000 1.000000e+000 0.000000e+000 0.000000e+000 0.000000e+000
 0.000000e+000 1.248759e-001 8.751240e-001 0.000000e+000 0.000000e+000
 0.000000e+000 0.000000e+000 8.380097e-001 1.619903e-001 0.000000e+000
 0.000000e+000 0.000000e+000 0.000000e+000 5.560535e-001 4.439466e-001
 0.000000e+000 0.000000e+000 0.000000e+000 0.000000e+000 0.000000e+000
<ENDHMM>
~h "aw"
<BEGINHMM>
<NUMSTATES> 5
<STATE> 2
<MEAN> 39
 -4.567753e+000 -7.143067e+000 -2.541086e-002 -1.135347e+001 -1.687831e+000 -1.954881e+000 -2.646961e+000 -2.072761e+000 -2.789703e+000 -2.519353e+000 -6.155596e+000 -5.577165e+000 7.077073e+001 1.284684e-001 3.519998e-002 5.042017e-002 -1.919170e-002 3.023124e-002 1.526818e-001 1.134414e-001 2.059520e-001 -9.232968e-004 -1.269177e-001 -8.922511e-002 -2.744853e-002 -7.531010e-002 5.912672e-003 1.712719e-002 -1.400904e-002 4.067212e-002 1.142783e-002 6.040929e-002 -2.948085e-002 1.259365e-002 -2.109511e-002 -7.946315e-003 -1.983920e-002 -3.233210e-002 -9.618374e-002
<VARIANCE> 39
 3.415611e+001 7.917472e+001 6.772413e+001 1.044564e+002 6.616837e+001 6.690615e+001 4.644624e+001 6.430594e+001 6.305968e+001 3.884728e+001 4.429239e+001 2.991177e+001 1.093573e+002 1.494153e+000 2.442461e+000 2.803278e+000 3.689717e+000 2.789096e+000 2.684588e+000 2.923815e+000 2.980957e+000 2.440595e+000 2.124268e+000 2.570347e+000 2.055594e+000 4.928689e+000 2.082175e-001 2.880168e-001 3.830723e-001 4.453130e-001 4.567120e-001 3.917358e-001 5.017791e-001 4.192902e-001 3.397919e-001 3.803485e-001 4.509306e-001 4.006631e-001 4.068455e-001
<GCONST> 1.247249e+002
<STATE> 3
<MEAN> 39
 -4.567753e+000 -7.143067e+000 -2.541086e-002 -1.135347e+001 -1.687831e+000 -1.954881e+000 -2.646961e+000 -2.072761e+000 -2.789703e+000 -2.519353e+000 -6.155596e+000 -5.577165e+000 7.077073e+001 1.284684e-001 3.519998e-002 5.042017e-002 -1.919170e-002 3.023124e-002 1.526818e-001 1.134414e-001 2.059520e-001 -9.232968e-004 -1.269177e-001 -8.922511e-002 -2.744853e-002 -7.531010e-002 5.912672e-003 1.712719e-002 -1.400904e-002 4.067212e-002 1.142783e-002 6.040929e-002 -2.948085e-002 1.259365e-002 -2.109511e-002 -7.946315e-003 -1.983920e-002 -3.233210e-002 -9.618374e-002
<VARIANCE> 39
 3.415611e+001 7.917472e+001 6.772413e+001 1.044564e+002 6.616837e+001 6.690615e+001 4.644624e+001 6.430594e+001 6.305968e+001 3.884728e+001 4.429239e+001 2.991177e+001 1.093573e+002 1.494153e+000 2.442461e+000 2.803278e+000 3.689717e+000 2.789096e+000 2.684588e+000 2.923815e+000 2.980957e+000 2.440595e+000 2.124268e+000 2.570347e+000 2.055594e+000 4.928689e+000 2.082175e-001 2.880168e-001 3.830723e-001 4.453130e-001 4.567120e-001 3.917358e-001 5.017791e-001 4.192902e-001 3.397919e-001 3.803485e-001 4.509306e-001 4.006631e-001 4.068455e-001
<GCONST> 1.247249e+002
<STATE> 4
<MEAN> 39
 -4.567753e+000 -7.143067e+000 -2.541086e-002 -1.135347e+001 -1.687831e+000 -1.954881e+000 -2.646961e+000 -2.072761e+000 -2.789703e+000 -2.519353e+000 -6.155596e+000 -5.577165e+000 7.077073e+001 1.284684e-001 3.519998e-002 5.042017e-002 -1.919170e-002 3.023124e-002 1.526818e-001 1.134414e-001 2.059520e-001 -9.232968e-004 -1.269177e-001 -8.922511e-002 -2.744853e-002 -7.531010e-002 5.912672e-003 1.712719e-002 -1.400904e-002 4.067212e-002 1.142783e-002 6.040929e-002 -2.948085e-002 1.259365e-002 -2.109511e-002 -7.946315e-003 -1.983920e-002 -3.233210e-002 -9.618374e-002
<VARIANCE> 39
 3.415611e+001 7.917472e+001 6.772413e+001 1.044564e+002 6.616837e+001 6.690615e+001 4.644624e+001 6.430594e+001 6.305968e+001 3.884728e+001 4.429239e+001 2.991177e+001 1.093573e+002 1.494153e+000 2.442461e+000 2.803278e+000 3.689717e+000 2.789096e+000 2.684588e+000 2.923815e+000 2.980957e+000 2.440595e+000 2.124268e+000 2.570347e+000 2.055594e+000 4.928689e+000 2.082175e-001 2.880168e-001 3.830723e-001 4.453130e-001 4.567120e-001 3.917358e-001 5.017791e-001 4.192902e-001 3.397919e-001 3.803485e-001 4.509306e-001 4.006631e-001 4.068455e-001
<GCONST> 1.247249e+002
<TRANSP> 5
 0.000000e+000 1.000000e+000 0.000000e+000 0.000000e+000 0.000000e+000
 0.000000e+000 6.000000e-001 4.000000e-001 0.000000e+000 0.000000e+000
 0.000000e+000 0.000000e+000 6.000000e-001 4.000000e-001 0.000000e+000
 0.000000e+000 0.000000e+000 0.000000e+000 7.000000e-001 3.000000e-001
 0.000000e+000 0.000000e+000 0.000000e+000 0.000000e+000 0.000000e+000
<ENDHMM>
~h "ch"
<BEGINHMM>
<NUMSTATES> 5
<STATE> 2
<MEAN> 39
 -1.017290e+001 -4.490810e-001 2.451725e+000 -7.548820e+000 -4.154102e+000 -8.279699e+000 -3.452118e+000 -5.443110e+000 -3.428615e+000 2.767891e+000 -7.848929e-001 3.337829e+000 5.130841e+001 -2.054909e+000 7.075758e-001 -1.958468e+000 -6.116946e-001 2.865966e+000 4.361710e-001 3.199420e+000 -6.295882e-001 1.702331e+000 -7.397237e-001 9.209965e-001 5.811033e-001 1.147178e+000 -1.375328e-001 6.250064e-001 8.508841e-001 -1.571746e-002 -8.014063e-001 -4.804740e-002 -2.837268e-002 2.207107e-001 -4.909073e-001 -9.710696e-001 3.649466e-001 -8.519173e-001 1.014925e+000
<VARIANCE> 39
 6.594730e+000 1.874892e+000 2.219036e+001 1.044564e+000 2.071284e+001 6.690615e-001 2.775661e+001 3.330137e+000 1.267348e+001 9.425236e+000 1.373590e+001 6.408808e+000 1.093573e+000 8.882344e-001 2.404584e+000 2.319436e+000 3.359559e-001 6.494039e-001 2.237374e-001 2.793269e+000 4.802074e-001 6.313193e-001 3.394945e+000 6.832561e-001 1.933792e+000 1.496581e+000 3.473208e-001 1.288536e-001 2.153503e+000 9.872973e-002 7.988465e-001 8.515207e-002 1.802465e+000 1.462983e-002 5.823344e-001 1.313939e-001 6.219409e-002 1.491473e-001 2.811760e-001
<GCONST> 7.466125e+001
<STATE> 3
<MEAN> 39
 -1.788166e+001 7.344870e+000 4.386681e+000 -9.670622e+000 5.988994e-001 -6.777391e+000 5.395106e+000 -6.740730e+000 -2.562212e+000 -5.843948e+000 1.907155e+000 -1.391691e+000 6.282687e+001 6.726255e-001 5.629381e-001 6.099183e+000 7.958038e-001 -3.691001e+000 -1.388745e+000 -3.395200e+000 -2.123446e-001 -2.649552e+000 -1.804865e+000 1.383114e+000 -2.320472e+000 5.866554e+000 1.221324e+000 -1.308195e+000 8.043679e-001 2.375655e-001 -1.824531e+000 -4.895016e-001 -2.138845e+000 7.469323e-001 -5.902432e-001 7.809109e-001 1.649958e-001 1.409090e-001 5.211073e-001
<VARIANCE> 39
 1.134923e+001 2.162127e+001 1.227370e+002 1.480688e+001 2.576179e+001 1.491995e+001 4.579030e+001 2.853557e+001 1.257731e+001 9.493546e-001 3.137738e+000 2.960467e+000 2.049938e+001 1.958610e+000 3.220197e+000 2.343060e+000 1.782979e-001 4.263387e+000 1.764856e-001 6.285530e+000 8.029385e-001 9.326132e-001 1.620962e+000 2.513421e-001 2.582207e-001 5.391642e-001 1.713106e-001 2.129834e-001 3.329574e+000 1.864317e-001 8.764442e-001 1.220747e-001 1.344742e+000 1.979136e-001 8.454294e-001 6.649718e-002 6.555283e-003 2.965196e-001 5.356291e-001
<GCONST> 8.781261e+001
<STATE> 4
<MEAN> 39
 -1.072342e+001 -2.986215e-001 1.708999e+001 -7.718721e+000 -1.663164e+001 -1.211653e+001 -1.051150e+001 -1.337495e+000 -8.945670e+000 -5.810521e+000 8.488057e+000 -4.284642e+000 7.856825e+001 1.549038e+000 -2.137276e+000 -1.438284e-001 -3.735741e-001 -2.886821e+000 -1.090555e+000 -2.451274e+000 2.575919e+000 4.698561e-001 2.358104e-001 1.001522e+000 3.706461e-001 3.136642e+000 -1.034056e-001 9.424589e-002 -1.804525e+000 -2.141847e-001 1.550457e+000 1.429635e-001 1.257095e+000 -4.404974e-002 1.134250e+000 1.774326e-001 -9.041270e-001 8.806136e-001 -1.437311e+000
<VARIANCE> 39
 6.573902e-001 3.295976e+000 6.826905e+000 1.101289e+000 1.051993e+001 2.715658e+000 4.561429e+000 1.545971e+001 6.025994e+000 4.898139e-001 2.796529e+000 1.323526e+000 1.094025e+001 3.754825e-001 9.617619e-001 8.297021e+000 5.389383e-001 7.321732e+000 2.613615e-001 5.205304e+000 1.134717e+000 3.752467e+000 3.133892e-002 1.903670e+000 1.112158e+000 4.028884e+000 5.103502e-002 4.038869e-001 9.380515e-001 1.166639e-001 5.867845e-001 7.143616e-003 3.838674e-001 6.531687e-001 3.444601e-001 1.367735e-001 2.855724e-001 5.215966e-002 8.780596e-002
<GCONST> 6.711998e+001
<TRANSP> 5
 0.000000e+000 1.000000e+000 0.000000e+000 0.000000e+000 0.000000e+000
 0.000000e+000 7.465538e-001 2.534462e-001 0.000000e+000 0.000000e+000
 0.000000e+000 0.000000e+000 5.977207e-001 4.022793e-001 0.000000e+000
 0.000000e+000 0.000000e+000 0.000000e+000 6.929124e-001 3.070876e-001
 0.000000e+000 0.000000e+000 0.000000e+000 0.000000e+000 0.000000e+000
<ENDHMM>
~h "is"
<BEGINHMM>
<NUMSTATES> 5
<STATE> 2
<MEAN> 39
 -5.692354e+000 -3.098227e+000 1.058575e+001 -7.710505e+000 -1.247435e+001 -1.441581e+001 -9.420369e+000 1.800085e+000 -2.428056e+000 -6.030351e+000 5.421995e-001 1.505557e+000 7.781224e+001 1.440481e+000 4.046289e-001 -2.800390e-001 1.025443e+000 1.754272e+000 1.157194e+000 8.572541e-001 -9.776738e-001 6.074153e-001 -2.307243e-001 -3.371353e+000 -4.668202e-002 -2.233893e+000 -5.509837e-002 4.969749e-001 4.879100e-001 3.599074e-001 -2.539069e-002 9.158097e-001 1.241415e-001 -8.542459e-001 -2.650459e-001 8.519227e-002 -9.375124e-002 -8.483779e-001 -7.165568e-001
<VARIANCE> 39
 4.945532e+000 2.595083e+000 3.906155e+000 3.453937e+000 1.442458e+001 1.044111e+001 4.952924e+000 4.946140e+000 1.396601e+000 1.277784e+000 4.619348e+001 1.194024e+001 2.116748e+001 5.951900e-002 1.082402e+000 1.718879e+000 6.981544e-001 5.647123e-001 4.965507e+000 1.210165e-001 1.499565e+000 1.074421e+000 9.291043e-002 1.472698e+000 5.590286e+000 2.958873e+000 5.536661e-002 7.963966e-002 2.105387e-001 9.614052e-002 7.622905e-001 3.866342e-001 1.793339e-001 2.768610e-002 2.484877e-001 8.248854e-002 1.296487e+000 5.695996e-001 5.858843e-001
<GCONST> 7.206580e+001
<STATE> 3
<MEAN> 39
 -1.967287e+000 1.524683e+000 1.203258e+001 -2.045439e+000 -1.061123e+001 -1.341867e+000 -7.683221e+000 -9.910903e+000 7.004267e-001 -3.890776e+000 -8.288447e+000 -7.650969e+000 6.686908e+001 -4.549849e-001 7.443276e-002 -2.726595e-001 -5.987390e-002 -5.575286e-001 1.088283e+000 -5.004098e-001 -1.879176e+000 1.564507e+000 9.291469e-001 -2.400438e-001 -1.320134e+000 -1.652779e-001 -2.975754e-001 -4.949988e-001 -2.098695e-001 -5.075116e-001 5.461092e-002 -1.053028e+000 -2.316060e-001 7.511519e-001 1.217176e-001 -1.464023e-001 -5.521289e-003 5.013868e-001 6.960306e-001
<VARIANCE> 39
 3.084160e+000 8.988491e-001 1.201506e+000 2.037523e+000 4.668878e+000 6.857409e+000 2.649995e+000 2.522958e+001 1.148563e+001 6.138066e+000 6.508699e+000 5.294320e+000 3.078440e+000 8.254837e-001 1.094183e+000 3.724085e-001 1.407378e+000 9.056557e-001 5.864213e+000 4.045452e-001 4.458773e+000 6.554506e-001 5.106348e-001 1.997818e+000 1.588500e+000 2.991923e+000 2.694789e-001 6.839529e-002 8.642442e-002 1.663296e-001 4.168223e-001 3.976763e-001 9.126988e-002 5.655437e-001 3.259287e-001 2.846198e-001 9.968700e-001 1.631772e-001 6.327732e-001
<GCONST> 7.520038e+001
<STATE> 4
<MEAN> 39
 -1.614012e+000 -1.794591e+000 8.267264e+000 -3.862222e+000 -8.057504e+000 -6.578667e+000 -1.224301e+001 -1.074933e+001 1.016110e+000 -8.844049e+000 -1.696983e+001 -8.411473e+000 6.499888e+001 4.574674e-001 -5.766114e-002 -5.606937e-001 4.247774e-001 7.347540e-001 7.343341e-002 1.646563e-001 5.298721e-001 -1.016898e+000 -1.846841e+000 -1.637142e+000 -7.763805e-002 -1.035894e+000 -1.318739e-002 1.475590e-001 6.459285e-002 2.346971e-001 6.174425e-002 2.430931e-001 2.223731e-001 8.360381e-002 -2.229180e-001 -2.320972e-001 3.965885e-002 3.041838e-002 -1.519269e-001
<VARIANCE> 39
 5.083272e+000 1.496559e+000 8.388190e+000 2.790246e+000 3.712054e+000 1.615612e+001 8.291516e+000 7.709980e+000 1.645318e+001 2.315969e+001 1.682300e+001 4.831298e+000 1.147449e+001 3.533864e-001 4.063168e-001 6.817434e-001 6.690289e-001 2.860065e-001 3.505202e+000 2.888496e+000 3.100762e+000 1.050615e+000 1.087827e+000 1.907403e+000 6.761192e-001 3.013632e-001 1.252064e-001 3.109477e-002 1.777287e-001 7.826441e-002 6.189840e-002 4.879216e-001 4.458199e-001 7.214696e-001 2.398539e-001 2.503861e-001 5.468474e-001 1.645466e-001 7.166586e-002
<GCONST> 7.423516e+001
<TRANSP> 5
 0.000000e+000 1.000000e+000 0.000000e+000 0.000000e+000 0.000000e+000
 0.000000e+000 7.977501e-001 2.022499e-001 0.000000e+000 0.000000e+000
 0.000000e+000 0.000000e+000 7.846076e-001 2.153924e-001 0.000000e+000
 0.000000e+000 0.000000e+000 0.000000e+000 8.941416e-001 1.058584e-001
 0.000000e+000 0.000000e+000 0.000000e+000 0.000000e+000 0.000000e+000
<ENDHMM>
~h "kh"
<BEGINHMM>
<NUMSTATES> 5
<STATE> 2
<MEAN> 39
 -1.596626e+001 -3.998108e+000 -1.143293e+001 4.253848e+000 1.010187e+001 -2.582379e+000 -8.136779e+000 4.065004e+000 9.738082e+000 -2.140313e+000 -3.842127e-001 -6.691772e+000 5.679476e+001 8.040204e-002 -9.215656e-001 3.830668e-001 1.357446e-001 1.237060e+000 9.323322e-001 -4.134733e-001 -8.978986e-001 3.866880e-001 3.021596e-001 1.583339e+000 -4.228725e-001 1.469146e+000 4.522552e-001 1.996565e-002 4.640644e-002 -8.392706e-002 1.026198e-001 4.374512e-001 6.538727e-001 1.973910e-001 -4.443327e-001 1.031688e-001 -1.002929e+000 -3.012838e-002 1.304872e-001
<VARIANCE> 39
 2.089108e+000 3.593575e+000 2.493957e+000 9.013770e+000 6.192914e+000 3.911957e+000 1.063108e+001 1.031930e+001 2.491165e+000 2.865536e+000 1.795642e+001 1.316902e+000 4.184662e+000 6.794153e-001 2.442461e-002 1.238158e-001 2.024978e-001 1.980077e-001 1.261272e+000 2.937007e-001 2.344059e-001 5.958804e-001 1.586006e-001 2.639075e+000 6.031536e-002 1.532117e-001 1.795008e-002 8.618961e-003 3.830723e-003 1.772236e-002 7.256638e-002 1.581559e-001 2.616647e-001 1.417554e-002 2.578125e-002 3.085273e-002 1.821535e-001 1.820051e-002 3.176813e-002
<GCONST> 2.859938e+001
<STATE> 3
<MEAN> 39
 -1.315014e+001 -6.534686e+000 -1.110500e+001 2.798239e+000 1.416384e+001 4.595965e+000 -4.621654e+000 3.544114e+000 8.159367e+000 -1.771649e+000 -1.495502e+000 -7.608560e+000 6.218002e+001 1.140770e+000 -6.219139e-001 9.798211e-001 -4.627779e-001 2.827311e-001 2.691763e-001 3.480273e+000 -9.842138e-001 -1.067043e+000 -1.220133e-001 -1.896277e+000 -1.398695e-001 1.206450e+000 7.680569e-001 -5.828327e-001 3.347633e-001 -8.856348e-001 -1.215390e+000 -1.037480e+000 7.052204e-002 -3.151536e-001 -7.870803e-001 -1.710964e-001 -4.272353e-002 -5.121009e-001 4.230281e-001
<VARIANCE> 39
 3.415611e-001 7.917472e-001 2.601569e+000 5.016643e+000 1.908931e+000 6.185847e+000 1.007714e+001 8.156755e+000 6.305968e-001 1.837560e+000 2.225647e+000 1.296373e+000 1.093573e+000 4.480432e-001 2.697174e-001 2.803278e-002 2.944596e-001 9.437117e-001 2.653758e+000 4.720714e-001 3.684182e-001 5.238152e-001 1.626898e-001 1.283690e-001 2.835978e-001 2.594348e-001 6.233956e-002 1.574539e-001 1.419851e-002 1.687625e-001 6.955367e-002 3.599430e-002 3.927239e-001 3.718344e-002 8.363714e-003 4.052985e-003 2.066592e-001 8.512050e-002 1.362802e-001
<GCONST> 2.904668e+001
<STATE> 4
<MEAN> 39
 -1.181028e+001 -8.008157e+000 -6.523085e+000 3.357147e+000 1.333606e+001 -6.708539e-001 4.980519e+000 -5.151875e-001 7.304124e+000 6.256828e-002 -5.443738e+000 -8.271862e+000 6.279628e+001 4.229425e+000 -3.262506e+000 1.647671e+000 -3.841459e+000 -3.317508e+000 -1.519397e+000 5.471544e-001 -1.416805e+000 -3.765371e+000 -2.386241e-001 -4.217906e-001 -2.658033e+000 3.704788e+000 8.998281e-001 -1.186248e+000 -1.532070e-001 -1.205576e+000 -8.462368e-001 1.939577e-001 -1.441242e+000 4.262426e-001 -5.548974e-001 -2.692824e-001 6.903064e-001 -5.340911e-001 1.040922e+000
<VARIANCE> 39
 1.524805e+000 1.740225e+000 6.772413e-001 5.455608e+000 9.760281e-001 1.020450e+001 2.507311e+000 1.753231e+000 3.589004e+000 7.737181e+000 6.736637e-001 6.480580e-001 1.223097e+000 7.557229e-001 1.224932e+000 3.163408e-002 2.142908e+000 7.276495e-001 4.231097e-001 5.868932e-001 6.725913e-001 1.529243e-001 2.124268e-002 8.036235e-002 3.823165e-001 1.077551e+000 6.198571e-002 3.466536e-002 2.786408e-002 9.710701e-002 1.771849e-001 3.324186e-001 1.773480e-002 3.163526e-002 7.883607e-002 2.090279e-002 4.509306e-003 1.107706e-001 2.354177e-002
<GCONST> 2.629002e+001
<TRANSP> 5
 0.000000e+000 1.000000e+000 0.000000e+000 0.000000e+000 0.000000e+000
 0.000000e+000 7.499897e-001 2.500103e-001 0.000000e+000 0.000000e+000
 0.000000e+000 0.000000e+000 5.387211e-001 4.612789e-001 0.000000e+000
 0.000000e+000 0.000000e+000 0.000000e+000 4.581309e-001 5.418691e-001
 0.000000e+000 0.000000e+000 0.000000e+000 0.000000e+000 0.000000e+000
<ENDHMM>
~h "ng"
<BEGINHMM>
<NUMSTATES> 5
<STATE> 2
<MEAN> 39
 7.641429e+000 -1.683130e+001 -6.740311e+000 -2.170691e+001 -1.064669e+001 9.532862e+000 2.835900e+000 4.894144e+000 -1.600564e+001 -8.585133e+000 -3.343210e+000 -1.855506e+001 7.460365e+001 -4.612798e-003 2.919782e+000 2.549410e+000 -8.519214e-002 -2.576672e+000 -6.103167e-002 -2.152009e+000 1.506431e+000 6.296898e-001 9.600933e-001 -2.722672e+000 6.270257e-001 -1.526518e+000 -4.902738e-001 1.786835e-001 7.844425e-001 8.748733e-001 1.031870e+000 6.839873e-002 -1.542168e+000 -6.475405e-001 4.047312e-001 -3.245429e-001 -1.139527e-001 1.183032e+000 -6.678728e-002
<VARIANCE> 39
 9.783341e-001 5.544941e+000 6.602806e+000 2.673131e+000 2.408326e+001 1.629068e+000 3.595198e+000 9.255135e+000 4.141771e+000 2.850220e+000 2.004340e+001 3.580542e+000 2.700410e+000 3.425840e-001 9.289923e-002 1.312168e+000 1.508330e+000 2.427685e+000 5.676279e-002 2.933800e+000 1.664905e+000 6.792562e-001 7.443419e-001 5.984377e-002 2.570436e+000 4.928688e-002 1.514145e-002 5.547132e-002 5.388166e-002 5.733230e-002 9.036207e-001 5.934091e-002 5.879629e-002 1.543805e-001 2.029401e-001 1.665510e-001 5.390444e-001 6.940484e-002 1.253874e-002
<GCONST> 5.088199e+001
<STATE> 3
<MEAN> 39
 5.267167e+000 -1.007532e+001 2.803682e+000 -1.715227e+001 -1.024483e+001 8.908129e+000 -7.665765e+000 2.523412e+000 -1.240927e+001 -7.585775e+000 -8.173544e+000 -1.153621e+001 7.111147e+001 -1.240956e+000 2.573534e+000 3.565920e+000 1.302200e+000 2.675449e+000 1.098042e+000 -5.524062e+000 -2.943213e-001 -1.073416e-001 -1.248288e+000 -7.141680e-001 2.676571e+000 -1.329322e+000 -8.361363e-002 -3.539249e-001 -4.125385e-001 -4.202958e-001 1.173268e+000 9.816507e-002 5.696398e-002 2.949675e-001 -7.362536e-001 -6.658130e-001 1.015279e+000 -4.262566e-002 2.263318e-001
<VARIANCE> 39
 1.876257e+000 2.611723e+000 1.140545e+001 6.987889e+000 9.560570e+000 1.719008e+000 1.545187e+001 2.794654e+000 3.335264e+000 2.455151e+001 6.839771e+000 9.006214e+000 1.872327e+000 3.653058e-002 1.391776e-001 1.802337e-001 1.605204e-001 1.821892e+000 2.018939e-001 2.036562e-001 3.315174e-001 9.692025e-001 5.795693e-001 1.611094e+000 1.141450e-001 4.928688e-002 4.699093e-002 6.020231e-003 2.045152e-001 2.075039e-001 4.347732e-001 5.463903e-002 6.126684e-001 2.141736e-001 3.777228e-002 1.199009e-001 9.721127e-003 2.086976e-001 8.065530e-003
<GCONST> 4.204384e+001
<STATE> 4
<MEAN> 39
 3.162998e+000 -4.426047e+000 8.240135e+000 -1.963362e+001 -2.335175e+000 1.119217e+001 -1.827340e+001 7.779088e+000 -1.702883e+001 -1.262475e+001 -6.323578e+000 -7.417876e+000 6.853382e+001 -3.701888e-001 1.282590e+000 7.629378e-001 -7.125983e-001 1.014283e+000 -5.681915e-001 -8.252497e-001 1.565373e+000 -9.408364e-001 -1.140895e+000 6.227511e-001 1.075912e+000 -4.388460e-001 1.783112e-001 -3.094141e-001 -6.139712e-001 -2.515991e-002 -6.898935e-001 -3.732453e-001 1.160444e+000 -2.945765e-002 2.280427e-001 1.767366e-001 -5.917241e-002 -2.879981e-001 2.013788e-001
<VARIANCE> 39
 3.415611e-001 2.404690e+000 8.085582e-001 2.732572e+000 1.175550e+000 4.787494e+000 1.360136e+000 6.458927e+000 2.743998e+000 3.285480e+000 4.430030e+000 2.997951e+000 1.093573e+000 4.328295e-002 1.513828e-001 6.277015e-001 3.410399e-001 1.398605e+000 5.807297e-001 2.764053e+000 3.861932e-001 5.594325e-001 3.053717e-001 3.290796e-001 8.746966e-002 8.299214e-002 1.180375e-002 1.023450e-002 8.701303e-002 1.782701e-001 8.130220e-002 1.021565e-001 3.129261e-001 2.095783e-001 1.059394e-001 2.067942e-002 1.556734e-001 2.440459e-002 9.215686e-003
<GCONST> 2.944647e+001
<TRANSP> 5
 0.000000e+000 1.000000e+000 0.000000e+000 0.000000e+000 0.000000e+000
 0.000000e+000 6.094291e-001 3.905709e-001 0.000000e+000 0.000000e+000
 0.000000e+000 0.000000e+000 5.124267e-001 4.875733e-001 0.000000e+000
 0.000000e+000 0.000000e+000 0.000000e+000 7.519105e-001 2.480895e-001
 0.000000e+000 0.000000e+000 0.000000e+000 0.000000e+000 0.000000e+000
<ENDHMM>
~h "oo"
<BEGINHMM>
<NUMSTATES> 5
<STATE> 2
<MEAN> 39
 3.473011e+000 -2.086630e+001 -4.876438e+000 -1.326713e+001 1.829723e+000 -6.012768e-001 -3.557171e+000 -1.870713e+000 -6.487148e+000 -3.958476e+000 -3.404816e+000 -1.759157e+001 7.815629e+001 3.451839e+000 -4.392829e+000 1.101108e-001 -3.560799e+000 -2.046633e+000 8.227375e-001 -1.033178e+000 3.074204e-001 -2.016539e+000 -1.022975e+000 7.429076e-001 -1.065045e+000 3.978094e+000 -1.006228e+000 5.423394e-001 -5.613284e-001 1.317328e+000 9.663291e-001 7.232702e-001 3.663306e-001 1.263962e-001 1.115077e+000 -1.384544e-001 2.190289e-001 1.208045e+000 -9.979237e-001
<VARIANCE> 39
 6.451364e-001 1.972217e+001 1.092024e+000 4.911351e+000 6.616836e-001 6.690615e-001 1.013707e+000 5.363262e+000 2.207379e+000 1.073701e+000 6.780543e-001 2.991177e-001 9.348964e+000 2.151219e+000 1.018528e+000 2.022156e-001 4.388795e+000 2.034819e+000 7.582155e-001 1.920685e+000 2.980957e-002 3.127498e+000 1.375530e-001 2.570347e-002 2.953549e+000 2.408182e+000 8.951993e-002 3.089970e-001 1.317869e-002 3.018082e-001 5.418257e-002 6.376972e-002 1.329532e-001 1.660583e-001 3.110669e-002 7.029223e-003 4.036936e-002 4.840961e-002 2.898874e-001
<GCONST> 3.947705e+001
<STATE> 3
<MEAN> 39
 5.502444e+000 -2.742386e+001 -7.207735e+000 -1.187968e+001 2.135581e+000 4.206031e+000 -5.264221e-002 -2.142209e+000 -4.994613e+000 -6.406793e+000 -1.488707e+000 -1.234928e+001 8.010636e+001 2.107171e-001 -6.473764e-001 -7.806577e-001 3.123789e-001 -6.831989e-001 1.208021e+000 3.810553e-001 -3.715456e-001 -6.874573e-001 -9.387791e-001 1.354448e-001 9.715217e-001 4.185350e-003 -4.539491e-001 8.381984e-001 -5.192416e-002 8.683416e-002 -1.146690e-001 -1.172148e-001 -3.765734e-002 3.399684e-002 -2.495466e-001 3.832918e-002 -8.841562e-002 -1.889736e-001 -4.901712e-001
<VARIANCE> 39
 5.219051e-001 2.017577e+000 1.454966e+000 1.960707e+000 2.155948e+000 3.149323e+000 2.111183e+000 2.032850e+000 2.569328e+000 1.894654e+000 1.278080e+000 3.904912e+000 1.093573e+000 2.106959e-001 1.143411e+000 5.184323e-002 3.390898e-001 7.326179e-001 9.046242e-002 4.936393e-001 3.535290e-001 9.147314e-001 6.135595e-002 3.658175e-001 7.073522e-001 1.666545e-001 1.306635e-001 4.852047e-002 2.680113e-002 6.159013e-001 2.035846e-001 2.574647e-002 1.502254e-001 5.244745e-002 2.218442e-001 5.097785e-003 1.023057e-001 3.089787e-001 2.625061e-001
<GCONST> 3.264499e+001
<STATE> 4
<MEAN> 39
 5.331465e+000 -2.451415e+001 -9.383764e+000 -1.513010e+001 -2.196270e+000 7.716833e+000 8.932145e-001 -2.514175e+000 -1.188728e+001 -9.879116e+000 2.577173e-001 -1.306874e+001 7.878431e+001 3.232006e-001 1.454051e+000 1.296232e-001 -1.702112e+000 -9.970040e-001 6.288084e-001 7.142763e-001 6.602571e-001 -1.659593e+000 -3.042993e-001 5.079508e-001 -1.167980e+000 -7.297219e-001 1.449938e-001 3.498192e-001 4.267268e-001 -1.442309e-001 -2.701759e-001 -1.213041e-001 -7.045402e-002 4.314179e-001 2.455512e-001 3.408697e-001 -4.090953e-001 -1.878660e-001 -2.240066e-001
<VARIANCE> 39
 8.118051e-001 4.190572e+000 1.207302e+000 9.571382e+000 2.203706e+000 1.238406e+000 3.091232e+000 1.703001e+000 7.515600e+000 2.075485e+000 4.954225e+000 3.674896e+000 1.175987e+000 2.079585e-001 2.007412e-001 3.515670e-001 3.484105e-001 1.114792e+000 6.544288e-002 2.827756e-001 1.320213e+000 1.009587e-001 2.869397e-001 1.425452e+000 5.448959e-001 1.401278e-001 3.930662e-002 2.618979e-002 2.470941e-002 2.115637e-001 3.371177e-001 3.917357e-003 2.887574e-001 1.382805e-001 1.222504e-001 3.386761e-002 5.166137e-001 2.076644e-001 4.068455e-003
<GCONST> 3.397958e+001
<TRANSP> 5
 0.000000e+000 1.000000e+000 0.000000e+000 0.000000e+000 0.000000e+000
 0.000000e+000 6.020208e-001 3.979792e-001 0.000000e+000 0.000000e+000
 0.000000e+000 0.000000e+000 7.636378e-001 2.363622e-001 0.000000e+000
 0.000000e+000 0.000000e+000 0.000000e+000 7.826651e-001 2.173349e-001
 0.000000e+000 0.000000e+000 0.000000e+000 0.000000e+000 0.000000e+000
<ENDHMM>
~h "ooj"
<BEGINHMM>
<NUMSTATES> 5
<STATE> 2
<MEAN> 39
 5.143139e+000 -2.747813e+000 -2.442231e+000 -2.262454e+001 4.162927e-001 1.209229e+001 -4.668854e+000 6.032755e+000 -1.260208e+001 4.272433e+000 -2.365838e+000 -6.506793e+000 7.236657e+001 7.506108e-002 1.843299e-001 -1.747259e+000 -2.125320e+000 -1.101317e+000 1.592157e+000 8.231270e-002 2.561673e+000 -4.300879e-001 -1.343974e+000 1.442300e+000 -1.607876e+000 9.433548e-001 -4.429877e-001 3.018539e-001 4.497184e-001 3.204263e-001 1.312683e-001 -2.553843e-001 7.219180e-002 -1.792114e-001 2.258533e-001 -1.046403e-001 -2.842644e-001 1.051319e-001 -4.793605e-001
<VARIANCE> 39
 1.985590e+000 1.580166e+000 7.912245e+000 1.194067e+001 4.249686e+000 1.820138e+001 1.322462e+000 2.051548e+001 4.795828e+000 1.272790e+001 1.352010e+001 1.467292e+001 2.841669e+000 1.521151e+000 5.561781e-001 3.145668e+000 5.261989e-001 2.399777e-001 1.419380e+000 1.356647e-001 9.413411e-001 6.654486e-001 7.181615e-001 7.320884e-001 1.395704e-001 2.366166e-001 1.683032e-001 3.714089e-002 3.058016e-001 2.086667e-001 1.490621e-002 6.305532e-001 5.407147e-002 2.133122e-001 7.020550e-002 1.632096e-001 1.643484e-001 7.111520e-002 1.940873e-001
<GCONST> 6.069102e+001
<STATE> 3
<MEAN> 39
 2.279190e+000 1.496872e+000 -3.468965e+000 -3.141504e+001 -4.111702e+000 1.033984e+001 -2.427994e+000 1.402839e+001 -1.058403e+001 -1.450190e+000 -2.642270e+000 -1.180141e+001 7.360007e+001 -1.642576e-001 1.115356e+000 3.085493e-001 7.404242e-002 -1.385738e+000 -1.722838e+000 4.598892e-001 8.114824e-002 1.134441e+000 4.122198e-001 -1.318494e+000 7.569409e-002 -7.074679e-001 1.837210e-001 1.488838e-001 1.088937e-001 8.719068e-001 -1.649053e-001 2.332536e-002 -1.383126e-001 -5.231889e-001 9.326454e-002 3.409259e-001 -1.344261e-001 2.849485e-001 -4.413444e-001
<VARIANCE> 39
 3.415611e-001 2.607332e+000 8.852496e-001 3.029141e+000 5.879352e+000 1.213693e+001 2.725580e+000 1.215466e+000 6.398852e+000 2.517246e+000 4.973333e+000 5.860575e-001 1.181012e+000 5.979396e-002 2.287407e-001 6.251939e-002 2.792309e+000 1.064744e+000 2.908404e-001 5.656773e-001 8.445663e-001 7.091672e-002 9.852336e-001 1.496693e-001 1.679925e-001 3.416443e-001 2.247692e-002 2.820829e-002 4.519438e-002 8.045033e-002 3.298624e-001 2.758925e-001 1.292009e-001 3.310569e-002 2.537055e-002 2.070744e-001 9.753572e-002 4.598672e-002 4.598046e-002
<GCONST> 3.209512e+001
<STATE> 4
<MEAN> 39
 3.929981e+000 8.392710e+000 5.060499e-001 -1.944732e+001 -8.676916e+000 5.605833e+000 -1.953334e+000 9.236032e+000 -4.587975e+000 5.316190e-002 -8.037594e+000 -8.218553e+000 6.406148e+001 6.549528e-001 7.703514e-001 1.565422e+000 4.673977e+000 1.972724e+000 2.475311e-002 1.076508e+000 -4.689601e-001 1.823046e+000 -1.257851e+000 -2.062010e-001 1.326730e+000 -3.126102e+000 -1.472233e-001 -6.052068e-001 -5.565801e-002 3.503033e-001 9.228216e-001 3.048036e-001 5.156556e-001 5.121425e-001 7.347558e-002 -3.733444e-001 5.092077e-001 -2.120136e-002 1.058301e-001
<VARIANCE> 39
 4.573733e+000 2.679028e+000 1.100343e+001 7.427513e+001 3.501378e+001 2.185129e+000 4.201905e+000 2.578165e+001 6.119403e+000 2.181684e+001 4.209737e+000 1.294462e+001 2.617744e+001 3.280136e-001 9.709475e-001 5.448387e-001 1.821989e+000 6.172401e+000 9.158853e-002 1.328230e+000 3.417833e+000 4.850086e-001 2.197510e+000 5.998080e-001 5.405474e-001 5.268341e-001 1.607618e-001 8.066217e-002 3.603790e-001 6.652852e-001 1.177387e+000 1.881852e-002 1.146314e-001 3.230125e-001 1.081443e-001 7.361473e-001 3.096179e-002 1.972694e-001 4.874639e-001
<GCONST> 7.892973e+001
<TRANSP> 5
 0.000000e+000 1.000000e+000 0.000000e+000 0.000000e+000 0.000000e+000
 0.000000e+000 8.455470e-001 1.544530e-001 0.000000e+000 0.000000e+000
 0.000000e+000 0.000000e+000 8.146214e-001 1.853786e-001 0.000000e+000
 0.000000e+000 0.000000e+000 0.000000e+000 7.611578e-001 2.388422e-001
 0.000000e+000 0.000000e+000 0.000000e+000 0.000000e+000 0.000000e+000
<ENDHMM>
~h "oos"
<BEGINHMM>
<NUMSTATES> 5
<STATE> 2
<MEAN> 39
 -1.035300e+001 -2.196549e+000 -9.729788e+000 -3.533969e+001 -1.270266e+001 8.829407e+000 -1.317349e+001 1.437921e+000 -8.670107e+000 -4.071365e+000 1.330094e+000 -9.336478e+000 8.583903e+001 -2.272334e-001 3.561272e-001 -6.188422e-002 -4.029786e-001 1.117534e-001 -2.620980e-002 -3.573072e-001 7.319894e-001 -2.281504e-001 -3.253356e-001 -1.457957e+000 5.372311e-001 -1.101644e-001 1.766226e-001 9.174021e-002 8.610914e-002 3.937660e-001 -5.830677e-002 -7.925412e-002 6.601004e-002 -1.838563e-002 1.188672e-001 -2.317708e-001 2.921147e-002 9.287541e-002 -2.224231e-001
<VARIANCE> 39
 1.008296e+000 1.277035e+000 9.255584e-001 5.254532e+000 3.990353e+000 2.306261e+000 2.950067e+001 1.491986e+001 4.746837e+000 2.327311e+000 2.514076e+001 7.618324e+000 1.093573e+000 2.148463e-001 5.865082e-002 1.273173e-001 8.778175e-001 1.123006e+000 2.393018e-001 4.801682e+000 1.307383e+000 5.861308e-001 5.572863e-001 6.679225e-001 2.913773e+000 2.536432e-001 7.489571e-003 2.125897e-002 5.398821e-002 1.810656e-001 2.623170e-001 1.286899e-001 1.144083e+000 2.944678e-001 1.301667e-001 6.820637e-002 2.947544e-001 7.186607e-001 5.399814e-002
<GCONST> 5.465321e+001
<STATE> 3
<MEAN> 39
 -9.045400e+000 1.394194e+000 -9.772214e+000 -3.275390e+001 -1.348505e+001 1.032119e+001 -1.365169e+001 7.527775e+000 -7.183772e+000 -9.624059e+000 -4.192668e+000 -3.576982e+000 8.296436e+001 1.125365e+000 7.444444e-001 1.436608e-001 1.926252e+000 -5.890933e-001 -1.026965e+000 2.439204e+000 7.101069e-002 2.107576e+000 -8.346894e-001 -3.495236e-001 2.645639e+000 -1.209581e+000 1.784514e-001 -3.634817e-001 2.834460e-001 6.162104e-002 -1.547955e-001 -1.421234e+000 -1.358205e-002 -6.363056e-001 2.403318e-001 8.527865e-001 -3.335247e-001 -8.790866e-001 -3.916835e-001
<VARIANCE> 39
 1.520794e+000 2.422406e+000 8.811684e-001 5.627159e+000 1.545247e+000 1.753210e+000 7.921977e+000 1.291128e+000 9.788538e+000 2.096155e+000 9.403700e-001 1.695011e+001 1.093573e+000 5.271212e-002 2.068800e-001 8.366762e-002 1.115277e-001 5.123876e-001 3.631317e+000 4.380955e-001 6.124771e-001 5.256377e-001 7.190880e-001 6.922024e-001 1.990507e+000 1.854171e-001 7.954638e-003 8.536275e-002 1.415142e-002 4.684969e-002 1.093101e-001 3.788459e-001 2.065012e-001 7.272664e-002 1.459886e-001 2.024898e-001 1.387385e-001 7.843031e-001 5.689124e-003
<GCONST> 3.865364e+001
<STATE> 4
<MEAN> 39
 -4.103402e+000 -2.198385e-001 -6.108328e+000 -2.645536e+001 -1.347926e+001 -3.666516e+000 -7.495580e+000 1.798743e+000 -1.524246e+000 -4.662481e+000 -7.364873e+000 -4.627934e+000 7.514368e+001 9.926877e-001 -7.114569e-001 1.687571e+000 1.593639e+000 1.490966e+000 -2.895123e+000 9.767254e-001 -1.799273e+000 -1.744651e-001 1.050918e+000 2.286055e-001 -1.061505e+000 -2.325372e+000 -3.080983e-001 -5.759378e-002 2.251535e-001 -9.718745e-002 4.051113e-001 5.044053e-001 -3.230483e-001 -5.499542e-002 -6.671160e-001 -3.719664e-001 4.218221e-001 -7.002724e-002 -2.426400e-002
<VARIANCE> 39
 4.795481e+000 3.319675e+000 1.044495e+001 6.917288e+000 1.274286e+001 4.042175e+001 4.745934e+000 1.199286e+001 2.422275e+000 1.882314e+001 8.920075e+000 1.945653e+001 1.479945e+001 3.117206e-001 2.782253e-001 4.621658e-001 9.176907e-002 1.981585e+000 5.063709e+000 2.368249e-001 3.638918e-001 2.096023e+000 3.385697e+000 2.632282e+000 1.514987e+000 6.874228e-002 1.098823e-001 1.203669e-001 1.197303e-001 2.498237e-002 4.079495e-001 8.375895e-001 9.070163e-003 1.794059e-001 1.471053e-001 8.915164e-001 3.517625e-001 7.566548e-001 8.125655e-002
<GCONST> 7.209895e+001
<TRANSP> 5
 0.000000e+000 1.000000e+000 0.000000e+000 0.000000e+000 0.000000e+000
 0.000000e+000 9.063126e-001 9.368736e-002 0.000000e+000 0.000000e+000
 0.000000e+000 0.000000e+000 5.843812e-001 4.156187e-001 0.000000e+000
 0.000000e+000 0.000000e+000 0.000000e+000 8.016859e-001 1.983141e-001
 0.000000e+000 0.000000e+000 0.000000e+000 0.000000e+000 0.000000e+000
<ENDHMM>
