~h "a"
<BEGINHMM>
<NUMSTATES> 5
<STATE> 2
<MEAN> 39
 -4.567753e+000 -7.143067e+000 -2.541086e-002 -1.135347e+001 -1.687831e+000 -1.954881e+000 -2.646961e+000 -2.072761e+000 -2.789703e+000 -2.519353e+000 -6.155596e+000 -5.577165e+000 7.077073e+001 1.284684e-001 3.519998e-002 5.042017e-002 -1.919170e-002 3.023124e-002 1.526818e-001 1.134414e-001 2.059520e-001 -9.232968e-004 -1.269177e-001 -8.922511e-002 -2.744853e-002 -7.531010e-002 5.912672e-003 1.712719e-002 -1.400904e-002 4.067212e-002 1.142783e-002 6.040929e-002 -2.948085e-002 1.259365e-002 -2.109511e-002 -7.946315e-003 -1.983920e-002 -3.233210e-002 -9.618374e-002
<VARIANCE> 39
 3.415611e+001 7.917472e+001 6.772413e+001 1.044564e+002 6.616837e+001 6.690615e+001 4.644624e+001 6.430594e+001 6.305968e+001 3.884728e+001 4.429239e+001 2.991177e+001 1.093573e+002 1.494153e+000 2.442461e+000 2.803278e+000 3.689717e+000 2.789096e+000 2.684588e+000 2.923815e+000 2.980957e+000 2.440595e+000 2.124268e+000 2.570347e+000 2.055594e+000 4.928689e+000 2.082175e-001 2.880168e-001 3.830723e-001 4.453130e-001 4.567120e-001 3.917358e-001 5.017791e-001 4.192902e-001 3.397919e-001 3.803485e-001 4.509306e-001 4.006631e-001 4.068455e-001
<GCONST> 1.247249e+002
<STATE> 3
<MEAN> 39
 -4.567753e+000 -7.143067e+000 -2.541086e-002 -1.135347e+001 -1.687831e+000 -1.954881e+000 -2.646961e+000 -2.072761e+000 -2.789703e+000 -2.519353e+000 -6.155596e+000 -5.577165e+000 7.077073e+001 1.284684e-001 3.519998e-002 5.042017e-002 -1.919170e-002 3.023124e-002 1.526818e-001 1.134414e-001 2.059520e-001 -9.232968e-004 -1.269177e-001 -8.922511e-002 -2.744853e-002 -7.531010e-002 5.912672e-003 1.712719e-002 -1.400904e-002 4.067212e-002 1.142783e-002 6.040929e-002 -2.948085e-002 1.259365e-002 -2.109511e-002 -7.946315e-003 -1.983920e-002 -3.233210e-002 -9.618374e-002
<VARIANCE> 39
 3.415611e+001 7.917472e+001 6.772413e+001 1.044564e+002 6.616837e+001 6.690615e+001 4.644624e+001 6.430594e+001 6.305968e+001 3.884728e+001 4.429239e+001 2.991177e+001 1.093573e+002 1.494153e+000 2.442461e+000 2.803278e+000 3.689717e+000 2.789096e+000 2.684588e+000 2.923815e+000 2.980957e+000 2.440595e+000 2.124268e+000 2.570347e+000 2.055594e+000 4.928689e+000 2.082175e-001 2.880168e-001 3.830723e-001 4.453130e-001 4.567120e-001 3.917358e-001 5.017791e-001 4.192902e-001 3.397919e-001 3.803485e-001 4.509306e-001 4.006631e-001 4.068455e-001
<GCONST> 1.247249e+002
<STATE> 4
<MEAN> 39
 -4.567753e+000 -7.143067e+000 -2.541086e-002 -1.135347e+001 -1.687831e+000 -1.954881e+000 -2.646961e+000 -2.072761e+000 -2.789703e+000 -2.519353e+000 -6.155596e+000 -5.577165e+000 7.077073e+001 1.284684e-001 3.519998e-002 5.042017e-002 -1.919170e-002 3.023124e-002 1.526818e-001 1.134414e-001 2.059520e-001 -9.232968e-004 -1.269177e-001 -8.922511e-002 -2.744853e-002 -7.531010e-002 5.912672e-003 1.712719e-002 -1.400904e-002 4.067212e-002 1.142783e-002 6.040929e-002 -2.948085e-002 1.259365e-002 -2.109511e-002 -7.946315e-003 -1.983920e-002 -3.233210e-002 -9.618374e-002
<VARIANCE> 39
 3.415611e+001 7.917472e+001 6.772413e+001 1.044564e+002 6.616837e+001 6.690615e+001 4.644624e+001 6.430594e+001 6.305968e+001 3.884728e+001 4.429239e+001 2.991177e+001 1.093573e+002 1.494153e+000 2.442461e+000 2.803278e+000 3.689717e+000 2.789096e+000 2.684588e+000 2.923815e+000 2.980957e+000 2.440595e+000 2.124268e+000 2.570347e+000 2.055594e+000 4.928689e+000 2.082175e-001 2.880168e-001 3.830723e-001 4.453130e-001 4.567120e-001 3.917358e-001 5.017791e-001 4.192902e-001 3.397919e-001 3.803485e-001 4.509306e-001 4.006631e-001 4.068455e-001
<GCONST> 1.247249e+002
<TRANSP> 5
 0.000000e+000 1.000000e+000 0.000000e+000 0.000000e+000 0.000000e+000
 0.000000e+000 6.000000e-001 4.000000e-001 0.000000e+000 0.000000e+000
 0.000000e+000 0.000000e+000 6.000000e-001 4.000000e-001 0.000000e+000
 0.000000e+000 0.000000e+000 0.000000e+000 7.000000e-001 3.000000e-001
 0.000000e+000 0.000000e+000 0.000000e+000 0.000000e+000 0.000000e+000
<ENDHMM>
~h "ar"
<BEGINHMM>
<NUMSTATES> 5
<STATE> 2
<MEAN> 39
 -4.567753e+000 -7.143067e+000 -2.541086e-002 -1.135347e+001 -1.687831e+000 -1.954881e+000 -2.646961e+000 -2.072761e+000 -2.789703e+000 -2.519353e+000 -6.155596e+000 -5.577165e+000 7.077073e+001 1.284684e-001 3.519998e-002 5.042017e-002 -1.919170e-002 3.023124e-002 1.526818e-001 1.134414e-001 2.059520e-001 -9.232968e-004 -1.269177e-001 -8.922511e-002 -2.744853e-002 -7.531010e-002 5.912672e-003 1.712719e-002 -1.400904e-002 4.067212e-002 1.142783e-002 6.040929e-002 -2.948085e-002 1.259365e-002 -2.109511e-002 -7.946315e-003 -1.983920e-002 -3.233210e-002 -9.618374e-002
<VARIANCE> 39
 3.415611e+001 7.917472e+001 6.772413e+001 1.044564e+002 6.616837e+001 6.690615e+001 4.644624e+001 6.430594e+001 6.305968e+001 3.884728e+001 4.429239e+001 2.991177e+001 1.093573e+002 1.494153e+000 2.442461e+000 2.803278e+000 3.689717e+000 2.789096e+000 2.684588e+000 2.923815e+000 2.980957e+000 2.440595e+000 2.124268e+000 2.570347e+000 2.055594e+000 4.928689e+000 2.082175e-001 2.880168e-001 3.830723e-001 4.453130e-001 4.567120e-001 3.917358e-001 5.017791e-001 4.192902e-001 3.397919e-001 3.803485e-001 4.509306e-001 4.006631e-001 4.068455e-001
<GCONST> 1.247249e+002
<STATE> 3
<MEAN> 39
 -4.567753e+000 -7.143067e+000 -2.541086e-002 -1.135347e+001 -1.687831e+000 -1.954881e+000 -2.646961e+000 -2.072761e+000 -2.789703e+000 -2.519353e+000 -6.155596e+000 -5.577165e+000 7.077073e+001 1.284684e-001 3.519998e-002 5.042017e-002 -1.919170e-002 3.023124e-002 1.526818e-001 1.134414e-001 2.059520e-001 -9.232968e-004 -1.269177e-001 -8.922511e-002 -2.744853e-002 -7.531010e-002 5.912672e-003 1.712719e-002 -1.400904e-002 4.067212e-002 1.142783e-002 6.040929e-002 -2.948085e-002 1.259365e-002 -2.109511e-002 -7.946315e-003 -1.983920e-002 -3.233210e-002 -9.618374e-002
<VARIANCE> 39
 3.415611e+001 7.917472e+001 6.772413e+001 1.044564e+002 6.616837e+001 6.690615e+001 4.644624e+001 6.430594e+001 6.305968e+001 3.884728e+001 4.429239e+001 2.991177e+001 1.093573e+002 1.494153e+000 2.442461e+000 2.803278e+000 3.689717e+000 2.789096e+000 2.684588e+000 2.923815e+000 2.980957e+000 2.440595e+000 2.124268e+000 2.570347e+000 2.055594e+000 4.928689e+000 2.082175e-001 2.880168e-001 3.830723e-001 4.453130e-001 4.567120e-001 3.917358e-001 5.017791e-001 4.192902e-001 3.397919e-001 3.803485e-001 4.509306e-001 4.006631e-001 4.068455e-001
<GCONST> 1.247249e+002
<STATE> 4
<MEAN> 39
 -4.567753e+000 -7.143067e+000 -2.541086e-002 -1.135347e+001 -1.687831e+000 -1.954881e+000 -2.646961e+000 -2.072761e+000 -2.789703e+000 -2.519353e+000 -6.155596e+000 -5.577165e+000 7.077073e+001 1.284684e-001 3.519998e-002 5.042017e-002 -1.919170e-002 3.023124e-002 1.526818e-001 1.134414e-001 2.059520e-001 -9.232968e-004 -1.269177e-001 -8.922511e-002 -2.744853e-002 -7.531010e-002 5.912672e-003 1.712719e-002 -1.400904e-002 4.067212e-002 1.142783e-002 6.040929e-002 -2.948085e-002 1.259365e-002 -2.109511e-002 -7.946315e-003 -1.983920e-002 -3.233210e-002 -9.618374e-002
<VARIANCE> 39
 3.415611e+001 7.917472e+001 6.772413e+001 1.044564e+002 6.616837e+001 6.690615e+001 4.644624e+001 6.430594e+001 6.305968e+001 3.884728e+001 4.429239e+001 2.991177e+001 1.093573e+002 1.494153e+000 2.442461e+000 2.803278e+000 3.689717e+000 2.789096e+000 2.684588e+000 2.923815e+000 2.980957e+000 2.440595e+000 2.124268e+000 2.570347e+000 2.055594e+000 4.928689e+000 2.082175e-001 2.880168e-001 3.830723e-001 4.453130e-001 4.567120e-001 3.917358e-001 5.017791e-001 4.192902e-001 3.397919e-001 3.803485e-001 4.509306e-001 4.006631e-001 4.068455e-001
<GCONST> 1.247249e+002
<TRANSP> 5
 0.000000e+000 1.000000e+000 0.000000e+000 0.000000e+000 0.000000e+000
 0.000000e+000 6.000000e-001 4.000000e-001 0.000000e+000 0.000000e+000
 0.000000e+000 0.000000e+000 6.000000e-001 4.000000e-001 0.000000e+000
 0.000000e+000 0.000000e+000 0.000000e+000 7.000000e-001 3.000000e-001
 0.000000e+000 0.000000e+000 0.000000e+000 0.000000e+000 0.000000e+000
<ENDHMM>
~h "as"
<BEGINHMM>
<NUMSTATES> 5
<STATE> 2
<MEAN> 39
 -4.567753e+000 -7.143067e+000 -2.541086e-002 -1.135347e+001 -1.687831e+000 -1.954881e+000 -2.646961e+000 -2.072761e+000 -2.789703e+000 -2.519353e+000 -6.155596e+000 -5.577165e+000 7.077073e+001 1.284684e-001 3.519998e-002 5.042017e-002 -1.919170e-002 3.023124e-002 1.526818e-001 1.134414e-001 2.059520e-001 -9.232968e-004 -1.269177e-001 -8.922511e-002 -2.744853e-002 -7.531010e-002 5.912672e-003 1.712719e-002 -1.400904e-002 4.067212e-002 1.142783e-002 6.040929e-002 -2.948085e-002 1.259365e-002 -2.109511e-002 -7.946315e-003 -1.983920e-002 -3.233210e-002 -9.618374e-002
<VARIANCE> 39
 3.415611e+001 7.917472e+001 6.772413e+001 1.044564e+002 6.616837e+001 6.690615e+001 4.644624e+001 6.430594e+001 6.305968e+001 3.884728e+001 4.429239e+001 2.991177e+001 1.093573e+002 1.494153e+000 2.442461e+000 2.803278e+000 3.689717e+000 2.789096e+000 2.684588e+000 2.923815e+000 2.980957e+000 2.440595e+000 2.124268e+000 2.570347e+000 2.055594e+000 4.928689e+000 2.082175e-001 2.880168e-001 3.830723e-001 4.453130e-001 4.567120e-001 3.917358e-001 5.017791e-001 4.192902e-001 3.397919e-001 3.803485e-001 4.509306e-001 4.006631e-001 4.068455e-001
<GCONST> 1.247249e+002
<STATE> 3
<MEAN> 39
 -4.567753e+000 -7.143067e+000 -2.541086e-002 -1.135347e+001 -1.687831e+000 -1.954881e+000 -2.646961e+000 -2.072761e+000 -2.789703e+000 -2.519353e+000 -6.155596e+000 -5.577165e+000 7.077073e+001 1.284684e-001 3.519998e-002 5.042017e-002 -1.919170e-002 3.023124e-002 1.526818e-001 1.134414e-001 2.059520e-001 -9.232968e-004 -1.269177e-001 -8.922511e-002 -2.744853e-002 -7.531010e-002 5.912672e-003 1.712719e-002 -1.400904e-002 4.067212e-002 1.142783e-002 6.040929e-002 -2.948085e-002 1.259365e-002 -2.109511e-002 -7.946315e-003 -1.983920e-002 -3.233210e-002 -9.618374e-002
<VARIANCE> 39
 3.415611e+001 7.917472e+001 6.772413e+001 1.044564e+002 6.616837e+001 6.690615e+001 4.644624e+001 6.430594e+001 6.305968e+001 3.884728e+001 4.429239e+001 2.991177e+001 1.093573e+002 1.494153e+000 2.442461e+000 2.803278e+000 3.689717e+000 2.789096e+000 2.684588e+000 2.923815e+000 2.980957e+000 2.440595e+000 2.124268e+000 2.570347e+000 2.055594e+000 4.928689e+000 2.082175e-001 2.880168e-001 3.830723e-001 4.453130e-001 4.567120e-001 3.917358e-001 5.017791e-001 4.192902e-001 3.397919e-001 3.803485e-001 4.509306e-001 4.006631e-001 4.068455e-001
<GCONST> 1.247249e+002
<STATE> 4
<MEAN> 39
 -4.567753e+000 -7.143067e+000 -2.541086e-002 -1.135347e+001 -1.687831e+000 -1.954881e+000 -2.646961e+000 -2.072761e+000 -2.789703e+000 -2.519353e+000 -6.155596e+000 -5.577165e+000 7.077073e+001 1.284684e-001 3.519998e-002 5.042017e-002 -1.919170e-002 3.023124e-002 1.526818e-001 1.134414e-001 2.059520e-001 -9.232968e-004 -1.269177e-001 -8.922511e-002 -2.744853e-002 -7.531010e-002 5.912672e-003 1.712719e-002 -1.400904e-002 4.067212e-002 1.142783e-002 6.040929e-002 -2.948085e-002 1.259365e-002 -2.109511e-002 -7.946315e-003 -1.983920e-002 -3.233210e-002 -9.618374e-002
<VARIANCE> 39
 3.415611e+001 7.917472e+001 6.772413e+001 1.044564e+002 6.616837e+001 6.690615e+001 4.644624e+001 6.430594e+001 6.305968e+001 3.884728e+001 4.429239e+001 2.991177e+001 1.093573e+002 1.494153e+000 2.442461e+000 2.803278e+000 3.689717e+000 2.789096e+000 2.684588e+000 2.923815e+000 2.980957e+000 2.440595e+000 2.124268e+000 2.570347e+000 2.055594e+000 4.928689e+000 2.082175e-001 2.880168e-001 3.830723e-001 4.453130e-001 4.567120e-001 3.917358e-001 5.017791e-001 4.192902e-001 3.397919e-001 3.803485e-001 4.509306e-001 4.006631e-001 4.068455e-001
<GCONST> 1.247249e+002
<TRANSP> 5
 0.000000e+000 1.000000e+000 0.000000e+000 0.000000e+000 0.000000e+000
 0.000000e+000 6.000000e-001 4.000000e-001 0.000000e+000 0.000000e+000
 0.000000e+000 0.000000e+000 6.000000e-001 4.000000e-001 0.000000e+000
 0.000000e+000 0.000000e+000 0.000000e+000 7.000000e-001 3.000000e-001
 0.000000e+000 0.000000e+000 0.000000e+000 0.000000e+000 0.000000e+000
<ENDHMM>
~h "aw"
<BEGINHMM>
<NUMSTATES> 5
<STATE> 2
<MEAN> 39
 -4.567753e+000 -7.143067e+000 -2.541086e-002 -1.135347e+001 -1.687831e+000 -1.954881e+000 -2.646961e+000 -2.072761e+000 -2.789703e+000 -2.519353e+000 -6.155596e+000 -5.577165e+000 7.077073e+001 1.284684e-001 3.519998e-002 5.042017e-002 -1.919170e-002 3.023124e-002 1.526818e-001 1.134414e-001 2.059520e-001 -9.232968e-004 -1.269177e-001 -8.922511e-002 -2.744853e-002 -7.531010e-002 5.912672e-003 1.712719e-002 -1.400904e-002 4.067212e-002 1.142783e-002 6.040929e-002 -2.948085e-002 1.259365e-002 -2.109511e-002 -7.946315e-003 -1.983920e-002 -3.233210e-002 -9.618374e-002
<VARIANCE> 39
 3.415611e+001 7.917472e+001 6.772413e+001 1.044564e+002 6.616837e+001 6.690615e+001 4.644624e+001 6.430594e+001 6.305968e+001 3.884728e+001 4.429239e+001 2.991177e+001 1.093573e+002 1.494153e+000 2.442461e+000 2.803278e+000 3.689717e+000 2.789096e+000 2.684588e+000 2.923815e+000 2.980957e+000 2.440595e+000 2.124268e+000 2.570347e+000 2.055594e+000 4.928689e+000 2.082175e-001 2.880168e-001 3.830723e-001 4.453130e-001 4.567120e-001 3.917358e-001 5.017791e-001 4.192902e-001 3.397919e-001 3.803485e-001 4.509306e-001 4.006631e-001 4.068455e-001
<GCONST> 1.247249e+002
<STATE> 3
<MEAN> 39
 -4.567753e+000 -7.143067e+000 -2.541086e-002 -1.135347e+001 -1.687831e+000 -1.954881e+000 -2.646961e+000 -2.072761e+000 -2.789703e+000 -2.519353e+000 -6.155596e+000 -5.577165e+000 7.077073e+001 1.284684e-001 3.519998e-002 5.042017e-002 -1.919170e-002 3.023124e-002 1.526818e-001 1.134414e-001 2.059520e-001 -9.232968e-004 -1.269177e-001 -8.922511e-002 -2.744853e-002 -7.531010e-002 5.912672e-003 1.712719e-002 -1.400904e-002 4.067212e-002 1.142783e-002 6.040929e-002 -2.948085e-002 1.259365e-002 -2.109511e-002 -7.946315e-003 -1.983920e-002 -3.233210e-002 -9.618374e-002
<VARIANCE> 39
 3.415611e+001 7.917472e+001 6.772413e+001 1.044564e+002 6.616837e+001 6.690615e+001 4.644624e+001 6.430594e+001 6.305968e+001 3.884728e+001 4.429239e+001 2.991177e+001 1.093573e+002 1.494153e+000 2.442461e+000 2.803278e+000 3.689717e+000 2.789096e+000 2.684588e+000 2.923815e+000 2.980957e+000 2.440595e+000 2.124268e+000 2.570347e+000 2.055594e+000 4.928689e+000 2.082175e-001 2.880168e-001 3.830723e-001 4.453130e-001 4.567120e-001 3.917358e-001 5.017791e-001 4.192902e-001 3.397919e-001 3.803485e-001 4.509306e-001 4.006631e-001 4.068455e-001
<GCONST> 1.247249e+002
<STATE> 4
<MEAN> 39
 -4.567753e+000 -7.143067e+000 -2.541086e-002 -1.135347e+001 -1.687831e+000 -1.954881e+000 -2.646961e+000 -2.072761e+000 -2.789703e+000 -2.519353e+000 -6.155596e+000 -5.577165e+000 7.077073e+001 1.284684e-001 3.519998e-002 5.042017e-002 -1.919170e-002 3.023124e-002 1.526818e-001 1.134414e-001 2.059520e-001 -9.232968e-004 -1.269177e-001 -8.922511e-002 -2.744853e-002 -7.531010e-002 5.912672e-003 1.712719e-002 -1.400904e-002 4.067212e-002 1.142783e-002 6.040929e-002 -2.948085e-002 1.259365e-002 -2.109511e-002 -7.946315e-003 -1.983920e-002 -3.233210e-002 -9.618374e-002
<VARIANCE> 39
 3.415611e+001 7.917472e+001 6.772413e+001 1.044564e+002 6.616837e+001 6.690615e+001 4.644624e+001 6.430594e+001 6.305968e+001 3.884728e+001 4.429239e+001 2.991177e+001 1.093573e+002 1.494153e+000 2.442461e+000 2.803278e+000 3.689717e+000 2.789096e+000 2.684588e+000 2.923815e+000 2.980957e+000 2.440595e+000 2.124268e+000 2.570347e+000 2.055594e+000 4.928689e+000 2.082175e-001 2.880168e-001 3.830723e-001 4.453130e-001 4.567120e-001 3.917358e-001 5.017791e-001 4.192902e-001 3.397919e-001 3.803485e-001 4.509306e-001 4.006631e-001 4.068455e-001
<GCONST> 1.247249e+002
<TRANSP> 5
 0.000000e+000 1.000000e+000 0.000000e+000 0.000000e+000 0.000000e+000
 0.000000e+000 6.000000e-001 4.000000e-001 0.000000e+000 0.000000e+000
 0.000000e+000 0.000000e+000 6.000000e-001 4.000000e-001 0.000000e+000
 0.000000e+000 0.000000e+000 0.000000e+000 7.000000e-001 3.000000e-001
 0.000000e+000 0.000000e+000 0.000000e+000 0.000000e+000 0.000000e+000
<ENDHMM>
~h "b"
<BEGINHMM>
<NUMSTATES> 5
<STATE> 2
<MEAN> 39
 -4.567753e+000 -7.143067e+000 -2.541086e-002 -1.135347e+001 -1.687831e+000 -1.954881e+000 -2.646961e+000 -2.072761e+000 -2.789703e+000 -2.519353e+000 -6.155596e+000 -5.577165e+000 7.077073e+001 1.284684e-001 3.519998e-002 5.042017e-002 -1.919170e-002 3.023124e-002 1.526818e-001 1.134414e-001 2.059520e-001 -9.232968e-004 -1.269177e-001 -8.922511e-002 -2.744853e-002 -7.531010e-002 5.912672e-003 1.712719e-002 -1.400904e-002 4.067212e-002 1.142783e-002 6.040929e-002 -2.948085e-002 1.259365e-002 -2.109511e-002 -7.946315e-003 -1.983920e-002 -3.233210e-002 -9.618374e-002
<VARIANCE> 39
 3.415611e+001 7.917472e+001 6.772413e+001 1.044564e+002 6.616837e+001 6.690615e+001 4.644624e+001 6.430594e+001 6.305968e+001 3.884728e+001 4.429239e+001 2.991177e+001 1.093573e+002 1.494153e+000 2.442461e+000 2.803278e+000 3.689717e+000 2.789096e+000 2.684588e+000 2.923815e+000 2.980957e+000 2.440595e+000 2.124268e+000 2.570347e+000 2.055594e+000 4.928689e+000 2.082175e-001 2.880168e-001 3.830723e-001 4.453130e-001 4.567120e-001 3.917358e-001 5.017791e-001 4.192902e-001 3.397919e-001 3.803485e-001 4.509306e-001 4.006631e-001 4.068455e-001
<GCONST> 1.247249e+002
<STATE> 3
<MEAN> 39
 -4.567753e+000 -7.143067e+000 -2.541086e-002 -1.135347e+001 -1.687831e+000 -1.954881e+000 -2.646961e+000 -2.072761e+000 -2.789703e+000 -2.519353e+000 -6.155596e+000 -5.577165e+000 7.077073e+001 1.284684e-001 3.519998e-002 5.042017e-002 -1.919170e-002 3.023124e-002 1.526818e-001 1.134414e-001 2.059520e-001 -9.232968e-004 -1.269177e-001 -8.922511e-002 -2.744853e-002 -7.531010e-002 5.912672e-003 1.712719e-002 -1.400904e-002 4.067212e-002 1.142783e-002 6.040929e-002 -2.948085e-002 1.259365e-002 -2.109511e-002 -7.946315e-003 -1.983920e-002 -3.233210e-002 -9.618374e-002
<VARIANCE> 39
 3.415611e+001 7.917472e+001 6.772413e+001 1.044564e+002 6.616837e+001 6.690615e+001 4.644624e+001 6.430594e+001 6.305968e+001 3.884728e+001 4.429239e+001 2.991177e+001 1.093573e+002 1.494153e+000 2.442461e+000 2.803278e+000 3.689717e+000 2.789096e+000 2.684588e+000 2.923815e+000 2.980957e+000 2.440595e+000 2.124268e+000 2.570347e+000 2.055594e+000 4.928689e+000 2.082175e-001 2.880168e-001 3.830723e-001 4.453130e-001 4.567120e-001 3.917358e-001 5.017791e-001 4.192902e-001 3.397919e-001 3.803485e-001 4.509306e-001 4.006631e-001 4.068455e-001
<GCONST> 1.247249e+002
<STATE> 4
<MEAN> 39
 -4.567753e+000 -7.143067e+000 -2.541086e-002 -1.135347e+001 -1.687831e+000 -1.954881e+000 -2.646961e+000 -2.072761e+000 -2.789703e+000 -2.519353e+000 -6.155596e+000 -5.577165e+000 7.077073e+001 1.284684e-001 3.519998e-002 5.042017e-002 -1.919170e-002 3.023124e-002 1.526818e-001 1.134414e-001 2.059520e-001 -9.232968e-004 -1.269177e-001 -8.922511e-002 -2.744853e-002 -7.531010e-002 5.912672e-003 1.712719e-002 -1.400904e-002 4.067212e-002 1.142783e-002 6.040929e-002 -2.948085e-002 1.259365e-002 -2.109511e-002 -7.946315e-003 -1.983920e-002 -3.233210e-002 -9.618374e-002
<VARIANCE> 39
 3.415611e+001 7.917472e+001 6.772413e+001 1.044564e+002 6.616837e+001 6.690615e+001 4.644624e+001 6.430594e+001 6.305968e+001 3.884728e+001 4.429239e+001 2.991177e+001 1.093573e+002 1.494153e+000 2.442461e+000 2.803278e+000 3.689717e+000 2.789096e+000 2.684588e+000 2.923815e+000 2.980957e+000 2.440595e+000 2.124268e+000 2.570347e+000 2.055594e+000 4.928689e+000 2.082175e-001 2.880168e-001 3.830723e-001 4.453130e-001 4.567120e-001 3.917358e-001 5.017791e-001 4.192902e-001 3.397919e-001 3.803485e-001 4.509306e-001 4.006631e-001 4.068455e-001
<GCONST> 1.247249e+002
<TRANSP> 5
 0.000000e+000 1.000000e+000 0.000000e+000 0.000000e+000 0.000000e+000
 0.000000e+000 6.000000e-001 4.000000e-001 0.000000e+000 0.000000e+000
 0.000000e+000 0.000000e+000 6.000000e-001 4.000000e-001 0.000000e+000
 0.000000e+000 0.000000e+000 0.000000e+000 7.000000e-001 3.000000e-001
 0.000000e+000 0.000000e+000 0.000000e+000 0.000000e+000 0.000000e+000
<ENDHMM>
~h "ch"
<BEGINHMM>
<NUMSTATES> 5
<STATE> 2
<MEAN> 39
 -4.567753e+000 -7.143067e+000 -2.541086e-002 -1.135347e+001 -1.687831e+000 -1.954881e+000 -2.646961e+000 -2.072761e+000 -2.789703e+000 -2.519353e+000 -6.155596e+000 -5.577165e+000 7.077073e+001 1.284684e-001 3.519998e-002 5.042017e-002 -1.919170e-002 3.023124e-002 1.526818e-001 1.134414e-001 2.059520e-001 -9.232968e-004 -1.269177e-001 -8.922511e-002 -2.744853e-002 -7.531010e-002 5.912672e-003 1.712719e-002 -1.400904e-002 4.067212e-002 1.142783e-002 6.040929e-002 -2.948085e-002 1.259365e-002 -2.109511e-002 -7.946315e-003 -1.983920e-002 -3.233210e-002 -9.618374e-002
<VARIANCE> 39
 3.415611e+001 7.917472e+001 6.772413e+001 1.044564e+002 6.616837e+001 6.690615e+001 4.644624e+001 6.430594e+001 6.305968e+001 3.884728e+001 4.429239e+001 2.991177e+001 1.093573e+002 1.494153e+000 2.442461e+000 2.803278e+000 3.689717e+000 2.789096e+000 2.684588e+000 2.923815e+000 2.980957e+000 2.440595e+000 2.124268e+000 2.570347e+000 2.055594e+000 4.928689e+000 2.082175e-001 2.880168e-001 3.830723e-001 4.453130e-001 4.567120e-001 3.917358e-001 5.017791e-001 4.192902e-001 3.397919e-001 3.803485e-001 4.509306e-001 4.006631e-001 4.068455e-001
<GCONST> 1.247249e+002
<STATE> 3
<MEAN> 39
 -4.567753e+000 -7.143067e+000 -2.541086e-002 -1.135347e+001 -1.687831e+000 -1.954881e+000 -2.646961e+000 -2.072761e+000 -2.789703e+000 -2.519353e+000 -6.155596e+000 -5.577165e+000 7.077073e+001 1.284684e-001 3.519998e-002 5.042017e-002 -1.919170e-002 3.023124e-002 1.526818e-001 1.134414e-001 2.059520e-001 -9.232968e-004 -1.269177e-001 -8.922511e-002 -2.744853e-002 -7.531010e-002 5.912672e-003 1.712719e-002 -1.400904e-002 4.067212e-002 1.142783e-002 6.040929e-002 -2.948085e-002 1.259365e-002 -2.109511e-002 -7.946315e-003 -1.983920e-002 -3.233210e-002 -9.618374e-002
<VARIANCE> 39
 3.415611e+001 7.917472e+001 6.772413e+001 1.044564e+002 6.616837e+001 6.690615e+001 4.644624e+001 6.430594e+001 6.305968e+001 3.884728e+001 4.429239e+001 2.991177e+001 1.093573e+002 1.494153e+000 2.442461e+000 2.803278e+000 3.689717e+000 2.789096e+000 2.684588e+000 2.923815e+000 2.980957e+000 2.440595e+000 2.124268e+000 2.570347e+000 2.055594e+000 4.928689e+000 2.082175e-001 2.880168e-001 3.830723e-001 4.453130e-001 4.567120e-001 3.917358e-001 5.017791e-001 4.192902e-001 3.397919e-001 3.803485e-001 4.509306e-001 4.006631e-001 4.068455e-001
<GCONST> 1.247249e+002
<STATE> 4
<MEAN> 39
 -4.567753e+000 -7.143067e+000 -2.541086e-002 -1.135347e+001 -1.687831e+000 -1.954881e+000 -2.646961e+000 -2.072761e+000 -2.789703e+000 -2.519353e+000 -6.155596e+000 -5.577165e+000 7.077073e+001 1.284684e-001 3.519998e-002 5.042017e-002 -1.919170e-002 3.023124e-002 1.526818e-001 1.134414e-001 2.059520e-001 -9.232968e-004 -1.269177e-001 -8.922511e-002 -2.744853e-002 -7.531010e-002 5.912672e-003 1.712719e-002 -1.400904e-002 4.067212e-002 1.142783e-002 6.040929e-002 -2.948085e-002 1.259365e-002 -2.109511e-002 -7.946315e-003 -1.983920e-002 -3.233210e-002 -9.618374e-002
<VARIANCE> 39
 3.415611e+001 7.917472e+001 6.772413e+001 1.044564e+002 6.616837e+001 6.690615e+001 4.644624e+001 6.430594e+001 6.305968e+001 3.884728e+001 4.429239e+001 2.991177e+001 1.093573e+002 1.494153e+000 2.442461e+000 2.803278e+000 3.689717e+000 2.789096e+000 2.684588e+000 2.923815e+000 2.980957e+000 2.440595e+000 2.124268e+000 2.570347e+000 2.055594e+000 4.928689e+000 2.082175e-001 2.880168e-001 3.830723e-001 4.453130e-001 4.567120e-001 3.917358e-001 5.017791e-001 4.192902e-001 3.397919e-001 3.803485e-001 4.509306e-001 4.006631e-001 4.068455e-001
<GCONST> 1.247249e+002
<TRANSP> 5
 0.000000e+000 1.000000e+000 0.000000e+000 0.000000e+000 0.000000e+000
 0.000000e+000 6.000000e-001 4.000000e-001 0.000000e+000 0.000000e+000
 0.000000e+000 0.000000e+000 6.000000e-001 4.000000e-001 0.000000e+000
 0.000000e+000 0.000000e+000 0.000000e+000 7.000000e-001 3.000000e-001
 0.000000e+000 0.000000e+000 0.000000e+000 0.000000e+000 0.000000e+000
<ENDHMM>
~h "h"
<BEGINHMM>
<NUMSTATES> 5
<STATE> 2
<MEAN> 39
 -4.567753e+000 -7.143067e+000 -2.541086e-002 -1.135347e+001 -1.687831e+000 -1.954881e+000 -2.646961e+000 -2.072761e+000 -2.789703e+000 -2.519353e+000 -6.155596e+000 -5.577165e+000 7.077073e+001 1.284684e-001 3.519998e-002 5.042017e-002 -1.919170e-002 3.023124e-002 1.526818e-001 1.134414e-001 2.059520e-001 -9.232968e-004 -1.269177e-001 -8.922511e-002 -2.744853e-002 -7.531010e-002 5.912672e-003 1.712719e-002 -1.400904e-002 4.067212e-002 1.142783e-002 6.040929e-002 -2.948085e-002 1.259365e-002 -2.109511e-002 -7.946315e-003 -1.983920e-002 -3.233210e-002 -9.618374e-002
<VARIANCE> 39
 3.415611e+001 7.917472e+001 6.772413e+001 1.044564e+002 6.616837e+001 6.690615e+001 4.644624e+001 6.430594e+001 6.305968e+001 3.884728e+001 4.429239e+001 2.991177e+001 1.093573e+002 1.494153e+000 2.442461e+000 2.803278e+000 3.689717e+000 2.789096e+000 2.684588e+000 2.923815e+000 2.980957e+000 2.440595e+000 2.124268e+000 2.570347e+000 2.055594e+000 4.928689e+000 2.082175e-001 2.880168e-001 3.830723e-001 4.453130e-001 4.567120e-001 3.917358e-001 5.017791e-001 4.192902e-001 3.397919e-001 3.803485e-001 4.509306e-001 4.006631e-001 4.068455e-001
<GCONST> 1.247249e+002
<STATE> 3
<MEAN> 39
 -4.567753e+000 -7.143067e+000 -2.541086e-002 -1.135347e+001 -1.687831e+000 -1.954881e+000 -2.646961e+000 -2.072761e+000 -2.789703e+000 -2.519353e+000 -6.155596e+000 -5.577165e+000 7.077073e+001 1.284684e-001 3.519998e-002 5.042017e-002 -1.919170e-002 3.023124e-002 1.526818e-001 1.134414e-001 2.059520e-001 -9.232968e-004 -1.269177e-001 -8.922511e-002 -2.744853e-002 -7.531010e-002 5.912672e-003 1.712719e-002 -1.400904e-002 4.067212e-002 1.142783e-002 6.040929e-002 -2.948085e-002 1.259365e-002 -2.109511e-002 -7.946315e-003 -1.983920e-002 -3.233210e-002 -9.618374e-002
<VARIANCE> 39
 3.415611e+001 7.917472e+001 6.772413e+001 1.044564e+002 6.616837e+001 6.690615e+001 4.644624e+001 6.430594e+001 6.305968e+001 3.884728e+001 4.429239e+001 2.991177e+001 1.093573e+002 1.494153e+000 2.442461e+000 2.803278e+000 3.689717e+000 2.789096e+000 2.684588e+000 2.923815e+000 2.980957e+000 2.440595e+000 2.124268e+000 2.570347e+000 2.055594e+000 4.928689e+000 2.082175e-001 2.880168e-001 3.830723e-001 4.453130e-001 4.567120e-001 3.917358e-001 5.017791e-001 4.192902e-001 3.397919e-001 3.803485e-001 4.509306e-001 4.006631e-001 4.068455e-001
<GCONST> 1.247249e+002
<STATE> 4
<MEAN> 39
 -4.567753e+000 -7.143067e+000 -2.541086e-002 -1.135347e+001 -1.687831e+000 -1.954881e+000 -2.646961e+000 -2.072761e+000 -2.789703e+000 -2.519353e+000 -6.155596e+000 -5.577165e+000 7.077073e+001 1.284684e-001 3.519998e-002 5.042017e-002 -1.919170e-002 3.023124e-002 1.526818e-001 1.134414e-001 2.059520e-001 -9.232968e-004 -1.269177e-001 -8.922511e-002 -2.744853e-002 -7.531010e-002 5.912672e-003 1.712719e-002 -1.400904e-002 4.067212e-002 1.142783e-002 6.040929e-002 -2.948085e-002 1.259365e-002 -2.109511e-002 -7.946315e-003 -1.983920e-002 -3.233210e-002 -9.618374e-002
<VARIANCE> 39
 3.415611e+001 7.917472e+001 6.772413e+001 1.044564e+002 6.616837e+001 6.690615e+001 4.644624e+001 6.430594e+001 6.305968e+001 3.884728e+001 4.429239e+001 2.991177e+001 1.093573e+002 1.494153e+000 2.442461e+000 2.803278e+000 3.689717e+000 2.789096e+000 2.684588e+000 2.923815e+000 2.980957e+000 2.440595e+000 2.124268e+000 2.570347e+000 2.055594e+000 4.928689e+000 2.082175e-001 2.880168e-001 3.830723e-001 4.453130e-001 4.567120e-001 3.917358e-001 5.017791e-001 4.192902e-001 3.397919e-001 3.803485e-001 4.509306e-001 4.006631e-001 4.068455e-001
<GCONST> 1.247249e+002
<TRANSP> 5
 0.000000e+000 1.000000e+000 0.000000e+000 0.000000e+000 0.000000e+000
 0.000000e+000 6.000000e-001 4.000000e-001 0.000000e+000 0.000000e+000
 0.000000e+000 0.000000e+000 6.000000e-001 4.000000e-001 0.000000e+000
 0.000000e+000 0.000000e+000 0.000000e+000 7.000000e-001 3.000000e-001
 0.000000e+000 0.000000e+000 0.000000e+000 0.000000e+000 0.000000e+000
<ENDHMM>
~h "i"
<BEGINHMM>
<NUMSTATES> 5
<STATE> 2
<MEAN> 39
 -4.567753e+000 -7.143067e+000 -2.541086e-002 -1.135347e+001 -1.687831e+000 -1.954881e+000 -2.646961e+000 -2.072761e+000 -2.789703e+000 -2.519353e+000 -6.155596e+000 -5.577165e+000 7.077073e+001 1.284684e-001 3.519998e-002 5.042017e-002 -1.919170e-002 3.023124e-002 1.526818e-001 1.134414e-001 2.059520e-001 -9.232968e-004 -1.269177e-001 -8.922511e-002 -2.744853e-002 -7.531010e-002 5.912672e-003 1.712719e-002 -1.400904e-002 4.067212e-002 1.142783e-002 6.040929e-002 -2.948085e-002 1.259365e-002 -2.109511e-002 -7.946315e-003 -1.983920e-002 -3.233210e-002 -9.618374e-002
<VARIANCE> 39
 3.415611e+001 7.917472e+001 6.772413e+001 1.044564e+002 6.616837e+001 6.690615e+001 4.644624e+001 6.430594e+001 6.305968e+001 3.884728e+001 4.429239e+001 2.991177e+001 1.093573e+002 1.494153e+000 2.442461e+000 2.803278e+000 3.689717e+000 2.789096e+000 2.684588e+000 2.923815e+000 2.980957e+000 2.440595e+000 2.124268e+000 2.570347e+000 2.055594e+000 4.928689e+000 2.082175e-001 2.880168e-001 3.830723e-001 4.453130e-001 4.567120e-001 3.917358e-001 5.017791e-001 4.192902e-001 3.397919e-001 3.803485e-001 4.509306e-001 4.006631e-001 4.068455e-001
<GCONST> 1.247249e+002
<STATE> 3
<MEAN> 39
 -4.567753e+000 -7.143067e+000 -2.541086e-002 -1.135347e+001 -1.687831e+000 -1.954881e+000 -2.646961e+000 -2.072761e+000 -2.789703e+000 -2.519353e+000 -6.155596e+000 -5.577165e+000 7.077073e+001 1.284684e-001 3.519998e-002 5.042017e-002 -1.919170e-002 3.023124e-002 1.526818e-001 1.134414e-001 2.059520e-001 -9.232968e-004 -1.269177e-001 -8.922511e-002 -2.744853e-002 -7.531010e-002 5.912672e-003 1.712719e-002 -1.400904e-002 4.067212e-002 1.142783e-002 6.040929e-002 -2.948085e-002 1.259365e-002 -2.109511e-002 -7.946315e-003 -1.983920e-002 -3.233210e-002 -9.618374e-002
<VARIANCE> 39
 3.415611e+001 7.917472e+001 6.772413e+001 1.044564e+002 6.616837e+001 6.690615e+001 4.644624e+001 6.430594e+001 6.305968e+001 3.884728e+001 4.429239e+001 2.991177e+001 1.093573e+002 1.494153e+000 2.442461e+000 2.803278e+000 3.689717e+000 2.789096e+000 2.684588e+000 2.923815e+000 2.980957e+000 2.440595e+000 2.124268e+000 2.570347e+000 2.055594e+000 4.928689e+000 2.082175e-001 2.880168e-001 3.830723e-001 4.453130e-001 4.567120e-001 3.917358e-001 5.017791e-001 4.192902e-001 3.397919e-001 3.803485e-001 4.509306e-001 4.006631e-001 4.068455e-001
<GCONST> 1.247249e+002
<STATE> 4
<MEAN> 39
 -4.567753e+000 -7.143067e+000 -2.541086e-002 -1.135347e+001 -1.687831e+000 -1.954881e+000 -2.646961e+000 -2.072761e+000 -2.789703e+000 -2.519353e+000 -6.155596e+000 -5.577165e+000 7.077073e+001 1.284684e-001 3.519998e-002 5.042017e-002 -1.919170e-002 3.023124e-002 1.526818e-001 1.134414e-001 2.059520e-001 -9.232968e-004 -1.269177e-001 -8.922511e-002 -2.744853e-002 -7.531010e-002 5.912672e-003 1.712719e-002 -1.400904e-002 4.067212e-002 1.142783e-002 6.040929e-002 -2.948085e-002 1.259365e-002 -2.109511e-002 -7.946315e-003 -1.983920e-002 -3.233210e-002 -9.618374e-002
<VARIANCE> 39
 3.415611e+001 7.917472e+001 6.772413e+001 1.044564e+002 6.616837e+001 6.690615e+001 4.644624e+001 6.430594e+001 6.305968e+001 3.884728e+001 4.429239e+001 2.991177e+001 1.093573e+002 1.494153e+000 2.442461e+000 2.803278e+000 3.689717e+000 2.789096e+000 2.684588e+000 2.923815e+000 2.980957e+000 2.440595e+000 2.124268e+000 2.570347e+000 2.055594e+000 4.928689e+000 2.082175e-001 2.880168e-001 3.830723e-001 4.453130e-001 4.567120e-001 3.917358e-001 5.017791e-001 4.192902e-001 3.397919e-001 3.803485e-001 4.509306e-001 4.006631e-001 4.068455e-001
<GCONST> 1.247249e+002
<TRANSP> 5
 0.000000e+000 1.000000e+000 0.000000e+000 0.000000e+000 0.000000e+000
 0.000000e+000 6.000000e-001 4.000000e-001 0.000000e+000 0.000000e+000
 0.000000e+000 0.000000e+000 6.000000e-001 4.000000e-001 0.000000e+000
 0.000000e+000 0.000000e+000 0.000000e+000 7.000000e-001 3.000000e-001
 0.000000e+000 0.000000e+000 0.000000e+000 0.000000e+000 0.000000e+000
<ENDHMM>
~h "is"
<BEGINHMM>
<NUMSTATES> 5
<STATE> 2
<MEAN> 39
 -4.567753e+000 -7.143067e+000 -2.541086e-002 -1.135347e+001 -1.687831e+000 -1.954881e+000 -2.646961e+000 -2.072761e+000 -2.789703e+000 -2.519353e+000 -6.155596e+000 -5.577165e+000 7.077073e+001 1.284684e-001 3.519998e-002 5.042017e-002 -1.919170e-002 3.023124e-002 1.526818e-001 1.134414e-001 2.059520e-001 -9.232968e-004 -1.269177e-001 -8.922511e-002 -2.744853e-002 -7.531010e-002 5.912672e-003 1.712719e-002 -1.400904e-002 4.067212e-002 1.142783e-002 6.040929e-002 -2.948085e-002 1.259365e-002 -2.109511e-002 -7.946315e-003 -1.983920e-002 -3.233210e-002 -9.618374e-002
<VARIANCE> 39
 3.415611e+001 7.917472e+001 6.772413e+001 1.044564e+002 6.616837e+001 6.690615e+001 4.644624e+001 6.430594e+001 6.305968e+001 3.884728e+001 4.429239e+001 2.991177e+001 1.093573e+002 1.494153e+000 2.442461e+000 2.803278e+000 3.689717e+000 2.789096e+000 2.684588e+000 2.923815e+000 2.980957e+000 2.440595e+000 2.124268e+000 2.570347e+000 2.055594e+000 4.928689e+000 2.082175e-001 2.880168e-001 3.830723e-001 4.453130e-001 4.567120e-001 3.917358e-001 5.017791e-001 4.192902e-001 3.397919e-001 3.803485e-001 4.509306e-001 4.006631e-001 4.068455e-001
<GCONST> 1.247249e+002
<STATE> 3
<MEAN> 39
 -4.567753e+000 -7.143067e+000 -2.541086e-002 -1.135347e+001 -1.687831e+000 -1.954881e+000 -2.646961e+000 -2.072761e+000 -2.789703e+000 -2.519353e+000 -6.155596e+000 -5.577165e+000 7.077073e+001 1.284684e-001 3.519998e-002 5.042017e-002 -1.919170e-002 3.023124e-002 1.526818e-001 1.134414e-001 2.059520e-001 -9.232968e-004 -1.269177e-001 -8.922511e-002 -2.744853e-002 -7.531010e-002 5.912672e-003 1.712719e-002 -1.400904e-002 4.067212e-002 1.142783e-002 6.040929e-002 -2.948085e-002 1.259365e-002 -2.109511e-002 -7.946315e-003 -1.983920e-002 -3.233210e-002 -9.618374e-002
<VARIANCE> 39
 3.415611e+001 7.917472e+001 6.772413e+001 1.044564e+002 6.616837e+001 6.690615e+001 4.644624e+001 6.430594e+001 6.305968e+001 3.884728e+001 4.429239e+001 2.991177e+001 1.093573e+002 1.494153e+000 2.442461e+000 2.803278e+000 3.689717e+000 2.789096e+000 2.684588e+000 2.923815e+000 2.980957e+000 2.440595e+000 2.124268e+000 2.570347e+000 2.055594e+000 4.928689e+000 2.082175e-001 2.880168e-001 3.830723e-001 4.453130e-001 4.567120e-001 3.917358e-001 5.017791e-001 4.192902e-001 3.397919e-001 3.803485e-001 4.509306e-001 4.006631e-001 4.068455e-001
<GCONST> 1.247249e+002
<STATE> 4
<MEAN> 39
 -4.567753e+000 -7.143067e+000 -2.541086e-002 -1.135347e+001 -1.687831e+000 -1.954881e+000 -2.646961e+000 -2.072761e+000 -2.789703e+000 -2.519353e+000 -6.155596e+000 -5.577165e+000 7.077073e+001 1.284684e-001 3.519998e-002 5.042017e-002 -1.919170e-002 3.023124e-002 1.526818e-001 1.134414e-001 2.059520e-001 -9.232968e-004 -1.269177e-001 -8.922511e-002 -2.744853e-002 -7.531010e-002 5.912672e-003 1.712719e-002 -1.400904e-002 4.067212e-002 1.142783e-002 6.040929e-002 -2.948085e-002 1.259365e-002 -2.109511e-002 -7.946315e-003 -1.983920e-002 -3.233210e-002 -9.618374e-002
<VARIANCE> 39
 3.415611e+001 7.917472e+001 6.772413e+001 1.044564e+002 6.616837e+001 6.690615e+001 4.644624e+001 6.430594e+001 6.305968e+001 3.884728e+001 4.429239e+001 2.991177e+001 1.093573e+002 1.494153e+000 2.442461e+000 2.803278e+000 3.689717e+000 2.789096e+000 2.684588e+000 2.923815e+000 2.980957e+000 2.440595e+000 2.124268e+000 2.570347e+000 2.055594e+000 4.928689e+000 2.082175e-001 2.880168e-001 3.830723e-001 4.453130e-001 4.567120e-001 3.917358e-001 5.017791e-001 4.192902e-001 3.397919e-001 3.803485e-001 4.509306e-001 4.006631e-001 4.068455e-001
<GCONST> 1.247249e+002
<TRANSP> 5
 0.000000e+000 1.000000e+000 0.000000e+000 0.000000e+000 0.000000e+000
 0.000000e+000 6.000000e-001 4.000000e-001 0.000000e+000 0.000000e+000
 0.000000e+000 0.000000e+000 6.000000e-001 4.000000e-001 0.000000e+000
 0.000000e+000 0.000000e+000 0.000000e+000 7.000000e-001 3.000000e-001
 0.000000e+000 0.000000e+000 0.000000e+000 0.000000e+000 0.000000e+000
<ENDHMM>
~h "kh"
<BEGINHMM>
<NUMSTATES> 5
<STATE> 2
<MEAN> 39
 -4.567753e+000 -7.143067e+000 -2.541086e-002 -1.135347e+001 -1.687831e+000 -1.954881e+000 -2.646961e+000 -2.072761e+000 -2.789703e+000 -2.519353e+000 -6.155596e+000 -5.577165e+000 7.077073e+001 1.284684e-001 3.519998e-002 5.042017e-002 -1.919170e-002 3.023124e-002 1.526818e-001 1.134414e-001 2.059520e-001 -9.232968e-004 -1.269177e-001 -8.922511e-002 -2.744853e-002 -7.531010e-002 5.912672e-003 1.712719e-002 -1.400904e-002 4.067212e-002 1.142783e-002 6.040929e-002 -2.948085e-002 1.259365e-002 -2.109511e-002 -7.946315e-003 -1.983920e-002 -3.233210e-002 -9.618374e-002
<VARIANCE> 39
 3.415611e+001 7.917472e+001 6.772413e+001 1.044564e+002 6.616837e+001 6.690615e+001 4.644624e+001 6.430594e+001 6.305968e+001 3.884728e+001 4.429239e+001 2.991177e+001 1.093573e+002 1.494153e+000 2.442461e+000 2.803278e+000 3.689717e+000 2.789096e+000 2.684588e+000 2.923815e+000 2.980957e+000 2.440595e+000 2.124268e+000 2.570347e+000 2.055594e+000 4.928689e+000 2.082175e-001 2.880168e-001 3.830723e-001 4.453130e-001 4.567120e-001 3.917358e-001 5.017791e-001 4.192902e-001 3.397919e-001 3.803485e-001 4.509306e-001 4.006631e-001 4.068455e-001
<GCONST> 1.247249e+002
<STATE> 3
<MEAN> 39
 -4.567753e+000 -7.143067e+000 -2.541086e-002 -1.135347e+001 -1.687831e+000 -1.954881e+000 -2.646961e+000 -2.072761e+000 -2.789703e+000 -2.519353e+000 -6.155596e+000 -5.577165e+000 7.077073e+001 1.284684e-001 3.519998e-002 5.042017e-002 -1.919170e-002 3.023124e-002 1.526818e-001 1.134414e-001 2.059520e-001 -9.232968e-004 -1.269177e-001 -8.922511e-002 -2.744853e-002 -7.531010e-002 5.912672e-003 1.712719e-002 -1.400904e-002 4.067212e-002 1.142783e-002 6.040929e-002 -2.948085e-002 1.259365e-002 -2.109511e-002 -7.946315e-003 -1.983920e-002 -3.233210e-002 -9.618374e-002
<VARIANCE> 39
 3.415611e+001 7.917472e+001 6.772413e+001 1.044564e+002 6.616837e+001 6.690615e+001 4.644624e+001 6.430594e+001 6.305968e+001 3.884728e+001 4.429239e+001 2.991177e+001 1.093573e+002 1.494153e+000 2.442461e+000 2.803278e+000 3.689717e+000 2.789096e+000 2.684588e+000 2.923815e+000 2.980957e+000 2.440595e+000 2.124268e+000 2.570347e+000 2.055594e+000 4.928689e+000 2.082175e-001 2.880168e-001 3.830723e-001 4.453130e-001 4.567120e-001 3.917358e-001 5.017791e-001 4.192902e-001 3.397919e-001 3.803485e-001 4.509306e-001 4.006631e-001 4.068455e-001
<GCONST> 1.247249e+002
<STATE> 4
<MEAN> 39
 -4.567753e+000 -7.143067e+000 -2.541086e-002 -1.135347e+001 -1.687831e+000 -1.954881e+000 -2.646961e+000 -2.072761e+000 -2.789703e+000 -2.519353e+000 -6.155596e+000 -5.577165e+000 7.077073e+001 1.284684e-001 3.519998e-002 5.042017e-002 -1.919170e-002 3.023124e-002 1.526818e-001 1.134414e-001 2.059520e-001 -9.232968e-004 -1.269177e-001 -8.922511e-002 -2.744853e-002 -7.531010e-002 5.912672e-003 1.712719e-002 -1.400904e-002 4.067212e-002 1.142783e-002 6.040929e-002 -2.948085e-002 1.259365e-002 -2.109511e-002 -7.946315e-003 -1.983920e-002 -3.233210e-002 -9.618374e-002
<VARIANCE> 39
 3.415611e+001 7.917472e+001 6.772413e+001 1.044564e+002 6.616837e+001 6.690615e+001 4.644624e+001 6.430594e+001 6.305968e+001 3.884728e+001 4.429239e+001 2.991177e+001 1.093573e+002 1.494153e+000 2.442461e+000 2.803278e+000 3.689717e+000 2.789096e+000 2.684588e+000 2.923815e+000 2.980957e+000 2.440595e+000 2.124268e+000 2.570347e+000 2.055594e+000 4.928689e+000 2.082175e-001 2.880168e-001 3.830723e-001 4.453130e-001 4.567120e-001 3.917358e-001 5.017791e-001 4.192902e-001 3.397919e-001 3.803485e-001 4.509306e-001 4.006631e-001 4.068455e-001
<GCONST> 1.247249e+002
<TRANSP> 5
 0.000000e+000 1.000000e+000 0.000000e+000 0.000000e+000 0.000000e+000
 0.000000e+000 6.000000e-001 4.000000e-001 0.000000e+000 0.000000e+000
 0.000000e+000 0.000000e+000 6.000000e-001 4.000000e-001 0.000000e+000
 0.000000e+000 0.000000e+000 0.000000e+000 7.000000e-001 3.000000e-001
 0.000000e+000 0.000000e+000 0.000000e+000 0.000000e+000 0.000000e+000
<ENDHMM>
~h "m"
<BEGINHMM>
<NUMSTATES> 5
<STATE> 2
<MEAN> 39
 -4.567753e+000 -7.143067e+000 -2.541086e-002 -1.135347e+001 -1.687831e+000 -1.954881e+000 -2.646961e+000 -2.072761e+000 -2.789703e+000 -2.519353e+000 -6.155596e+000 -5.577165e+000 7.077073e+001 1.284684e-001 3.519998e-002 5.042017e-002 -1.919170e-002 3.023124e-002 1.526818e-001 1.134414e-001 2.059520e-001 -9.232968e-004 -1.269177e-001 -8.922511e-002 -2.744853e-002 -7.531010e-002 5.912672e-003 1.712719e-002 -1.400904e-002 4.067212e-002 1.142783e-002 6.040929e-002 -2.948085e-002 1.259365e-002 -2.109511e-002 -7.946315e-003 -1.983920e-002 -3.233210e-002 -9.618374e-002
<VARIANCE> 39
 3.415611e+001 7.917472e+001 6.772413e+001 1.044564e+002 6.616837e+001 6.690615e+001 4.644624e+001 6.430594e+001 6.305968e+001 3.884728e+001 4.429239e+001 2.991177e+001 1.093573e+002 1.494153e+000 2.442461e+000 2.803278e+000 3.689717e+000 2.789096e+000 2.684588e+000 2.923815e+000 2.980957e+000 2.440595e+000 2.124268e+000 2.570347e+000 2.055594e+000 4.928689e+000 2.082175e-001 2.880168e-001 3.830723e-001 4.453130e-001 4.567120e-001 3.917358e-001 5.017791e-001 4.192902e-001 3.397919e-001 3.803485e-001 4.509306e-001 4.006631e-001 4.068455e-001
<GCONST> 1.247249e+002
<STATE> 3
<MEAN> 39
 -4.567753e+000 -7.143067e+000 -2.541086e-002 -1.135347e+001 -1.687831e+000 -1.954881e+000 -2.646961e+000 -2.072761e+000 -2.789703e+000 -2.519353e+000 -6.155596e+000 -5.577165e+000 7.077073e+001 1.284684e-001 3.519998e-002 5.042017e-002 -1.919170e-002 3.023124e-002 1.526818e-001 1.134414e-001 2.059520e-001 -9.232968e-004 -1.269177e-001 -8.922511e-002 -2.744853e-002 -7.531010e-002 5.912672e-003 1.712719e-002 -1.400904e-002 4.067212e-002 1.142783e-002 6.040929e-002 -2.948085e-002 1.259365e-002 -2.109511e-002 -7.946315e-003 -1.983920e-002 -3.233210e-002 -9.618374e-002
<VARIANCE> 39
 3.415611e+001 7.917472e+001 6.772413e+001 1.044564e+002 6.616837e+001 6.690615e+001 4.644624e+001 6.430594e+001 6.305968e+001 3.884728e+001 4.429239e+001 2.991177e+001 1.093573e+002 1.494153e+000 2.442461e+000 2.803278e+000 3.689717e+000 2.789096e+000 2.684588e+000 2.923815e+000 2.980957e+000 2.440595e+000 2.124268e+000 2.570347e+000 2.055594e+000 4.928689e+000 2.082175e-001 2.880168e-001 3.830723e-001 4.453130e-001 4.567120e-001 3.917358e-001 5.017791e-001 4.192902e-001 3.397919e-001 3.803485e-001 4.509306e-001 4.006631e-001 4.068455e-001
<GCONST> 1.247249e+002
<STATE> 4
<MEAN> 39
 -4.567753e+000 -7.143067e+000 -2.541086e-002 -1.135347e+001 -1.687831e+000 -1.954881e+000 -2.646961e+000 -2.072761e+000 -2.789703e+000 -2.519353e+000 -6.155596e+000 -5.577165e+000 7.077073e+001 1.284684e-001 3.519998e-002 5.042017e-002 -1.919170e-002 3.023124e-002 1.526818e-001 1.134414e-001 2.059520e-001 -9.232968e-004 -1.269177e-001 -8.922511e-002 -2.744853e-002 -7.531010e-002 5.912672e-003 1.712719e-002 -1.400904e-002 4.067212e-002 1.142783e-002 6.040929e-002 -2.948085e-002 1.259365e-002 -2.109511e-002 -7.946315e-003 -1.983920e-002 -3.233210e-002 -9.618374e-002
<VARIANCE> 39
 3.415611e+001 7.917472e+001 6.772413e+001 1.044564e+002 6.616837e+001 6.690615e+001 4.644624e+001 6.430594e+001 6.305968e+001 3.884728e+001 4.429239e+001 2.991177e+001 1.093573e+002 1.494153e+000 2.442461e+000 2.803278e+000 3.689717e+000 2.789096e+000 2.684588e+000 2.923815e+000 2.980957e+000 2.440595e+000 2.124268e+000 2.570347e+000 2.055594e+000 4.928689e+000 2.082175e-001 2.880168e-001 3.830723e-001 4.453130e-001 4.567120e-001 3.917358e-001 5.017791e-001 4.192902e-001 3.397919e-001 3.803485e-001 4.509306e-001 4.006631e-001 4.068455e-001
<GCONST> 1.247249e+002
<TRANSP> 5
 0.000000e+000 1.000000e+000 0.000000e+000 0.000000e+000 0.000000e+000
 0.000000e+000 6.000000e-001 4.000000e-001 0.000000e+000 0.000000e+000
 0.000000e+000 0.000000e+000 6.000000e-001 4.000000e-001 0.000000e+000
 0.000000e+000 0.000000e+000 0.000000e+000 7.000000e-001 3.000000e-001
 0.000000e+000 0.000000e+000 0.000000e+000 0.000000e+000 0.000000e+000
<ENDHMM>
~h "n"
<BEGINHMM>
<NUMSTATES> 5
<STATE> 2
<MEAN> 39
 -4.567753e+000 -7.143067e+000 -2.541086e-002 -1.135347e+001 -1.687831e+000 -1.954881e+000 -2.646961e+000 -2.072761e+000 -2.789703e+000 -2.519353e+000 -6.155596e+000 -5.577165e+000 7.077073e+001 1.284684e-001 3.519998e-002 5.042017e-002 -1.919170e-002 3.023124e-002 1.526818e-001 1.134414e-001 2.059520e-001 -9.232968e-004 -1.269177e-001 -8.922511e-002 -2.744853e-002 -7.531010e-002 5.912672e-003 1.712719e-002 -1.400904e-002 4.067212e-002 1.142783e-002 6.040929e-002 -2.948085e-002 1.259365e-002 -2.109511e-002 -7.946315e-003 -1.983920e-002 -3.233210e-002 -9.618374e-002
<VARIANCE> 39
 3.415611e+001 7.917472e+001 6.772413e+001 1.044564e+002 6.616837e+001 6.690615e+001 4.644624e+001 6.430594e+001 6.305968e+001 3.884728e+001 4.429239e+001 2.991177e+001 1.093573e+002 1.494153e+000 2.442461e+000 2.803278e+000 3.689717e+000 2.789096e+000 2.684588e+000 2.923815e+000 2.980957e+000 2.440595e+000 2.124268e+000 2.570347e+000 2.055594e+000 4.928689e+000 2.082175e-001 2.880168e-001 3.830723e-001 4.453130e-001 4.567120e-001 3.917358e-001 5.017791e-001 4.192902e-001 3.397919e-001 3.803485e-001 4.509306e-001 4.006631e-001 4.068455e-001
<GCONST> 1.247249e+002
<STATE> 3
<MEAN> 39
 -4.567753e+000 -7.143067e+000 -2.541086e-002 -1.135347e+001 -1.687831e+000 -1.954881e+000 -2.646961e+000 -2.072761e+000 -2.789703e+000 -2.519353e+000 -6.155596e+000 -5.577165e+000 7.077073e+001 1.284684e-001 3.519998e-002 5.042017e-002 -1.919170e-002 3.023124e-002 1.526818e-001 1.134414e-001 2.059520e-001 -9.232968e-004 -1.269177e-001 -8.922511e-002 -2.744853e-002 -7.531010e-002 5.912672e-003 1.712719e-002 -1.400904e-002 4.067212e-002 1.142783e-002 6.040929e-002 -2.948085e-002 1.259365e-002 -2.109511e-002 -7.946315e-003 -1.983920e-002 -3.233210e-002 -9.618374e-002
<VARIANCE> 39
 3.415611e+001 7.917472e+001 6.772413e+001 1.044564e+002 6.616837e+001 6.690615e+001 4.644624e+001 6.430594e+001 6.305968e+001 3.884728e+001 4.429239e+001 2.991177e+001 1.093573e+002 1.494153e+000 2.442461e+000 2.803278e+000 3.689717e+000 2.789096e+000 2.684588e+000 2.923815e+000 2.980957e+000 2.440595e+000 2.124268e+000 2.570347e+000 2.055594e+000 4.928689e+000 2.082175e-001 2.880168e-001 3.830723e-001 4.453130e-001 4.567120e-001 3.917358e-001 5.017791e-001 4.192902e-001 3.397919e-001 3.803485e-001 4.509306e-001 4.006631e-001 4.068455e-001
<GCONST> 1.247249e+002
<STATE> 4
<MEAN> 39
 -4.567753e+000 -7.143067e+000 -2.541086e-002 -1.135347e+001 -1.687831e+000 -1.954881e+000 -2.646961e+000 -2.072761e+000 -2.789703e+000 -2.519353e+000 -6.155596e+000 -5.577165e+000 7.077073e+001 1.284684e-001 3.519998e-002 5.042017e-002 -1.919170e-002 3.023124e-002 1.526818e-001 1.134414e-001 2.059520e-001 -9.232968e-004 -1.269177e-001 -8.922511e-002 -2.744853e-002 -7.531010e-002 5.912672e-003 1.712719e-002 -1.400904e-002 4.067212e-002 1.142783e-002 6.040929e-002 -2.948085e-002 1.259365e-002 -2.109511e-002 -7.946315e-003 -1.983920e-002 -3.233210e-002 -9.618374e-002
<VARIANCE> 39
 3.415611e+001 7.917472e+001 6.772413e+001 1.044564e+002 6.616837e+001 6.690615e+001 4.644624e+001 6.430594e+001 6.305968e+001 3.884728e+001 4.429239e+001 2.991177e+001 1.093573e+002 1.494153e+000 2.442461e+000 2.803278e+000 3.689717e+000 2.789096e+000 2.684588e+000 2.923815e+000 2.980957e+000 2.440595e+000 2.124268e+000 2.570347e+000 2.055594e+000 4.928689e+000 2.082175e-001 2.880168e-001 3.830723e-001 4.453130e-001 4.567120e-001 3.917358e-001 5.017791e-001 4.192902e-001 3.397919e-001 3.803485e-001 4.509306e-001 4.006631e-001 4.068455e-001
<GCONST> 1.247249e+002
<TRANSP> 5
 0.000000e+000 1.000000e+000 0.000000e+000 0.000000e+000 0.000000e+000
 0.000000e+000 6.000000e-001 4.000000e-001 0.000000e+000 0.000000e+000
 0.000000e+000 0.000000e+000 6.000000e-001 4.000000e-001 0.000000e+000
 0.000000e+000 0.000000e+000 0.000000e+000 7.000000e-001 3.000000e-001
 0.000000e+000 0.000000e+000 0.000000e+000 0.000000e+000 0.000000e+000
<ENDHMM>
~h "ng"
<BEGINHMM>
<NUMSTATES> 5
<STATE> 2
<MEAN> 39
 -4.567753e+000 -7.143067e+000 -2.541086e-002 -1.135347e+001 -1.687831e+000 -1.954881e+000 -2.646961e+000 -2.072761e+000 -2.789703e+000 -2.519353e+000 -6.155596e+000 -5.577165e+000 7.077073e+001 1.284684e-001 3.519998e-002 5.042017e-002 -1.919170e-002 3.023124e-002 1.526818e-001 1.134414e-001 2.059520e-001 -9.232968e-004 -1.269177e-001 -8.922511e-002 -2.744853e-002 -7.531010e-002 5.912672e-003 1.712719e-002 -1.400904e-002 4.067212e-002 1.142783e-002 6.040929e-002 -2.948085e-002 1.259365e-002 -2.109511e-002 -7.946315e-003 -1.983920e-002 -3.233210e-002 -9.618374e-002
<VARIANCE> 39
 3.415611e+001 7.917472e+001 6.772413e+001 1.044564e+002 6.616837e+001 6.690615e+001 4.644624e+001 6.430594e+001 6.305968e+001 3.884728e+001 4.429239e+001 2.991177e+001 1.093573e+002 1.494153e+000 2.442461e+000 2.803278e+000 3.689717e+000 2.789096e+000 2.684588e+000 2.923815e+000 2.980957e+000 2.440595e+000 2.124268e+000 2.570347e+000 2.055594e+000 4.928689e+000 2.082175e-001 2.880168e-001 3.830723e-001 4.453130e-001 4.567120e-001 3.917358e-001 5.017791e-001 4.192902e-001 3.397919e-001 3.803485e-001 4.509306e-001 4.006631e-001 4.068455e-001
<GCONST> 1.247249e+002
<STATE> 3
<MEAN> 39
 -4.567753e+000 -7.143067e+000 -2.541086e-002 -1.135347e+001 -1.687831e+000 -1.954881e+000 -2.646961e+000 -2.072761e+000 -2.789703e+000 -2.519353e+000 -6.155596e+000 -5.577165e+000 7.077073e+001 1.284684e-001 3.519998e-002 5.042017e-002 -1.919170e-002 3.023124e-002 1.526818e-001 1.134414e-001 2.059520e-001 -9.232968e-004 -1.269177e-001 -8.922511e-002 -2.744853e-002 -7.531010e-002 5.912672e-003 1.712719e-002 -1.400904e-002 4.067212e-002 1.142783e-002 6.040929e-002 -2.948085e-002 1.259365e-002 -2.109511e-002 -7.946315e-003 -1.983920e-002 -3.233210e-002 -9.618374e-002
<VARIANCE> 39
 3.415611e+001 7.917472e+001 6.772413e+001 1.044564e+002 6.616837e+001 6.690615e+001 4.644624e+001 6.430594e+001 6.305968e+001 3.884728e+001 4.429239e+001 2.991177e+001 1.093573e+002 1.494153e+000 2.442461e+000 2.803278e+000 3.689717e+000 2.789096e+000 2.684588e+000 2.923815e+000 2.980957e+000 2.440595e+000 2.124268e+000 2.570347e+000 2.055594e+000 4.928689e+000 2.082175e-001 2.880168e-001 3.830723e-001 4.453130e-001 4.567120e-001 3.917358e-001 5.017791e-001 4.192902e-001 3.397919e-001 3.803485e-001 4.509306e-001 4.006631e-001 4.068455e-001
<GCONST> 1.247249e+002
<STATE> 4
<MEAN> 39
 -4.567753e+000 -7.143067e+000 -2.541086e-002 -1.135347e+001 -1.687831e+000 -1.954881e+000 -2.646961e+000 -2.072761e+000 -2.789703e+000 -2.519353e+000 -6.155596e+000 -5.577165e+000 7.077073e+001 1.284684e-001 3.519998e-002 5.042017e-002 -1.919170e-002 3.023124e-002 1.526818e-001 1.134414e-001 2.059520e-001 -9.232968e-004 -1.269177e-001 -8.922511e-002 -2.744853e-002 -7.531010e-002 5.912672e-003 1.712719e-002 -1.400904e-002 4.067212e-002 1.142783e-002 6.040929e-002 -2.948085e-002 1.259365e-002 -2.109511e-002 -7.946315e-003 -1.983920e-002 -3.233210e-002 -9.618374e-002
<VARIANCE> 39
 3.415611e+001 7.917472e+001 6.772413e+001 1.044564e+002 6.616837e+001 6.690615e+001 4.644624e+001 6.430594e+001 6.305968e+001 3.884728e+001 4.429239e+001 2.991177e+001 1.093573e+002 1.494153e+000 2.442461e+000 2.803278e+000 3.689717e+000 2.789096e+000 2.684588e+000 2.923815e+000 2.980957e+000 2.440595e+000 2.124268e+000 2.570347e+000 2.055594e+000 4.928689e+000 2.082175e-001 2.880168e-001 3.830723e-001 4.453130e-001 4.567120e-001 3.917358e-001 5.017791e-001 4.192902e-001 3.397919e-001 3.803485e-001 4.509306e-001 4.006631e-001 4.068455e-001
<GCONST> 1.247249e+002
<TRANSP> 5
 0.000000e+000 1.000000e+000 0.000000e+000 0.000000e+000 0.000000e+000
 0.000000e+000 6.000000e-001 4.000000e-001 0.000000e+000 0.000000e+000
 0.000000e+000 0.000000e+000 6.000000e-001 4.000000e-001 0.000000e+000
 0.000000e+000 0.000000e+000 0.000000e+000 7.000000e-001 3.000000e-001
 0.000000e+000 0.000000e+000 0.000000e+000 0.000000e+000 0.000000e+000
<ENDHMM>
~h "oo"
<BEGINHMM>
<NUMSTATES> 5
<STATE> 2
<MEAN> 39
 -4.567753e+000 -7.143067e+000 -2.541086e-002 -1.135347e+001 -1.687831e+000 -1.954881e+000 -2.646961e+000 -2.072761e+000 -2.789703e+000 -2.519353e+000 -6.155596e+000 -5.577165e+000 7.077073e+001 1.284684e-001 3.519998e-002 5.042017e-002 -1.919170e-002 3.023124e-002 1.526818e-001 1.134414e-001 2.059520e-001 -9.232968e-004 -1.269177e-001 -8.922511e-002 -2.744853e-002 -7.531010e-002 5.912672e-003 1.712719e-002 -1.400904e-002 4.067212e-002 1.142783e-002 6.040929e-002 -2.948085e-002 1.259365e-002 -2.109511e-002 -7.946315e-003 -1.983920e-002 -3.233210e-002 -9.618374e-002
<VARIANCE> 39
 3.415611e+001 7.917472e+001 6.772413e+001 1.044564e+002 6.616837e+001 6.690615e+001 4.644624e+001 6.430594e+001 6.305968e+001 3.884728e+001 4.429239e+001 2.991177e+001 1.093573e+002 1.494153e+000 2.442461e+000 2.803278e+000 3.689717e+000 2.789096e+000 2.684588e+000 2.923815e+000 2.980957e+000 2.440595e+000 2.124268e+000 2.570347e+000 2.055594e+000 4.928689e+000 2.082175e-001 2.880168e-001 3.830723e-001 4.453130e-001 4.567120e-001 3.917358e-001 5.017791e-001 4.192902e-001 3.397919e-001 3.803485e-001 4.509306e-001 4.006631e-001 4.068455e-001
<GCONST> 1.247249e+002
<STATE> 3
<MEAN> 39
 -4.567753e+000 -7.143067e+000 -2.541086e-002 -1.135347e+001 -1.687831e+000 -1.954881e+000 -2.646961e+000 -2.072761e+000 -2.789703e+000 -2.519353e+000 -6.155596e+000 -5.577165e+000 7.077073e+001 1.284684e-001 3.519998e-002 5.042017e-002 -1.919170e-002 3.023124e-002 1.526818e-001 1.134414e-001 2.059520e-001 -9.232968e-004 -1.269177e-001 -8.922511e-002 -2.744853e-002 -7.531010e-002 5.912672e-003 1.712719e-002 -1.400904e-002 4.067212e-002 1.142783e-002 6.040929e-002 -2.948085e-002 1.259365e-002 -2.109511e-002 -7.946315e-003 -1.983920e-002 -3.233210e-002 -9.618374e-002
<VARIANCE> 39
 3.415611e+001 7.917472e+001 6.772413e+001 1.044564e+002 6.616837e+001 6.690615e+001 4.644624e+001 6.430594e+001 6.305968e+001 3.884728e+001 4.429239e+001 2.991177e+001 1.093573e+002 1.494153e+000 2.442461e+000 2.803278e+000 3.689717e+000 2.789096e+000 2.684588e+000 2.923815e+000 2.980957e+000 2.440595e+000 2.124268e+000 2.570347e+000 2.055594e+000 4.928689e+000 2.082175e-001 2.880168e-001 3.830723e-001 4.453130e-001 4.567120e-001 3.917358e-001 5.017791e-001 4.192902e-001 3.397919e-001 3.803485e-001 4.509306e-001 4.006631e-001 4.068455e-001
<GCONST> 1.247249e+002
<STATE> 4
<MEAN> 39
 -4.567753e+000 -7.143067e+000 -2.541086e-002 -1.135347e+001 -1.687831e+000 -1.954881e+000 -2.646961e+000 -2.072761e+000 -2.789703e+000 -2.519353e+000 -6.155596e+000 -5.577165e+000 7.077073e+001 1.284684e-001 3.519998e-002 5.042017e-002 -1.919170e-002 3.023124e-002 1.526818e-001 1.134414e-001 2.059520e-001 -9.232968e-004 -1.269177e-001 -8.922511e-002 -2.744853e-002 -7.531010e-002 5.912672e-003 1.712719e-002 -1.400904e-002 4.067212e-002 1.142783e-002 6.040929e-002 -2.948085e-002 1.259365e-002 -2.109511e-002 -7.946315e-003 -1.983920e-002 -3.233210e-002 -9.618374e-002
<VARIANCE> 39
 3.415611e+001 7.917472e+001 6.772413e+001 1.044564e+002 6.616837e+001 6.690615e+001 4.644624e+001 6.430594e+001 6.305968e+001 3.884728e+001 4.429239e+001 2.991177e+001 1.093573e+002 1.494153e+000 2.442461e+000 2.803278e+000 3.689717e+000 2.789096e+000 2.684588e+000 2.923815e+000 2.980957e+000 2.440595e+000 2.124268e+000 2.570347e+000 2.055594e+000 4.928689e+000 2.082175e-001 2.880168e-001 3.830723e-001 4.453130e-001 4.567120e-001 3.917358e-001 5.017791e-001 4.192902e-001 3.397919e-001 3.803485e-001 4.509306e-001 4.006631e-001 4.068455e-001
<GCONST> 1.247249e+002
<TRANSP> 5
 0.000000e+000 1.000000e+000 0.000000e+000 0.000000e+000 0.000000e+000
 0.000000e+000 6.000000e-001 4.000000e-001 0.000000e+000 0.000000e+000
 0.000000e+000 0.000000e+000 6.000000e-001 4.000000e-001 0.000000e+000
 0.000000e+000 0.000000e+000 0.000000e+000 7.000000e-001 3.000000e-001
 0.000000e+000 0.000000e+000 0.000000e+000 0.000000e+000 0.000000e+000
<ENDHMM>
~h "ooj"
<BEGINHMM>
<NUMSTATES> 5
<STATE> 2
<MEAN> 39
 -4.567753e+000 -7.143067e+000 -2.541086e-002 -1.135347e+001 -1.687831e+000 -1.954881e+000 -2.646961e+000 -2.072761e+000 -2.789703e+000 -2.519353e+000 -6.155596e+000 -5.577165e+000 7.077073e+001 1.284684e-001 3.519998e-002 5.042017e-002 -1.919170e-002 3.023124e-002 1.526818e-001 1.134414e-001 2.059520e-001 -9.232968e-004 -1.269177e-001 -8.922511e-002 -2.744853e-002 -7.531010e-002 5.912672e-003 1.712719e-002 -1.400904e-002 4.067212e-002 1.142783e-002 6.040929e-002 -2.948085e-002 1.259365e-002 -2.109511e-002 -7.946315e-003 -1.983920e-002 -3.233210e-002 -9.618374e-002
<VARIANCE> 39
 3.415611e+001 7.917472e+001 6.772413e+001 1.044564e+002 6.616837e+001 6.690615e+001 4.644624e+001 6.430594e+001 6.305968e+001 3.884728e+001 4.429239e+001 2.991177e+001 1.093573e+002 1.494153e+000 2.442461e+000 2.803278e+000 3.689717e+000 2.789096e+000 2.684588e+000 2.923815e+000 2.980957e+000 2.440595e+000 2.124268e+000 2.570347e+000 2.055594e+000 4.928689e+000 2.082175e-001 2.880168e-001 3.830723e-001 4.453130e-001 4.567120e-001 3.917358e-001 5.017791e-001 4.192902e-001 3.397919e-001 3.803485e-001 4.509306e-001 4.006631e-001 4.068455e-001
<GCONST> 1.247249e+002
<STATE> 3
<MEAN> 39
 -4.567753e+000 -7.143067e+000 -2.541086e-002 -1.135347e+001 -1.687831e+000 -1.954881e+000 -2.646961e+000 -2.072761e+000 -2.789703e+000 -2.519353e+000 -6.155596e+000 -5.577165e+000 7.077073e+001 1.284684e-001 3.519998e-002 5.042017e-002 -1.919170e-002 3.023124e-002 1.526818e-001 1.134414e-001 2.059520e-001 -9.232968e-004 -1.269177e-001 -8.922511e-002 -2.744853e-002 -7.531010e-002 5.912672e-003 1.712719e-002 -1.400904e-002 4.067212e-002 1.142783e-002 6.040929e-002 -2.948085e-002 1.259365e-002 -2.109511e-002 -7.946315e-003 -1.983920e-002 -3.233210e-002 -9.618374e-002
<VARIANCE> 39
 3.415611e+001 7.917472e+001 6.772413e+001 1.044564e+002 6.616837e+001 6.690615e+001 4.644624e+001 6.430594e+001 6.305968e+001 3.884728e+001 4.429239e+001 2.991177e+001 1.093573e+002 1.494153e+000 2.442461e+000 2.803278e+000 3.689717e+000 2.789096e+000 2.684588e+000 2.923815e+000 2.980957e+000 2.440595e+000 2.124268e+000 2.570347e+000 2.055594e+000 4.928689e+000 2.082175e-001 2.880168e-001 3.830723e-001 4.453130e-001 4.567120e-001 3.917358e-001 5.017791e-001 4.192902e-001 3.397919e-001 3.803485e-001 4.509306e-001 4.006631e-001 4.068455e-001
<GCONST> 1.247249e+002
<STATE> 4
<MEAN> 39
 -4.567753e+000 -7.143067e+000 -2.541086e-002 -1.135347e+001 -1.687831e+000 -1.954881e+000 -2.646961e+000 -2.072761e+000 -2.789703e+000 -2.519353e+000 -6.155596e+000 -5.577165e+000 7.077073e+001 1.284684e-001 3.519998e-002 5.042017e-002 -1.919170e-002 3.023124e-002 1.526818e-001 1.134414e-001 2.059520e-001 -9.232968e-004 -1.269177e-001 -8.922511e-002 -2.744853e-002 -7.531010e-002 5.912672e-003 1.712719e-002 -1.400904e-002 4.067212e-002 1.142783e-002 6.040929e-002 -2.948085e-002 1.259365e-002 -2.109511e-002 -7.946315e-003 -1.983920e-002 -3.233210e-002 -9.618374e-002
<VARIANCE> 39
 3.415611e+001 7.917472e+001 6.772413e+001 1.044564e+002 6.616837e+001 6.690615e+001 4.644624e+001 6.430594e+001 6.305968e+001 3.884728e+001 4.429239e+001 2.991177e+001 1.093573e+002 1.494153e+000 2.442461e+000 2.803278e+000 3.689717e+000 2.789096e+000 2.684588e+000 2.923815e+000 2.980957e+000 2.440595e+000 2.124268e+000 2.570347e+000 2.055594e+000 4.928689e+000 2.082175e-001 2.880168e-001 3.830723e-001 4.453130e-001 4.567120e-001 3.917358e-001 5.017791e-001 4.192902e-001 3.397919e-001 3.803485e-001 4.509306e-001 4.006631e-001 4.068455e-001
<GCONST> 1.247249e+002
<TRANSP> 5
 0.000000e+000 1.000000e+000 0.000000e+000 0.000000e+000 0.000000e+000
 0.000000e+000 6.000000e-001 4.000000e-001 0.000000e+000 0.000000e+000
 0.000000e+000 0.000000e+000 6.000000e-001 4.000000e-001 0.000000e+000
 0.000000e+000 0.000000e+000 0.000000e+000 7.000000e-001 3.000000e-001
 0.000000e+000 0.000000e+000 0.000000e+000 0.000000e+000 0.000000e+000
<ENDHMM>
~h "oos"
<BEGINHMM>
<NUMSTATES> 5
<STATE> 2
<MEAN> 39
 -4.567753e+000 -7.143067e+000 -2.541086e-002 -1.135347e+001 -1.687831e+000 -1.954881e+000 -2.646961e+000 -2.072761e+000 -2.789703e+000 -2.519353e+000 -6.155596e+000 -5.577165e+000 7.077073e+001 1.284684e-001 3.519998e-002 5.042017e-002 -1.919170e-002 3.023124e-002 1.526818e-001 1.134414e-001 2.059520e-001 -9.232968e-004 -1.269177e-001 -8.922511e-002 -2.744853e-002 -7.531010e-002 5.912672e-003 1.712719e-002 -1.400904e-002 4.067212e-002 1.142783e-002 6.040929e-002 -2.948085e-002 1.259365e-002 -2.109511e-002 -7.946315e-003 -1.983920e-002 -3.233210e-002 -9.618374e-002
<VARIANCE> 39
 3.415611e+001 7.917472e+001 6.772413e+001 1.044564e+002 6.616837e+001 6.690615e+001 4.644624e+001 6.430594e+001 6.305968e+001 3.884728e+001 4.429239e+001 2.991177e+001 1.093573e+002 1.494153e+000 2.442461e+000 2.803278e+000 3.689717e+000 2.789096e+000 2.684588e+000 2.923815e+000 2.980957e+000 2.440595e+000 2.124268e+000 2.570347e+000 2.055594e+000 4.928689e+000 2.082175e-001 2.880168e-001 3.830723e-001 4.453130e-001 4.567120e-001 3.917358e-001 5.017791e-001 4.192902e-001 3.397919e-001 3.803485e-001 4.509306e-001 4.006631e-001 4.068455e-001
<GCONST> 1.247249e+002
<STATE> 3
<MEAN> 39
 -4.567753e+000 -7.143067e+000 -2.541086e-002 -1.135347e+001 -1.687831e+000 -1.954881e+000 -2.646961e+000 -2.072761e+000 -2.789703e+000 -2.519353e+000 -6.155596e+000 -5.577165e+000 7.077073e+001 1.284684e-001 3.519998e-002 5.042017e-002 -1.919170e-002 3.023124e-002 1.526818e-001 1.134414e-001 2.059520e-001 -9.232968e-004 -1.269177e-001 -8.922511e-002 -2.744853e-002 -7.531010e-002 5.912672e-003 1.712719e-002 -1.400904e-002 4.067212e-002 1.142783e-002 6.040929e-002 -2.948085e-002 1.259365e-002 -2.109511e-002 -7.946315e-003 -1.983920e-002 -3.233210e-002 -9.618374e-002
<VARIANCE> 39
 3.415611e+001 7.917472e+001 6.772413e+001 1.044564e+002 6.616837e+001 6.690615e+001 4.644624e+001 6.430594e+001 6.305968e+001 3.884728e+001 4.429239e+001 2.991177e+001 1.093573e+002 1.494153e+000 2.442461e+000 2.803278e+000 3.689717e+000 2.789096e+000 2.684588e+000 2.923815e+000 2.980957e+000 2.440595e+000 2.124268e+000 2.570347e+000 2.055594e+000 4.928689e+000 2.082175e-001 2.880168e-001 3.830723e-001 4.453130e-001 4.567120e-001 3.917358e-001 5.017791e-001 4.192902e-001 3.397919e-001 3.803485e-001 4.509306e-001 4.006631e-001 4.068455e-001
<GCONST> 1.247249e+002
<STATE> 4
<MEAN> 39
 -4.567753e+000 -7.143067e+000 -2.541086e-002 -1.135347e+001 -1.687831e+000 -1.954881e+000 -2.646961e+000 -2.072761e+000 -2.789703e+000 -2.519353e+000 -6.155596e+000 -5.577165e+000 7.077073e+001 1.284684e-001 3.519998e-002 5.042017e-002 -1.919170e-002 3.023124e-002 1.526818e-001 1.134414e-001 2.059520e-001 -9.232968e-004 -1.269177e-001 -8.922511e-002 -2.744853e-002 -7.531010e-002 5.912672e-003 1.712719e-002 -1.400904e-002 4.067212e-002 1.142783e-002 6.040929e-002 -2.948085e-002 1.259365e-002 -2.109511e-002 -7.946315e-003 -1.983920e-002 -3.233210e-002 -9.618374e-002
<VARIANCE> 39
 3.415611e+001 7.917472e+001 6.772413e+001 1.044564e+002 6.616837e+001 6.690615e+001 4.644624e+001 6.430594e+001 6.305968e+001 3.884728e+001 4.429239e+001 2.991177e+001 1.093573e+002 1.494153e+000 2.442461e+000 2.803278e+000 3.689717e+000 2.789096e+000 2.684588e+000 2.923815e+000 2.980957e+000 2.440595e+000 2.124268e+000 2.570347e+000 2.055594e+000 4.928689e+000 2.082175e-001 2.880168e-001 3.830723e-001 4.453130e-001 4.567120e-001 3.917358e-001 5.017791e-001 4.192902e-001 3.397919e-001 3.803485e-001 4.509306e-001 4.006631e-001 4.068455e-001
<GCONST> 1.247249e+002
<TRANSP> 5
 0.000000e+000 1.000000e+000 0.000000e+000 0.000000e+000 0.000000e+000
 0.000000e+000 6.000000e-001 4.000000e-001 0.000000e+000 0.000000e+000
 0.000000e+000 0.000000e+000 6.000000e-001 4.000000e-001 0.000000e+000
 0.000000e+000 0.000000e+000 0.000000e+000 7.000000e-001 3.000000e-001
 0.000000e+000 0.000000e+000 0.000000e+000 0.000000e+000 0.000000e+000
<ENDHMM>
~h "s"
<BEGINHMM>
<NUMSTATES> 5
<STATE> 2
<MEAN> 39
 -4.567753e+000 -7.143067e+000 -2.541086e-002 -1.135347e+001 -1.687831e+000 -1.954881e+000 -2.646961e+000 -2.072761e+000 -2.789703e+000 -2.519353e+000 -6.155596e+000 -5.577165e+000 7.077073e+001 1.284684e-001 3.519998e-002 5.042017e-002 -1.919170e-002 3.023124e-002 1.526818e-001 1.134414e-001 2.059520e-001 -9.232968e-004 -1.269177e-001 -8.922511e-002 -2.744853e-002 -7.531010e-002 5.912672e-003 1.712719e-002 -1.400904e-002 4.067212e-002 1.142783e-002 6.040929e-002 -2.948085e-002 1.259365e-002 -2.109511e-002 -7.946315e-003 -1.983920e-002 -3.233210e-002 -9.618374e-002
<VARIANCE> 39
 3.415611e+001 7.917472e+001 6.772413e+001 1.044564e+002 6.616837e+001 6.690615e+001 4.644624e+001 6.430594e+001 6.305968e+001 3.884728e+001 4.429239e+001 2.991177e+001 1.093573e+002 1.494153e+000 2.442461e+000 2.803278e+000 3.689717e+000 2.789096e+000 2.684588e+000 2.923815e+000 2.980957e+000 2.440595e+000 2.124268e+000 2.570347e+000 2.055594e+000 4.928689e+000 2.082175e-001 2.880168e-001 3.830723e-001 4.453130e-001 4.567120e-001 3.917358e-001 5.017791e-001 4.192902e-001 3.397919e-001 3.803485e-001 4.509306e-001 4.006631e-001 4.068455e-001
<GCONST> 1.247249e+002
<STATE> 3
<MEAN> 39
 -4.567753e+000 -7.143067e+000 -2.541086e-002 -1.135347e+001 -1.687831e+000 -1.954881e+000 -2.646961e+000 -2.072761e+000 -2.789703e+000 -2.519353e+000 -6.155596e+000 -5.577165e+000 7.077073e+001 1.284684e-001 3.519998e-002 5.042017e-002 -1.919170e-002 3.023124e-002 1.526818e-001 1.134414e-001 2.059520e-001 -9.232968e-004 -1.269177e-001 -8.922511e-002 -2.744853e-002 -7.531010e-002 5.912672e-003 1.712719e-002 -1.400904e-002 4.067212e-002 1.142783e-002 6.040929e-002 -2.948085e-002 1.259365e-002 -2.109511e-002 -7.946315e-003 -1.983920e-002 -3.233210e-002 -9.618374e-002
<VARIANCE> 39
 3.415611e+001 7.917472e+001 6.772413e+001 1.044564e+002 6.616837e+001 6.690615e+001 4.644624e+001 6.430594e+001 6.305968e+001 3.884728e+001 4.429239e+001 2.991177e+001 1.093573e+002 1.494153e+000 2.442461e+000 2.803278e+000 3.689717e+000 2.789096e+000 2.684588e+000 2.923815e+000 2.980957e+000 2.440595e+000 2.124268e+000 2.570347e+000 2.055594e+000 4.928689e+000 2.082175e-001 2.880168e-001 3.830723e-001 4.453130e-001 4.567120e-001 3.917358e-001 5.017791e-001 4.192902e-001 3.397919e-001 3.803485e-001 4.509306e-001 4.006631e-001 4.068455e-001
<GCONST> 1.247249e+002
<STATE> 4
<MEAN> 39
 -4.567753e+000 -7.143067e+000 -2.541086e-002 -1.135347e+001 -1.687831e+000 -1.954881e+000 -2.646961e+000 -2.072761e+000 -2.789703e+000 -2.519353e+000 -6.155596e+000 -5.577165e+000 7.077073e+001 1.284684e-001 3.519998e-002 5.042017e-002 -1.919170e-002 3.023124e-002 1.526818e-001 1.134414e-001 2.059520e-001 -9.232968e-004 -1.269177e-001 -8.922511e-002 -2.744853e-002 -7.531010e-002 5.912672e-003 1.712719e-002 -1.400904e-002 4.067212e-002 1.142783e-002 6.040929e-002 -2.948085e-002 1.259365e-002 -2.109511e-002 -7.946315e-003 -1.983920e-002 -3.233210e-002 -9.618374e-002
<VARIANCE> 39
 3.415611e+001 7.917472e+001 6.772413e+001 1.044564e+002 6.616837e+001 6.690615e+001 4.644624e+001 6.430594e+001 6.305968e+001 3.884728e+001 4.429239e+001 2.991177e+001 1.093573e+002 1.494153e+000 2.442461e+000 2.803278e+000 3.689717e+000 2.789096e+000 2.684588e+000 2.923815e+000 2.980957e+000 2.440595e+000 2.124268e+000 2.570347e+000 2.055594e+000 4.928689e+000 2.082175e-001 2.880168e-001 3.830723e-001 4.453130e-001 4.567120e-001 3.917358e-001 5.017791e-001 4.192902e-001 3.397919e-001 3.803485e-001 4.509306e-001 4.006631e-001 4.068455e-001
<GCONST> 1.247249e+002
<TRANSP> 5
 0.000000e+000 1.000000e+000 0.000000e+000 0.000000e+000 0.000000e+000
 0.000000e+000 6.000000e-001 4.000000e-001 0.000000e+000 0.000000e+000
 0.000000e+000 0.000000e+000 6.000000e-001 4.000000e-001 0.000000e+000
 0.000000e+000 0.000000e+000 0.000000e+000 7.000000e-001 3.000000e-001
 0.000000e+000 0.000000e+000 0.000000e+000 0.000000e+000 0.000000e+000
<ENDHMM>
~h "t"
<BEGINHMM>
<NUMSTATES> 5
<STATE> 2
<MEAN> 39
 -4.567753e+000 -7.143067e+000 -2.541086e-002 -1.135347e+001 -1.687831e+000 -1.954881e+000 -2.646961e+000 -2.072761e+000 -2.789703e+000 -2.519353e+000 -6.155596e+000 -5.577165e+000 7.077073e+001 1.284684e-001 3.519998e-002 5.042017e-002 -1.919170e-002 3.023124e-002 1.526818e-001 1.134414e-001 2.059520e-001 -9.232968e-004 -1.269177e-001 -8.922511e-002 -2.744853e-002 -7.531010e-002 5.912672e-003 1.712719e-002 -1.400904e-002 4.067212e-002 1.142783e-002 6.040929e-002 -2.948085e-002 1.259365e-002 -2.109511e-002 -7.946315e-003 -1.983920e-002 -3.233210e-002 -9.618374e-002
<VARIANCE> 39
 3.415611e+001 7.917472e+001 6.772413e+001 1.044564e+002 6.616837e+001 6.690615e+001 4.644624e+001 6.430594e+001 6.305968e+001 3.884728e+001 4.429239e+001 2.991177e+001 1.093573e+002 1.494153e+000 2.442461e+000 2.803278e+000 3.689717e+000 2.789096e+000 2.684588e+000 2.923815e+000 2.980957e+000 2.440595e+000 2.124268e+000 2.570347e+000 2.055594e+000 4.928689e+000 2.082175e-001 2.880168e-001 3.830723e-001 4.453130e-001 4.567120e-001 3.917358e-001 5.017791e-001 4.192902e-001 3.397919e-001 3.803485e-001 4.509306e-001 4.006631e-001 4.068455e-001
<GCONST> 1.247249e+002
<STATE> 3
<MEAN> 39
 -4.567753e+000 -7.143067e+000 -2.541086e-002 -1.135347e+001 -1.687831e+000 -1.954881e+000 -2.646961e+000 -2.072761e+000 -2.789703e+000 -2.519353e+000 -6.155596e+000 -5.577165e+000 7.077073e+001 1.284684e-001 3.519998e-002 5.042017e-002 -1.919170e-002 3.023124e-002 1.526818e-001 1.134414e-001 2.059520e-001 -9.232968e-004 -1.269177e-001 -8.922511e-002 -2.744853e-002 -7.531010e-002 5.912672e-003 1.712719e-002 -1.400904e-002 4.067212e-002 1.142783e-002 6.040929e-002 -2.948085e-002 1.259365e-002 -2.109511e-002 -7.946315e-003 -1.983920e-002 -3.233210e-002 -9.618374e-002
<VARIANCE> 39
 3.415611e+001 7.917472e+001 6.772413e+001 1.044564e+002 6.616837e+001 6.690615e+001 4.644624e+001 6.430594e+001 6.305968e+001 3.884728e+001 4.429239e+001 2.991177e+001 1.093573e+002 1.494153e+000 2.442461e+000 2.803278e+000 3.689717e+000 2.789096e+000 2.684588e+000 2.923815e+000 2.980957e+000 2.440595e+000 2.124268e+000 2.570347e+000 2.055594e+000 4.928689e+000 2.082175e-001 2.880168e-001 3.830723e-001 4.453130e-001 4.567120e-001 3.917358e-001 5.017791e-001 4.192902e-001 3.397919e-001 3.803485e-001 4.509306e-001 4.006631e-001 4.068455e-001
<GCONST> 1.247249e+002
<STATE> 4
<MEAN> 39
 -4.567753e+000 -7.143067e+000 -2.541086e-002 -1.135347e+001 -1.687831e+000 -1.954881e+000 -2.646961e+000 -2.072761e+000 -2.789703e+000 -2.519353e+000 -6.155596e+000 -5.577165e+000 7.077073e+001 1.284684e-001 3.519998e-002 5.042017e-002 -1.919170e-002 3.023124e-002 1.526818e-001 1.134414e-001 2.059520e-001 -9.232968e-004 -1.269177e-001 -8.922511e-002 -2.744853e-002 -7.531010e-002 5.912672e-003 1.712719e-002 -1.400904e-002 4.067212e-002 1.142783e-002 6.040929e-002 -2.948085e-002 1.259365e-002 -2.109511e-002 -7.946315e-003 -1.983920e-002 -3.233210e-002 -9.618374e-002
<VARIANCE> 39
 3.415611e+001 7.917472e+001 6.772413e+001 1.044564e+002 6.616837e+001 6.690615e+001 4.644624e+001 6.430594e+001 6.305968e+001 3.884728e+001 4.429239e+001 2.991177e+001 1.093573e+002 1.494153e+000 2.442461e+000 2.803278e+000 3.689717e+000 2.789096e+000 2.684588e+000 2.923815e+000 2.980957e+000 2.440595e+000 2.124268e+000 2.570347e+000 2.055594e+000 4.928689e+000 2.082175e-001 2.880168e-001 3.830723e-001 4.453130e-001 4.567120e-001 3.917358e-001 5.017791e-001 4.192902e-001 3.397919e-001 3.803485e-001 4.509306e-001 4.006631e-001 4.068455e-001
<GCONST> 1.247249e+002
<TRANSP> 5
 0.000000e+000 1.000000e+000 0.000000e+000 0.000000e+000 0.000000e+000
 0.000000e+000 6.000000e-001 4.000000e-001 0.000000e+000 0.000000e+000
 0.000000e+000 0.000000e+000 6.000000e-001 4.000000e-001 0.000000e+000
 0.000000e+000 0.000000e+000 0.000000e+000 7.000000e-001 3.000000e-001
 0.000000e+000 0.000000e+000 0.000000e+000 0.000000e+000 0.000000e+000
<ENDHMM>
~h "u"
<BEGINHMM>
<NUMSTATES> 5
<STATE> 2
<MEAN> 39
 -4.567753e+000 -7.143067e+000 -2.541086e-002 -1.135347e+001 -1.687831e+000 -1.954881e+000 -2.646961e+000 -2.072761e+000 -2.789703e+000 -2.519353e+000 -6.155596e+000 -5.577165e+000 7.077073e+001 1.284684e-001 3.519998e-002 5.042017e-002 -1.919170e-002 3.023124e-002 1.526818e-001 1.134414e-001 2.059520e-001 -9.232968e-004 -1.269177e-001 -8.922511e-002 -2.744853e-002 -7.531010e-002 5.912672e-003 1.712719e-002 -1.400904e-002 4.067212e-002 1.142783e-002 6.040929e-002 -2.948085e-002 1.259365e-002 -2.109511e-002 -7.946315e-003 -1.983920e-002 -3.233210e-002 -9.618374e-002
<VARIANCE> 39
 3.415611e+001 7.917472e+001 6.772413e+001 1.044564e+002 6.616837e+001 6.690615e+001 4.644624e+001 6.430594e+001 6.305968e+001 3.884728e+001 4.429239e+001 2.991177e+001 1.093573e+002 1.494153e+000 2.442461e+000 2.803278e+000 3.689717e+000 2.789096e+000 2.684588e+000 2.923815e+000 2.980957e+000 2.440595e+000 2.124268e+000 2.570347e+000 2.055594e+000 4.928689e+000 2.082175e-001 2.880168e-001 3.830723e-001 4.453130e-001 4.567120e-001 3.917358e-001 5.017791e-001 4.192902e-001 3.397919e-001 3.803485e-001 4.509306e-001 4.006631e-001 4.068455e-001
<GCONST> 1.247249e+002
<STATE> 3
<MEAN> 39
 -4.567753e+000 -7.143067e+000 -2.541086e-002 -1.135347e+001 -1.687831e+000 -1.954881e+000 -2.646961e+000 -2.072761e+000 -2.789703e+000 -2.519353e+000 -6.155596e+000 -5.577165e+000 7.077073e+001 1.284684e-001 3.519998e-002 5.042017e-002 -1.919170e-002 3.023124e-002 1.526818e-001 1.134414e-001 2.059520e-001 -9.232968e-004 -1.269177e-001 -8.922511e-002 -2.744853e-002 -7.531010e-002 5.912672e-003 1.712719e-002 -1.400904e-002 4.067212e-002 1.142783e-002 6.040929e-002 -2.948085e-002 1.259365e-002 -2.109511e-002 -7.946315e-003 -1.983920e-002 -3.233210e-002 -9.618374e-002
<VARIANCE> 39
 3.415611e+001 7.917472e+001 6.772413e+001 1.044564e+002 6.616837e+001 6.690615e+001 4.644624e+001 6.430594e+001 6.305968e+001 3.884728e+001 4.429239e+001 2.991177e+001 1.093573e+002 1.494153e+000 2.442461e+000 2.803278e+000 3.689717e+000 2.789096e+000 2.684588e+000 2.923815e+000 2.980957e+000 2.440595e+000 2.124268e+000 2.570347e+000 2.055594e+000 4.928689e+000 2.082175e-001 2.880168e-001 3.830723e-001 4.453130e-001 4.567120e-001 3.917358e-001 5.017791e-001 4.192902e-001 3.397919e-001 3.803485e-001 4.509306e-001 4.006631e-001 4.068455e-001
<GCONST> 1.247249e+002
<STATE> 4
<MEAN> 39
 -4.567753e+000 -7.143067e+000 -2.541086e-002 -1.135347e+001 -1.687831e+000 -1.954881e+000 -2.646961e+000 -2.072761e+000 -2.789703e+000 -2.519353e+000 -6.155596e+000 -5.577165e+000 7.077073e+001 1.284684e-001 3.519998e-002 5.042017e-002 -1.919170e-002 3.023124e-002 1.526818e-001 1.134414e-001 2.059520e-001 -9.232968e-004 -1.269177e-001 -8.922511e-002 -2.744853e-002 -7.531010e-002 5.912672e-003 1.712719e-002 -1.400904e-002 4.067212e-002 1.142783e-002 6.040929e-002 -2.948085e-002 1.259365e-002 -2.109511e-002 -7.946315e-003 -1.983920e-002 -3.233210e-002 -9.618374e-002
<VARIANCE> 39
 3.415611e+001 7.917472e+001 6.772413e+001 1.044564e+002 6.616837e+001 6.690615e+001 4.644624e+001 6.430594e+001 6.305968e+001 3.884728e+001 4.429239e+001 2.991177e+001 1.093573e+002 1.494153e+000 2.442461e+000 2.803278e+000 3.689717e+000 2.789096e+000 2.684588e+000 2.923815e+000 2.980957e+000 2.440595e+000 2.124268e+000 2.570347e+000 2.055594e+000 4.928689e+000 2.082175e-001 2.880168e-001 3.830723e-001 4.453130e-001 4.567120e-001 3.917358e-001 5.017791e-001 4.192902e-001 3.397919e-001 3.803485e-001 4.509306e-001 4.006631e-001 4.068455e-001
<GCONST> 1.247249e+002
<TRANSP> 5
 0.000000e+000 1.000000e+000 0.000000e+000 0.000000e+000 0.000000e+000
 0.000000e+000 6.000000e-001 4.000000e-001 0.000000e+000 0.000000e+000
 0.000000e+000 0.000000e+000 6.000000e-001 4.000000e-001 0.000000e+000
 0.000000e+000 0.000000e+000 0.000000e+000 7.000000e-001 3.000000e-001
 0.000000e+000 0.000000e+000 0.000000e+000 0.000000e+000 0.000000e+000
<ENDHMM>
~h "y"
<BEGINHMM>
<NUMSTATES> 5
<STATE> 2
<MEAN> 39
 -4.567753e+000 -7.143067e+000 -2.541086e-002 -1.135347e+001 -1.687831e+000 -1.954881e+000 -2.646961e+000 -2.072761e+000 -2.789703e+000 -2.519353e+000 -6.155596e+000 -5.577165e+000 7.077073e+001 1.284684e-001 3.519998e-002 5.042017e-002 -1.919170e-002 3.023124e-002 1.526818e-001 1.134414e-001 2.059520e-001 -9.232968e-004 -1.269177e-001 -8.922511e-002 -2.744853e-002 -7.531010e-002 5.912672e-003 1.712719e-002 -1.400904e-002 4.067212e-002 1.142783e-002 6.040929e-002 -2.948085e-002 1.259365e-002 -2.109511e-002 -7.946315e-003 -1.983920e-002 -3.233210e-002 -9.618374e-002
<VARIANCE> 39
 3.415611e+001 7.917472e+001 6.772413e+001 1.044564e+002 6.616837e+001 6.690615e+001 4.644624e+001 6.430594e+001 6.305968e+001 3.884728e+001 4.429239e+001 2.991177e+001 1.093573e+002 1.494153e+000 2.442461e+000 2.803278e+000 3.689717e+000 2.789096e+000 2.684588e+000 2.923815e+000 2.980957e+000 2.440595e+000 2.124268e+000 2.570347e+000 2.055594e+000 4.928689e+000 2.082175e-001 2.880168e-001 3.830723e-001 4.453130e-001 4.567120e-001 3.917358e-001 5.017791e-001 4.192902e-001 3.397919e-001 3.803485e-001 4.509306e-001 4.006631e-001 4.068455e-001
<GCONST> 1.247249e+002
<STATE> 3
<MEAN> 39
 -4.567753e+000 -7.143067e+000 -2.541086e-002 -1.135347e+001 -1.687831e+000 -1.954881e+000 -2.646961e+000 -2.072761e+000 -2.789703e+000 -2.519353e+000 -6.155596e+000 -5.577165e+000 7.077073e+001 1.284684e-001 3.519998e-002 5.042017e-002 -1.919170e-002 3.023124e-002 1.526818e-001 1.134414e-001 2.059520e-001 -9.232968e-004 -1.269177e-001 -8.922511e-002 -2.744853e-002 -7.531010e-002 5.912672e-003 1.712719e-002 -1.400904e-002 4.067212e-002 1.142783e-002 6.040929e-002 -2.948085e-002 1.259365e-002 -2.109511e-002 -7.946315e-003 -1.983920e-002 -3.233210e-002 -9.618374e-002
<VARIANCE> 39
 3.415611e+001 7.917472e+001 6.772413e+001 1.044564e+002 6.616837e+001 6.690615e+001 4.644624e+001 6.430594e+001 6.305968e+001 3.884728e+001 4.429239e+001 2.991177e+001 1.093573e+002 1.494153e+000 2.442461e+000 2.803278e+000 3.689717e+000 2.789096e+000 2.684588e+000 2.923815e+000 2.980957e+000 2.440595e+000 2.124268e+000 2.570347e+000 2.055594e+000 4.928689e+000 2.082175e-001 2.880168e-001 3.830723e-001 4.453130e-001 4.567120e-001 3.917358e-001 5.017791e-001 4.192902e-001 3.397919e-001 3.803485e-001 4.509306e-001 4.006631e-001 4.068455e-001
<GCONST> 1.247249e+002
<STATE> 4
<MEAN> 39
 -4.567753e+000 -7.143067e+000 -2.541086e-002 -1.135347e+001 -1.687831e+000 -1.954881e+000 -2.646961e+000 -2.072761e+000 -2.789703e+000 -2.519353e+000 -6.155596e+000 -5.577165e+000 7.077073e+001 1.284684e-001 3.519998e-002 5.042017e-002 -1.919170e-002 3.023124e-002 1.526818e-001 1.134414e-001 2.059520e-001 -9.232968e-004 -1.269177e-001 -8.922511e-002 -2.744853e-002 -7.531010e-002 5.912672e-003 1.712719e-002 -1.400904e-002 4.067212e-002 1.142783e-002 6.040929e-002 -2.948085e-002 1.259365e-002 -2.109511e-002 -7.946315e-003 -1.983920e-002 -3.233210e-002 -9.618374e-002
<VARIANCE> 39
 3.415611e+001 7.917472e+001 6.772413e+001 1.044564e+002 6.616837e+001 6.690615e+001 4.644624e+001 6.430594e+001 6.305968e+001 3.884728e+001 4.429239e+001 2.991177e+001 1.093573e+002 1.494153e+000 2.442461e+000 2.803278e+000 3.689717e+000 2.789096e+000 2.684588e+000 2.923815e+000 2.980957e+000 2.440595e+000 2.124268e+000 2.570347e+000 2.055594e+000 4.928689e+000 2.082175e-001 2.880168e-001 3.830723e-001 4.453130e-001 4.567120e-001 3.917358e-001 5.017791e-001 4.192902e-001 3.397919e-001 3.803485e-001 4.509306e-001 4.006631e-001 4.068455e-001
<GCONST> 1.247249e+002
<TRANSP> 5
 0.000000e+000 1.000000e+000 0.000000e+000 0.000000e+000 0.000000e+000
 0.000000e+000 6.000000e-001 4.000000e-001 0.000000e+000 0.000000e+000
 0.000000e+000 0.000000e+000 6.000000e-001 4.000000e-001 0.000000e+000
 0.000000e+000 0.000000e+000 0.000000e+000 7.000000e-001 3.000000e-001
 0.000000e+000 0.000000e+000 0.000000e+000 0.000000e+000 0.000000e+000
<ENDHMM>
