~o
<STREAMINFO> 1 39
<VECSIZE> 39<NULLD><MFCC_D_A_0><DIAGC>
~h "a"
<BEGINHMM>
<NUMSTATES> 5
<STATE> 2
<MEAN> 39
 -6.602851e+000 -1.373970e+001 -3.284278e+000 -8.231521e+000 3.429659e-001 -6.346986e+000 2.183549e+000 -4.218921e+000 7.187540e+000 -5.062735e+000 -9.387145e+000 -3.806181e+000 8.010928e+001 1.241052e-001 1.971315e-001 4.716290e-001 2.501097e-001 -1.260427e-001 4.932154e-002 -1.402859e-002 1.474904e-001 7.617772e-002 -2.870815e-001 2.963397e-001 5.977436e-002 -3.996623e-001 2.864360e-002 6.507868e-002 3.701519e-002 4.091144e-002 4.370904e-002 8.762484e-002 2.012169e-002 4.558299e-002 -5.041304e-002 5.849284e-002 -1.048304e-002 -5.532648e-003 -1.581126e-001
<VARIANCE> 39
 8.489698e+000 9.801001e+000 2.576335e+001 1.254075e+001 3.497900e+001 1.183326e+001 3.867008e+000 2.934301e+001 1.976969e+001 1.348094e+001 8.298014e+000 5.413100e+000 2.369031e+001 5.665974e-001 6.402354e-001 3.350565e-001 7.202854e-001 6.674502e-001 1.029837e+000 2.747067e-001 6.370611e-001 3.837722e-001 8.644526e-001 4.907604e-001 3.451506e-001 1.535035e+000 7.532550e-002 7.913767e-002 5.526032e-002 6.826286e-002 1.133480e-001 7.107483e-002 5.537690e-002 1.124980e-001 5.204489e-002 1.782722e-001 1.143548e-001 7.650810e-002 6.733097e-002
<GCONST> 6.546584e+001
<STATE> 3
<MEAN> 39
 -5.558612e+000 -1.222215e+001 -8.999143e-001 -6.581631e+000 2.426459e-001 -5.196324e+000 2.208509e+000 -3.190796e+000 7.189593e+000 -6.013604e+000 -8.176497e+000 -3.576141e+000 7.705383e+001 2.133157e-001 4.540091e-001 5.948531e-001 4.430017e-001 6.006072e-002 4.437299e-001 1.123813e-001 3.787920e-001 -2.140120e-001 -1.435914e-002 2.204869e-001 2.757126e-002 -9.895448e-001 -1.566926e-003 3.456105e-002 -1.799244e-002 -6.184861e-003 -9.805361e-004 4.871845e-002 4.063698e-002 5.525752e-002 -8.114523e-002 8.318014e-002 -3.002128e-002 1.108849e-002 -1.117067e-001
<VARIANCE> 39
 1.258398e+001 1.483619e+001 2.768860e+001 2.765454e+001 4.760442e+001 2.988979e+001 3.905276e+000 2.761005e+001 2.507653e+001 1.993093e+001 1.049279e+001 5.751078e+000 5.462584e+001 5.808720e-001 6.660950e-001 5.909184e-001 1.346340e+000 1.434509e+000 1.667384e+000 3.081721e-001 1.302300e+000 6.588981e-001 1.680120e+000 9.710925e-001 5.603048e-001 1.433007e+000 8.250230e-002 9.601556e-002 9.680597e-002 1.572331e-001 2.726930e-001 1.771940e-001 4.086229e-002 2.370847e-001 6.687178e-002 2.994353e-001 1.904755e-001 1.402505e-001 7.213089e-002
<GCONST> 8.158426e+001
<STATE> 4
<MEAN> 39
 -3.990516e+000 -9.151076e+000 1.779135e+000 -3.248915e+000 1.837219e+000 -1.446320e+000 3.033190e+000 -9.396417e-001 5.787599e+000 -5.775172e+000 -7.495984e+000 -3.581550e+000 6.997939e+001 7.934571e-002 5.222363e-001 2.414628e-001 3.350104e-001 -1.486989e-002 6.663388e-001 3.446843e-001 6.267419e-001 -6.565980e-001 4.431452e-001 -7.832968e-003 1.985935e-001 -1.459519e+000 -2.658894e-002 -6.868506e-002 -1.409457e-001 -1.257206e-001 -7.709710e-002 5.228413e-002 5.083508e-002 -4.718417e-002 -4.957562e-002 4.707933e-002 -3.888952e-003 1.281938e-001 4.644388e-003
<VARIANCE> 39
 1.167427e+001 1.965334e+001 2.627697e+001 5.085409e+001 6.891360e+001 5.555636e+001 5.781003e+000 2.999005e+001 3.124115e+001 2.515539e+001 1.395572e+001 6.715630e+000 1.033534e+002 5.324537e-001 6.224847e-001 1.442770e+000 1.979012e+000 2.235145e+000 2.038218e+000 5.040286e-001 1.898595e+000 6.266095e-001 1.905416e+000 1.446298e+000 1.207815e+000 9.607577e-001 7.363259e-002 1.167886e-001 1.299541e-001 2.526836e-001 4.350119e-001 3.602511e-001 4.774082e-002 3.811284e-001 6.977341e-002 3.427191e-001 2.739109e-001 2.469927e-001 7.685950e-002
<GCONST> 9.264913e+001
<TRANSP> 5
 0.000000e+000 1.000000e+000 0.000000e+000 0.000000e+000 0.000000e+000
 0.000000e+000 7.613007e-001 2.386993e-001 0.000000e+000 0.000000e+000
 0.000000e+000 0.000000e+000 7.613008e-001 2.386992e-001 0.000000e+000
 0.000000e+000 0.000000e+000 0.000000e+000 8.742864e-001 1.257136e-001
 0.000000e+000 0.000000e+000 0.000000e+000 0.000000e+000 0.000000e+000
<ENDHMM>
~h "b"
<BEGINHMM>
<NUMSTATES> 5
<STATE> 2
<MEAN> 39
 -1.371047e+000 -5.623721e+000 -9.228157e-001 -1.077770e+001 -3.083515e+000 -1.388344e+000 -5.628883e+000 -8.108104e+000 -5.474878e+000 4.970628e-001 -5.461686e+000 -9.600010e+000 7.098125e+001 -8.824955e-001 -1.480681e+000 -2.283599e+000 -2.292902e+000 3.004183e-001 -1.448315e-001 1.004603e+000 1.571620e+000 2.150950e+000 -1.158729e+000 -1.116762e+000 1.509002e-002 2.873018e+000 -1.451086e-001 1.102440e-001 1.562161e-001 3.064272e-001 1.165487e-001 2.541530e-001 -1.668192e-002 -1.986414e-001 -1.175669e-001 -1.794685e-002 1.055613e-001 1.255302e-002 -9.618890e-002
<VARIANCE> 39
 1.512432e+001 4.459317e+001 7.030933e+001 6.716409e+001 5.886824e+001 1.601527e+001 3.697412e+001 3.668006e+001 1.040752e+002 7.014822e+001 7.483927e+001 7.037374e+000 9.476937e+001 7.284656e-001 3.656062e+000 5.238418e+000 7.854938e+000 1.114185e+000 2.273353e+000 1.697485e+000 2.592894e+000 3.411831e+000 4.639786e+000 5.425393e+000 1.294943e+000 7.251740e+000 1.224837e-001 2.391500e-001 7.859346e-001 1.323566e+000 2.192759e-001 3.493803e-001 2.659370e-001 4.105135e-001 4.923647e-001 9.285868e-001 9.425524e-001 3.076656e-001 1.070208e+000
<GCONST> 1.239994e+002
<STATE> 3
<MEAN> 39
 -4.881046e+000 -9.274490e+000 -6.540807e+000 -1.636378e+001 -2.020040e+000 -6.543941e-001 -3.062820e+000 -5.032704e+000 -1.047988e-002 -2.539575e+000 -7.031307e+000 -8.939990e+000 7.899184e+001 -9.160183e-001 -7.529991e-001 -1.087475e+000 -1.259323e+000 1.450756e-001 2.144364e-001 5.047001e-001 6.740375e-001 1.147519e+000 -5.870305e-001 -1.414974e-001 2.361801e-001 1.819250e+000 2.884848e-002 2.150226e-001 3.517859e-001 2.359469e-001 -1.139474e-001 3.959140e-002 -1.277174e-001 -1.901301e-001 -3.136103e-001 1.760601e-001 2.380733e-001 7.138032e-002 -3.164491e-001
<VARIANCE> 39
 1.546405e+001 4.537895e+001 3.927007e+001 7.334235e+001 7.959655e+001 3.020128e+001 5.218567e+001 2.214658e+001 8.127688e+001 4.976764e+001 1.053343e+002 1.115072e+001 5.457243e+001 6.510240e-001 2.116576e+000 4.292198e+000 7.023940e+000 1.782015e+000 2.840187e+000 1.975743e+000 2.543337e+000 2.845615e+000 3.445199e+000 5.512666e+000 1.307198e+000 5.480516e+000 1.173351e-001 2.651627e-001 5.852440e-001 1.221545e+000 3.255705e-001 4.325973e-001 3.570435e-001 3.439699e-001 4.019366e-001 7.721002e-001 1.024935e+000 3.130683e-001 9.056573e-001
<GCONST> 1.230599e+002
<STATE> 4
<MEAN> 39
 -7.481352e+000 -1.065576e+001 -7.407753e+000 -1.807229e+001 -1.835206e+000 -1.271582e+000 -1.915184e+000 -4.346743e+000 2.538639e+000 -3.895900e+000 -6.840239e+000 -6.980009e+000 8.240653e+001 -3.086977e-001 2.616563e-002 1.577404e-001 -3.254552e-001 -2.499042e-001 -1.735521e-001 2.932478e-002 3.382519e-001 1.939150e-001 -1.830374e-001 1.322863e-001 3.774326e-001 2.898829e-001 1.003245e-001 1.295117e-001 1.899166e-001 1.549998e-001 -4.757264e-002 -6.043063e-002 -6.748314e-002 -4.756144e-002 -1.407164e-001 4.891290e-002 1.870372e-002 1.712315e-002 -2.471059e-001
<VARIANCE> 39
 6.945699e+000 4.245391e+001 2.327411e+001 1.087914e+002 7.583081e+001 5.642523e+001 6.193780e+001 3.060844e+001 6.329805e+001 1.502583e+001 7.966251e+001 1.365349e+001 1.716054e+001 6.001981e-001 7.363804e-001 1.913027e+000 3.283763e+000 1.364642e+000 1.882608e+000 1.743672e+000 1.394330e+000 1.099800e+000 1.609052e+000 2.719222e+000 1.300559e+000 2.336359e+000 4.552565e-002 1.385031e-001 1.721829e-001 3.723969e-001 2.569289e-001 2.169360e-001 3.717580e-001 2.247780e-001 1.860268e-001 3.210822e-001 5.120608e-001 2.924333e-001 2.467047e-001
<GCONST> 1.040381e+002
<TRANSP> 5
 0.000000e+000 1.000000e+000 0.000000e+000 0.000000e+000 0.000000e+000
 0.000000e+000 7.334652e-001 2.665348e-001 0.000000e+000 0.000000e+000
 0.000000e+000 0.000000e+000 7.334653e-001 2.665347e-001 0.000000e+000
 0.000000e+000 0.000000e+000 0.000000e+000 8.491617e-001 1.508382e-001
 0.000000e+000 0.000000e+000 0.000000e+000 0.000000e+000 0.000000e+000
<ENDHMM>
~h "h"
<BEGINHMM>
<NUMSTATES> 5
<STATE> 2
<MEAN> 39
 -4.567753e+000 -7.143067e+000 -2.541086e-002 -1.135347e+001 -1.687831e+000 -1.954881e+000 -2.646961e+000 -2.072761e+000 -2.789703e+000 -2.519353e+000 -6.155596e+000 -5.577165e+000 7.077073e+001 1.284684e-001 3.519998e-002 5.042017e-002 -1.919170e-002 3.023124e-002 1.526818e-001 1.134414e-001 2.059520e-001 -9.232968e-004 -1.269177e-001 -8.922511e-002 -2.744853e-002 -7.531010e-002 5.912672e-003 1.712719e-002 -1.400904e-002 4.067212e-002 1.142783e-002 6.040929e-002 -2.948085e-002 1.259365e-002 -2.109511e-002 -7.946315e-003 -1.983920e-002 -3.233210e-002 -9.618374e-002
<VARIANCE> 39
 3.415611e+001 7.917472e+001 6.772413e+001 1.044564e+002 6.616837e+001 6.690615e+001 4.644624e+001 6.430594e+001 6.305968e+001 3.884728e+001 4.429239e+001 2.991177e+001 1.093573e+002 1.494153e+000 2.442461e+000 2.803278e+000 3.689717e+000 2.789096e+000 2.684588e+000 2.923815e+000 2.980957e+000 2.440595e+000 2.124268e+000 2.570347e+000 2.055594e+000 4.928689e+000 2.082175e-001 2.880168e-001 3.830723e-001 4.453130e-001 4.567120e-001 3.917358e-001 5.017791e-001 4.192902e-001 3.397919e-001 3.803485e-001 4.509306e-001 4.006631e-001 4.068455e-001
<GCONST> 1.247249e+002
<STATE> 3
<MEAN> 39
 -4.567753e+000 -7.143067e+000 -2.541086e-002 -1.135347e+001 -1.687831e+000 -1.954881e+000 -2.646961e+000 -2.072761e+000 -2.789703e+000 -2.519353e+000 -6.155596e+000 -5.577165e+000 7.077073e+001 1.284684e-001 3.519998e-002 5.042017e-002 -1.919170e-002 3.023124e-002 1.526818e-001 1.134414e-001 2.059520e-001 -9.232968e-004 -1.269177e-001 -8.922511e-002 -2.744853e-002 -7.531010e-002 5.912672e-003 1.712719e-002 -1.400904e-002 4.067212e-002 1.142783e-002 6.040929e-002 -2.948085e-002 1.259365e-002 -2.109511e-002 -7.946315e-003 -1.983920e-002 -3.233210e-002 -9.618374e-002
<VARIANCE> 39
 3.415611e+001 7.917472e+001 6.772413e+001 1.044564e+002 6.616837e+001 6.690615e+001 4.644624e+001 6.430594e+001 6.305968e+001 3.884728e+001 4.429239e+001 2.991177e+001 1.093573e+002 1.494153e+000 2.442461e+000 2.803278e+000 3.689717e+000 2.789096e+000 2.684588e+000 2.923815e+000 2.980957e+000 2.440595e+000 2.124268e+000 2.570347e+000 2.055594e+000 4.928689e+000 2.082175e-001 2.880168e-001 3.830723e-001 4.453130e-001 4.567120e-001 3.917358e-001 5.017791e-001 4.192902e-001 3.397919e-001 3.803485e-001 4.509306e-001 4.006631e-001 4.068455e-001
<GCONST> 1.247249e+002
<STATE> 4
<MEAN> 39
 -4.567753e+000 -7.143067e+000 -2.541086e-002 -1.135347e+001 -1.687831e+000 -1.954881e+000 -2.646961e+000 -2.072761e+000 -2.789703e+000 -2.519353e+000 -6.155596e+000 -5.577165e+000 7.077073e+001 1.284684e-001 3.519998e-002 5.042017e-002 -1.919170e-002 3.023124e-002 1.526818e-001 1.134414e-001 2.059520e-001 -9.232968e-004 -1.269177e-001 -8.922511e-002 -2.744853e-002 -7.531010e-002 5.912672e-003 1.712719e-002 -1.400904e-002 4.067212e-002 1.142783e-002 6.040929e-002 -2.948085e-002 1.259365e-002 -2.109511e-002 -7.946315e-003 -1.983920e-002 -3.233210e-002 -9.618374e-002
<VARIANCE> 39
 3.415611e+001 7.917472e+001 6.772413e+001 1.044564e+002 6.616837e+001 6.690615e+001 4.644624e+001 6.430594e+001 6.305968e+001 3.884728e+001 4.429239e+001 2.991177e+001 1.093573e+002 1.494153e+000 2.442461e+000 2.803278e+000 3.689717e+000 2.789096e+000 2.684588e+000 2.923815e+000 2.980957e+000 2.440595e+000 2.124268e+000 2.570347e+000 2.055594e+000 4.928689e+000 2.082175e-001 2.880168e-001 3.830723e-001 4.453130e-001 4.567120e-001 3.917358e-001 5.017791e-001 4.192902e-001 3.397919e-001 3.803485e-001 4.509306e-001 4.006631e-001 4.068455e-001
<GCONST> 1.247249e+002
<TRANSP> 5
 0.000000e+000 1.000000e+000 0.000000e+000 0.000000e+000 0.000000e+000
 0.000000e+000 6.000000e-001 4.000000e-001 0.000000e+000 0.000000e+000
 0.000000e+000 0.000000e+000 6.000000e-001 4.000000e-001 0.000000e+000
 0.000000e+000 0.000000e+000 0.000000e+000 7.000000e-001 3.000000e-001
 0.000000e+000 0.000000e+000 0.000000e+000 0.000000e+000 0.000000e+000
<ENDHMM>
~h "i"
<BEGINHMM>
<NUMSTATES> 5
<STATE> 2
<MEAN> 39
 -4.567753e+000 -7.143067e+000 -2.541086e-002 -1.135347e+001 -1.687831e+000 -1.954881e+000 -2.646961e+000 -2.072761e+000 -2.789703e+000 -2.519353e+000 -6.155596e+000 -5.577165e+000 7.077073e+001 1.284684e-001 3.519998e-002 5.042017e-002 -1.919170e-002 3.023124e-002 1.526818e-001 1.134414e-001 2.059520e-001 -9.232968e-004 -1.269177e-001 -8.922511e-002 -2.744853e-002 -7.531010e-002 5.912672e-003 1.712719e-002 -1.400904e-002 4.067212e-002 1.142783e-002 6.040929e-002 -2.948085e-002 1.259365e-002 -2.109511e-002 -7.946315e-003 -1.983920e-002 -3.233210e-002 -9.618374e-002
<VARIANCE> 39
 3.415611e+001 7.917472e+001 6.772413e+001 1.044564e+002 6.616837e+001 6.690615e+001 4.644624e+001 6.430594e+001 6.305968e+001 3.884728e+001 4.429239e+001 2.991177e+001 1.093573e+002 1.494153e+000 2.442461e+000 2.803278e+000 3.689717e+000 2.789096e+000 2.684588e+000 2.923815e+000 2.980957e+000 2.440595e+000 2.124268e+000 2.570347e+000 2.055594e+000 4.928689e+000 2.082175e-001 2.880168e-001 3.830723e-001 4.453130e-001 4.567120e-001 3.917358e-001 5.017791e-001 4.192902e-001 3.397919e-001 3.803485e-001 4.509306e-001 4.006631e-001 4.068455e-001
<GCONST> 1.247249e+002
<STATE> 3
<MEAN> 39
 -4.567753e+000 -7.143067e+000 -2.541086e-002 -1.135347e+001 -1.687831e+000 -1.954881e+000 -2.646961e+000 -2.072761e+000 -2.789703e+000 -2.519353e+000 -6.155596e+000 -5.577165e+000 7.077073e+001 1.284684e-001 3.519998e-002 5.042017e-002 -1.919170e-002 3.023124e-002 1.526818e-001 1.134414e-001 2.059520e-001 -9.232968e-004 -1.269177e-001 -8.922511e-002 -2.744853e-002 -7.531010e-002 5.912672e-003 1.712719e-002 -1.400904e-002 4.067212e-002 1.142783e-002 6.040929e-002 -2.948085e-002 1.259365e-002 -2.109511e-002 -7.946315e-003 -1.983920e-002 -3.233210e-002 -9.618374e-002
<VARIANCE> 39
 3.415611e+001 7.917472e+001 6.772413e+001 1.044564e+002 6.616837e+001 6.690615e+001 4.644624e+001 6.430594e+001 6.305968e+001 3.884728e+001 4.429239e+001 2.991177e+001 1.093573e+002 1.494153e+000 2.442461e+000 2.803278e+000 3.689717e+000 2.789096e+000 2.684588e+000 2.923815e+000 2.980957e+000 2.440595e+000 2.124268e+000 2.570347e+000 2.055594e+000 4.928689e+000 2.082175e-001 2.880168e-001 3.830723e-001 4.453130e-001 4.567120e-001 3.917358e-001 5.017791e-001 4.192902e-001 3.397919e-001 3.803485e-001 4.509306e-001 4.006631e-001 4.068455e-001
<GCONST> 1.247249e+002
<STATE> 4
<MEAN> 39
 -4.567753e+000 -7.143067e+000 -2.541086e-002 -1.135347e+001 -1.687831e+000 -1.954881e+000 -2.646961e+000 -2.072761e+000 -2.789703e+000 -2.519353e+000 -6.155596e+000 -5.577165e+000 7.077073e+001 1.284684e-001 3.519998e-002 5.042017e-002 -1.919170e-002 3.023124e-002 1.526818e-001 1.134414e-001 2.059520e-001 -9.232968e-004 -1.269177e-001 -8.922511e-002 -2.744853e-002 -7.531010e-002 5.912672e-003 1.712719e-002 -1.400904e-002 4.067212e-002 1.142783e-002 6.040929e-002 -2.948085e-002 1.259365e-002 -2.109511e-002 -7.946315e-003 -1.983920e-002 -3.233210e-002 -9.618374e-002
<VARIANCE> 39
 3.415611e+001 7.917472e+001 6.772413e+001 1.044564e+002 6.616837e+001 6.690615e+001 4.644624e+001 6.430594e+001 6.305968e+001 3.884728e+001 4.429239e+001 2.991177e+001 1.093573e+002 1.494153e+000 2.442461e+000 2.803278e+000 3.689717e+000 2.789096e+000 2.684588e+000 2.923815e+000 2.980957e+000 2.440595e+000 2.124268e+000 2.570347e+000 2.055594e+000 4.928689e+000 2.082175e-001 2.880168e-001 3.830723e-001 4.453130e-001 4.567120e-001 3.917358e-001 5.017791e-001 4.192902e-001 3.397919e-001 3.803485e-001 4.509306e-001 4.006631e-001 4.068455e-001
<GCONST> 1.247249e+002
<TRANSP> 5
 0.000000e+000 1.000000e+000 0.000000e+000 0.000000e+000 0.000000e+000
 0.000000e+000 6.000000e-001 4.000000e-001 0.000000e+000 0.000000e+000
 0.000000e+000 0.000000e+000 6.000000e-001 4.000000e-001 0.000000e+000
 0.000000e+000 0.000000e+000 0.000000e+000 7.000000e-001 3.000000e-001
 0.000000e+000 0.000000e+000 0.000000e+000 0.000000e+000 0.000000e+000
<ENDHMM>
~h "m"
<BEGINHMM>
<NUMSTATES> 5
<STATE> 2
<MEAN> 39
 -5.357453e+000 -6.216059e+000 1.213643e+000 -4.196575e+000 4.099634e+000 2.025796e+000 -1.662462e+000 -8.261735e+000 -6.324663e+000 4.454778e+000 -6.599988e+000 1.321399e-001 6.029951e+001 4.827948e-001 8.415444e-001 7.551423e-001 1.820881e-001 5.836654e-001 3.973629e-001 -6.410726e-001 -1.086504e+000 -8.854805e-001 4.349535e-001 -3.664599e-001 6.420611e-002 -8.868035e-002 1.844406e-001 -3.762051e-002 6.853647e-002 -1.514617e-001 -1.547625e-001 -1.223243e-001 -2.133510e-001 1.603552e-001 -1.769502e-001 -1.895798e-001 -1.941569e-001 -2.046961e-001 3.037994e-001
<VARIANCE> 39
 1.972250e+001 6.295130e+001 2.262440e+001 4.290238e+001 2.509854e+001 2.850288e+001 2.428840e+001 8.718716e+001 3.764896e+001 1.512390e+001 1.188284e+001 3.691843e+001 1.344097e+002 1.260515e+000 1.085423e+000 1.586163e+000 4.300344e+000 3.364173e+000 1.071326e+000 1.626712e+000 1.896411e+000 3.125141e+000 1.790922e+000 1.306777e+000 1.362968e+000 4.797316e+000 2.347933e-001 1.150492e-001 3.845265e-001 4.975335e-001 3.401860e-001 1.679884e-001 3.538511e-001 2.803907e-001 6.311159e-001 2.809348e-001 3.329059e-001 1.640033e-001 4.328691e-001
<GCONST> 1.098362e+002
<STATE> 3
<MEAN> 39
 -2.996703e+000 -4.401404e+000 3.117759e+000 -5.255757e+000 4.728448e+000 2.756098e+000 -4.302559e+000 -1.015870e+001 -9.762102e+000 4.752049e+000 -7.852642e+000 -8.040307e-001 6.210491e+001 8.154690e-001 5.748101e-001 4.363221e-001 -4.350252e-001 -1.761919e-001 6.733068e-002 -8.668023e-001 -2.951773e-001 -1.009487e+000 -6.290073e-003 -3.526485e-001 -5.272838e-001 5.800030e-001 5.547928e-002 -1.452058e-001 -2.169775e-001 -2.214868e-001 -2.207520e-001 -9.617411e-002 7.544767e-002 3.353247e-001 1.054570e-001 -8.490781e-002 1.012052e-001 -1.384773e-001 1.478854e-001
<VARIANCE> 39
 2.132083e+001 3.601091e+001 2.442407e+001 6.688686e+001 1.592423e+001 3.887858e+001 2.176725e+001 8.257974e+001 3.383411e+001 1.563627e+001 1.374876e+001 5.480942e+001 8.218123e+001 1.632184e+000 1.364830e+000 3.143524e+000 5.520862e+000 2.510853e+000 1.518183e+000 1.519000e+000 2.900642e+000 2.774323e+000 1.556938e+000 1.580607e+000 1.292766e+000 7.087554e+000 2.211152e-001 1.289332e-001 5.925036e-001 4.704517e-001 3.723426e-001 2.864720e-001 3.627526e-001 3.581754e-001 5.670818e-001 2.272978e-001 3.396766e-001 2.249423e-001 5.769556e-001
<GCONST> 1.132743e+002
<STATE> 4
<MEAN> 39
 -4.558920e-001 -3.141841e+000 2.438781e+000 -8.782398e+000 2.622740e+000 3.419038e+000 -6.001179e+000 -8.050544e+000 -1.217628e+001 3.953670e+000 -7.547125e+000 -3.342608e+000 6.466004e+001 5.078590e-001 3.082858e-001 -3.870203e-001 -7.557214e-001 -6.241830e-001 -2.503385e-002 -1.552263e-001 7.094128e-001 -2.363507e-001 -1.610480e-001 1.229144e-001 -6.576040e-001 3.118752e-001 -8.977417e-002 -8.326653e-002 -1.752990e-001 -5.503627e-002 8.114714e-003 -3.379713e-002 2.512549e-001 2.209021e-001 2.207171e-001 -2.960029e-002 5.600514e-002 5.468487e-002 -1.015358e-001
<VARIANCE> 39
 1.609961e+001 1.543278e+001 2.568628e+001 1.368079e+002 1.698104e+001 6.356071e+001 9.080885e+000 1.449607e+002 1.648587e+001 2.235239e+001 1.684546e+001 6.335292e+001 5.521630e+001 1.312044e+000 9.207115e-001 2.644659e+000 4.026558e+000 1.011402e+000 1.925346e+000 1.143191e+000 2.531618e+000 2.574828e+000 1.586045e+000 1.478148e+000 1.325818e+000 4.563769e+000 1.323877e-001 1.139905e-001 5.166321e-001 3.484525e-001 2.739069e-001 3.079936e-001 1.606710e-001 3.503049e-001 2.059404e-001 1.511980e-001 2.560346e-001 2.187120e-001 3.310210e-001
<GCONST> 1.055831e+002
<TRANSP> 5
 0.000000e+000 1.000000e+000 0.000000e+000 0.000000e+000 0.000000e+000
 0.000000e+000 6.508178e-001 3.491822e-001 0.000000e+000 0.000000e+000
 0.000000e+000 0.000000e+000 6.508181e-001 3.491819e-001 0.000000e+000
 0.000000e+000 0.000000e+000 0.000000e+000 7.487855e-001 2.512145e-001
 0.000000e+000 0.000000e+000 0.000000e+000 0.000000e+000 0.000000e+000
<ENDHMM>
~h "n"
<BEGINHMM>
<NUMSTATES> 5
<STATE> 2
<MEAN> 39
 -3.388686e+000 -1.584262e+000 2.888793e+000 -1.252732e+001 -6.005586e+000 -5.696762e+000 -7.115684e+000 -7.026005e+000 -1.133512e+000 -6.990622e+000 -1.172731e+001 -5.611157e+000 6.706033e+001 1.716377e-001 1.721213e-001 8.657249e-002 7.256958e-001 5.205324e-001 1.100932e-001 2.349705e-001 1.358913e-001 -7.665077e-002 -6.327890e-002 -2.033508e-001 -9.198713e-002 -1.102440e+000 -4.987907e-002 9.008984e-003 -7.182444e-002 -5.218463e-002 3.051776e-002 1.661604e-001 -4.078488e-003 2.317356e-001 9.763228e-003 7.353045e-002 1.550374e-001 -2.175911e-002 2.092175e-002
<VARIANCE> 39
 8.336750e+000 9.925824e+000 3.360353e+001 1.209298e+002 2.381956e+001 4.945552e+001 2.961049e+001 5.669015e+001 5.172569e+001 5.053346e+001 6.115981e+001 1.496148e+001 5.973444e+001 7.155467e-001 7.632637e-001 1.037727e+000 6.663133e-001 1.130642e+000 4.374841e+000 1.917789e+000 4.010690e+000 1.574760e+000 2.835131e+000 2.379424e+000 1.360234e+000 9.171699e-001 1.610888e-001 1.328722e-001 1.321497e-001 1.146550e-001 2.333478e-001 6.132235e-001 4.244746e-001 7.344056e-001 2.513682e-001 5.096360e-001 4.507165e-001 2.806638e-001 9.148856e-002
<GCONST> 1.052692e+002
<STATE> 3
<MEAN> 39
 -2.989061e+000 -9.334757e-001 2.970267e+000 -1.027035e+001 -4.201349e+000 -4.463477e+000 -6.386833e+000 -5.563378e+000 -1.478075e+000 -7.054957e+000 -1.154544e+001 -5.893478e+000 6.345212e+001 -4.336307e-002 2.081334e-001 -1.776293e-001 5.568382e-001 5.438904e-001 6.897713e-001 2.405565e-001 8.945513e-001 7.480158e-002 2.196635e-001 3.583002e-001 -1.116206e-001 -1.022022e+000 -8.976826e-002 -4.581524e-002 -1.137404e-001 -9.062935e-002 4.360179e-002 1.067905e-001 7.788324e-003 1.287461e-001 4.900959e-002 3.876182e-002 1.421925e-001 -1.219344e-002 5.259798e-002
<VARIANCE> 39
 7.044547e+000 2.122089e+001 1.789482e+001 1.006707e+002 1.864583e+001 5.450751e+001 2.391946e+001 5.466151e+001 5.084938e+001 6.094543e+001 7.023736e+001 1.326564e+001 7.298724e+001 7.297754e-001 1.078850e+000 1.126101e+000 7.803497e-001 1.110474e+000 3.431573e+000 2.106081e+000 5.387192e+000 1.367615e+000 2.867684e+000 2.199669e+000 1.203729e+000 1.184052e+000 1.559172e-001 1.746686e-001 1.637926e-001 1.330145e-001 2.500260e-001 5.275355e-001 4.695807e-001 1.107206e+000 2.336848e-001 5.037811e-001 4.125340e-001 2.330939e-001 8.704453e-002
<GCONST> 1.063223e+002
<STATE> 4
<MEAN> 39
 -3.450606e+000 2.514081e-001 2.063223e+000 -8.404984e+000 -2.283560e+000 -8.510921e-001 -5.467152e+000 -2.031682e+000 -1.322896e+000 -6.024876e+000 -9.460815e+000 -6.202369e+000 5.913578e+001 -3.722158e-001 1.133965e-001 -5.278947e-001 2.566711e-001 7.224100e-001 9.588581e-001 3.430110e-001 7.995673e-001 2.876979e-001 4.342192e-001 6.080746e-001 -1.110630e-001 -9.477465e-001 -7.070266e-002 -9.467988e-002 -1.268985e-001 -1.421409e-001 1.127857e-001 7.942860e-003 6.576785e-003 -1.847861e-001 1.110710e-002 -4.252764e-002 -1.879259e-002 -1.922273e-002 7.764089e-002
<VARIANCE> 39
 6.126166e+000 3.260471e+001 1.341119e+001 8.736949e+001 1.724664e+001 5.478873e+001 1.652151e+001 5.111322e+001 3.876297e+001 5.461378e+001 6.446676e+001 1.379823e+001 9.648635e+001 5.981073e-001 9.402289e-001 1.687461e+000 7.569500e-001 1.288983e+000 1.866183e+000 1.766221e+000 5.631592e+000 1.589968e+000 2.287551e+000 1.415487e+000 1.195785e+000 9.473318e-001 1.144681e-001 1.509534e-001 2.427536e-001 1.266449e-001 1.994581e-001 3.593161e-001 3.609224e-001 9.757664e-001 2.650942e-001 4.117408e-001 2.913450e-001 2.562813e-001 8.747729e-002
<GCONST> 1.027898e+002
<TRANSP> 5
 0.000000e+000 1.000000e+000 0.000000e+000 0.000000e+000 0.000000e+000
 0.000000e+000 7.021598e-001 2.978402e-001 0.000000e+000 0.000000e+000
 0.000000e+000 0.000000e+000 7.021596e-001 2.978404e-001 0.000000e+000
 0.000000e+000 0.000000e+000 0.000000e+000 8.080854e-001 1.919146e-001
 0.000000e+000 0.000000e+000 0.000000e+000 0.000000e+000 0.000000e+000
<ENDHMM>
~h "s"
<BEGINHMM>
<NUMSTATES> 5
<STATE> 2
<MEAN> 39
 -2.267426e+001 7.755817e-002 4.988896e+000 -3.590956e+000 1.001442e+001 -1.087719e+001 -3.552066e+000 2.267314e+000 -5.863129e+000 -3.288543e+000 -7.953650e+000 -1.646324e+000 6.475301e+001 -2.842113e-002 -4.465983e-001 -1.106264e-001 1.010670e+000 -3.026422e+000 -2.587023e+000 3.034048e+000 1.737060e+000 -3.693601e-001 -1.324704e+000 1.493617e+000 1.619524e+000 8.770198e-001 7.243412e-001 -4.317650e-001 -1.510186e-001 -5.101507e-001 -3.191965e-001 5.996677e-001 2.746552e-001 -2.880433e-001 -1.613752e-002 4.703901e-001 1.580420e-001 -3.510236e-001 3.586876e-002
<VARIANCE> 39
 1.135155e+001 7.200171e+000 1.094617e+000 1.059414e+001 3.821422e+001 2.852664e+001 4.420658e+001 1.353003e+001 1.104447e+000 1.070704e+001 1.544124e+001 1.601242e+001 5.429166e+000 3.147568e+000 1.551538e+000 1.564802e-001 2.305356e+000 1.306729e+000 2.445788e+000 2.633689e+000 9.583233e-001 6.008251e-002 9.627690e-001 2.439260e+000 1.406051e+000 5.961068e-001 3.630475e-001 2.072560e-001 1.141487e-002 3.450734e-001 3.819678e-001 2.067856e-001 7.900091e-001 9.398335e-002 7.731763e-003 5.834192e-002 7.823417e-001 1.436812e-001 1.548353e-001
<GCONST> 7.709323e+001
<STATE> 3
<MEAN> 39
 -1.993847e+001 -3.049733e+000 4.101140e+000 -3.296172e+000 1.829804e+000 -1.508218e+001 4.147248e+000 5.554710e+000 -6.783385e+000 -5.209151e+000 -4.654442e+000 9.738471e-001 6.742604e+001 2.059045e+000 -2.034539e+000 -6.083009e-001 -8.409601e-001 -2.906573e+000 -5.622350e-001 2.519515e+000 7.270122e-001 -2.918296e-001 -2.161058e-001 7.766691e-001 3.248174e-001 1.268626e+000 7.302302e-001 -6.902161e-001 -2.193716e-001 -7.837098e-001 4.316393e-001 8.594564e-001 -6.069983e-001 -4.416070e-001 7.943512e-002 3.415956e-001 -5.957423e-001 -5.680119e-001 2.432528e-001
<VARIANCE> 39
 5.185019e+001 4.823523e+001 5.597648e+000 2.940360e+001 3.947578e+001 5.872622e+000 4.648975e+001 9.964978e+000 1.790971e+000 3.621048e+000 2.549834e+001 1.270387e+001 2.281828e+001 5.084289e+000 4.220086e+000 4.334641e-001 5.474315e+000 4.820691e+000 4.150887e+000 7.550548e+000 1.590553e+000 2.004021e-001 7.337452e-001 7.211740e+000 2.405969e+000 2.464246e+000 1.094542e+000 5.919461e-001 4.105277e-002 8.414945e-001 8.250095e-001 1.659900e-001 1.124187e+000 1.021208e-001 2.300705e-002 1.617658e-001 1.254276e+000 1.840546e-001 5.073164e-001
<GCONST> 1.025273e+002
<STATE> 4
<MEAN> 39
 -1.212384e+001 -1.142984e+001 1.458642e+000 -8.899211e+000 -1.990223e+000 -1.239704e+001 6.652834e+000 5.338458e+000 -6.902437e+000 -4.449048e+000 -5.993129e+000 -1.001034e+000 7.211221e+001 2.551574e+000 -3.222103e+000 -1.135225e+000 -2.033075e+000 -4.735456e-001 1.166028e+000 2.084213e-001 -2.857442e-001 1.143728e-001 1.331846e-001 -8.227437e-001 -8.266221e-001 1.920107e+000 -1.341035e-001 -1.187167e-001 -1.341951e-001 -1.321526e-001 8.535509e-001 4.216987e-001 -6.398582e-001 -3.042408e-001 1.507654e-001 9.350057e-002 -2.554769e-001 -2.707591e-001 8.005423e-002
<VARIANCE> 39
 6.155882e+001 9.846275e+001 1.388140e+001 5.196241e+001 2.359913e+001 1.788626e+001 2.292149e+001 8.165070e+000 3.481670e+000 4.317592e+000 2.979849e+001 1.537672e+001 5.119181e+001 4.860765e+000 4.458456e+000 4.995926e-001 4.490271e+000 8.141225e+000 1.212350e+000 5.713078e+000 8.901749e-001 4.718141e-001 3.628521e-001 5.833286e+000 6.769429e-001 3.797688e+000 1.319887e+000 1.239161e+000 1.003117e-001 1.374373e+000 7.141128e-001 2.828539e-001 8.849663e-001 9.286702e-002 6.430700e-002 1.338011e-001 1.574765e+000 2.140820e-001 9.072338e-001
<GCONST> 1.082330e+002
<TRANSP> 5
 0.000000e+000 1.000000e+000 0.000000e+000 0.000000e+000 0.000000e+000
 0.000000e+000 5.759119e-001 4.240881e-001 0.000000e+000 0.000000e+000
 0.000000e+000 0.000000e+000 5.759119e-001 4.240881e-001 0.000000e+000
 0.000000e+000 0.000000e+000 0.000000e+000 6.610934e-001 3.389066e-001
 0.000000e+000 0.000000e+000 0.000000e+000 0.000000e+000 0.000000e+000
<ENDHMM>
~h "t"
<BEGINHMM>
<NUMSTATES> 5
<STATE> 2
<MEAN> 39
 -2.079164e+000 -3.019120e+000 -3.702243e+000 -9.707901e+000 -5.976279e-001 1.733321e+000 2.293572e+000 4.134959e+000 -2.805835e+000 -1.544629e+000 -5.719981e+000 -6.441937e+000 6.212127e+001 -2.737130e-001 -6.542558e-001 1.300627e+000 7.200019e-001 7.415020e-001 -9.222035e-001 1.876327e+000 2.777708e-001 5.083793e-001 1.039530e-001 3.298611e-001 4.360563e-001 1.776127e+000 -1.790718e-002 -3.680958e-001 -3.458736e-001 -6.023233e-002 1.105006e-001 3.308382e-001 -4.601495e-001 3.317772e-002 -2.868808e-001 5.350292e-002 -1.481644e-001 -2.433306e-001 -1.863528e-001
<VARIANCE> 39
 3.378393e+001 1.155552e+002 5.164499e+001 9.120009e+001 2.500551e+001 7.101765e+001 3.335353e+001 6.211306e+001 2.847250e+001 1.124346e+001 1.174632e+001 1.541330e+001 8.786538e+001 3.522190e-001 2.781763e+000 2.650215e+000 6.113427e+000 2.248368e+000 4.184701e+000 4.867127e+000 1.716704e+000 1.777505e+000 1.258871e+000 1.115407e+000 1.290028e+000 1.596855e+001 5.924104e-002 5.384988e-001 2.584681e-001 3.922797e-001 4.929197e-001 4.159507e-001 6.357649e-001 2.978198e-001 3.643781e-001 2.680888e-001 1.969460e-001 2.876878e-001 6.206560e-001
<GCONST> 1.153787e+002
<STATE> 3
<MEAN> 39
 -2.938744e+000 -5.788956e+000 -1.430269e+000 -7.411980e+000 1.879364e+000 9.794387e-001 5.578241e+000 4.556030e+000 -2.108647e+000 -1.107464e+000 -5.134965e+000 -5.667299e+000 6.538773e+001 -4.122008e-001 -1.008242e+000 3.790709e-001 4.942229e-001 7.967593e-001 8.918151e-002 5.281612e-001 1.764149e-001 1.252928e-001 1.159388e-001 -1.294991e-002 -8.862739e-003 6.872548e-001 -3.622874e-002 6.320627e-002 -2.592695e-001 -3.635025e-002 -3.813746e-002 2.692401e-001 -4.674120e-001 -2.263566e-002 1.360409e-002 -7.774696e-002 -1.321713e-001 -8.497561e-002 -4.975446e-001
<VARIANCE> 39
 2.967016e+001 1.678944e+002 1.977839e+001 6.117569e+001 2.155378e+001 1.011356e+002 1.656208e+001 3.963710e+001 2.389817e+001 1.073507e+001 1.424714e+001 1.504239e+001 1.267355e+002 4.317021e-001 2.903634e+000 1.380004e+000 3.648525e+000 1.300240e+000 3.399419e+000 3.332525e+000 1.489389e+000 1.798986e+000 1.080799e+000 9.717735e-001 1.689485e+000 1.068203e+001 4.131923e-002 4.581932e-001 2.396853e-001 2.709374e-001 2.790428e-001 6.981944e-001 6.990859e-001 2.807977e-001 3.394195e-001 2.073584e-001 1.557460e-001 3.509421e-001 6.756501e-001
<GCONST> 1.097621e+002
<STATE> 4
<MEAN> 39
 -4.161692e+000 -6.991471e+000 -1.294228e+000 -5.253933e+000 3.720389e+000 2.810556e+000 5.358129e+000 4.985486e+000 -9.144098e-001 -1.089384e+000 -5.176551e+000 -5.438199e+000 6.328941e+001 -5.003256e-001 -2.857727e-001 -9.894780e-003 4.035916e-001 4.707493e-001 1.104380e-001 -1.982499e-001 3.300236e-001 5.793113e-001 -2.091557e-001 -1.990427e-001 -5.375091e-002 -6.045055e-001 4.795049e-002 1.519988e-001 -2.733646e-002 3.802802e-002 -5.947097e-002 -9.034208e-002 -1.730946e-001 1.439743e-001 1.429698e-001 -9.705132e-002 -3.687713e-002 2.499318e-002 -2.182787e-001
<VARIANCE> 39
 1.824986e+001 1.891499e+002 1.602035e+001 5.612161e+001 1.562628e+001 6.769270e+001 1.353607e+001 3.504044e+001 2.200315e+001 8.038230e+000 1.548545e+001 1.149017e+001 1.954342e+002 5.268809e-001 1.273228e+000 5.586977e-001 1.286216e+000 5.716215e-001 1.862543e+000 1.099754e+000 1.235757e+000 9.062189e-001 8.414221e-001 5.873922e-001 1.533468e+000 2.560276e+000 3.357001e-002 1.945229e-001 1.144818e-001 1.378055e-001 1.119371e-001 3.638042e-001 2.882587e-001 1.759222e-001 1.549800e-001 1.358862e-001 8.295704e-002 2.797198e-001 4.362496e-001
<GCONST> 9.177082e+001
<TRANSP> 5
 0.000000e+000 1.000000e+000 0.000000e+000 0.000000e+000 0.000000e+000
 0.000000e+000 6.541819e-001 3.458181e-001 0.000000e+000 0.000000e+000
 0.000000e+000 0.000000e+000 6.541818e-001 3.458182e-001 0.000000e+000
 0.000000e+000 0.000000e+000 0.000000e+000 7.530624e-001 2.469376e-001
 0.000000e+000 0.000000e+000 0.000000e+000 0.000000e+000 0.000000e+000
<ENDHMM>
~h "u"
<BEGINHMM>
<NUMSTATES> 5
<STATE> 2
<MEAN> 39
 -2.933023e+000 -1.843122e+001 -7.979521e+000 -1.960947e+001 5.586699e+000 -2.425310e+000 7.022218e-001 -4.947509e+000 -6.156073e+000 2.829095e+000 -5.047483e+000 -1.194518e+001 7.603893e+001 9.516871e-001 2.033372e+000 -6.848155e-001 -3.480379e-001 -7.107360e-001 -1.760424e-001 -3.782336e-001 -3.003257e-001 -1.172283e+000 1.337635e+000 2.999792e-001 -1.752695e-002 -1.533385e+000 1.904029e-002 1.622580e-001 1.103307e-001 4.898668e-001 -1.112917e-001 -1.264052e-001 6.450719e-002 6.208058e-001 -8.219851e-002 -2.141039e-001 -3.232232e-001 3.092749e-001 -4.452538e-001
<VARIANCE> 39
 6.590942e+000 3.186174e+001 5.496954e+000 6.746541e+000 9.294814e+000 3.974921e+000 1.581929e+000 8.423444e+000 1.704882e+001 1.780635e+001 2.966134e+000 1.778905e+001 1.081683e+001 3.134942e-001 1.746725e+000 2.263970e-001 1.874459e+000 1.443549e+000 9.962176e-001 1.460004e-001 2.274175e+000 1.854506e+000 9.060133e-001 7.438070e-001 5.084419e+000 1.441875e+000 1.201929e-001 4.660408e-001 5.943593e-002 3.708460e-001 3.383244e-001 2.588718e-001 2.851933e-002 2.424024e-001 5.219066e-001 4.257290e-001 2.084664e-001 1.209032e+000 7.567488e-002
<GCONST> 7.934557e+001
<STATE> 3
<MEAN> 39
 -3.388625e-001 -1.290655e+001 -9.260584e+000 -1.977093e+001 3.457742e+000 -3.965386e+000 -2.954481e-001 -4.787341e+000 -9.670645e+000 6.052752e+000 -4.627398e+000 -9.953754e+000 7.172878e+001 7.819573e-001 1.887231e+000 -2.864075e-001 1.282362e+000 -4.992723e-001 -1.810140e-001 -2.274877e-001 1.582617e+000 -8.753611e-001 3.506477e-001 -8.103185e-001 3.245910e-001 -2.687284e+000 -2.844774e-001 -4.700744e-001 1.775893e-001 7.849941e-001 3.285487e-001 4.157091e-001 1.249818e-001 8.811990e-001 5.697395e-001 -7.093450e-001 -5.951032e-001 -5.135891e-001 -3.605638e-001
<VARIANCE> 39
 8.601515e+000 3.984401e+001 4.060623e+000 9.149507e+000 9.982246e+000 1.054288e+001 4.292661e+000 1.125783e+001 2.888195e+001 1.373793e+001 2.690244e+000 2.503029e+001 2.915649e+001 7.223038e-001 2.454889e+000 4.103613e-001 4.918347e+000 1.512145e+000 1.955840e+000 1.822040e-001 5.652665e+000 3.851085e+000 3.842339e+000 2.694093e+000 6.752732e+000 1.753558e+000 1.832626e-001 6.641340e-001 4.723640e-002 2.643842e-001 3.108586e-001 6.601610e-001 3.012775e-002 1.917599e-001 9.132835e-001 4.952700e-001 1.871527e-001 2.182866e+000 1.425653e-001
<GCONST> 9.491206e+001
<STATE> 4
<MEAN> 39
 6.306232e-001 -9.850258e+000 -9.469667e+000 -1.408375e+001 3.379380e+000 -2.731961e+000 -4.743585e-001 1.969397e+000 -9.739944e+000 4.626839e+000 -8.544207e+000 -1.126604e+001 6.393297e+001 -2.141712e-001 1.590327e-001 6.869116e-002 3.072213e+000 5.600706e-001 1.544877e+000 2.021439e-001 3.601070e+000 1.141462e+000 -1.648489e+000 -2.262362e+000 -2.009341e+000 -3.158746e+000 -4.311443e-001 -7.547256e-001 4.721206e-002 4.459650e-001 3.828826e-001 8.622592e-001 2.046054e-001 5.312412e-001 8.668925e-001 -6.961498e-001 -4.126507e-001 -1.188724e+000 6.665125e-002
<VARIANCE> 39
 5.060876e+000 1.576698e+001 1.964946e+000 4.328147e+001 5.884384e+000 2.420355e+001 7.208333e+000 5.873069e+001 2.235688e+001 2.141814e+001 2.410670e+001 5.128526e+001 4.774549e+001 1.113161e+000 3.493215e+000 2.313379e-001 3.019599e+000 1.312536e+000 4.034215e+000 2.611016e-001 3.636511e+000 5.046150e+000 3.888529e+000 2.007795e+000 9.141419e+000 8.015403e-001 8.856523e-002 2.955626e-001 4.431545e-002 3.359893e-001 1.396278e-001 3.668799e-001 1.941456e-002 3.339191e-001 4.750829e-001 3.259227e-001 2.014344e-001 1.125121e+000 2.045790e-001
<GCONST> 9.614688e+001
<TRANSP> 5
 0.000000e+000 1.000000e+000 0.000000e+000 0.000000e+000 0.000000e+000
 0.000000e+000 5.759119e-001 4.240882e-001 0.000000e+000 0.000000e+000
 0.000000e+000 0.000000e+000 5.759119e-001 4.240882e-001 0.000000e+000
 0.000000e+000 0.000000e+000 0.000000e+000 6.610935e-001 3.389066e-001
 0.000000e+000 0.000000e+000 0.000000e+000 0.000000e+000 0.000000e+000
<ENDHMM>
~h "y"
<BEGINHMM>
<NUMSTATES> 5
<STATE> 2
<MEAN> 39
 -4.567753e+000 -7.143067e+000 -2.541086e-002 -1.135347e+001 -1.687831e+000 -1.954881e+000 -2.646961e+000 -2.072761e+000 -2.789703e+000 -2.519353e+000 -6.155596e+000 -5.577165e+000 7.077073e+001 1.284684e-001 3.519998e-002 5.042017e-002 -1.919170e-002 3.023124e-002 1.526818e-001 1.134414e-001 2.059520e-001 -9.232968e-004 -1.269177e-001 -8.922511e-002 -2.744853e-002 -7.531010e-002 5.912672e-003 1.712719e-002 -1.400904e-002 4.067212e-002 1.142783e-002 6.040929e-002 -2.948085e-002 1.259365e-002 -2.109511e-002 -7.946315e-003 -1.983920e-002 -3.233210e-002 -9.618374e-002
<VARIANCE> 39
 3.415611e+001 7.917472e+001 6.772413e+001 1.044564e+002 6.616837e+001 6.690615e+001 4.644624e+001 6.430594e+001 6.305968e+001 3.884728e+001 4.429239e+001 2.991177e+001 1.093573e+002 1.494153e+000 2.442461e+000 2.803278e+000 3.689717e+000 2.789096e+000 2.684588e+000 2.923815e+000 2.980957e+000 2.440595e+000 2.124268e+000 2.570347e+000 2.055594e+000 4.928689e+000 2.082175e-001 2.880168e-001 3.830723e-001 4.453130e-001 4.567120e-001 3.917358e-001 5.017791e-001 4.192902e-001 3.397919e-001 3.803485e-001 4.509306e-001 4.006631e-001 4.068455e-001
<GCONST> 1.247249e+002
<STATE> 3
<MEAN> 39
 -4.567753e+000 -7.143067e+000 -2.541086e-002 -1.135347e+001 -1.687831e+000 -1.954881e+000 -2.646961e+000 -2.072761e+000 -2.789703e+000 -2.519353e+000 -6.155596e+000 -5.577165e+000 7.077073e+001 1.284684e-001 3.519998e-002 5.042017e-002 -1.919170e-002 3.023124e-002 1.526818e-001 1.134414e-001 2.059520e-001 -9.232968e-004 -1.269177e-001 -8.922511e-002 -2.744853e-002 -7.531010e-002 5.912672e-003 1.712719e-002 -1.400904e-002 4.067212e-002 1.142783e-002 6.040929e-002 -2.948085e-002 1.259365e-002 -2.109511e-002 -7.946315e-003 -1.983920e-002 -3.233210e-002 -9.618374e-002
<VARIANCE> 39
 3.415611e+001 7.917472e+001 6.772413e+001 1.044564e+002 6.616837e+001 6.690615e+001 4.644624e+001 6.430594e+001 6.305968e+001 3.884728e+001 4.429239e+001 2.991177e+001 1.093573e+002 1.494153e+000 2.442461e+000 2.803278e+000 3.689717e+000 2.789096e+000 2.684588e+000 2.923815e+000 2.980957e+000 2.440595e+000 2.124268e+000 2.570347e+000 2.055594e+000 4.928689e+000 2.082175e-001 2.880168e-001 3.830723e-001 4.453130e-001 4.567120e-001 3.917358e-001 5.017791e-001 4.192902e-001 3.397919e-001 3.803485e-001 4.509306e-001 4.006631e-001 4.068455e-001
<GCONST> 1.247249e+002
<STATE> 4
<MEAN> 39
 -4.567753e+000 -7.143067e+000 -2.541086e-002 -1.135347e+001 -1.687831e+000 -1.954881e+000 -2.646961e+000 -2.072761e+000 -2.789703e+000 -2.519353e+000 -6.155596e+000 -5.577165e+000 7.077073e+001 1.284684e-001 3.519998e-002 5.042017e-002 -1.919170e-002 3.023124e-002 1.526818e-001 1.134414e-001 2.059520e-001 -9.232968e-004 -1.269177e-001 -8.922511e-002 -2.744853e-002 -7.531010e-002 5.912672e-003 1.712719e-002 -1.400904e-002 4.067212e-002 1.142783e-002 6.040929e-002 -2.948085e-002 1.259365e-002 -2.109511e-002 -7.946315e-003 -1.983920e-002 -3.233210e-002 -9.618374e-002
<VARIANCE> 39
 3.415611e+001 7.917472e+001 6.772413e+001 1.044564e+002 6.616837e+001 6.690615e+001 4.644624e+001 6.430594e+001 6.305968e+001 3.884728e+001 4.429239e+001 2.991177e+001 1.093573e+002 1.494153e+000 2.442461e+000 2.803278e+000 3.689717e+000 2.789096e+000 2.684588e+000 2.923815e+000 2.980957e+000 2.440595e+000 2.124268e+000 2.570347e+000 2.055594e+000 4.928689e+000 2.082175e-001 2.880168e-001 3.830723e-001 4.453130e-001 4.567120e-001 3.917358e-001 5.017791e-001 4.192902e-001 3.397919e-001 3.803485e-001 4.509306e-001 4.006631e-001 4.068455e-001
<GCONST> 1.247249e+002
<TRANSP> 5
 0.000000e+000 1.000000e+000 0.000000e+000 0.000000e+000 0.000000e+000
 0.000000e+000 6.000000e-001 4.000000e-001 0.000000e+000 0.000000e+000
 0.000000e+000 0.000000e+000 6.000000e-001 4.000000e-001 0.000000e+000
 0.000000e+000 0.000000e+000 0.000000e+000 7.000000e-001 3.000000e-001
 0.000000e+000 0.000000e+000 0.000000e+000 0.000000e+000 0.000000e+000
<ENDHMM>
~h "ar"
<BEGINHMM>
<NUMSTATES> 5
<STATE> 2
<MEAN> 39
 -4.567753e+000 -7.143067e+000 -2.541086e-002 -1.135347e+001 -1.687831e+000 -1.954881e+000 -2.646961e+000 -2.072761e+000 -2.789703e+000 -2.519353e+000 -6.155596e+000 -5.577165e+000 7.077073e+001 1.284684e-001 3.519998e-002 5.042017e-002 -1.919170e-002 3.023124e-002 1.526818e-001 1.134414e-001 2.059520e-001 -9.232968e-004 -1.269177e-001 -8.922511e-002 -2.744853e-002 -7.531010e-002 5.912672e-003 1.712719e-002 -1.400904e-002 4.067212e-002 1.142783e-002 6.040929e-002 -2.948085e-002 1.259365e-002 -2.109511e-002 -7.946315e-003 -1.983920e-002 -3.233210e-002 -9.618374e-002
<VARIANCE> 39
 3.415611e+001 7.917472e+001 6.772413e+001 1.044564e+002 6.616837e+001 6.690615e+001 4.644624e+001 6.430594e+001 6.305968e+001 3.884728e+001 4.429239e+001 2.991177e+001 1.093573e+002 1.494153e+000 2.442461e+000 2.803278e+000 3.689717e+000 2.789096e+000 2.684588e+000 2.923815e+000 2.980957e+000 2.440595e+000 2.124268e+000 2.570347e+000 2.055594e+000 4.928689e+000 2.082175e-001 2.880168e-001 3.830723e-001 4.453130e-001 4.567120e-001 3.917358e-001 5.017791e-001 4.192902e-001 3.397919e-001 3.803485e-001 4.509306e-001 4.006631e-001 4.068455e-001
<GCONST> 1.247249e+002
<STATE> 3
<MEAN> 39
 -4.567753e+000 -7.143067e+000 -2.541086e-002 -1.135347e+001 -1.687831e+000 -1.954881e+000 -2.646961e+000 -2.072761e+000 -2.789703e+000 -2.519353e+000 -6.155596e+000 -5.577165e+000 7.077073e+001 1.284684e-001 3.519998e-002 5.042017e-002 -1.919170e-002 3.023124e-002 1.526818e-001 1.134414e-001 2.059520e-001 -9.232968e-004 -1.269177e-001 -8.922511e-002 -2.744853e-002 -7.531010e-002 5.912672e-003 1.712719e-002 -1.400904e-002 4.067212e-002 1.142783e-002 6.040929e-002 -2.948085e-002 1.259365e-002 -2.109511e-002 -7.946315e-003 -1.983920e-002 -3.233210e-002 -9.618374e-002
<VARIANCE> 39
 3.415611e+001 7.917472e+001 6.772413e+001 1.044564e+002 6.616837e+001 6.690615e+001 4.644624e+001 6.430594e+001 6.305968e+001 3.884728e+001 4.429239e+001 2.991177e+001 1.093573e+002 1.494153e+000 2.442461e+000 2.803278e+000 3.689717e+000 2.789096e+000 2.684588e+000 2.923815e+000 2.980957e+000 2.440595e+000 2.124268e+000 2.570347e+000 2.055594e+000 4.928689e+000 2.082175e-001 2.880168e-001 3.830723e-001 4.453130e-001 4.567120e-001 3.917358e-001 5.017791e-001 4.192902e-001 3.397919e-001 3.803485e-001 4.509306e-001 4.006631e-001 4.068455e-001
<GCONST> 1.247249e+002
<STATE> 4
<MEAN> 39
 -4.567753e+000 -7.143067e+000 -2.541086e-002 -1.135347e+001 -1.687831e+000 -1.954881e+000 -2.646961e+000 -2.072761e+000 -2.789703e+000 -2.519353e+000 -6.155596e+000 -5.577165e+000 7.077073e+001 1.284684e-001 3.519998e-002 5.042017e-002 -1.919170e-002 3.023124e-002 1.526818e-001 1.134414e-001 2.059520e-001 -9.232968e-004 -1.269177e-001 -8.922511e-002 -2.744853e-002 -7.531010e-002 5.912672e-003 1.712719e-002 -1.400904e-002 4.067212e-002 1.142783e-002 6.040929e-002 -2.948085e-002 1.259365e-002 -2.109511e-002 -7.946315e-003 -1.983920e-002 -3.233210e-002 -9.618374e-002
<VARIANCE> 39
 3.415611e+001 7.917472e+001 6.772413e+001 1.044564e+002 6.616837e+001 6.690615e+001 4.644624e+001 6.430594e+001 6.305968e+001 3.884728e+001 4.429239e+001 2.991177e+001 1.093573e+002 1.494153e+000 2.442461e+000 2.803278e+000 3.689717e+000 2.789096e+000 2.684588e+000 2.923815e+000 2.980957e+000 2.440595e+000 2.124268e+000 2.570347e+000 2.055594e+000 4.928689e+000 2.082175e-001 2.880168e-001 3.830723e-001 4.453130e-001 4.567120e-001 3.917358e-001 5.017791e-001 4.192902e-001 3.397919e-001 3.803485e-001 4.509306e-001 4.006631e-001 4.068455e-001
<GCONST> 1.247249e+002
<TRANSP> 5
 0.000000e+000 1.000000e+000 0.000000e+000 0.000000e+000 0.000000e+000
 0.000000e+000 6.000000e-001 4.000000e-001 0.000000e+000 0.000000e+000
 0.000000e+000 0.000000e+000 6.000000e-001 4.000000e-001 0.000000e+000
 0.000000e+000 0.000000e+000 0.000000e+000 7.000000e-001 3.000000e-001
 0.000000e+000 0.000000e+000 0.000000e+000 0.000000e+000 0.000000e+000
<ENDHMM>
~h "as"
<BEGINHMM>
<NUMSTATES> 5
<STATE> 2
<MEAN> 39
 -7.393451e+000 -2.079361e+001 -2.710234e+000 -1.320813e+001 3.850887e+000 -6.591455e+000 3.654783e+000 1.324371e+000 -4.704505e+000 -2.777981e+000 -8.727441e+000 -4.124587e+000 7.741267e+001 9.531747e-001 -1.267555e+000 -5.523611e-001 -8.259436e-001 7.497468e-001 9.951632e-001 -5.794544e-001 -5.753649e-001 4.764168e-001 2.084538e-001 -1.968632e-001 -4.165397e-001 5.596205e-001 -1.769704e-001 3.877864e-001 -1.021274e-002 2.058630e-001 1.369389e-001 -4.610674e-002 -8.346695e-002 -1.397964e-001 -6.498802e-003 1.066386e-001 1.816027e-001 -1.061832e-001 -3.325903e-001
<VARIANCE> 39
 1.368315e+001 3.766803e+001 9.377709e+000 1.532683e+001 3.453048e+001 1.733515e+001 1.206673e+001 1.369331e+001 7.822885e+000 5.664749e+000 9.209968e+000 9.956778e+000 2.134283e+001 2.542306e+000 4.867194e+000 8.455330e-001 2.817698e+000 2.754304e+000 8.705868e-001 9.767647e-001 6.404255e-001 7.135082e-001 5.209360e-001 2.192806e+000 1.267289e+000 3.493261e+000 4.472755e-001 4.918018e-001 8.134094e-002 5.430463e-001 6.161581e-001 1.774487e-001 3.422529e-001 7.911085e-002 1.641439e-001 9.620957e-002 5.069603e-001 1.711813e-001 4.397143e-001
<GCONST> 9.296442e+001
<STATE> 3
<MEAN> 39
 -5.795745e+000 -2.237934e+001 -3.932887e+000 -1.430820e+001 5.813627e+000 -4.642072e+000 2.305237e+000 -3.354313e-001 -3.663274e+000 -1.923766e+000 -8.376842e+000 -5.426206e+000 7.754448e+001 6.509352e-001 -1.817321e-001 -4.841227e-001 -2.769010e-001 5.967738e-001 7.147154e-001 -5.669956e-001 -8.700051e-001 1.554624e-001 5.635831e-001 3.063617e-001 -7.431378e-001 -3.164348e-001 -6.436595e-002 4.673610e-001 4.800392e-002 1.974427e-001 -1.656484e-001 -1.339878e-001 -6.161993e-003 -1.033195e-001 -2.168617e-001 1.409874e-001 1.321911e-001 -8.957189e-002 -3.466939e-001
<VARIANCE> 39
 6.093425e+000 1.152478e+001 4.990583e+000 1.225473e+001 2.170824e+001 9.048120e+000 7.405817e+000 1.352058e+001 8.255654e+000 8.386358e+000 4.376142e+000 1.118061e+001 1.466083e+001 9.595960e-001 3.371020e+000 6.160762e-001 2.603441e+000 2.474570e+000 7.735711e-001 5.532887e-001 6.643816e-001 1.424828e+000 7.730319e-001 9.826293e-001 1.094541e+000 2.445671e+000 2.521044e-001 2.366201e-001 7.584671e-002 4.720459e-001 4.194955e-001 9.415337e-002 1.399270e-001 8.847500e-002 1.796744e-001 1.383014e-001 2.413769e-001 1.888612e-001 2.124631e-001
<GCONST> 8.099667e+001
<STATE> 4
<MEAN> 39
 -4.137419e+000 -2.117872e+001 -4.918907e+000 -1.416790e+001 6.466049e+000 -3.268568e+000 8.235401e-001 -3.004138e+000 -4.201518e+000 1.280928e-001 -7.152265e+000 -7.735824e+000 7.532464e+001 6.754136e-001 1.026188e+000 -2.963339e-001 2.093678e-001 -1.331270e-001 3.051017e-001 -5.980036e-001 -1.091443e+000 -6.981304e-001 8.783619e-001 4.132018e-001 -8.201598e-001 -1.132374e+000 4.818547e-003 3.987485e-001 7.858135e-002 1.814080e-001 -2.457071e-001 -1.751202e-001 -1.322780e-002 2.929278e-002 -2.795240e-001 2.576260e-002 -5.299542e-002 9.320608e-002 -2.623880e-001
<VARIANCE> 39
 7.146519e+000 1.662647e+001 6.215112e+000 3.684551e+001 1.391293e+001 4.785153e+000 8.637088e+000 1.600128e+001 1.526402e+001 1.312529e+001 3.881610e+000 1.784307e+001 3.029075e+001 5.257449e-001 2.169098e+000 6.840158e-001 3.821093e+000 2.568959e+000 7.930602e-001 6.881881e-001 7.735134e-001 2.231446e+000 1.155248e+000 4.565774e-001 1.577674e+000 1.398828e+000 1.355218e-001 1.650532e-001 7.816059e-002 5.654602e-001 3.864186e-001 1.022225e-001 1.304556e-001 1.900585e-001 2.689172e-001 2.678115e-001 1.453754e-001 3.811318e-001 1.492472e-001
<GCONST> 8.481837e+001
<TRANSP> 5
 0.000000e+000 1.000000e+000 0.000000e+000 0.000000e+000 0.000000e+000
 0.000000e+000 5.948599e-001 4.051400e-001 0.000000e+000 0.000000e+000
 0.000000e+000 0.000000e+000 5.948599e-001 4.051401e-001 0.000000e+000
 0.000000e+000 0.000000e+000 0.000000e+000 6.834115e-001 3.165886e-001
 0.000000e+000 0.000000e+000 0.000000e+000 0.000000e+000 0.000000e+000
<ENDHMM>
~h "aw"
<BEGINHMM>
<NUMSTATES> 5
<STATE> 2
<MEAN> 39
 -4.567753e+000 -7.143067e+000 -2.541086e-002 -1.135347e+001 -1.687831e+000 -1.954881e+000 -2.646961e+000 -2.072761e+000 -2.789703e+000 -2.519353e+000 -6.155596e+000 -5.577165e+000 7.077073e+001 1.284684e-001 3.519998e-002 5.042017e-002 -1.919170e-002 3.023124e-002 1.526818e-001 1.134414e-001 2.059520e-001 -9.232968e-004 -1.269177e-001 -8.922511e-002 -2.744853e-002 -7.531010e-002 5.912672e-003 1.712719e-002 -1.400904e-002 4.067212e-002 1.142783e-002 6.040929e-002 -2.948085e-002 1.259365e-002 -2.109511e-002 -7.946315e-003 -1.983920e-002 -3.233210e-002 -9.618374e-002
<VARIANCE> 39
 3.415611e+001 7.917472e+001 6.772413e+001 1.044564e+002 6.616837e+001 6.690615e+001 4.644624e+001 6.430594e+001 6.305968e+001 3.884728e+001 4.429239e+001 2.991177e+001 1.093573e+002 1.494153e+000 2.442461e+000 2.803278e+000 3.689717e+000 2.789096e+000 2.684588e+000 2.923815e+000 2.980957e+000 2.440595e+000 2.124268e+000 2.570347e+000 2.055594e+000 4.928689e+000 2.082175e-001 2.880168e-001 3.830723e-001 4.453130e-001 4.567120e-001 3.917358e-001 5.017791e-001 4.192902e-001 3.397919e-001 3.803485e-001 4.509306e-001 4.006631e-001 4.068455e-001
<GCONST> 1.247249e+002
<STATE> 3
<MEAN> 39
 -4.567753e+000 -7.143067e+000 -2.541086e-002 -1.135347e+001 -1.687831e+000 -1.954881e+000 -2.646961e+000 -2.072761e+000 -2.789703e+000 -2.519353e+000 -6.155596e+000 -5.577165e+000 7.077073e+001 1.284684e-001 3.519998e-002 5.042017e-002 -1.919170e-002 3.023124e-002 1.526818e-001 1.134414e-001 2.059520e-001 -9.232968e-004 -1.269177e-001 -8.922511e-002 -2.744853e-002 -7.531010e-002 5.912672e-003 1.712719e-002 -1.400904e-002 4.067212e-002 1.142783e-002 6.040929e-002 -2.948085e-002 1.259365e-002 -2.109511e-002 -7.946315e-003 -1.983920e-002 -3.233210e-002 -9.618374e-002
<VARIANCE> 39
 3.415611e+001 7.917472e+001 6.772413e+001 1.044564e+002 6.616837e+001 6.690615e+001 4.644624e+001 6.430594e+001 6.305968e+001 3.884728e+001 4.429239e+001 2.991177e+001 1.093573e+002 1.494153e+000 2.442461e+000 2.803278e+000 3.689717e+000 2.789096e+000 2.684588e+000 2.923815e+000 2.980957e+000 2.440595e+000 2.124268e+000 2.570347e+000 2.055594e+000 4.928689e+000 2.082175e-001 2.880168e-001 3.830723e-001 4.453130e-001 4.567120e-001 3.917358e-001 5.017791e-001 4.192902e-001 3.397919e-001 3.803485e-001 4.509306e-001 4.006631e-001 4.068455e-001
<GCONST> 1.247249e+002
<STATE> 4
<MEAN> 39
 -4.567753e+000 -7.143067e+000 -2.541086e-002 -1.135347e+001 -1.687831e+000 -1.954881e+000 -2.646961e+000 -2.072761e+000 -2.789703e+000 -2.519353e+000 -6.155596e+000 -5.577165e+000 7.077073e+001 1.284684e-001 3.519998e-002 5.042017e-002 -1.919170e-002 3.023124e-002 1.526818e-001 1.134414e-001 2.059520e-001 -9.232968e-004 -1.269177e-001 -8.922511e-002 -2.744853e-002 -7.531010e-002 5.912672e-003 1.712719e-002 -1.400904e-002 4.067212e-002 1.142783e-002 6.040929e-002 -2.948085e-002 1.259365e-002 -2.109511e-002 -7.946315e-003 -1.983920e-002 -3.233210e-002 -9.618374e-002
<VARIANCE> 39
 3.415611e+001 7.917472e+001 6.772413e+001 1.044564e+002 6.616837e+001 6.690615e+001 4.644624e+001 6.430594e+001 6.305968e+001 3.884728e+001 4.429239e+001 2.991177e+001 1.093573e+002 1.494153e+000 2.442461e+000 2.803278e+000 3.689717e+000 2.789096e+000 2.684588e+000 2.923815e+000 2.980957e+000 2.440595e+000 2.124268e+000 2.570347e+000 2.055594e+000 4.928689e+000 2.082175e-001 2.880168e-001 3.830723e-001 4.453130e-001 4.567120e-001 3.917358e-001 5.017791e-001 4.192902e-001 3.397919e-001 3.803485e-001 4.509306e-001 4.006631e-001 4.068455e-001
<GCONST> 1.247249e+002
<TRANSP> 5
 0.000000e+000 1.000000e+000 0.000000e+000 0.000000e+000 0.000000e+000
 0.000000e+000 6.000000e-001 4.000000e-001 0.000000e+000 0.000000e+000
 0.000000e+000 0.000000e+000 6.000000e-001 4.000000e-001 0.000000e+000
 0.000000e+000 0.000000e+000 0.000000e+000 7.000000e-001 3.000000e-001
 0.000000e+000 0.000000e+000 0.000000e+000 0.000000e+000 0.000000e+000
<ENDHMM>
~h "ch"
<BEGINHMM>
<NUMSTATES> 5
<STATE> 2
<MEAN> 39
 -1.077302e+001 7.897367e-001 4.761883e+000 -7.890422e+000 -5.510286e+000 -8.346661e+000 -3.622531e+000 -4.713328e+000 -4.451995e+000 4.826519e-001 -2.130010e-001 1.375340e+000 5.563512e+001 -1.074235e+000 1.474269e-001 -4.931297e-001 -2.569044e-001 1.484976e+000 -6.145251e-002 1.351875e+000 -4.770479e-001 9.215963e-001 -3.953532e-001 7.296438e-001 3.907648e-001 1.711698e+000 -2.856078e-002 2.742335e-001 3.196757e-001 -4.745796e-002 -5.800852e-001 -3.075468e-002 6.608958e-003 2.886207e-001 -2.172690e-001 -6.077585e-001 2.819761e-001 -4.799506e-001 6.012703e-001
<VARIANCE> 39
 1.597465e+001 1.175524e+001 4.615459e+001 3.952443e+000 3.929079e+001 5.618927e+000 4.454528e+001 1.106223e+001 1.308390e+001 1.974848e+001 1.601751e+001 1.071821e+001 7.336208e+001 2.366543e+000 2.464669e+000 1.059511e+001 5.399882e-001 8.634028e+000 7.484467e-001 9.295771e+000 1.371356e+000 3.227063e+000 3.069333e+000 1.220245e+000 2.770680e+000 5.066199e+000 5.360025e-001 6.186678e-001 2.407849e+000 1.296981e-001 1.299351e+000 1.421724e-001 2.304353e+000 1.453015e-001 7.105142e-001 5.623172e-001 1.985978e-001 4.156981e-001 6.775393e-001
<GCONST> 1.129126e+002
<STATE> 3
<MEAN> 39
 -1.225924e+001 1.433984e+000 7.134601e+000 -8.249634e+000 -6.166582e+000 -9.410933e+000 -2.672617e+000 -4.243974e+000 -3.674417e+000 -2.996302e+000 2.719917e+000 3.100442e-002 6.511625e+001 -6.696577e-002 1.161820e-001 1.038081e+000 -8.953448e-003 -7.593750e-001 -3.693538e-001 -2.368837e-001 3.223415e-001 -1.297815e-002 -1.066309e+000 6.947461e-001 -5.909719e-001 2.832716e+000 3.607648e-001 -1.035501e-001 3.765155e-001 1.029297e-001 -5.541930e-001 -8.008450e-002 -5.236391e-001 1.700080e-001 -2.241623e-001 -2.175724e-002 -1.271716e-001 -1.691640e-001 1.319188e-001
<VARIANCE> 39
 2.321326e+001 2.273781e+001 9.047321e+001 7.057421e+000 6.630743e+001 1.565485e+001 6.683492e+001 2.424237e+001 1.800855e+001 2.217209e+001 2.637122e+001 1.701356e+001 1.381350e+002 3.942841e+000 4.020206e+000 1.512410e+001 9.152591e-001 1.186739e+001 1.828903e+000 1.381687e+001 2.703474e+000 4.742250e+000 2.024104e+000 3.127174e+000 2.957923e+000 8.011442e+000 5.182427e-001 8.829244e-001 3.540067e+000 1.817297e-001 2.452835e+000 3.246192e-001 2.682217e+000 4.816940e-001 1.164803e+000 6.010733e-001 4.739428e-001 8.075017e-001 1.524939e+000
<GCONST> 1.323311e+002
<STATE> 4
<MEAN> 39
 -8.343667e+000 2.848839e-002 1.138539e+001 -6.952625e+000 -1.102616e+001 -1.016006e+001 -7.116341e+000 -2.837870e+000 -3.424314e+000 -5.287368e+000 1.120723e+000 -2.281664e+000 7.285453e+001 8.837247e-001 -3.101752e-001 5.708804e-001 3.305273e-001 -6.731179e-001 5.236041e-002 -8.096920e-001 3.375684e-002 2.499584e-001 -2.704737e-001 -7.471509e-001 -4.233137e-001 9.447711e-001 9.594691e-002 -3.235121e-002 -1.690125e-001 4.448820e-002 1.255414e-001 1.132772e-001 1.011516e-002 -1.088728e-001 8.683325e-002 1.248117e-001 -2.647935e-001 2.655941e-002 -4.238079e-001
<VARIANCE> 39
 2.923013e+001 1.745813e+001 4.174081e+001 9.163222e+000 4.405983e+001 2.909625e+001 3.877317e+001 3.475023e+001 1.983186e+001 5.145418e+000 5.998810e+001 1.993004e+001 7.094940e+001 1.570480e+000 2.739400e+000 8.570840e+000 1.036920e+000 8.166993e+000 4.099764e+000 6.238362e+000 4.487763e+000 3.386827e+000 1.255228e+000 5.515145e+000 3.527156e+000 1.108474e+001 3.366205e-001 5.787991e-001 2.043345e+000 2.393162e-001 1.815402e+000 7.139149e-001 1.521313e+000 7.371319e-001 8.469150e-001 2.426801e-001 8.768583e-001 8.293059e-001 1.214367e+000
<GCONST> 1.278187e+002
<TRANSP> 5
 0.000000e+000 1.000000e+000 0.000000e+000 0.000000e+000 0.000000e+000
 0.000000e+000 7.161132e-001 2.838868e-001 0.000000e+000 0.000000e+000
 0.000000e+000 0.000000e+000 7.161133e-001 2.838868e-001 0.000000e+000
 0.000000e+000 0.000000e+000 0.000000e+000 8.221148e-001 1.778852e-001
 0.000000e+000 0.000000e+000 0.000000e+000 0.000000e+000 0.000000e+000
<ENDHMM>
~h "is"
<BEGINHMM>
<NUMSTATES> 5
<STATE> 2
<MEAN> 39
 -5.049010e+000 -7.978882e-001 1.156991e+001 -5.430676e+000 -1.136189e+001 -8.505772e+000 -8.962547e+000 -4.507653e+000 -1.344190e+000 -5.411004e+000 -4.023379e+000 -3.910050e+000 7.214586e+001 6.982769e-001 -1.311125e-001 -1.012742e-001 3.648118e-001 1.163599e-001 4.759323e-001 -3.475499e-001 -5.878235e-001 5.215412e-001 -9.261712e-002 -1.410263e+000 -4.718913e-001 -4.847077e-001 -6.476555e-002 4.418642e-002 -1.195629e-001 -2.190538e-003 1.478827e-001 5.458219e-002 8.455714e-002 -1.042154e-001 4.618583e-003 -1.275432e-002 -9.897389e-002 -1.494791e-002 -2.542306e-001
<VARIANCE> 39
 1.690288e+001 8.799461e+000 1.203286e+001 9.259710e+000 1.891254e+001 3.819504e+001 1.262736e+001 4.262521e+001 2.031240e+001 6.979519e+000 7.915471e+001 2.557599e+001 4.529050e+001 1.101583e+000 1.663971e+000 3.157390e+000 1.167879e+000 4.193461e+000 5.090311e+000 2.574726e+000 4.446860e+000 2.266712e+000 1.154665e+000 4.414296e+000 3.274997e+000 6.561639e+000 2.083534e-001 3.400883e-001 8.201694e-001 2.641216e-001 9.152914e-001 9.646475e-001 5.745819e-001 7.974112e-001 5.304853e-001 2.276644e-001 1.001171e+000 7.284476e-001 1.015390e+000
<GCONST> 1.160722e+002
<STATE> 3
<MEAN> 39
 -3.330222e+000 -9.188420e-001 1.070125e+001 -4.324234e+000 -1.020474e+001 -6.750047e+000 -9.706240e+000 -7.130417e+000 2.785187e-001 -5.965417e+000 -9.075524e+000 -5.732861e+000 6.932828e+001 4.222930e-001 -2.325358e-002 -3.049363e-001 3.050125e-001 3.780524e-001 4.112833e-001 -2.207082e-001 -6.776495e-001 2.713145e-001 -3.684961e-001 -1.435884e+000 -5.005684e-001 -8.579723e-001 -6.192375e-002 2.554742e-002 -4.466768e-002 -6.386606e-003 4.619900e-002 -3.389049e-002 2.765974e-002 3.399942e-002 -1.057995e-001 -1.021187e-001 2.436481e-002 1.495345e-002 -6.561124e-002
<VARIANCE> 39
 8.494849e+000 5.491402e+000 6.929498e+000 7.461304e+000 1.134187e+001 3.333109e+001 9.152719e+000 3.818668e+001 1.795478e+001 1.701427e+001 6.928976e+001 2.283657e+001 3.547573e+001 9.819801e-001 1.091030e+000 1.152366e+000 1.132540e+000 1.871992e+000 4.977704e+000 1.511726e+000 3.967618e+000 2.225252e+000 1.747306e+000 3.368117e+000 2.436442e+000 3.369054e+000 1.854605e-001 2.234965e-001 3.401547e-001 2.504561e-001 4.770966e-001 9.559116e-001 3.402090e-001 8.283942e-001 3.842911e-001 2.806540e-001 8.817878e-001 5.250092e-001 7.272674e-001
<GCONST> 1.059371e+002
<STATE> 4
<MEAN> 39
 -2.051011e+000 -9.860195e-001 9.133646e+000 -3.196326e+000 -8.450792e+000 -5.717371e+000 -1.062072e+001 -9.260813e+000 1.597684e-001 -8.689425e+000 -1.463708e+001 -7.493446e+000 6.568191e+001 2.788315e-001 6.509846e-002 -4.246170e-001 3.517977e-001 4.240192e-001 2.167398e-001 -1.236221e-001 -2.080804e-001 -3.248774e-001 -9.005597e-001 -1.174311e+000 -3.031272e-001 -9.138077e-001 -2.632837e-002 5.103289e-002 -1.117411e-002 3.407199e-002 -7.745522e-003 -4.715416e-003 4.285127e-002 1.241202e-001 -9.398279e-002 -5.201148e-002 1.027780e-001 3.623473e-002 -2.597707e-002
<VARIANCE> 39
 5.335477e+000 3.971038e+000 8.943339e+000 6.987692e+000 9.700468e+000 2.316730e+001 1.199471e+001 2.379828e+001 2.048446e+001 4.105198e+001 5.278075e+001 1.215847e+001 2.632304e+001 7.490325e-001 6.978323e-001 7.109554e-001 9.093104e-001 9.996058e-001 3.939613e+000 2.088051e+000 3.747124e+000 2.208114e+000 2.484933e+000 2.914925e+000 1.483314e+000 1.464362e+000 1.658588e-001 1.284069e-001 1.871170e-001 1.912874e-001 2.603642e-001 7.742700e-001 4.815070e-001 8.325698e-001 3.210701e-001 4.571752e-001 7.417321e-001 3.066694e-001 3.435128e-001
<GCONST> 9.813184e+001
<TRANSP> 5
 0.000000e+000 1.000000e+000 0.000000e+000 0.000000e+000 0.000000e+000
 0.000000e+000 7.161133e-001 2.838868e-001 0.000000e+000 0.000000e+000
 0.000000e+000 0.000000e+000 7.161132e-001 2.838868e-001 0.000000e+000
 0.000000e+000 0.000000e+000 0.000000e+000 8.221148e-001 1.778851e-001
 0.000000e+000 0.000000e+000 0.000000e+000 0.000000e+000 0.000000e+000
<ENDHMM>
~h "kh"
<BEGINHMM>
<NUMSTATES> 5
<STATE> 2
<MEAN> 39
 -1.506736e+001 -4.093299e+000 -1.152132e+001 3.327635e+000 9.701346e+000 -1.678461e+000 -6.515495e+000 4.649081e+000 8.791123e+000 -2.294079e+000 -2.110851e+000 -6.738824e+000 5.705713e+001 4.747850e-002 -9.587958e-001 5.144010e-001 -4.615444e-002 8.169106e-001 4.088702e-001 -1.272009e-001 -1.063079e+000 3.423076e-001 6.933966e-002 1.683702e+000 -3.926976e-001 1.390137e+000 4.697676e-001 -9.681674e-002 6.897636e-002 -1.256235e-001 3.341681e-002 3.612058e-001 3.496367e-001 1.642729e-001 -4.137602e-001 1.210549e-001 -6.839302e-001 -1.236456e-001 2.184746e-001
<VARIANCE> 39
 8.299931e+000 8.630458e+000 3.362918e+000 1.017991e+001 7.081714e+000 9.162213e+000 1.365073e+001 1.038004e+001 6.937299e+000 2.856143e+000 2.050017e+001 3.012857e+000 1.435330e+001 1.448602e+000 4.219359e-001 1.484659e-001 9.510406e-001 1.011712e+000 1.396279e+000 1.851587e+000 2.647949e-001 1.346729e+000 2.036063e-001 3.270561e+000 2.975881e-001 4.819565e-001 6.374595e-002 9.145959e-002 1.973201e-002 1.519625e-001 2.603233e-001 3.357178e-001 3.161170e-001 4.601579e-002 7.543612e-002 3.871871e-002 3.066923e-001 6.470377e-002 7.420371e-002
<GCONST> 6.353511e+001
<STATE> 3
<MEAN> 39
 -1.244063e+001 -7.707268e+000 -9.718241e+000 1.818527e+000 1.113883e+001 1.927642e-001 -5.059156e+000 2.046317e+000 7.414705e+000 -1.979848e+000 -5.554165e-001 -8.498693e+000 6.218364e+001 1.473632e+000 -1.484660e+000 6.759740e-001 -9.023376e-001 1.292448e-001 6.948239e-001 8.763783e-001 -7.674892e-001 -1.016724e+000 4.377856e-002 -1.087455e-001 -7.267150e-001 2.002107e+000 4.571129e-001 -2.272664e-001 3.458517e-002 -3.614092e-001 -3.764629e-001 -5.251938e-002 2.715564e-001 6.438837e-002 -4.486335e-001 -8.636960e-002 -4.850118e-001 -9.647682e-002 1.897074e-001
<VARIANCE> 39
 4.033307e+001 3.229295e+001 6.662721e+000 3.711100e+001 1.659167e+001 1.623069e+001 3.033008e+001 1.228379e+001 2.835015e+001 4.601723e+000 8.321924e+000 1.056660e+001 4.178674e+001 2.490534e+000 1.950097e+000 3.741640e-001 3.317740e+000 3.489551e+000 2.293480e+000 3.435444e+000 4.909053e-001 2.362352e+000 3.387048e-001 2.728132e+000 1.160842e+000 1.549097e+000 3.107902e-001 3.590575e-001 7.216036e-002 5.437042e-001 5.445771e-001 5.865092e-001 8.140916e-001 1.102677e-001 2.873366e-001 2.874592e-002 6.398072e-001 2.880302e-001 3.401585e-001
<GCONST> 9.817373e+001
<STATE> 4
<MEAN> 39
 -5.042056e+000 -1.456544e+001 -7.711716e+000 -3.914330e+000 8.159103e+000 1.389381e+000 -1.866277e+000 -9.053524e-002 1.600568e+000 -2.862340e+000 -2.494730e+000 -1.131126e+001 6.976341e+001 2.219116e+000 -2.200435e+000 4.821260e-001 -1.832340e+000 -1.171851e+000 3.262709e-001 7.646685e-001 -5.920241e-001 -1.762786e+000 -4.635587e-001 -2.825361e-001 -7.510707e-001 2.254362e+000 7.035023e-002 -9.007307e-002 -9.874897e-002 -1.321663e-001 -2.591758e-001 -2.249320e-002 -1.115789e-001 7.594838e-002 -1.028805e-001 -1.254169e-001 5.421489e-002 4.769845e-002 -3.450183e-002
<VARIANCE> 39
 7.699437e+001 7.868652e+001 7.224469e+000 7.183778e+001 3.695396e+001 1.194563e+001 2.458117e+001 9.022096e+000 5.372775e+001 8.694443e+000 5.693316e+000 1.803186e+001 7.613652e+001 3.348878e+000 3.584552e+000 7.938837e-001 5.036573e+000 3.460521e+000 2.151048e+000 3.411707e+000 7.392841e-001 2.616494e+000 3.569163e-001 1.183208e+000 2.648681e+000 3.575754e+000 7.066563e-001 7.363982e-001 1.232702e-001 1.191315e+000 7.917020e-001 5.036498e-001 7.812610e-001 1.358843e-001 6.185923e-001 2.273745e-002 3.698711e-001 6.139144e-001 7.532158e-001
<GCONST> 1.106286e+002
<TRANSP> 5
 0.000000e+000 1.000000e+000 0.000000e+000 0.000000e+000 0.000000e+000
 0.000000e+000 6.402987e-001 3.597014e-001 0.000000e+000 0.000000e+000
 0.000000e+000 0.000000e+000 6.402987e-001 3.597014e-001 0.000000e+000
 0.000000e+000 0.000000e+000 0.000000e+000 7.349705e-001 2.650295e-001
 0.000000e+000 0.000000e+000 0.000000e+000 0.000000e+000 0.000000e+000
<ENDHMM>
~h "ng"
<BEGINHMM>
<NUMSTATES> 5
<STATE> 2
<MEAN> 39
 5.948527e+000 -1.793589e+001 -4.624541e+000 -1.778424e+001 -6.145333e+000 8.763522e+000 -1.800071e+000 1.305598e+000 -1.317495e+001 -8.854866e+000 -3.138057e+000 -1.417887e+001 7.521513e+001 -1.362003e-001 2.016415e+000 1.642644e+000 -4.804912e-001 -5.070029e-001 5.024884e-001 -1.692856e+000 8.336298e-001 -5.996128e-001 -2.204637e-001 -7.867357e-001 4.172473e-001 -1.053178e+000 -1.263007e-001 1.300686e-001 2.353451e-001 1.173464e-001 3.489571e-001 -6.380326e-002 -3.852833e-001 7.339939e-002 5.568051e-002 -9.404522e-002 4.821337e-003 2.544445e-001 -5.631532e-002
<VARIANCE> 39
 2.573229e+000 4.879572e+001 3.609745e+001 1.431378e+001 3.097011e+001 5.526750e+000 4.600682e+001 1.617587e+001 1.232478e+001 8.440846e+000 2.136519e+001 1.409456e+001 1.374892e+001 6.227966e-001 1.134115e+000 2.685356e+000 2.025304e+000 5.593165e+000 3.214878e-001 6.502607e+000 1.713635e+000 1.512286e+000 1.270670e+000 2.764387e+000 3.206980e+000 3.571756e-001 1.181318e-001 1.511460e-001 3.647191e-001 4.493880e-001 1.090852e+000 7.886011e-002 1.064843e+000 3.816726e-001 3.321176e-001 2.564135e-001 6.726866e-001 5.486501e-001 6.441336e-002
<GCONST> 9.824492e+001
<STATE> 3
<MEAN> 39
 5.201326e+000 -1.212385e+001 6.933949e-001 -1.870797e+001 -6.365453e+000 1.004618e+001 -7.840432e+000 3.699541e+000 -1.459644e+001 -9.631685e+000 -5.333969e+000 -1.228273e+001 7.219099e+001 -4.354421e-001 2.090199e+000 1.988268e+000 -2.754965e-001 5.729860e-001 2.538299e-001 -2.445969e+000 1.059628e+000 -6.112105e-001 -6.331318e-001 -4.445536e-001 1.111257e+000 -1.025649e+000 -3.582639e-002 -1.241834e-001 -1.522232e-001 -1.429889e-003 2.062363e-001 -1.744993e-001 1.640039e-001 7.316623e-002 -1.799056e-002 -1.271689e-001 2.080736e-001 1.051128e-001 1.028843e-001
<VARIANCE> 39
 3.471579e+000 4.868707e+001 5.142921e+001 9.282964e+000 2.659079e+001 5.637697e+000 8.610777e+001 1.513422e+001 8.405485e+000 1.102183e+001 1.873590e+001 1.892936e+001 1.325521e+001 4.631215e-001 5.781639e-001 2.072950e+000 1.720233e+000 5.748577e+000 7.205099e-001 6.057962e+000 1.503562e+000 1.310007e+000 1.357104e+000 2.641696e+000 2.321040e+000 2.351350e-001 1.043496e-001 1.199639e-001 4.928641e-001 4.019771e-001 1.237167e+000 1.299691e-001 1.565229e+000 3.535174e-001 3.273361e-001 2.469371e-001 5.467774e-001 4.679311e-001 4.494626e-002
<GCONST> 9.726818e+001
<STATE> 4
<MEAN> 39
 3.807485e+000 -6.452811e+000 5.959342e+000 -1.949815e+001 -4.038931e+000 1.016331e+001 -1.434233e+001 6.995513e+000 -1.640909e+001 -1.190772e+001 -5.987757e+000 -8.664137e+000 6.955851e+001 -4.101328e-001 1.515770e+000 1.148866e+000 -2.841680e-001 7.015913e-001 -3.464534e-001 -1.264869e+000 1.139408e+000 -5.591080e-001 -8.921335e-001 9.363082e-002 1.161590e+000 -6.098057e-001 6.339989e-002 -2.362979e-001 -3.852261e-001 6.552270e-002 -2.436277e-001 -1.926515e-001 6.328110e-001 -9.808731e-002 1.459599e-001 1.969661e-002 8.575568e-003 -1.032421e-001 1.521054e-001
<VARIANCE> 39
 2.491488e+000 2.655847e+001 2.705221e+001 5.261289e+000 1.616095e+001 3.954189e+000 4.995358e+001 1.270085e+001 5.772736e+000 1.027128e+001 7.805083e+000 1.527820e+001 6.032016e+000 2.037361e-001 5.374627e-001 1.827252e+000 8.960416e-001 2.858756e+000 8.261271e-001 5.437137e+000 8.630946e-001 7.734178e-001 6.418833e-001 1.382146e+000 8.551185e-001 2.472291e-001 4.984403e-002 4.084416e-002 2.382493e-001 2.399984e-001 7.472275e-001 1.125040e-001 8.717163e-001 2.398743e-001 2.181281e-001 1.412947e-001 3.361204e-001 2.007178e-001 1.834850e-002
<GCONST> 7.758109e+001
<TRANSP> 5
 0.000000e+000 1.000000e+000 0.000000e+000 0.000000e+000 0.000000e+000
 0.000000e+000 6.402987e-001 3.597013e-001 0.000000e+000 0.000000e+000
 0.000000e+000 0.000000e+000 6.402986e-001 3.597014e-001 0.000000e+000
 0.000000e+000 0.000000e+000 0.000000e+000 7.349705e-001 2.650295e-001
 0.000000e+000 0.000000e+000 0.000000e+000 0.000000e+000 0.000000e+000
<ENDHMM>
~h "oo"
<BEGINHMM>
<NUMSTATES> 5
<STATE> 2
<MEAN> 39
 1.009661e+000 -2.098686e+001 -7.092234e+000 -9.210476e+000 3.981903e+000 2.578323e+000 -6.017463e-001 -1.343920e+000 -3.389230e+000 -4.862201e+000 -2.402321e+000 -1.285387e+001 7.564649e+001 1.694368e+000 -1.757336e+000 3.326718e-002 -1.563720e+000 -1.339680e+000 5.808149e-001 3.107834e-001 -3.006234e-001 -1.565293e+000 -7.146854e-001 1.552648e-001 -3.588084e-001 1.568042e+000 -2.468079e-001 3.087743e-001 -1.132169e-001 1.381011e-001 4.144066e-003 9.055263e-002 -1.037267e-001 1.150109e-001 8.691390e-002 -3.690005e-002 8.484238e-002 1.146057e-001 -3.211845e-001
<VARIANCE> 39
 5.150860e+001 6.403834e+001 4.773994e+000 5.178260e+001 3.123931e+001 1.212152e+001 1.189612e+001 5.229848e+000 4.188574e+001 1.109712e+001 4.139385e+000 1.361348e+001 5.155540e+001 3.673232e+000 4.896677e+000 8.532863e-001 4.970001e+000 2.266179e+000 1.292723e+000 2.090685e+000 7.530180e-001 2.431340e+000 2.608798e-001 8.173088e-001 2.895084e+000 4.629518e+000 5.578532e-001 6.303416e-001 1.288819e-001 1.113209e+000 6.316034e-001 2.870049e-001 4.998249e-001 1.279269e-001 5.507481e-001 3.920225e-002 2.154318e-001 6.396924e-001 6.490528e-001
<GCONST> 1.035794e+002
<STATE> 3
<MEAN> 39
 4.194279e+000 -2.407875e+001 -7.572956e+000 -1.250012e+001 7.408957e-001 4.611386e+000 -5.882560e-002 -1.709224e+000 -7.050063e+000 -6.856598e+000 -1.623008e+000 -1.325434e+001 7.825395e+001 8.593590e-001 -4.721062e-001 -1.102334e-001 -1.095994e+000 -1.174788e+000 7.837479e-001 1.801588e-001 4.430506e-002 -1.288670e+000 -6.484058e-001 2.016902e-001 -1.603072e-001 4.780356e-001 -2.606345e-001 4.967663e-001 5.914632e-002 1.263793e-001 4.022702e-002 2.016738e-002 -8.761787e-002 1.412365e-001 9.490985e-002 6.404549e-002 -5.781009e-002 3.480542e-002 -3.768396e-001
<VARIANCE> 39
 1.757742e+001 2.916577e+001 4.500733e+000 2.559340e+001 2.167219e+001 1.214135e+001 6.695919e+000 4.912344e+000 2.854970e+001 9.443477e+000 5.111196e+000 9.035599e+000 1.820695e+001 2.369779e+000 5.028512e+000 9.157608e-001 3.243273e+000 1.701598e+000 5.564775e-001 1.436761e+000 9.655261e-001 1.646104e+000 3.905545e-001 1.114084e+000 2.218859e+000 3.438180e+000 3.210714e-001 2.863237e-001 1.552348e-001 7.673878e-001 4.851275e-001 1.334671e-001 3.954206e-001 1.528812e-001 3.895768e-001 6.071713e-002 2.906041e-001 5.420042e-001 3.434832e-001
<GCONST> 9.287955e+001
<STATE> 4
<MEAN> 39
 5.606863e+000 -2.300919e+001 -7.606310e+000 -1.536927e+001 -2.720773e+000 6.953836e+000 3.791414e-001 -8.935133e-001 -1.060871e+001 -8.384492e+000 -1.363250e+000 -1.385949e+001 7.789709e+001 2.750418e-001 1.044233e+000 4.876680e-001 -8.765800e-001 -1.126931e+000 6.618465e-001 -2.694568e-001 5.127417e-001 -1.004635e+000 -3.116699e-001 -2.490936e-001 -1.725172e-001 -5.205263e-001 -1.524347e-001 3.993247e-001 2.933660e-001 9.480935e-002 9.679507e-002 -5.245490e-002 -3.061421e-001 1.313573e-001 1.161752e-001 7.562204e-002 -1.692068e-001 9.075284e-002 -2.423579e-001
<VARIANCE> 39
 3.691652e+000 2.788924e+001 1.020731e+001 1.885046e+001 2.713747e+001 7.821102e+000 1.010416e+001 1.097828e+001 2.184321e+001 6.563424e+000 1.050504e+001 9.608400e+000 8.774816e+000 8.766837e-001 3.014570e+000 2.083227e+000 1.939788e+000 2.520884e+000 2.836674e-001 3.293537e+000 1.491462e+000 1.336004e+000 7.753653e-001 2.277540e+000 2.251941e+000 1.316080e+000 1.708784e-001 1.406631e-001 1.722389e-001 4.980761e-001 6.968281e-001 5.449846e-002 5.742708e-001 2.663934e-001 2.919273e-001 1.438994e-001 4.757309e-001 5.263562e-001 1.307115e-001
<GCONST> 9.103745e+001
<TRANSP> 5
 0.000000e+000 1.000000e+000 0.000000e+000 0.000000e+000 0.000000e+000
 0.000000e+000 6.402986e-001 3.597014e-001 0.000000e+000 0.000000e+000
 0.000000e+000 0.000000e+000 6.402987e-001 3.597014e-001 0.000000e+000
 0.000000e+000 0.000000e+000 0.000000e+000 7.349706e-001 2.650295e-001
 0.000000e+000 0.000000e+000 0.000000e+000 0.000000e+000 0.000000e+000
<ENDHMM>
~h "ooj"
<BEGINHMM>
<NUMSTATES> 5
<STATE> 2
<MEAN> 39
 3.508998e+000 -3.511192e-001 -1.789948e+000 -2.449858e+001 -1.284546e+000 1.092022e+001 -3.875049e+000 8.314695e+000 -1.132420e+001 2.159696e+000 -3.147016e+000 -8.247583e+000 7.162939e+001 1.555965e-001 4.513834e-001 -5.379724e-001 -1.124139e+000 -8.882228e-001 9.496307e-002 2.140129e-001 1.251438e+000 1.917822e-001 -7.358838e-001 2.274645e-001 -8.190531e-001 4.020682e-001 -1.607943e-001 1.384067e-001 1.469257e-001 4.290445e-001 3.195780e-002 -1.366326e-001 1.131858e-001 -1.482368e-001 2.238442e-001 3.690328e-002 -1.210557e-001 1.693797e-001 -4.078331e-001
<VARIANCE> 39
 5.404202e+000 1.169475e+001 1.955923e+001 5.241489e+001 2.186113e+001 1.987656e+001 4.392399e+000 4.420522e+001 1.232679e+001 1.834678e+001 1.519692e+001 1.973598e+001 1.896637e+001 1.367582e+000 8.445339e-001 2.837136e+000 5.347743e+000 1.435590e+000 3.122566e+000 6.947252e-001 2.624526e+000 1.365439e+000 1.447636e+000 1.990760e+000 1.162983e+000 3.556710e+000 1.878478e-001 9.460265e-002 5.447736e-001 3.216702e-001 3.700370e-001 5.010278e-001 1.713485e-001 3.776661e-001 9.193794e-002 2.794363e-001 2.670441e-001 8.378886e-002 2.159453e-001
<GCONST> 9.673174e+001
<STATE> 3
<MEAN> 39
 3.313859e+000 1.786360e+000 -2.273851e+000 -2.552838e+001 -3.667253e+000 1.019449e+001 -2.798010e+000 1.091495e+001 -9.602644e+000 3.215074e-001 -3.444288e+000 -9.695475e+000 7.081369e+001 -5.516412e-002 7.361715e-001 1.053104e-001 3.856279e-001 -5.619923e-001 -3.766079e-001 4.431142e-001 5.166005e-001 7.665305e-001 -4.817457e-001 -2.323790e-001 -1.771635e-001 -6.655782e-001 -3.557858e-002 2.576928e-002 1.696095e-001 4.841340e-001 1.478180e-001 -8.378751e-002 7.326412e-002 -2.182004e-001 1.424728e-001 7.865711e-002 -7.890610e-002 2.008226e-001 -2.902655e-001
<VARIANCE> 39
 3.040431e+000 1.745284e+001 9.646247e+000 6.261344e+001 2.354908e+001 1.863360e+001 7.155813e+000 2.278441e+001 2.208577e+001 1.380482e+001 1.369385e+001 1.124971e+001 2.858236e+001 6.762496e-001 7.821574e-001 1.629401e+000 7.477262e+000 3.204965e+000 2.294693e+000 7.538452e-001 2.628994e+000 9.753503e-001 1.945836e+000 1.633026e+000 1.401127e+000 2.591367e+000 1.437777e-001 1.414396e-001 2.535958e-001 4.078980e-001 6.573581e-001 3.621336e-001 1.906089e-001 3.067605e-001 1.023296e-001 4.026782e-001 2.106404e-001 9.668082e-002 2.200227e-001
<GCONST> 9.526774e+001
<STATE> 4
<MEAN> 39
 3.171670e+000 4.487561e+000 -7.507414e-001 -2.075000e+001 -4.579412e+000 8.323591e+000 -7.922965e-001 1.122151e+001 -5.978054e+000 -8.476119e-001 -4.793000e+000 -8.930053e+000 6.660380e+001 -4.933211e-002 5.110427e-001 5.078086e-001 2.025831e+000 1.567151e-001 -3.180974e-001 6.919826e-001 -1.324182e-001 1.043634e+000 -2.373504e-001 -1.595339e-001 4.780881e-001 -1.406098e+000 -3.350242e-002 -1.136157e-001 2.890920e-002 2.767864e-001 1.760290e-001 8.992161e-002 5.664563e-002 -1.079710e-001 5.742786e-003 6.389860e-002 9.609151e-002 1.126558e-001 -1.018104e-001
<VARIANCE> 39
 2.702248e+000 1.555459e+001 1.159965e+001 1.374673e+002 2.962277e+001 1.348952e+001 1.381985e+001 1.878466e+001 3.249373e+001 1.281981e+001 1.344021e+001 1.262175e+001 5.493076e+001 5.364912e-001 1.324614e+000 1.044441e+000 6.859188e+000 5.002318e+000 1.439954e+000 1.063101e+000 2.231148e+000 9.667343e-001 2.291446e+000 1.542895e+000 1.119773e+000 2.130000e+000 1.109841e-001 2.023861e-001 2.213267e-001 6.969959e-001 9.737400e-001 1.990537e-001 2.526854e-001 4.021982e-001 1.765760e-001 5.133938e-001 1.914319e-001 1.522909e-001 3.525357e-001
<GCONST> 9.950460e+001
<TRANSP> 5
 0.000000e+000 1.000000e+000 0.000000e+000 0.000000e+000 0.000000e+000
 0.000000e+000 6.843616e-001 3.156384e-001 0.000000e+000 0.000000e+000
 0.000000e+000 0.000000e+000 6.843616e-001 3.156384e-001 0.000000e+000
 0.000000e+000 0.000000e+000 0.000000e+000 7.855750e-001 2.144250e-001
 0.000000e+000 0.000000e+000 0.000000e+000 0.000000e+000 0.000000e+000
<ENDHMM>
~h "oos"
<BEGINHMM>
<NUMSTATES> 5
<STATE> 2
<MEAN> 39
 -9.248938e+000 -1.516354e+000 -9.060770e+000 -3.338212e+001 -1.300898e+001 7.464296e+000 -1.268715e+001 1.998553e+000 -7.626980e+000 -5.042699e+000 1.155881e-001 -8.375616e+000 8.393245e+001 -2.129446e-002 1.695170e-001 8.459340e-003 -2.182842e-001 -1.105888e-002 -3.588163e-001 -4.052671e-002 3.678032e-001 1.382300e-001 -2.918242e-002 -9.281687e-001 3.844030e-001 -2.851808e-001 1.388825e-001 2.477592e-002 1.651154e-001 3.176746e-001 3.311051e-002 -2.016548e-001 4.982875e-002 -6.499677e-002 -7.737853e-003 -7.729144e-002 -3.206044e-002 -5.046842e-003 -2.703143e-001
<VARIANCE> 39
 6.058757e+000 3.286572e+000 5.064206e+000 2.231911e+001 7.820412e+000 2.564975e+001 2.623014e+001 1.755754e+001 1.036413e+001 8.331845e+000 3.712464e+001 1.822381e+001 1.787564e+001 6.983992e-001 3.699791e-001 8.967712e-001 3.274449e+000 1.453334e+000 3.105021e+000 4.554148e+000 1.857407e+000 1.468673e+000 1.563077e+000 1.998406e+000 3.404382e+000 1.956560e+000 4.120665e-002 7.523827e-002 1.041742e-001 2.637730e-001 3.314844e-001 5.239791e-001 9.108759e-001 3.003517e-001 2.536339e-001 3.345980e-001 4.506409e-001 8.611296e-001 1.391141e-001
<GCONST> 9.367140e+001
<STATE> 3
<MEAN> 39
 -8.435173e+000 -8.767961e-001 -8.163292e+000 -3.220238e+001 -1.287290e+001 4.998453e+000 -1.235979e+001 2.725488e+000 -6.891885e+000 -5.572519e+000 -2.893319e+000 -7.193815e+000 8.146256e+001 3.438583e-001 1.321501e-001 4.228248e-001 6.142370e-001 1.785112e-001 -9.142737e-001 2.727290e-001 -2.388296e-002 2.572483e-001 -1.216857e-001 -7.162124e-001 3.118035e-001 -9.687886e-001 7.296070e-002 -1.980251e-002 1.056505e-001 1.903875e-001 7.683020e-002 -1.035603e-001 8.746140e-002 -1.235296e-001 1.460123e-002 1.922878e-003 8.975177e-002 -2.219923e-002 -1.691934e-001
<VARIANCE> 39
 9.592465e+000 3.584313e+000 1.137069e+001 2.903000e+001 1.037245e+001 5.377551e+001 2.902039e+001 1.970231e+001 1.454673e+001 1.032383e+001 2.418974e+001 1.999681e+001 3.758224e+001 6.465789e-001 4.823430e-001 7.393193e-001 1.709745e+000 1.503777e+000 4.158812e+000 4.030294e+000 2.321414e+000 1.719955e+000 1.992164e+000 1.629241e+000 3.682453e+000 1.005041e+000 8.310088e-002 9.295458e-002 9.344000e-002 1.473651e-001 2.917769e-001 7.757668e-001 7.296331e-001 3.008078e-001 2.974887e-001 4.753021e-001 3.411986e-001 9.011147e-001 7.407684e-002
<GCONST> 9.678426e+001
<STATE> 4
<MEAN> 39
 -6.447363e+000 -6.723007e-001 -5.492440e+000 -2.816291e+001 -1.129509e+001 1.682135e-001 -1.020579e+001 1.200441e+000 -5.661302e+000 -5.850222e+000 -4.841076e+000 -6.118247e+000 7.609750e+001 4.400582e-001 1.170338e-002 7.607476e-001 1.081569e+000 6.158184e-001 -9.776539e-001 5.780186e-001 -5.628520e-001 1.853234e-001 3.757019e-002 -2.123561e-001 2.119221e-001 -1.480873e+000 -1.461000e-002 1.813273e-003 2.919949e-002 4.957816e-002 8.227773e-002 1.294261e-001 2.219521e-002 -2.428972e-002 -2.699664e-002 4.811447e-002 1.079724e-001 -8.883284e-003 -7.953127e-002
<VARIANCE> 39
 1.164849e+001 3.898593e+000 2.363097e+001 4.096990e+001 2.168367e+001 7.448077e+001 2.665770e+001 2.890493e+001 1.501874e+001 1.182733e+001 1.257809e+001 1.726171e+001 6.503491e+001 8.244293e-001 6.861398e-001 8.549237e-001 7.901169e-001 1.620663e+000 5.906259e+000 2.397511e+000 2.474394e+000 1.942764e+000 2.516401e+000 1.809947e+000 3.092098e+000 6.499435e-001 1.600233e-001 1.273019e-001 1.268348e-001 1.034880e-001 2.892288e-001 9.645450e-001 4.300364e-001 3.770849e-001 3.477549e-001 6.110036e-001 3.826778e-001 7.301190e-001 7.739191e-002
<GCONST> 1.003876e+002
<TRANSP> 5
 0.000000e+000 1.000000e+000 0.000000e+000 0.000000e+000 0.000000e+000
 0.000000e+000 7.161133e-001 2.838868e-001 0.000000e+000 0.000000e+000
 0.000000e+000 0.000000e+000 7.161132e-001 2.838868e-001 0.000000e+000
 0.000000e+000 0.000000e+000 0.000000e+000 8.221148e-001 1.778852e-001
 0.000000e+000 0.000000e+000 0.000000e+000 0.000000e+000 0.000000e+000
<ENDHMM>
