~o
<STREAMINFO> 1 39
<VECSIZE> 39<NULLD><MFCC_D_A_0><DIAGC>
~s "silst"
<MEAN> 39
 -1.614659e+001 1.190868e+000 -1.897949e+000 -1.557371e+000 -1.395937e+000 -4.581211e-001 6.107467e-002 7.877342e-001 -2.548459e+000 -5.372357e-001 -2.277859e+000 -1.972613e+000 5.740742e+001 -1.017094e-001 3.751335e-002 -2.911079e-002 2.399232e-002 2.865973e-002 8.150627e-002 2.155336e-002 4.530395e-002 2.966378e-002 4.541528e-003 3.536283e-002 3.105464e-002 -1.153172e-001 -1.860908e-003 -2.566776e-003 -4.984018e-003 -1.743780e-002 -1.072766e-002 7.629017e-004 -5.295620e-003 4.559840e-004 -1.269210e-002 -1.377623e-002 -6.485533e-003 2.772575e-003 -6.198838e-004
<VARIANCE> 39
 1.033172e+001 3.344707e+000 2.452355e+000 3.859807e+000 6.786037e+000 8.222789e+000 1.065270e+001 7.922943e+000 6.936963e+000 5.951859e+000 5.429615e+000 4.872792e+000 1.042251e+001 1.690231e+000 3.997518e-001 3.066475e-001 4.604948e-001 6.916549e-001 9.375410e-001 1.325828e+000 1.035437e+000 8.683580e-001 6.777290e-001 5.385033e-001 5.074766e-001 1.742267e+000 3.508334e-001 8.697239e-002 6.112208e-002 1.106192e-001 1.540671e-001 2.080598e-001 3.083367e-001 2.384659e-001 1.866494e-001 1.446983e-001 1.128968e-001 1.065819e-001 3.289691e-001
<GCONST> 6.784673e+001
~h "a"
<BEGINHMM>
<NUMSTATES> 5
<STATE> 2
<MEAN> 39
 -2.407021e+000 -5.681129e+000 1.080666e+001 -6.716204e+000 -7.013916e-002 3.928215e+000 -9.751449e+000 5.043184e+000 -6.002741e-001 7.805766e+000 -7.321899e+000 3.510790e+000 7.156141e+001 9.062060e-002 1.362306e-001 2.091161e-001 1.108741e-001 -6.488512e-002 3.542451e-002 1.228034e-002 3.519504e-002 4.901856e-004 -8.660103e-002 4.453617e-002 -4.788832e-002 3.986824e-002 3.646639e-002 -5.022886e-003 -5.379769e-003 -3.294516e-002 -2.480937e-002 -4.813817e-002 1.111327e-002 -5.359686e-002 1.727395e-004 8.935004e-003 1.010564e-002 3.800288e-002 4.229230e-002
<VARIANCE> 39
 2.899902e+001 1.350847e+001 6.789022e+001 9.038690e+001 9.835292e+001 6.992845e+001 1.022916e+002 9.465035e+001 4.894904e+001 6.852144e+001 8.483126e+001 6.837475e+001 6.016620e+001 1.663230e+000 1.077177e+000 3.074490e+000 1.978194e+000 3.516949e+000 6.126186e+000 6.366991e+000 4.669453e+000 3.048295e+000 4.573855e+000 4.441906e+000 3.394594e+000 9.114301e-001 3.127193e-001 1.845385e-001 4.594297e-001 3.922707e-001 5.736700e-001 1.323111e+000 1.120404e+000 8.014259e-001 6.763996e-001 9.471524e-001 6.892275e-001 7.989463e-001 1.303720e-001
<GCONST> 1.313422e+002
<STATE> 3
<MEAN> 39
 3.145269e+000 -3.813773e+000 5.760409e+000 -1.645606e+001 -3.477443e-001 -3.471557e+000 1.211875e+000 5.043148e-001 -8.562762e-001 1.202162e+001 -1.174135e+001 1.218568e+001 7.836941e+001 2.514634e-001 -4.951830e-001 -4.439846e-001 -5.558761e-001 -1.055726e-001 -4.794367e-001 8.487969e-002 -7.217720e-001 2.882294e-001 4.783556e-001 4.686014e-001 3.173931e-001 5.538699e-001 -1.230956e-001 1.497202e-001 9.659465e-002 2.004489e-001 1.734095e-001 1.950202e-001 4.674505e-003 1.168168e-001 6.981324e-002 -1.507184e-001 1.980981e-002 -1.741640e-001 -1.583723e-001
<VARIANCE> 39
 3.680635e+001 1.455488e+001 4.969957e+001 7.519518e+001 2.211819e+001 1.520534e+001 1.020396e+001 2.707589e+001 1.155467e+001 6.280795e+001 6.158544e+001 5.003585e+001 3.894152e+001 6.819350e-001 7.871383e-001 6.872405e-001 3.838269e+000 1.303575e+000 2.913604e+000 1.613012e+000 2.278151e+000 1.497956e+000 2.209603e+000 2.922553e+000 2.480559e+000 1.421436e+000 8.080470e-002 2.102107e-001 1.350887e-001 4.767768e-001 2.018514e-001 3.301322e-001 2.375375e-001 3.347346e-001 3.047630e-001 1.998669e-001 4.282182e-001 2.330751e-001 1.695128e-001
<GCONST> 1.034861e+002
<STATE> 4
<MEAN> 39
 -1.166931e+001 -3.930614e+000 -6.564058e+000 2.809861e+000 -4.265182e+000 1.545641e+000 -4.113117e+000 -6.813766e+000 -1.252601e+000 -3.451216e+000 7.881625e-001 -9.303361e-001 6.674923e+001 -5.881960e-002 1.505868e-001 3.253649e-002 1.788247e-003 7.075602e-002 8.031580e-004 5.718319e-002 7.183289e-002 1.230391e-001 -1.181172e-001 -1.246705e-001 -3.723917e-002 -8.423676e-002 2.682837e-002 3.891980e-002 3.258990e-002 1.341561e-002 2.317394e-002 3.713670e-002 2.328995e-002 2.156163e-002 -2.934477e-002 -2.970577e-002 -5.652041e-002 -3.928018e-002 8.311557e-003
<VARIANCE> 39
 8.150875e+000 1.101310e+001 1.030415e+001 1.902426e+001 8.598126e+000 8.509829e+000 7.609416e+000 2.287115e+001 8.552823e+000 1.507533e+001 1.366234e+001 1.023603e+001 5.644331e+000 3.239587e-001 2.877763e-001 4.690955e-001 7.517543e-001 4.711081e-001 5.324025e-001 8.143565e-001 8.729121e-001 1.062350e+000 6.936491e-001 9.000247e-001 7.223296e-001 1.688613e-001 6.461427e-002 9.425140e-002 7.546160e-002 1.510946e-001 9.171772e-002 1.155274e-001 1.944734e-001 1.682228e-001 2.099845e-001 1.589445e-001 2.375915e-001 1.372544e-001 2.836907e-002
<GCONST> 6.685355e+001
<TRANSP> 5
 0.000000e+000 1.000000e+000 0.000000e+000 0.000000e+000 0.000000e+000
 0.000000e+000 9.536252e-001 4.637478e-002 0.000000e+000 0.000000e+000
 0.000000e+000 0.000000e+000 8.556929e-001 1.443071e-001 0.000000e+000
 0.000000e+000 0.000000e+000 0.000000e+000 9.393944e-001 6.060564e-002
 0.000000e+000 0.000000e+000 0.000000e+000 0.000000e+000 0.000000e+000
<ENDHMM>
~h "b"
<BEGINHMM>
<NUMSTATES> 5
<STATE> 2
<MEAN> 39
 -3.981247e+000 -2.134042e+000 3.221160e+000 -3.446243e+000 -7.490579e+000 -9.162554e-001 -2.867796e+000 -4.961494e-001 -3.573596e+000 -4.038342e+000 -8.901176e-001 -2.727635e-001 7.134499e+001 9.516438e-001 1.115470e-001 -5.655716e-002 -9.635537e-001 -3.737246e-001 -6.185215e-001 2.343118e-001 -2.190304e-001 -1.322406e-001 -1.559476e-001 6.922776e-002 2.140709e-001 1.150543e+000 -5.698304e-003 -1.234326e-001 -9.769055e-002 -7.457321e-002 -5.140093e-002 -3.783812e-002 -3.784279e-002 8.351701e-002 9.103673e-003 9.983213e-003 2.155436e-002 3.647899e-002 1.253519e-002
<VARIANCE> 39
 5.821394e+001 1.002733e+002 1.157669e+002 6.960266e+001 6.741810e+001 7.162104e+001 5.558451e+001 5.785916e+001 3.471158e+001 4.133630e+001 3.165100e+001 3.492982e+001 6.059053e+001 4.583622e+000 5.690485e+000 4.705351e+000 3.427793e+000 5.248386e+000 8.112725e+000 2.907866e+000 2.220335e+000 5.061571e+000 4.770345e+000 4.183584e+000 2.541840e+000 2.140454e+000 6.065744e-001 7.416301e-001 5.887754e-001 5.918056e-001 8.551977e-001 1.583698e+000 5.177009e-001 4.075445e-001 7.945476e-001 9.090851e-001 8.041028e-001 4.764965e-001 3.517089e-001
<GCONST> 1.368151e+002
<STATE> 3
<MEAN> 39
 3.721688e+000 -9.519355e-001 -2.738121e+000 -1.140342e+001 -1.154181e+001 -8.695340e+000 -1.893338e+000 1.075264e+000 -4.531357e+000 -1.523824e+000 -3.060535e+000 6.786818e-002 7.636314e+001 -2.897373e-001 3.314773e-001 3.264009e-001 5.518611e-001 1.389287e-001 -2.887909e-001 -6.856964e-001 8.759740e-002 -3.327453e-002 3.689250e-001 1.365287e-001 -4.583444e-001 -5.171906e-001 -8.077127e-002 -1.383138e-002 3.643472e-002 1.004732e-001 4.989112e-002 -9.748312e-003 -4.225306e-002 -1.299876e-001 1.269379e-002 4.442175e-002 -4.666089e-002 -4.335111e-003 -4.599439e-002
<VARIANCE> 39
 1.607042e+001 8.266855e+001 9.810064e+001 1.513170e+001 5.218071e+001 9.970488e+001 6.950036e+001 3.742654e+001 9.257909e+001 1.182731e+002 6.414290e+001 3.330312e+001 3.615751e+001 4.777215e-001 1.363142e+000 1.000486e+000 1.164762e+000 1.916019e+000 1.929300e+000 2.489660e+000 2.315749e+000 2.024420e+000 1.467941e+000 1.591510e+000 1.474141e+000 3.880871e-001 5.924125e-002 1.648375e-001 1.609741e-001 2.086863e-001 2.438320e-001 4.004772e-001 4.765522e-001 3.017888e-001 4.109435e-001 2.986764e-001 2.314693e-001 2.554658e-001 3.931290e-002
<GCONST> 1.064771e+002
<STATE> 4
<MEAN> 39
 -1.167351e+001 3.709432e-001 -3.712661e+000 -3.374066e+000 -4.673563e+000 -1.183929e+000 -1.010285e-002 -6.566231e-001 -1.814463e+000 -2.023486e+000 -1.618189e+000 -1.217198e+000 6.285545e+001 -2.200752e-001 -4.668571e-002 4.958148e-003 1.637587e-001 1.408654e-001 1.287911e-001 3.172727e-002 1.807436e-002 9.079589e-002 8.690073e-002 2.499806e-002 1.162878e-001 -1.784295e-001 1.857779e-002 -1.021700e-002 5.064460e-003 -4.946150e-003 -2.078630e-002 -7.232102e-003 2.112767e-004 -1.984939e-002 -2.696994e-002 1.972372e-002 2.319263e-002 -4.695682e-003 2.197521e-002
<VARIANCE> 39
 3.116883e+001 1.802346e+001 1.728001e+001 3.388042e+001 2.838599e+001 3.290424e+001 1.245842e+001 1.226911e+001 2.845476e+001 1.860861e+001 2.078267e+001 9.996005e+000 3.676106e+001 5.120112e-001 4.660324e-001 4.928246e-001 7.987953e-001 8.911574e-001 8.290465e-001 6.586251e-001 8.484505e-001 1.105058e+000 1.257604e+000 9.724135e-001 7.288245e-001 4.556695e-001 1.175600e-001 9.873390e-002 1.001742e-001 1.581664e-001 1.833782e-001 1.457867e-001 1.632948e-001 1.779299e-001 2.192163e-001 2.676793e-001 2.090618e-001 1.376224e-001 1.101024e-001
<GCONST> 8.305952e+001
<TRANSP> 5
 0.000000e+000 1.000000e+000 0.000000e+000 0.000000e+000 0.000000e+000
 0.000000e+000 8.142279e-001 1.857721e-001 0.000000e+000 0.000000e+000
 0.000000e+000 0.000000e+000 8.652305e-001 1.347695e-001 0.000000e+000
 0.000000e+000 0.000000e+000 0.000000e+000 9.180431e-001 8.195686e-002
 0.000000e+000 0.000000e+000 0.000000e+000 0.000000e+000 0.000000e+000
<ENDHMM>
~h "h"
<BEGINHMM>
<NUMSTATES> 5
<STATE> 2
<MEAN> 39
 -1.122569e+001 -8.346537e+000 2.948650e+000 -6.323165e+000 -1.713228e+000 1.300259e+000 -4.372914e+000 3.766133e+000 -7.285170e-001 3.772018e+000 2.077288e+000 -1.423886e+000 6.977687e+001 1.137033e-001 -1.518763e-001 2.669283e-001 3.841042e-002 -2.414647e-002 1.941872e-001 -2.110613e-001 2.882520e-001 1.194808e-001 4.458003e-002 1.247528e-001 -4.594622e-001 6.103150e-001 7.437619e-002 1.898504e-001 -6.847931e-002 2.902292e-002 -8.710763e-002 -3.653695e-002 -8.617936e-002 -8.836341e-002 -1.109995e-001 -1.527073e-001 -7.672695e-002 1.578356e-002 -2.049291e-002
<VARIANCE> 39
 5.580925e+000 4.626173e+001 7.947562e+001 5.929375e+001 1.462098e+001 1.046236e+001 2.437890e+001 5.950031e+001 3.949507e+001 2.305709e+001 4.353024e+001 4.755889e+001 4.250292e+001 8.105315e-001 2.373302e+000 1.150926e+000 1.066831e+000 8.851615e-001 8.917299e-001 1.270316e+000 1.741718e+000 2.076809e+000 3.218186e+000 1.781593e+000 1.879259e+000 1.062279e+000 1.909506e-001 2.775596e-001 2.716223e-001 1.789283e-001 1.634032e-001 1.380439e-001 2.090274e-001 2.818207e-001 3.543297e-001 5.081007e-001 3.338205e-001 4.010296e-001 3.729100e-002
<GCONST> 1.011838e+002
<STATE> 3
<MEAN> 39
 -6.656061e+000 -5.767307e+000 -4.025051e+000 -2.464857e+000 -8.127697e+000 -1.861687e+000 -6.580300e+000 -6.175944e+000 -2.284497e+000 -1.603210e+000 6.621881e+000 -9.167880e+000 8.008758e+001 6.540558e-001 -1.072475e-001 -1.100845e+000 -2.542597e-001 -8.188770e-001 -5.295184e-002 -3.811533e-001 -4.701908e-001 -2.772058e-001 -6.912918e-001 9.053242e-001 -1.322676e-001 4.614029e-001 -2.359098e-001 -3.834234e-001 -1.596895e-001 -2.851980e-002 2.157612e-001 8.535485e-003 1.729674e-001 1.245767e-001 3.693108e-001 4.457217e-002 -2.893500e-002 8.262506e-002 -1.413606e-001
<VARIANCE> 39
 8.961047e+000 1.144355e+001 1.034094e+002 2.527784e+001 3.392201e+001 2.936227e+001 3.983767e+001 1.534805e+002 2.672351e+001 4.913865e+001 5.475859e+001 7.434698e+001 1.554381e+002 9.824600e-001 3.186060e+000 2.133605e+000 1.705032e+000 1.885487e+000 1.538807e+000 1.643959e+000 1.430390e+000 1.852955e+000 7.932743e-001 1.207064e+000 4.065703e-001 3.667711e-001 4.375929e-002 4.059179e-001 5.374898e-001 3.694201e-001 2.716151e-001 3.944554e-002 1.656376e-001 1.653054e-001 1.565027e-001 3.266964e-001 4.756098e-001 5.114576e-002 3.928715e-002
<GCONST> 9.965162e+001
<STATE> 4
<MEAN> 39
 -1.136456e+001 -6.283086e+000 -5.667898e+000 1.406732e+000 -6.891578e+000 -4.988427e+000 -5.883371e+000 -7.563227e+000 -1.450615e+000 -5.707302e+000 1.445736e+000 -4.020874e+000 7.381611e+001 -1.044920e-001 1.417214e-002 1.076548e-001 2.281799e-002 5.514718e-002 7.269435e-002 4.344784e-002 6.693333e-002 -3.052067e-002 -2.901969e-002 -7.654643e-002 9.930775e-002 -1.225414e-001 4.090454e-003 1.185996e-002 1.354052e-002 -9.036469e-005 1.844516e-003 -7.886694e-003 -2.577446e-002 -1.619347e-002 -9.128247e-003 -1.730161e-003 -1.023811e-002 5.693459e-004 4.290107e-004
<VARIANCE> 39
 1.510060e+001 1.484466e+001 5.328173e+001 6.730731e+000 1.565035e+001 1.141409e+002 1.203421e+001 2.794747e+001 2.619811e+001 1.370271e+001 1.400611e+001 4.497193e+001 1.278102e+002 9.999142e-002 3.038341e-001 5.900257e-001 3.608567e-001 4.926036e-001 9.999951e-001 6.421692e-001 6.961994e-001 1.088583e+000 9.858469e-001 4.884126e-001 8.013441e-001 2.564001e-001 1.733321e-002 5.161129e-002 4.954388e-002 7.430190e-002 8.783997e-002 1.222627e-001 1.455318e-001 1.468226e-001 2.013826e-001 1.955762e-001 8.773230e-002 1.451880e-001 1.701182e-002
<GCONST> 7.200013e+001
<TRANSP> 5
 0.000000e+000 1.000000e+000 0.000000e+000 0.000000e+000 0.000000e+000
 0.000000e+000 8.584650e-001 1.415351e-001 0.000000e+000 0.000000e+000
 0.000000e+000 0.000000e+000 6.372687e-001 3.627314e-001 0.000000e+000
 0.000000e+000 0.000000e+000 0.000000e+000 9.740703e-001 2.592974e-002
 0.000000e+000 0.000000e+000 0.000000e+000 0.000000e+000 0.000000e+000
<ENDHMM>
~h "m"
<BEGINHMM>
<NUMSTATES> 5
<STATE> 2
<MEAN> 39
 -8.759516e+000 -6.334368e-002 4.679708e-001 -1.687184e+000 -3.057450e+000 1.062513e+000 -4.861891e+000 1.655694e+000 -2.968990e+000 5.665284e-001 -2.703532e+000 -1.063384e-001 6.354925e+001 1.965988e-001 8.540302e-002 6.376926e-001 8.915679e-002 3.507007e-001 1.760276e-001 -6.155773e-001 -7.727748e-001 -1.990333e-002 -7.495704e-002 3.024078e-001 -4.399859e-001 4.498487e-001 2.403183e-003 -8.269175e-002 -3.055438e-002 -2.651626e-001 1.007332e-001 -6.775928e-002 9.231988e-002 -1.016272e-001 2.510861e-002 -3.018537e-002 8.328570e-002 -3.253908e-002 1.976849e-001
<VARIANCE> 39
 1.041839e+001 3.360408e+001 5.977608e+001 2.289109e+001 3.798273e+001 2.819611e+001 3.704624e+001 5.461202e+001 2.261697e+001 3.383584e+001 1.604785e+001 1.567890e+001 6.195201e+000 1.003252e+000 3.017216e+000 1.399473e+000 2.664220e+000 3.680558e+000 1.470665e+000 3.395817e+000 1.867054e+000 1.559525e+000 2.025027e+000 1.403754e+000 1.045580e+000 1.358315e+000 1.143505e-001 5.352099e-001 3.887748e-001 4.872553e-001 5.336076e-001 2.354526e-001 4.947986e-001 3.839685e-001 3.264217e-001 2.652027e-001 2.994142e-001 1.749367e-001 2.138340e-001
<GCONST> 1.060055e+002
<STATE> 3
<MEAN> 39
 -1.115438e+000 4.321382e+000 1.922965e+000 -6.431540e+000 -4.978337e+000 -5.819423e+000 -5.806765e+000 -9.599378e-001 -4.052125e+000 -1.533507e+000 -1.697005e-001 -2.444996e+000 7.037389e+001 1.641124e-001 -2.066659e-002 2.201869e-001 -1.723793e-002 -1.922787e-001 1.887326e-001 -1.133059e-001 4.257783e-001 -1.536787e-001 -4.228472e-002 -2.734397e-001 -4.047926e-001 1.877934e-001 -8.526511e-002 1.024862e-001 1.086089e-001 2.536697e-001 -2.005226e-002 6.930941e-002 1.556225e-001 1.232593e-001 -3.362145e-002 8.273431e-002 -1.468543e-001 5.499342e-002 -1.509888e-001
<VARIANCE> 39
 6.773141e+001 5.395592e+001 2.085400e+001 3.875235e+001 1.040414e+002 1.242880e+002 4.050309e+001 5.251277e+001 4.313810e+001 3.122687e+001 3.855008e+001 3.753957e+001 4.070811e+001 1.412826e+000 1.374534e+000 3.007733e+000 4.580275e+000 3.299450e+000 5.999391e+000 3.664999e+000 4.174637e+000 2.586853e+000 2.480063e+000 3.779728e+000 2.768992e+000 2.553966e+000 9.495356e-002 2.841128e-001 2.448213e-001 4.777007e-001 5.090049e-001 6.218027e-001 6.500555e-001 5.270115e-001 4.176571e-001 5.828398e-001 7.250950e-001 4.126863e-001 2.109974e-001
<GCONST> 1.238836e+002
<STATE> 4
<MEAN> 39
 -1.373630e+001 4.772466e-002 -3.220913e+000 -8.914269e-001 -2.133657e+000 1.727461e-001 -1.706323e+000 -1.356449e+000 -2.582726e+000 -2.034774e+000 -2.323997e+000 -1.765410e+000 6.085710e+001 -5.925636e-002 4.513868e-003 2.523962e-002 3.833049e-002 6.785741e-002 3.810679e-002 -3.734970e-003 4.300363e-003 -1.691426e-002 6.507846e-003 1.081717e-002 1.555341e-002 -4.381009e-002 1.662576e-002 2.355629e-003 -4.818029e-003 -6.598602e-003 5.505777e-003 -1.109239e-002 -1.187033e-002 -5.026277e-003 -2.490730e-003 1.572329e-002 4.136244e-003 1.769612e-002 1.174958e-002
<VARIANCE> 39
 1.563216e+001 5.172246e+000 9.552065e+000 7.404060e+000 1.050478e+001 1.238509e+001 1.277645e+001 1.324552e+001 1.267107e+001 1.057404e+001 1.041791e+001 7.249802e+000 1.891027e+001 8.171873e-001 2.483227e-001 3.438889e-001 4.288419e-001 6.440598e-001 6.171578e-001 9.376872e-001 9.868974e-001 7.759075e-001 7.446525e-001 8.373465e-001 8.099594e-001 6.038074e-001 1.948738e-001 4.238556e-002 6.434124e-002 9.160665e-002 1.282708e-001 1.324139e-001 2.146838e-001 2.141778e-001 1.503137e-001 1.509911e-001 1.769150e-001 1.874788e-001 1.470112e-001
<GCONST> 7.034554e+001
<TRANSP> 5
 0.000000e+000 1.000000e+000 0.000000e+000 0.000000e+000 0.000000e+000
 0.000000e+000 7.006094e-001 2.993906e-001 0.000000e+000 0.000000e+000
 0.000000e+000 0.000000e+000 7.638963e-001 2.361037e-001 0.000000e+000
 0.000000e+000 0.000000e+000 0.000000e+000 9.660260e-001 3.397399e-002
 0.000000e+000 0.000000e+000 0.000000e+000 0.000000e+000 0.000000e+000
<ENDHMM>
~h "n"
<BEGINHMM>
<NUMSTATES> 5
<STATE> 2
<MEAN> 39
 -3.714156e+000 -2.308986e-001 9.237844e+000 -1.121265e+000 -3.115015e+000 1.230216e+000 -9.530210e+000 3.801998e+000 -3.826182e+000 3.185352e+000 -8.256481e-001 -1.490693e+000 6.818676e+001 4.489883e-002 -7.267734e-002 -9.155142e-002 1.057811e-001 -3.028174e-001 4.466310e-002 -1.911271e-001 -2.344592e-002 -1.252196e-001 -1.612981e-001 1.962195e-001 -2.341726e-001 3.933955e-002 -1.659329e-002 -2.241143e-002 -1.802232e-002 -4.746652e-002 1.149039e-002 1.665859e-002 4.627488e-002 8.049578e-003 4.731294e-002 -3.185170e-002 2.047772e-002 -1.610563e-002 4.224868e-002
<VARIANCE> 39
 3.465507e+001 2.895136e+001 8.074908e+001 4.911288e+001 3.684641e+001 1.146862e+002 7.061024e+001 1.230770e+002 4.336583e+001 4.763058e+001 3.665736e+001 3.202623e+001 2.387322e+001 1.856424e+000 1.230744e+000 1.156506e+000 3.226611e+000 4.314416e+000 6.877343e+000 6.034533e+000 5.889601e+000 4.338088e+000 4.281077e+000 4.939910e+000 2.859001e+000 1.970491e+000 3.023123e-001 1.892105e-001 1.666502e-001 5.916361e-001 7.821963e-001 1.316080e+000 1.130958e+000 1.208488e+000 9.160358e-001 9.729260e-001 8.591908e-001 4.433079e-001 3.027529e-001
<GCONST> 1.304068e+002
<STATE> 3
<MEAN> 39
 -3.188457e+000 -6.754089e+000 -4.281681e+000 1.150893e+000 -1.067546e+001 5.438544e-001 -6.809772e+000 -3.663464e+000 -3.932616e+000 -5.788473e+000 5.122549e+000 -9.490159e+000 7.275461e+001 -2.733440e-001 2.174330e-001 1.618782e-001 -1.995023e-002 2.916251e-001 -2.806798e-001 4.942662e-001 -1.542931e-001 2.135718e-001 -6.512253e-002 -3.883923e-001 8.263429e-002 -1.039790e-001 1.893923e-002 2.918790e-002 6.787207e-002 2.774400e-002 7.655639e-002 5.244500e-005 -5.339023e-002 -3.119322e-002 -8.380812e-002 -6.150285e-004 -5.689218e-002 4.127883e-002 -3.723085e-002
<VARIANCE> 39
 2.740977e+001 3.825610e+001 1.097988e+002 3.224391e+001 3.342393e+001 1.289987e+002 5.838931e+001 1.781147e+002 5.350363e+001 2.692778e+001 3.646220e+001 2.140760e+001 1.400386e+002 9.834378e-001 8.495610e-001 6.242034e-001 1.472357e+000 2.364150e+000 4.513103e+000 3.386180e+000 1.812425e+000 2.490128e+000 1.823599e+000 2.422162e+000 1.253581e+000 6.797175e-001 1.664500e-001 9.635065e-002 1.158197e-001 3.230480e-001 5.098143e-001 8.481083e-001 7.144463e-001 2.888559e-001 4.208542e-001 3.768899e-001 6.785380e-001 3.022238e-001 1.077535e-001
<GCONST> 1.139646e+002
<STATE> 4
<MEAN> 39
 -8.333619e+000 -4.862914e-001 -2.203997e+000 2.149302e+000 -1.942529e+000 -1.873140e+000 -5.028999e+000 -4.908415e+000 -7.058597e+000 -4.901012e+000 -3.372746e+000 -2.139966e+000 6.574454e+001 -1.677171e-001 5.591267e-002 -2.513259e-002 -1.540693e-001 7.194002e-002 2.056202e-001 9.918707e-002 6.805961e-002 1.732699e-001 5.890740e-002 6.011506e-002 7.290845e-002 -1.346261e-001 1.874807e-002 -9.567754e-003 -1.774647e-002 -1.553256e-002 -4.796091e-003 -2.462111e-003 -5.135475e-004 3.916814e-003 -3.264962e-004 2.799461e-002 4.150238e-002 1.438179e-002 1.286343e-002
<VARIANCE> 39
 1.189647e+001 3.810383e+000 1.778829e+001 2.726510e+001 2.054071e+001 3.242809e+001 1.187767e+001 1.957290e+001 3.434466e+001 1.234271e+001 1.191606e+001 1.254995e+001 1.391476e+001 2.369388e-001 3.094983e-001 4.277615e-001 9.246303e-001 9.440691e-001 1.015754e+000 9.041814e-001 7.737049e-001 9.633639e-001 1.190916e+000 9.480016e-001 8.265744e-001 1.106063e-001 2.955734e-002 6.012246e-002 7.911961e-002 1.670508e-001 1.968301e-001 1.643854e-001 1.558771e-001 1.592992e-001 1.808361e-001 2.350612e-001 1.786402e-001 1.612017e-001 1.865842e-002
<GCONST> 7.259520e+001
<TRANSP> 5
 0.000000e+000 1.000000e+000 0.000000e+000 0.000000e+000 0.000000e+000
 0.000000e+000 8.931568e-001 1.068432e-001 0.000000e+000 0.000000e+000
 0.000000e+000 0.000000e+000 8.224846e-001 1.775154e-001 0.000000e+000
 0.000000e+000 0.000000e+000 0.000000e+000 9.434969e-001 5.650301e-002
 0.000000e+000 0.000000e+000 0.000000e+000 0.000000e+000 0.000000e+000
<ENDHMM>
~h "s"
<BEGINHMM>
<NUMSTATES> 5
<STATE> 2
<MEAN> 39
 1.651653e+000 1.806906e+000 9.606082e+000 3.677464e-001 2.012538e+000 1.515670e+001 -1.177088e+001 8.625199e+000 -6.016613e+000 5.351509e+000 -8.424582e+000 -6.916043e+000 6.831713e+001 -1.380563e-001 2.666532e-001 5.736569e-001 2.965864e-001 1.302895e-001 -6.757032e-003 4.079707e-001 2.843790e-001 -5.387560e-002 2.280279e-001 -9.908676e-002 4.514096e-001 2.358447e-002 -1.102465e-001 -1.084844e-001 -4.075939e-002 -1.169244e-001 -2.151537e-001 -8.079567e-002 7.456952e-002 1.386291e-001 5.891991e-002 9.346135e-002 2.044764e-001 1.311616e-002 -8.117092e-002
<VARIANCE> 39
 4.928741e+001 3.825597e+000 2.014860e+001 8.682802e+000 1.274065e+001 5.559628e+001 1.637527e+001 7.634525e+001 2.193574e+001 3.991813e+001 1.443142e+001 1.751334e+001 1.421132e+001 9.112602e-001 8.169946e-001 5.698993e-001 6.006909e-001 1.281446e+000 1.190753e+000 7.775986e-001 1.308487e+000 6.690441e-001 1.046045e+000 9.406336e-001 9.359133e-001 2.948712e-001 8.453815e-002 1.179410e-001 8.739018e-002 5.946462e-002 2.750442e-001 2.454021e-001 3.153814e-001 3.217749e-001 1.271198e-001 1.918855e-001 2.120823e-001 2.152585e-001 4.927910e-002
<GCONST> 8.344187e+001
<STATE> 3
<MEAN> 39
 -1.343193e+001 2.646552e+000 1.293937e+001 -4.640138e+000 2.011922e+000 7.172703e+000 -3.623891e+000 1.442261e+000 -2.943863e+000 1.473183e+000 -3.065894e+000 -2.651545e+000 7.115273e+001 -7.378317e-001 -3.870468e-001 3.705302e-001 -2.381180e-001 -9.054424e-001 2.905630e-001 7.188421e-001 8.005613e-001 4.976516e-001 1.226164e+000 9.915794e-001 1.312455e-001 -6.292921e-002 -2.596005e-001 -8.798261e-001 -7.574134e-001 -5.104265e-001 -2.293098e-001 -5.496894e-001 -3.747472e-001 -1.256605e-001 -1.301775e-001 -3.251850e-001 2.452070e-001 -8.711114e-002 -1.333230e-001
<VARIANCE> 39
 1.062589e+002 1.067951e+001 7.542075e+001 3.798315e+001 3.172778e+000 2.137339e+001 1.092041e+001 6.644497e+001 6.758446e+001 4.247716e+001 4.364789e+001 2.756216e+000 1.227210e+002 6.007901e-001 1.037383e+000 6.960115e-001 9.791033e-001 1.586871e+000 2.150922e+000 3.186990e+000 9.140214e-001 4.395096e-001 1.169586e+000 8.510795e-001 2.595493e-001 3.248788e-001 3.676077e-002 2.941240e-001 1.906282e-001 1.902411e-001 1.663329e-001 1.875186e-001 3.785065e-001 1.884235e-001 5.551841e-002 2.682897e-001 1.656274e-001 1.217464e-001 5.042063e-002
<GCONST> 8.812830e+001
<STATE> 4
<MEAN> 39
 -1.078145e+001 3.138470e-001 9.719245e+000 -4.102309e+000 6.228648e-001 8.581847e+000 -4.176533e+000 5.730388e+000 -3.729025e+000 5.291479e+000 -3.549353e+000 -1.442370e+000 6.767690e+001 -8.278306e-001 -9.888736e-001 -4.818962e-001 -3.081697e-001 -3.283286e-001 -2.130001e-001 -1.593036e-001 5.926744e-001 3.310950e-001 1.911242e-001 6.216998e-001 -5.967117e-001 -2.948618e-001 1.028435e-001 -4.201318e-001 -4.576106e-001 -2.954767e-001 -5.664105e-002 -4.353516e-001 -2.503608e-001 -3.384042e-001 -2.559193e-001 -6.100863e-001 1.309517e-001 -9.260706e-002 2.404339e-001
<VARIANCE> 39
 1.151774e+002 2.165326e+001 5.788493e+001 3.902436e+001 1.598790e+000 1.929791e+001 4.364393e+001 9.511514e+001 6.626256e+001 9.196638e+001 3.983860e+001 1.720585e+000 8.716628e+001 6.088734e-001 1.327276e+000 3.937146e-001 6.572462e-001 3.436723e-001 6.966528e-001 3.088196e+000 9.200134e-001 4.939795e-001 2.392530e-001 4.592562e-001 9.754640e-001 3.447597e-001 5.439193e-002 1.657433e-001 7.400180e-002 6.343696e-002 2.188932e-001 2.471101e-001 3.046683e-001 2.192488e-001 8.725222e-002 1.923995e-001 1.514683e-001 5.974135e-002 9.261212e-002
<GCONST> 8.357372e+001
<TRANSP> 5
 0.000000e+000 1.000000e+000 0.000000e+000 0.000000e+000 0.000000e+000
 0.000000e+000 8.201323e-001 1.798677e-001 0.000000e+000 0.000000e+000
 0.000000e+000 0.000000e+000 2.080967e-001 7.919033e-001 0.000000e+000
 0.000000e+000 0.000000e+000 0.000000e+000 1.499790e-001 8.500211e-001
 0.000000e+000 0.000000e+000 0.000000e+000 0.000000e+000 0.000000e+000
<ENDHMM>
~h "t"
<BEGINHMM>
<NUMSTATES> 5
<STATE> 2
<MEAN> 39
 -7.520998e+000 -2.611322e+000 -2.922186e+000 -3.057266e+000 -1.108204e+000 -1.049021e+000 -6.132790e+000 -7.047220e+000 -8.081134e+000 -4.614476e+000 -3.223317e+000 -1.625893e+000 6.832362e+001 7.594399e-001 -1.859256e+000 -1.073850e+000 -1.672202e+000 -5.472661e-001 -6.627524e-001 6.302886e-001 -5.287631e-002 -1.220188e-001 6.551121e-001 1.449503e+000 -4.068103e-001 2.011098e+000 2.100707e-001 -4.364829e-001 -2.315214e-001 -1.821428e-001 -1.548629e-001 1.007002e-001 4.382839e-001 1.550972e-001 -3.333260e-002 6.495831e-002 3.200458e-001 -2.419818e-001 4.168240e-001
<VARIANCE> 39
 3.363640e+001 1.914101e+001 3.875613e+001 4.837481e+001 8.885752e+001 2.620029e+001 4.651717e+001 3.643417e+001 4.489972e+001 2.941475e+001 4.462564e+001 2.656388e+001 4.472675e+001 2.791085e+000 2.510082e+000 6.451369e+000 3.195029e+000 4.297539e+000 1.974775e+000 4.793359e+000 1.624369e+000 5.977730e-001 1.528403e+000 6.489032e+000 2.806256e+000 3.560650e+000 3.905731e-001 1.931989e-001 9.917098e-001 6.060486e-001 5.682253e-001 4.405296e-001 7.786512e-001 2.819077e-001 1.477547e-001 4.194376e-001 8.895149e-001 4.008789e-001 3.524879e-001
<GCONST> 1.213289e+002
<STATE> 3
<MEAN> 39
 1.200552e+000 -1.340359e+001 -1.219494e+001 -8.708013e+000 1.426490e+000 -2.291212e+000 7.446452e+000 -5.253360e+000 -1.073920e+001 -4.558824e+000 -2.756713e+000 -1.860801e+000 7.875623e+001 1.650933e-001 2.131434e-002 -8.913631e-002 3.214570e-001 -2.613032e-001 8.304282e-002 -7.738618e-002 2.800401e-001 1.177447e-001 -4.671522e-001 -1.572651e-001 -1.111397e-001 -1.668693e-002 -7.201413e-002 1.595579e-001 1.653443e-001 9.795928e-002 1.050179e-001 5.720142e-002 -2.075627e-001 -2.647079e-002 -2.674855e-002 -3.851036e-002 -1.025347e-001 1.482593e-001 -1.648581e-001
<VARIANCE> 39
 1.441126e+001 2.744428e+001 2.468740e+001 2.942407e+001 4.969281e+001 2.197066e+001 7.670181e+001 2.387255e+001 3.412074e+001 2.727937e+001 4.584099e+001 2.174908e+001 3.774204e+001 1.555076e-001 1.737374e+000 1.302010e+000 1.588066e+000 1.262307e+000 1.706584e+000 4.509863e+000 1.264626e+000 2.031882e+000 1.641089e+000 1.493013e+000 1.394641e+000 8.779144e-001 7.643279e-002 1.662954e-001 2.649525e-001 3.454026e-001 3.234222e-001 3.004670e-001 6.200248e-001 3.112797e-001 3.220859e-001 3.125303e-001 5.473673e-001 3.230020e-001 1.552639e-001
<GCONST> 1.032348e+002
<STATE> 4
<MEAN> 39
 -7.695231e+000 -3.794304e-001 -1.522590e+000 -1.252505e+000 1.567369e+000 2.744208e+000 -2.436697e+000 -1.651202e+000 -9.235349e+000 -3.438331e+000 -4.920930e+000 -9.798294e-001 6.396268e+001 -5.657111e-002 9.616748e-003 6.150062e-002 -1.961441e-002 -2.154612e-002 7.388417e-002 -3.244647e-002 -9.079593e-003 2.337809e-002 3.361093e-002 2.715886e-002 9.056228e-003 -4.398799e-002 -2.139425e-005 -5.044913e-003 1.320101e-004 -1.934149e-005 1.147208e-002 7.830571e-003 8.448680e-003 7.918260e-003 -9.942295e-004 2.886039e-003 -1.531019e-003 -1.367410e-003 3.911240e-004
<VARIANCE> 39
 1.075785e+001 3.462089e+000 7.597898e+000 5.025371e+000 1.036120e+001 9.994057e+000 1.026393e+001 8.824355e+000 1.189694e+001 8.836862e+000 1.169750e+001 6.433338e+000 8.965316e+000 8.863424e-002 1.978948e-001 3.612094e-001 4.057670e-001 4.841334e-001 7.851184e-001 7.997684e-001 8.382155e-001 7.603267e-001 6.495953e-001 9.238600e-001 6.502894e-001 6.991976e-002 1.592335e-002 2.572185e-002 6.276897e-002 8.214284e-002 9.584365e-002 1.548842e-001 1.765360e-001 1.799864e-001 1.654766e-001 1.272208e-001 2.051180e-001 1.209367e-001 6.078012e-003
<GCONST> 5.465894e+001
<TRANSP> 5
 0.000000e+000 1.000000e+000 0.000000e+000 0.000000e+000 0.000000e+000
 0.000000e+000 6.525902e-001 3.474098e-001 0.000000e+000 0.000000e+000
 0.000000e+000 0.000000e+000 8.566194e-001 1.433806e-001 0.000000e+000
 0.000000e+000 0.000000e+000 0.000000e+000 9.655203e-001 3.447972e-002
 0.000000e+000 0.000000e+000 0.000000e+000 0.000000e+000 0.000000e+000
<ENDHMM>
~h "ai"
<BEGINHMM>
<NUMSTATES> 5
<STATE> 2
<MEAN> 39
 -5.559115e+000 -1.683908e+000 9.931366e+000 -3.792243e+000 -5.196087e+000 2.538622e+000 -9.528120e+000 4.369224e+000 -5.529915e+000 2.958259e+000 -2.864329e+000 -2.283834e-001 6.866102e+001 5.250139e-001 5.133098e-003 5.966933e-002 -2.095814e-002 2.913485e-001 -8.562255e-003 -2.543643e-001 -3.138089e-001 -1.895737e-001 5.210555e-002 -2.080958e-001 -1.608631e-002 4.221670e-001 3.175664e-002 -9.607612e-002 -9.533011e-002 -8.023377e-002 -3.887671e-002 -2.628217e-002 2.514829e-002 8.107343e-003 4.609303e-004 1.167959e-001 5.783582e-002 5.910769e-004 6.778632e-002
<VARIANCE> 39
 4.020293e+001 5.881610e+001 5.343280e+001 2.607745e+001 3.681406e+001 5.386157e+001 4.943204e+001 8.892158e+001 2.334244e+001 8.132411e+001 3.507711e+001 2.419329e+001 1.935075e+001 2.084295e+000 5.518232e+000 2.160943e+000 1.879557e+000 2.837965e+000 3.963212e+000 4.782135e+000 2.230243e+000 2.034335e+000 1.896092e+000 3.575623e+000 1.400660e+000 1.146534e+000 2.444900e-001 8.637264e-001 3.404180e-001 3.375097e-001 4.819316e-001 6.866888e-001 1.091785e+000 4.383177e-001 3.442441e-001 3.428387e-001 6.721788e-001 2.709478e-001 1.543606e-001
<GCONST> 1.203797e+002
<STATE> 3
<MEAN> 39
 -8.391362e+000 -9.749090e+000 5.504908e+000 -9.171615e+000 5.092554e+000 6.330148e-001 -2.142946e+000 8.722551e-001 -2.997399e+000 1.579544e+000 -2.880419e+000 2.738754e+000 7.399367e+001 2.647650e-001 -2.320433e-001 -8.964303e-001 -7.081558e-001 -4.206268e-001 -3.057404e-001 6.640404e-001 4.646147e-002 1.680316e-001 2.896979e-001 3.580889e-002 8.349471e-002 3.053194e-001 -2.224113e-002 1.276509e-001 -2.590388e-002 8.428854e-002 1.744409e-002 1.842483e-002 4.051807e-002 8.258366e-002 8.303421e-002 -9.354778e-002 -5.229652e-002 -6.513282e-002 -1.015342e-001
<VARIANCE> 39
 5.692427e+001 6.890304e+001 8.492467e+001 4.475798e+001 1.159533e+002 5.896407e+001 6.471712e+001 8.713395e+001 7.925005e+001 7.969327e+001 5.681690e+001 3.430006e+001 3.003098e+001 3.853867e+000 4.338533e+000 4.166981e+000 3.670058e+000 4.827207e+000 9.423644e+000 8.222613e+000 5.888899e+000 5.636398e+000 7.171761e+000 3.654273e+000 3.536908e+000 1.318501e+000 7.101250e-001 7.055610e-001 5.706257e-001 8.774762e-001 8.253242e-001 2.409899e+000 2.097892e+000 1.422362e+000 1.171418e+000 1.262817e+000 6.610863e-001 5.524556e-001 2.076908e-001
<GCONST> 1.433774e+002
<STATE> 4
<MEAN> 39
 -8.645067e-001 -1.175509e+001 -1.764383e+001 -1.025171e+001 -1.055996e+001 -4.916760e+000 5.564661e+000 -1.463098e+001 2.580688e+000 -4.025363e+000 7.625910e-001 -1.403902e+001 8.655364e+001 -5.961465e-002 1.908547e-001 1.434840e-002 1.583885e-002 -6.772321e-002 -3.145851e-001 1.949137e-001 7.407773e-002 1.655409e-001 -4.179358e-001 -1.751559e-002 -2.664934e-002 -6.828490e-002 -1.151542e-002 4.903203e-002 1.111733e-001 3.219448e-002 1.369236e-002 -5.663816e-002 -1.080263e-001 5.713342e-002 -1.193727e-001 -1.196741e-002 3.207018e-003 1.073164e-001 -3.319009e-002
<VARIANCE> 39
 6.770671e+000 5.881464e+000 1.540758e+001 9.973629e+000 5.416539e+001 1.503681e+001 2.400045e+001 8.219073e+001 5.431871e+001 1.824006e+001 3.879363e+001 6.929206e+001 2.137930e+001 1.305672e-001 2.084572e-001 5.412721e-001 3.078372e-001 3.173656e-001 1.274738e+000 1.354375e+000 1.234390e+000 1.208177e+000 6.489933e-001 3.395822e-001 7.455769e-001 4.433352e-002 3.151140e-002 3.401811e-002 6.254385e-002 7.671361e-002 4.634200e-002 1.426274e-001 1.815178e-001 1.568569e-001 5.427305e-002 1.250523e-001 5.712163e-002 1.015773e-001 6.497934e-003
<GCONST> 6.608934e+001
<TRANSP> 5
 0.000000e+000 1.000000e+000 0.000000e+000 0.000000e+000 0.000000e+000
 0.000000e+000 9.443650e-001 5.563505e-002 0.000000e+000 0.000000e+000
 0.000000e+000 0.000000e+000 9.291540e-001 7.084598e-002 0.000000e+000
 0.000000e+000 0.000000e+000 0.000000e+000 9.205593e-001 7.944071e-002
 0.000000e+000 0.000000e+000 0.000000e+000 0.000000e+000 0.000000e+000
<ENDHMM>
~h "as"
<BEGINHMM>
<NUMSTATES> 5
<STATE> 2
<MEAN> 39
 -1.513439e+000 -1.405265e+001 -1.851249e+001 -9.848224e+000 -1.102808e+001 4.955204e+000 -7.168412e+000 -1.048369e+001 6.394696e+000 -1.883689e+001 9.521070e+000 -1.043728e+001 8.518148e+001 -1.352530e-001 1.048396e-002 -4.593454e-002 -1.311141e-001 4.899719e-002 -2.012064e-001 3.212603e-001 -2.241697e-001 -2.296741e-001 -5.070481e-002 -2.191395e-001 -1.951911e-001 -4.812747e-002 1.947609e-003 8.390138e-002 7.237818e-002 5.689869e-003 -6.536501e-002 -1.003977e-001 8.060255e-002 -2.320328e-002 -2.117003e-001 8.836190e-002 -3.570756e-002 -6.757535e-002 -7.153971e-003
<VARIANCE> 39
 6.589021e+000 2.981454e+001 4.326569e+001 9.472622e+000 8.916399e+000 2.147849e+001 2.012366e+001 5.073116e+001 4.030805e+001 5.938114e+001 2.615045e+001 1.644474e+001 8.391936e+001 1.119679e-001 1.477747e-001 3.423120e-001 4.216058e-001 4.454969e-001 9.833089e-001 1.630431e+000 5.453895e-001 1.367643e+000 9.863074e-001 1.706453e+000 6.184055e-001 4.724036e-002 2.931375e-002 3.643178e-002 2.384122e-002 6.947304e-002 4.792247e-002 1.126054e-001 3.043244e-001 7.717711e-002 8.402709e-002 2.076160e-001 2.159210e-001 1.146841e-001 1.081461e-002
<GCONST> 6.925900e+001
<STATE> 3
<MEAN> 39
 -1.154397e+000 -5.847213e+000 -1.324727e+001 -2.932967e+000 -1.020864e+001 -5.166033e+000 -7.521458e+000 -1.226189e+001 -1.050799e+001 -1.572809e+001 -2.194925e+000 -9.544134e+000 7.544518e+001 -1.160335e-001 6.272560e-001 4.263479e-001 5.848264e-001 1.419131e-001 -3.485867e-002 -1.849262e-001 1.329072e-001 -7.059552e-001 4.164644e-001 -4.925333e-001 4.494681e-001 -8.836985e-001 -6.084826e-002 -1.684629e-002 1.365095e-002 4.629158e-002 5.647535e-002 9.795656e-002 5.292372e-002 5.083388e-002 1.426530e-001 -5.738324e-002 3.762415e-002 -2.904880e-003 -2.009707e-002
<VARIANCE> 39
 1.002392e+001 1.800978e+001 1.864972e+001 1.943340e+001 1.064046e+001 2.100587e+001 2.453720e+001 4.220111e+001 4.297673e+001 3.460466e+001 2.431612e+001 2.343176e+001 5.476924e+001 5.587329e-001 1.573037e-001 3.284144e-001 8.409237e-001 3.604932e-001 9.957104e-001 1.013402e+000 3.004001e-001 1.885426e+000 5.991696e-001 1.657371e+000 3.856989e-001 3.186278e-001 7.062188e-002 4.646068e-002 6.192086e-002 1.860207e-001 9.863842e-002 1.314157e-001 2.530547e-001 7.489610e-002 1.022536e-001 1.740838e-001 2.530828e-001 1.084894e-001 7.266405e-002
<GCONST> 7.662909e+001
<STATE> 4
<MEAN> 39
 -8.967745e+000 -5.199455e-001 -4.169609e+000 3.936223e-001 -9.752746e-001 2.027689e+000 -3.311705e+000 -3.747104e+000 -6.877361e+000 -4.705717e+000 -4.440854e+000 -1.675045e+000 6.400272e+001 -5.772787e-002 3.075059e-003 2.382605e-002 1.494179e-002 2.839890e-002 2.909186e-002 2.468123e-002 4.460302e-002 6.808639e-002 2.121157e-002 -1.098568e-002 -3.152448e-003 -3.118654e-002 5.322457e-003 8.312744e-004 2.338464e-003 1.618107e-003 -5.199987e-003 -1.156299e-002 -7.860678e-003 -8.989167e-004 1.256215e-003 -7.829553e-003 -2.032850e-003 -7.361587e-003 4.499482e-003
<VARIANCE> 39
 5.115235e+000 1.908292e+000 1.690349e+001 1.366078e+001 1.597285e+001 9.174601e+000 9.452980e+000 1.388162e+001 2.554763e+001 9.178492e+000 9.645008e+000 8.488835e+000 1.893367e+000 1.187383e-001 1.678289e-001 3.121852e-001 3.775091e-001 5.337434e-001 6.615120e-001 8.489787e-001 7.710246e-001 9.427806e-001 8.986033e-001 9.207636e-001 8.709084e-001 4.080387e-002 1.842031e-002 3.487134e-002 6.496405e-002 7.101017e-002 1.029544e-001 1.257229e-001 1.744975e-001 1.396742e-001 1.864269e-001 1.976178e-001 1.970465e-001 1.792805e-001 5.914407e-003
<GCONST> 5.609320e+001
<TRANSP> 5
 0.000000e+000 1.000000e+000 0.000000e+000 0.000000e+000 0.000000e+000
 0.000000e+000 7.894299e-001 2.105701e-001 0.000000e+000 0.000000e+000
 0.000000e+000 0.000000e+000 8.478687e-001 1.521313e-001 0.000000e+000
 0.000000e+000 0.000000e+000 0.000000e+000 9.859065e-001 1.409347e-002
 0.000000e+000 0.000000e+000 0.000000e+000 0.000000e+000 0.000000e+000
<ENDHMM>
~h "aw"
<BEGINHMM>
<NUMSTATES> 5
<STATE> 2
<MEAN> 39
 -1.264585e+001 2.373006e-001 1.202699e+000 -1.135862e+000 1.314020e+000 -1.903657e+000 2.856941e+000 -7.219618e+000 8.591632e-001 -2.555145e+000 4.704561e+000 -1.089731e+000 6.859518e+001 4.901992e-001 -4.128940e-001 -3.247530e-001 4.212780e-002 5.410976e-001 8.511664e-001 6.913479e-002 6.935889e-001 8.451163e-002 9.502181e-001 9.099278e-002 6.154963e-001 6.340621e-002 3.301403e-002 -1.098454e-001 -1.133936e-001 -6.464520e-002 -6.166894e-002 -3.063288e-001 -1.705471e-001 7.790307e-002 -1.516303e-001 -3.957034e-002 -3.570608e-001 -2.482257e-002 -3.431606e-003
<VARIANCE> 39
 1.234190e+001 5.179152e+000 2.407861e+001 6.170227e+001 4.749617e+001 6.469212e+001 1.056088e+001 1.507300e+001 3.532222e+001 2.089714e+001 1.263860e+001 1.297004e+001 1.244052e+001 2.618019e-001 7.937653e-001 1.169257e+000 2.821836e-001 1.225003e+000 1.460461e+000 1.078770e+000 8.478314e-001 1.547583e+000 2.231808e+000 1.652166e+000 1.318185e+000 2.993960e-001 8.033028e-002 1.153533e-001 1.222598e-001 8.286442e-002 3.468187e-001 2.645142e-001 2.599062e-001 3.205935e-001 3.710158e-001 6.334655e-001 4.010505e-001 3.926127e-001 7.395829e-002
<GCONST> 8.903943e+001
<STATE> 3
<MEAN> 39
 -1.006783e+001 -3.592015e+000 -3.514696e+000 -1.449459e+000 -4.203689e-001 -2.860369e+000 -1.996472e+000 -5.713411e+000 -3.987880e+000 -3.264962e-001 1.034171e+000 2.336787e+000 6.787466e+001 9.800015e-002 -1.535990e-001 2.261645e-001 5.780421e-002 -3.585327e-001 1.650632e-001 -7.215019e-001 9.853950e-001 -4.765515e-001 2.429471e-001 -8.756733e-001 1.841924e-002 -4.595335e-001 -5.802070e-002 1.987776e-001 1.727051e-001 9.654841e-002 -7.112491e-002 2.878678e-001 7.330918e-002 9.253098e-002 8.918559e-002 -1.751451e-001 -1.186292e-002 -3.395697e-001 -7.066366e-002
<VARIANCE> 39
 3.085253e+000 2.478544e+000 5.811538e+001 2.869057e+001 2.774462e+001 1.977124e+001 5.463017e+000 5.562698e+001 1.819728e+001 2.627610e+001 1.499754e+001 2.264146e+001 3.392207e+000 5.126722e-001 3.676553e-001 8.569276e-001 1.137620e+000 1.301004e+000 2.473872e+000 1.555539e+000 4.312748e+000 1.726222e+000 2.260594e+000 1.457333e+000 3.948597e+000 1.404776e-001 5.228568e-002 7.594693e-002 1.020314e-001 2.057360e-001 2.317822e-001 2.482966e-001 2.162483e-001 3.639489e-001 2.629822e-001 3.798533e-001 2.579911e-001 4.881390e-001 3.844097e-002
<GCONST> 8.647668e+001
<STATE> 4
<MEAN> 39
 -1.017867e+001 -9.968734e-001 -4.013573e+000 3.746374e-001 -8.434722e-001 3.061155e+000 -2.091768e+000 -2.935328e+000 -4.284144e+000 -2.443326e+000 -4.136726e+000 -1.264479e-001 6.342531e+001 -2.134902e-002 6.945984e-003 9.061558e-003 2.997280e-002 2.756291e-002 4.537374e-002 2.673037e-002 1.835690e-002 1.589499e-002 -2.171676e-002 -2.889472e-002 1.400941e-002 -3.070903e-002 -1.735790e-003 -6.749687e-003 -2.576916e-003 2.346607e-003 -7.107651e-003 -7.566456e-003 -8.950152e-003 -2.253268e-002 -1.072281e-002 -4.696358e-003 1.078919e-002 3.952399e-004 4.092084e-003
<VARIANCE> 39
 4.729416e+000 2.131278e+000 1.899453e+001 1.467271e+001 1.191283e+001 7.310460e+000 6.522950e+000 1.131983e+001 3.538374e+001 7.730239e+000 9.595346e+000 6.706390e+000 6.486427e-001 7.534747e-002 1.655574e-001 2.973053e-001 3.577035e-001 5.208890e-001 6.256935e-001 5.702757e-001 7.308819e-001 7.671965e-001 7.277104e-001 8.786258e-001 5.969995e-001 2.765405e-002 1.401196e-002 3.531735e-002 6.664641e-002 7.549829e-002 1.040153e-001 1.378328e-001 1.189627e-001 1.606554e-001 1.555981e-001 1.420180e-001 1.844779e-001 1.302578e-001 4.237887e-003
<GCONST> 5.018202e+001
<TRANSP> 5
 0.000000e+000 1.000000e+000 0.000000e+000 0.000000e+000 0.000000e+000
 0.000000e+000 7.544302e-001 2.455698e-001 0.000000e+000 0.000000e+000
 0.000000e+000 0.000000e+000 7.217926e-001 2.782074e-001 0.000000e+000
 0.000000e+000 0.000000e+000 0.000000e+000 9.819700e-001 1.803004e-002
 0.000000e+000 0.000000e+000 0.000000e+000 0.000000e+000 0.000000e+000
<ENDHMM>
~h "ch"
<BEGINHMM>
<NUMSTATES> 5
<STATE> 2
<MEAN> 39
 -9.486139e+000 -1.085931e+000 5.717359e-001 1.364401e-001 -7.011494e+000 4.926554e+000 -7.124986e+000 4.519673e+000 -5.165575e+000 -1.809914e+000 3.857462e-002 -5.031078e+000 6.056752e+001 1.097896e-001 9.513941e-002 1.135400e+000 -1.147741e+000 6.545268e-001 -1.339200e+000 -2.642346e-001 -5.547001e-001 -1.397256e+000 1.195844e+000 -4.928989e-001 9.583769e-001 8.519425e-001 -2.176440e-001 7.260917e-002 1.351072e-001 -5.608375e-001 4.748681e-001 -2.920174e-001 4.778768e-002 -1.311795e-001 -4.573635e-002 3.360971e-001 -1.681144e-001 2.134790e-001 1.531559e-001
<VARIANCE> 39
 5.328487e+001 2.993742e+000 2.398931e+001 8.152220e+000 6.737692e+001 2.559137e+001 9.706209e+001 2.572794e+001 1.994868e+001 3.961823e+000 1.973349e+001 1.461347e+001 1.159035e+001 9.301533e-001 3.086472e-001 1.288207e+000 1.937716e+000 1.524295e+000 4.128091e-001 1.541597e+000 4.556115e-001 2.225330e-001 9.018254e-001 1.100305e+000 2.105202e+000 2.973187e-001 2.022189e-001 4.850994e-002 2.244059e-001 1.064899e-001 1.426772e-001 1.202984e-001 2.936275e-001 8.545568e-002 2.583578e-001 3.236691e-001 1.250764e-001 2.055035e-001 1.509190e-001
<GCONST> 8.251422e+001
<STATE> 3
<MEAN> 39
 -1.373596e+001 -5.433992e-001 3.900048e+000 -5.427677e+000 -2.960671e-001 5.994404e-001 -4.240449e+000 4.804928e+000 -6.969995e+000 3.204670e+000 -1.266657e+000 -3.324542e+000 6.136922e+001 -1.772039e-001 -3.724987e-002 -5.741379e-001 -7.007048e-002 4.198197e-001 -6.587343e-001 5.171335e-001 -6.425101e-001 1.667308e-001 5.393377e-001 -2.641183e-001 1.817779e-002 -3.975975e-002 3.052920e-001 -8.906508e-002 -4.030824e-001 3.703707e-001 -4.673099e-001 3.712099e-001 -2.451305e-001 -1.088689e-001 1.437945e-001 -4.951807e-001 -1.305780e-001 -1.300900e-001 -6.905955e-002
<VARIANCE> 39
 6.103642e+001 6.386709e+000 3.783729e+001 3.254691e+001 5.584957e+001 1.264492e+001 2.804975e+001 1.685326e+001 1.592636e+001 1.086193e+001 4.918410e+000 1.121285e+001 1.445621e+001 2.601702e+000 1.584490e-001 3.443393e+000 3.571576e+000 3.613390e+000 9.652759e-001 1.490149e+000 1.244977e+000 2.406881e+000 2.523360e+000 5.104594e-001 3.352739e-001 7.066578e-001 3.922627e-001 1.526367e-001 7.143197e-001 7.001089e-001 4.738760e-001 1.704739e-001 5.085452e-001 1.432685e-001 4.192816e-001 2.912341e-001 1.186892e-001 2.387387e-001 2.338376e-001
<GCONST> 9.673052e+001
<STATE> 4
<MEAN> 39
 -1.170383e+001 -9.908798e-001 -3.746876e-001 -2.330534e+000 -3.356425e+000 6.807228e-002 -4.654386e+000 1.438797e+000 -6.956734e+000 1.405304e+000 -3.460881e+000 -3.087078e+000 6.151735e+001 1.807163e-001 7.030575e-002 4.106889e-001 4.084979e-001 -7.536076e-002 2.638025e-001 -2.652894e-001 -1.476763e-001 -4.611133e-001 -1.702148e-001 -5.105813e-001 1.750394e-001 7.923003e-002 -2.262139e-001 -9.081745e-002 5.388265e-001 -4.165821e-002 7.332239e-002 2.500517e-001 2.275326e-001 1.607690e-001 1.692684e-001 1.766771e-002 1.320748e-001 -1.112860e-001 1.122932e-001
<VARIANCE> 39
 2.937311e+001 2.150376e+000 2.826888e+001 2.725065e+001 9.212194e+000 1.476417e+001 4.920171e+001 3.159428e+001 2.745629e+001 1.803987e+001 1.300523e+001 8.310270e+000 1.708617e+001 6.393297e-001 8.473824e-001 4.323696e-001 7.567176e-001 1.095174e+000 4.656371e-001 1.733454e+000 1.034975e+000 1.384283e+000 1.084234e+000 1.450344e+000 3.169194e-001 6.147258e-001 3.829155e-001 2.237549e-001 2.129822e-001 5.138151e-001 2.497442e-001 7.801761e-002 3.168647e-001 2.564420e-001 3.378057e-001 3.166787e-001 3.542944e-001 1.013870e-001 2.072407e-001
<GCONST> 8.752742e+001
<TRANSP> 5
 0.000000e+000 1.000000e+000 0.000000e+000 0.000000e+000 0.000000e+000
 0.000000e+000 4.998478e-001 5.001522e-001 0.000000e+000 0.000000e+000
 0.000000e+000 0.000000e+000 6.002788e-001 3.997212e-001 0.000000e+000
 0.000000e+000 0.000000e+000 0.000000e+000 7.314017e-001 2.685983e-001
 0.000000e+000 0.000000e+000 0.000000e+000 0.000000e+000 0.000000e+000
<ENDHMM>
~h "is"
<BEGINHMM>
<NUMSTATES> 5
<STATE> 2
<MEAN> 39
 -7.628883e-001 -2.838560e+000 8.607081e+000 -1.646758e+000 -5.765009e+000 7.899552e+000 -1.307644e+001 7.902415e+000 -3.437624e+000 2.596515e+000 7.825330e-001 -2.653075e+000 6.805236e+001 -2.874815e-002 -2.888939e-002 -1.151083e-003 2.556805e-003 -4.263889e-002 2.069098e-002 4.828970e-002 -7.122336e-002 6.503838e-002 -7.793084e-002 8.362676e-002 -3.021172e-002 1.633770e-002 -3.923023e-002 -1.895864e-002 8.158284e-003 -4.700607e-002 2.712790e-002 -3.659707e-002 1.491798e-002 -4.360615e-002 -1.466520e-003 4.927631e-003 -2.577285e-002 -1.319206e-003 1.826589e-002
<VARIANCE> 39
 2.710029e+001 1.049267e+001 3.460349e+001 4.842377e+001 1.036084e+002 8.059907e+001 7.136642e+001 9.981893e+001 4.194759e+001 4.871287e+001 6.747401e+001 4.498749e+001 4.130238e+001 2.400713e+000 1.052263e+000 2.052851e+000 2.472148e+000 3.147915e+000 3.792808e+000 5.397398e+000 6.968746e+000 4.793401e+000 3.821472e+000 3.556501e+000 2.623113e+000 1.076161e+000 4.691558e-001 2.234093e-001 3.736044e-001 4.257953e-001 5.683960e-001 6.680952e-001 9.704826e-001 1.289484e+000 9.859861e-001 7.933972e-001 6.132814e-001 4.128392e-001 1.706983e-001
<GCONST> 1.276618e+002
<STATE> 3
<MEAN> 39
 -6.554737e+000 -3.387177e+000 1.352570e+001 7.861637e-001 -2.122097e+000 3.317346e+000 -1.175627e+001 1.487116e+000 -4.344982e+000 -4.948495e-001 -3.720986e+000 -4.050170e+000 6.889747e+001 3.337080e-001 -1.088308e-001 3.404326e-001 3.631000e-001 9.504841e-002 -6.227941e-001 -5.114192e-001 -1.048630e-001 -4.399058e-001 -7.504933e-002 4.780742e-002 -2.038868e-002 4.498306e-001 1.383057e-001 3.207012e-002 -1.564428e-001 1.266760e-001 -4.492140e-002 -4.452607e-002 -5.425115e-002 9.163808e-002 -4.020965e-002 2.609713e-003 7.223886e-002 2.203430e-002 -3.844279e-002
<VARIANCE> 39
 6.205590e+001 3.309346e+001 1.061430e+002 5.755598e+001 1.199622e+002 1.506210e+002 1.095853e+002 1.002881e+002 3.746344e+001 2.935836e+001 7.173734e+001 3.876922e+001 5.431824e+001 4.689272e+000 3.219656e+000 4.710836e+000 7.564011e+000 1.045188e+001 1.361013e+001 8.177821e+000 4.435897e+000 2.947011e+000 3.274896e+000 3.510104e+000 3.370191e+000 2.843091e+000 8.097860e-001 6.309766e-001 5.763439e-001 1.437490e+000 2.083443e+000 2.450653e+000 1.792351e+000 9.112833e-001 5.717904e-001 5.763265e-001 4.032210e-001 7.206358e-001 4.123265e-001
<GCONST> 1.447059e+002
<STATE> 4
<MEAN> 39
 -1.751260e+000 -7.302556e+000 4.473676e+000 8.114712e+000 5.836343e-001 -2.198305e+001 -1.359883e+001 -1.078678e+001 -1.912301e+001 -1.010430e+000 -5.029615e+000 -8.201967e+000 7.940746e+001 1.176724e-001 1.584396e-001 -4.235553e-001 -1.251861e-001 -4.261828e-001 1.032990e-001 6.348047e-002 1.855198e-001 2.096415e-001 -9.951841e-002 -6.961276e-002 -1.000102e-001 -3.223721e-001 -1.162415e-001 7.096065e-002 9.871159e-002 -8.545324e-002 -7.007014e-002 1.772701e-001 7.114597e-002 -1.718627e-002 1.591887e-001 3.825226e-002 -2.688316e-002 4.374168e-002 -8.252832e-002
<VARIANCE> 39
 6.033420e+000 1.812143e+001 8.777972e+001 1.458010e+001 6.261271e+001 3.884285e+001 1.779649e+001 1.048958e+002 1.886987e+001 4.461019e+001 3.077596e+001 4.251479e+001 3.685864e+001 4.122554e-001 7.990428e-001 9.140789e-001 1.140718e+000 1.442055e+000 1.466413e+000 1.078444e+000 9.174923e-001 9.716080e-001 1.182328e+000 1.300783e+000 1.058189e+000 5.560555e-001 8.667844e-002 1.149616e-001 1.106089e-001 2.616220e-001 2.825793e-001 3.673574e-001 1.949840e-001 1.519291e-001 1.596655e-001 2.320074e-001 2.302955e-001 1.462406e-001 6.310025e-002
<GCONST> 9.252950e+001
<TRANSP> 5
 0.000000e+000 1.000000e+000 0.000000e+000 0.000000e+000 0.000000e+000
 0.000000e+000 9.738307e-001 2.616930e-002 0.000000e+000 0.000000e+000
 0.000000e+000 0.000000e+000 9.561418e-001 4.385826e-002 0.000000e+000
 0.000000e+000 0.000000e+000 0.000000e+000 9.274347e-001 7.256532e-002
 0.000000e+000 0.000000e+000 0.000000e+000 0.000000e+000 0.000000e+000
<ENDHMM>
~h "kh"
<BEGINHMM>
<NUMSTATES> 5
<STATE> 2
<MEAN> 39
 -1.210586e+001 -3.335231e+000 3.022392e+000 -5.683049e+000 -1.860692e+000 7.821826e+000 -4.802995e+000 -1.931618e+000 -5.580806e+000 3.535417e-001 -3.267340e-001 -1.581906e+000 6.566684e+001 8.633420e-001 -4.421314e-001 1.879437e-001 -8.200216e-001 -4.720656e-001 -7.657069e-001 2.206903e-001 -3.360050e-001 -1.363063e-001 -2.994730e-001 1.435103e-001 -1.109873e-001 1.566004e+000 2.398881e-002 -5.289526e-002 -1.658220e-001 -6.250266e-002 -1.235091e-001 -8.539301e-002 -5.805764e-002 2.186234e-001 -6.751612e-002 1.067414e-002 7.075486e-002 4.136587e-002 -7.341523e-002
<VARIANCE> 39
 5.645995e+001 6.686351e+001 5.438168e+001 6.124740e+001 4.791275e+001 6.270413e+001 3.472718e+001 9.362019e+001 1.936637e+001 4.062446e+001 3.645009e+001 3.770011e+001 1.348091e+002 3.661203e+000 2.804446e+000 2.899443e+000 5.396811e+000 5.805865e+000 5.730039e+000 3.677634e+000 4.645781e+000 2.563645e+000 4.838157e+000 2.164990e+000 4.379244e+000 2.715687e+000 4.237330e-001 5.334358e-001 5.063971e-001 9.855993e-001 9.486746e-001 1.047527e+000 7.174261e-001 7.947845e-001 5.635751e-001 1.143475e+000 4.837494e-001 8.836362e-001 3.729950e-001
<GCONST> 1.350793e+002
<STATE> 3
<MEAN> 39
 -3.649363e+000 -4.488241e+000 5.949891e+000 -1.248344e+001 -2.613343e+000 -7.606854e+000 -5.111324e+000 7.817402e+000 -1.016257e+001 -1.528852e+000 -5.118878e-001 1.182039e+000 7.325851e+001 2.488647e-001 -7.828358e-002 -3.592746e-001 1.102451e-001 -1.403569e-001 -2.741580e-001 1.101348e-001 -4.793984e-002 7.969102e-002 -1.152374e-001 3.934090e-002 -1.096051e-001 1.328745e-001 -6.758752e-002 4.969750e-002 3.530202e-002 -6.523590e-003 5.466899e-002 4.200574e-002 2.918711e-002 -1.230431e-001 3.993580e-002 -3.476588e-002 -1.342539e-002 5.131748e-002 -1.564948e-002
<VARIANCE> 39
 4.374207e+001 2.267626e+001 3.636610e+001 7.074963e+001 5.120606e+001 1.296326e+002 3.445024e+001 5.971518e+001 7.723837e+001 3.629222e+001 3.061197e+001 6.549029e+001 3.900488e+001 9.109191e-001 1.161185e+000 1.972555e+000 1.696623e+000 1.514589e+000 2.980833e+000 2.995309e+000 5.594842e+000 3.534710e+000 3.006019e+000 2.731214e+000 2.696250e+000 8.591881e-001 1.650038e-001 1.835832e-001 3.512121e-001 2.322441e-001 2.542840e-001 5.020970e-001 5.094950e-001 9.281313e-001 6.328678e-001 5.469656e-001 5.250262e-001 5.670131e-001 1.086579e-001
<GCONST> 1.185607e+002
<STATE> 4
<MEAN> 39
 -8.093352e+000 2.917538e-001 -3.749310e-001 -1.156405e+000 7.284122e-001 1.272858e+000 -4.239097e+000 -2.619694e+000 -9.624866e+000 -3.497137e+000 -4.913788e+000 -1.012543e+000 6.357816e+001 -4.762290e-002 1.124468e-003 -2.387575e-002 -1.626255e-002 4.147368e-002 6.288181e-002 4.860825e-002 6.442920e-004 1.847616e-002 -9.489567e-003 2.126741e-002 2.585939e-002 -3.160884e-002 4.004862e-003 -1.885165e-003 4.483811e-003 -1.907154e-003 -3.260031e-003 -4.609626e-003 -7.745962e-003 3.642257e-003 -1.748955e-002 -2.456497e-003 -9.163407e-003 -7.172302e-003 1.231888e-003
<VARIANCE> 39
 5.561211e+000 3.422171e+000 4.051109e+000 4.619130e+000 9.486841e+000 1.594799e+001 1.037516e+001 6.991368e+000 8.257495e+000 6.885806e+000 8.262954e+000 7.331947e+000 7.708216e+000 8.103293e-002 1.640553e-001 3.292015e-001 3.978041e-001 5.070889e-001 7.130751e-001 6.757520e-001 6.771542e-001 7.509456e-001 8.786138e-001 9.784175e-001 7.387552e-001 3.652184e-002 1.470779e-002 3.953409e-002 7.283536e-002 8.203257e-002 1.103910e-001 1.455408e-001 1.421758e-001 1.516004e-001 1.658219e-001 1.720343e-001 1.809919e-001 1.499322e-001 9.652408e-003
<GCONST> 5.249738e+001
<TRANSP> 5
 0.000000e+000 1.000000e+000 0.000000e+000 0.000000e+000 0.000000e+000
 0.000000e+000 9.250851e-001 7.491489e-002 0.000000e+000 0.000000e+000
 0.000000e+000 0.000000e+000 9.524399e-001 4.756012e-002 0.000000e+000
 0.000000e+000 0.000000e+000 0.000000e+000 9.799666e-001 2.003339e-002
 0.000000e+000 0.000000e+000 0.000000e+000 0.000000e+000 0.000000e+000
<ENDHMM>
~h "ng"
<BEGINHMM>
<NUMSTATES> 5
<STATE> 2
<MEAN> 39
 1.758150e+000 3.313607e-001 -7.897383e+000 -5.366665e+000 -1.722411e+001 -6.123043e+000 3.018605e+000 8.064967e-001 -3.716200e+000 -8.804213e+000 4.169229e+000 -5.495979e+000 7.602896e+001 -1.155939e-001 5.047427e-002 -5.905373e-002 -1.791739e-001 -1.452933e-001 -9.521309e-002 -8.208348e-002 6.344332e-003 7.858542e-002 2.511541e-002 2.099503e-002 6.456645e-002 -9.166399e-002 -1.535545e-002 -1.198874e-002 -1.050171e-002 2.216893e-003 3.274434e-002 6.260511e-003 -4.096677e-003 1.518854e-002 2.961463e-002 -1.236807e-002 -1.176889e-002 -8.038532e-003 -4.204433e-003
<VARIANCE> 39
 3.131527e+001 7.971231e+000 2.409087e+001 5.397836e+001 8.578308e+001 5.064109e+001 5.815934e+001 3.872940e+001 1.364442e+001 5.829874e+001 6.274195e+001 3.125666e+001 5.660949e+001 1.078348e+000 4.878843e-001 1.015222e+000 2.317159e+000 2.088166e+000 1.599548e+000 1.323892e+000 2.151035e+000 1.868402e+000 1.724370e+000 2.851653e+000 1.306175e+000 9.389161e-001 8.389276e-002 8.108111e-002 1.554448e-001 3.812227e-001 2.783943e-001 2.689631e-001 2.071178e-001 3.476006e-001 4.096679e-001 2.719447e-001 4.633118e-001 2.256029e-001 6.341705e-002
<GCONST> 1.033976e+002
<STATE> 3
<MEAN> 39
 -3.491642e+000 -1.081770e+000 1.435118e+001 -5.508833e-002 3.930632e+000 9.007541e+000 -7.983424e+000 1.074149e+001 -2.271222e+000 6.410746e+000 -2.542454e+000 2.150887e-001 6.832707e+001 -2.469122e-001 -8.231454e-002 -2.301593e-001 5.229686e-002 -7.169909e-002 -7.762218e-002 1.888576e-001 -7.534283e-002 1.558200e-001 -1.281624e-001 3.017345e-001 -6.763619e-002 -1.655997e-001 2.042283e-002 8.357408e-003 -2.880554e-002 -1.158674e-002 3.667633e-002 -2.975114e-002 -6.614856e-002 -2.721651e-002 -6.386655e-003 6.272911e-003 -1.915475e-002 1.444926e-003 1.069710e-002
<VARIANCE> 39
 1.699820e+001 5.202697e+001 6.746386e+001 3.089228e+001 7.210046e+001 6.581489e+001 5.453252e+001 5.387336e+001 3.119270e+001 3.150688e+001 3.479763e+001 3.719672e+001 1.753803e+001 1.588503e+000 2.137865e+000 1.447943e+000 3.652223e+000 3.280027e+000 4.404322e+000 6.045707e+000 3.005514e+000 3.396252e+000 3.209167e+000 3.731749e+000 2.414682e+000 9.887694e-001 3.284455e-001 2.565996e-001 1.788897e-001 7.907597e-001 5.995268e-001 8.226031e-001 1.042648e+000 4.771591e-001 6.664998e-001 6.643807e-001 5.786507e-001 4.575061e-001 1.644937e-001
<GCONST> 1.227262e+002
<STATE> 4
<MEAN> 39
 -1.459700e+001 1.767884e+000 -2.840266e+000 -3.443999e+000 -2.747014e+000 -1.535450e-001 9.125459e-001 2.367968e+000 -1.080595e+000 3.939133e-001 -1.484943e+000 -7.323962e-001 5.834660e+001 -5.917353e-002 3.320431e-002 1.445765e-001 2.330613e-001 1.689130e-001 4.784479e-002 -6.533257e-002 -2.559563e-003 4.396195e-002 1.655278e-002 3.379497e-002 -3.973734e-002 -4.621704e-002 4.939345e-002 3.244897e-002 2.451132e-002 6.675062e-003 -2.416064e-002 8.800153e-004 -2.924322e-003 -1.301902e-002 -3.063628e-002 9.954926e-003 2.340380e-002 -1.349434e-002 2.335173e-002
<VARIANCE> 39
 7.112597e+000 2.989920e+000 5.711372e+000 1.151741e+001 1.052974e+001 7.151459e+000 1.119442e+001 1.140189e+001 7.184934e+000 7.165427e+000 6.872000e+000 4.755196e+000 6.214754e+000 8.645660e-001 2.928210e-001 3.103587e-001 7.036018e-001 7.204359e-001 9.434727e-001 1.210289e+000 1.455633e+000 8.863218e-001 7.383174e-001 7.068662e-001 5.445983e-001 8.746353e-001 2.243004e-001 8.219106e-002 6.569775e-002 1.476478e-001 1.446579e-001 2.518099e-001 2.875013e-001 3.436193e-001 1.899977e-001 1.675809e-001 1.642905e-001 1.204270e-001 2.244693e-001
<GCONST> 6.999831e+001
<TRANSP> 5
 0.000000e+000 1.000000e+000 0.000000e+000 0.000000e+000 0.000000e+000
 0.000000e+000 9.408335e-001 5.916652e-002 0.000000e+000 0.000000e+000
 0.000000e+000 0.000000e+000 9.374848e-001 6.251524e-002 0.000000e+000
 0.000000e+000 0.000000e+000 0.000000e+000 9.466679e-001 5.333204e-002
 0.000000e+000 0.000000e+000 0.000000e+000 0.000000e+000 0.000000e+000
<ENDHMM>
~h "oo"
<BEGINHMM>
<NUMSTATES> 5
<STATE> 2
<MEAN> 39
 2.890714e+000 -4.393865e+000 -9.450237e+000 -1.333708e+001 -1.396695e+001 -4.928047e+000 3.098553e+000 -2.455694e+000 -5.039141e+000 -7.960860e+000 4.500678e+000 -2.921581e+000 8.005431e+001 3.213899e-001 -3.874241e-002 1.894547e-001 -6.326588e-001 -7.231442e-001 -5.592612e-003 -3.795603e-001 3.777337e-001 -5.925997e-001 2.067173e-001 -5.475815e-001 4.294706e-001 2.051082e-002 4.063750e-002 4.463673e-002 3.103998e-001 2.437034e-001 5.602262e-002 8.153538e-002 -4.578328e-001 2.167905e-001 -6.891905e-002 2.563452e-001 -3.995340e-001 -3.752075e-002 -1.357351e-001
<VARIANCE> 39
 1.427632e+001 5.384211e+001 6.617262e+001 1.234079e+001 7.574565e+001 3.556486e+001 2.433801e+001 1.707903e+001 1.630241e+001 4.671654e+001 2.028541e+001 6.107324e+001 7.232327e+001 2.359299e-001 1.038612e+000 1.638960e+000 5.435736e-001 4.141278e-001 1.263613e+000 1.987722e+000 1.685523e+000 1.487394e+000 1.872642e+000 2.525674e+000 1.184418e+000 5.631062e-001 5.621236e-002 1.588832e-001 1.581267e-001 1.887908e-001 1.028705e-001 4.300423e-001 3.931344e-001 3.679814e-001 3.221870e-001 5.085994e-001 6.865615e-001 3.266103e-001 1.485221e-001
<GCONST> 9.908771e+001
<STATE> 3
<MEAN> 39
 4.872818e+000 -3.410383e+000 -4.971737e+000 -9.079091e+000 -1.013100e+001 -6.270813e+000 -6.366088e+000 -3.391944e-001 -8.329911e+000 -3.338399e+000 -4.857501e+000 -4.854288e+000 7.837624e+001 1.155725e-001 4.357882e-001 5.476176e-001 1.485819e+000 6.571968e-001 6.588373e-001 -9.759504e-001 4.568923e-001 -2.466289e-001 5.966739e-001 -1.207310e+000 -4.902878e-001 -1.055658e+000 -9.899318e-002 -1.048452e-001 -4.456262e-002 9.112787e-002 2.347177e-002 1.065004e-001 3.729782e-001 -6.931299e-002 1.111660e-001 -1.761430e-001 2.463870e-001 -1.034214e-001 7.386125e-002
<VARIANCE> 39
 1.582071e+001 1.229613e+001 1.275676e+002 2.585142e+001 1.336821e+002 6.396701e+001 1.647832e+002 3.128304e+001 1.393563e+001 1.147312e+002 5.305132e+001 4.635894e+001 2.856681e+001 1.398959e-001 1.409248e+000 4.226248e-001 8.376566e-001 8.508702e-001 8.784164e+000 6.910095e+000 1.452877e+000 7.044640e-001 2.665427e+000 2.842638e+000 3.792223e+000 1.097466e+000 1.923370e-002 2.170877e-001 9.534910e-002 1.682587e-001 3.307220e-001 9.753476e-001 6.882591e-001 1.914864e-001 1.525538e-001 4.738193e-001 5.588759e-001 1.023710e+000 1.235736e-001
<GCONST> 1.078984e+002
<STATE> 4
<MEAN> 39
 -8.601785e+000 -3.961240e+000 -5.655265e+000 2.221946e+000 -6.577811e+000 2.287590e-001 -8.180328e-002 -6.993174e+000 -5.806401e+000 -4.702343e+000 -9.401676e-001 -2.160619e+000 6.870463e+001 -1.595143e-001 5.845197e-002 5.448264e-002 7.664875e-002 1.199421e-001 1.610104e-001 -5.172433e-003 6.598482e-004 1.005728e-001 -9.517952e-003 3.578423e-002 1.040183e-001 -1.384130e-001 3.015113e-003 7.996568e-003 1.783305e-002 3.381161e-003 -1.102981e-002 1.020843e-002 1.607203e-002 -8.809583e-003 3.100337e-003 9.111294e-003 1.024778e-002 4.043029e-003 3.657353e-003
<VARIANCE> 39
 3.813316e+001 1.320206e+001 2.162816e+001 2.248582e+001 1.601173e+001 2.909034e+001 1.924587e+001 1.968802e+001 2.334731e+001 8.363143e+000 1.751118e+001 2.242875e+001 9.600505e+000 3.027873e-001 3.406691e-001 4.334451e-001 5.062743e-001 5.384468e-001 5.451783e-001 6.150582e-001 6.158956e-001 8.792521e-001 7.525278e-001 7.470055e-001 9.838812e-001 1.297511e-001 2.634531e-002 4.443363e-002 6.321893e-002 7.753140e-002 9.160761e-002 1.029073e-001 1.042888e-001 1.185668e-001 1.563395e-001 1.521642e-001 1.806655e-001 1.966664e-001 1.207318e-002
<GCONST> 6.831003e+001
<TRANSP> 5
 0.000000e+000 1.000000e+000 0.000000e+000 0.000000e+000 0.000000e+000
 0.000000e+000 7.804836e-001 2.195164e-001 0.000000e+000 0.000000e+000
 0.000000e+000 0.000000e+000 7.932891e-001 2.067109e-001 0.000000e+000
 0.000000e+000 0.000000e+000 0.000000e+000 9.660538e-001 3.394622e-002
 0.000000e+000 0.000000e+000 0.000000e+000 0.000000e+000 0.000000e+000
<ENDHMM>
~h "sp"
<BEGINHMM>
<NUMSTATES> 3
<STATE> 2
~s "silst"
<TRANSP> 3
 0.000000e+000 7.000000e-001 3.000000e-001
 0.000000e+000 5.000000e-001 5.000000e-001
 0.000000e+000 0.000000e+000 0.000000e+000
<ENDHMM>
~h "ary"
<BEGINHMM>
<NUMSTATES> 5
<STATE> 2
<MEAN> 39
 -1.315978e+000 -5.910788e+000 4.488836e+000 1.276368e-001 -1.975550e+000 -1.156605e+001 -1.189766e+001 -9.722378e-001 -6.614569e+000 6.660754e+000 -9.428036e-001 -4.581941e+000 7.731721e+001 -3.427500e-001 -1.171946e-001 3.526121e-001 3.921075e-001 8.456602e-002 -3.789412e-001 -4.161223e-001 6.865637e-001 -1.145903e+000 -3.270506e-001 1.410306e-002 -3.680262e-001 -1.649216e-001 -1.340645e-002 3.369133e-002 2.707748e-002 -8.457848e-002 -3.378583e-002 1.695063e-001 5.595937e-002 4.117071e-002 2.363696e-002 -1.222677e-001 2.716687e-002 -6.013206e-002 -3.423825e-002
<VARIANCE> 39
 6.311823e+000 4.489952e+001 1.611742e+002 2.466494e+001 1.232848e+002 2.233507e+002 3.537850e+001 1.283445e+002 1.152804e+002 4.507553e+001 3.138270e+001 1.012692e+001 8.634739e+001 2.325902e-001 7.068852e-001 2.035503e+000 8.768294e-001 1.778118e+000 5.041842e+000 2.959450e+000 2.230563e+000 4.087961e+000 1.690049e+000 1.104901e+000 1.251487e+000 2.557784e-001 3.797821e-002 6.383833e-002 1.840123e-001 1.387674e-001 2.420725e-001 3.724983e-001 5.976668e-001 3.709484e-001 4.508664e-001 2.013358e-001 1.401852e-001 2.113572e-001 2.147891e-002
<GCONST> 1.034182e+002
<STATE> 3
<MEAN> 39
 -4.564203e+000 -3.392589e+000 5.386613e+000 2.177141e+000 -9.756235e+000 -7.097990e+000 -1.449771e+001 2.161859e+000 -1.084200e+001 -3.252496e+000 7.967185e-001 -9.183661e+000 7.098944e+001 -8.747568e-002 2.044559e-001 -1.393960e-001 7.896475e-003 -2.412437e-001 5.452670e-001 1.036696e-001 4.075643e-002 2.941018e-001 -3.146009e-001 -7.092880e-002 1.702754e-001 -5.211321e-001 -7.935705e-003 -1.880023e-002 -5.195739e-002 -1.695427e-002 2.967410e-002 1.368295e-002 6.657113e-002 2.477859e-004 5.380435e-002 6.472562e-002 2.351637e-003 5.037430e-002 5.585727e-003
<VARIANCE> 39
 1.289512e+001 4.447091e+000 1.306634e+001 1.139846e+001 8.085210e+001 3.638958e+002 2.406187e+001 9.750732e+001 5.351617e+001 3.283642e+001 3.363058e+001 2.410324e+001 9.324518e+001 1.656886e-001 5.175465e-001 9.950299e-001 7.829540e-001 1.382371e+000 2.014824e+000 1.213511e+000 1.608523e+000 1.909680e+000 1.801397e+000 1.661238e+000 1.232106e+000 3.591017e-001 2.681788e-002 8.542038e-002 8.605250e-002 1.764419e-001 2.473544e-001 2.144590e-001 2.485889e-001 2.932849e-001 3.281460e-001 3.378722e-001 3.359040e-001 2.185731e-001 2.754864e-002
<GCONST> 9.317493e+001
<STATE> 4
<MEAN> 39
 -9.457274e+000 -4.610570e-001 -3.102562e+000 1.125724e+000 -1.071507e+000 1.546560e+000 -3.939941e+000 -3.844321e+000 -6.007630e+000 -3.803841e+000 -3.860005e+000 -1.616521e+000 6.414400e+001 -2.055304e-002 1.698547e-002 -3.289340e-002 -2.023622e-002 2.144089e-002 7.849884e-002 4.401176e-002 -5.653834e-002 -1.438502e-002 -1.627433e-002 -8.605943e-003 -3.940501e-003 -2.645986e-002 -1.270364e-003 -1.263099e-004 3.865886e-003 -1.805983e-003 1.790028e-004 -1.487008e-002 -5.926446e-003 2.069521e-003 -1.669201e-003 -6.376923e-003 -1.473976e-003 -3.589703e-003 2.923643e-003
<VARIANCE> 39
 3.092777e+000 2.477511e+000 1.293842e+001 1.140329e+001 1.678536e+001 1.005174e+001 9.919117e+000 1.428374e+001 2.164473e+001 1.380835e+001 9.451185e+000 8.377724e+000 2.382856e+000 7.608192e-002 1.758667e-001 2.578938e-001 3.937257e-001 5.208910e-001 6.971473e-001 7.245471e-001 8.438484e-001 9.390534e-001 7.414907e-001 7.746723e-001 6.740864e-001 3.422093e-002 1.425702e-002 3.686665e-002 5.659503e-002 8.159938e-002 1.045622e-001 1.486354e-001 1.607482e-001 1.810605e-001 1.931739e-001 1.433236e-001 1.452056e-001 1.371215e-001 4.516694e-003
<GCONST> 5.370360e+001
<TRANSP> 5
 0.000000e+000 1.000000e+000 0.000000e+000 0.000000e+000 0.000000e+000
 0.000000e+000 8.985968e-001 1.014033e-001 0.000000e+000 0.000000e+000
 0.000000e+000 0.000000e+000 9.399906e-001 6.000943e-002 0.000000e+000
 0.000000e+000 0.000000e+000 0.000000e+000 9.870093e-001 1.299068e-002
 0.000000e+000 0.000000e+000 0.000000e+000 0.000000e+000 0.000000e+000
<ENDHMM>
~h "asu"
<BEGINHMM>
<NUMSTATES> 5
<STATE> 2
<MEAN> 39
 -8.031167e+000 -3.684130e+000 3.762345e+000 -8.481366e+000 -5.225836e+000 1.156948e+000 -1.802094e+000 -1.264230e+000 -5.761177e+000 -1.658551e+000 1.509335e+000 -1.946049e+000 7.527409e+001 1.847623e+000 -9.923094e-001 -1.802955e+000 -8.716049e-001 -1.565209e+000 -9.291276e-001 5.195975e-001 -4.445819e-001 -3.539996e-001 -7.726390e-001 8.345234e-001 7.533017e-002 1.293110e+000 1.240426e-001 3.998096e-002 -1.871922e-001 4.348147e-002 2.918847e-003 1.336396e-001 -1.153469e-002 -1.367328e-001 1.826623e-001 -1.130361e-001 -9.176102e-002 -5.472622e-003 -1.341237e-002
<VARIANCE> 39
 1.285246e+002 2.977685e+001 6.381608e+001 4.698211e+001 4.558034e+001 4.567243e+001 4.807600e+001 6.073777e+001 5.274947e+001 4.100157e+001 5.397948e+001 1.810471e+001 1.265358e+002 5.947024e+000 4.269360e+000 2.815537e+000 4.798419e+000 2.499839e+000 1.936684e+000 1.886946e+000 4.012945e+000 3.544325e+000 3.558471e+000 2.330891e+000 1.324150e+000 2.053845e+000 1.084409e+000 8.698515e-001 3.937212e-001 9.640866e-001 6.018049e-001 3.954318e-001 3.649640e-001 9.306141e-001 5.193391e-001 5.192227e-001 4.433439e-001 1.889161e-001 4.024656e-001
<GCONST> 1.285353e+002
<STATE> 3
<MEAN> 39
 -7.899470e-001 -4.575002e+000 -4.120855e+000 -1.019443e+001 -1.622473e+001 -5.318927e-001 -7.752787e+000 6.274368e-001 -4.496680e+000 -9.343596e+000 5.488677e+000 -5.791360e+000 7.481281e+001 -4.018323e-002 9.206724e-002 -7.055192e-002 7.325110e-002 -1.008031e-001 -1.584764e-001 -1.210744e-001 1.377380e-002 -1.687683e-002 8.877812e-002 -2.571454e-001 8.689170e-002 -2.544460e-001 -2.740253e-002 4.809231e-002 1.057703e-001 3.555562e-002 4.129435e-002 1.960777e-002 -7.441300e-003 2.715763e-002 -5.455136e-002 8.811476e-002 -1.507029e-002 6.002223e-003 -2.455734e-002
<VARIANCE> 39
 1.194763e+001 2.768923e+001 8.846846e+001 7.893817e+001 2.795652e+001 1.933667e+002 7.621525e+001 7.033270e+001 3.814325e+001 8.854013e+001 3.078436e+001 3.166319e+001 1.068510e+002 2.020642e-001 8.093802e-001 8.352441e-001 7.392812e-001 1.337858e+000 2.404737e+000 1.356598e+000 2.841859e+000 2.267274e+000 2.935377e+000 1.548182e+000 1.860672e+000 1.768242e-001 3.905978e-002 1.460788e-001 1.317473e-001 8.525427e-002 1.938148e-001 3.539546e-001 2.701121e-001 5.377305e-001 4.590354e-001 4.816390e-001 2.886742e-001 3.981652e-001 1.593994e-002
<GCONST> 1.025611e+002
<STATE> 4
<MEAN> 39
 -1.075399e+001 -1.209076e+000 -8.531778e+000 3.351914e+000 -5.310903e+000 5.718322e-001 -2.687960e+000 -5.547743e+000 -6.965630e-001 -4.245929e+000 -8.968340e-001 2.621583e-001 6.492190e+001 -5.548547e-002 -1.505378e-002 1.151392e-002 1.010284e-001 1.246683e-001 1.810361e-001 1.322923e-002 1.935039e-002 4.266917e-002 -4.623026e-002 -2.919973e-002 -2.115497e-002 -6.985749e-002 2.135789e-003 8.057349e-003 -4.186987e-003 -1.513746e-002 -8.880995e-004 -1.688245e-002 8.694225e-003 1.015847e-002 3.224137e-003 -8.823375e-003 1.159661e-002 1.560077e-003 6.514292e-003
<VARIANCE> 39
 6.761918e+000 3.895838e+000 3.862045e+000 1.148591e+001 1.319746e+001 1.814519e+001 9.250549e+000 9.160645e+000 9.033188e+000 1.152613e+001 1.146590e+001 9.506122e+000 5.032413e+000 1.185979e-001 2.078410e-001 2.157314e-001 3.797683e-001 5.214732e-001 1.152983e+000 5.990365e-001 6.508984e-001 7.367363e-001 9.091458e-001 1.015896e+000 8.756222e-001 6.289004e-002 1.887796e-002 3.882684e-002 3.745915e-002 5.498138e-002 1.089373e-001 2.394838e-001 1.335225e-001 1.530501e-001 1.515162e-001 1.831338e-001 2.101291e-001 1.931016e-001 7.918459e-003
<GCONST> 5.610368e+001
<TRANSP> 5
 0.000000e+000 1.000000e+000 0.000000e+000 0.000000e+000 0.000000e+000
 0.000000e+000 8.608772e-001 1.391228e-001 0.000000e+000 0.000000e+000
 0.000000e+000 0.000000e+000 9.476317e-001 5.236837e-002 0.000000e+000
 0.000000e+000 0.000000e+000 0.000000e+000 9.648995e-001 3.510051e-002
 0.000000e+000 0.000000e+000 0.000000e+000 0.000000e+000 0.000000e+000
<ENDHMM>
~h "ooj"
<BEGINHMM>
<NUMSTATES> 5
<STATE> 2
<MEAN> 39
 -7.432135e+000 -4.380771e+000 4.852781e+000 1.696574e-002 -7.139257e+000 9.855054e+000 -1.079078e+001 6.449802e+000 -1.433877e+000 -1.975755e+000 5.419526e+000 -4.341937e+000 6.306016e+001 -8.275989e-002 3.596238e-002 2.394419e-001 -1.359274e-001 3.455005e-001 -1.997531e-001 2.092206e-001 -4.717062e-002 -1.037218e-002 5.526018e-002 -1.807291e-001 3.840497e-001 1.533374e-001 5.655878e-002 3.128849e-002 -4.570302e-002 1.269676e-002 -5.716461e-002 7.311427e-002 -3.464928e-002 3.823320e-002 -2.974807e-002 6.138253e-003 -2.136364e-002 -5.025463e-002 -3.819956e-002
<VARIANCE> 39
 3.813689e+001 2.241557e+001 2.332097e+001 1.724534e+001 9.576195e+001 1.052918e+002 8.329792e+001 4.062014e+001 3.809321e+001 2.221134e+001 2.871244e+001 4.234895e+001 7.443163e+001 4.247609e+000 2.614734e+000 2.687735e+000 2.044149e+000 1.182689e+001 9.226606e+000 1.165835e+001 3.954110e+000 5.291357e+000 2.525103e+000 3.448144e+000 4.370730e+000 1.438973e+001 8.909218e-001 6.074694e-001 6.608201e-001 4.230691e-001 2.450393e+000 1.597236e+000 2.588384e+000 8.181059e-001 1.190609e+000 4.400374e-001 6.952302e-001 8.374345e-001 3.509799e+000
<GCONST> 1.408248e+002
<STATE> 3
<MEAN> 39
 -3.728715e+000 2.315416e-001 3.399641e+000 -4.576089e+000 -4.833866e+000 -7.958258e-001 -1.383776e+000 4.428521e+000 -7.491940e+000 -2.921380e+000 -2.431344e+000 4.005948e+000 6.755843e+001 5.376163e-001 1.462359e-001 -7.794153e-002 -2.516569e-001 -1.830295e-001 -2.488031e-001 5.996318e-002 1.989823e-001 -1.130500e-001 -2.835497e-002 -4.634610e-001 6.233833e-002 3.057146e-001 -1.265289e-001 -7.738531e-002 -4.974416e-002 -6.502590e-002 7.722563e-002 5.724629e-003 1.371447e-002 -5.976456e-002 1.480751e-001 -4.214979e-002 -4.530486e-002 -8.880685e-002 -9.603527e-003
<VARIANCE> 39
 4.755563e+001 7.397515e+001 3.301498e+001 2.859952e+001 5.230643e+001 2.054461e+001 4.207630e+001 5.059304e+001 2.219968e+001 3.308138e+001 1.642899e+001 3.028441e+001 1.615169e+001 1.581995e+000 2.958049e+000 1.383170e+000 1.928324e+000 5.177382e+000 1.883747e+000 1.594647e+000 2.442511e+000 2.470167e+000 1.367037e+000 2.016788e+000 2.689015e+000 9.475548e-001 1.221410e-001 5.757722e-001 2.439936e-001 3.061566e-001 7.406466e-001 3.933811e-001 3.019075e-001 4.473014e-001 2.892596e-001 2.937844e-001 2.901225e-001 4.193448e-001 1.123262e-001
<GCONST> 1.106998e+002
<STATE> 4
<MEAN> 39
 -1.264563e+001 1.558267e+000 -2.691420e+000 -1.087017e+000 -2.775686e+000 -8.868720e-002 1.574278e-001 2.358397e-001 -1.637888e+000 -9.774535e-001 -2.543390e+000 -1.893793e+000 6.064959e+001 -1.298265e-001 -9.642402e-002 -4.663157e-002 6.771219e-003 -4.580493e-002 -3.864181e-003 2.798335e-002 -1.008460e-001 -3.934745e-003 9.014623e-002 1.105849e-001 2.155635e-004 -6.876840e-002 5.286478e-003 -2.557503e-002 -1.286360e-003 -1.443451e-002 -3.570959e-002 -1.893178e-002 2.353464e-002 1.187388e-003 -1.251466e-002 9.159205e-003 2.551329e-002 9.126936e-003 2.107192e-002
<VARIANCE> 39
 2.859146e+001 1.260268e+001 2.222634e+001 7.023589e+000 6.119554e+000 6.397252e+000 1.607240e+001 1.803486e+001 1.350785e+001 9.572168e+000 1.420469e+001 1.211190e+001 1.406286e+001 6.219535e-001 4.416518e-001 3.581480e-001 3.469881e-001 5.840121e-001 9.681261e-001 1.495946e+000 9.624519e-001 7.687979e-001 9.494468e-001 6.027812e-001 5.929622e-001 4.764157e-001 1.302109e-001 1.091238e-001 7.836162e-002 6.882666e-002 1.346480e-001 2.149512e-001 3.594735e-001 2.092428e-001 1.511942e-001 1.993747e-001 1.247203e-001 1.184411e-001 1.050623e-001
<GCONST> 7.336050e+001
<TRANSP> 5
 0.000000e+000 1.000000e+000 0.000000e+000 0.000000e+000 0.000000e+000
 0.000000e+000 8.949696e-001 1.050304e-001 0.000000e+000 0.000000e+000
 0.000000e+000 0.000000e+000 8.824255e-001 1.175745e-001 0.000000e+000
 0.000000e+000 0.000000e+000 0.000000e+000 9.641989e-001 3.580107e-002
 0.000000e+000 0.000000e+000 0.000000e+000 0.000000e+000 0.000000e+000
<ENDHMM>
~h "oos"
<BEGINHMM>
<NUMSTATES> 5
<STATE> 2
<MEAN> 39
 4.078672e+000 -2.078161e+000 -4.098340e+000 -1.469016e+001 -2.362970e+001 -1.877367e+001 -3.392466e+000 3.084229e+000 -1.048869e+001 -4.477953e+000 4.734968e+000 -1.187869e+001 8.212576e+001 -1.689653e-001 -1.509322e-001 -2.403062e-001 3.396839e-001 1.269072e-001 -1.423963e-001 -2.977588e-001 -6.661248e-001 -3.391492e-002 2.342466e-001 -2.649801e-001 -6.585803e-002 -1.482795e-001 -6.936631e-003 7.116609e-002 -2.539460e-002 1.899725e-001 1.239889e-001 -1.036758e-002 -9.175295e-002 -8.873165e-002 4.850584e-002 7.658719e-003 -1.178249e-001 -3.922665e-002 -9.541512e-002
<VARIANCE> 39
 3.163167e+000 3.108680e+000 9.227521e+000 1.006034e+001 6.492709e+001 4.190009e+001 1.611475e+001 2.334223e+001 3.179582e+001 1.054414e+001 1.690537e+001 4.883319e+001 1.230930e+001 8.734565e-002 3.812977e-001 2.371569e-001 9.660455e-001 1.703847e+000 1.197420e+000 1.830888e+000 1.927078e+000 7.610146e-001 9.134087e-001 5.311108e-001 3.912221e-001 2.439056e-001 7.170434e-003 2.327887e-002 4.127794e-002 2.002002e-001 1.285562e-001 1.484428e-001 2.528933e-001 2.359183e-001 1.579232e-001 1.830533e-001 2.468904e-001 6.583490e-002 2.017044e-002
<GCONST> 6.928752e+001
<STATE> 3
<MEAN> 39
 -9.926403e-001 -1.023557e+000 -5.835694e+000 -2.755192e+000 -1.258787e+001 -1.663333e+001 -9.176727e+000 -1.156433e+001 -9.586500e+000 -5.357382e+000 -2.690112e+000 -7.695392e+000 7.545048e+001 -6.402887e-001 7.412592e-002 2.619009e-001 1.036578e+000 8.864678e-001 7.342439e-001 -1.854971e-001 1.575440e-001 5.485786e-001 -7.281709e-002 -3.394045e-001 2.154722e-001 -6.946046e-001 -9.382011e-003 1.045469e-002 1.165134e-001 1.285670e-003 -7.809243e-003 2.040353e-001 1.885450e-001 2.946035e-001 9.129710e-003 4.100741e-003 4.779002e-002 -3.862665e-002 6.531824e-003
<VARIANCE> 39
 1.862184e+001 1.976661e+000 1.196989e+001 1.483257e+001 3.109187e+001 4.640126e+001 2.463708e+001 1.805993e+001 3.520303e+001 2.509614e+001 3.006297e+001 5.274282e+001 1.120061e+001 1.011387e-001 2.384850e-001 3.716350e-001 1.792531e+000 1.101792e+000 1.273339e+000 1.585203e+000 1.116390e+000 9.459700e-001 9.284350e-001 2.465539e+000 1.283672e+000 1.766416e-001 1.942649e-002 5.020295e-002 6.349726e-002 1.758288e-001 1.518361e-001 2.616864e-001 2.551645e-001 1.302706e-001 1.475365e-001 1.319329e-001 5.703347e-001 1.331691e-001 6.782352e-003
<GCONST> 7.690251e+001
<STATE> 4
<MEAN> 39
 -1.298926e+001 -1.421969e+000 -5.236391e+000 1.529691e+000 -2.942851e+000 2.102014e+000 -2.785771e+000 -4.967361e+000 1.158731e-002 -4.081947e+000 1.624819e-001 -7.947469e-001 6.671421e+001 -4.901578e-002 -5.349305e-003 -1.784924e-002 5.608943e-002 7.726034e-002 1.098221e-001 1.700124e-002 4.881493e-002 1.364143e-002 3.648210e-002 -7.904926e-003 1.240456e-002 -7.709889e-002 9.635037e-003 2.720205e-003 -1.697889e-003 -5.658722e-003 -3.637900e-002 -2.478518e-002 -2.813097e-002 -1.347251e-002 -2.165776e-002 -1.773593e-002 -1.281426e-002 -1.905757e-002 3.497236e-003
<VARIANCE> 39
 1.250378e+001 2.702199e+000 9.788817e+000 1.544930e+001 7.652806e+000 1.000201e+001 1.221640e+001 1.018087e+001 1.076590e+001 1.113375e+001 1.188977e+001 1.135273e+001 3.803525e+000 1.550283e-001 1.811053e-001 3.633379e-001 7.000052e-001 8.150244e-001 1.155706e+000 8.923615e-001 1.062002e+000 8.299335e-001 7.819344e-001 1.038621e+000 9.860365e-001 1.628748e-001 1.942904e-002 3.387292e-002 6.795508e-002 1.104923e-001 1.767788e-001 2.328919e-001 1.691982e-001 2.218921e-001 1.740028e-001 1.451553e-001 2.072353e-001 1.911095e-001 2.024768e-002
<GCONST> 6.362858e+001
<TRANSP> 5
 0.000000e+000 1.000000e+000 0.000000e+000 0.000000e+000 0.000000e+000
 0.000000e+000 8.407133e-001 1.592867e-001 0.000000e+000 0.000000e+000
 0.000000e+000 0.000000e+000 8.183342e-001 1.816658e-001 0.000000e+000
 0.000000e+000 0.000000e+000 0.000000e+000 9.692302e-001 3.076974e-002
 0.000000e+000 0.000000e+000 0.000000e+000 0.000000e+000 0.000000e+000
<ENDHMM>
~h "sil"
<BEGINHMM>
<NUMSTATES> 5
<STATE> 2
<MEAN> 39
 -1.078750e+001 2.395307e+000 -2.526643e+000 -1.060907e+000 -7.531600e+000 7.005136e+000 -1.089741e+001 5.385852e+000 -2.684088e+000 -1.068165e+000 -2.430635e-001 -4.427658e+000 5.569181e+001 -4.959635e-003 5.521547e-002 -7.980210e-003 2.957666e-002 4.991769e-002 1.898109e-002 5.261155e-002 -3.380095e-002 2.518832e-002 5.252603e-002 3.296858e-002 -7.904129e-002 -1.563136e-002 -1.052075e-002 -1.610349e-002 3.397636e-003 3.281889e-002 -1.798501e-004 -5.838524e-003 4.178321e-002 -3.354924e-002 -5.426123e-002 -6.939841e-003 3.555175e-002 2.254022e-002 -1.934325e-003
<VARIANCE> 39
 2.725003e+002 7.941436e+001 5.782366e+001 2.296499e+001 6.996299e+001 8.214301e+001 1.151237e+002 2.798081e+001 1.663439e+001 1.083356e+001 3.113399e+001 1.891129e+001 3.090294e+002 2.210086e-001 1.668905e-001 3.516400e-001 4.641320e-001 4.186629e-001 5.749031e-001 5.832137e-001 9.271243e-001 8.461459e-001 5.108087e-001 6.384457e-001 4.077945e-001 1.107458e-001 5.199798e-002 3.721918e-002 5.545956e-002 8.704177e-002 7.124552e-002 1.214711e-001 1.099791e-001 2.212041e-001 1.924705e-001 1.078933e-001 1.233543e-001 5.417814e-002 3.704516e-002
<GCONST> 7.912861e+001
<STATE> 3
~s "silst"
<STATE> 4
<MEAN> 39
 -7.136974e+000 -1.503356e+000 -5.458009e-001 -2.897651e+000 -1.934217e-001 -3.955583e-001 -9.866781e-001 -1.602039e+000 -8.566199e+000 -1.731095e+000 -4.123875e+000 -4.883513e-001 6.592572e+001 6.909336e-003 7.993185e-003 -2.126356e-003 -5.663060e-003 -8.623259e-003 6.963835e-003 -1.044645e-002 -1.037639e-002 6.048432e-003 1.033751e-003 -7.406754e-004 -3.843833e-003 -1.141941e-003 1.854265e-003 -1.445395e-003 3.708168e-003 1.473579e-003 4.149419e-003 -1.849431e-003 1.657676e-003 9.524836e-004 4.911941e-003 1.953533e-003 -2.365708e-003 -4.573005e-003 4.945360e-003
<VARIANCE> 39
 2.300375e+001 2.914908e+001 1.815975e+001 1.869054e+001 2.895099e+001 4.883485e+001 2.482601e+001 2.213488e+001 1.638619e+001 1.796503e+001 1.337192e+001 1.009086e+001 3.045634e+001 4.377188e-001 7.173663e-001 7.312989e-001 7.871387e-001 8.997201e-001 1.302713e+000 1.155463e+000 1.151889e+000 1.095740e+000 1.154153e+000 9.876851e-001 9.001623e-001 3.034417e-001 5.900538e-002 1.229284e-001 1.403505e-001 1.401751e-001 1.692575e-001 2.258282e-001 2.117078e-001 2.185348e-001 2.197397e-001 2.258353e-001 1.863581e-001 1.880296e-001 4.039816e-002
<GCONST> 8.448434e+001
<TRANSP> 5
 0.000000e+000 1.000000e+000 0.000000e+000 0.000000e+000 0.000000e+000
 0.000000e+000 7.572411e-001 7.359335e-002 1.691656e-001 0.000000e+000
 0.000000e+000 0.000000e+000 9.774798e-001 2.252021e-002 0.000000e+000
 0.000000e+000 1.348546e-002 0.000000e+000 9.798185e-001 6.696027e-003
 0.000000e+000 0.000000e+000 0.000000e+000 0.000000e+000 0.000000e+000
<ENDHMM>
