~h "b"
<BEGINHMM>
<NUMSTATES> 5
<STATE> 2
<MEAN> 39
 -7.882905e+000 -1.661237e+000 -1.009175e+000 -1.930420e+000 -2.801747e+000 -3.939636e-003 -3.489320e+000 -1.310613e+000 -5.399727e+000 -2.127840e+000 -2.349427e+000 -1.760942e+000 6.651322e+001 1.906061e-003 2.553094e-003 -2.478170e-003 2.536010e-003 -3.520633e-003 1.180791e-003 -5.806248e-004 -5.902871e-004 3.335247e-003 -2.220214e-003 2.771502e-003 -1.647123e-003 -4.431646e-004 -4.907154e-004 -6.222882e-004 -6.703453e-005 -5.706038e-004 3.706980e-004 -5.489043e-005 1.993648e-004 4.878137e-004 -6.845043e-004 -2.209887e-004 -3.796394e-004 -8.370532e-005 4.365041e-005
<VARIANCE> 39
 4.468856e+001 2.722493e+001 5.694174e+001 3.599084e+001 4.988737e+001 6.616839e+001 4.487501e+001 5.082950e+001 3.725814e+001 3.385480e+001 2.889206e+001 2.595412e+001 6.486427e+001 8.580743e-001 8.385667e-001 9.490095e-001 1.190030e+000 1.481777e+000 1.981318e+000 1.865880e+000 1.677058e+000 1.529434e+000 1.500626e+000 1.469353e+000 1.211877e+000 7.540944e-001 1.398091e-001 1.412655e-001 1.521007e-001 2.126537e-001 2.675580e-001 3.571711e-001 3.634781e-001 3.197851e-001 2.929659e-001 2.938584e-001 2.746612e-001 2.335793e-001 1.144504e-001
<GCONST> 1.040862e+002
<STATE> 3
<MEAN> 39
 -7.882905e+000 -1.661237e+000 -1.009175e+000 -1.930420e+000 -2.801747e+000 -3.939636e-003 -3.489320e+000 -1.310613e+000 -5.399727e+000 -2.127840e+000 -2.349427e+000 -1.760942e+000 6.651322e+001 1.906061e-003 2.553094e-003 -2.478170e-003 2.536010e-003 -3.520633e-003 1.180791e-003 -5.806248e-004 -5.902871e-004 3.335247e-003 -2.220214e-003 2.771502e-003 -1.647123e-003 -4.431646e-004 -4.907154e-004 -6.222882e-004 -6.703453e-005 -5.706038e-004 3.706980e-004 -5.489043e-005 1.993648e-004 4.878137e-004 -6.845043e-004 -2.209887e-004 -3.796394e-004 -8.370532e-005 4.365041e-005
<VARIANCE> 39
 4.468856e+001 2.722493e+001 5.694174e+001 3.599084e+001 4.988737e+001 6.616839e+001 4.487501e+001 5.082950e+001 3.725814e+001 3.385480e+001 2.889206e+001 2.595412e+001 6.486427e+001 8.580743e-001 8.385667e-001 9.490095e-001 1.190030e+000 1.481777e+000 1.981318e+000 1.865880e+000 1.677058e+000 1.529434e+000 1.500626e+000 1.469353e+000 1.211877e+000 7.540944e-001 1.398091e-001 1.412655e-001 1.521007e-001 2.126537e-001 2.675580e-001 3.571711e-001 3.634781e-001 3.197851e-001 2.929659e-001 2.938584e-001 2.746612e-001 2.335793e-001 1.144504e-001
<GCONST> 1.040862e+002
<STATE> 4
<MEAN> 39
 -7.882905e+000 -1.661237e+000 -1.009175e+000 -1.930420e+000 -2.801747e+000 -3.939636e-003 -3.489320e+000 -1.310613e+000 -5.399727e+000 -2.127840e+000 -2.349427e+000 -1.760942e+000 6.651322e+001 1.906061e-003 2.553094e-003 -2.478170e-003 2.536010e-003 -3.520633e-003 1.180791e-003 -5.806248e-004 -5.902871e-004 3.335247e-003 -2.220214e-003 2.771502e-003 -1.647123e-003 -4.431646e-004 -4.907154e-004 -6.222882e-004 -6.703453e-005 -5.706038e-004 3.706980e-004 -5.489043e-005 1.993648e-004 4.878137e-004 -6.845043e-004 -2.209887e-004 -3.796394e-004 -8.370532e-005 4.365041e-005
<VARIANCE> 39
 4.468856e+001 2.722493e+001 5.694174e+001 3.599084e+001 4.988737e+001 6.616839e+001 4.487501e+001 5.082950e+001 3.725814e+001 3.385480e+001 2.889206e+001 2.595412e+001 6.486427e+001 8.580743e-001 8.385667e-001 9.490095e-001 1.190030e+000 1.481777e+000 1.981318e+000 1.865880e+000 1.677058e+000 1.529434e+000 1.500626e+000 1.469353e+000 1.211877e+000 7.540944e-001 1.398091e-001 1.412655e-001 1.521007e-001 2.126537e-001 2.675580e-001 3.571711e-001 3.634781e-001 3.197851e-001 2.929659e-001 2.938584e-001 2.746612e-001 2.335793e-001 1.144504e-001
<GCONST> 1.040862e+002
<TRANSP> 5
 0.000000e+000 1.000000e+000 0.000000e+000 0.000000e+000 0.000000e+000
 0.000000e+000 6.000000e-001 4.000000e-001 0.000000e+000 0.000000e+000
 0.000000e+000 0.000000e+000 6.000000e-001 4.000000e-001 0.000000e+000
 0.000000e+000 0.000000e+000 0.000000e+000 7.000000e-001 3.000000e-001
 0.000000e+000 0.000000e+000 0.000000e+000 0.000000e+000 0.000000e+000
<ENDHMM>
~h "a"
<BEGINHMM>
<NUMSTATES> 5
<STATE> 2
<MEAN> 39
 -7.882905e+000 -1.661237e+000 -1.009175e+000 -1.930420e+000 -2.801747e+000 -3.939636e-003 -3.489320e+000 -1.310613e+000 -5.399727e+000 -2.127840e+000 -2.349427e+000 -1.760942e+000 6.651322e+001 1.906061e-003 2.553094e-003 -2.478170e-003 2.536010e-003 -3.520633e-003 1.180791e-003 -5.806248e-004 -5.902871e-004 3.335247e-003 -2.220214e-003 2.771502e-003 -1.647123e-003 -4.431646e-004 -4.907154e-004 -6.222882e-004 -6.703453e-005 -5.706038e-004 3.706980e-004 -5.489043e-005 1.993648e-004 4.878137e-004 -6.845043e-004 -2.209887e-004 -3.796394e-004 -8.370532e-005 4.365041e-005
<VARIANCE> 39
 4.468856e+001 2.722493e+001 5.694174e+001 3.599084e+001 4.988737e+001 6.616839e+001 4.487501e+001 5.082950e+001 3.725814e+001 3.385480e+001 2.889206e+001 2.595412e+001 6.486427e+001 8.580743e-001 8.385667e-001 9.490095e-001 1.190030e+000 1.481777e+000 1.981318e+000 1.865880e+000 1.677058e+000 1.529434e+000 1.500626e+000 1.469353e+000 1.211877e+000 7.540944e-001 1.398091e-001 1.412655e-001 1.521007e-001 2.126537e-001 2.675580e-001 3.571711e-001 3.634781e-001 3.197851e-001 2.929659e-001 2.938584e-001 2.746612e-001 2.335793e-001 1.144504e-001
<GCONST> 1.040862e+002
<STATE> 3
<MEAN> 39
 -7.882905e+000 -1.661237e+000 -1.009175e+000 -1.930420e+000 -2.801747e+000 -3.939636e-003 -3.489320e+000 -1.310613e+000 -5.399727e+000 -2.127840e+000 -2.349427e+000 -1.760942e+000 6.651322e+001 1.906061e-003 2.553094e-003 -2.478170e-003 2.536010e-003 -3.520633e-003 1.180791e-003 -5.806248e-004 -5.902871e-004 3.335247e-003 -2.220214e-003 2.771502e-003 -1.647123e-003 -4.431646e-004 -4.907154e-004 -6.222882e-004 -6.703453e-005 -5.706038e-004 3.706980e-004 -5.489043e-005 1.993648e-004 4.878137e-004 -6.845043e-004 -2.209887e-004 -3.796394e-004 -8.370532e-005 4.365041e-005
<VARIANCE> 39
 4.468856e+001 2.722493e+001 5.694174e+001 3.599084e+001 4.988737e+001 6.616839e+001 4.487501e+001 5.082950e+001 3.725814e+001 3.385480e+001 2.889206e+001 2.595412e+001 6.486427e+001 8.580743e-001 8.385667e-001 9.490095e-001 1.190030e+000 1.481777e+000 1.981318e+000 1.865880e+000 1.677058e+000 1.529434e+000 1.500626e+000 1.469353e+000 1.211877e+000 7.540944e-001 1.398091e-001 1.412655e-001 1.521007e-001 2.126537e-001 2.675580e-001 3.571711e-001 3.634781e-001 3.197851e-001 2.929659e-001 2.938584e-001 2.746612e-001 2.335793e-001 1.144504e-001
<GCONST> 1.040862e+002
<STATE> 4
<MEAN> 39
 -7.882905e+000 -1.661237e+000 -1.009175e+000 -1.930420e+000 -2.801747e+000 -3.939636e-003 -3.489320e+000 -1.310613e+000 -5.399727e+000 -2.127840e+000 -2.349427e+000 -1.760942e+000 6.651322e+001 1.906061e-003 2.553094e-003 -2.478170e-003 2.536010e-003 -3.520633e-003 1.180791e-003 -5.806248e-004 -5.902871e-004 3.335247e-003 -2.220214e-003 2.771502e-003 -1.647123e-003 -4.431646e-004 -4.907154e-004 -6.222882e-004 -6.703453e-005 -5.706038e-004 3.706980e-004 -5.489043e-005 1.993648e-004 4.878137e-004 -6.845043e-004 -2.209887e-004 -3.796394e-004 -8.370532e-005 4.365041e-005
<VARIANCE> 39
 4.468856e+001 2.722493e+001 5.694174e+001 3.599084e+001 4.988737e+001 6.616839e+001 4.487501e+001 5.082950e+001 3.725814e+001 3.385480e+001 2.889206e+001 2.595412e+001 6.486427e+001 8.580743e-001 8.385667e-001 9.490095e-001 1.190030e+000 1.481777e+000 1.981318e+000 1.865880e+000 1.677058e+000 1.529434e+000 1.500626e+000 1.469353e+000 1.211877e+000 7.540944e-001 1.398091e-001 1.412655e-001 1.521007e-001 2.126537e-001 2.675580e-001 3.571711e-001 3.634781e-001 3.197851e-001 2.929659e-001 2.938584e-001 2.746612e-001 2.335793e-001 1.144504e-001
<GCONST> 1.040862e+002
<TRANSP> 5
 0.000000e+000 1.000000e+000 0.000000e+000 0.000000e+000 0.000000e+000
 0.000000e+000 6.000000e-001 4.000000e-001 0.000000e+000 0.000000e+000
 0.000000e+000 0.000000e+000 6.000000e-001 4.000000e-001 0.000000e+000
 0.000000e+000 0.000000e+000 0.000000e+000 7.000000e-001 3.000000e-001
 0.000000e+000 0.000000e+000 0.000000e+000 0.000000e+000 0.000000e+000
<ENDHMM>
~h "ary"
<BEGINHMM>
<NUMSTATES> 5
<STATE> 2
<MEAN> 39
 -7.882905e+000 -1.661237e+000 -1.009175e+000 -1.930420e+000 -2.801747e+000 -3.939636e-003 -3.489320e+000 -1.310613e+000 -5.399727e+000 -2.127840e+000 -2.349427e+000 -1.760942e+000 6.651322e+001 1.906061e-003 2.553094e-003 -2.478170e-003 2.536010e-003 -3.520633e-003 1.180791e-003 -5.806248e-004 -5.902871e-004 3.335247e-003 -2.220214e-003 2.771502e-003 -1.647123e-003 -4.431646e-004 -4.907154e-004 -6.222882e-004 -6.703453e-005 -5.706038e-004 3.706980e-004 -5.489043e-005 1.993648e-004 4.878137e-004 -6.845043e-004 -2.209887e-004 -3.796394e-004 -8.370532e-005 4.365041e-005
<VARIANCE> 39
 4.468856e+001 2.722493e+001 5.694174e+001 3.599084e+001 4.988737e+001 6.616839e+001 4.487501e+001 5.082950e+001 3.725814e+001 3.385480e+001 2.889206e+001 2.595412e+001 6.486427e+001 8.580743e-001 8.385667e-001 9.490095e-001 1.190030e+000 1.481777e+000 1.981318e+000 1.865880e+000 1.677058e+000 1.529434e+000 1.500626e+000 1.469353e+000 1.211877e+000 7.540944e-001 1.398091e-001 1.412655e-001 1.521007e-001 2.126537e-001 2.675580e-001 3.571711e-001 3.634781e-001 3.197851e-001 2.929659e-001 2.938584e-001 2.746612e-001 2.335793e-001 1.144504e-001
<GCONST> 1.040862e+002
<STATE> 3
<MEAN> 39
 -7.882905e+000 -1.661237e+000 -1.009175e+000 -1.930420e+000 -2.801747e+000 -3.939636e-003 -3.489320e+000 -1.310613e+000 -5.399727e+000 -2.127840e+000 -2.349427e+000 -1.760942e+000 6.651322e+001 1.906061e-003 2.553094e-003 -2.478170e-003 2.536010e-003 -3.520633e-003 1.180791e-003 -5.806248e-004 -5.902871e-004 3.335247e-003 -2.220214e-003 2.771502e-003 -1.647123e-003 -4.431646e-004 -4.907154e-004 -6.222882e-004 -6.703453e-005 -5.706038e-004 3.706980e-004 -5.489043e-005 1.993648e-004 4.878137e-004 -6.845043e-004 -2.209887e-004 -3.796394e-004 -8.370532e-005 4.365041e-005
<VARIANCE> 39
 4.468856e+001 2.722493e+001 5.694174e+001 3.599084e+001 4.988737e+001 6.616839e+001 4.487501e+001 5.082950e+001 3.725814e+001 3.385480e+001 2.889206e+001 2.595412e+001 6.486427e+001 8.580743e-001 8.385667e-001 9.490095e-001 1.190030e+000 1.481777e+000 1.981318e+000 1.865880e+000 1.677058e+000 1.529434e+000 1.500626e+000 1.469353e+000 1.211877e+000 7.540944e-001 1.398091e-001 1.412655e-001 1.521007e-001 2.126537e-001 2.675580e-001 3.571711e-001 3.634781e-001 3.197851e-001 2.929659e-001 2.938584e-001 2.746612e-001 2.335793e-001 1.144504e-001
<GCONST> 1.040862e+002
<STATE> 4
<MEAN> 39
 -7.882905e+000 -1.661237e+000 -1.009175e+000 -1.930420e+000 -2.801747e+000 -3.939636e-003 -3.489320e+000 -1.310613e+000 -5.399727e+000 -2.127840e+000 -2.349427e+000 -1.760942e+000 6.651322e+001 1.906061e-003 2.553094e-003 -2.478170e-003 2.536010e-003 -3.520633e-003 1.180791e-003 -5.806248e-004 -5.902871e-004 3.335247e-003 -2.220214e-003 2.771502e-003 -1.647123e-003 -4.431646e-004 -4.907154e-004 -6.222882e-004 -6.703453e-005 -5.706038e-004 3.706980e-004 -5.489043e-005 1.993648e-004 4.878137e-004 -6.845043e-004 -2.209887e-004 -3.796394e-004 -8.370532e-005 4.365041e-005
<VARIANCE> 39
 4.468856e+001 2.722493e+001 5.694174e+001 3.599084e+001 4.988737e+001 6.616839e+001 4.487501e+001 5.082950e+001 3.725814e+001 3.385480e+001 2.889206e+001 2.595412e+001 6.486427e+001 8.580743e-001 8.385667e-001 9.490095e-001 1.190030e+000 1.481777e+000 1.981318e+000 1.865880e+000 1.677058e+000 1.529434e+000 1.500626e+000 1.469353e+000 1.211877e+000 7.540944e-001 1.398091e-001 1.412655e-001 1.521007e-001 2.126537e-001 2.675580e-001 3.571711e-001 3.634781e-001 3.197851e-001 2.929659e-001 2.938584e-001 2.746612e-001 2.335793e-001 1.144504e-001
<GCONST> 1.040862e+002
<TRANSP> 5
 0.000000e+000 1.000000e+000 0.000000e+000 0.000000e+000 0.000000e+000
 0.000000e+000 6.000000e-001 4.000000e-001 0.000000e+000 0.000000e+000
 0.000000e+000 0.000000e+000 6.000000e-001 4.000000e-001 0.000000e+000
 0.000000e+000 0.000000e+000 0.000000e+000 7.000000e-001 3.000000e-001
 0.000000e+000 0.000000e+000 0.000000e+000 0.000000e+000 0.000000e+000
<ENDHMM>
~h "oos"
<BEGINHMM>
<NUMSTATES> 5
<STATE> 2
<MEAN> 39
 -7.882905e+000 -1.661237e+000 -1.009175e+000 -1.930420e+000 -2.801747e+000 -3.939636e-003 -3.489320e+000 -1.310613e+000 -5.399727e+000 -2.127840e+000 -2.349427e+000 -1.760942e+000 6.651322e+001 1.906061e-003 2.553094e-003 -2.478170e-003 2.536010e-003 -3.520633e-003 1.180791e-003 -5.806248e-004 -5.902871e-004 3.335247e-003 -2.220214e-003 2.771502e-003 -1.647123e-003 -4.431646e-004 -4.907154e-004 -6.222882e-004 -6.703453e-005 -5.706038e-004 3.706980e-004 -5.489043e-005 1.993648e-004 4.878137e-004 -6.845043e-004 -2.209887e-004 -3.796394e-004 -8.370532e-005 4.365041e-005
<VARIANCE> 39
 4.468856e+001 2.722493e+001 5.694174e+001 3.599084e+001 4.988737e+001 6.616839e+001 4.487501e+001 5.082950e+001 3.725814e+001 3.385480e+001 2.889206e+001 2.595412e+001 6.486427e+001 8.580743e-001 8.385667e-001 9.490095e-001 1.190030e+000 1.481777e+000 1.981318e+000 1.865880e+000 1.677058e+000 1.529434e+000 1.500626e+000 1.469353e+000 1.211877e+000 7.540944e-001 1.398091e-001 1.412655e-001 1.521007e-001 2.126537e-001 2.675580e-001 3.571711e-001 3.634781e-001 3.197851e-001 2.929659e-001 2.938584e-001 2.746612e-001 2.335793e-001 1.144504e-001
<GCONST> 1.040862e+002
<STATE> 3
<MEAN> 39
 -7.882905e+000 -1.661237e+000 -1.009175e+000 -1.930420e+000 -2.801747e+000 -3.939636e-003 -3.489320e+000 -1.310613e+000 -5.399727e+000 -2.127840e+000 -2.349427e+000 -1.760942e+000 6.651322e+001 1.906061e-003 2.553094e-003 -2.478170e-003 2.536010e-003 -3.520633e-003 1.180791e-003 -5.806248e-004 -5.902871e-004 3.335247e-003 -2.220214e-003 2.771502e-003 -1.647123e-003 -4.431646e-004 -4.907154e-004 -6.222882e-004 -6.703453e-005 -5.706038e-004 3.706980e-004 -5.489043e-005 1.993648e-004 4.878137e-004 -6.845043e-004 -2.209887e-004 -3.796394e-004 -8.370532e-005 4.365041e-005
<VARIANCE> 39
 4.468856e+001 2.722493e+001 5.694174e+001 3.599084e+001 4.988737e+001 6.616839e+001 4.487501e+001 5.082950e+001 3.725814e+001 3.385480e+001 2.889206e+001 2.595412e+001 6.486427e+001 8.580743e-001 8.385667e-001 9.490095e-001 1.190030e+000 1.481777e+000 1.981318e+000 1.865880e+000 1.677058e+000 1.529434e+000 1.500626e+000 1.469353e+000 1.211877e+000 7.540944e-001 1.398091e-001 1.412655e-001 1.521007e-001 2.126537e-001 2.675580e-001 3.571711e-001 3.634781e-001 3.197851e-001 2.929659e-001 2.938584e-001 2.746612e-001 2.335793e-001 1.144504e-001
<GCONST> 1.040862e+002
<STATE> 4
<MEAN> 39
 -7.882905e+000 -1.661237e+000 -1.009175e+000 -1.930420e+000 -2.801747e+000 -3.939636e-003 -3.489320e+000 -1.310613e+000 -5.399727e+000 -2.127840e+000 -2.349427e+000 -1.760942e+000 6.651322e+001 1.906061e-003 2.553094e-003 -2.478170e-003 2.536010e-003 -3.520633e-003 1.180791e-003 -5.806248e-004 -5.902871e-004 3.335247e-003 -2.220214e-003 2.771502e-003 -1.647123e-003 -4.431646e-004 -4.907154e-004 -6.222882e-004 -6.703453e-005 -5.706038e-004 3.706980e-004 -5.489043e-005 1.993648e-004 4.878137e-004 -6.845043e-004 -2.209887e-004 -3.796394e-004 -8.370532e-005 4.365041e-005
<VARIANCE> 39
 4.468856e+001 2.722493e+001 5.694174e+001 3.599084e+001 4.988737e+001 6.616839e+001 4.487501e+001 5.082950e+001 3.725814e+001 3.385480e+001 2.889206e+001 2.595412e+001 6.486427e+001 8.580743e-001 8.385667e-001 9.490095e-001 1.190030e+000 1.481777e+000 1.981318e+000 1.865880e+000 1.677058e+000 1.529434e+000 1.500626e+000 1.469353e+000 1.211877e+000 7.540944e-001 1.398091e-001 1.412655e-001 1.521007e-001 2.126537e-001 2.675580e-001 3.571711e-001 3.634781e-001 3.197851e-001 2.929659e-001 2.938584e-001 2.746612e-001 2.335793e-001 1.144504e-001
<GCONST> 1.040862e+002
<TRANSP> 5
 0.000000e+000 1.000000e+000 0.000000e+000 0.000000e+000 0.000000e+000
 0.000000e+000 6.000000e-001 4.000000e-001 0.000000e+000 0.000000e+000
 0.000000e+000 0.000000e+000 6.000000e-001 4.000000e-001 0.000000e+000
 0.000000e+000 0.000000e+000 0.000000e+000 7.000000e-001 3.000000e-001
 0.000000e+000 0.000000e+000 0.000000e+000 0.000000e+000 0.000000e+000
<ENDHMM>
~h "n"
<BEGINHMM>
<NUMSTATES> 5
<STATE> 2
<MEAN> 39
 -7.882905e+000 -1.661237e+000 -1.009175e+000 -1.930420e+000 -2.801747e+000 -3.939636e-003 -3.489320e+000 -1.310613e+000 -5.399727e+000 -2.127840e+000 -2.349427e+000 -1.760942e+000 6.651322e+001 1.906061e-003 2.553094e-003 -2.478170e-003 2.536010e-003 -3.520633e-003 1.180791e-003 -5.806248e-004 -5.902871e-004 3.335247e-003 -2.220214e-003 2.771502e-003 -1.647123e-003 -4.431646e-004 -4.907154e-004 -6.222882e-004 -6.703453e-005 -5.706038e-004 3.706980e-004 -5.489043e-005 1.993648e-004 4.878137e-004 -6.845043e-004 -2.209887e-004 -3.796394e-004 -8.370532e-005 4.365041e-005
<VARIANCE> 39
 4.468856e+001 2.722493e+001 5.694174e+001 3.599084e+001 4.988737e+001 6.616839e+001 4.487501e+001 5.082950e+001 3.725814e+001 3.385480e+001 2.889206e+001 2.595412e+001 6.486427e+001 8.580743e-001 8.385667e-001 9.490095e-001 1.190030e+000 1.481777e+000 1.981318e+000 1.865880e+000 1.677058e+000 1.529434e+000 1.500626e+000 1.469353e+000 1.211877e+000 7.540944e-001 1.398091e-001 1.412655e-001 1.521007e-001 2.126537e-001 2.675580e-001 3.571711e-001 3.634781e-001 3.197851e-001 2.929659e-001 2.938584e-001 2.746612e-001 2.335793e-001 1.144504e-001
<GCONST> 1.040862e+002
<STATE> 3
<MEAN> 39
 -7.882905e+000 -1.661237e+000 -1.009175e+000 -1.930420e+000 -2.801747e+000 -3.939636e-003 -3.489320e+000 -1.310613e+000 -5.399727e+000 -2.127840e+000 -2.349427e+000 -1.760942e+000 6.651322e+001 1.906061e-003 2.553094e-003 -2.478170e-003 2.536010e-003 -3.520633e-003 1.180791e-003 -5.806248e-004 -5.902871e-004 3.335247e-003 -2.220214e-003 2.771502e-003 -1.647123e-003 -4.431646e-004 -4.907154e-004 -6.222882e-004 -6.703453e-005 -5.706038e-004 3.706980e-004 -5.489043e-005 1.993648e-004 4.878137e-004 -6.845043e-004 -2.209887e-004 -3.796394e-004 -8.370532e-005 4.365041e-005
<VARIANCE> 39
 4.468856e+001 2.722493e+001 5.694174e+001 3.599084e+001 4.988737e+001 6.616839e+001 4.487501e+001 5.082950e+001 3.725814e+001 3.385480e+001 2.889206e+001 2.595412e+001 6.486427e+001 8.580743e-001 8.385667e-001 9.490095e-001 1.190030e+000 1.481777e+000 1.981318e+000 1.865880e+000 1.677058e+000 1.529434e+000 1.500626e+000 1.469353e+000 1.211877e+000 7.540944e-001 1.398091e-001 1.412655e-001 1.521007e-001 2.126537e-001 2.675580e-001 3.571711e-001 3.634781e-001 3.197851e-001 2.929659e-001 2.938584e-001 2.746612e-001 2.335793e-001 1.144504e-001
<GCONST> 1.040862e+002
<STATE> 4
<MEAN> 39
 -7.882905e+000 -1.661237e+000 -1.009175e+000 -1.930420e+000 -2.801747e+000 -3.939636e-003 -3.489320e+000 -1.310613e+000 -5.399727e+000 -2.127840e+000 -2.349427e+000 -1.760942e+000 6.651322e+001 1.906061e-003 2.553094e-003 -2.478170e-003 2.536010e-003 -3.520633e-003 1.180791e-003 -5.806248e-004 -5.902871e-004 3.335247e-003 -2.220214e-003 2.771502e-003 -1.647123e-003 -4.431646e-004 -4.907154e-004 -6.222882e-004 -6.703453e-005 -5.706038e-004 3.706980e-004 -5.489043e-005 1.993648e-004 4.878137e-004 -6.845043e-004 -2.209887e-004 -3.796394e-004 -8.370532e-005 4.365041e-005
<VARIANCE> 39
 4.468856e+001 2.722493e+001 5.694174e+001 3.599084e+001 4.988737e+001 6.616839e+001 4.487501e+001 5.082950e+001 3.725814e+001 3.385480e+001 2.889206e+001 2.595412e+001 6.486427e+001 8.580743e-001 8.385667e-001 9.490095e-001 1.190030e+000 1.481777e+000 1.981318e+000 1.865880e+000 1.677058e+000 1.529434e+000 1.500626e+000 1.469353e+000 1.211877e+000 7.540944e-001 1.398091e-001 1.412655e-001 1.521007e-001 2.126537e-001 2.675580e-001 3.571711e-001 3.634781e-001 3.197851e-001 2.929659e-001 2.938584e-001 2.746612e-001 2.335793e-001 1.144504e-001
<GCONST> 1.040862e+002
<TRANSP> 5
 0.000000e+000 1.000000e+000 0.000000e+000 0.000000e+000 0.000000e+000
 0.000000e+000 6.000000e-001 4.000000e-001 0.000000e+000 0.000000e+000
 0.000000e+000 0.000000e+000 6.000000e-001 4.000000e-001 0.000000e+000
 0.000000e+000 0.000000e+000 0.000000e+000 7.000000e-001 3.000000e-001
 0.000000e+000 0.000000e+000 0.000000e+000 0.000000e+000 0.000000e+000
<ENDHMM>
~h "ch"
<BEGINHMM>
<NUMSTATES> 5
<STATE> 2
<MEAN> 39
 -7.882905e+000 -1.661237e+000 -1.009175e+000 -1.930420e+000 -2.801747e+000 -3.939636e-003 -3.489320e+000 -1.310613e+000 -5.399727e+000 -2.127840e+000 -2.349427e+000 -1.760942e+000 6.651322e+001 1.906061e-003 2.553094e-003 -2.478170e-003 2.536010e-003 -3.520633e-003 1.180791e-003 -5.806248e-004 -5.902871e-004 3.335247e-003 -2.220214e-003 2.771502e-003 -1.647123e-003 -4.431646e-004 -4.907154e-004 -6.222882e-004 -6.703453e-005 -5.706038e-004 3.706980e-004 -5.489043e-005 1.993648e-004 4.878137e-004 -6.845043e-004 -2.209887e-004 -3.796394e-004 -8.370532e-005 4.365041e-005
<VARIANCE> 39
 4.468856e+001 2.722493e+001 5.694174e+001 3.599084e+001 4.988737e+001 6.616839e+001 4.487501e+001 5.082950e+001 3.725814e+001 3.385480e+001 2.889206e+001 2.595412e+001 6.486427e+001 8.580743e-001 8.385667e-001 9.490095e-001 1.190030e+000 1.481777e+000 1.981318e+000 1.865880e+000 1.677058e+000 1.529434e+000 1.500626e+000 1.469353e+000 1.211877e+000 7.540944e-001 1.398091e-001 1.412655e-001 1.521007e-001 2.126537e-001 2.675580e-001 3.571711e-001 3.634781e-001 3.197851e-001 2.929659e-001 2.938584e-001 2.746612e-001 2.335793e-001 1.144504e-001
<GCONST> 1.040862e+002
<STATE> 3
<MEAN> 39
 -7.882905e+000 -1.661237e+000 -1.009175e+000 -1.930420e+000 -2.801747e+000 -3.939636e-003 -3.489320e+000 -1.310613e+000 -5.399727e+000 -2.127840e+000 -2.349427e+000 -1.760942e+000 6.651322e+001 1.906061e-003 2.553094e-003 -2.478170e-003 2.536010e-003 -3.520633e-003 1.180791e-003 -5.806248e-004 -5.902871e-004 3.335247e-003 -2.220214e-003 2.771502e-003 -1.647123e-003 -4.431646e-004 -4.907154e-004 -6.222882e-004 -6.703453e-005 -5.706038e-004 3.706980e-004 -5.489043e-005 1.993648e-004 4.878137e-004 -6.845043e-004 -2.209887e-004 -3.796394e-004 -8.370532e-005 4.365041e-005
<VARIANCE> 39
 4.468856e+001 2.722493e+001 5.694174e+001 3.599084e+001 4.988737e+001 6.616839e+001 4.487501e+001 5.082950e+001 3.725814e+001 3.385480e+001 2.889206e+001 2.595412e+001 6.486427e+001 8.580743e-001 8.385667e-001 9.490095e-001 1.190030e+000 1.481777e+000 1.981318e+000 1.865880e+000 1.677058e+000 1.529434e+000 1.500626e+000 1.469353e+000 1.211877e+000 7.540944e-001 1.398091e-001 1.412655e-001 1.521007e-001 2.126537e-001 2.675580e-001 3.571711e-001 3.634781e-001 3.197851e-001 2.929659e-001 2.938584e-001 2.746612e-001 2.335793e-001 1.144504e-001
<GCONST> 1.040862e+002
<STATE> 4
<MEAN> 39
 -7.882905e+000 -1.661237e+000 -1.009175e+000 -1.930420e+000 -2.801747e+000 -3.939636e-003 -3.489320e+000 -1.310613e+000 -5.399727e+000 -2.127840e+000 -2.349427e+000 -1.760942e+000 6.651322e+001 1.906061e-003 2.553094e-003 -2.478170e-003 2.536010e-003 -3.520633e-003 1.180791e-003 -5.806248e-004 -5.902871e-004 3.335247e-003 -2.220214e-003 2.771502e-003 -1.647123e-003 -4.431646e-004 -4.907154e-004 -6.222882e-004 -6.703453e-005 -5.706038e-004 3.706980e-004 -5.489043e-005 1.993648e-004 4.878137e-004 -6.845043e-004 -2.209887e-004 -3.796394e-004 -8.370532e-005 4.365041e-005
<VARIANCE> 39
 4.468856e+001 2.722493e+001 5.694174e+001 3.599084e+001 4.988737e+001 6.616839e+001 4.487501e+001 5.082950e+001 3.725814e+001 3.385480e+001 2.889206e+001 2.595412e+001 6.486427e+001 8.580743e-001 8.385667e-001 9.490095e-001 1.190030e+000 1.481777e+000 1.981318e+000 1.865880e+000 1.677058e+000 1.529434e+000 1.500626e+000 1.469353e+000 1.211877e+000 7.540944e-001 1.398091e-001 1.412655e-001 1.521007e-001 2.126537e-001 2.675580e-001 3.571711e-001 3.634781e-001 3.197851e-001 2.929659e-001 2.938584e-001 2.746612e-001 2.335793e-001 1.144504e-001
<GCONST> 1.040862e+002
<TRANSP> 5
 0.000000e+000 1.000000e+000 0.000000e+000 0.000000e+000 0.000000e+000
 0.000000e+000 6.000000e-001 4.000000e-001 0.000000e+000 0.000000e+000
 0.000000e+000 0.000000e+000 6.000000e-001 4.000000e-001 0.000000e+000
 0.000000e+000 0.000000e+000 0.000000e+000 7.000000e-001 3.000000e-001
 0.000000e+000 0.000000e+000 0.000000e+000 0.000000e+000 0.000000e+000
<ENDHMM>
~h "is"
<BEGINHMM>
<NUMSTATES> 5
<STATE> 2
<MEAN> 39
 -7.882905e+000 -1.661237e+000 -1.009175e+000 -1.930420e+000 -2.801747e+000 -3.939636e-003 -3.489320e+000 -1.310613e+000 -5.399727e+000 -2.127840e+000 -2.349427e+000 -1.760942e+000 6.651322e+001 1.906061e-003 2.553094e-003 -2.478170e-003 2.536010e-003 -3.520633e-003 1.180791e-003 -5.806248e-004 -5.902871e-004 3.335247e-003 -2.220214e-003 2.771502e-003 -1.647123e-003 -4.431646e-004 -4.907154e-004 -6.222882e-004 -6.703453e-005 -5.706038e-004 3.706980e-004 -5.489043e-005 1.993648e-004 4.878137e-004 -6.845043e-004 -2.209887e-004 -3.796394e-004 -8.370532e-005 4.365041e-005
<VARIANCE> 39
 4.468856e+001 2.722493e+001 5.694174e+001 3.599084e+001 4.988737e+001 6.616839e+001 4.487501e+001 5.082950e+001 3.725814e+001 3.385480e+001 2.889206e+001 2.595412e+001 6.486427e+001 8.580743e-001 8.385667e-001 9.490095e-001 1.190030e+000 1.481777e+000 1.981318e+000 1.865880e+000 1.677058e+000 1.529434e+000 1.500626e+000 1.469353e+000 1.211877e+000 7.540944e-001 1.398091e-001 1.412655e-001 1.521007e-001 2.126537e-001 2.675580e-001 3.571711e-001 3.634781e-001 3.197851e-001 2.929659e-001 2.938584e-001 2.746612e-001 2.335793e-001 1.144504e-001
<GCONST> 1.040862e+002
<STATE> 3
<MEAN> 39
 -7.882905e+000 -1.661237e+000 -1.009175e+000 -1.930420e+000 -2.801747e+000 -3.939636e-003 -3.489320e+000 -1.310613e+000 -5.399727e+000 -2.127840e+000 -2.349427e+000 -1.760942e+000 6.651322e+001 1.906061e-003 2.553094e-003 -2.478170e-003 2.536010e-003 -3.520633e-003 1.180791e-003 -5.806248e-004 -5.902871e-004 3.335247e-003 -2.220214e-003 2.771502e-003 -1.647123e-003 -4.431646e-004 -4.907154e-004 -6.222882e-004 -6.703453e-005 -5.706038e-004 3.706980e-004 -5.489043e-005 1.993648e-004 4.878137e-004 -6.845043e-004 -2.209887e-004 -3.796394e-004 -8.370532e-005 4.365041e-005
<VARIANCE> 39
 4.468856e+001 2.722493e+001 5.694174e+001 3.599084e+001 4.988737e+001 6.616839e+001 4.487501e+001 5.082950e+001 3.725814e+001 3.385480e+001 2.889206e+001 2.595412e+001 6.486427e+001 8.580743e-001 8.385667e-001 9.490095e-001 1.190030e+000 1.481777e+000 1.981318e+000 1.865880e+000 1.677058e+000 1.529434e+000 1.500626e+000 1.469353e+000 1.211877e+000 7.540944e-001 1.398091e-001 1.412655e-001 1.521007e-001 2.126537e-001 2.675580e-001 3.571711e-001 3.634781e-001 3.197851e-001 2.929659e-001 2.938584e-001 2.746612e-001 2.335793e-001 1.144504e-001
<GCONST> 1.040862e+002
<STATE> 4
<MEAN> 39
 -7.882905e+000 -1.661237e+000 -1.009175e+000 -1.930420e+000 -2.801747e+000 -3.939636e-003 -3.489320e+000 -1.310613e+000 -5.399727e+000 -2.127840e+000 -2.349427e+000 -1.760942e+000 6.651322e+001 1.906061e-003 2.553094e-003 -2.478170e-003 2.536010e-003 -3.520633e-003 1.180791e-003 -5.806248e-004 -5.902871e-004 3.335247e-003 -2.220214e-003 2.771502e-003 -1.647123e-003 -4.431646e-004 -4.907154e-004 -6.222882e-004 -6.703453e-005 -5.706038e-004 3.706980e-004 -5.489043e-005 1.993648e-004 4.878137e-004 -6.845043e-004 -2.209887e-004 -3.796394e-004 -8.370532e-005 4.365041e-005
<VARIANCE> 39
 4.468856e+001 2.722493e+001 5.694174e+001 3.599084e+001 4.988737e+001 6.616839e+001 4.487501e+001 5.082950e+001 3.725814e+001 3.385480e+001 2.889206e+001 2.595412e+001 6.486427e+001 8.580743e-001 8.385667e-001 9.490095e-001 1.190030e+000 1.481777e+000 1.981318e+000 1.865880e+000 1.677058e+000 1.529434e+000 1.500626e+000 1.469353e+000 1.211877e+000 7.540944e-001 1.398091e-001 1.412655e-001 1.521007e-001 2.126537e-001 2.675580e-001 3.571711e-001 3.634781e-001 3.197851e-001 2.929659e-001 2.938584e-001 2.746612e-001 2.335793e-001 1.144504e-001
<GCONST> 1.040862e+002
<TRANSP> 5
 0.000000e+000 1.000000e+000 0.000000e+000 0.000000e+000 0.000000e+000
 0.000000e+000 6.000000e-001 4.000000e-001 0.000000e+000 0.000000e+000
 0.000000e+000 0.000000e+000 6.000000e-001 4.000000e-001 0.000000e+000
 0.000000e+000 0.000000e+000 0.000000e+000 7.000000e-001 3.000000e-001
 0.000000e+000 0.000000e+000 0.000000e+000 0.000000e+000 0.000000e+000
<ENDHMM>
~h "h"
<BEGINHMM>
<NUMSTATES> 5
<STATE> 2
<MEAN> 39
 -7.882905e+000 -1.661237e+000 -1.009175e+000 -1.930420e+000 -2.801747e+000 -3.939636e-003 -3.489320e+000 -1.310613e+000 -5.399727e+000 -2.127840e+000 -2.349427e+000 -1.760942e+000 6.651322e+001 1.906061e-003 2.553094e-003 -2.478170e-003 2.536010e-003 -3.520633e-003 1.180791e-003 -5.806248e-004 -5.902871e-004 3.335247e-003 -2.220214e-003 2.771502e-003 -1.647123e-003 -4.431646e-004 -4.907154e-004 -6.222882e-004 -6.703453e-005 -5.706038e-004 3.706980e-004 -5.489043e-005 1.993648e-004 4.878137e-004 -6.845043e-004 -2.209887e-004 -3.796394e-004 -8.370532e-005 4.365041e-005
<VARIANCE> 39
 4.468856e+001 2.722493e+001 5.694174e+001 3.599084e+001 4.988737e+001 6.616839e+001 4.487501e+001 5.082950e+001 3.725814e+001 3.385480e+001 2.889206e+001 2.595412e+001 6.486427e+001 8.580743e-001 8.385667e-001 9.490095e-001 1.190030e+000 1.481777e+000 1.981318e+000 1.865880e+000 1.677058e+000 1.529434e+000 1.500626e+000 1.469353e+000 1.211877e+000 7.540944e-001 1.398091e-001 1.412655e-001 1.521007e-001 2.126537e-001 2.675580e-001 3.571711e-001 3.634781e-001 3.197851e-001 2.929659e-001 2.938584e-001 2.746612e-001 2.335793e-001 1.144504e-001
<GCONST> 1.040862e+002
<STATE> 3
<MEAN> 39
 -7.882905e+000 -1.661237e+000 -1.009175e+000 -1.930420e+000 -2.801747e+000 -3.939636e-003 -3.489320e+000 -1.310613e+000 -5.399727e+000 -2.127840e+000 -2.349427e+000 -1.760942e+000 6.651322e+001 1.906061e-003 2.553094e-003 -2.478170e-003 2.536010e-003 -3.520633e-003 1.180791e-003 -5.806248e-004 -5.902871e-004 3.335247e-003 -2.220214e-003 2.771502e-003 -1.647123e-003 -4.431646e-004 -4.907154e-004 -6.222882e-004 -6.703453e-005 -5.706038e-004 3.706980e-004 -5.489043e-005 1.993648e-004 4.878137e-004 -6.845043e-004 -2.209887e-004 -3.796394e-004 -8.370532e-005 4.365041e-005
<VARIANCE> 39
 4.468856e+001 2.722493e+001 5.694174e+001 3.599084e+001 4.988737e+001 6.616839e+001 4.487501e+001 5.082950e+001 3.725814e+001 3.385480e+001 2.889206e+001 2.595412e+001 6.486427e+001 8.580743e-001 8.385667e-001 9.490095e-001 1.190030e+000 1.481777e+000 1.981318e+000 1.865880e+000 1.677058e+000 1.529434e+000 1.500626e+000 1.469353e+000 1.211877e+000 7.540944e-001 1.398091e-001 1.412655e-001 1.521007e-001 2.126537e-001 2.675580e-001 3.571711e-001 3.634781e-001 3.197851e-001 2.929659e-001 2.938584e-001 2.746612e-001 2.335793e-001 1.144504e-001
<GCONST> 1.040862e+002
<STATE> 4
<MEAN> 39
 -7.882905e+000 -1.661237e+000 -1.009175e+000 -1.930420e+000 -2.801747e+000 -3.939636e-003 -3.489320e+000 -1.310613e+000 -5.399727e+000 -2.127840e+000 -2.349427e+000 -1.760942e+000 6.651322e+001 1.906061e-003 2.553094e-003 -2.478170e-003 2.536010e-003 -3.520633e-003 1.180791e-003 -5.806248e-004 -5.902871e-004 3.335247e-003 -2.220214e-003 2.771502e-003 -1.647123e-003 -4.431646e-004 -4.907154e-004 -6.222882e-004 -6.703453e-005 -5.706038e-004 3.706980e-004 -5.489043e-005 1.993648e-004 4.878137e-004 -6.845043e-004 -2.209887e-004 -3.796394e-004 -8.370532e-005 4.365041e-005
<VARIANCE> 39
 4.468856e+001 2.722493e+001 5.694174e+001 3.599084e+001 4.988737e+001 6.616839e+001 4.487501e+001 5.082950e+001 3.725814e+001 3.385480e+001 2.889206e+001 2.595412e+001 6.486427e+001 8.580743e-001 8.385667e-001 9.490095e-001 1.190030e+000 1.481777e+000 1.981318e+000 1.865880e+000 1.677058e+000 1.529434e+000 1.500626e+000 1.469353e+000 1.211877e+000 7.540944e-001 1.398091e-001 1.412655e-001 1.521007e-001 2.126537e-001 2.675580e-001 3.571711e-001 3.634781e-001 3.197851e-001 2.929659e-001 2.938584e-001 2.746612e-001 2.335793e-001 1.144504e-001
<GCONST> 1.040862e+002
<TRANSP> 5
 0.000000e+000 1.000000e+000 0.000000e+000 0.000000e+000 0.000000e+000
 0.000000e+000 6.000000e-001 4.000000e-001 0.000000e+000 0.000000e+000
 0.000000e+000 0.000000e+000 6.000000e-001 4.000000e-001 0.000000e+000
 0.000000e+000 0.000000e+000 0.000000e+000 7.000000e-001 3.000000e-001
 0.000000e+000 0.000000e+000 0.000000e+000 0.000000e+000 0.000000e+000
<ENDHMM>
~h "ai"
<BEGINHMM>
<NUMSTATES> 5
<STATE> 2
<MEAN> 39
 -7.882905e+000 -1.661237e+000 -1.009175e+000 -1.930420e+000 -2.801747e+000 -3.939636e-003 -3.489320e+000 -1.310613e+000 -5.399727e+000 -2.127840e+000 -2.349427e+000 -1.760942e+000 6.651322e+001 1.906061e-003 2.553094e-003 -2.478170e-003 2.536010e-003 -3.520633e-003 1.180791e-003 -5.806248e-004 -5.902871e-004 3.335247e-003 -2.220214e-003 2.771502e-003 -1.647123e-003 -4.431646e-004 -4.907154e-004 -6.222882e-004 -6.703453e-005 -5.706038e-004 3.706980e-004 -5.489043e-005 1.993648e-004 4.878137e-004 -6.845043e-004 -2.209887e-004 -3.796394e-004 -8.370532e-005 4.365041e-005
<VARIANCE> 39
 4.468856e+001 2.722493e+001 5.694174e+001 3.599084e+001 4.988737e+001 6.616839e+001 4.487501e+001 5.082950e+001 3.725814e+001 3.385480e+001 2.889206e+001 2.595412e+001 6.486427e+001 8.580743e-001 8.385667e-001 9.490095e-001 1.190030e+000 1.481777e+000 1.981318e+000 1.865880e+000 1.677058e+000 1.529434e+000 1.500626e+000 1.469353e+000 1.211877e+000 7.540944e-001 1.398091e-001 1.412655e-001 1.521007e-001 2.126537e-001 2.675580e-001 3.571711e-001 3.634781e-001 3.197851e-001 2.929659e-001 2.938584e-001 2.746612e-001 2.335793e-001 1.144504e-001
<GCONST> 1.040862e+002
<STATE> 3
<MEAN> 39
 -7.882905e+000 -1.661237e+000 -1.009175e+000 -1.930420e+000 -2.801747e+000 -3.939636e-003 -3.489320e+000 -1.310613e+000 -5.399727e+000 -2.127840e+000 -2.349427e+000 -1.760942e+000 6.651322e+001 1.906061e-003 2.553094e-003 -2.478170e-003 2.536010e-003 -3.520633e-003 1.180791e-003 -5.806248e-004 -5.902871e-004 3.335247e-003 -2.220214e-003 2.771502e-003 -1.647123e-003 -4.431646e-004 -4.907154e-004 -6.222882e-004 -6.703453e-005 -5.706038e-004 3.706980e-004 -5.489043e-005 1.993648e-004 4.878137e-004 -6.845043e-004 -2.209887e-004 -3.796394e-004 -8.370532e-005 4.365041e-005
<VARIANCE> 39
 4.468856e+001 2.722493e+001 5.694174e+001 3.599084e+001 4.988737e+001 6.616839e+001 4.487501e+001 5.082950e+001 3.725814e+001 3.385480e+001 2.889206e+001 2.595412e+001 6.486427e+001 8.580743e-001 8.385667e-001 9.490095e-001 1.190030e+000 1.481777e+000 1.981318e+000 1.865880e+000 1.677058e+000 1.529434e+000 1.500626e+000 1.469353e+000 1.211877e+000 7.540944e-001 1.398091e-001 1.412655e-001 1.521007e-001 2.126537e-001 2.675580e-001 3.571711e-001 3.634781e-001 3.197851e-001 2.929659e-001 2.938584e-001 2.746612e-001 2.335793e-001 1.144504e-001
<GCONST> 1.040862e+002
<STATE> 4
<MEAN> 39
 -7.882905e+000 -1.661237e+000 -1.009175e+000 -1.930420e+000 -2.801747e+000 -3.939636e-003 -3.489320e+000 -1.310613e+000 -5.399727e+000 -2.127840e+000 -2.349427e+000 -1.760942e+000 6.651322e+001 1.906061e-003 2.553094e-003 -2.478170e-003 2.536010e-003 -3.520633e-003 1.180791e-003 -5.806248e-004 -5.902871e-004 3.335247e-003 -2.220214e-003 2.771502e-003 -1.647123e-003 -4.431646e-004 -4.907154e-004 -6.222882e-004 -6.703453e-005 -5.706038e-004 3.706980e-004 -5.489043e-005 1.993648e-004 4.878137e-004 -6.845043e-004 -2.209887e-004 -3.796394e-004 -8.370532e-005 4.365041e-005
<VARIANCE> 39
 4.468856e+001 2.722493e+001 5.694174e+001 3.599084e+001 4.988737e+001 6.616839e+001 4.487501e+001 5.082950e+001 3.725814e+001 3.385480e+001 2.889206e+001 2.595412e+001 6.486427e+001 8.580743e-001 8.385667e-001 9.490095e-001 1.190030e+000 1.481777e+000 1.981318e+000 1.865880e+000 1.677058e+000 1.529434e+000 1.500626e+000 1.469353e+000 1.211877e+000 7.540944e-001 1.398091e-001 1.412655e-001 1.521007e-001 2.126537e-001 2.675580e-001 3.571711e-001 3.634781e-001 3.197851e-001 2.929659e-001 2.938584e-001 2.746612e-001 2.335793e-001 1.144504e-001
<GCONST> 1.040862e+002
<TRANSP> 5
 0.000000e+000 1.000000e+000 0.000000e+000 0.000000e+000 0.000000e+000
 0.000000e+000 6.000000e-001 4.000000e-001 0.000000e+000 0.000000e+000
 0.000000e+000 0.000000e+000 6.000000e-001 4.000000e-001 0.000000e+000
 0.000000e+000 0.000000e+000 0.000000e+000 7.000000e-001 3.000000e-001
 0.000000e+000 0.000000e+000 0.000000e+000 0.000000e+000 0.000000e+000
<ENDHMM>
~h "kh"
<BEGINHMM>
<NUMSTATES> 5
<STATE> 2
<MEAN> 39
 -7.882905e+000 -1.661237e+000 -1.009175e+000 -1.930420e+000 -2.801747e+000 -3.939636e-003 -3.489320e+000 -1.310613e+000 -5.399727e+000 -2.127840e+000 -2.349427e+000 -1.760942e+000 6.651322e+001 1.906061e-003 2.553094e-003 -2.478170e-003 2.536010e-003 -3.520633e-003 1.180791e-003 -5.806248e-004 -5.902871e-004 3.335247e-003 -2.220214e-003 2.771502e-003 -1.647123e-003 -4.431646e-004 -4.907154e-004 -6.222882e-004 -6.703453e-005 -5.706038e-004 3.706980e-004 -5.489043e-005 1.993648e-004 4.878137e-004 -6.845043e-004 -2.209887e-004 -3.796394e-004 -8.370532e-005 4.365041e-005
<VARIANCE> 39
 4.468856e+001 2.722493e+001 5.694174e+001 3.599084e+001 4.988737e+001 6.616839e+001 4.487501e+001 5.082950e+001 3.725814e+001 3.385480e+001 2.889206e+001 2.595412e+001 6.486427e+001 8.580743e-001 8.385667e-001 9.490095e-001 1.190030e+000 1.481777e+000 1.981318e+000 1.865880e+000 1.677058e+000 1.529434e+000 1.500626e+000 1.469353e+000 1.211877e+000 7.540944e-001 1.398091e-001 1.412655e-001 1.521007e-001 2.126537e-001 2.675580e-001 3.571711e-001 3.634781e-001 3.197851e-001 2.929659e-001 2.938584e-001 2.746612e-001 2.335793e-001 1.144504e-001
<GCONST> 1.040862e+002
<STATE> 3
<MEAN> 39
 -7.882905e+000 -1.661237e+000 -1.009175e+000 -1.930420e+000 -2.801747e+000 -3.939636e-003 -3.489320e+000 -1.310613e+000 -5.399727e+000 -2.127840e+000 -2.349427e+000 -1.760942e+000 6.651322e+001 1.906061e-003 2.553094e-003 -2.478170e-003 2.536010e-003 -3.520633e-003 1.180791e-003 -5.806248e-004 -5.902871e-004 3.335247e-003 -2.220214e-003 2.771502e-003 -1.647123e-003 -4.431646e-004 -4.907154e-004 -6.222882e-004 -6.703453e-005 -5.706038e-004 3.706980e-004 -5.489043e-005 1.993648e-004 4.878137e-004 -6.845043e-004 -2.209887e-004 -3.796394e-004 -8.370532e-005 4.365041e-005
<VARIANCE> 39
 4.468856e+001 2.722493e+001 5.694174e+001 3.599084e+001 4.988737e+001 6.616839e+001 4.487501e+001 5.082950e+001 3.725814e+001 3.385480e+001 2.889206e+001 2.595412e+001 6.486427e+001 8.580743e-001 8.385667e-001 9.490095e-001 1.190030e+000 1.481777e+000 1.981318e+000 1.865880e+000 1.677058e+000 1.529434e+000 1.500626e+000 1.469353e+000 1.211877e+000 7.540944e-001 1.398091e-001 1.412655e-001 1.521007e-001 2.126537e-001 2.675580e-001 3.571711e-001 3.634781e-001 3.197851e-001 2.929659e-001 2.938584e-001 2.746612e-001 2.335793e-001 1.144504e-001
<GCONST> 1.040862e+002
<STATE> 4
<MEAN> 39
 -7.882905e+000 -1.661237e+000 -1.009175e+000 -1.930420e+000 -2.801747e+000 -3.939636e-003 -3.489320e+000 -1.310613e+000 -5.399727e+000 -2.127840e+000 -2.349427e+000 -1.760942e+000 6.651322e+001 1.906061e-003 2.553094e-003 -2.478170e-003 2.536010e-003 -3.520633e-003 1.180791e-003 -5.806248e-004 -5.902871e-004 3.335247e-003 -2.220214e-003 2.771502e-003 -1.647123e-003 -4.431646e-004 -4.907154e-004 -6.222882e-004 -6.703453e-005 -5.706038e-004 3.706980e-004 -5.489043e-005 1.993648e-004 4.878137e-004 -6.845043e-004 -2.209887e-004 -3.796394e-004 -8.370532e-005 4.365041e-005
<VARIANCE> 39
 4.468856e+001 2.722493e+001 5.694174e+001 3.599084e+001 4.988737e+001 6.616839e+001 4.487501e+001 5.082950e+001 3.725814e+001 3.385480e+001 2.889206e+001 2.595412e+001 6.486427e+001 8.580743e-001 8.385667e-001 9.490095e-001 1.190030e+000 1.481777e+000 1.981318e+000 1.865880e+000 1.677058e+000 1.529434e+000 1.500626e+000 1.469353e+000 1.211877e+000 7.540944e-001 1.398091e-001 1.412655e-001 1.521007e-001 2.126537e-001 2.675580e-001 3.571711e-001 3.634781e-001 3.197851e-001 2.929659e-001 2.938584e-001 2.746612e-001 2.335793e-001 1.144504e-001
<GCONST> 1.040862e+002
<TRANSP> 5
 0.000000e+000 1.000000e+000 0.000000e+000 0.000000e+000 0.000000e+000
 0.000000e+000 6.000000e-001 4.000000e-001 0.000000e+000 0.000000e+000
 0.000000e+000 0.000000e+000 6.000000e-001 4.000000e-001 0.000000e+000
 0.000000e+000 0.000000e+000 0.000000e+000 7.000000e-001 3.000000e-001
 0.000000e+000 0.000000e+000 0.000000e+000 0.000000e+000 0.000000e+000
<ENDHMM>
~h "oo"
<BEGINHMM>
<NUMSTATES> 5
<STATE> 2
<MEAN> 39
 -7.882905e+000 -1.661237e+000 -1.009175e+000 -1.930420e+000 -2.801747e+000 -3.939636e-003 -3.489320e+000 -1.310613e+000 -5.399727e+000 -2.127840e+000 -2.349427e+000 -1.760942e+000 6.651322e+001 1.906061e-003 2.553094e-003 -2.478170e-003 2.536010e-003 -3.520633e-003 1.180791e-003 -5.806248e-004 -5.902871e-004 3.335247e-003 -2.220214e-003 2.771502e-003 -1.647123e-003 -4.431646e-004 -4.907154e-004 -6.222882e-004 -6.703453e-005 -5.706038e-004 3.706980e-004 -5.489043e-005 1.993648e-004 4.878137e-004 -6.845043e-004 -2.209887e-004 -3.796394e-004 -8.370532e-005 4.365041e-005
<VARIANCE> 39
 4.468856e+001 2.722493e+001 5.694174e+001 3.599084e+001 4.988737e+001 6.616839e+001 4.487501e+001 5.082950e+001 3.725814e+001 3.385480e+001 2.889206e+001 2.595412e+001 6.486427e+001 8.580743e-001 8.385667e-001 9.490095e-001 1.190030e+000 1.481777e+000 1.981318e+000 1.865880e+000 1.677058e+000 1.529434e+000 1.500626e+000 1.469353e+000 1.211877e+000 7.540944e-001 1.398091e-001 1.412655e-001 1.521007e-001 2.126537e-001 2.675580e-001 3.571711e-001 3.634781e-001 3.197851e-001 2.929659e-001 2.938584e-001 2.746612e-001 2.335793e-001 1.144504e-001
<GCONST> 1.040862e+002
<STATE> 3
<MEAN> 39
 -7.882905e+000 -1.661237e+000 -1.009175e+000 -1.930420e+000 -2.801747e+000 -3.939636e-003 -3.489320e+000 -1.310613e+000 -5.399727e+000 -2.127840e+000 -2.349427e+000 -1.760942e+000 6.651322e+001 1.906061e-003 2.553094e-003 -2.478170e-003 2.536010e-003 -3.520633e-003 1.180791e-003 -5.806248e-004 -5.902871e-004 3.335247e-003 -2.220214e-003 2.771502e-003 -1.647123e-003 -4.431646e-004 -4.907154e-004 -6.222882e-004 -6.703453e-005 -5.706038e-004 3.706980e-004 -5.489043e-005 1.993648e-004 4.878137e-004 -6.845043e-004 -2.209887e-004 -3.796394e-004 -8.370532e-005 4.365041e-005
<VARIANCE> 39
 4.468856e+001 2.722493e+001 5.694174e+001 3.599084e+001 4.988737e+001 6.616839e+001 4.487501e+001 5.082950e+001 3.725814e+001 3.385480e+001 2.889206e+001 2.595412e+001 6.486427e+001 8.580743e-001 8.385667e-001 9.490095e-001 1.190030e+000 1.481777e+000 1.981318e+000 1.865880e+000 1.677058e+000 1.529434e+000 1.500626e+000 1.469353e+000 1.211877e+000 7.540944e-001 1.398091e-001 1.412655e-001 1.521007e-001 2.126537e-001 2.675580e-001 3.571711e-001 3.634781e-001 3.197851e-001 2.929659e-001 2.938584e-001 2.746612e-001 2.335793e-001 1.144504e-001
<GCONST> 1.040862e+002
<STATE> 4
<MEAN> 39
 -7.882905e+000 -1.661237e+000 -1.009175e+000 -1.930420e+000 -2.801747e+000 -3.939636e-003 -3.489320e+000 -1.310613e+000 -5.399727e+000 -2.127840e+000 -2.349427e+000 -1.760942e+000 6.651322e+001 1.906061e-003 2.553094e-003 -2.478170e-003 2.536010e-003 -3.520633e-003 1.180791e-003 -5.806248e-004 -5.902871e-004 3.335247e-003 -2.220214e-003 2.771502e-003 -1.647123e-003 -4.431646e-004 -4.907154e-004 -6.222882e-004 -6.703453e-005 -5.706038e-004 3.706980e-004 -5.489043e-005 1.993648e-004 4.878137e-004 -6.845043e-004 -2.209887e-004 -3.796394e-004 -8.370532e-005 4.365041e-005
<VARIANCE> 39
 4.468856e+001 2.722493e+001 5.694174e+001 3.599084e+001 4.988737e+001 6.616839e+001 4.487501e+001 5.082950e+001 3.725814e+001 3.385480e+001 2.889206e+001 2.595412e+001 6.486427e+001 8.580743e-001 8.385667e-001 9.490095e-001 1.190030e+000 1.481777e+000 1.981318e+000 1.865880e+000 1.677058e+000 1.529434e+000 1.500626e+000 1.469353e+000 1.211877e+000 7.540944e-001 1.398091e-001 1.412655e-001 1.521007e-001 2.126537e-001 2.675580e-001 3.571711e-001 3.634781e-001 3.197851e-001 2.929659e-001 2.938584e-001 2.746612e-001 2.335793e-001 1.144504e-001
<GCONST> 1.040862e+002
<TRANSP> 5
 0.000000e+000 1.000000e+000 0.000000e+000 0.000000e+000 0.000000e+000
 0.000000e+000 6.000000e-001 4.000000e-001 0.000000e+000 0.000000e+000
 0.000000e+000 0.000000e+000 6.000000e-001 4.000000e-001 0.000000e+000
 0.000000e+000 0.000000e+000 0.000000e+000 7.000000e-001 3.000000e-001
 0.000000e+000 0.000000e+000 0.000000e+000 0.000000e+000 0.000000e+000
<ENDHMM>
~h "ng"
<BEGINHMM>
<NUMSTATES> 5
<STATE> 2
<MEAN> 39
 -7.882905e+000 -1.661237e+000 -1.009175e+000 -1.930420e+000 -2.801747e+000 -3.939636e-003 -3.489320e+000 -1.310613e+000 -5.399727e+000 -2.127840e+000 -2.349427e+000 -1.760942e+000 6.651322e+001 1.906061e-003 2.553094e-003 -2.478170e-003 2.536010e-003 -3.520633e-003 1.180791e-003 -5.806248e-004 -5.902871e-004 3.335247e-003 -2.220214e-003 2.771502e-003 -1.647123e-003 -4.431646e-004 -4.907154e-004 -6.222882e-004 -6.703453e-005 -5.706038e-004 3.706980e-004 -5.489043e-005 1.993648e-004 4.878137e-004 -6.845043e-004 -2.209887e-004 -3.796394e-004 -8.370532e-005 4.365041e-005
<VARIANCE> 39
 4.468856e+001 2.722493e+001 5.694174e+001 3.599084e+001 4.988737e+001 6.616839e+001 4.487501e+001 5.082950e+001 3.725814e+001 3.385480e+001 2.889206e+001 2.595412e+001 6.486427e+001 8.580743e-001 8.385667e-001 9.490095e-001 1.190030e+000 1.481777e+000 1.981318e+000 1.865880e+000 1.677058e+000 1.529434e+000 1.500626e+000 1.469353e+000 1.211877e+000 7.540944e-001 1.398091e-001 1.412655e-001 1.521007e-001 2.126537e-001 2.675580e-001 3.571711e-001 3.634781e-001 3.197851e-001 2.929659e-001 2.938584e-001 2.746612e-001 2.335793e-001 1.144504e-001
<GCONST> 1.040862e+002
<STATE> 3
<MEAN> 39
 -7.882905e+000 -1.661237e+000 -1.009175e+000 -1.930420e+000 -2.801747e+000 -3.939636e-003 -3.489320e+000 -1.310613e+000 -5.399727e+000 -2.127840e+000 -2.349427e+000 -1.760942e+000 6.651322e+001 1.906061e-003 2.553094e-003 -2.478170e-003 2.536010e-003 -3.520633e-003 1.180791e-003 -5.806248e-004 -5.902871e-004 3.335247e-003 -2.220214e-003 2.771502e-003 -1.647123e-003 -4.431646e-004 -4.907154e-004 -6.222882e-004 -6.703453e-005 -5.706038e-004 3.706980e-004 -5.489043e-005 1.993648e-004 4.878137e-004 -6.845043e-004 -2.209887e-004 -3.796394e-004 -8.370532e-005 4.365041e-005
<VARIANCE> 39
 4.468856e+001 2.722493e+001 5.694174e+001 3.599084e+001 4.988737e+001 6.616839e+001 4.487501e+001 5.082950e+001 3.725814e+001 3.385480e+001 2.889206e+001 2.595412e+001 6.486427e+001 8.580743e-001 8.385667e-001 9.490095e-001 1.190030e+000 1.481777e+000 1.981318e+000 1.865880e+000 1.677058e+000 1.529434e+000 1.500626e+000 1.469353e+000 1.211877e+000 7.540944e-001 1.398091e-001 1.412655e-001 1.521007e-001 2.126537e-001 2.675580e-001 3.571711e-001 3.634781e-001 3.197851e-001 2.929659e-001 2.938584e-001 2.746612e-001 2.335793e-001 1.144504e-001
<GCONST> 1.040862e+002
<STATE> 4
<MEAN> 39
 -7.882905e+000 -1.661237e+000 -1.009175e+000 -1.930420e+000 -2.801747e+000 -3.939636e-003 -3.489320e+000 -1.310613e+000 -5.399727e+000 -2.127840e+000 -2.349427e+000 -1.760942e+000 6.651322e+001 1.906061e-003 2.553094e-003 -2.478170e-003 2.536010e-003 -3.520633e-003 1.180791e-003 -5.806248e-004 -5.902871e-004 3.335247e-003 -2.220214e-003 2.771502e-003 -1.647123e-003 -4.431646e-004 -4.907154e-004 -6.222882e-004 -6.703453e-005 -5.706038e-004 3.706980e-004 -5.489043e-005 1.993648e-004 4.878137e-004 -6.845043e-004 -2.209887e-004 -3.796394e-004 -8.370532e-005 4.365041e-005
<VARIANCE> 39
 4.468856e+001 2.722493e+001 5.694174e+001 3.599084e+001 4.988737e+001 6.616839e+001 4.487501e+001 5.082950e+001 3.725814e+001 3.385480e+001 2.889206e+001 2.595412e+001 6.486427e+001 8.580743e-001 8.385667e-001 9.490095e-001 1.190030e+000 1.481777e+000 1.981318e+000 1.865880e+000 1.677058e+000 1.529434e+000 1.500626e+000 1.469353e+000 1.211877e+000 7.540944e-001 1.398091e-001 1.412655e-001 1.521007e-001 2.126537e-001 2.675580e-001 3.571711e-001 3.634781e-001 3.197851e-001 2.929659e-001 2.938584e-001 2.746612e-001 2.335793e-001 1.144504e-001
<GCONST> 1.040862e+002
<TRANSP> 5
 0.000000e+000 1.000000e+000 0.000000e+000 0.000000e+000 0.000000e+000
 0.000000e+000 6.000000e-001 4.000000e-001 0.000000e+000 0.000000e+000
 0.000000e+000 0.000000e+000 6.000000e-001 4.000000e-001 0.000000e+000
 0.000000e+000 0.000000e+000 0.000000e+000 7.000000e-001 3.000000e-001
 0.000000e+000 0.000000e+000 0.000000e+000 0.000000e+000 0.000000e+000
<ENDHMM>
~h "m"
<BEGINHMM>
<NUMSTATES> 5
<STATE> 2
<MEAN> 39
 -7.882905e+000 -1.661237e+000 -1.009175e+000 -1.930420e+000 -2.801747e+000 -3.939636e-003 -3.489320e+000 -1.310613e+000 -5.399727e+000 -2.127840e+000 -2.349427e+000 -1.760942e+000 6.651322e+001 1.906061e-003 2.553094e-003 -2.478170e-003 2.536010e-003 -3.520633e-003 1.180791e-003 -5.806248e-004 -5.902871e-004 3.335247e-003 -2.220214e-003 2.771502e-003 -1.647123e-003 -4.431646e-004 -4.907154e-004 -6.222882e-004 -6.703453e-005 -5.706038e-004 3.706980e-004 -5.489043e-005 1.993648e-004 4.878137e-004 -6.845043e-004 -2.209887e-004 -3.796394e-004 -8.370532e-005 4.365041e-005
<VARIANCE> 39
 4.468856e+001 2.722493e+001 5.694174e+001 3.599084e+001 4.988737e+001 6.616839e+001 4.487501e+001 5.082950e+001 3.725814e+001 3.385480e+001 2.889206e+001 2.595412e+001 6.486427e+001 8.580743e-001 8.385667e-001 9.490095e-001 1.190030e+000 1.481777e+000 1.981318e+000 1.865880e+000 1.677058e+000 1.529434e+000 1.500626e+000 1.469353e+000 1.211877e+000 7.540944e-001 1.398091e-001 1.412655e-001 1.521007e-001 2.126537e-001 2.675580e-001 3.571711e-001 3.634781e-001 3.197851e-001 2.929659e-001 2.938584e-001 2.746612e-001 2.335793e-001 1.144504e-001
<GCONST> 1.040862e+002
<STATE> 3
<MEAN> 39
 -7.882905e+000 -1.661237e+000 -1.009175e+000 -1.930420e+000 -2.801747e+000 -3.939636e-003 -3.489320e+000 -1.310613e+000 -5.399727e+000 -2.127840e+000 -2.349427e+000 -1.760942e+000 6.651322e+001 1.906061e-003 2.553094e-003 -2.478170e-003 2.536010e-003 -3.520633e-003 1.180791e-003 -5.806248e-004 -5.902871e-004 3.335247e-003 -2.220214e-003 2.771502e-003 -1.647123e-003 -4.431646e-004 -4.907154e-004 -6.222882e-004 -6.703453e-005 -5.706038e-004 3.706980e-004 -5.489043e-005 1.993648e-004 4.878137e-004 -6.845043e-004 -2.209887e-004 -3.796394e-004 -8.370532e-005 4.365041e-005
<VARIANCE> 39
 4.468856e+001 2.722493e+001 5.694174e+001 3.599084e+001 4.988737e+001 6.616839e+001 4.487501e+001 5.082950e+001 3.725814e+001 3.385480e+001 2.889206e+001 2.595412e+001 6.486427e+001 8.580743e-001 8.385667e-001 9.490095e-001 1.190030e+000 1.481777e+000 1.981318e+000 1.865880e+000 1.677058e+000 1.529434e+000 1.500626e+000 1.469353e+000 1.211877e+000 7.540944e-001 1.398091e-001 1.412655e-001 1.521007e-001 2.126537e-001 2.675580e-001 3.571711e-001 3.634781e-001 3.197851e-001 2.929659e-001 2.938584e-001 2.746612e-001 2.335793e-001 1.144504e-001
<GCONST> 1.040862e+002
<STATE> 4
<MEAN> 39
 -7.882905e+000 -1.661237e+000 -1.009175e+000 -1.930420e+000 -2.801747e+000 -3.939636e-003 -3.489320e+000 -1.310613e+000 -5.399727e+000 -2.127840e+000 -2.349427e+000 -1.760942e+000 6.651322e+001 1.906061e-003 2.553094e-003 -2.478170e-003 2.536010e-003 -3.520633e-003 1.180791e-003 -5.806248e-004 -5.902871e-004 3.335247e-003 -2.220214e-003 2.771502e-003 -1.647123e-003 -4.431646e-004 -4.907154e-004 -6.222882e-004 -6.703453e-005 -5.706038e-004 3.706980e-004 -5.489043e-005 1.993648e-004 4.878137e-004 -6.845043e-004 -2.209887e-004 -3.796394e-004 -8.370532e-005 4.365041e-005
<VARIANCE> 39
 4.468856e+001 2.722493e+001 5.694174e+001 3.599084e+001 4.988737e+001 6.616839e+001 4.487501e+001 5.082950e+001 3.725814e+001 3.385480e+001 2.889206e+001 2.595412e+001 6.486427e+001 8.580743e-001 8.385667e-001 9.490095e-001 1.190030e+000 1.481777e+000 1.981318e+000 1.865880e+000 1.677058e+000 1.529434e+000 1.500626e+000 1.469353e+000 1.211877e+000 7.540944e-001 1.398091e-001 1.412655e-001 1.521007e-001 2.126537e-001 2.675580e-001 3.571711e-001 3.634781e-001 3.197851e-001 2.929659e-001 2.938584e-001 2.746612e-001 2.335793e-001 1.144504e-001
<GCONST> 1.040862e+002
<TRANSP> 5
 0.000000e+000 1.000000e+000 0.000000e+000 0.000000e+000 0.000000e+000
 0.000000e+000 6.000000e-001 4.000000e-001 0.000000e+000 0.000000e+000
 0.000000e+000 0.000000e+000 6.000000e-001 4.000000e-001 0.000000e+000
 0.000000e+000 0.000000e+000 0.000000e+000 7.000000e-001 3.000000e-001
 0.000000e+000 0.000000e+000 0.000000e+000 0.000000e+000 0.000000e+000
<ENDHMM>
~h "ooj"
<BEGINHMM>
<NUMSTATES> 5
<STATE> 2
<MEAN> 39
 -7.882905e+000 -1.661237e+000 -1.009175e+000 -1.930420e+000 -2.801747e+000 -3.939636e-003 -3.489320e+000 -1.310613e+000 -5.399727e+000 -2.127840e+000 -2.349427e+000 -1.760942e+000 6.651322e+001 1.906061e-003 2.553094e-003 -2.478170e-003 2.536010e-003 -3.520633e-003 1.180791e-003 -5.806248e-004 -5.902871e-004 3.335247e-003 -2.220214e-003 2.771502e-003 -1.647123e-003 -4.431646e-004 -4.907154e-004 -6.222882e-004 -6.703453e-005 -5.706038e-004 3.706980e-004 -5.489043e-005 1.993648e-004 4.878137e-004 -6.845043e-004 -2.209887e-004 -3.796394e-004 -8.370532e-005 4.365041e-005
<VARIANCE> 39
 4.468856e+001 2.722493e+001 5.694174e+001 3.599084e+001 4.988737e+001 6.616839e+001 4.487501e+001 5.082950e+001 3.725814e+001 3.385480e+001 2.889206e+001 2.595412e+001 6.486427e+001 8.580743e-001 8.385667e-001 9.490095e-001 1.190030e+000 1.481777e+000 1.981318e+000 1.865880e+000 1.677058e+000 1.529434e+000 1.500626e+000 1.469353e+000 1.211877e+000 7.540944e-001 1.398091e-001 1.412655e-001 1.521007e-001 2.126537e-001 2.675580e-001 3.571711e-001 3.634781e-001 3.197851e-001 2.929659e-001 2.938584e-001 2.746612e-001 2.335793e-001 1.144504e-001
<GCONST> 1.040862e+002
<STATE> 3
<MEAN> 39
 -7.882905e+000 -1.661237e+000 -1.009175e+000 -1.930420e+000 -2.801747e+000 -3.939636e-003 -3.489320e+000 -1.310613e+000 -5.399727e+000 -2.127840e+000 -2.349427e+000 -1.760942e+000 6.651322e+001 1.906061e-003 2.553094e-003 -2.478170e-003 2.536010e-003 -3.520633e-003 1.180791e-003 -5.806248e-004 -5.902871e-004 3.335247e-003 -2.220214e-003 2.771502e-003 -1.647123e-003 -4.431646e-004 -4.907154e-004 -6.222882e-004 -6.703453e-005 -5.706038e-004 3.706980e-004 -5.489043e-005 1.993648e-004 4.878137e-004 -6.845043e-004 -2.209887e-004 -3.796394e-004 -8.370532e-005 4.365041e-005
<VARIANCE> 39
 4.468856e+001 2.722493e+001 5.694174e+001 3.599084e+001 4.988737e+001 6.616839e+001 4.487501e+001 5.082950e+001 3.725814e+001 3.385480e+001 2.889206e+001 2.595412e+001 6.486427e+001 8.580743e-001 8.385667e-001 9.490095e-001 1.190030e+000 1.481777e+000 1.981318e+000 1.865880e+000 1.677058e+000 1.529434e+000 1.500626e+000 1.469353e+000 1.211877e+000 7.540944e-001 1.398091e-001 1.412655e-001 1.521007e-001 2.126537e-001 2.675580e-001 3.571711e-001 3.634781e-001 3.197851e-001 2.929659e-001 2.938584e-001 2.746612e-001 2.335793e-001 1.144504e-001
<GCONST> 1.040862e+002
<STATE> 4
<MEAN> 39
 -7.882905e+000 -1.661237e+000 -1.009175e+000 -1.930420e+000 -2.801747e+000 -3.939636e-003 -3.489320e+000 -1.310613e+000 -5.399727e+000 -2.127840e+000 -2.349427e+000 -1.760942e+000 6.651322e+001 1.906061e-003 2.553094e-003 -2.478170e-003 2.536010e-003 -3.520633e-003 1.180791e-003 -5.806248e-004 -5.902871e-004 3.335247e-003 -2.220214e-003 2.771502e-003 -1.647123e-003 -4.431646e-004 -4.907154e-004 -6.222882e-004 -6.703453e-005 -5.706038e-004 3.706980e-004 -5.489043e-005 1.993648e-004 4.878137e-004 -6.845043e-004 -2.209887e-004 -3.796394e-004 -8.370532e-005 4.365041e-005
<VARIANCE> 39
 4.468856e+001 2.722493e+001 5.694174e+001 3.599084e+001 4.988737e+001 6.616839e+001 4.487501e+001 5.082950e+001 3.725814e+001 3.385480e+001 2.889206e+001 2.595412e+001 6.486427e+001 8.580743e-001 8.385667e-001 9.490095e-001 1.190030e+000 1.481777e+000 1.981318e+000 1.865880e+000 1.677058e+000 1.529434e+000 1.500626e+000 1.469353e+000 1.211877e+000 7.540944e-001 1.398091e-001 1.412655e-001 1.521007e-001 2.126537e-001 2.675580e-001 3.571711e-001 3.634781e-001 3.197851e-001 2.929659e-001 2.938584e-001 2.746612e-001 2.335793e-001 1.144504e-001
<GCONST> 1.040862e+002
<TRANSP> 5
 0.000000e+000 1.000000e+000 0.000000e+000 0.000000e+000 0.000000e+000
 0.000000e+000 6.000000e-001 4.000000e-001 0.000000e+000 0.000000e+000
 0.000000e+000 0.000000e+000 6.000000e-001 4.000000e-001 0.000000e+000
 0.000000e+000 0.000000e+000 0.000000e+000 7.000000e-001 3.000000e-001
 0.000000e+000 0.000000e+000 0.000000e+000 0.000000e+000 0.000000e+000
<ENDHMM>
~h "t"
<BEGINHMM>
<NUMSTATES> 5
<STATE> 2
<MEAN> 39
 -7.882905e+000 -1.661237e+000 -1.009175e+000 -1.930420e+000 -2.801747e+000 -3.939636e-003 -3.489320e+000 -1.310613e+000 -5.399727e+000 -2.127840e+000 -2.349427e+000 -1.760942e+000 6.651322e+001 1.906061e-003 2.553094e-003 -2.478170e-003 2.536010e-003 -3.520633e-003 1.180791e-003 -5.806248e-004 -5.902871e-004 3.335247e-003 -2.220214e-003 2.771502e-003 -1.647123e-003 -4.431646e-004 -4.907154e-004 -6.222882e-004 -6.703453e-005 -5.706038e-004 3.706980e-004 -5.489043e-005 1.993648e-004 4.878137e-004 -6.845043e-004 -2.209887e-004 -3.796394e-004 -8.370532e-005 4.365041e-005
<VARIANCE> 39
 4.468856e+001 2.722493e+001 5.694174e+001 3.599084e+001 4.988737e+001 6.616839e+001 4.487501e+001 5.082950e+001 3.725814e+001 3.385480e+001 2.889206e+001 2.595412e+001 6.486427e+001 8.580743e-001 8.385667e-001 9.490095e-001 1.190030e+000 1.481777e+000 1.981318e+000 1.865880e+000 1.677058e+000 1.529434e+000 1.500626e+000 1.469353e+000 1.211877e+000 7.540944e-001 1.398091e-001 1.412655e-001 1.521007e-001 2.126537e-001 2.675580e-001 3.571711e-001 3.634781e-001 3.197851e-001 2.929659e-001 2.938584e-001 2.746612e-001 2.335793e-001 1.144504e-001
<GCONST> 1.040862e+002
<STATE> 3
<MEAN> 39
 -7.882905e+000 -1.661237e+000 -1.009175e+000 -1.930420e+000 -2.801747e+000 -3.939636e-003 -3.489320e+000 -1.310613e+000 -5.399727e+000 -2.127840e+000 -2.349427e+000 -1.760942e+000 6.651322e+001 1.906061e-003 2.553094e-003 -2.478170e-003 2.536010e-003 -3.520633e-003 1.180791e-003 -5.806248e-004 -5.902871e-004 3.335247e-003 -2.220214e-003 2.771502e-003 -1.647123e-003 -4.431646e-004 -4.907154e-004 -6.222882e-004 -6.703453e-005 -5.706038e-004 3.706980e-004 -5.489043e-005 1.993648e-004 4.878137e-004 -6.845043e-004 -2.209887e-004 -3.796394e-004 -8.370532e-005 4.365041e-005
<VARIANCE> 39
 4.468856e+001 2.722493e+001 5.694174e+001 3.599084e+001 4.988737e+001 6.616839e+001 4.487501e+001 5.082950e+001 3.725814e+001 3.385480e+001 2.889206e+001 2.595412e+001 6.486427e+001 8.580743e-001 8.385667e-001 9.490095e-001 1.190030e+000 1.481777e+000 1.981318e+000 1.865880e+000 1.677058e+000 1.529434e+000 1.500626e+000 1.469353e+000 1.211877e+000 7.540944e-001 1.398091e-001 1.412655e-001 1.521007e-001 2.126537e-001 2.675580e-001 3.571711e-001 3.634781e-001 3.197851e-001 2.929659e-001 2.938584e-001 2.746612e-001 2.335793e-001 1.144504e-001
<GCONST> 1.040862e+002
<STATE> 4
<MEAN> 39
 -7.882905e+000 -1.661237e+000 -1.009175e+000 -1.930420e+000 -2.801747e+000 -3.939636e-003 -3.489320e+000 -1.310613e+000 -5.399727e+000 -2.127840e+000 -2.349427e+000 -1.760942e+000 6.651322e+001 1.906061e-003 2.553094e-003 -2.478170e-003 2.536010e-003 -3.520633e-003 1.180791e-003 -5.806248e-004 -5.902871e-004 3.335247e-003 -2.220214e-003 2.771502e-003 -1.647123e-003 -4.431646e-004 -4.907154e-004 -6.222882e-004 -6.703453e-005 -5.706038e-004 3.706980e-004 -5.489043e-005 1.993648e-004 4.878137e-004 -6.845043e-004 -2.209887e-004 -3.796394e-004 -8.370532e-005 4.365041e-005
<VARIANCE> 39
 4.468856e+001 2.722493e+001 5.694174e+001 3.599084e+001 4.988737e+001 6.616839e+001 4.487501e+001 5.082950e+001 3.725814e+001 3.385480e+001 2.889206e+001 2.595412e+001 6.486427e+001 8.580743e-001 8.385667e-001 9.490095e-001 1.190030e+000 1.481777e+000 1.981318e+000 1.865880e+000 1.677058e+000 1.529434e+000 1.500626e+000 1.469353e+000 1.211877e+000 7.540944e-001 1.398091e-001 1.412655e-001 1.521007e-001 2.126537e-001 2.675580e-001 3.571711e-001 3.634781e-001 3.197851e-001 2.929659e-001 2.938584e-001 2.746612e-001 2.335793e-001 1.144504e-001
<GCONST> 1.040862e+002
<TRANSP> 5
 0.000000e+000 1.000000e+000 0.000000e+000 0.000000e+000 0.000000e+000
 0.000000e+000 6.000000e-001 4.000000e-001 0.000000e+000 0.000000e+000
 0.000000e+000 0.000000e+000 6.000000e-001 4.000000e-001 0.000000e+000
 0.000000e+000 0.000000e+000 0.000000e+000 7.000000e-001 3.000000e-001
 0.000000e+000 0.000000e+000 0.000000e+000 0.000000e+000 0.000000e+000
<ENDHMM>
~h "aw"
<BEGINHMM>
<NUMSTATES> 5
<STATE> 2
<MEAN> 39
 -7.882905e+000 -1.661237e+000 -1.009175e+000 -1.930420e+000 -2.801747e+000 -3.939636e-003 -3.489320e+000 -1.310613e+000 -5.399727e+000 -2.127840e+000 -2.349427e+000 -1.760942e+000 6.651322e+001 1.906061e-003 2.553094e-003 -2.478170e-003 2.536010e-003 -3.520633e-003 1.180791e-003 -5.806248e-004 -5.902871e-004 3.335247e-003 -2.220214e-003 2.771502e-003 -1.647123e-003 -4.431646e-004 -4.907154e-004 -6.222882e-004 -6.703453e-005 -5.706038e-004 3.706980e-004 -5.489043e-005 1.993648e-004 4.878137e-004 -6.845043e-004 -2.209887e-004 -3.796394e-004 -8.370532e-005 4.365041e-005
<VARIANCE> 39
 4.468856e+001 2.722493e+001 5.694174e+001 3.599084e+001 4.988737e+001 6.616839e+001 4.487501e+001 5.082950e+001 3.725814e+001 3.385480e+001 2.889206e+001 2.595412e+001 6.486427e+001 8.580743e-001 8.385667e-001 9.490095e-001 1.190030e+000 1.481777e+000 1.981318e+000 1.865880e+000 1.677058e+000 1.529434e+000 1.500626e+000 1.469353e+000 1.211877e+000 7.540944e-001 1.398091e-001 1.412655e-001 1.521007e-001 2.126537e-001 2.675580e-001 3.571711e-001 3.634781e-001 3.197851e-001 2.929659e-001 2.938584e-001 2.746612e-001 2.335793e-001 1.144504e-001
<GCONST> 1.040862e+002
<STATE> 3
<MEAN> 39
 -7.882905e+000 -1.661237e+000 -1.009175e+000 -1.930420e+000 -2.801747e+000 -3.939636e-003 -3.489320e+000 -1.310613e+000 -5.399727e+000 -2.127840e+000 -2.349427e+000 -1.760942e+000 6.651322e+001 1.906061e-003 2.553094e-003 -2.478170e-003 2.536010e-003 -3.520633e-003 1.180791e-003 -5.806248e-004 -5.902871e-004 3.335247e-003 -2.220214e-003 2.771502e-003 -1.647123e-003 -4.431646e-004 -4.907154e-004 -6.222882e-004 -6.703453e-005 -5.706038e-004 3.706980e-004 -5.489043e-005 1.993648e-004 4.878137e-004 -6.845043e-004 -2.209887e-004 -3.796394e-004 -8.370532e-005 4.365041e-005
<VARIANCE> 39
 4.468856e+001 2.722493e+001 5.694174e+001 3.599084e+001 4.988737e+001 6.616839e+001 4.487501e+001 5.082950e+001 3.725814e+001 3.385480e+001 2.889206e+001 2.595412e+001 6.486427e+001 8.580743e-001 8.385667e-001 9.490095e-001 1.190030e+000 1.481777e+000 1.981318e+000 1.865880e+000 1.677058e+000 1.529434e+000 1.500626e+000 1.469353e+000 1.211877e+000 7.540944e-001 1.398091e-001 1.412655e-001 1.521007e-001 2.126537e-001 2.675580e-001 3.571711e-001 3.634781e-001 3.197851e-001 2.929659e-001 2.938584e-001 2.746612e-001 2.335793e-001 1.144504e-001
<GCONST> 1.040862e+002
<STATE> 4
<MEAN> 39
 -7.882905e+000 -1.661237e+000 -1.009175e+000 -1.930420e+000 -2.801747e+000 -3.939636e-003 -3.489320e+000 -1.310613e+000 -5.399727e+000 -2.127840e+000 -2.349427e+000 -1.760942e+000 6.651322e+001 1.906061e-003 2.553094e-003 -2.478170e-003 2.536010e-003 -3.520633e-003 1.180791e-003 -5.806248e-004 -5.902871e-004 3.335247e-003 -2.220214e-003 2.771502e-003 -1.647123e-003 -4.431646e-004 -4.907154e-004 -6.222882e-004 -6.703453e-005 -5.706038e-004 3.706980e-004 -5.489043e-005 1.993648e-004 4.878137e-004 -6.845043e-004 -2.209887e-004 -3.796394e-004 -8.370532e-005 4.365041e-005
<VARIANCE> 39
 4.468856e+001 2.722493e+001 5.694174e+001 3.599084e+001 4.988737e+001 6.616839e+001 4.487501e+001 5.082950e+001 3.725814e+001 3.385480e+001 2.889206e+001 2.595412e+001 6.486427e+001 8.580743e-001 8.385667e-001 9.490095e-001 1.190030e+000 1.481777e+000 1.981318e+000 1.865880e+000 1.677058e+000 1.529434e+000 1.500626e+000 1.469353e+000 1.211877e+000 7.540944e-001 1.398091e-001 1.412655e-001 1.521007e-001 2.126537e-001 2.675580e-001 3.571711e-001 3.634781e-001 3.197851e-001 2.929659e-001 2.938584e-001 2.746612e-001 2.335793e-001 1.144504e-001
<GCONST> 1.040862e+002
<TRANSP> 5
 0.000000e+000 1.000000e+000 0.000000e+000 0.000000e+000 0.000000e+000
 0.000000e+000 6.000000e-001 4.000000e-001 0.000000e+000 0.000000e+000
 0.000000e+000 0.000000e+000 6.000000e-001 4.000000e-001 0.000000e+000
 0.000000e+000 0.000000e+000 0.000000e+000 7.000000e-001 3.000000e-001
 0.000000e+000 0.000000e+000 0.000000e+000 0.000000e+000 0.000000e+000
<ENDHMM>
~h "s"
<BEGINHMM>
<NUMSTATES> 5
<STATE> 2
<MEAN> 39
 -7.882905e+000 -1.661237e+000 -1.009175e+000 -1.930420e+000 -2.801747e+000 -3.939636e-003 -3.489320e+000 -1.310613e+000 -5.399727e+000 -2.127840e+000 -2.349427e+000 -1.760942e+000 6.651322e+001 1.906061e-003 2.553094e-003 -2.478170e-003 2.536010e-003 -3.520633e-003 1.180791e-003 -5.806248e-004 -5.902871e-004 3.335247e-003 -2.220214e-003 2.771502e-003 -1.647123e-003 -4.431646e-004 -4.907154e-004 -6.222882e-004 -6.703453e-005 -5.706038e-004 3.706980e-004 -5.489043e-005 1.993648e-004 4.878137e-004 -6.845043e-004 -2.209887e-004 -3.796394e-004 -8.370532e-005 4.365041e-005
<VARIANCE> 39
 4.468856e+001 2.722493e+001 5.694174e+001 3.599084e+001 4.988737e+001 6.616839e+001 4.487501e+001 5.082950e+001 3.725814e+001 3.385480e+001 2.889206e+001 2.595412e+001 6.486427e+001 8.580743e-001 8.385667e-001 9.490095e-001 1.190030e+000 1.481777e+000 1.981318e+000 1.865880e+000 1.677058e+000 1.529434e+000 1.500626e+000 1.469353e+000 1.211877e+000 7.540944e-001 1.398091e-001 1.412655e-001 1.521007e-001 2.126537e-001 2.675580e-001 3.571711e-001 3.634781e-001 3.197851e-001 2.929659e-001 2.938584e-001 2.746612e-001 2.335793e-001 1.144504e-001
<GCONST> 1.040862e+002
<STATE> 3
<MEAN> 39
 -7.882905e+000 -1.661237e+000 -1.009175e+000 -1.930420e+000 -2.801747e+000 -3.939636e-003 -3.489320e+000 -1.310613e+000 -5.399727e+000 -2.127840e+000 -2.349427e+000 -1.760942e+000 6.651322e+001 1.906061e-003 2.553094e-003 -2.478170e-003 2.536010e-003 -3.520633e-003 1.180791e-003 -5.806248e-004 -5.902871e-004 3.335247e-003 -2.220214e-003 2.771502e-003 -1.647123e-003 -4.431646e-004 -4.907154e-004 -6.222882e-004 -6.703453e-005 -5.706038e-004 3.706980e-004 -5.489043e-005 1.993648e-004 4.878137e-004 -6.845043e-004 -2.209887e-004 -3.796394e-004 -8.370532e-005 4.365041e-005
<VARIANCE> 39
 4.468856e+001 2.722493e+001 5.694174e+001 3.599084e+001 4.988737e+001 6.616839e+001 4.487501e+001 5.082950e+001 3.725814e+001 3.385480e+001 2.889206e+001 2.595412e+001 6.486427e+001 8.580743e-001 8.385667e-001 9.490095e-001 1.190030e+000 1.481777e+000 1.981318e+000 1.865880e+000 1.677058e+000 1.529434e+000 1.500626e+000 1.469353e+000 1.211877e+000 7.540944e-001 1.398091e-001 1.412655e-001 1.521007e-001 2.126537e-001 2.675580e-001 3.571711e-001 3.634781e-001 3.197851e-001 2.929659e-001 2.938584e-001 2.746612e-001 2.335793e-001 1.144504e-001
<GCONST> 1.040862e+002
<STATE> 4
<MEAN> 39
 -7.882905e+000 -1.661237e+000 -1.009175e+000 -1.930420e+000 -2.801747e+000 -3.939636e-003 -3.489320e+000 -1.310613e+000 -5.399727e+000 -2.127840e+000 -2.349427e+000 -1.760942e+000 6.651322e+001 1.906061e-003 2.553094e-003 -2.478170e-003 2.536010e-003 -3.520633e-003 1.180791e-003 -5.806248e-004 -5.902871e-004 3.335247e-003 -2.220214e-003 2.771502e-003 -1.647123e-003 -4.431646e-004 -4.907154e-004 -6.222882e-004 -6.703453e-005 -5.706038e-004 3.706980e-004 -5.489043e-005 1.993648e-004 4.878137e-004 -6.845043e-004 -2.209887e-004 -3.796394e-004 -8.370532e-005 4.365041e-005
<VARIANCE> 39
 4.468856e+001 2.722493e+001 5.694174e+001 3.599084e+001 4.988737e+001 6.616839e+001 4.487501e+001 5.082950e+001 3.725814e+001 3.385480e+001 2.889206e+001 2.595412e+001 6.486427e+001 8.580743e-001 8.385667e-001 9.490095e-001 1.190030e+000 1.481777e+000 1.981318e+000 1.865880e+000 1.677058e+000 1.529434e+000 1.500626e+000 1.469353e+000 1.211877e+000 7.540944e-001 1.398091e-001 1.412655e-001 1.521007e-001 2.126537e-001 2.675580e-001 3.571711e-001 3.634781e-001 3.197851e-001 2.929659e-001 2.938584e-001 2.746612e-001 2.335793e-001 1.144504e-001
<GCONST> 1.040862e+002
<TRANSP> 5
 0.000000e+000 1.000000e+000 0.000000e+000 0.000000e+000 0.000000e+000
 0.000000e+000 6.000000e-001 4.000000e-001 0.000000e+000 0.000000e+000
 0.000000e+000 0.000000e+000 6.000000e-001 4.000000e-001 0.000000e+000
 0.000000e+000 0.000000e+000 0.000000e+000 7.000000e-001 3.000000e-001
 0.000000e+000 0.000000e+000 0.000000e+000 0.000000e+000 0.000000e+000
<ENDHMM>
~h "asu"
<BEGINHMM>
<NUMSTATES> 5
<STATE> 2
<MEAN> 39
 -7.882905e+000 -1.661237e+000 -1.009175e+000 -1.930420e+000 -2.801747e+000 -3.939636e-003 -3.489320e+000 -1.310613e+000 -5.399727e+000 -2.127840e+000 -2.349427e+000 -1.760942e+000 6.651322e+001 1.906061e-003 2.553094e-003 -2.478170e-003 2.536010e-003 -3.520633e-003 1.180791e-003 -5.806248e-004 -5.902871e-004 3.335247e-003 -2.220214e-003 2.771502e-003 -1.647123e-003 -4.431646e-004 -4.907154e-004 -6.222882e-004 -6.703453e-005 -5.706038e-004 3.706980e-004 -5.489043e-005 1.993648e-004 4.878137e-004 -6.845043e-004 -2.209887e-004 -3.796394e-004 -8.370532e-005 4.365041e-005
<VARIANCE> 39
 4.468856e+001 2.722493e+001 5.694174e+001 3.599084e+001 4.988737e+001 6.616839e+001 4.487501e+001 5.082950e+001 3.725814e+001 3.385480e+001 2.889206e+001 2.595412e+001 6.486427e+001 8.580743e-001 8.385667e-001 9.490095e-001 1.190030e+000 1.481777e+000 1.981318e+000 1.865880e+000 1.677058e+000 1.529434e+000 1.500626e+000 1.469353e+000 1.211877e+000 7.540944e-001 1.398091e-001 1.412655e-001 1.521007e-001 2.126537e-001 2.675580e-001 3.571711e-001 3.634781e-001 3.197851e-001 2.929659e-001 2.938584e-001 2.746612e-001 2.335793e-001 1.144504e-001
<GCONST> 1.040862e+002
<STATE> 3
<MEAN> 39
 -7.882905e+000 -1.661237e+000 -1.009175e+000 -1.930420e+000 -2.801747e+000 -3.939636e-003 -3.489320e+000 -1.310613e+000 -5.399727e+000 -2.127840e+000 -2.349427e+000 -1.760942e+000 6.651322e+001 1.906061e-003 2.553094e-003 -2.478170e-003 2.536010e-003 -3.520633e-003 1.180791e-003 -5.806248e-004 -5.902871e-004 3.335247e-003 -2.220214e-003 2.771502e-003 -1.647123e-003 -4.431646e-004 -4.907154e-004 -6.222882e-004 -6.703453e-005 -5.706038e-004 3.706980e-004 -5.489043e-005 1.993648e-004 4.878137e-004 -6.845043e-004 -2.209887e-004 -3.796394e-004 -8.370532e-005 4.365041e-005
<VARIANCE> 39
 4.468856e+001 2.722493e+001 5.694174e+001 3.599084e+001 4.988737e+001 6.616839e+001 4.487501e+001 5.082950e+001 3.725814e+001 3.385480e+001 2.889206e+001 2.595412e+001 6.486427e+001 8.580743e-001 8.385667e-001 9.490095e-001 1.190030e+000 1.481777e+000 1.981318e+000 1.865880e+000 1.677058e+000 1.529434e+000 1.500626e+000 1.469353e+000 1.211877e+000 7.540944e-001 1.398091e-001 1.412655e-001 1.521007e-001 2.126537e-001 2.675580e-001 3.571711e-001 3.634781e-001 3.197851e-001 2.929659e-001 2.938584e-001 2.746612e-001 2.335793e-001 1.144504e-001
<GCONST> 1.040862e+002
<STATE> 4
<MEAN> 39
 -7.882905e+000 -1.661237e+000 -1.009175e+000 -1.930420e+000 -2.801747e+000 -3.939636e-003 -3.489320e+000 -1.310613e+000 -5.399727e+000 -2.127840e+000 -2.349427e+000 -1.760942e+000 6.651322e+001 1.906061e-003 2.553094e-003 -2.478170e-003 2.536010e-003 -3.520633e-003 1.180791e-003 -5.806248e-004 -5.902871e-004 3.335247e-003 -2.220214e-003 2.771502e-003 -1.647123e-003 -4.431646e-004 -4.907154e-004 -6.222882e-004 -6.703453e-005 -5.706038e-004 3.706980e-004 -5.489043e-005 1.993648e-004 4.878137e-004 -6.845043e-004 -2.209887e-004 -3.796394e-004 -8.370532e-005 4.365041e-005
<VARIANCE> 39
 4.468856e+001 2.722493e+001 5.694174e+001 3.599084e+001 4.988737e+001 6.616839e+001 4.487501e+001 5.082950e+001 3.725814e+001 3.385480e+001 2.889206e+001 2.595412e+001 6.486427e+001 8.580743e-001 8.385667e-001 9.490095e-001 1.190030e+000 1.481777e+000 1.981318e+000 1.865880e+000 1.677058e+000 1.529434e+000 1.500626e+000 1.469353e+000 1.211877e+000 7.540944e-001 1.398091e-001 1.412655e-001 1.521007e-001 2.126537e-001 2.675580e-001 3.571711e-001 3.634781e-001 3.197851e-001 2.929659e-001 2.938584e-001 2.746612e-001 2.335793e-001 1.144504e-001
<GCONST> 1.040862e+002
<TRANSP> 5
 0.000000e+000 1.000000e+000 0.000000e+000 0.000000e+000 0.000000e+000
 0.000000e+000 6.000000e-001 4.000000e-001 0.000000e+000 0.000000e+000
 0.000000e+000 0.000000e+000 6.000000e-001 4.000000e-001 0.000000e+000
 0.000000e+000 0.000000e+000 0.000000e+000 7.000000e-001 3.000000e-001
 0.000000e+000 0.000000e+000 0.000000e+000 0.000000e+000 0.000000e+000
<ENDHMM>
~h "as"
<BEGINHMM>
<NUMSTATES> 5
<STATE> 2
<MEAN> 39
 -7.882905e+000 -1.661237e+000 -1.009175e+000 -1.930420e+000 -2.801747e+000 -3.939636e-003 -3.489320e+000 -1.310613e+000 -5.399727e+000 -2.127840e+000 -2.349427e+000 -1.760942e+000 6.651322e+001 1.906061e-003 2.553094e-003 -2.478170e-003 2.536010e-003 -3.520633e-003 1.180791e-003 -5.806248e-004 -5.902871e-004 3.335247e-003 -2.220214e-003 2.771502e-003 -1.647123e-003 -4.431646e-004 -4.907154e-004 -6.222882e-004 -6.703453e-005 -5.706038e-004 3.706980e-004 -5.489043e-005 1.993648e-004 4.878137e-004 -6.845043e-004 -2.209887e-004 -3.796394e-004 -8.370532e-005 4.365041e-005
<VARIANCE> 39
 4.468856e+001 2.722493e+001 5.694174e+001 3.599084e+001 4.988737e+001 6.616839e+001 4.487501e+001 5.082950e+001 3.725814e+001 3.385480e+001 2.889206e+001 2.595412e+001 6.486427e+001 8.580743e-001 8.385667e-001 9.490095e-001 1.190030e+000 1.481777e+000 1.981318e+000 1.865880e+000 1.677058e+000 1.529434e+000 1.500626e+000 1.469353e+000 1.211877e+000 7.540944e-001 1.398091e-001 1.412655e-001 1.521007e-001 2.126537e-001 2.675580e-001 3.571711e-001 3.634781e-001 3.197851e-001 2.929659e-001 2.938584e-001 2.746612e-001 2.335793e-001 1.144504e-001
<GCONST> 1.040862e+002
<STATE> 3
<MEAN> 39
 -7.882905e+000 -1.661237e+000 -1.009175e+000 -1.930420e+000 -2.801747e+000 -3.939636e-003 -3.489320e+000 -1.310613e+000 -5.399727e+000 -2.127840e+000 -2.349427e+000 -1.760942e+000 6.651322e+001 1.906061e-003 2.553094e-003 -2.478170e-003 2.536010e-003 -3.520633e-003 1.180791e-003 -5.806248e-004 -5.902871e-004 3.335247e-003 -2.220214e-003 2.771502e-003 -1.647123e-003 -4.431646e-004 -4.907154e-004 -6.222882e-004 -6.703453e-005 -5.706038e-004 3.706980e-004 -5.489043e-005 1.993648e-004 4.878137e-004 -6.845043e-004 -2.209887e-004 -3.796394e-004 -8.370532e-005 4.365041e-005
<VARIANCE> 39
 4.468856e+001 2.722493e+001 5.694174e+001 3.599084e+001 4.988737e+001 6.616839e+001 4.487501e+001 5.082950e+001 3.725814e+001 3.385480e+001 2.889206e+001 2.595412e+001 6.486427e+001 8.580743e-001 8.385667e-001 9.490095e-001 1.190030e+000 1.481777e+000 1.981318e+000 1.865880e+000 1.677058e+000 1.529434e+000 1.500626e+000 1.469353e+000 1.211877e+000 7.540944e-001 1.398091e-001 1.412655e-001 1.521007e-001 2.126537e-001 2.675580e-001 3.571711e-001 3.634781e-001 3.197851e-001 2.929659e-001 2.938584e-001 2.746612e-001 2.335793e-001 1.144504e-001
<GCONST> 1.040862e+002
<STATE> 4
<MEAN> 39
 -7.882905e+000 -1.661237e+000 -1.009175e+000 -1.930420e+000 -2.801747e+000 -3.939636e-003 -3.489320e+000 -1.310613e+000 -5.399727e+000 -2.127840e+000 -2.349427e+000 -1.760942e+000 6.651322e+001 1.906061e-003 2.553094e-003 -2.478170e-003 2.536010e-003 -3.520633e-003 1.180791e-003 -5.806248e-004 -5.902871e-004 3.335247e-003 -2.220214e-003 2.771502e-003 -1.647123e-003 -4.431646e-004 -4.907154e-004 -6.222882e-004 -6.703453e-005 -5.706038e-004 3.706980e-004 -5.489043e-005 1.993648e-004 4.878137e-004 -6.845043e-004 -2.209887e-004 -3.796394e-004 -8.370532e-005 4.365041e-005
<VARIANCE> 39
 4.468856e+001 2.722493e+001 5.694174e+001 3.599084e+001 4.988737e+001 6.616839e+001 4.487501e+001 5.082950e+001 3.725814e+001 3.385480e+001 2.889206e+001 2.595412e+001 6.486427e+001 8.580743e-001 8.385667e-001 9.490095e-001 1.190030e+000 1.481777e+000 1.981318e+000 1.865880e+000 1.677058e+000 1.529434e+000 1.500626e+000 1.469353e+000 1.211877e+000 7.540944e-001 1.398091e-001 1.412655e-001 1.521007e-001 2.126537e-001 2.675580e-001 3.571711e-001 3.634781e-001 3.197851e-001 2.929659e-001 2.938584e-001 2.746612e-001 2.335793e-001 1.144504e-001
<GCONST> 1.040862e+002
<TRANSP> 5
 0.000000e+000 1.000000e+000 0.000000e+000 0.000000e+000 0.000000e+000
 0.000000e+000 6.000000e-001 4.000000e-001 0.000000e+000 0.000000e+000
 0.000000e+000 0.000000e+000 6.000000e-001 4.000000e-001 0.000000e+000
 0.000000e+000 0.000000e+000 0.000000e+000 7.000000e-001 3.000000e-001
 0.000000e+000 0.000000e+000 0.000000e+000 0.000000e+000 0.000000e+000
<ENDHMM>
~h "sil"
<BEGINHMM>
<NUMSTATES> 5
<STATE> 2
<MEAN> 39
 -7.882905e+000 -1.661237e+000 -1.009175e+000 -1.930420e+000 -2.801747e+000 -3.939636e-003 -3.489320e+000 -1.310613e+000 -5.399727e+000 -2.127840e+000 -2.349427e+000 -1.760942e+000 6.651322e+001 1.906061e-003 2.553094e-003 -2.478170e-003 2.536010e-003 -3.520633e-003 1.180791e-003 -5.806248e-004 -5.902871e-004 3.335247e-003 -2.220214e-003 2.771502e-003 -1.647123e-003 -4.431646e-004 -4.907154e-004 -6.222882e-004 -6.703453e-005 -5.706038e-004 3.706980e-004 -5.489043e-005 1.993648e-004 4.878137e-004 -6.845043e-004 -2.209887e-004 -3.796394e-004 -8.370532e-005 4.365041e-005
<VARIANCE> 39
 4.468856e+001 2.722493e+001 5.694174e+001 3.599084e+001 4.988737e+001 6.616839e+001 4.487501e+001 5.082950e+001 3.725814e+001 3.385480e+001 2.889206e+001 2.595412e+001 6.486427e+001 8.580743e-001 8.385667e-001 9.490095e-001 1.190030e+000 1.481777e+000 1.981318e+000 1.865880e+000 1.677058e+000 1.529434e+000 1.500626e+000 1.469353e+000 1.211877e+000 7.540944e-001 1.398091e-001 1.412655e-001 1.521007e-001 2.126537e-001 2.675580e-001 3.571711e-001 3.634781e-001 3.197851e-001 2.929659e-001 2.938584e-001 2.746612e-001 2.335793e-001 1.144504e-001
<GCONST> 1.040862e+002
<STATE> 3
<MEAN> 39
 -7.882905e+000 -1.661237e+000 -1.009175e+000 -1.930420e+000 -2.801747e+000 -3.939636e-003 -3.489320e+000 -1.310613e+000 -5.399727e+000 -2.127840e+000 -2.349427e+000 -1.760942e+000 6.651322e+001 1.906061e-003 2.553094e-003 -2.478170e-003 2.536010e-003 -3.520633e-003 1.180791e-003 -5.806248e-004 -5.902871e-004 3.335247e-003 -2.220214e-003 2.771502e-003 -1.647123e-003 -4.431646e-004 -4.907154e-004 -6.222882e-004 -6.703453e-005 -5.706038e-004 3.706980e-004 -5.489043e-005 1.993648e-004 4.878137e-004 -6.845043e-004 -2.209887e-004 -3.796394e-004 -8.370532e-005 4.365041e-005
<VARIANCE> 39
 4.468856e+001 2.722493e+001 5.694174e+001 3.599084e+001 4.988737e+001 6.616839e+001 4.487501e+001 5.082950e+001 3.725814e+001 3.385480e+001 2.889206e+001 2.595412e+001 6.486427e+001 8.580743e-001 8.385667e-001 9.490095e-001 1.190030e+000 1.481777e+000 1.981318e+000 1.865880e+000 1.677058e+000 1.529434e+000 1.500626e+000 1.469353e+000 1.211877e+000 7.540944e-001 1.398091e-001 1.412655e-001 1.521007e-001 2.126537e-001 2.675580e-001 3.571711e-001 3.634781e-001 3.197851e-001 2.929659e-001 2.938584e-001 2.746612e-001 2.335793e-001 1.144504e-001
<GCONST> 1.040862e+002
<STATE> 4
<MEAN> 39
 -7.882905e+000 -1.661237e+000 -1.009175e+000 -1.930420e+000 -2.801747e+000 -3.939636e-003 -3.489320e+000 -1.310613e+000 -5.399727e+000 -2.127840e+000 -2.349427e+000 -1.760942e+000 6.651322e+001 1.906061e-003 2.553094e-003 -2.478170e-003 2.536010e-003 -3.520633e-003 1.180791e-003 -5.806248e-004 -5.902871e-004 3.335247e-003 -2.220214e-003 2.771502e-003 -1.647123e-003 -4.431646e-004 -4.907154e-004 -6.222882e-004 -6.703453e-005 -5.706038e-004 3.706980e-004 -5.489043e-005 1.993648e-004 4.878137e-004 -6.845043e-004 -2.209887e-004 -3.796394e-004 -8.370532e-005 4.365041e-005
<VARIANCE> 39
 4.468856e+001 2.722493e+001 5.694174e+001 3.599084e+001 4.988737e+001 6.616839e+001 4.487501e+001 5.082950e+001 3.725814e+001 3.385480e+001 2.889206e+001 2.595412e+001 6.486427e+001 8.580743e-001 8.385667e-001 9.490095e-001 1.190030e+000 1.481777e+000 1.981318e+000 1.865880e+000 1.677058e+000 1.529434e+000 1.500626e+000 1.469353e+000 1.211877e+000 7.540944e-001 1.398091e-001 1.412655e-001 1.521007e-001 2.126537e-001 2.675580e-001 3.571711e-001 3.634781e-001 3.197851e-001 2.929659e-001 2.938584e-001 2.746612e-001 2.335793e-001 1.144504e-001
<GCONST> 1.040862e+002
<TRANSP> 5
 0.000000e+000 1.000000e+000 0.000000e+000 0.000000e+000 0.000000e+000
 0.000000e+000 6.000000e-001 4.000000e-001 0.000000e+000 0.000000e+000
 0.000000e+000 0.000000e+000 6.000000e-001 4.000000e-001 0.000000e+000
 0.000000e+000 0.000000e+000 0.000000e+000 7.000000e-001 3.000000e-001
 0.000000e+000 0.000000e+000 0.000000e+000 0.000000e+000 0.000000e+000
<ENDHMM>
